SVM-light Version V5.01-TK-1.4.3_smoothing
5 # kernel type
3 # kernel parameter -d 
1 # kernel parameter -g 
1 # kernel parameter -s 
1 # kernel parameter -r 
empty# kernel parameter -u 
0.4 # kernel parameter -L 
1 # kernel parameter -T 
T # kernel parameter -C 
1 # kernel parameter -F 
1 # kernel parameter -S 
0.400000 # kernel parameter -M 
3 # kernel parameter -N 
S # kernel parameter -V 
S # kernel parameter -W 
 # kernel parameter -G 
1.000000 # similarity threshold -H 
1.000000 # terminal factor -X 
empty # matrix path -P 
empty # cache path -Z 
1000000 # cache size -A 
10000000 # cache max size -B 
0.500000 # refresh factor -D 
10 # highest feature index 
4000 # number of training documents 
1786 # number of support vectors plus 1 
-3.5853167 # threshold b, each following line is a SV (starting with alpha*y)
-1  |BT| (ROOT (S (NP (PRP (we)))(VP (VBP (be)))(NP (PDT (all))(DT (the))(NNS (victim)))(PP (IN (of)))(NP (JJ (bad))(NNS (decision)))(NP (DT (these))(NNS (day)))(INTJ (UH (no))))) |ET| 
-1  |BT| (ROOT (S (ADVP (WRB (how)))(NP (DT (the))(NN (hell)))(VP (VBZ (be)))(NP (DT (a))(JJ (quesidilla)))(ADVP (JJR (more)))(PP (IN (than)))(NP (DT (a))(NN (burrito))))(S (NP (DT (that)))(VP (VBZ (be)))(NP (NN (b))))) |ET| 
-1  |BT| (ROOT (S (NP (WDT (what))(NN (type)))(PP (IN (of)))(NP (NN (ship)))(ADVP (RB (never)))(VP (VBZ (sink))))(S (ADVP (WRB (why)))(NP (DT (a))(NN (friendship)))(PP (IN (of)))(NP (NN (course))))) |ET| 
-1  |BT| (ROOT (S (NP (VB (work)))(PP (IN (from)))(NP (JJ (10am)))(NP (JJ (6pm))(NN (text)))(NP (DT (the))(NN (cell))))) |ET| 
-1  |BT| (ROOT (S (VP (VBN (callin)))(NP (PRP (it)))(NP (DT (a))(JJ (early))(NN (night)))(VP (VBG (go)))(PP (TO (to)))(NP (NN (bed))))(S (VP (VBP (have)))(NP (DT (a))(JJ (great))(NN (day)))(PP (JJ (2marrow)))(NP (NN (everyone))))) |ET| 
1  |BT| (ROOT (S (VP (VB (shut)))(PRT (RP (up))(CC (and))(VB (put)))(NP (PRP$ (you))(NN (money)))(ADVP (WRB (where)))(NP (PRP$ (you))(NN (mouth)))(VP (VBZ (be))))(S (VP (VBP (do))(RB (not))(VB (be)))(NP (DT (a))(NN (baby)))(VP (VB (remember)))(NP (WP (what)))(NP (PRP (you)))(VP (VBD (tell)))(NP (PRP (i))))) |ET| 
1  |BT| (ROOT (S (VP (VBG (talk)))(NP (RB (much))(IN (about)))(NP (PRP (oneself)))(VP (MD (can))(RB (also))(VB (be)))(NP (DT (a))(NN (means)))(VP (TO (to))(VB (conceal)))(PP (PRP (oneself))))) |ET| 
1  |BT| (ROOT (S (NP (PRP (i)))(ADVP (RB (still)))(VP (VBP (think)))(NP (FW (i)))(VP (VB (have)))(NP (NN (school))(NN (tommorow))))) |ET| 
1  |BT| (ROOT (S (VP (VBG (listen)))(PP (TO (to)))(NP (DT (the))(JJ (awkward))(NN (conversation))(VBZ (downstair)))(PP (IN (about)))(NP (VBG (fiddle)))(PP (IN (with)))(NP (DT (a))(NN (fiddle))))) |ET| 
1  |BT| (ROOT (S (NP (DT (a))(NN (moment)))(PP (IN (like)))(NP (DT (this))))) |ET| 
-1  |BT| (ROOT (S (NP (PRP (i)))(VP (VBP (be))(RB (so))(VBN (confue)))(PP (IN (with)))(NP (DT (the))(NNP (a.p))(NN (world))(NN (history))(NN (essay))))) |ET| 
-1  |BT| (ROOT (S (VP (VBD (do))(RB (not))(VB (expect))(TO (to))(VB (end)))(PRT (RP (up)))(PP (IN (in)))(NP (JJ (first))(NN (aid))))) |ET| 
-1  |BT| (ROOT (S (ADVP (RB (well)))(VP (VB (thank)))(NP (NN (god)))(VP (VBP (do))(RB (not))(VB (need))(TO (to))(VB (give)))(NP (DT (a))(NN (shit)))(PP (IN (about)))(NP (DT (the))(JJ (speluncean))(NNS (explorer)))(ADVP (RB (anymore))))) |ET| 
1  |BT| (ROOT (S (VP (`` ("))(NNP (stay)))(NP (VB (erect))))(S (VP (VB (pinakamalupit)))(NP (TO (na))(NN (phrase)))(PP (IN (of)))(NP (DT (the))(NNP (pasicatchan))(NNP (night))))(S (NP (NNP (=}))(CD (-rrb-))))) |ET| 
1  |BT| (ROOT (S (NP (JJ (8th))(NN (month))(VBP (wow))))(S (NP (NN (i))))(S (NP (PRP (she))))) |ET| 
1  |BT| (ROOT (S (NP (NN (subway)))(ADVP (RB (then))(RBR (more))(VBG (study)))(PP (IN (for)))(NP (NN (bio))(JJ (final))(NN (egh))))) |ET| 
-1  |BT| (ROOT (S (NP (FW (i))(JJ (lovee))(JJ (gabby))))(S (NP (PRP (she)))(VP (VBZ (be)))(ADJP (RB (soo))(JJ (amazing))))) |ET| 
-1  |BT| (ROOT (S (ADVP (RB (sometimes)))(NP (PRP (you)))(VP (VBP (have))(TO (to))(VB (deal)))(PP (IN (with)))(NP (WP (what)))(NP (PRP (you)))(VP (VBP (want))(RB (not))(RB (necessarily))(VBG (be)))(NP (WP (what)))(NP (PRP (you)))(VP (VBP (need))))) |ET| 
-1  |BT| (ROOT (S (PP (VB (don)))(NP (`` (`))(NNP (t)))(VP (VBP (want))(TO (to))(VB (talk.all)))(NP (FW (i)))(VP (VB (hear)))(VP (VBZ (be)))(NP (NN (noise))))) |ET| 
1  |BT| (ROOT (S (NP (NNS (laker)))(VP (VBD (lose)))(NP (NN (tonight)))(NP (POS ('s))(NN (battle)))(CONJP (CC (but))(RB (not)))(NP (DT (the))(NN (war))))) |ET| 
1  |BT| (ROOT (S (VP (VBZ (be)))(ADVP (NN (almighty))))) |ET| 
1  |BT| (ROOT (S (VP (NNP (shopping)))(NP (VBZ (be))(DT (the))(JJ (new))(NN (thing)))(VP (TO (to))(NNP (do))))(S (VP (NNP (love)))(NP (PRP (you))(NNP (d))(CC (and))(NNP (nick))))) |ET| 
-1  |BT| (ROOT (S (NP (FW (i)))(VP (VBD (fight)))(NP (DT (the))(NN (law)))(NP (DT (the))(NN (law)))(VP (VBD (win))))) |ET| 
-1  |BT| (ROOT (S (NP (NN (nothing)))(PP (IN (at)))(NP (DT (all))(NN (im))(VBZ (speechless))))) |ET| 
-1  |BT| (ROOT (S (VP (NNP (love)))(NP (VBD (doesnt))(VBN (hurt)))(NP (NN (love)))(VP (VBZ (complete)))(NP (WP (what)))(NP (PRP (it)))(VP (VBZ (have))(VBN (start))))) |ET| 
1  |BT| (ROOT (S (NP (-LRB- (-lrb-))(CD (8))(-RRB- (-rrb-))(NNP (cos)))(NP (PRP (you)))(VP (VBP (be)))(ADJP (JJ (amazing)))(NP (RB (just))(DT (the))(NN (way)))(NP (PRP (you)))(VP (VBP (be)))(NP (CD (8))))) |ET| 
1  |BT| (ROOT (S (VP (VBZ (think)))(NP (PRP$ (its))(JJ (good))(CD (2)))(VP (VBP (have)))(NP (PRP$ (he))(JJ (old))(NN (job)))(ADVP (RB (back))))) |ET| 
1  |BT| (ROOT (S (NP (PRP (we)))(VP (VBP (need)))(NP (JJR (more))(NNS (people)))(PP (IN (like)))(NP (NN (lowkey)))(NP (PRP (you)))(VP (VBP (know))(VBN (makin)))(NP (DT (a))(NN (stand)))(PP (IN (for)))(NP (JJ (whats)))(ADVP (JJ (right))))) |ET| 
-1  |BT| (ROOT (S (NP (MD (can))(RB (not)))(VP (VB (wait)))(PP (IN (for)))(NP (PRP$ (my))(NN (naya)))(VP (TO (to))(VB (meet)))(NP (JJ (tamzens))(NN (sumaium))))(S (VP (RB (either)))(NP (VBD (tonite))(CC (or))(NNP (thursday))))) |ET| 
-1  |BT| (ROOT (S (VP (VB (speak)))(ADVP (RB (only)))(ADVP (WRB (when)))(NP (PRP (you)))(NP (NNP (feel))(NN (yourr))(NNS (word)))(VP (VBP (be)))(ADJP (JJR (better)))(PP (IN (than)))(NP (DT (the))(NNP (silence))))) |ET| 
-1  |BT| (ROOT (S (NP (NNP (longest))(NN (day)))(ADVP (RB (ever))))(S (VP (VBG (go))(TO (to))(VB (try))(VBG (write)))(NP (DT (a))(NN (bit)))(ADVP (RB (then)))(VP (VBG (head)))(PP (TO (to)))(NP (NN (bed))))(S (NP (NNP (night))(RB (all))))) |ET| 
1  |BT| (ROOT (S (NP (NN (dinner)))(PP (IN (with)))(NP (DT (the))(NNS (girl))))(S (ADVP (RB (always)))(ADJP (JJ (exciting))))) |ET| 
1  |BT| (ROOT (S (NP (NN (ty)))(VP (FW (i))(VBP (wan))(TO (na))(VB (go))(NN (swimming)))(NP (NN (today))))(S (VP (VBP (need))(TO (to))(VB (find)))(NP (DT (a))(NN (pool))))(S (NP (RB (:{))(PRP (i)))(VP (VBP (dont))(VBN (fit)))(PP (IN (in)))(NP (NNP (ty)))(NP (POS ('s))(NN (pool)))(VP (NN (haha))))) |ET| 
1  |BT| (ROOT (S (VP (VBD (go)))(PP (TO (to)))(NP (VB (see)))(NP (DT (the))(NN (pre-screening)))(PP (IN (of)))(NP (NN (tron)))(NP (JJ (last))(NN (night))))(S (NP (PRP (it)))(VP (VBD (be)))(ADJP (RB (pretty))(JJ (good))))) |ET| 
-1  |BT| (ROOT (S (NP (JJ (just))(NNS (g0t)))(PP (VBD (0ut)))(NP (DT (the))(NNS (sh0wer))))(S (NP (JJ (n0w))(NNS (chiilliian)))(PP (VBP (wiith)))(NP (PRP$ (my))(NNP (love))(NNP (antoiinette))))) |ET| 
-1  |BT| (ROOT (S (NP (RB (only))(CD (365))(NN (day)))(VP (VBD (leave))))(S (NP (PRP (i)))(VP (MD (will))(VB (be)))(PP (IN (with)))(NP (JJ (u)))(NP (DT (all))))) |ET| 
-1  |BT| (ROOT (S (NP (PRP (i)))(VP (VBP (realize)))(NP (PRP (it)))(VP (VBZ (be)))(ADVP (RB (only)))(PP (IN (in)))(NP (PRP (myself)))(NP (IN (that)))(NP (FW (i)))(VP (VB (find)))(NP (JJ (real))(NN (love)))(NP (JJ (real))(NN (truth))))) |ET| 
1  |BT| (ROOT (S (NP (VB (praise)))(VP (VB (confuse)))(NP (DT (the))(NN (enemy))))) |ET| 
1  |BT| (ROOT (S (VP (VBP (do)))(VP (VB (know)))(ADVP (WRB (how)))(NP (PRP (it)))(VP (VBZ (be)))(NP (PRP (you)))(VP (VBN (look)))(PP (IN (at)))(NP (PRP (i))))(S (VP (VBD (see)))(NP (DT (the))(NN (person)))(SBAR (IN (that)))(NP (FW (i)))(VP (MD (could))(VB (be))))(S (PP (IN (like)))(NP (NN (mercy)))(VP (VBG (ragee))(TO (to))(VB (save)))(NP (PRP (i)))(NP (DT (all))(DT (that))(FW (i))(NN (need)))(VP (VBZ (be)))(NP (PRP (you)))(ADJP (RB (so))(JJ (beautiful))(JJ (beautiful))))(S (NP (FW (i))(NN (cant)))(VP (VBP (explain)))(ADVP (WRB (how)))(NP (PRP$ (you))(VBG (change)))(NP (PRP$ (my))(NN (life))))) |ET| 
1  |BT| (ROOT (S (NP (NNP (kayln)))(VP (VBD (find)))(NP (NN (baby))(NNS (gerbil)))(PP (IN (in)))(NP (PRP$ (she))(JJ (gerbil))(NN (cage)))(NP (DT (this))(NN (afternoon)))(VP (VB (try)))(NP (CD (seven)))(PP (IN (of)))(NP (PRP (they))))) |ET| 
-1  |BT| (ROOT (S (NP (VB (shemesh)))(VP (CD ('10)))(NP (WP (what))))) |ET| 
-1  |BT| (ROOT (S (VP (VBD (get))(NN (ta))(VB (love)))(NP (DT (this))(NN (weather))))) |ET| 
-1  |BT| (ROOT (S (NP (DT (the))(NNP (future)))(VP (VBZ (be)))(NP (NNP (lookin))(NNP (so))(NNP (much))(NNP (brighter))))) |ET| 
1  |BT| (ROOT (S (VP (VBZ (be)))(NP (NN (missin))(NNP (nic))))(S (VP (VBP (do)))(VP (VB (have)))(NP (NN (anything)))(VP (TO (to))(VB (do)))(NP (JJ (2day))))(S (NP (VB (text)))(VP (PRP (i)))(ADVP (RB (ppl))))(S (NP (NNP (luv)))(ADVP (VBP (u))(DT (all))))(S (NP (PRP (i)))(VP (VBP (luv)))(NP (NNP (u))(NNP (nic))))) |ET| 
1  |BT| (ROOT (S (ADVP (RB (seriously)))(NP (WP (what)))(VP (VBZ (be)))(PP (IN (with)))(NP (DT (the))(NN (crap))(NN (tv))))(S (NP (WP (who)))(ADVP (RB (even)))(VP (VBZ (like)))(NP (WP (who))(NNP (framed))(NNP (roger))(NNP (rabbit))))) |ET| 
1  |BT| (ROOT (S (NP (`` ("))(NNP (constellations))(NN (glow)))(NP (PRP$ (they))(NN (shine)))(VP (MD (can))(RB (not))(VB (compare)))(PP (TO (to)))(NP (PRP$ (you))(JJ (inner))(NN (star))))(S (NP (NNP (rhonda))(NNP (stapletor))))) |ET| 
-1  |BT| (ROOT (S (SBAR (IN (if)))(NP (PRP (i)))(VP (MD (can))(RB (not))(VB (tell)))(NP (WP (who)))(NP (VBZ (be))(JJ (gay)))(ADVP (WRB (how)))(NP (PRP (i)))(VP (VBP (know)))(NP (WP (who)))(VP (TO (to))(VB (judge))))) |ET| 
-1  |BT| (ROOT (S (NP (NN (today)))(NP (PRP (i)))(VP (VBP (pray)))(PP (IN (for))))(S (NP (PRP (i)))(VP (VBP (do))(RB (not))(VB (know)))(NP (NN (acceptance))))(S (ADVP (RB (maybe)))(NP (RB (normality))))(S (NP (PRP (i)))(VP (VBP (do))(RB (not))(VB (wan))(TO (na))(VB (feel)))(ADVP (RB (so))(JJ (off)))(ADJP (JJ (unstable)))(NP (PDT (all))(DT (the))(NN (time))))(S (ADVP (RB (not))(RB (just)))(ADJP (RB (emotionally))(JJ (stable)))(PP (IN (in)))(NP (DT (all))(NNS (aspect))))) |ET| 
-1  |BT| (ROOT (S (VP (VB (go)))(PP (IN (on)))(NP (DT (a))(NN (roller))(NN (coster)))(PP (IN (for)))(NP (DT (the))(JJ (first))(NN (time)))(ADVP (RB (ever)))(NP (NN (today))))(S (NP (JJ (scariest))(NN (thing)))(VP (VBP (ive))(RB (ever))(VBN (do))))(S (NP (PRP (it)))(VP (VBD (be)))(ADVP (NN (alot)))(PP (IN (of)))(NP (NN (fun))))) |ET| 
1  |BT| (ROOT (S (NP (NNP (vee))(NNP (dah))(NNP (ca)))(NP ('' ('))(SYM (z))(NN (defender)))(PP (NN (ov)))(NP (`` ("))(DT (the))(NN (corrupt))('' ("))))) |ET| 
1  |BT| (ROOT (S (NP (DT (the))(NNP (south)))(VP (VBZ (be)))(NP (DT (the))(JJ (phanny))(NN (pack)))(PP (IN (of)))(NP (DT (the))(NNP (unnited))(NNPS (states))))) |ET| 
1  |BT| (ROOT (S (VP (MD (will))(VB (be)))(NP (NN (home)))(NP (NN (today)))(PP (IN (by)))(NP (CD (12))(NNS (:}))))) |ET| 
-1  |BT| (ROOT (S (NP (VB (lol)))(VP (VBG (watchingg)))(NP (DT (the))(NN (roast)))(PP (IN (of)))(NP (JJ (donald))(NN (trumph))))) |ET| 
-1  |BT| (ROOT (S (NP (NN (blood)))(PP (IN (on)))(NP (DT (the))(NN (staircase))))) |ET| 
-1  |BT| (ROOT (S (NP (NN (beer)))(PP (IN (with)))(NP (DT (a))(NN (bit)))(PP (IN (of)))(NP (NN (sprite))))) |ET| 
1  |BT| (ROOT (S (NP (PRP (i)))(VP (VBP (need)))(NP (JJ (other))(NNS (people))(NN (opinion))))(S (NP (WP (what)))(SBAR (IN (if)))(NP (PRP (i)))(VP (VBD (get)))(NP (NNS (contact))))) |ET| 
1  |BT| (ROOT (S (NP (PRP (i)))(VP (VB (bleed)))(NP (NN (black))(CC (&))(SYM (&))(NNP (gold))))(S (NP (WP (who))(NNP (dat))(NNP (nation))))) |ET| 
1  |BT| (ROOT (S (NP (PRP (i)))(VP (VBP (hate)))(NP (IN (that))(JJ (awkward))(NN (moment)))(ADVP (WRB (when)))(NP (PRP (you)))(VP (VBP (kick)))(NP (NNP (taylor)))(VP (VB (break)))(NP (PRP$ (you))(NN (toe))))) |ET| 
-1  |BT| (ROOT (S (NP (PRP (it)))(VP (VBZ (be)))(NP (DT (the))(NN (load))(PRP (you))(RB (carry)))(NP (PRP (it)))(VP (VBZ (be)))(NP (DT (the))(NN (way)))(NP (PRP (you)))(UCP (VB (carry)))(NP (PRP (it))))(S (NP (NNP (lena))(NNP (horne))))) |ET| 
-1  |BT| (ROOT (S (NP (PRP (it)))(VP (VBZ (be)))(NP (RB (now)))(VP (VB (joke)))(SBAR (IN (that)))(NP (PRP (i)))(VP (VBP (be)))(ADJP (VBN (bore)))(NP (PRP (i)))(VP (VBP (like))(TO (to))(VB (make)))(NP (NNS (status)))(PP (IN (with)))(NP (JJ (subliminal))(NNS (message))))) |ET| 
-1  |BT| (ROOT (S (NP (NNP (new))(NN (series)))(SBAR (IN (if)))(NP (JJ (big))(NN (bang))(NN (theory)))(VP (VBZ (:})))(NP (NNP (woop))))) |ET| 
1  |BT| (ROOT (S (NP (NN (swore)))(PP (IN (into)))(NP (DT (the))(NNP (air))(NNP (force))(SYM (=))))) |ET| 
1  |BT| (ROOT (S (NP (VBZ (techno)))(PP (IN (on)))(NP (DT (the))(NN (weather))(NN (channel))))) |ET| 
1  |BT| (ROOT (S (NP (NN (chillian)))(PP (IN (with)))(NP (DT (the))(NN (father))))) |ET| 
-1  |BT| (ROOT (S (VP (VB (rock)))(NP (DT (the))(CD (three))(NNS (musketeer))(NN (shirt)))(NP (NN (today))))) |ET| 
-1  |BT| (ROOT (S (NP (NNS (thanks)))(PP (IN (for)))(NP (PDT (all))(DT (the))(NN (birthday))(NNS (message))(NN (everyone))))) |ET| 
-1  |BT| (ROOT (S (NP (JJ (last))(NN (day)))(PP (IN (in)))(NP (NNP (mehico))))(S (ADVP (RB (back)))(PP (IN (across)))(NP (DT (the))(NN (border)))(PP (TO (to)))(NP (NNP (la))(NNP (tomoro))))) |ET| 
1  |BT| (ROOT (S (NP (DT (every))(NN (smile)))(VP (VBZ (be)))(NP (JJ (free))(NN (therapy))))(S (NP (DT (the))(NN (sound)))(PP (IN (of)))(NP (NN (laughter)))(NP (WDT (that)))(VP (VBZ (go)))(PP (IN (like)))(NP (DT (a))(NN (symphany))))) |ET| 
1  |BT| (ROOT (S (VP (VBZ (be)))(VP (VBG (go)))(PP (IN (on)))(NP (DT (a))(NNS (mission))(NN (trip)))(PP (TO (to)))(NP (NN (atlanta))(NN (tomorrow))))(S (ADJP (RB (so))(JJ (excited))))) |ET| 
1  |BT| (ROOT (S (NP (PRP (it)))(VP (VBD (rain)))(PP (IN (on)))(NP (PRP (i))))(S (NP (VBZ (:{)))(VP (VBG (consider))(VBG (watch)))(NP (NNP (august))(NNP (rush))(NN (tonight))))(S (ADVP (RB (maybe)))(NP (DT (a))(NN (bit)))(PP (IN (of)))(NP (JJ (light)))(VP (NN (reading))))) |ET| 
-1  |BT| (ROOT (S (NP (DT (this))(NN (class)))(VP (VBZ (be)))(NP (CD (one))(JJ (big))(NN (joke))))(S (NP (PRP (we)))(VP (VBP (do))(RB (not))(VB (do)))(NP (NN (anything))))) |ET| 
-1  |BT| (ROOT (S (NP (VBZ (be)))(NP (NN (anyone)))(VP (VBG (go)))(PP (TO (to)))(NP (DT (the))(NN (fair))))(S (NP (PRP (i)))(VP (VBP (want))(TO (to))(VB (go)))(PP (IN (for)))(NP (DT (the))(NN (cimmon))(NNS (roll))))) |ET| 
-1  |BT| (ROOT (S (NP (-LRB- (-lrb-))(TO (to))(NN (everyone))(-RRB- (-rrb-)))(NP (WP (what)))(VP (VBZ (be)))(NP (PRP$ (you))(NN (opinion)))(PP (IN (on)))(NP (NN (gambling))))) |ET| 
1  |BT| (ROOT (S (VP (VBG (lay)))(PP (IN (in)))(NP (DT (the))(NN (grass)))(PP (IN (in)))(NP (DT (the))(NN (sun)))(VP (VBG (wonder)))(ADVP (WRB (why)))(NP (DT (the))(NN (snow)))(VP (VBZ (have))(TO (to))(VB (come))))) |ET| 
1  |BT| (ROOT (S (VP (VBZ (be)))(ADVP (NN (home)))(PP (IN (for)))(NP (JJ (thanksgiving))(NN (break))))) |ET| 
1  |BT| (ROOT (S (PP (TO (to)))(NP (JJ (cold))(TO (to))(VB (be))(JJ (outside)))(NP (NN (today))))) |ET| 
-1  |BT| (ROOT (S (VP (NNS (look)))(PP (VBP (like)))(NP (EX (there)))(VP (MD (will))(VB (be)))(NP (DT (some))(JJ (awesome))(NNS (photo)))(PP (IN (from)))(NP (JJ (last))(NN (night))))) |ET| 
-1  |BT| (ROOT (S (VP (VBZ (be)))(PP (IN (at)))(NP (NN (mc))(NNS (donald)))(VP (JJ (hehe)))(PP (IN (with)))(NP (PRP$ (he))(NNS (classmate))))) |ET| 
-1  |BT| (ROOT (S (VP (VBZ (be))(VBG (ride)))(PP (IN (on)))(NP (DT (a))(NN (wave)))(PP (IN (of)))(NP (JJ (good))(NN (emotion))))) |ET| 
1  |BT| (ROOT (S (SBAR (IN (if)))(NP (PRP (you)))(VP (VBP (want))(TO (to))(VB (be)))(NP (JJ (together)))(NP (PRP (you)))(ADVP (VBP (qot)))(NP (NN (to-get-her))))) |ET| 
1  |BT| (ROOT (S (ADJP (JJ (busy))(JJ (busy)))(NP (NN (day)))(NP (NN (tomorrow))))(S (NP (JJ (=]))(NN (eye))(NNS (check-up)))(ADVP (RB (then)))(VP (VBG (pick)))(PRT (RP (out)))(VP (VBG (order)))(NP (PRP$ (my))(NN (corsage)))(PP (IN (for)))(NP (NN (prom)))(NP (JJ (next))(NN (weekend))))) |ET| 
1  |BT| (ROOT (S (NP (NN (nothing)))(VP (VBG (involve)))(NP (PRP (you)))(VP (VBZ (concern)))(NP (PRP (i)))(NP (NN (today))))) |ET| 
-1  |BT| (ROOT (S (NP (PRP (i)))(VP (VBP (want))(TO (to))(VB (be)))(NP (JJ (someones))(NN (godfather))))) |ET| 
-1  |BT| (ROOT (S (NP (PRP (i)))(VP (VBP (be)))(NP (DT (a))(JJ (space-bound))(NN (rocketship)))(NP (PRP$ (you))(NN (heart)))(NP (POS ('s))(DT (the))(NN (moon))))) |ET| 
-1  |BT| (ROOT (S (NP (PRP (you)))(NP (CD (14,136))(NNS (other)))(PP (IN (like)))(NP (DT (this))('' ("))(CD (1))(NN (hour)))(SBAR (RB (ago)))(NP (NNP (soo)))(VP (VBD (sych))))) |ET| 
1  |BT| (ROOT (S (NP (CD (9-3))(NN (!!!!!))))(S (NP (DT (the))(NN (end)))(PP (TO (to)))(NP (DT (a))(JJ (great))(NN (weekend)))(NP (DT (the))(NN (begining)))(PP (IN (of)))(NP (DT (a))(JJ (great))(NN (week))))) |ET| 
1  |BT| (ROOT (S (NP (WP (who)))(VP (VBZ (be))(VBG (hit)))(PRT (RP (up)))(NP (NNP (combichrist)))(NP (NNP (shiv-r)))(NP (DT (this))(NNP (saturday))(NN (night))))) |ET| 
1  |BT| (ROOT (S (NP (NNS (thanks)))(PP (IN (for)))(NP (PDT (all)))(NP (DT (the))(NN (birthday)))(VP (VBZ (wish))))(S (NP (NNS (thanks))(VBP (steph)))(PP (IN (for)))(NP (DT (the))(JJ (great))(NN (birthday))(NN (bbq))))) |ET| 
-1  |BT| (ROOT (S (VP (VBG (wait)))(PP (IN (for)))(NP (DT (the))(NN (day)))(VP (TO (to))(NNS (end.i))(RB (just))(VBP (wan))(TO (na))(VB (lay)))(PRT (RP (down))))(S (ADJP (RB (so))(VBN (tire)))(PP (IN (for)))(NP (DT (some))(NN (reason))))) |ET| 
-1  |BT| (ROOT (S (ADVP (RB (well)))(VP (VBD (play)))(NP (NNP (india))))(S (ADJP (JJ (sad)))(PP (IN (for)))(NP (PRP$ (we))(NN (loss)))(VP (NN (though.still)))(NP (NNP (pakistan))(NNP (zindabaad))))) |ET| 
-1  |BT| (ROOT (S (VP (VB (fuck)))(NP (PRP$ (my))(NN (life))))(S (VP (VB (thank)))(NP (NN (god)))(PP (IN (for)))(NP (JJ (good))(NNS (friend))))) |ET| 
1  |BT| (ROOT (S (VP (VBZ (be))(VBG (die))(TO (to))(VB (go)))(NP (NN (skiing))(NN (<))(CD (3))))) |ET| 
1  |BT| (ROOT (S (VP (VBZ (want))(TO (to))(VB (go))(JJ (skating)))(NP (RB (so))(JJ (bad))))) |ET| 
1  |BT| (ROOT (S (NP (FW (i)))(VP (VBD (get)))(NP (PRP$ (my))(NN (ring)))(VP (VBN (clean)))(NP (PRP$ (its)))(PP (JJ (like)))(NP (JJ (new))(NNS (*)))(PP (VBG (=})))(NP (CD (<))(CD (3))(VBP (love)))(NP (PRP (it))))) |ET| 
-1  |BT| (ROOT (S (VP (VBZ (love)))(PP (TO (to)))(NP (VB (watch))(NN (ice))(NN (dancing))))) |ET| 
-1  |BT| (ROOT (S (VP (VBZ (be)))(PP (IN (about)))(PP (TO (to)))(NP (VB (go)))(PP (TO (to)))(NP (DT (the))(NN (gym)))(VP (VB (work)))(NP (DT (some))(NN (flab)))(PRT (RP (off))))) |ET| 
-1  |BT| (ROOT (S (NP (VB (im)))(ADVP (NN (sooo)))(VP (RB (hapy)))(SBAR (IN (that)))(NP (PRP$ (my))(NNS (account)))(ADVP (VBP (back))))) |ET| 
1  |BT| (ROOT (S (VP (JJ (exhausted)))(PP (IN (from)))(VP (VBG (work)))(ADJP (NNS (4am-10pm)))(PP (IN (with)))(NP (DT (a))(CD (3))(NN (hour))(VBP (break)))(PP (IN (in)))(NP (DT (the))(NN (middle))))(S (NP (PRP (i)))(VP (VBP (think))(RB (even)))(NP (PRP$ (my))(NN (hair)))(VP (VBZ (be)))(ADVP (JJ (sore)))(PP (RB (o)))(NP (-RRB- (-rrb-))))) |ET| 
1  |BT| (ROOT (S (NP (RB (just)))(VP (VBD (get)))(NP (NN (home)))(PP (IN (from)))(VP (NN (hangin)))(PP (IN (with)))(NP (NNP (ma)))(NP (POS ('))(NNS (boy))))(S (NP (NNP (college))(CC (and))(VBP (work)))(NP (NN (tomorrow))))) |ET| 
1  |BT| (ROOT (S (NP (CD (2))(NNS (month)))(ADVP (RB (ago)))(NP (DT (the))(NN (trouble)))(VP (VBD (start))))(S (VP (VBZ (have)))(NP (PRP (it)))(VP (VBN (end)))(PP (IN (by)))(ADVP (RB (now))))(S (NP (RB (only))(NNP (god)))(VP (VBZ (know))))) |ET| 
-1  |BT| (ROOT (S (ADVP (WRB (why)))(VP (VBP (be)))(ADVP (FW (i)))(PP (IN (on)))(NP (DT (this)))(ADVP (RB (so))(JJ (early))))(S (NP (JJ (fresh))(NN (prince)))(VP (VBZ (be)))(ADVP (RB (on)))(ADVP (RB (soon)))(NP (NNP (d))))) |ET| 
-1  |BT| (ROOT (S (NP (PRP (we)))(VP (VB (pretend)))(NP (IN (that))(NNS (airplane)))(PP (IN (in)))(NP (DT (the))(NN (night))(NN (sky)))(VP (VBP (be)))(PP (IN (like)))(NP (VBG (shoot))(NNS (stars.i)))(VP (MD (could))(RB (really))(VB (use)))(NP (DT (a))(VBP (wish))(RB (right)))(ADVP (RB (now)))(VP (VBP (wish)))(ADVP (RB (right))(RB (now)))(VP (VBP (wish)))(ADVP (RB (right))(RB (now))))) |ET| 
-1  |BT| (ROOT (S (NP (WP (who)))(VP (MD (would))(VB (have))(VBN (think)))(PP (RP (over)))(NP (CD (20))(NNS (year)))(ADVP (RB (ago)))(SBAR (IN (that)))(NP (PRP (i)))(VP (MD (would))(VB (love))(VBG (work)))(PP (IN (in)))(NP (DT (a))(NNP (school))))(S (NP (PRP (it)))(VP (VBZ (amaze)))(NP (PRP (i)))(ADVP (WRB (how)))(NP (PRP (i)))(VP (VBP (get)))(PP (IN (out)))(PP (IN (of)))(VP (VBG (help)))(NP (DT (the))(NNS (kid))))) |ET| 
1  |BT| (ROOT (S (VP (VBZ (have))(VBN (manage))(TO (to))(VB (piss)))(NP (NNP (wafi)))(PRT (RP (off)))(PP (IN (as)))(ADJP (JJ (usual))))) |ET| 
1  |BT| (ROOT (S (NP (PRP (i)))(VP (VBP (be)))(ADVP (RB (really)))(PP (IN (in)))(NP (DT (the))(NN (mood)))(VP (TO (to))(VB (watch)))(NP (DT (some))(JJ (old))(NNS (cartoon))))) |ET| 
1  |BT| (ROOT (S (VP (VBG (go))(NN (camping)))(PP (IN (in))))) |ET| 
-1  |BT| (ROOT (S (NP (NNS (thanks)))(VP (VBN (alot)))(PP (IN (for)))(NP (DT (the))(NNS (wish))(JJ (everyonee)))(PP (NNS (:})))(NP (VBP (<))(CD (3))))) |ET| 
-1  |BT| (ROOT (S (NP (NN (math)))(PP (IN (at)))(NP (CD (12:30)))(ADVP (RB (then)))(ADVP (NN (home)))(PP (IN (for)))(NP (DT (the))(NN (weekend))))) |ET| 
-1  |BT| (ROOT (S (NP (WP (what)))(VP (VBZ (be)))(NP (DT (the))(NN (weather)))(PP (IN (like)))(PP (IN (around)))(NP (NNP (bristol))(CC (&))(NNP (bath))))) |ET| 
1  |BT| (ROOT (S (NP (VBN (upset)))(PP (IN (about)))(NP (NNS (thing)))(NP (WDT (that)))(VP (VBP (be)))(ADVP (RB (really)))(NP (PRP$ (my))(NN (business)))(ADVP (WRB (why)))(VP (VBZ (be)))(NP (PRP (it)))(ADJP (RB (so))(JJ (frustrating))))) |ET| 
1  |BT| (ROOT (S (PP (FW (i)))(NP (JJ (didnt)))(VP (VBP (watch)))(NP (DT (the))(NN (game)))(VP (VBD (do))(NN (shannon))(VB (throw)))(PRT (RP (down)))(NP (DT (a))(NN (slam))))) |ET| 
1  |BT| (ROOT (S (PP (VB (like)))(NP (DT (this)))(PP (IN (for)))(NP (DT (a))(NNS (jame)))(VP (VBZ (think))))) |ET| 
-1  |BT| (ROOT (S (NP (PRP (i)))(ADVP (RB (just)))(VP (VBD (buy)))(NP (NN (oblivion))(CC (and))(NN (cant))(VB (wait)))(VP (TO (to))(VB (play)))(NP (PRP (it))))) |ET| 
-1  |BT| (ROOT (S (VP (VBG (go))(TO (to))(VB (go))(VB (eat)))(NP (NNP (yay))))) |ET| 
-1  |BT| (ROOT (S (NP (PRP (i)))(VP (VBP (know)))(NP (FW (i)))(VP (VBP (be))(VBG (talk)))(NP (NNS (lot))(CC (but))(FW (i)))(VP (MD (can))(VB (schedule)))(NP (PRP (you)))(PP (IN (in)))(VP (TO (to))(VB (talk)))(NP (JJ (next))(NN (week))))) |ET| 
1  |BT| (ROOT (S (NP (VBP (im)))(VP (JJ (hungry))(VB (thank)))(NP (NN (god)))(PP (IN (for)))(NP (JJ (throw-in-the-oven))(NN (pizza)))(NP (POS ('s))))) |ET| 
1  |BT| (ROOT (S (NP (VBP (im)))(VP (VBG (gon))(TO (na))(VB (watch)))(NP (NN (legend)))(PP (IN (of)))(NP (DT (the))(NNS (guardian)))(PP (IN (because))(IN (of)))(NP (NNP (tstm))))) |ET| 
1  |BT| (ROOT (S (NP (NNP (puzzle)))(VP (VBZ (be))(VBN (go)))(PP (TO (to)))(NP (VB (work)))(PP (IN (in)))(NP (NNP (monteregie)))(PP (IN (for)))(NP (DT (the))(NN (summer))))(S (NP (PRP (he)))(VP (VBZ (be))(VBG (go))(TO (to))(VB (make)))(NP (RB (so))(JJ (many))(JJ (little))(NNS (kid)))(ADJP (JJ (happy)))(VP (VB (be)))(ADJP (JJ (good)))(NP (PRP$ (my))(JJ (special))(NN (boy))(VBD (<)))(LST (CD (3))))) |ET| 
-1  |BT| (ROOT (S (NP (NNP (human))(NNP (slaves))))(S (PP (IN (in)))(NP (DT (a))(NNP (insect))(NNP (nation))))(S (NP (NN (awwwwwawwwawwwawwww))))) |ET| 
-1  |BT| (ROOT (S (PP (IN (in)))(NP (NN (macon))(NNS (!!!!!!!!!))))(S (NP (PRP$ (my))(NNS (brother)))(NP (CD (18))(NN (birthday))))(S (NP (JJ (woo-hoo))(NNS (!!))))) |ET| 
-1  |BT| (ROOT (S (NP (NNP (ma))(NN (bday)))(VP (VBZ (be)))(PP (IN (in)))(NP (DT (a))(NN (hour.turnin)))(NP (CD (18))(NNP (biznatches))))(S (NP (VBP (^))(CD (3))(NNS (^))))) |ET| 
1  |BT| (ROOT (S (ADVP (RB (really)))(VP (VBP (want)))(NP (DT (a))(NN (mandolin)))(ADVP (RB (now))))(S (ADVP (VBD (:}))(RB (now)))(VP (TO (to))(VB (buy)))(NP (CC (or))(RB (not)))(VP (TO (to))(VB (buy))))) |ET| 
1  |BT| (ROOT (S (NP (PRP (i)))(VP (VBP (need))(TO (to))(VB (go)))(PP (TO (to)))(NP (NN (bed)))(ADVP (RB (now))))) |ET| 
1  |BT| (ROOT (S (ADVP (RB (off)))(PP (TO (to)))(NP (NN (night))(VBP (train))))) |ET| 
-1  |BT| (ROOT (S (VP (VBZ (have)))(NP (NN (nothing)))(PP (TO (to)))(NP (VB (say)))(NP (NN (today))))) |ET| 
-1  |BT| (ROOT (S (NP (PRP (it)))(VP (VBZ (be)))(ADVP (RB (finally)))(NP (NNP (june))))(S (ADVP (VBN (countdown)))(PP (TO (to)))(NP (NNP (eclipse))))) |ET| 
-1  |BT| (ROOT (S (NP (DT (a))(JJ (good))(NN (night)))(NP (JJ (last))(NN (night)))(VP (RB (just))(VBG (try))(TO (to))(VB (get)))(PRT (IN (over)))(NP (DT (this))(JJ (damn))(NN (flu))(NN (shit))))) |ET| 
1  |BT| (ROOT (S (NP (VB (omg))))(S (VP (VBG (wake)))(PRT (RP (up)))(PP (IN (in)))(NP (DT (a))(NN (king))(NN (size))(NN (bed)))(PP (IN (in)))(NP (DT (the))(NNP (presidential))(NN (suite)))(VP (VBZ (feel)))(ADJP (JJ (sooooooooooooo))(JJ (good))))) |ET| 
1  |BT| (ROOT (S (NP (NNP (afton)))(VP (VBD (try))(TO (to))(VB (eat)))(NP (PRP (i)))(VP (NN (bit)))(NP (DT (a))(NN (chunk)))(PP (RP (out)))(PP (IN (of)))(NP (PRP$ (my))(NN (flesh))))(S (NP (NNP (guinea))(NN (pig))(VBD (whore))))) |ET| 
1  |BT| (ROOT (S (NP (`` ("))(CD (one))(NN (thing)))(NP (PRP (i)))(VP (VBP (like)))(PP (RB (about)))(NP (VBZ (stone))))(S (NP (PRP (they)))(VP (VBP (come)))(PP (IN (in)))(NP (PRP$ (my))(NN (waybutonce)))(NP (PRP (i)))(VP (VBP (pass)))(NP (PRP (they)))(NP (PRP (they)))(ADVP (RB (automatically)))(VP (VB (become)))(NP (PRP$ (my))(NNS (milestone))))(S (NP (NNP (direction)))(VP (VBZ (be)))(NP (VBN (imp))(RB (not))(NN (speed))))) |ET| 
-1  |BT| (ROOT (S (NP (NNS (mother)))(VP (VBG (go))(TO (to))(VB (drive)))(NP (PRP (i)))(NP (NNS (banana))))(S (ADVP (RB (up)))(UCP (RB (down)))(NP (DT (the))(NNS (stair)))(NP (DT (all))(NN (day))))(S (NP (FW (i)))(VP (VBP (have))(VBN (get)))(NP (CD (one))(NN (hell)))(PP (IN (of)))(NP (DT (a))(NN (workout))))) |ET| 
-1  |BT| (ROOT (S (NP (DT (some))(VBG (catch)))(PRT (RP (up)))(PP (IN (with)))(NP (DT (some))(NNS (old))(NNS (friend)))(ADVP (NN (tonight))))(S (NP (PRP$ (its))(VBN (be)))(PP (IN (over)))(NP (CD (20))(NNS (year)))(SBAR (IN (since)))(NP (PRP (we)))(VP (VBP (have))(VB (see)))(NP (DT (each))(JJ (other)))(VP (VBD (have)))(NP (DT (a))(JJ (great))(NN (time))))(S (NP (JJ (good))(NNS (time)))(PP (IN (with)))(NP (JJ (old))(NNS (friend)))(VP (VBZ (be)))(NP (DT (the))(JJS (best))))) |ET| 
-1  |BT| (ROOT (S (VP (VBZ (love))(VBG (hang)))(PRT (RP (out)))(PP (IN (with)))(NP (NNP (matthew)))(NP (POS ('s))(NN (family))))(S (NP (NNS (=}))(-LRB- (-lrb-)))(NP (PRP (i)))(VP (VBP (<)))(NP (CD (3))(NNP (matthew))(-RRB- (-rrb-))))) |ET| 
1  |BT| (ROOT (S (VP (VBZ (have)))(NP (DT (a))(NNP (very))(NNP (interesting)))(NP (NNP (frustrating)))(ADVP (NNP (long)))(NP (NNP (crazy))(NNP (day))))) |ET| 
1  |BT| (ROOT (S (VP (VBZ (think)))(NP (NNP (frankie))(NNP (boyle)))(VP (VBZ (be)))(ADJP (JJ (funny))))) |ET| 
0.99828839559550597293480223015649  |BT| (ROOT (S (VP (VBZ (be)))(PP (IN (on)))(NP (NN (facebook)))(PP (IN (with)))(NP (NN (nothing))(CD (2)))(VP (VBP (say))))) |ET| 
-1  |BT| (ROOT (S (NP (DT (the))(RBS (best))(JJ (mind-altering))(NN (drug)))(VP (VBZ (be)))(NP (NN (truth))))) |ET| 
-1  |BT| (ROOT (S (NP (DT (the))(NN (bus)))(VP (VBZ (be)))(ADJP (JJ (bad))))(S (NP (PRP$ (its))(NN (kind)))(PP (IN (of)))(NP (NN (relaxing.it)))(ADVP (RB (just)))(VP (VBZ (take)))(NP (RBR (longer))))) |ET| 
-1  |BT| (ROOT (S (NP (JJ (sick)))(PP (IN (of)))(VP (VBG (read)))(NP (NN (master)))(NP (POS ('s))(NNS (thesis))))) |ET| 
1  |BT| (ROOT (S (VP (VB (join)))(NP (PRP (i)))(PP (IN (for)))(NP (VB (spin)))(NP (NN (today))))(S (PP (VBD (9am)))(NP (NNP (mesquite)))(NP (CD (24))(NNP (hour))))(S (NP (NNP (great))(VBP (ride)))(NP (JJ (great))(NN (gym)))(NP (JJ (great))(NNS (people))))(S (NP (VBP (have))(NN (fun)))(SBAR (IN (while)))(NP (PRP (you))(NN (workout)))(VP (VB (be))(VBN (inspire))))) |ET| 
1  |BT| (ROOT (S (VP (VBZ (be))(VBG (go)))(PP (TO (to)))(NP (DT (the))(NN (beach)))(PP (IN (in)))(NP (DT (a))(NN (while))))(S (SBAR (NNP (wish)))(NP (PRP (you)))(VP (MD (could))(VB (come)))(NP (NNP (babe))))(S (VP (NNP (love)))(NP (PRP (you)))(NP (PRP (i)))(VP (MD ('ll))(VB (talk)))(PP (TO (to)))(NP (PRP (you)))(ADVP (RB (later)))(ADVP (RB (hopefully))))) |ET| 
1  |BT| (ROOT (S (VP (VBZ (appear))(TO (to))(VB (have))(VBN (murder)))(NP (PRP$ (she))(JJ (mobile))(NN (:-{))))(S (NP (SYM (e))(CC (or))(VBZ (f/b)))(NP (PRP (i)))(PP (IN (until)))(NP (DT (the))(NN (resurrection)))(NP (DT (the))(JJ (second))(VBG (come))(-RRB- (-rrb-))))) |ET| 
-1  |BT| (ROOT (S (SBAR (IN (if)))(NP (PRP (you)))(VP (MD (could))(VB (go)))(ADVP (RB (anywhere)))(PP (IN (in)))(NP (DT (the))(NNP (us)))(ADVP (WRB (where)))(NP (PRP (you)))(VP (VB (go))))) |ET| 
-1  |BT| (ROOT (S (NP (PRP (i)))(VP (VBD (know)))(NP (DT (this))(NN (day)))(VP (MD (would))(VB (come))))) |ET| 
-1  |BT| (ROOT (S (SBAR (IN (if)))(NP (PRP (you)))(VP (MD (can))(RB (not))(VB (beat)))(NP (PRP ('em))(VBP (arrange)))(VP (TO (to))(VB (have)))(NP (PRP (they)))(VP (VBN (beat))))) |ET| 
1  |BT| (ROOT (S (VP (VB (thank)))(NP (NN (god)))(PP (IN (for)))(NP (JJ (morgie))))(S (NP (NN (hahaha)))(ADVP (RB (really)))(VP (VBP (tho))))(S (NP (NNP (d))))) |ET| 
1  |BT| (ROOT (S (NP (VBD (lose))(DT (a))(NN (pint)))(PP (IN (of)))(NP (NN (blood)))(NP (WP (what)))(VP (VBZ (feel)))(PP (IN (like)))(NP (DT (a))(NN (pound)))(PP (IN (of)))(NP (NN (hair))))) |ET| 
1  |BT| (ROOT (S (NP (PRP$ (my))(NNS (thought))(CC (and))(NNS (prayer)))(VP (VBP (be)))(PP (IN (with)))(NP (DT (the))(NNP (acu))(NNS (student)))(NP (NN (faculty)))(NP (NNS (family))))) |ET| 
-1  |BT| (ROOT (S (NP (NN (cant))(VB (wait)))(PP (IN (for)))(NP (NN (today)))(VP (TO (to))(VB (be)))(PP (IN (over))))(S (NP (NNP (cant))(VBP (wait)))(VP (TO (to))(VB (relax))))) |ET| 
-1  |BT| (ROOT (S (NP (NN (home))(DT (all))(NN (day)))(VP (VBD (elevate)))(NP (PRP$ (my))(NN (foot)))(NP (PDT (all)))(NP (DT (the))(NN (pain)))(PP (IN (for)))(NP (DT (a))(RB (really))(JJ (bad))(NN (bruise))))) |ET| 
-1  |BT| (ROOT (S (VP (VBG (go)))(UCP (TO (to))(VB (meet)))(NP (NNP (melissa))(NNP (marr)))(PP (IN (with)))(NP (NNP (matthew))(CC (and))(NNP (liz))(NNP (:d)))(PP (RB (so)))(VP (VBG (freak))(JJ (excited))))) |ET| 
0.90808679466702202365269158690353  |BT| (ROOT (S (NP (PRP (you)))(VP (MD (can))(VB (be)))(NP (DT (the))(NN (hero)))(NP (PRP (i)))(VP (MD (can))(VB (be)))(NP (PRP$ (you))(NN (side))(NN (kick))))) |ET| 
1  |BT| (ROOT (S (NP (PRP (i)))(VP (VBD (have)))(NP (DT (the))(JJ (hottest))(NN (optometrist)))(ADVP (RB (ever))))) |ET| 
1  |BT| (ROOT (S (NP (PRP (i)))(VP (VBD (have))(TO (to))(VB (get)))(PRT (IN (off)))(NP (DT (the))(NN (boat)))(SBAR (IN (so)))(NP (PRP (i)))(VP (MD (could))(VB (walk)))(PP (IN (on)))(NP (NN (water))))) |ET| 
-1  |BT| (ROOT (S (NP (PRP (i)))(VP (VBP (have)))(NP (DT (the))(JJS (best))(NN (husband)))(ADVP (RB (ever))))) |ET| 
-1  |BT| (ROOT (S (ADVP (RB (finally)))(VP (VBD (get)))(NP (DT (a))(NNP (ps3)))(ADVP (RB (now)))(VP (MD (will))(VB (play)))(NP (NNP (xiii))))) |ET| 
-1  |BT| (ROOT (S (NP (PRP (i)))(VP (VBP (be)))(NP (DT (a))(JJ (strong))(NN (girl)))(NP (RB (even))(DT (the))(JJ (strong)))(VP (MD (can))(VB (be))(VBN (knock)))(ADVP (RP (down))))(S (NP (PRP (i)))(VP (MD (will))(VB (pick)))(NP (PRP (myself)))(PRT (RP (up)))(VP (VB (become)))(ADJP (RB (even))(JJR (stronger))))(S (NP (PRP (i)))(VP (MD (will))(VB (be)))(NP (WP (who)))(NP (PRP (i)))(VP (VBP (be)))(PP (IN (by)))(NP (NN (choice)))(CONJP (RB (not)))(PP (IN (by)))(NP (NN (circumstance))))) |ET| 
1  |BT| (ROOT (S (VP (VBG (head)))(PP (TO (to)))(NP (DT (the))(NN (er)))(VP (TO (to))(VB (have)))(NP (PRP$ (my))(NN (ankle)))(VP (VBD (look)))(PP (IN (at))))(S (VP (VBZ (hurt)))(PP (IN (like)))(NP (NN (hell))))) |ET| 
1  |BT| (ROOT (S (NP (NNP (tonight)))(VP (NNP (id)))(PP (VBP (like)))(VP (TO (to))(VB (fly)))(ADVP (RP (away)))(NP (DT (a))(VB (be))(NN (brand)))(NP (JJ (new))(DT (another))(NN (day))))) |ET| 
0.83793743583097335392295690326137  |BT| (ROOT (S (VP (VBG (walk)))(PP (IN (at)))(NP (NN (pe))(NN (ha))(NN (todayy)))(VP (VBZ (be)))(NP (JJ (good))(NN (day)))(NP (NNP (d))))) |ET| 
-1  |BT| (ROOT (S (NP (NNS (piece)))(PP (TO (to)))(NP (DT (the))(NN (puzzle)))(VP (VBP (be))(RB (never))(VBN (force))(RB (just))(VBN (guide))))) |ET| 
-1  |BT| (ROOT (S (ADVP (WRB (how)))(NP (PRP (you)))(VP (VB (like)))(NP (DT (a))(JJ (swift))(NN (kiss)))(PP (IN (in)))(NP (DT (the))(NN (mouth))))) |ET| 
-1  |BT| (ROOT (S (NP (PRP (i)))(VP (VBP (have))(TO (to))(VB (put)))(ADVP (RP (together)))(NP (DT (a))(NN (outline)))(PP (IN (with)))(NP (RB (absolutely))(DT (no))(NN (information))))(S (NP (NNP (shoot))(NNP (me))))) |ET| 
1  |BT| (ROOT (S (NP (PRP (i)))(ADVP (RB (just)))(NP (NNP (bought))(NNP (some))(NNP (shoes))(NNP (that))(VB (make))(NNP (me))(CD (6))(NNP (foot))(CD (4))))) |ET| 
1  |BT| (ROOT (S (VP (VBD (have)))(NP (DT (a))(JJ (great))(NN (day)))(PP (IN (in)))(NP (DT (the))(NN (barn)))(NP (NN (today)))(VP (VBN (surround)))(PP (IN (by)))(NP (JJ (wonderful))(NNS (people))(CC (&))(JJ (wonderful))(NNS (horse))))(S (NP (NNP (life)))(VP (VBZ (be)))(ADVP (RB (so))(RB (much)))(ADVP (WRB (when)))(NP (PRP (you)))(VP (VBP (be)))(PP (IN (with)))(NP (DT (the))(JJ (right))(NNS (people))))(S (NP (NNS (thing)))(ADVP (RB (just)))(VP (VBP (fall)))(PP (IN (into)))(NP (NN (place))(CC (&)))(NP (PRP (it)))(ADVP (DT (all)))(ADVP (RB (just)))(VP (VBZ (feel)))(ADVP (JJ (right))))(S (NP (PRP (i)))(VP (MD (would))(RB (not))(VB (trade)))(NP (DT (this)))(PP (IN (for)))(NP (NN (anything))))) |ET| 
1  |BT| (ROOT (S (NP (DT (all))(FW (i)))(VP (VBP (think)))(NP (RB (about))(VBZ (be)))(NP (PRP (you))))) |ET| 
-1  |BT| (ROOT (S (ADVP (RB (here)))(NP (PRP (we)))(VP (VBP (go)))(PP (NN (again.im)))(NP (RB (just))(VBG (gon)))(VP (TO (na))(VB (try))(CC (and))(VB (stay)))(ADJP (JJ (positive)))(NP (PRP$ (my))(NNS (reaction))(JJ (sharp))))) |ET| 
-1  |BT| (ROOT (S (NP (PRP (you)))(VP (VBP (think)))(SBAR (VBZ (becca)))(NP (RB (guna)))(VP (VB (be))(VBN (psych)))(SBAR (IN (that)))(NP (PRP (you)))(VP (VBD (bring)))(NP (DT (a))(NN (bottle)))(PP (IN (of)))(NP (NNP (lube))))) |ET| 
-1  |BT| (ROOT (S (PP (FW (i)))(NP (NN (love))(NNP (cnn)))(ADVP (RB (just)))(SBAR (IN (because)))(NP (NNP (anderson))(NNP (cooper)))(VP (VBZ (be)))(PP (IN (on)))(NP (PRP (it))))(S (NP (NN (lol)))(NP (NNP (d))))) |ET| 
1  |BT| (ROOT (S (ADVP (RB (well)))(NP (PDT (all))(DT (the))(NN (fun)))(VP (VBZ (come)))(PP (TO (to)))(NP (DT (a))(NN (stop))))(S (ADVP (RB (back)))(PP (TO (to)))(NP (DT (the))(JJ (real))(NN (world.but)))(VP (VBD (have)))(NP (DT (a))(NN (blast))))) |ET| 
1  |BT| (ROOT (S (NP (RB (just)))(VP (VBN (watch)))(NP (DT (the))(NN (traped)))(PP (IN (in)))(NP (DT (the))(NN (closet))(NN (saga)))(ADVP (RB (still)))(VP (VBZ (make)))(NP (DT (no))(JJ (sence))))(S (NP (NN (lol))))) |ET| 
1  |BT| (ROOT (S (NP (DT (the))(JJS (best))(NN (night)))(VP (VBG (hang)))(PRT (RP (out)))(PP (IN (with)))(NP (PRP$ (my))(NNS (kid))))) |ET| 
-1  |BT| (ROOT (S (ADVP (RB (so))(RB (very)))(ADJP (JJ (tired))))(S (ADVP (WRB (why)))(VP (VBP (be))(FW (i))(RB (so))(JJ (tired)))(NP (PDT (all))(DT (the))(NN (time))))) |ET| 
-1  |BT| (ROOT (S (VP (VBZ (be)))(VP (VBG (love)))(NP (DT (the))(NN (apple))))(S (NP (PRP (i)))(VP (MD (could))(VB (eat)))(NP (PRP (he)))(PRT (RP (up))))(S (VP (VBD (do))(RB (not))(VB (fail)))(NP (DT (the))(JJ (mid-term))(NN (afterall))))(S (NP (PRP$ (my))(NNS (brain)))(VP (VBP (be)))(ADVP (RB (still)))(PP (JJ (worth)))(NP (NN (something))))) |ET| 
-1  |BT| (ROOT (S (VP (VBG (study)))(PP (IN (for)))(NP (PRP$ (my))(NN (science))(NN (test)))(VP (VBG (do)))(NP (PRP$ (my))(NN (art))(NN (project)))(PP (IN (at)))(NP (RB (once))))(S (NP (FW (i)))(VP (NN (wonder)))(ADVP (WRB (how)))(NP (DT (this)))(VP (MD (will))(VB (pan)))(PRT (RP (out))))) |ET| 
1  |BT| (ROOT (S (NP (JJ (happy))(NN (birthday))(NN (count)))(PP (RB (as)))(PP (IN (of)))(NP (CD (12:22))(VBP (be)))(NP (CD (2))))) |ET| 
0.98458639356269905817953258519992  |BT| (ROOT (S (VP (VBZ (be))(VBG (watch)))(NP (JJ (cruel))(NNS (intention)))(VP (VBN (forget)))(ADVP (WRB (how)))(ADJP (JJ (brilliant)))(NP (PRP (it)))(VP (VBD (be))))(S (NP (NN (xxxx))))) |ET| 
1  |BT| (ROOT (S (NP (VBG (understand))(NN (evolution)))(NP (DT (this))(NN (morning))))) |ET| 
-1  |BT| (ROOT (S (NP (NNP (officially))(NNP (woke))(NNP (now))(NNP (so))(NNP (time))(TO (to))(NNP (move))(NNP (around))))) |ET| 
-1  |BT| (ROOT (S (NP (NNP (gratification))(VBP (+))(NN (satisfaction))(SYM (=))(NNP (gratisfaction))))(S (NP (NNP (courtesy)))(PP (IN (of)))(NP (NNP (justin))(NNP (thomas))))(S (NP (JJS (best)))(VP (VBD (make)))(PRT (RP (up)))(NP (NN (word)))(ADVP (RB (ever))))) |ET| 
-1  |BT| (ROOT (S (NP (WP (what)))(VP (VBZ (be)))(NP (DT (the))(NN (difference)))(PP (IN (between)))(NP (NN (maturity))(CC (and))(NNS (childishness))))) |ET| 
0.95809263826985890943888080073521  |BT| (ROOT (S (NP (JJ (first))(NN (day)))(PP (IN (of)))(NP (PRP$ (my))(JJ (clinical))(NN (rotation)))(NP (NN (today))))(S (NP (PRP (i)))(VP (VBP (be)))(ADVP (RB (so)))(ADJP (JJ (excited))))) |ET| 
1  |BT| (ROOT (S (VP (VBG (babysit)))(NP (DT (the))(NNP (fearsome))(CD (4)))(NP (NN (today))))(S (ADVP (RB (so))(RB (far))(RB (so))(JJ (good))))) |ET| 
1  |BT| (ROOT (S (NP (PRP (we)))(VP (MD (could))(RB (just))(VB (pretend))))(S (NP (PRP (it)))(VP (VBZ (be)))(ADJP (JJR (better))(DT (that)))(NP (NN (way))))) |ET| 
-1  |BT| (ROOT (S (NP (JJ (oooo))(NN (man)))(VP (JJ (hard)))(NP (NN (night)))(NP (JJ (last))(NN (night))))(S (VP (VB (thank)))(NP (PRP (you))(JJ (phil))))) |ET| 
-1  |BT| (ROOT (S (VP (VBP (sleep)))(NP (NN (wont))(VB (grace)))(NP (PRP (i))))) |ET| 
-1  |BT| (ROOT (S (VP (VBG (fuck)))(NP (NN (god)))(VP (RB (damned)))(NP (JJ (cunt))(NN (ass))(NN (mother))(VBG (fuck))(NN (bitch))(NN (ass))(VBP (fuck))(NN (face))))(S (NP (VB (suck))(PRP$ (my))(JJ (big))(JJ (fucking))(JJ (black))(NN (dick)))(NP (PRP (i)))(VP (VBP (wan))(TO (na))(VB (see)))(NP (DT (that))(NN (ass))(NN (clap)))(NP (NN (bitch))))) |ET| 
1  |BT| (ROOT (S (NP (VBZ (wonder)))(ADVP (WRB (how)))(NP (PRP$ (he))(NN (life)))(VP (MD (would))(VB (be)))(SBAR (IN (if)))(NP (RB (i.))))) |ET| 
0.7831776843353790429347327517462  |BT| (ROOT (S (VP (VBN (be)))(PP (IN (on)))(NP (NN (puzzle))(NNS (pirate)))(PP (IN (for)))(NP (CD (three))(NNS (hour)))(PP (NN (im)))(NP (DT (a))(NN (addicit))))) |ET| 
1  |BT| (ROOT (S (VP (VBZ (love)))(NP (NNS (ghost))(CC (and))(NN (stuff))))) |ET| 
-1  |BT| (ROOT (S (NP (NNP (y))(NNP (thank))(NNP (u)))(PP (IN (if)))(NP (NNP (u)))(NP (POS ('))(NN (z))(DT (a))(NNP (hata))(VBZ (!!!!!))))) |ET| 
-1  |BT| (ROOT (S (NP (PRP$ (my))(NN (compueter)))(VP (VBN (fuke)))(PRT (RP (up)))(ADVP (RB (now)))(VP (RB (now)))(NP (PRP (it)))(VP (VBP (sez)))(NP (NNS (window)))(VP (VBZ (be)))(ADVP (RB (now)))(ADJP (JJ (genuine))))) |ET| 
-1  |BT| (ROOT (S (ADVP (RB (just)))(VP (VBD (send)))(PP (IN (in)))(NP (PRP$ (my))(JJ (last))(JJ (premin))(NN (internship))(NN (journal)))(PP (IN (for)))(NP (DT (the))(NN (summer))))(S (NP (PRP (it)))(VP (VBZ (be))(VBG (come)))(PP (TO (to)))(NP (DT (a))(NN (close)))(ADVP (RB (soon)))(VP (VBZ (be)))(NP (PRP (it))))) |ET| 
1  |BT| (ROOT (S (NP (PRP (i)))(VP (VBP (hate)))(NP (NNP (facebook))(JJ (mobile))))(S (NP (PRP (i)))(VP (VBP (hate)))(NP (DT (this))(JJ (stupid))(NN (phone))))(S (NP (PRP (i)))(VP (VBP (hate))(VBG (have)))(NP (DT (no))(NN (internet))))(S (VP (VBG (go))(TO (to))(VB (kill)))(NP (PRP (myself)))(ADVP (RB (now))))) |ET| 
1  |BT| (ROOT (S (SBAR (IN (if)))(NP (PRP (i)))(VP (VBD (be)))(ADJP (JJ (fat)))(NP (PRP (i)))(ADVP (RB (probably)))(VP (MD (would))(RB (not))(VB (have))(VBN (catch)))(NP (DT (the))(NN (board))))(S (NP (NNP (selena))(NNP (baccam))))) |ET| 
1  |BT| (ROOT (S (NP (RB (not))(JJ (sure)))(NP (WP (what)))(VP (TO (to))(VB (do))))(S (NP (WP (what)))(NP (PRP (i)))(VP (VB (do))))(S (PP (VB (txt)))(NP (PRP (i))))) |ET| 
-1  |BT| (ROOT (S (NP (PRP (i)))(VP (VBP (hate))(VBG (chop)))(NP (JJ (onions))))(S (NP (PRP (it)))(VP (VBZ (make)))(NP (PRP (i)))(VP (VB (cry))))) |ET| 
-1  |BT| (ROOT (S (NP (UH (ah)))(VP (VB (screw)))(NP (DT (this))(JJ (dumb))(NN (website)))(NP (PRP (i)))(VP (VBP (be)))(PRT (RP (out))))) |ET| 
-1  |BT| (ROOT (S (ADJP (RB (so))(NN (ive)))(VP (VBD (realize)))(PP (JJ (whats)))(NP (DT (the))(NN (point)))(PP (IN (in)))(NP (VBG (chase))))(S (NP (FW (i)))(VP (VB (give)))(PRT (JJ (up))))(S (SBAR (IN (if)))(NP (PRP (you)))(VP (VBD (want)))(NP (PRP (i)))(NP (PRP (you)))(VP (VBP (couldve))(VBD (have)))(NP (PRP (i))))) |ET| 
1  |BT| (ROOT (S (ADJP (JJ (ready)))(PP (IN (for)))(NP (DT (some))(VBP (sleep))))(S (NP (NNP (church)))(PP (IN (in)))(NP (DT (the))(NN (morning))(VBD (<))(CD (3))))) |ET| 
1  |BT| (ROOT (S (NP (DT (that))(JJ (awkward))(NN (moment)))(ADVP (WRB (when)))(NP (PRP (you)))(VP (VBP (wake)))(PRT (RP (up)))(NP (NNP (may))(CD (22nd)))(NP (NNP (jesus)))(VP (VBZ (be)))(ADVP (RB (here))))) |ET| 
1  |BT| (ROOT (S (NP (VBN (gettin))(DT (a))(NN (job)))(NP (PDT (all)))(UCP (DT (that)))(VP (VBG (feel)))(NP (JJ (great))(VBG (be))(NN (independant))))) |ET| 
-1  |BT| (ROOT (S (NP (NNP (monday))(NN (morning)))(PRT (RB (off)))(VP (TO (to))(VB (work)))(VP (NN (hope)))(NP (NN (everyone)))(VP (VBZ (have)))(NP (DT (a))(JJ (good))(NN (day))))) |ET| 
-1  |BT| (ROOT (S (VP (VBZ (be)))(ADVP (RB (back)))(PP (IN (in)))(NP (NN (school)))(VP (NN (lovin)))(SBAR (NN (it.now)))(NP (PRP (i)))(ADVP (RB (just)))(VP (VBP (need))(TO (to))(VB (find)))(NP (DT (a))(NN (job))))) |ET| 
-1  |BT| (ROOT (S (NP (RB (only))(CD (2))(NNS (week)))(SBAR (VBP (til)))(NP (DT (the))(JJ (big))(`` ("))(NNP (c))('' ("))))(S (VP (VBG (order)))(NP (NN (carpet))(CC (and))(VBZ (shade)))(NP (NN (tomorrow))))(S (NP (NNP (tom)))(VP (MD (will))(VB (finish))(NN (painting)))(PP (IN (before)))(NP (DT (the))(NN (carpet))(NN (installation))))(S (NP (JJ (many))(JJ (other))(NNS (thing)))(NP (PRP (i)))(VP (VBP (want))(TO (to))(VB (get))(VBN (do)))(NP (IN (that)))(VP (VBP (be)))(ADJP (RB (even))(JJ (decorating-related))))) |ET| 
1  |BT| (ROOT (S (VP (VB (fuck)))(NP (PRP (it))))) |ET| 
0.9366330871623281817406336813292  |BT| (ROOT (S (NP (PRP$ (my))(NNS (daughter))(`` ("))(NN (father)))(VP (VBD (decide)))(NP (PRP (he)))(VP (MD (will))(RB (not))(VB (pay)))(NP (NN (child))(NN (support)))(ADVP (RB (anymore))))(S (NP (PRP (i)))(VP (MD (can))(RB (not))(VB (survive)))(PP (IN (without)))(NP (PRP (it))))(S (NP (FW (i)))(VP (NN (hope)))(NP (PRP (they)))(VP (VB (arrest)))(NP (PRP (he))))) |ET| 
1  |BT| (ROOT (S (NP (NNS (gon))(TO (na))(VB (brainstorm)))(NP (PRP$ (my))(NN (halloween))(VBP (costume.might)))(VP (VB (be)))(NP (DT (a))(NN (guitar)))(NP (PRP (i)))(VP (VBP (think)))(NP (PRP (i)))(VP (VBD (get))(RB (ta))(VB (think)))(ADJP (JJR (bigger))))) |ET| 
-1  |BT| (ROOT (S (VP (VBZ (let))(VB (kill)))(NP (DT (these))(NNS (bitch))))) |ET| 
-1  |BT| (ROOT (S (VP (VBG (go))(TO (to))(VB (see)))(NP (JJ (old))(NN (friend))))) |ET| 
-1  |BT| (ROOT (S (NP (PRP (i)))(VP (VBP (feel)))(NP (CD (one)))(PP (IN (of)))(NP (PRP$ (my))(NNS (turn)))(VP (VBG (come)))(PRT (RP (on))))) |ET| 
1  |BT| (ROOT (S (NP (NNP (happy))(VBD (republic))(NNP (day))))(S (NP (NNP (connor))(NNP (paff)))(VP (VBZ (be)))(NP (DT (a))(JJ (evil))(NN (butthead))))(S (NP (NNP (p))))) |ET| 
1  |BT| (ROOT (S (NP (JJ (common)))(NP (VBP (lie))(TO (to))(NNP (me))))(S (NP (NNP (p))))) |ET| 
1  |BT| (ROOT (S (ADVP (RB (ahh))(RB (so)))(NP (PRP (i)))(VP (VBP (dont)))(ADVP (RB (really)))(VP (VB (feel)))(PP (IN (like)))(VP (VBG (do)))(NP (NN (anything)))(ADVP (NN (today))))(S (PP (IN (like)))(NP (EX (there)))(VP (VBZ (be)))(NP (NN (anything)))(VP (TO (to))(VB (do)))(ADVP (NNS (anyway))))) |ET| 
-1  |BT| (ROOT (S (ADVP (RB (now))(RB (off)))(PP (IN (till)))(NP (NNP (tuesday))))(S (NP (NN (relaxation))))(S (NP (VB (whoot))(NNP (whoot))))) |ET| 
-1  |BT| (ROOT (S (NP (NNP (snow)))(NP (NNP (snow)))(NP (NNP (snow))))(S (NP (JJ (glad))(PRP (you)))(VP (MD (could))(RB (finally))(VB (make)))(NP (PRP (it))))(S (SBAR (RB (even))(RB (though)))(NP (PRP$ (its))(RB (only))(DT (a))(NN (couple))(VBZ (flurry)))(VP (PRP$ (you)))(ADVP (RB (still)))(ADVP (RB (here))))) |ET| 
-1  |BT| (ROOT (S (NP (NNP (crap))))(S (NP (PRP (i)))(VP (VBP (need)))(NP (DT (a))(NN (car))))(S (NP (NN (money)))(VP (MD (would))(VB (help))))) |ET| 
1  |BT| (ROOT (S (PP (TO (to)))(NP (PDT (all))(DT (the))(NN (ap))(NNS (student)))(VP (VBP (pullin)))(NP (DT (all))(NNS (nighter)))(VP (VB (know)))(NP (DT (this)))(NP (PRP (you)))(VP (VBP (be)))(ADJP (RB (alone))))) |ET| 
1  |BT| (ROOT (S (NP (EX (there)))(VP (VBP (be)))(NP (JJ (such))(NNS (creep)))(PP (IN (in)))(NP (DT (this))(NN (town))))) |ET| 
1  |BT| (ROOT (S (PP (VB (woo)))(NP (JJ (11th))(NN (prestige))))) |ET| 
-1  |BT| (ROOT (S (VP (VBN (addict)))(PP (TO (to)))(NP (DT (the))(NN (game))(`` ("))(JJ (angry))(NNS (bird))))) |ET| 
-1  |BT| (ROOT (S (NP (VB (shave))(CC (and)))(VP (VB (go)))(ADVP (NN (home))))) |ET| 
-1  |BT| (ROOT (S (ADVP (NNP (totally)))(VP (VBZ (suck)))(PP (IN (in)))(NP (NNP (starcraft))(CD (2))))(S (NP (PRP (i)))(VP (MD (should))(VB (think)))(ADVP (RB (twice))(IN (before)))(VP (VBG (challenge)))(NP (NNP (wafi))(CC (or))(NNP (richie))))) |ET| 
1  |BT| (ROOT (S (ADVP (WRB (how)))(VP (VBP (come)))(NP (NN (nothing)))(ADJP (JJ (good)))(VP (VBZ (seem))(TO (to))(VB (be)))(PP (IN (on)))(NP (NN (tv)))(ADVP (WRB (when)))(NP (PRP$ (you))(VBN (bore))))) |ET| 
1  |BT| (ROOT (S (NP (NNP (yayy)))(VP (VBD (learn)))(ADVP (WRB (how)))(VP (TO (to))(VB (play)))(NP (NNP (kate))(NNP (nash)))(NP (NNP (nicest))(NNP (thing)))(PP (IN (on)))(NP (NN (guitar))))) |ET| 
1  |BT| (ROOT (S (NP (DT (a))(NN (drop)))(PP (IN (of)))(NP (NN (love)))(VP (VBZ (be)))(ADVP (RB (so))(RB (much))(JJR (more)))(PP (IN (than)))(NP (DT (a))(NN (ocean)))(ADJP (JJ (full)))(PP (IN (of)))(NP (NNS (brain))))) |ET| 
-1  |BT| (ROOT (S (ADVP (WRB (when)))(NP (NN (u)))(VP (VB (think)))(PP (IN (of)))(NP (NN (ur))(NN (life)))(NP (NN (wat))(VBZ (cum)))(VP (TO (to))(VB (mind))))) |ET| 
-1  |BT| (ROOT (S (ADJP (NNP (there))(NNP (truly)))(VP (VBZ (be)))(NP (DT (a))(NN (god)))(NP (PRP (he))(NNP (truly))(VBZ (be))(DT (a))(NNP (wonderful))(NNP (god))))(S (NP (PRP (he)))(PP (NNP (only)))(NP (VBP (see)))(NP (VBZ (be))(DT (the))(NN (best)))(PP (IN (in)))(NP (NNP (me))))) |ET| 
-1  |BT| (ROOT (S (NP (NN (day)))(ADJP (JJ (full)))(PP (IN (of)))(NP (NN (jazz))))(S (NP (`` ("))(NNP (sniff)))(VP (VB (sniff))))(S (PP (IN (in)))(NP (DT (the))(VBP (gentle))(JJ (rain))))) |ET| 
1  |BT| (ROOT (S (VP (VB (go)))(NP (NNP (pats)))(NP (NNP (brady)))(VP (VBZ (have))(VBN (find)))(NP (PRP$ (he))(NN (game))))) |ET| 
1  |BT| (ROOT (S (NP (PRP (i)))(ADVP (RB (now)))(VP (VB (pronounce)))(NP (PRP (you)))(VP (NN (chuck))(CC (and))(NN (harry)))(NP (NNP (d))))) |ET| 
1  |BT| (ROOT (S (VP (VBN (goin)))(PP (TO (to)))(NP (DT (the))(NN (gymm))))) |ET| 
-1  |BT| (ROOT (S (VP (VBN (workin)))(PP (IN (on)))(NP (JJR (more))(NN (computer))(NN (painting))))) |ET| 
-1  |BT| (ROOT (S (NP (PRP (i)))(VP (NNP (wan)))(NP (NNP (na))(VBP (see))(NNP (tracy))(NNP (mcgrady)))(PP (IN (on)))(NP (NNP (tha))(NNP (bulls))(NNP (by))(NNP (thursday))))) |ET| 
-1  |BT| (ROOT (S (VP (VBD (get)))(NP (PRP$ (my))(NNP (wii)))(NP (PRP$ (my))(NN (man)))(NP (PRP$ (my))(NNS (grandparent)))(VP (VBP (be)))(ADVP (RB (here))(VBG (<))))) |ET| 
1  |BT| (ROOT (S (ADVP (RB (just)))(VP (VBD (make)))(NP (NN (dinner)))(PP (IN (for)))(NP (DT (the))(JJ (whole))(NN (family))))(S (VP (VB (hope)))(NP (PRP (they)))(VP (IN (like)))(NP (NN (turkey)))(NP (NN (yum))))) |ET| 
0.95072788412772857302712736782269  |BT| (ROOT (S (VP (VBZ (be)))(UCP (VBG (love)))(NP (DT (this))(JJ (beautiful))(NN (wheather.oh)))(ADVP (WRB (how)))(NP (FW (i)))(VP (VBP (have))(VBN (miss)))(NP (DT (the))(NN (sun))(CC (&))(PRP$ (my))(JJ (flip))(NNS (flop))))(S (ADVP (RB (up)))(PP (IN (at)))(NP (VBZ (mom))(NN (house)))(PP (IN (for)))(NP (NN (dinner)))(PP (IN (before)))(NP (NN (work))(NN (tonight))))(S (NP (NNP (hope))(NN (everyone)))(VP (VBZ (be))(VBG (have)))(NP (DT (a))(NNP (blessed))(NN (weekend))))) |ET| 
1  |BT| (ROOT (S (VP (VBZ (be)))(NP (JJ (headin))(NN (home))))(S (NP (JJ (happy))(NNS (mother))(NN (day)))(PP (TO (to)))(NP (PRP$ (my))(JJ (wonderful))(NN (mother))))(S (NP (FW (i))(NN (love)))(NP (PRP (you))))) |ET| 
-1  |BT| (ROOT (S (NP (VB (note)))(PP (TO (to)))(NP (NN (self)))(VP (NNP (need))(TO (to))(VB (schedule))(CC (and))(VB (advertise)))(NP (NN (fall))(NNS (workshop))))(S (VP (VB (note)))(PP (TO (to)))(NP (NNS (other)))(VP (NNP (feel)))(ADVP (JJ (free)))(VP (TO (to))(VB (nag)))(NP (PRP (i)))(PP (IN (about)))(NP (PRP (it))))) |ET| 
-1  |BT| (ROOT (S (NP (PRP (you)))(NP (PRP (i)))(VP (VBP (collide))))(S (NP (NNP (whoo))(NNP (!!!!))))) |ET| 
-1  |BT| (ROOT (S (NP (JJ (sore)))(PP (IN (from)))(NP (DT (the))(NN (fair))))(S (NP (NNP (didnt))(RB (even)))(VP (VBP (know)))(NP (DT (this)))(VP (MD (could))(VB (happen))))) |ET| 
1  |BT| (ROOT (S (NP (NNP (<))(CD (3))(VBG (turn)))(NP (PRP$ (my))(NNS (dream)))(PP (IN (into)))(NP (NN (reality))(CD (<))(CD (3))))) |ET| 
0.93525582735893553198991412500618  |BT| (ROOT (S (NP (JJ (*))(NN (sigh)))(SBAR (VBP (*)))(NP (PRP (i)))(VP (VBP (be)))(ADJP (JJ (sick)))(PP (IN (of)))(NP (DT (these))(NNS (scar)))(VP (RB (especially))(VBG (make)))(NP (PRP (it)))(ADJP (JJR (worse))))) |ET| 
1  |BT| (ROOT (S (NP (NNP (eggs))(CC (and))(NNP (grits))))) |ET| 
-1  |BT| (ROOT (S (NP (PRP (she)))(VP (VBZ (be)))(NP (NN (love))(CD (<))(CD (3))))) |ET| 
-0.98061068518560756679391943180235  |BT| (ROOT (S (VP (VBZ (be)))(VP (VBG (feel)))(ADJP (RB (too))(JJ (happy)))(ADVP (RB (right))(RB (now))))) |ET| 
-1  |BT| (ROOT (S (VP (VBZ (be))(VBG (go)))(PP (TO (to)))(NP (DT (the))(JJ (pixel))(NN (porno))(NN (party)))(ADVP (NN (tonight))))) |ET| 
1  |BT| (ROOT (S (NP (NN (snow))(VBD (damnit))))(S (NP (PRP (i)))(VP (VBP (need)))(NP (DT (the))(NN (time)))(PRT (RB (off))))) |ET| 
0.85585982820498485157401091782958  |BT| (ROOT (S (NP (RB (just)))(VP (VBP (promise)))(NP (PRP (i)))(NP (PRP (you)))(VP (MD ('ll))(VB (think)))(PP (IN (of)))(NP (PRP (i))))) |ET| 
0.93554721276918473282790955636301  |BT| (ROOT (S (NP (PRP (i)))(VP (VBP (be))(RB (actually)))(NP (DT (a))(JJ (unicorn/goat))(NN (hybrid))))(S (VP (NNP (bet)))(NP (PRP (you))(VBZ (never))(NNP (saw))(NNP (that))(NNP (com))('' (')))(PP (IN (in)))(NP (NNP (huh))))) |ET| 
-1  |BT| (ROOT (S (NP (PRP (they)))(VP (VBD (put)))(NP (NNP (mccoy)))(PP (IN (in)))(NP (NNP (!!!))))(S (NP (NNP (d))))) |ET| 
-1  |BT| (ROOT (S (NP (RB (just)))(VP (VBD (do)))(NP (NN (web))(VB (cam)))(PP (IN (with)))(NP (NN (family)))(PP (IN (in)))(NP (NNP (florida))))(S (NP (PRP (i)))(VP (VBP (think)))(NP (PRP$ (my))(NN (brother)))(VP (VBD (didnt)))(NP (VB (stop)))(VP (VBG (smile)))(NP (DT (the))(JJ (whole))(NN (time))))) |ET| 
-1  |BT| (ROOT (S (UCP (NNP (omg)))(NP (PRP (i)))(VP (VBP (be)))(PP (IN (in)))(NP (NNP (paris))))(S (NP (PRP (i)))(ADVP (RB (just)))(VP (VBD (get)))(ADVP (RB (here)))(NP (NN (today))))) |ET| 
1  |BT| (ROOT (S (VP (VBZ (be)))(VP (VBG (freeeeeze)))(ADVP (NN (tonight))))) |ET| 
1  |BT| (ROOT (S (VP (VBZ (be)))(NP (NNP (lovin))(NNP (life)))(ADVP (RB (right)))(ADVP (RB (now))))) |ET| 
1  |BT| (ROOT (S (NP (PRP$ (its))(NN (time)))(VP (TO (to))(VB (go))))) |ET| 
-1  |BT| (ROOT (S (NP (WDT (what)))(NP (DT (a))(JJ (beautiful))(VBD (fairweather))(NN (day))))) |ET| 
-1  |BT| (ROOT (S (ADVP (RB (just)))(NP (DT (another))(JJ (manic))(NNP (monday))))) |ET| 
-1  |BT| (ROOT (S (NP (NNP (eid))(NNP (mubarak)))(PP (TO (to)))(NP (PDT (all))(DT (the))(JJ (beautiful))(NNPS (muslims)))(ADVP (IN (out)))(ADVP (EX (there))))) |ET| 
1  |BT| (ROOT (S (NP (CD (11))(NN (working))(NNS (day)))(VP (VBD (leave))))(S (NP (PRP (i)))(VP (VBD (think)))(NP (PRP (it)))(VP (MD (would))(RB (never))(VB (arrive))))) |ET| 
0.91730837708772017258240794035373  |BT| (ROOT (S (ADVP (RB (back))))(S (VP (VBG (sit)))(PP (IN (on)))(NP (DT (the))(JJ (tarmac)))(PP (IN (at)))(NP (NNP (dia)))(VP (NN (cause)))(NP (DT (some))(NNS (people)))(VP (MD (can))(RB (not))(VB (park)))(NP (NNS (plane))))) |ET| 
0.93373593817347733114786478836322  |BT| (ROOT (S (NP (RB (just)))(VP (VBD (get)))(ADVP (RB (back)))(PP (IN (from)))(NP (NNP (nashua))(VBN (tire)))(PP (IN (as)))(NP (NN (fuck))(CC (and))(JJ (sore))))(S (NP (PRP (i)))(VP (VBD (get))(TO (to))(VB (see)))(NP (PRP$ (my))(NN (wifey)))(SBAR (IN (though)))(NP (JJ (hakuna)))(VP (NNS (:}))(VBP (~)))(NP (CD (9-28-10))(NNS (~))))) |ET| 
-1  |BT| (ROOT (S (NP (PRP (i)))(VP (VBP (be))(VBG (gon))(TO (na))(VB (make)))(NP (DT (some))(NNS (cookie)))(NP (FW (i)))(VP (VBP (do))(RB (not))(VB (know)))(NP (WP (what))(NN (flavor)))(VP (TO (to))(VB (make))))) |ET| 
-1  |BT| (ROOT (S (NP (NNP (weather))(CC (and))(NNP (love)))(VP (VBP (be)))(NP (DT (the))(CD (two))(NNS (element)))(PP (IN (about)))(NP (WDT (which)))(NP (PRP (one)))(VP (MD (can))(RB (never))(VB (be)))(ADJP (JJ (sure))))) |ET| 
-1  |BT| (ROOT (S (NP (NN (soduku))(CC (and))(NN (backgammon))))(S (NP (WP (what))(DT (a))(JJ (crazy))(NN (night)))(PP (IN (at)))(NP (DT (the))(NN (shore))))(S (VP (VBP (wish)))(NP (DT (the))(NN (neighbor)))(VP (MD (would))(VB (come))(VB (kill)))(NP (DT (the))(NN (cricket)))(NP (WDT (that)))(VP (VBZ (be)))(PP (JJ (outside)))(PP (IN (of)))(NP (PRP$ (my))(NN (window))))) |ET| 
1  |BT| (ROOT (S (NP (RB (just))(DT (another))(NN (day)))(PP (IN (in)))(NP (NN (paradise))))) |ET| 
0.94255904715238247870701115971315  |BT| (ROOT (S (VP (NNS (want)))(PP (TO (to)))(NP (VB (go)))(PP (TO (to)))(NP (NNP (shake)))(PP (IN (in)))(NP (NNP (tha))(NNP (park))(VBD (:{))(-LRB- (-lrb-))(-LRB- (-lrb-))(JJ (-lrb-))))) |ET| 
1  |BT| (ROOT (S (INTJ (UH (wow)))(VP (VB (have)))(NP (PRP$ (my))(NN (day)))(VP (VBN (take)))(NP (DT (a))(NN (turn)))(PP (IN (for)))(NP (DT (the))(JJS (worst))))) |ET| 
-1  |BT| (ROOT (S (NP (VBN (whirlwind)))(PP (IN (of)))(NP (NN (activity))))) |ET| 
-1  |BT| (ROOT (S (VP (VBD (travel)))(ADVP (RB (backward)))(PP (IN (in)))(NP (NN (time)))(PP (IN (for)))(NP (DT (the))(JJ (sole))(NN (purpose)))(PP (IN (of)))(VP (VBG (post)))(NP (DT (this))(NN (message))))) |ET| 
-1  |BT| (ROOT (S (NP (PRP$ (its))(NNP (friday)))(NP (DT (this)))(VP (VBZ (have))(VBN (be)))(NP (DT (the))(JJS (longest))(JJ (short))(NN (week)))(NP (PRP (we)))(VP (VBP (have))(VBN (have)))(PP (IN (in)))(NP (DT (a))(JJ (long))(NN (time))))) |ET| 
1  |BT| (ROOT (S (SBAR (IN (if)))(NP (NNS (action)))(VP (VBP (be)))(ADJP (JJR (stronger)))(PP (IN (than)))(NP (NNS (word)))(ADVP (WRB (why)))(VP (VBZ (be)))(NP (DT (the))(NN (pen))(NN (mightier)))(PP (IN (than)))(NP (DT (the))(NN (sword))))) |ET| 
1  |BT| (ROOT (S (NP (WDT (what))(NN (day)))(VP (VBZ (be)))(NP (PRP (it))))(S (NP (PRP (they)))(VP (VBP (be)))(VP (VBG (run)))(ADVP (RB (together))))(S (NP (PRP$ (my))(NNS (mom)))(VP (VBD (get)))(NP (DT (a))(JJ (strong))(NN (heart.physically)))(ADVP (RB (emotionally))))) |ET| 
1  |BT| (ROOT (S (NP (DT (this))(NN (semester)))(VP (VBZ (be))(VBG (go)))(PP (TO (to)))(NP (RB (fast)))(VP (RB (too))(VB (slow)))(NP (DT (all)))(PP (IN (at)))(NP (DT (the))(JJ (same))(NN (time))))(S (NP (NNP (d))))) |ET| 
-1  |BT| (ROOT (S (NP (PRP$ (my))(NN (room)))(VP (VBZ (be)))(ADJP (JJ (spotless))))(S (NP (VB (yay))))(S (NP (CD (51))(NNS (day))))) |ET| 
-1  |BT| (ROOT (S (NP (NNP (please))(NNP (lord))))(S (NP (NNP (help))(NNP (my))(VBD (throat))(TO (to))(NNP (feel))(NNP (better))))) |ET| 
-1  |BT| (ROOT (S (NP (VB (fill)))(VP (PRP$ (my)))(NP (NN (head)))(PP (IN (with)))(NP (NN (knowledge)))(VP (VB (forget)))(PP (IN (about)))(NP (DT (the))(NN (rest))))(S (NP (PRP (i)))(VP (VBP (do))(RB (not))(VB (want))(TO (to))(VB (feel)))(ADVP (RB (so)))(VP (VB (rip)))(NP (DT (the))(NN (heart)))(ADVP (RP (out)))(PP (IN (from)))(NP (PRP$ (my))(NN (chest))))(S (NP (PRP (it)))(VP (VBD (be)))(ADVP (RB (never)))(PP (IN (in)))(NP (PRP$ (my))(NN (nature)))(VP (TO (to))(VB (give)))(PP (JJ (unto)))(NP (JJ (such))(NN (madness))))(S (NP (PRP (i)))(VP (VBP (choose)))(NP (PRP$ (my))(NN (sanity)))(NP (NN (today))))) |ET| 
0.60100250120701770306652633735212  |BT| (ROOT (S (VP (VBG (go))(TO (to))(VB (see)))(NP (NN (luke))))(S (NP (RB (then))(NNS (lot)))(PP (IN (of)))(NP (NN (shopping)))(PP (IN (after)))(NP (WDT (that))))) |ET| 
1  |BT| (ROOT (S (NP (MD (can))(RB (not))(VB (wait)))(VP (TO (to))(RB (finally))(VB (try)))(NP (NN (rock)))(VP (VBG (climb)))(PP (IN (on)))(NP (NNP (friday))))) |ET| 
0.8062565106739506548549911713053  |BT| (ROOT (S (NP (PRP (i)))(VP (VBP (be)))(PP (IN (in)))(NP (DT (a))(NNP (new))(NNP (york))(NN (state)))(PP (IN (of)))(NP (NN (mind))))) |ET| 
-1  |BT| (ROOT (S (VP (VBG (go))(TO (to))(NN (attemp)))(NP (NNS (#wild)))(VP (VBP (wish)))(NP (PRP (i)))(VP (NN (luck))))) |ET| 
-1  |BT| (ROOT (S (NP (RB (sissy)))(VP (JJ (dog-holding)))(PP (IN (down)))(NP (NNP (james)))(NP (NNP (loki-watching))(NN (tv)))(NP (NNP (taytay-snoring)))(NP (NN (ocasta-stole)))(NP (PRP$ (my))(NN (chair)))(NP (JJ (me-laughing)))(PP (IN (at)))(NP (DT (the))(NN (bunch))))) |ET| 
-1  |BT| (ROOT (S (NP (JJ (red))(NN (eye)))(NP (VBZ (be))(RB (then))(NNS (harri)))(NP (POS ('s))(NN (crab))(NN (house)))(PP (IN (with)))(NP (NN (mommy))(, (,))(NN (dad))(, (,))(NN (aunt))(NN (wonda)))(NP (NN (burnie))))) |ET| 
1  |BT| (ROOT (S (NP (DT (the))(NN (turuk))(NN (turuk))(VBZ (end))))(S (ADVP (WRB (why))))(S (NP (VBZ (:{)))(ADVP (RB (still)))(NP (DT (a))(JJ (bad))(NN (ass))(NN (weekend)))(VP (NN (tho))))) |ET| 
1  |BT| (ROOT (S (NP (PRP$ (you)))(PP (JJ (like)))(NP (DT (a))(VBZ (octapus))))(S (NP (VBZ (tenticle)))(VP (NN (flyin)))(NP (DT (all)))(PP (IN (over)))(NP (DT (the))(NN (place))))(S (NP (NNP (rob))(NNP (ruscher))))) |ET| 
1  |BT| (ROOT (S (NP (CD (one))(JJR (more))(NN (thing))))(S (ADVP (RB (very))(RB (slowly))))) |ET| 
-1  |BT| (ROOT (S (VP (VBD (have)))(NP (DT (a))(JJ (interesting))(NN (day))))(S (VP (VBD (wrestle)))(NP (DT (a))(VBG (recover))(JJ (alcoholic)))(PP (SYM (@)))(NP (DT (the))(NN (med))(NN (center))))(S (NP (NN (fun))(NN (day))))) |ET| 
-1  |BT| (ROOT (S (VP (MD (can))(RB (not))(VB (wait)))(PP (IN (for)))(NP (DT (the))(NN (peace)))(NP (JJ (quiet)))(NP (IN (that)))(VP (MD (will))(VB (be)))(ADVP (RB (here)))(PP (IN (in)))(NP (CD (three))(NNS (day))))) |ET| 
-1  |BT| (ROOT (S (VP (VB (take)))(NP (IN (that))(, (,))(NN (aussie))(VBZ (bastard))))(S (NP (VBZ (;})))(VP (VBG (shit)))(NP (PRP (myself)))(PP (IN (for)))(NP (DT (the))(JJ (whole))(NN (game))))(S (NP (NNP (shoot))(DT (the))(NNP (ref))))) |ET| 
1  |BT| (ROOT (S (NP (PRP (i)))(VP (VBP (want))(TO (to))(VB (be)))(NP (JJ (free))))) |ET| 
1  |BT| (ROOT (S (NP (PRP (i)))(VP (VBP (be))(VBG (get)))(SBAR (IN (that)))(NP (PRP (i)))(VP (VBP (want)))(NP (DT (another))(JJ (tattoo))(NN (itch))))) |ET| 
0.95943179145054457990227092523128  |BT| (ROOT (S (NP (NN (man))(FW (i))(NN (cant)))(VP (VBP (believe)))(NP (FW (i)))(ADVP (RB (still)))(VP (VBP (havent))(VBN (finish)))(NP (VBG (shop)))(NP (DT (this)))(VP (VBZ (be)))(ADVP (NN (sooo)))(PP (IN (unlike)))(NP (PRP (i))))) |ET| 
-1  |BT| (ROOT (S (NP (PRP (i)))(VP (VBP (think)))(ADVP (RB (therefore)))(NP (PRP (i)))(VP (VBP (be)))(ADJP (JJ (dangerous))))) |ET| 
-1  |BT| (ROOT (S (NP (PRP (i)))(VP (VBP (be))(VBG (go)))(PP (TO (to)))(NP (DT (the))(NN (beach)))(NP (NN (today)))(PP (IN (after)))(NP (NN (work))))(S (NP (PRP (i)))(VP (VBP (intend))(TO (to))(VB (take)))(NP (RB (as))(JJ (many))(NNS (picture)))(SBAR (IN (as)))(NP (PRP (i)))(VP (MD (can))))(S (NP (PRP (i)))(VP (VBP (love)))(NP (PRP (you)))(NP (NNP (florida))))) |ET| 
-1  |BT| (ROOT (S (NP (POS ('))(VBP (ti))(RB (not))(NN (happiness)))(SBAR (IN (that)))(NP (PRP (i)))(VP (VBP (feel))))) |ET| 
0.88536602567163480426160049319151  |BT| (ROOT (S (NP (NNS (thanks)))(PP (IN (for)))(NP (DT (the))(CD (2))(NN (fuel))(NNS (voucher))(VBP (aunty)))(VP (VB (sue)))(NP (PRP (we)))(NP (RB (just)))(VP (VBD (get)))(PP (IN (at)))(NP (DT (the))(NNS (raffle))))) |ET| 
0.96741856024534189639751957656699  |BT| (ROOT (S (NP (VB (note)))(VP (TO (to))(VB (self.know)))(NP (WP (what)))(NP (DT (the))(NNS (abbreviation)))(VP (VBP (stand)))(PP (IN (for)))(ADVP (IN (before)))(VP (VBG (take)))(NP (DT (the))(NN (test))))) |ET| 
0.82406121163140255703183356672525  |BT| (ROOT (S (VP (NNP (got))(NNP (ta))(VBP (love)))(NP (WRB (how))(JJ (affordable))(NN (college)))(VP (VBZ (be)))(NP (DT (these))(NNS (day))))(S (NP (RB (just)))(VP (VBD (order)))(NP (DT (a))(NN (book)))(PP (IN (for)))(NP (PRP$ (my))(JJ (upcoming))(NN (class)))(PP (IN (for)))(NP (DT (the))(JJ (low))(JJ (low))(NN (price)))(PP (IN (of)))(NP ($ ($))(CD (156))))(S (NP (PDT (all))(PRP (i)))(VP (MD (can))(VB (say)))(VP (VBZ (be)))(NP (PRP (it)))(ADVP (JJR (better)))(VP (VB (be)))(ADJP (JJ (amazing)))(NP (RB (truly))(NN (life))(VBG (change))))) |ET| 
-1  |BT| (ROOT (S (VP (VBZ (be)))(VP (VBG (celebrate)))(NP (JJ (new))(NNS (year)))(NP (DT (the))(JJ (french)))(VP (NN (way.involving)))(NP (DT (the))(NNS (dog))))) |ET| 
-1  |BT| (ROOT (S (NP (JJ (thinks))(JJS (best))(NN (character)))(PP (IN (in)))(NP (DT (the))(NNP (office)))(VP (VBZ (be)))(ADVP (RB (definitly)))(NP (JJ (creed))))) |ET| 
-1  |BT| (ROOT (S (NP (VBP (chillen)))(VP (VBG (get)))(ADJP (JJ (ready)))(VP (TO (to))(VB (go)))(PP (TO (to)))(NP (VB (work))))(S (NP (NN (hollum))(DT (this))(NN (week)))(VP (VBZ (be)))(ADVP (RB (almost))(IN (over))))) |ET| 
1  |BT| (ROOT (S (NP (PRP (you)))(VP (MD (can))(NN (kiss)))(NP (PRP (i)))(PP (IN (with)))(NP (DT (the))(NNS (window)))(ADJP (JJ (open))))) |ET| 
1  |BT| (ROOT (S (NP (PRP (i)))(VP (VBP (love)))(NP (PRP$ (my))(NNS (dog)))(ADVP (RBR (more)))(PP (IN (than)))(NP (PRP (i)))(PP (RB (even))(VBP (like)))(NP (JJS (most))(NNS (people))))) |ET| 
0.84239190130874952444628434022889  |BT| (ROOT (S (SBAR (IN (while)))(NP (PRP (i)))(VP (VBD (be)))(PP (IN (at)))(NP (NNP (al)))(NP (POS ('s))(JJ (last))(NN (night)))(NP (NN (someone)))(VP (VBN (key)))(NP (PRP$ (they))(NNS (initial)))(PP (IN (into)))(NP (PRP$ (my))(NN (father)))(NP (VBZ (be))(NN (car))))) |ET| 
-1  |BT| (ROOT (S (NP (NNP (caity))(CC (and))(NNP (hannah)))(VP (VBP (have))(VBN (pack)))(NP (DT (a))(NN (suitcase)))(PP (IN (with)))(NP (NNS (panckae))(CC (and))(NNS (panties))))) |ET| 
-1  |BT| (ROOT (S (NP (CD (3rd))(NN (place)))(PP (IN (for)))(NP (NNP (ritz)))(NP (NNP (at))(NN (world))(VBZ (champ))))(S (VP (VB (thank)))(NP (PRP (you))))) |ET| 
-0.99789537705207442819244079146301  |BT| (ROOT (S (SBAR (IN (if)))(NP (PRP (you)))(VP (VBP (have))(RB (never))(VBD (lie)))(PP (IN (about)))(NP (NN (anything)))(VP (VB (click))(`` ("))(IN (like))))(S (VP (VB (go)))(ADVP (RB (back)))(VP (VB (click)))(PP (IN (unlike)))(NP (PRP (you)))(VP (VBP (be)))(NP (DT (a))(VBG (lie))(NN (bastard))))) |ET| 
1  |BT| (ROOT (S (NP (JJ (game))(NNP (day))))(S (NP (NNP (go))(NNP (hogs))))(S (NP (JJ (psst)))(NP (DT (the))(NN (code))(NN (name)))(VP (VBZ (be)))(NP (NNP (abbey))))) |ET| 
0.95074747415987059806496972669265  |BT| (ROOT (S (NP (NN (revenge)))(VP (VBZ (be)))(NP (DT (a))(NN (dish)))(VP (RBS (best))(VBN (serve)))(NP (JJ (cold))))(S (NP (NN (revenge)))(VP (VBZ (be)))(NP (DT (a))(NN (dish)))(ADVP (RBS (best)))(VP (VBN (serve))(VBN (poison))))(S (NP (NNP (>:}))(NNP (hahaha)))(VP (VBD (swallo)))(SBAR (DT (that)))(NP (CD (one)))(PRT (IN (down)))(NP (PRP$ (my))(NN (friend))))) |ET| 
1  |BT| (ROOT (S (NP (PRP$ (my))(NN (car)))(VP (VBZ (be)))(ADVP (RB (totally)))(ADJP (JJ (yellow))))) |ET| 
-1  |BT| (ROOT (S (NP (NNP (mannn))(PRP (i)))(VP (VBD (know)))(NP (NN (bj)))(VP (VBD (look)))(PP (RP (out)))(PP (IN (of)))(NP (NN (shape))))(S (NP (PRP (he)))(VP (VBZ (need))(TO (to))(VB (listen)))(PP (TO (to)))(NP (PRP$ (he))(NN (corner))))) |ET| 
-1  |BT| (ROOT (S (VP (VBZ (feel)))(NP (JJ (great)))(NP (NN (today))))(S (NP (RB (=}))(CC (and)))(ADVP (RB (now)))(NP (PRP (he)))(VP (VBZ (be))(VBG (go))(TO (to))(VB (try))(TO (to))(VB (spread)))(NP (DT (a))(JJ (little)))(PP (IN (of)))(ADVP (DT (that))(RP (around))))) |ET| 
-1  |BT| (ROOT (S (VP (VB (spend)))(NP (DT (a))(NN (hour))(VBG (shovel)))(NP (DT (this))(NN (morning)))(NP (PRP (it)))(VP (VBZ (be)))(ADJP (JJ (crazy)))(ADVP (IN (out))(RB (there))))) |ET| 
1  |BT| (ROOT (S (NP (NNS (photo)))(PP (IN (from)))(NP (DT (the))(NNP (redeemer))(NN (night)))(NP (RB (all))(VBN (sort))))(S (NP (NN (time)))(VP (TO (to))(VB (get)))(ADJP (JJ (ready)))(PP (IN (for)))(NP (NNP (ragnarock))))) |ET| 
0.77305664764518111642388475956977  |BT| (ROOT (S (VP (VBD (have)))(NP (DT (a))(JJ (interesting))(NN (time)))(PP (IN (at)))(NP (NNS (lover)))(ADVP (RB (just))(JJ (now.oh)))(VP (NNS (chri)))(NP (PRP (you)))(VP (MD (will))(RB (not))(VB (know)))(NP (WP (what)))(VP (VBD (hit)))(NP (PRP (you))))) |ET| 
0.91693902065657895139594302236219  |BT| (ROOT (S (NP (FW (i)))(VP (MD (would))(VB (drive)))(PP (RP (on)))(PP (TO (to)))(NP (DT (the))(NN (end)))(PP (IN (with)))(NP (PRP (you))))) |ET| 
-1  |BT| (ROOT (S (NP (DT (the))(JJ (loveliest))(NN (night))(NNP (:})))(VP (VBD (be))(VBN (treat)))(PP (IN (like)))(NP (DT (a))(NNS (princess)))(NP (NNS (thanks))(NN (baby))(NN (xxx))))) |ET| 
-1  |BT| (ROOT (S (NP (NNP (drops)))(PP (IN (of)))(NP (NNP (jupiter)))(PP (IN (by)))(NP (NNP (train)))(VP (VBZ (give)))(NP (PRP (i)))(NP (VBZ (chill)))(NP (DT (every))(NN (time)))(NP (PRP (i)))(VP (VBP (listen)))(PP (TO (to)))(NP (PRP (it))))(S (NP (NN (something)))(PP (IN (about)))(NP (DT (the))(JJ (poetic))(NNS (lyric))))) |ET| 
-1  |BT| (ROOT (S (SBAR (IN (if)))(NP (RB (only))(DT (the))(NN (date)))(VP (MD (would))(VB (have))(VBN (be)))(NP (CD (14))(NNP (november))))) |ET| 
0.86603567648941748302604537457228  |BT| (ROOT (S (ADVP (RB (still)))(PP (IN (in)))(NP (NN (springhill)))(NP (PRP$ (my))(NN (titus)))(VP (VBZ (be)))(ADJP (VBN (doin))(RBR (better)))(VP (VB (thank)))(NP (NN (god.gonna)))(VP (VB (go))(VB (eat)))(ADVP (JJ (sumwhere)))(PP (IN (in)))(NP (NNP (da))(NNS (hill)))(VP (NN (wat))(TO (to))(VB (eat))))) |ET| 
0.93649260148374602330534344218904  |BT| (ROOT (S (VP (VBG (go)))(PP (TO (to)))(NP (NN (gabby)))(NP (POS ('s))(NN (game)))(ADVP (NNS (2morrow)))(VP (NN (seehow)))(NP (PRP (she)))(VP (VBZ (kick)))(NP (JJ (soommeeee))(NN (butt))))) |ET| 
0.85386068313298668641664335154928  |BT| (ROOT (S (VP (VBN (move)))(PP (RP (out)))(PP (IN (of)))(NP (DT (the))(NN (hell))(JJ (whole))(NN (today)))(NP (VBP (im)))(ADVP (RB (very)))(VP (VBN (relax)))(ADVP (RP (over))(RB (here))))(S (NP (RB (just))(VB (chillin))(CC (and))(VB (stayin))(JJ (warm))))) |ET| 
-1  |BT| (ROOT (S (NP (DT (all)))(VP (VBP (set)))(NP (RB (im)))(VP (VBG (go))(TO (to))(VB (stay)))(PP (IN (with)))(NP (NN (ben))))) |ET| 
-1  |BT| (ROOT (S (NP (NN (ok))(FW (i)))(VP (VBP (be))(VBN (bore)))(PP (RP (out)))(PP (IN (of)))(NP (PRP$ (my))(NN (mind)))(ADVP (RB (now))))(S (ADVP (WRB (where)))(NP (PRP$ (my))(NNS (girl)))(PP (IN (at)))(NP (NN (tonight))))) |ET| 
-1  |BT| (ROOT (S (NP (NN (anyone)))(VP (VBP (want))(TO (to))(VB (go)))(PP (TO (to)))(NP (DT (a))(NNP (blowfish))(NN (game))(NN (tonight)))(UCP (-LRB- (-lrb-)))(NP (NNP (thursday))(-RRB- (-rrb-))))) |ET| 
0.79226002678025198022737640712876  |BT| (ROOT (S (NP (NNP (hey))(WP (who))(NNP (all))(VBD (be))(NNP (gon))(NNP (na))(NNP (puy))(NNP (mi))(NNP (psp)))(NP (NNP (at))(DT (the))(NNP (starting))(NNP (price)))(PP (IN (of)))(NP ($ ($))(CD (20))(CD (!?!?!?))))) |ET| 
0.82295209394257251567239563883049  |BT| (ROOT (S (PP (IN (with)))(NP (PRP$ (my))(JJ (hubby))(VBG (watch))(NN (tv))))(S (NP (VBN (talk)))(PP (NN (bout)))(NP (PRP$ (we))(NNS (plan)))(VP (RB (maybe)))(PP (IN (in)))(NP (DT (the))(NN (summer)))(NP (PRP (it)))(VP (MD (will))(VB (be)))(PP (IN (into)))(NP (NN (play))))(S (NP (NNP (god)))(VP (VB (bless)))(NP (PRP (we)))(PP (IN (with)))(NP (DT (the))(NN (plan)))(NP (PRP (we)))(VP (VBP (have))(VBN (talk)))(NP (RB (about))(PRP (i)))(VP (VBP (love)))(NP (PRP (he)))(ADVP (RB (so))(RB (much))))) |ET| 
0.75400001835893204482630380880437  |BT| (ROOT (S (NP (NN (fun))(NN (day)))(VP (NN (w)))(PP (VBP (/)))(NP (DT (the))(NNS (friend))))(S (VP (VBD (drive)))(PP (TO (to)))(NP (NN (church))(NN (uu))(NN (yogurt)))(NP (CD (5))(NNS (guy)))(SBAR (IN (while)))(VP (VBG (blast)))(ADVP (NNP (mumford))(CC (&))(NNS (son)))(NP (NNP (d))))) |ET| 
-1  |BT| (ROOT (S (NP (CD (five))(CD (hundred))(VBP (twenty-five))(CD (thousand))(NNS (moment)))(ADVP (RB (so))(RB (dear))))) |ET| 
-1  |BT| (ROOT (S (SBAR (IN (before)))(NP (PRP (i)))(VP (VBD (lay)))(NP (PRP (i)))(PRT (RP (down)))(VP (TO (to))(NN (rest)))(NP (PRP (i)))(VP (MD (would))(VB (throw)))(ADVP (RP (away)))(NP (NN (everything)))(VP (TO (to))(VB (live))))) |ET| 
-1  |BT| (ROOT (S (NP (DT (the))(NNP (bed)))(VP (VBZ (be)))(NP (NNP (callin))(NNP (my))(NNP (name))))(S (NP (NNP (nite))(NNP (nite)))(VP (NNP (peeps))))) |ET| 
1  |BT| (ROOT (S (ADVP (RB (officially)))(VP (VBP (hate)))(NP (NN (bus))(NNS (driver))))) |ET| 
1  |BT| (ROOT (S (VP (VBG (go))(TO (to))(VB (see)))(NP (NN (pendulum))))) |ET| 
0.96140434538523078522587184124859  |BT| (ROOT (S (VP (VB (watch)))(PRT (RP (out)))(PP (IN (for)))(NP (NNS (stick)))(ADVP (NN (ppl))))(S (NP (PRP (they)))(VP (VBP (be)))(ADVP (RB (actually))(RB (everywhere))))(S (NP (RB (only))(DT (some)))(PP (IN (of)))(NP (NN (u)))(VP (VBP (get)))(NP (DT (this))(NN (joke))))) |ET| 
-1  |BT| (ROOT (S (VP (VBG (get)))(ADJP (JJ (ready)))(VP (TO (to))(VB (move)))(NP (NN (cant))(VB (wait))(NN (house)))(VP (VBZ (go)))(PP (IN (on)))(NP (NN (market))(NNS (thgi)))(VP (NNP (tuesday))(VB (thank)))(NP (NN (god))))) |ET| 
-0.96694435174161375012857888577855  |BT| (ROOT (S (VP (VBD (see)))(PP (IN (about)))(NP (CD (12))(JJ (dead))(NNS (people)))(NP (NN (today)))(VP (RB (not))(VBG (feel)))(NP (DT (the))(NN (mood)))(ADVP (RB (right))(RB (now))))) |ET| 
-1  |BT| (ROOT (S (NP (PRP (i)))(VP (VBP (be)))(ADJP (JJ (happy))(CC (but))(RB (not)))(ADJP (RB (so))(JJ (sure)))(PP (IN (of)))(NP (NNS (thing)))(ADVP (NN (meh))))) |ET| 
0.91587547054743456698133741156198  |BT| (ROOT (S (NP (VBZ (do)))(VP (NN (anyone))(VB (have)))(NP (DT (a))(JJ (black))(NN (light)))(SBAR (IN (that)))(NP (PRP (i)))(VP (MD (can))(VB (borrow))))) |ET| 
0.9456766877936969573070769001788  |BT| (ROOT (S (NP (VB (heheh)))(SBAR (IN (if)))(NP (EX (there)))(VP (VBZ (be)))(NP (NN (anyone)))(NP (PRP (you)))(VP (VBP (do))(RB (not))(VB (wan))(TO (na)))(NP (NNP (piss)))(SBAR (NNP (off)))(NP (PRP (it)))(VP (VBZ (be)))(NP (NN (death))))) |ET| 
0.81634282046694539580755645147292  |BT| (ROOT (S (ADVP (RB (so)))(NP (VBN (im)))(PRT (RP (up)))(PP (IN (on)))(NP (PRP$ (my))(NN (bro))(NN (xbox))(CD (360))(JJ (kinect))(NN (playin))(NNS (fighter))(VBD (uncage))(NN (smh))))(S (NP (DT (this)))(VP (VBZ (be)))(NP (DT (a))(NN (work)))(PP (RP (out)))(NP (FW (im)))(ADVP (RB (so)))(PP (IN (over)))(NP (NN (weight)))(NP (PRP$ (its))(NN (ashame))))) |ET| 
-1  |BT| (ROOT (S (ADVP (RB (never)))(VP (VB (be)))(ADJP (JJ (sad)))(PP (IN (for)))(NP (WP (what)))(VP (VBZ (be)))(ADVP (RP (over)))(NP (RB (just)))(VP (VB (be)))(ADJP (JJ (glad)))(SBAR (IN (that)))(NP (PRP (it)))(VP (VBD (be)))(ADVP (IN (once)))(NP (PRP$ (yours))))) |ET| 
-1  |BT| (ROOT (S (NP (JJ (good))(NN (food)))(NP (JJ (good))(NN (company)))(NP (JJ (great))(NN (sex))))(S (NP (PRP (i)))(VP (VBP (think)))(NP (PRP (i)))(VP (MD (could))(VB (call)))(NP (DT (this))(NN (weekend)))(NP (DT (a))(JJ (good))(CD (one))))(S (NP (DT (a))(RB (very))(JJ (good))(NN (one))))) |ET| 
-0.9416932712791437065646960036247  |BT| (ROOT (S (VP (VBZ (be))(VBG (think)))(NP (PRP (she)))(NP (VBZ (be))(VBN (eat))(RB (too))(JJ (many))(VB (mince))(NNS (pie)))(ADVP (RB (already))))) |ET| 
0.79200173889395453219464116045856  |BT| (ROOT (S (NP (NNP (jimmy))(VBP (carr)))(PP (IN (on)))(NP (NN (tv))(CC (and))(RB (not)))(PP (IN (in)))(NP (DT (a))(NN (suit))))) |ET| 
0.81337344786574350408159261860419  |BT| (ROOT (S (NP (VB (day))(CD (5)))(NP (DT (no))(NN (end)))(PP (IN (in)))(NP (NN (sight)))(VP (VB (please))(VB (let)))(NP (DT (this)))(VP (VB (be)))(PP (IN (over)))(NP (PRP (i)))(VP (VBP (have))(VBD (have)))(ADJP (RB (enough))))) |ET| 
0.81454322756991015541672140898299  |BT| (ROOT (S (PP (IN (in)))(NP (DT (a))(NN (battle)))(PP (IN (of)))(NP (DT (the))(NNS (wit))))(S (NP (WP (who)))(VP (MD (would))(VB (run)))(PP (RP (out)))(PP (IN (of)))(NP (NN (ammo)))(ADVP (RB (first))))) |ET| 
-1  |BT| (ROOT (S (NP (RB (about)))(VP (TO (to))(NN (jam)))(PP (IN (at)))(NP (DT (this))(NN (concert)))(ADVP (RB (here)))(PP (IN (in)))(NP (NNP (hugo))))) |ET| 
-1  |BT| (ROOT (S (ADVP (WRB (when)))(NP (DT (a))(NN (man)))(VP (VBZ (be)))(PP (IN (in)))(NP (NN (love)))(PP (CC (or)))(PP (IN (in)))(NP (NN (debt)))(NP (NN (someone)))(ADJP (RB (else)))(VP (VBZ (have)))(NP (DT (the))(NN (advantage))))) |ET| 
-1  |BT| (ROOT (S (VP (VBZ (have)))(ADVP (RB (finally)))(VP (VBN (find)))(PRT (RP (out)))(NP (WP (what)))(NP (NNP (pms)))(VP (VBZ (stand)))(PP (IN (for))))(S (NP (VB (pass))(PRP$ (my))(NN (shotgun))))) |ET| 
1  |BT| (ROOT (S (ADVP (WRB (why)))(VP (VBZ (be)))(NP (PRP (he)))(VP (VBG (do)))(NP (DT (this)))(PP (TO (to)))(NP (PRP (i))))) |ET| 
1  |BT| (ROOT (S (VP (VBZ (be))(VBG (measure))(CC (and))(VBG (jump))))) |ET| 
0.82411174089870908865407272969605  |BT| (ROOT (S (VP (VBG (try)))(PP (TO (to)))(NP (VB (see)))(NP (WP (what))(NN (kind)))(PP (IN (of)))(NP (NN (car)))(NP (PRP (i)))(VP (VBP (wan))(TO (na))(VB (get)))(NP (PRP (myself)))(PP (IN (for)))(NP (PRP$ (my))(NN (birthday.have)))(NP (DT (no))(NN (clue)))(NP (WP (what)))(NP (PRP (i)))(VP (VBP (want)))(NP (PRP (i)))(VP (VBP (know)))(NP (PRP (i)))(VP (VBP (do))(RB (not))(VB (want)))(NP (DT (a))(JJ (girly))(NN (car))))) |ET| 
-1  |BT| (ROOT (S (VP (VBZ (be))(VBG (go)))(PP (TO (to)))(NP (NN (camp)))(PP (IN (with)))(NP (NN (bellum))(CC (and))(NN (indium)))(NP (NNP (d))))) |ET| 
-0.90091434446292051330118511032197  |BT| (ROOT (S (ADJP (JJR (better)))(VP (TO (to))(VBP (have)))(NP (DT (a))(JJ (simple))(CC (and))(JJ (peaceful))(NN (life))))) |ET| 
-0.95975514617770807390684240090195  |BT| (ROOT (S (SBAR (IN (if)))(NP (VBP (qod)))(ADVP (RB (ever)))(VP (VBN (need)))(NP (DT (a))(NN (anqel)))(NP (PRP (he)))(VP (VBD (make)))(NP (DT (a))(JJ (qreat))(NN (choice))))) |ET| 
0.95738751433285351755131387108122  |BT| (ROOT (S (VP (VBZ (be))(VBG (watch)))(NP (DT (a))(NN (show)))(VP (VBN (call)))(NP (NNPS (americans))(NNP (cutest))(NNP (cats.what)))(VP (VBZ (have)))(NP (DT (this))(NN (county)))(VP (VBN (come)))(PP (TO (to))))(S (NP (PRP (they)))(VP (VBP (be)))(ADJP (DT (all))(RB (so))(JJ (cute))))) |ET| 
0.9047738336044969242877300530381  |BT| (ROOT (S (VP (VBG (look)))(ADVP (RB (forward)))(PP (TO (to)))(NP (DT (this))(NN (gig)))(ADVP (NN (tonight)))(PP (IN (in)))(NP (DT (the))(NNP (greenvale)))(VP (MD (should))(VB (be)))(NP (DT (a))(JJ (good))(CD (one))))) |ET| 
0.64851511091754676652243460921454  |BT| (ROOT (S (NP (NN (manhunt)))(PP (IN (at)))(NP (CD (2))(VBP (be)))(VP (VB (work)))(PP (IN (at)))(NP (CD (11))))(S (ADJP (RB (sure)))(ADVP (WRB (how))(RB (ill)))(VP (VB (survive))))) |ET| 
-1  |BT| (ROOT (S (ADVP (WRB (how)))(NP (DT (the))(NNP (h))(NN (***)))(VP (VBP (do)))(NP (PRP (i)))(VP (VB (register)))(PP (IN (for)))(NP (DT (the))(NNP (zumba))(NNP (convention))))(S (NP (EX (there)))(VP (VBZ (be)))(NP (DT (no))(NN (link))))) |ET| 
-1  |BT| (ROOT (S (NP (UH (hey))(NNP (v))(NNP (team.see))(VBP (yall)))(PP (IN (at)))(NP (CD (6.15)))(VP (RB (am)))(PP (IN (at)))(NP (DT (the))(NNP (mercury))(NNP (theatre)))(VP (TO (to))(VB (pack)))(NP (JJ (little))(NN (truck))))(S (NP (NNP (night))(NN (team)))(NP (CD (3.15))(VBP (pm)))(PP (IN (at)))(NP (DT (the))(NN (aotea)))(PP (IN (for)))(NP (NNP (sound))(NN (check)))(VP (NNS (:}))(VB (see)))(NP (PRP (you)))(ADVP (RB (soon)))(VP (JJ (aree))))) |ET| 
-1  |BT| (ROOT (S (VP (VBD (get)))(NP (CD (one))(JJR (more))(NN (day)))(PP (IN (of)))(NP (NN (school)))(NP (DT (this))(NN (week)))(NP (PRP (ya)))(NP (PRP (i))))) |ET| 
0.88326293075811668220609362833784  |BT| (ROOT (S (NP (NNP (thanx))(FW (i)))(VP (VBD (have)))(NP (DT (a))(NN (blast))(NN (nd))(JJ (letonah))(NN (im))(CD (14))(JJ (nd))(NN (luv))(NNS (yal)))(VP (VBP (<)))(NP (CD (3))))) |ET| 
0.81948036563321879910404277325142  |BT| (ROOT (S (NP (PRP (i)))(VP (VBP (think)))(NP (NNPS (winter)))(VP (VBZ (have))(RB (finally))(VBN (hit)))(NP (NNP (georgia))))(S (NP (NNS (low)))(ADVP (WRB (where)))(NP (PRP (we)))(VP (VBP (live)))(VP (VBP (be)))(PP (IN (in)))(NP (DT (the))(NNS (teens)))(NP (DT (the))(NNS (high)))(VP (VBP (be)))(PP (IN (in)))(NP (DT (the))(NNS (30))))(S (SBAR (IN (before)))(NP (PRP (i)))(VP (VBD (move)))(PP (TO (to)))(NP (NNP (georgia)))(NP (PRP (i)))(VP (VBD (use))(TO (to))(VB (think)))(NP (PRP (it)))(VP (VBD (stay)))(ADJP (JJ (warm)))(ADVP (RB (here))))) |ET| 
0.8201060161695942207771281573514  |BT| (ROOT (S (VP (VBZ (have)))(NP (DT (no))(NN (service)))(ADVP (WRB (where)))(NP (PRP (he)))(VP (VBZ (be)))(ADVP (RB (right))(RB (now))))(S (NP (NN (anyone)))(NP (WP (who)))(VP (VBZ (wish))(TO (to))(VB (contact)))(NP (PRP (he)))(PP (IN (by)))(NP (NN (phone)))(VP (VB (give)))(NP (PRP (it)))(PRT (RP (up))))(S (NP (PRP (i)))(VP (VBP (do))(RB (not))(RB (even))(VB (have)))(NP (DT (the))(NNS (bar)))(SBAR (WDT (that)))(VP (VBP (say)))(NP (PRP (i)))(VP (VBP (do))(RB (not))(VB (have)))(NP (NN (service))))(S (NP (NNP (contact))(PRP (i)))(PP (IN (on)))(ADVP (RB (here)))(SBAR (IN (if)))(NP (PRP (you)))(VP (VBP (want)))(NP (PRP (i))))) |ET| 
-0.98752148185206467534413832254359  |BT| (ROOT (S (PP (FW (i)))(NP (VBP (love))(NNS (friend)))(NP (WP (who)))(VP (MD (can))(NN (insult)))(NP (PRP$ (you))(NN (intelligence)))(PP (IN (with)))(NP (DT (a))(NN (compliment)))(VP (VB (think)))(NP (PRP$ (its))(NN (hilarious.all))(FW (i)))(VP (VBP (have))(TO (to))(VB (say)))(VP (VBZ (be))(RB (aww))(VB (fuck)))(NP (PRP (it)))(VP (VB (give)))(NP (PRP (i)))(NP (DT (the))(UH (damn))(NN (bucket))))) |ET| 
-1  |BT| (ROOT (S (NP (NNP (rite)))(UCP (VBZ (that)))(NP (DT (that))))(S (ADVP (VBZ (senseless)))(NP (RB (tonight))(NN (anyone))))) |ET| 
-1  |BT| (ROOT (S (NP (NN (today)))(VP (VBD (be)))(ADJP (RB (quite)))(NP (DT (the))(NN (day)))(ADVP (IN (as)))(NP (JJS (most)))(PP (IN (of)))(NP (PRP (you)))(VP (VBP (kno)))(NP (WP (what)))(VP (VBZ (have))(VBN (be))(VBG (go)))(PP (RP (on))))(S (VP (VBN (manage))(TO (to))(VB (get)))(NP (DT (a))(NN (place)))(PP (RB (so)))(NP (VBZ (everything)))(VP (VBG (go)))(NP (VB (work)))(PRT (RP (out))))(S (NP (JJ (thx))(NNS (guy)))(PP (IN (for)))(NP (PRP$ (you))(NN (support))))) |ET| 
0.96513735667267952500480987509945  |BT| (ROOT (S (NP (PRP$ (my))(JJ (complete))(NN (lack)))(PP (IN (of)))(NP (NN (sleep)))(PP (IN (over)))(NP (DT (the))(JJ (last))(NN (week)))(ADVP (RB (so))))(S (NP (PRP (it)))(VP (VBZ (be)))(NP (DT (a))(NN (bummer))))) |ET| 
0.73612599177956150597879059205297  |BT| (ROOT (S (VP (VB (thank)))(NP (NNP (god)))(PP (IN (for)))(NP (DT (this))(JJ (beautifu))(NN (day))))) |ET| 
0.65084189152470361960922673461027  |BT| (ROOT (S (NP (RB (just)))(VP (VBD (finish)))(NP (DT (a))(NN (afternoon)))(PP (IN (of)))(NP (NN (babysitting))))(S (NP (DT (the))(JJ (terrible))(NNS (two)))(VP (VBP (be)))(NP (JJ (much))(NN (fun))))) |ET| 
-1  |BT| (ROOT (S (NP (PRP (you)))(VP (VB (solve)))(NP (DT (the))(NN (riddle)))(PP (IN (of)))(NP (PRP$ (you))(NN (heart))))(S (NP (NNP (iron))(NNP (man))(VBD (<))(CD (3))))) |ET| 
-1  |BT| (ROOT (S (NP (PRP (i)))(VP (VBP (be)))(ADJP (JJ (thankful)))(PP (IN (for)))(NP (DT (the))(JJ (weekend.but)))(NP (CD (2))(NNS (day)))(PP (IN (in)))(NP (NN (heaven)))(VP (RB (just))(JJ (aint))(VBG (gon))(TO (na))(VB (do))))) |ET| 
-1  |BT| (ROOT (S (VP (VBG (think)))(PP (IN (about)))(VP (VBG (take)))(NP (DT (the))(NN (dg)))(PP (TO (to)))(NP (DT (the))(NN (dog))(NN (park))))) |ET| 
0.79918159317707337940817069465993  |BT| (ROOT (S (NP (VB (damnit))))(S (NP (PRP (i)))(VP (VBP (miss)))(NP (DT (a))(NN (family))(NN (wedding)))(NP (EX (there)))(VP (VBD (be)))(NP (CD (3))(NNS (arrest)))(PP (IN (at)))(NP (PRP (it))))(S (NP (CD (2))(NNS (druncken))(JJ (old))(JJ (bitches)))(VP (NN (fighting)))(NP (CD (one))(NN (guy)))(VP (VBD (be)))(PP (IN (on)))(NP (NNP (sonora)))(NP (POS ('s)))(ADJP (RBS (most))(JJ (wanted)))(NP (NN (list.all)))(NP (DT (the))(JJ (good))(NN (stuff)))(VP (VBZ (happen)))(ADVP (WRB (when)))(NP (PRP (i)))(VP (VBP (be)))(ADVP (RB (not))(RB (around))))) |ET| 
0.9758940447611641477720922921435  |BT| (ROOT (S (NP (NNP (schools)))(VP (VBD (close)))(PP (IN (because))(IN (of)))(NP (NN (snow)))(ADVP (RB (here))))(S (NP (PRP (i)))(VP (VBP (need))(TO (to))(NN (shovel)))(PRT (RP (out)))(NP (PRP$ (my))(NN (car))))(S (VP (VBG (wait))(TO (to))(VB (do))(VB (laundry.not)))(NP (PRP$ (my))(VBN (designate))(NN (time)))(ADVP (RB (yet))))) |ET| 
0.73236605419999001309605546339299  |BT| (ROOT (S (NP (NNP (anime))(NNP (fucking))(NNP (expo)))(NP (PRP (i)))(VP (NNP (live)))(NP (NNP (breate))(NNP (n))(NNP (eat))(NNP (this))(NNP (shit))))) |ET| 
-1  |BT| (ROOT (S (NP (PRP (i)))(VP (VBP (be))(VBG (consider)))(NP (DT (a))(JJ (mad))(NN (man))(NN (marathon)))(NP (DT (this))(NN (evening))))) |ET| 
-1  |BT| (ROOT (S (VP (VBD (piss)))(PRT (RP (off))))) |ET| 
-1  |BT| (ROOT (S (NP (PRP (i)))(VP (VBD (find)))(PRT (RP (out)))(NP (NN (today)))(VP (VBG (write)))(NP (NNP (xmas)))(VP (VBZ (be))(RB (not))(VBG (take)))(NP (DT (the))(NNP (christ)))(PP (RP (out)))(PP (IN (of)))(NP (NNP (christmas)))(ADVP (IN (after))(DT (all))))(S (ADVP (RB (however)))(NP (PRP (i)))(VP (VBP (think)))(NP (PRP (i)))(VP (VBP (be))(RB (still))(VBG (go))(TO (to))(VB (be))(VBG (write)))(NP (PRP (it)))(PP (IN (as)))(NP (NNP (christmas))))) |ET| 
1  |BT| (ROOT (S (NP (DT (the))(NN (refrigerator)))(VP (VBZ (be))(VBN (close)))(NP (DT (the))(NN (jellllooooo)))(NP (POS ('s))(NN (jigglin))))(S (NP (JJ (lakeshow))(NNS (!!))))) |ET| 
1  |BT| (ROOT (S (NP (RB (epically)))(VP (VBD (beat)))(NP (DT (the))(NN (game))))(S (NP (CD (2))(NNS (day)))(ADJP (JJ (bad))))) |ET| 
0.92291305295827708032874170385185  |BT| (ROOT (S (NP (VBN (make))(JJ (oatmeal))(NN (chocolate))(NN (chip))(NNS (cookie)))(PP (IN (with)))(NP (NNP (rory)))(VP (RB (now))(VBG (take)))(NP (DT (the))(NNS (twin)))(PP (TO (to)))(NP (DT (the))(NN (pool))))) |ET| 
-1  |BT| (ROOT (S (NP (DT (the))(JJ (samsung))(NN (galaxy)))(VP (VBZ (be)))(NP (DT (the))(JJ (sweetest))(NN (phone)))(ADVP (RB (ever))))) |ET| 
-1  |BT| (ROOT (S (VP (VBZ (be)))(ADVP (RB (currently)))(VP (VBG (watch)))(NP (DT (the))(NNP (time))(NNP (traveler)))(NP (POS ('s))(NN (wife))))) |ET| 
-1  |BT| (ROOT (S (NP (PRP (it)))(VP (VBZ (be)))(ADJP (RB (so))(JJ (beautiful)))(ADVP (IN (outside))(RB (right))(RB (now))))(S (NP (NNS (feel)))(PP (VBP (like)))(NP (RB (houston/enid/me)))(VP (VBG (sit)))(PP (IN (on)))(NP (DT (the))(NN (ferry)))(PP (IN (in)))(NP (NNP (new))(NNP (orleans))))) |ET| 
0.66149046765717101070691796849133  |BT| (ROOT (S (NP (VB (guess)))(NP (WP (who)))(NP (PRP (i)))(VP (VBP (be))(VBG (go))(TO (to))(VB (meet)))(PP (IN (on)))(NP (NNP (friday))))) |ET| 
0.91855405614684138004832902879571  |BT| (ROOT (S (NP (PRP (i)))(VP (VBP (think)))(ADVP (RB (therefore)))(NP (PRP (i)))(VP (MD (must))(VB (sleep))))) |ET| 
1  |BT| (ROOT (S (VP (VBZ (be)))(ADVP (NNP (sooooooooo)))(ADJP (JJ (ready)))(VP (TO (to))(VB (get)))(PRT (RP (off)))(NP (NN (work))))) |ET| 
-1  |BT| (ROOT (S (NP (VB (im))(DT (a))(VBG (walk))(NN (zombie)))(VP (VBN (dress)))(PP (IN (in)))(NP (JJ (strippy))(NN (orange))))(S (NP (NNP (lord)))(VP (VBP (help)))(NP (PRP (i)))(VP (TO (to))(VB (think))))) |ET| 
-1  |BT| (ROOT (S (NP (PRP$ (its))(NNP (pouring))(NN (rain)))(NP (PRP (i)))(VP (VBP (love)))(NP (PRP (it)))(VP (VBP (<)))(NP (CD (3))(CD (<)))(LST (CD (3))))) |ET| 
-1  |BT| (ROOT (S (NP (NN (re-do)))(PP (IN (of)))(NP (NN (report))))(S (NP (WP (what))(DT (a))(NN (waste)))(PP (IN (of)))(NP (NN (time)))(NP (VBZ (:{))(VBG (send)))(NP (PRP$ (my))(NN (love)))(PP (TO (to))))(S (NP (NNP (tom))(NNP (goddard)))(ADVP (NNP (:}))))) |ET| 
0.76254843160000407298326763338991  |BT| (ROOT (S (NP (WP (what)))(NP (VBZ (be))(DT (the))(NN (deal)))(PP (IN (with)))(NP (DT (the))(NNS (siren)))(VP (VBG (go)))(PRT (RP (off)))(PP (IN (in)))(NP (NNP (smyrna))))) |ET| 
1  |BT| (ROOT (S (VP (VBZ (be)))(VP (VBG (feel)))(ADJP (JJ (creative))))) |ET| 
1  |BT| (ROOT (S (NP (DT (the))(JJR (faster))(NN (driver)))(VP (VBZ (get)))(NP (DT (the))(NN (right)))(PP (IN (of)))(NP (NN (way))))) |ET| 
-0.91692356292777699167118043988012  |BT| (ROOT (S (NP (DT (the))(NN (bullshit)))(NP (NN (life)))(NP (VBZ (be)))(ADJP (JJ (great))))) |ET| 
-1  |BT| (ROOT (S (VP (VBZ (be)))(ADJP (JJ (ready)))(PP (IN (for)))(NP (DT (the))(NNP (florida))(NN (game))))) |ET| 
-0.99364481670957194303639425925212  |BT| (ROOT (S (VP (VBG (feel)))(ADVP (RB (rather)))(VP (JJ (unwanted))(TO (to))(VB (be)))(ADJP (JJ (honest))))) |ET| 
1  |BT| (ROOT (S (ADVP (RB (just)))(VP (VBD (finish))(VBG (watch)))(NP (DT (the))(JJ (blind))(NN (side)))(PP (PDT (such)))(NP (DT (a))(JJ (awesome))(NN (movie))))(S (NP (FW (i))(RB (highly))(VBP (recommend))(VBG (watch)))(NP (PRP (it))))) |ET| 
0.87008870630542867186107969246223  |BT| (ROOT (S (NP (VBG (think)))(PP (IN (of)))(NP (PRP (you)))(NP (DT (a))(NN (lot))(VBD (mama))))(S (NP (FW (i)))(VP (VB (miss)))(NP (PRP$ (you))(NN (voice))))) |ET| 
0.80502522009214461107262650330085  |BT| (ROOT (S (VP (VB (consider)))(NP (DT (this)))(NP (DT (a))(NN (trash))(NN (truck)))(VP (VBG (roll)))(ADVP (RP (down)))(NP (DT (the))(NN (street)))(VP (VBG (blast)))(NP (NNP (beethoven))))(S (ADVP (WRB (when)))(NP (PRP (you)))(VP (VBP (hear)))(NP (PRP (it)))(VP (VBG (come)))(NP (PRP (you)))(VP (VBP (go))(VB (take)))(NP (PRP$ (you))(NN (trash)))(PP (TO (to)))(NP (PRP (it))))(S (NP (DT (this)))(ADVP (RB (actually)))(VP (VBZ (exist))))(S (NP (DT (a))(NN (alternative)))(PP (TO (to)))(NP (DT (the))(NN (ice))(NN (cream))(NN (truck)))(ADVP (RB (perhaps))))) |ET| 
-0.93750319334454013109336756315315  |BT| (ROOT (S (NP (NN (ohhh))(VBP (wish)))(VP (FW (i)))(VP (MD (could))(VB (move))(TO (to))(NN (florida)))(SBAR (IN (so)))(NP (FW (i)))(VP (MD (can))(VB (be)))(PP (IN (around)))(NP (PRP$ (my))(JJ (cuban-spanish))(NNS (cousin))))) |ET| 
-0.97794960029711519577944045522599  |BT| (ROOT (S (ADVP (WRB (why)))(VP (VBZ (be)))(NP (PRP (it)))(NP (DT (all)))(PP (IN (of)))(NP (DT (a))(JJ (sudden))(`` ("))(VB (see))(NN (friendship)))(CONJP (RB (instead))(IN (of)))(NP (`` ("))(VB (see))(NN (wall-to-wall))))) |ET| 
-1  |BT| (ROOT (S (NP (PRP$ (my))(NN (memory)))(VP (VBZ (be))(RB (rapidly))(VBG (deteriorate))))(S (PP (VBG (include)))(NP (DT (the))(NN (memory)))(PP (IN (of)))(NP (PRP (we))))) |ET| 
1  |BT| (ROOT (S (NP (NNS (wikileak)))(VP (VBG (have)))(NP (RB (so))(RB (much)))(VP (TO (to))(VB (say))))) |ET| 
0.90114307141749094842708700525691  |BT| (ROOT (S (VP (VBZ (be)))(PP (VBG (start)))(PP (TO (to)))(NP (VB (stress-out)))(PP (IN (about)))(NP (PRP$ (he))(NNS (exam))))) |ET| 
1  |BT| (ROOT (S (NP (WDT (what)))(NP (DT (the))(NN (fuck)))(VP (VBP (be)))(NP (NNP (uni))(NNS (student)))(VP (VBN (mean))(TO (to))(VB (eat))))) |ET| 
-1  |BT| (ROOT (S (VP (VBZ (be)))(PP (IN (about)))(PP (TO (to)))(NP (VB (go)))(PP (TO (to)))(NP (DT (the))(NNS (movie)))(PP (IN (with)))(NP (NNP (naima))(CC (and))(NNP (philipp))))) |ET| 
-0.94852724882877414991355635720538  |BT| (ROOT (S (NP (VB (aint))(VBN (be)))(VP (TO (to))(VB (sleep)))(ADVP (RB (yet)))(ADVP (RB (still)))(VP (VB (doin)))(NP (PRP$ (my)))(UCP (NN (thang))))) |ET| 
-1  |BT| (ROOT (S (PP (IN (off)))(PP (TO (to)))(NP (VB (walmart.got)))(NP (DT (a))(NN (giggle))(JJS (fest)))(VP (TO (to))(VB (feed))))(S (NP (-LRB- (-lrb-)))(VP (VBN (get))(TO (to))(NN (love)))(NP (NNS (sleepover))))) |ET| 
1  |BT| (ROOT (S (VP (VBZ (be))(VBG (enjoy)))(NP (DT (this))(NNP (ice))(NN (day)))(PP (IN (with)))(NP (PRP$ (my))(NN (baby))(NN (boy))))(S (NP (VBD (<))(CD (3))))) |ET| 
0.87101114527854983649035602866206  |BT| (ROOT (S (ADVP (RB (now)))(PP (IN (on)))(NP (NNS (holiday)))(PP (IN (for)))(NP (DT (the))(JJ (next))(CD (three))(NNS (week)))(NP (JJ (ye)))(NP (NN (ha))(NN (god)))(VP (VBZ (be)))(ADJP (JJ (great))))) |ET| 
1  |BT| (ROOT (S (NP (VBN (lookin)))(PP (IN (for)))(NP (DT (the))(NN (silver))(NN (lining))))) |ET| 
-1  |BT| (ROOT (S (VP (VBG (watch)))(NP (NNP (blood)))(NP (DT (the))(JJ (last))(NN (vampire)))(PP (IN (on)))(NP (NNP (netflix))))(S (ADVP (RB (so))(RB (far))(RB (so))(JJ (good))))(S (VP (NNP (love)))(NP (PRP (you))(NN (baby))))) |ET| 
-0.9110929783809428306184940993262  |BT| (ROOT (S (NP (WP (who))(NNP (dat))(NNP (say))(NNP (they))(VBD (gon))(NNP (na))(NN (beat)))(PP (NNP (them)))(NP (NNP (saints))))) |ET| 
-1  |BT| (ROOT (S (NP (DT (any))(JJR (better))(NN (option)))(PP (IN (than)))(NP (NNP (visio))))) |ET| 
1  |BT| (ROOT (S (NP (NN (everyone))(IN (that)))(VP (VBZ (be)))(VP (VBZ (need))(TO (to))(VB (be)))(ADVP (RB (here)))(VP (VBZ (be)))(ADVP (RB (here))))(S (NP (VBZ (she)))(VP (JJ (resting)))(ADVP (RB (peacefully))))) |ET| 
0.95376288871956893533621268943534  |BT| (ROOT (S (NP (RB (there)))(VP (VB (be)))(NP (DT (a))(JJ (different))(VBG (end)))(PP (TO (to)))(NP (DT (the))(JJ (same))(JJ (old))(NN (story))))) |ET| 
0.99084812202066285813373269775184  |BT| (ROOT (S (SBAR (IN (if)))(NP (PRP (it)))(VP (VBZ (hurt)))(NP (PRP (you)))(NP (DT (this))(JJ (much)))(ADVP (RB (then)))(NP (PRP (it)))(VP (MD (must))(VB (be)))(NP (NN (love))))) |ET| 
-1  |BT| (ROOT (S (NP (EX (there)))(VP (VBZ (be)))(ADJP (VBN (bore)))(NP (EX (there)))(VP (VBZ (be)))(NP (WP (what)))(NP (PRP (i)))(VP (VBP (be))))) |ET| 
-0.91911641729399429223690276558045  |BT| (ROOT (S (VP (VB (let)))(NP (PRP (i)))(VP (VB (gasp)))(PP (IN (against)))(NP (PRP$ (you))(NNS (lip)))(VP (TO (to))(VB (say)))(NP (DT (this))(NN (phrase)))(NP (PRP (i)))(VP (VBP (love)))(NP (PRP (you))))) |ET| 
-1  |BT| (ROOT (S (VP (VBZ (be))(VBG (cancel)))(NP (DT (the))(NN (weekend.if)))(NP (PRP (i)))(VP (VBP (have))(TO (to))(VB (work)))(ADVP (RB (then)))(NP (NN (everyone)))(ADJP (RB (else)))(VP (VBZ (have))(TO (to))(VB (suffer)))(ADVP (RB (too))))) |ET| 
0.8309684226425249065073330712039  |BT| (ROOT (S (VP (VB (please))(RB (pray)))(PP (IN (for)))(NP (PRP (i)))(NP (PRP$ (my))(NN (mom)))(VP (TO (to))(VB (have)))(NP (DT (a))(JJ (safe))(NN (flight.i)))(VP (VBP (be)))(NP (CD (100)))(PP (IN (on)))(NP (DT (the))(NN (anxiety))(NN (scale))(RB (right)))(ADVP (RB (now))))) |ET| 
0.72190552719657830049726499055396  |BT| (ROOT (S (NP (JJ (first))(NN (day)))(PP (IN (of)))(NP (NN (school)))(NP (NNP (]))))) |ET| 
0.73755213402316566195793257065816  |BT| (ROOT (S (NP (NN (today)))(VP (VBD (be)))(ADJP (RB (so))(JJ (cute.all)))(NP (PRP$ (my))(NNS (boy)))(VP (VBD (fly)))(ADVP (EX (there)))(NP (JJ (first))(NN (kite)))(PP (VBG (include)))(NP (NNP (jason))(-RRB- (-rrb-))))) |ET| 
-1  |BT| (ROOT (S (NP (VBZ (be))(RB (not)))(VP (VBG (go)))(PP (TO (to)))(NP (NN (school)))(NP (NN (today))))(S (NP (PRP (you))(NNS (guy)))(VP (MD (will))(VB (find)))(PRT (RP (out)))(ADVP (RB (later))))) |ET| 
-0.95374442385925628506981865939451  |BT| (ROOT (S (NP (JJ (new))(NN (song)))(VP (VBD (make)))(NP (VBG (stand)))(PP (IN (in)))(NP (DT (the))(NN (rain)))(VP (VB (be)))(ADVP (RP (out)))(ADVP (RB (later)))(PP (IN (on)))(PP (TO (to)))(NP (NN (day))))) |ET| 
-0.99024671638284178509792354816454  |BT| (ROOT (S (NP (JJ (done)))(VP (NN (wrapping)))(NP (NNS (present)))(VP (VBP (thank)))(NP (NN (god)))(ADVP (RB (now)))(VP (FW (i))(MD (can))(RB (finally))(VB (relax))))) |ET| 
1  |BT| (ROOT (S (SBAR (VB (awe)))(NP (PRP (i)))(VP (VBP (love)))(NP (PRP$ (my))(NN (family))(CC (and))(NNS (friend))))(S (NP (PRP (they)))(VP (VBP (keep)))(NP (PRP (i)))(VP (NN (goin))))) |ET| 
1  |BT| (ROOT (S (VP (VBZ (be)))(VP (VBG (listen)))(PP (TO (to)))(NP (NNP (ccr))))) |ET| 
0.91848721547207834436932216704008  |BT| (ROOT (S (NP (PRP (i)))(VP (VBP (love)))(NP (WRB (how))(NN (everyone)))(VP (VBZ (have)))(NP (DT (the))(JJ (xmas))(NN (spirit)))(VP (VBP (be)))(ADJP (RB (so))(RB (grumpy)))(PP (IN (about)))(VP (VBG (spend)))(NP (NN (money))))) |ET| 
-1  |BT| (ROOT (S (NP (PRP (i)))(VP (VBP (need)))(NP (NNS (nail))(CC (and))(NNS (brick))(CC (and))(NNS (board)))(VP (VB (please))))) |ET| 
-1  |BT| (ROOT (S (VP (VBD (go))(NN (shopping)))(PP (IN (with)))(NP (PRP$ (my))(NNS (life))(NNS (savings))))) |ET| 
-1  |BT| (ROOT (S (NP (DT (the))(`` ("))(NNP (high))(CD (five))('' (")))(PP (IN (at)))(NP (DT (the))(NN (end)))(PP (IN (of)))(NP (DT (the))(NNPS (jackass)))(VP (VBZ (3d)))(ADJP (JJ (commercial))))(S (NP (PRP (i)))(VP (VBD (laugh)))(ADVP (RB (so))(RB (hard))))) |ET| 
0.93201273761304359588564238947583  |BT| (ROOT (S (NP (NN (softball)))(PP (IN (in)))(NP (DT (the))(NN (morning))))(S (NP (NN (football)))(PP (IN (in)))(NP (DT (the))(NN (afternoon))))(S (NP (WP (what)))(VP (MD (could))(VB (be)))(ADJP (JJR (better))))) |ET| 
1  |BT| (ROOT (S (VP (VB (sleep)))(PP (IN (until)))(NP (CD (3)))(NP (NN (today))))(S (ADVP (RB (back)))(PP (TO (to)))(NP (VB (work)))(NP (NN (tomorrow))))(S (NP (NN (ahhh))))) |ET| 
0.76641962332423474446585487385164  |BT| (ROOT (S (VP (VBD (be))(VBN (suppose))(TO (to))(VB (be)))(ADVP (RP (off))(IN (out)))(PP (IN (on)))(NP (DT (the))(NNS (tile)))(NP (NN (tonight)))(NP (NN (mate)))(VP (MD (can))(RB (not))(VB (go)))(ADVP (RB (now))))(S (VP (VB (guess)))(NP (WP (what)))(NP (PRP (i)))(VP (VBP (be))(RB (not))(RB (really))(VBN (bother)))(NP (RB (too))(JJ (bloody))(JJ (cold))(NNS (!!!!!))))) |ET| 
-1  |BT| (ROOT (S (NP (DT (some))(NN (packing)))(NP (NN (today))))(S (VP (VBG (move)))(VP (VBZ (be)))(NP (NN (fun))))) |ET| 
-1  |BT| (ROOT (S (NP (PRP (it)))(VP (VBZ (be)))(ADJP (NNP (sooooooooooo))(JJ (cold)))(ADJP (JJ (windy)))(PP (RP (out)))(NP (NN (!!!!!!))))(S (NP (NNP (brrrrrrrrrrrrr))))) |ET| 
-1  |BT| (ROOT (S (PP (TO (to)))(NP (DT (the))(NN (windowwwwwwwwwwwwwwwwww)))(PP (TO (to)))(NP (DT (the))(NN (waaaaaall))))(S (NP (VBD (<))(CD (3))))) |ET| 
0.77760855505873927029369951924309  |BT| (ROOT (S (NP (NNP (wish)))(SBAR (WDT (that)))(NP (PRP (i)))(VP (VBD (be)))(ADVP (RB (still)))(ADVP (RB (up))(RB (north))))) |ET| 
0.79147579282284163948446575886919  |BT| (ROOT (S (ADVP (RB (well)))(PP (VB (peoplei)))(NP (PRP$ (its))(NN (time)))(NP (LS (2)))(VP (VB (shut)))(NP (DT (the))(NNS (shuder)))(PP (IN (on)))(NP (NN (mi))(NNS (eye)))(VP (VB (luv)))(NP (PRP (ya))))) |ET| 
0.85032855590848621663013773286366  |BT| (ROOT (S (NP (RB (just)))(VP (JJ (baked)))(NP (DT (a))(NN (cake)))(NP (PRP (it)))(VP (VBD (be)))(ADJP (JJ (lush)))(VP (VBD (get))(RB (too))(RB (much))(VBN (leave)))(PRT (RP (over)))(ADVP (RB (though))))) |ET| 
-0.9115696224570390970853850376443  |BT| (ROOT (S (ADVP (RB (now)))(NP (JJ (roger))(JJ (that.did))(NN (u))(VBP (copy)))(SBAR (JJ (that.c)))(NP (SYM (c)))(VP (VBP (copy)))(NP (NN (cat))))) |ET| 
-0.97337053896819358822511958351242  |BT| (ROOT (S (NP (RB (just)))(VP (VBD (pick)))(PRT (RP (up)))(NP (DT (a))(NN (bunch))(CC (or))(JJ (jumbo))(NNS (crab)))(PP (IN (on)))(NP (NN (sale)))(PP (IN (at)))(NP (NNP (captain)))(NP (POS ('s))(VBG (catch.getting)))(ADJP (JJ (ready)))(VP (TO (to))(VB (dig)))(PP (RP (in))))) |ET| 
-0.90969339908224344792841975504416  |BT| (ROOT (S (NP (NNS (feel)))(PP (IN (like)))(NP (PRP (she)))(ADVP (RB (really)))(VP (MD (should))(RB (not))(VB (be))(VBG (watch)))(NP (JJ (many))(JJ (jedward))(NNS (thing)))(PP (IN (on)))(NP (NN (youtube))))) |ET| 
1  |BT| (ROOT (S (VP (VBG (clean)))(NP (DT (the))(NN (house.wut)))(ADJP (RB (else)))(VP (VBZ (be)))(NP (EX (there)))(VP (TO (to))(VB (do))))) |ET| 
0.87074957988392653884801575259189  |BT| (ROOT (S (VP (VBZ (be)))(ADJP (VBN (satisfy)))(PP (IN (with)))(ADVP (WRB (how)))(NP (NN (school)))(VP (VBZ (be))(VBG (go)))(ADVP (RB (so))(RB (far))))) |ET| 
0.83865531916012348023770073268679  |BT| (ROOT (S (VP (VBZ (have))(VBN (run)))(PP (RP (out)))(PP (IN (of)))(NP (NNP (big))(NNP (bang))(NN (theory))(NNS (episode))))(S (NP (WP (what))(DT (a))(JJ (massive))(NN (twat))))) |ET| 
-0.96864018757207004384213178127538  |BT| (ROOT (S (VP (VB (let))(VB (go)))(PP (IN (of)))(NP (DT (the))(VBN (fade)))(SBAR (IN (so)))(NP (EX (there)))(VP (VBZ (be)))(NP (NN (room)))(SBAR (IN (for)))(NP (DT (the))(JJ (vibrant))))) |ET| 
-1  |BT| (ROOT (S (NP (RB (about)))(VP (TO (to))(NN (color)))(NP (UH (hello))(NNP (kitty)))(PP (IN (with)))(NP (PRP$ (my))(JJ (princess.the))(NNS (joy)))(PP (IN (of)))(NP (NN (motherhood)))(VP (VBD (get))(TO (to))(VB (love)))(NP (PRP (it))))) |ET| 
-0.8941740840297591752516837004805  |BT| (ROOT (S (NP (CD (1))(NN (kiddo)))(PP (IN (at)))(NP (JJ (grandmas))(NN (house))(CD (.1))(NN (kiddo)))(PP (IN (at)))(NP (DT (a))(JJ (sleepover.house)))(ADVP (DT (all)))(PP (TO (to)))(NP (PRP (myself)))(NP (DT (no))(NN (idea)))(NP (WP (what)))(VP (TO (to))(VB (do))))) |ET| 
0.83246305705817991160699875763385  |BT| (ROOT (S (NP (NNP (hahahaahha))(VBD (whoa))))(S (NP (NN (im))(NNS (bein)))(VP (TO (to))(RB (damn)))(ADJP (JJ (nice)))(PP (VBP (like)))(ADVP (RB (really))(JJ (janine))))(S (NP (NNP (hmmmmmm))(NNP (imma)))(VP (VBP (need)))(NP (DT (the))(JJ (old))(NN (janine)))(VP (TO (to))(VB (come)))(PRT (RP (out)))(NP (JJ (:}))(NN (hahahahaha))(VBP (*))(NN (sigh))))) |ET| 
1  |BT| (ROOT (S (NP (NN (dosent)))(ADVP (RB (really)))(VP (VBP (give)))(NP (DT (a))(NN (shit)))(SBAR (IN (that)))(NP (PRP$ (my))(NN (sign)))(VP (VBD (change)))(NP (NN (lol))))) |ET| 
0.89784882797396081688390268027433  |BT| (ROOT (S (VP (VBZ (be)))(ADVP (VBN (chillin)))(PP (IN (at)))(NP (NN (home))))(S (NP (NN (bout)))(VP (TO (to))(VB (be)))(PP (IN (on)))(NP (DT (the))(JJ (fone))(NN (wit)))(NP (PRP$ (my))(NN (boo))))(S (PP (NNP (:})))(NP (VBD (so))(VBN (excite))(NN (bout))(NN (tomorro))))(S (NP (PRP (i)))(VP (VBP (love)))(NP (PRP (you)))(ADJP (NNP (nic))))) |ET| 
-1  |BT| (ROOT (S (NP (PRP (i)))(VP (VBP (be))(RB (officially))(VBN (do)))(PP (IN (with)))(NP (NNP (nursing))(NNP (school))))(S (NP (VB (pin))(NNP (ceremony)))(NP (NN (tomorrow))))(S (NP (VBN (graduation)))(VP (NNP (saturday))))) |ET| 
-0.94194345301136583881174146881676  |BT| (ROOT (S (VP (JJ (hapi2)))(NP (NN (bday)))(PP (TO (to)))(NP (PRP$ (my))(CD (one))(NN (nd)))(ADVP (RB (only)))(VP (JJ (papa)))(NP (NN (n))(DT (this))(NN (world)))(ADVP (NNP (;]))))) |ET| 
-0.94357274848196281968881748980493  |BT| (ROOT (S (NP (VBP (dont)))(ADVP (RB (really)))(VP (VB (know)))(ADVP (WRB (how)))(NP (VBP (im))(VBG (feel)))(NP (NN (today))))) |ET| 
0.78717551457954404448003060679184  |BT| (ROOT (S (NP (DT (the))(NN (world)))(VP (MD (will))(LS (c)))(NP (VB (illumination)))(PP (IN (at)))(NP (DT (the))(NN (dawn)))(PP (IN (of)))(NP (NN (humanity))))) |ET| 
1  |BT| (ROOT (S (NP (VBN (goin)))(VP (TO (to))(NN (lakeland))))) |ET| 
0.63292646666508056707556306719198  |BT| (ROOT (S (VP (NN (workin)))(PP (IN (on)))(NP (DT (the))(NN (research))(NN (paper))(VBD (={))))(S (ADJP (JJ (ready)))(PP (IN (for)))(NP (NNP (new))(NN (moon)))(NP (NNP (friday)))(VP (SYM (=))))) |ET| 
-0.98261370484473153918969501319225  |BT| (ROOT (S (NP (WDT (what)))(NP (DT (a))(NN (time)))(NP (DT (this))(NN (summer)))(VP (VBZ (be))(VBG (turn)))(PRT (RP (out)))(VP (TO (to))(VB (be))))) |ET| 
-1  |BT| (ROOT (S (NP (NNP (yesss))(PRP (i))(NNP (know))(NNP (how))(TO (to))(NNP (keep))(NNP (my))(NNP (wig)))(PP (IN (on))))) |ET| 
-0.88608936826873541114935051155044  |BT| (ROOT (S (VP (VBD (notice)))(SBAR (IN (that)))(NP (DT (a))(NN (fortune))(NN (cookie)))(VP (VBZ (look)))(PP (IN (like)))(NP (DT (the))(JJ (female))(NN (organ))))) |ET| 
0.677114578791330634643941266404  |BT| (ROOT (S (NP (PRP (you)))(VP (VBG (listen)))(PP (TO (to)))(NP (PRP (i))))(S (NP (`` ("))(NNP (umm))(, (,))(RB (not)))(ADVP (RB (really)))(UCP ('' ("))))) |ET| 
0.74593550447854117813051288976567  |BT| (ROOT (S (VP (VBZ (be))(VBG (look)))(ADVP (RB (forward)))(PP (TO (to)))(NP (NNP (february))))(S (NP (PRP (it)))(VP (MD (can))(RB (not))(VB (come)))(ADVP (RB (soon))(RB (enough))))) |ET| 
0.93672454523475590093539722147398  |BT| (ROOT (S (NP (VB (thank))(JJ (effing))(NN (god))))(S (NP (PRP (i)))(VP (VBP (think)))(NP (PRP (i)))(VP (VBP (be)))(ADVP (RB (finally)))(VP (VBG (get)))(NP (PRP$ (my))(NN (truck)))(ADVP (RB (back)))(NP (NN (tomorrow))(RB (night))))) |ET| 
-1  |BT| (ROOT (S (NP (VB (preformal))(JJ (last))(NN (night))))(S (NP (PRP (it)))(VP (VBD (be))(JJ (amazing)))(NP (NN (cant))(VB (wait)))(PP (IN (until)))(NP (DT (the))(JJ (next))(CD (one))(NN (whoopwhoop)))(NP (NNP (d))))) |ET| 
-0.99782904051013265878111724305199  |BT| (ROOT (S (SBAR (IN (if)))(NP (PRP (you)))(VP (VBP (want)))(NP (DT (a))(NN (rainbow)))(NP (PRP (you)))(VP (MD ('ll))(VB (have))(TO (to))(VB (deal)))(PP (IN (with)))(NP (DT (the))(NN (rain))))) |ET| 
-0.81526133130812317162394720071461  |BT| (ROOT (S (SBAR (IN (if)))(NP (PRP (you)))(VP (VBP (gaze)))(ADVP (RB (too))(RB (long)))(PP (IN (into)))(NP (DT (a))(NNS (abyss)))(NP (DT (the))(NN (abyss)))(VP (VBZ (gaze)))(ADVP (RB (also)))(PP (IN (into)))(NP (PRP (you))))) |ET| 
1  |BT| (ROOT (S (NP (NNP (school)))(VP (VB (gon))(VB (be)))(NP (JJ (good))(DT (this))(NN (week))))) |ET| 
