SVM-light Version V5.01-TK-1.4.3_smoothing
5 # kernel type
3 # kernel parameter -d 
1 # kernel parameter -g 
1 # kernel parameter -s 
1 # kernel parameter -r 
empty# kernel parameter -u 
0.4 # kernel parameter -L 
1 # kernel parameter -T 
T # kernel parameter -C 
1 # kernel parameter -F 
1 # kernel parameter -S 
0.400000 # kernel parameter -M 
3 # kernel parameter -N 
S # kernel parameter -V 
S # kernel parameter -W 
 # kernel parameter -G 
1.000000 # similarity threshold -H 
1.000000 # terminal factor -X 
empty # matrix path -P 
empty # cache path -Z 
1000000 # cache size -A 
10000000 # cache max size -B 
0.500000 # refresh factor -D 
10 # highest feature index 
4000 # number of training documents 
1827 # number of support vectors plus 1 
-2.784032 # threshold b, each following line is a SV (starting with alpha*y)
-1  |BT| (ROOT (S (NP (NN (subway)))(ADVP (RB (then))(RBR (more))(VBG (study)))(PP (IN (for)))(NP (NN (bio))(JJ (final))(NN (egh))))) |ET| 
-1  |BT| (ROOT (S (ADJP (JJ (busy))(JJ (busy)))(NP (NN (day)))(NP (NN (tomorrow))))(S (NP (JJ (=]))(NN (eye))(NNS (check-up)))(ADVP (RB (then)))(VP (VBG (pick)))(PRT (RP (out)))(VP (VBG (order)))(NP (PRP$ (my))(NN (corsage)))(PP (IN (for)))(NP (NN (prom)))(NP (JJ (next))(NN (weekend))))) |ET| 
-1  |BT| (ROOT (S (NP (NNS (laker)))(VP (VBD (lose)))(NP (NN (tonight)))(NP (POS ('s))(NN (battle)))(CONJP (CC (but))(RB (not)))(NP (DT (the))(NN (war))))) |ET| 
-1  |BT| (ROOT (S (NP (JJ (first))(NN (day)))(PP (IN (of)))(NP (NN (school)))(NP (NNP (]))))) |ET| 
-1  |BT| (ROOT (S (VP (VBG (go))(VBG (swim)))(PP (IN (with)))(NP (NNP (michael))(NNP (crawley)))(ADVP (RB (then)))(NP (NN (dinner)))(PP (IN (with)))(NP (NNP (amy))(NNP (sikes))(NNP (-lrb-))))) |ET| 
1  |BT| (ROOT (S (NP (VB (lol)))(VP (VBG (watchingg)))(NP (DT (the))(NN (roast)))(PP (IN (of)))(NP (JJ (donald))(NN (trumph))))) |ET| 
1  |BT| (ROOT (S (NP (JJ (mmh))(JJ (butterkist))(JJ (sweet)))(ADVP (NN (popcorn.nearly)))(VP (VBD (finish)))(NP (DT (the))(JJ (whole))(NN (bag))(NN (ha))(SYM (x))(SYM (x))))) |ET| 
1  |BT| (ROOT (S (NP (PRP (it)))(VP (VBZ (be)))(NP (WP (what)))(NP (FW (i))(VBZ (m)))(ADVP (RB (now))))) |ET| 
1  |BT| (ROOT (S (NP (FW (i)))(VP (VBD (fight)))(NP (DT (the))(NN (law)))(NP (DT (the))(NN (law)))(VP (VBD (win))))) |ET| 
1  |BT| (ROOT (S (NP (PRP (i)))(ADVP (RB (never)))(VP (VBD (think)))(NP (PRP (i)))(VP (MD (would))(VB (say)))(NP (DT (this))))) |ET| 
-1  |BT| (ROOT (S (VP (VBZ (be)))(ADJP (JJ (glad)))(NP (PRP (he)))(VP (VBD (get)))(NP (DT (the))(NN (job))))) |ET| 
-1  |BT| (ROOT (S (NP (PRP (i)))(VP (VBP (think)))(ADVP (RB (therefore)))(NP (PRP (i)))(VP (MD (must))(VB (sleep))))) |ET| 
-1  |BT| (ROOT (S (NP (DT (the))(NN (summer)))(VP (VBD (end)))(NP (CD (2)))(ADVP (RB (soon))))) |ET| 
1  |BT| (ROOT (S (VP (VBD (have)))(NP (DT (a))(JJ (great))(NN (day)))(PP (IN (of)))(NP (NN (shopping)))(PP (IN (with)))(NP (PRP$ (my))(NNS (sister))))) |ET| 
1  |BT| (ROOT (S (PP (IN (in)))(NP (NN (training)))(NP (DT (all))(NN (day))))) |ET| 
1  |BT| (ROOT (S (NP (CD (30))(NNS (min)))(ADVP (RB (then))(RP (off)))(VP (TO (to))(VB (give)))(NP (PRP$ (my))(NN (niece)))(NP (PRP$ (she)))(VP (NN (b)))(NP (NN (day))(JJ (present))(NN (whooo))(NN (hooo))))) |ET| 
-1  |BT| (ROOT (S (NP (FW (i)))(VP (VB (have)))(NP (DT (a))(JJ (new))(NN (goal.to))(VB (sell)))(PP (TO (to)))(NP (CD (20))(NNS (people)))(NP (DT (a))(NN (week))))(S (ADVP (RB (so))(RB (far)))(NP (FW (i)))(VP (VBP (have))(VBN (do)))(NP (DT (this))(NNS (week))(NN (goal))))) |ET| 
-1  |BT| (ROOT (S (NP (NNP (jimmy))(VBP (carr)))(PP (IN (on)))(NP (NN (tv))(CC (and))(RB (not)))(PP (IN (in)))(NP (DT (a))(NN (suit))))) |ET| 
-1  |BT| (ROOT (S (NP (FW (i)))(VP (VBD (get)))(NP (PRP$ (my))(NN (ring)))(VP (VBN (clean)))(NP (PRP$ (its)))(PP (JJ (like)))(NP (JJ (new))(NNS (*)))(PP (VBG (=})))(NP (CD (<))(CD (3))(VBP (love)))(NP (PRP (it))))) |ET| 
1  |BT| (ROOT (S (NP (NNP (imma)))(VP (VBP (need)))(NP (PRP (you)))(VP (TO (to))(VB (fix)))(NP (PRP (they)))(NP (JJ (high))(NNS (note))(NN (baby))))) |ET| 
1  |BT| (ROOT (S (NP (PRP (i)))(VP (VBP (want))(TO (to))(VB (be)))(NP (JJ (someones))(NN (godfather))))) |ET| 
1  |BT| (ROOT (S (NP (NNP (stuck)))(PP (IN (in)))(NP (DT (a))(JJ (closet.at))(NN (gabby)))(NP (POS ('s))(NNS (house.i))(VBP (hate)))(NP (DT (this)))(NP (NN (jonathan)))(VP (VBZ (be))(VBG (come))(TO (to))(VB (join)))(NP (PRP (i)))(VP (JJ (:d)))(NP (NN (dont)))(VP (VB (ask))))) |ET| 
-1  |BT| (ROOT (S (NP (PRP (i)))(VP (VBP (be))(JJ (aimin)))(NP ('' ('))(RB (right)))(PP (IN (at)))(NP (JJ (you250))))) |ET| 
-1  |BT| (ROOT (S (PP (TO (to)))(NP (NNP (duncan))(JJ (ok))))) |ET| 
-1  |BT| (ROOT (S (PP (IN (up)))(ADVP (RB (so))(RB (early)))(NP (PRP (i)))(VP (VBP (be)))(ADJP (JJ (sure)))(NP (WP (what)))(VP (TO (to))(VB (do)))(PP (IN (with)))(NP (PRP (myself))))) |ET| 
1  |BT| (ROOT (S (NP (VBD (1-1)))(PP (IN (at)))(NP (DT (the))(NN (end)))(PP (IN (of)))(NP (CD (1))))) |ET| 
1  |BT| (ROOT (S (NP (FW (i)))(VP (VBP (be)))(NP (DT (the))(JJ (pregant))(NN (one))(PDT (all))(DT (those))(NNS (pep)))(VP (VBP (bow)))(ADVP (RP (down)))(PP (TO (to)))(NP (DT (the))(JJ (fatty))(NN (bum)))(VP (NN (bum))))) |ET| 
1  |BT| (ROOT (S (NP (NN (nothing)))(VP (VBZ (be)))(ADJP (JJ (permanent)))(PP (IN (except)))(NP (NN (change))))) |ET| 
-1  |BT| (ROOT (S (NP (DT (the))(JJ (modern))(NN (equivalent)))(PP (IN (of)))(NP (NN (ganandorf)))(VP (VBZ (be)))(NP (DT (the))(NN (guy)))(VP (RB (w)))(PP (VBP (/)))(NP (JJ (multiple))(JJ (popped))(NNS (collar))))(S (NP (NNS (#douchiness))(VBZ (transcend))(NN (history))))) |ET| 
-1  |BT| (ROOT (S (VP (VBZ (be)))(ADVP (RB (just)))(VP (JJ (chilling)))(PP (IN (at)))(NP (DT (the))(JJ (apt))))) |ET| 
-1  |BT| (ROOT (S (VP (VBZ (be)))(VP (VBG (go)))(PRT (RP (out)))(VP (TO (to))(VB (eat)))(PP (IN (with)))(NP (PRP$ (he))(NN (baby))))) |ET| 
1  |BT| (ROOT (S (SBAR (IN (if)))(NP (PRP (i)))(VP (MD (can))(RB (not))(VB (tell)))(NP (WP (who)))(NP (VBZ (be))(JJ (gay)))(ADVP (WRB (how)))(NP (PRP (i)))(VP (VBP (know)))(NP (WP (who)))(VP (TO (to))(VB (judge))))) |ET| 
1  |BT| (ROOT (S (VP (VBD (see)))(NP (JJ (new))(NN (moon)))(NP (PRP (it)))(VP (VBD (be)))(ADVP (RB (really)))(ADJP (JJ (good))))) |ET| 
1  |BT| (ROOT (S (NP (MD (can))(RB (not)))(VP (VB (wait)))(PP (IN (for)))(NP (PRP$ (my))(NN (naya)))(VP (TO (to))(VB (meet)))(NP (JJ (tamzens))(NN (sumaium))))(S (VP (RB (either)))(NP (VBD (tonite))(CC (or))(NNP (thursday))))) |ET| 
-1  |BT| (ROOT (S (ADVP (WRB (how)))(NP (FW (i)))(VP (VBP (know)))(SBAR (IN (that)))(NP (PRP (you)))(VP (VBD (be))(VBG (wait)))(PP (IN (for)))(NP (PRP (i))))) |ET| 
-1  |BT| (ROOT (S (PP (TO (to)))(NP (PDT (all))(DT (the))(NN (ap))(NNS (student)))(VP (VBP (pullin)))(NP (DT (all))(NNS (nighter)))(VP (VB (know)))(NP (DT (this)))(NP (PRP (you)))(VP (VBP (be)))(ADJP (RB (alone))))) |ET| 
-1  |BT| (ROOT (S (VP (VBD (have))(CC (and)))(NP (DT (every))(JJ (good))(NN (night)))(PP (IN (with)))(NP (DT (the))(JJ (babe))(VBP (:d)))(VP (VBN (see)))(NP (NNP (ajb)))(VP (VBP (do)))(NP (PRP (they)))(UCP (NN (thing))))(S (VP (VBN (make)))(NP (PRP (i)))(VP (VBP (miss))))(S (ADVP (WRB (how)))(NP (RB (much))(FW (i))(VBP (love))(NN (dance))))(S (NP (JJ (*))(NN (sigh)))(NP (PRP (he)))(VP (VBZ (be)))(ADJP (JJ (perfect))))) |ET| 
1  |BT| (ROOT (S (NP (DT (the))(JJ (sweet)))(ADVP (RB (just)))(VP (VBZ (be)))(ADJP (RB (as))(JJ (sweet)))(PP (IN (without)))(NP (DT (the))(JJ (sour))(NN (!!!!!))))(S (NP (NNP (;}))(NNP (~))(NNP (~))(VBP (~))))) |ET| 
1  |BT| (ROOT (S (VP (VBZ (be)))(ADVP (RB (currently)))(VP (VBG (watch)))(NP (DT (the))(NNP (time))(NNP (traveler)))(NP (POS ('s))(NN (wife))))) |ET| 
1  |BT| (ROOT (S (VP (VBN (go)))(NP (JJ (yard-sale))(CC ('n)))(PP (IN (with)))(NP (DT (the))(NN (bear))))) |ET| 
-1  |BT| (ROOT (S (NP (RB (yes)))(VP (VBD (finish)))(NP (NN (college)))(PP (IN (for)))(NP (DT (the))(NN (week))(NN (result))))) |ET| 
-1  |BT| (ROOT (S (PP (VB (woo)))(NP (JJ (11th))(NN (prestige))))) |ET| 
-1  |BT| (ROOT (S (NP (JJ (sick)))(PP (IN (of)))(VP (NN (b)))(NP (PRP$ (its))(PRP (i)))(PP (IN (against)))(NP (JJ (tha))(NN (world))(NN (rite)))(ADVP (RB (now)))(NP (JJ (fuk))(NNS (friend))))) |ET| 
1  |BT| (ROOT (S (VP (VB (let)))(NP (PRP (i)))(VP (VB (gasp)))(PP (IN (against)))(NP (PRP$ (you))(NNS (lip)))(VP (TO (to))(VB (say)))(NP (DT (this))(NN (phrase)))(NP (PRP (i)))(VP (VBP (love)))(NP (PRP (you))))) |ET| 
1  |BT| (ROOT (S (NP (NNP (sf))(NNS (grade)))(ADVP (RB (still)))(VP (VBP (be)))(ADJP (RB (up))))(S (NP (DT (this)))(VP (VBZ (be)))(NP (NNP (madness))))) |ET| 
1  |BT| (ROOT (S (VP (VB (speak)))(ADVP (RB (only)))(ADVP (WRB (when)))(NP (PRP (you)))(NP (NNP (feel))(NN (yourr))(NNS (word)))(VP (VBP (be)))(ADJP (JJR (better)))(PP (IN (than)))(NP (DT (the))(NNP (silence))))) |ET| 
-1  |BT| (ROOT (S (VP (VBZ (be)))(NP (NN (softball))(NN (game))))(S (ADVP (RB (then)))(NP (NNP (ashley)))(NP (VBZ (be))(NNP (b-day))(NNP (party))))) |ET| 
-1  |BT| (ROOT (S (NP (DT (a))(NN (joke)))(VP (VBZ (be)))(NP (DT (the))(RBS (most))(JJ (concrete))(NN (abstraction))))) |ET| 
-1  |BT| (ROOT (S (PP (NNP (destiny)))(NP (NNP (heree)))(NP (NNP (hackin)))(NP (POS ('))(NNP (the))(NNP (bro))(NNP (page))))(S (NP (NN (ily))(VBD (bro))))(S (NP (NNP (even))(NNP (though))(NNP (yhu))(VB (get)))(PP (RP (on)))(NP (NNP (my))(NNP (nerves))))) |ET| 
1  |BT| (ROOT (S (NP (NNS (thanks))(TO (to))(VB (all))(DT (the))(NNS (griller)))(PP (IN (for)))(NP (NNP (their))(NNP (girl))(NNP (scout))(NNP (orders))))) |ET| 
1  |BT| (ROOT (S (NP (JJ (bored))(CC (but))(JJ (cba))(NN (goin))(NN (bed))))) |ET| 
1  |BT| (ROOT (S (NP (JJ (first))(NN (day)))(PP (IN (of)))(NP (NNS (class)))(NP (JJ (sooo))(JJ (easy))(NN (tomorrow)))(VP (VBZ (be)))(NP (DT (a))(CD (12))(TO (to))(CD (6))(NN (day))))) |ET| 
-1  |BT| (ROOT (S (NP (VBG (begin)))(VP (TO (to))(VB (doubt)))(NP (PRP$ (my))(NN (judgment))(VBG (:{))(SYM (x))))) |ET| 
-1  |BT| (ROOT (S (NP (NNS (want)))(VP (TO (to))(VB (get)))(NP (VBN (marry)))(NP (WP (who)))(VP (VBZ (want))(TO (to))(VB (be)))(NP (PRP$ (my))(NN (hubby))))(S (NP (JJ (:p))(NN (xxx))))) |ET| 
-1  |BT| (ROOT (S (NP (NNS (wikileak)))(VP (VBG (have)))(NP (RB (so))(RB (much)))(VP (TO (to))(VB (say))))) |ET| 
1  |BT| (ROOT (S (VP (VBG (pack)))(NP (NN (packing))(NN (packing))))(S (NP (NNP (isabella)))(NP (POS ('s))(NNS (gymnastics))(NN (competition)))(VP (VBP (meet)))(NP (DT (this))(NN (weekend)))(PP (IN (in)))(NP (NNP (tampa))))) |ET| 
1  |BT| (ROOT (S (NP (VB (shemesh)))(VP (CD ('10)))(NP (WP (what))))) |ET| 
1  |BT| (ROOT (S (NP (PRP$ (my))(NN (snack)))(VP (VBZ (be)))(NP (DT (a))(JJ (weird))(NN (combination)))(NP (NNS (pickle)))(NP (NN (chocolate))(NN (milk))))) |ET| 
-1  |BT| (ROOT (S (NP (DT (a))(NN (moment)))(PP (IN (like)))(NP (DT (this))))) |ET| 
-1  |BT| (ROOT (S (NP (VB (praise)))(VP (VB (confuse)))(NP (DT (the))(NN (enemy))))) |ET| 
-1  |BT| (ROOT (S (NP (DT (the))(JJ (crazy))(NN (wind)))(ADJP (RB (almost)))(VP (VBD (knock)))(NP (PRP (i)))(PP (VBP (over.buurrr)))(NP (PRP (it)))(VP (VBZ (be)))(ADJP (JJ (cold))))) |ET| 
1  |BT| (ROOT (S (NP (RB (about)))(VP (TO (to))(VB (lose)))(NP (PRP (it))))(S (ADVP (WRB (why)))(NP (NNS (people)))(VP (VBP (have))(TO (to))(VB (be)))(NP (NNP (soo))(NNP (immature))))) |ET| 
1  |BT| (ROOT (S (NP (NNP (planning))(TO (to))(NNP (dance))))) |ET| 
1  |BT| (ROOT (S (NP (JJ (just))(NNS (g0t)))(PP (VBD (0ut)))(NP (DT (the))(NNS (sh0wer))))(S (NP (JJ (n0w))(NNS (chiilliian)))(PP (VBP (wiith)))(NP (PRP$ (my))(NNP (love))(NNP (antoiinette))))) |ET| 
-1  |BT| (ROOT (S (NP (NN (anybody)))(VP (VBP (know)))(NP (WP (what)))(NP (DT (the))(NN (summer))(NN (reading))(NNS (book)))(VP (VBP (be))))) |ET| 
-1  |BT| (ROOT (S (VP (VBZ (be)))(ADVP (RB (back)))(PP (TO (to)))(NP (DT (the))(NN (land)))(PP (IN (of)))(NP (NN (beef))(NN (lover)))(NP (POS ('s))))(S (VP (UH (oh)))(ADVP (UH (well)))(NP (PRP (i)))(VP (VBD (have)))(NP (DT (some))(NN (grouper)))(NP (JJ (conch))(NNS (fritter)))(NP (NN (jamaican))(NNS (patiie)))(NP (VB (curry))(NN (chicken.hmmm)))(NP (PDT (all)))(UCP (DT (that)))(VP (VBD (be)))(ADVP (RB (only)))(PP (IN (in)))(NP (DT (the))(NN (sunshine))(NN (state)))(NP (DT (a))(JJ (hot))(NN (minute.-back)))(PP (IN (on)))(NP (PRP$ (my))(NN (mission)))(VP (NNP (pursuing)))(NP (NNP (ideal))(NNP (weight))(CD (2010))('' ("))))) |ET| 
-1  |BT| (ROOT (S (NP (NNS (cmon)))(VP (VBP (ask)))(NP (PRP (i)))(NP (WP (what)))(NP (DT (the))(NNS (character)))(PP (IN (in)))(NP (PRP$ (my))(NN (name))(VBP (mean))(JJ (pleaaaase))))) |ET| 
1  |BT| (ROOT (S (VP (VBD (notice)))(SBAR (IN (that)))(NP (DT (a))(NN (fortune))(NN (cookie)))(VP (VBZ (look)))(PP (IN (like)))(NP (DT (the))(JJ (female))(NN (organ))))) |ET| 
1  |BT| (ROOT (S (NP (NN (beer)))(PP (IN (with)))(NP (DT (a))(NN (bit)))(PP (IN (of)))(NP (NN (sprite))))) |ET| 
1  |BT| (ROOT (S (SBAR (IN (if)))(NP (PRP (you)))(VP (VBP (want)))(NP (DT (a))(NN (rainbow)))(NP (PRP (you)))(VP (MD ('ll))(VB (have))(TO (to))(VB (deal)))(PP (IN (with)))(NP (DT (the))(NN (rain))))) |ET| 
-1  |BT| (ROOT (S (NP (VBZ (xma)))(VP (NN (shopping)))(NP (NN (today))))(S (NP (FW (i)))(VP (VBD (get)))(NP (PRP (myself)))(NP (DT (a))(NN (lot)))(PP (IN (of)))(NP (NN (stuff))))(S (NP (CC (and))(FW (i)))(VP (VBD (get)))(NP (DT (the))(NN (fam)))(NP (DT (a))(JJ (few))(NNS (thing))))) |ET| 
-1  |BT| (ROOT (S (NP (VBD (lose))(DT (a))(NN (pint)))(PP (IN (of)))(NP (NN (blood)))(NP (WP (what)))(VP (VBZ (feel)))(PP (IN (like)))(NP (DT (a))(NN (pound)))(PP (IN (of)))(NP (NN (hair))))) |ET| 
-1  |BT| (ROOT (S (NP (RB (just)))(VP (VBP (promise)))(NP (PRP (i)))(NP (PRP (you)))(VP (MD ('ll))(VB (think)))(PP (IN (of)))(NP (PRP (i))))) |ET| 
1  |BT| (ROOT (S (NP (JJ (sad))(NNS (kiddie)))(VP (VBP (wid)))(NP (DT (the))(NN (dad)))(VP (VBP (be)))(NP (DT (all)))(ADJP (RB (alone))))) |ET| 
1  |BT| (ROOT (S (ADVP (RB (finally)))(NP (DT (the))(NNP (sun)))(VP (VBP (show)))(PRT (RP (up)))(NP (MD (will)))(NP (DT (this))(VB (help)))(VP (TO (to))(VB (ease)))(NP (DT (the))(NN (flood))))) |ET| 
1  |BT| (ROOT (S (NP (PRP (i)))(VP (VBP (realize)))(NP (PRP (it)))(VP (VBZ (be)))(ADVP (RB (only)))(PP (IN (in)))(NP (PRP (myself)))(NP (IN (that)))(NP (FW (i)))(VP (VB (find)))(NP (JJ (real))(NN (love)))(NP (JJ (real))(NN (truth))))) |ET| 
-1  |BT| (ROOT (S (VP (VBG (watch)))(NP (DT (the))(NNPS (simpsons)))(VP (VBP (<)))(NP (CD (3))))) |ET| 
-1  |BT| (ROOT (S (VP (VBG (watch)))(NP (NNP (resident))(NNP (evil)))(NP (NNP (extinction))))) |ET| 
-1  |BT| (ROOT (S (NP (NNS (thanks)))(PP (IN (for)))(NP (PDT (all)))(NP (DT (the))(NN (birthday)))(VP (VBZ (wish))))(S (NP (NNS (thanks))(VBP (steph)))(PP (IN (for)))(NP (DT (the))(JJ (great))(NN (birthday))(NN (bbq))))) |ET| 
1  |BT| (ROOT (S (NP (NNP (crap))))(S (NP (PRP (i)))(VP (VBP (need)))(NP (DT (a))(NN (car))))(S (NP (NN (money)))(VP (MD (would))(VB (help))))) |ET| 
1  |BT| (ROOT (S (NP (WP (what)))(NP (PRP (you)))(VP (VB (want)))(NP (PRP (i)))(VP (TO (to))(VB (give)))(NP (PRP (ya))))) |ET| 
1  |BT| (ROOT (S (VP (NNP (love)))(NP (VBD (doesnt))(VBN (hurt)))(NP (NN (love)))(VP (VBZ (complete)))(NP (WP (what)))(NP (PRP (it)))(VP (VBZ (have))(VBN (start))))) |ET| 
-1  |BT| (ROOT (S (NP (PRP (i)))(VP (VBP (be))(VBG (get)))(SBAR (IN (that)))(NP (PRP (i)))(VP (VBP (want)))(NP (DT (another))(JJ (tattoo))(NN (itch))))) |ET| 
-1  |BT| (ROOT (S (ADJP (RB (so))(NN (ive)))(VP (VBD (realize)))(PP (JJ (whats)))(NP (DT (the))(NN (point)))(PP (IN (in)))(NP (VBG (chase))))(S (NP (FW (i)))(VP (VB (give)))(PRT (JJ (up))))(S (SBAR (IN (if)))(NP (PRP (you)))(VP (VBD (want)))(NP (PRP (i)))(NP (PRP (you)))(VP (VBP (couldve))(VBD (have)))(NP (PRP (i))))) |ET| 
-1  |BT| (ROOT (S (NP (PRP (i)))(VP (MD (shall))(VB (take)))(NP (DT (this))(NN (potato))(NN (chip.)))(NP (VB (eat))(PRP (it))))(S (NP (NNP (death))(VB (note)))(NP (JJ (epic))(NN (scene))))) |ET| 
1  |BT| (ROOT (S (ADJP (JJ (ready)))(PP (IN (for)))(NP (DT (some))(VBP (sleep))))(S (NP (NNP (church)))(PP (IN (in)))(NP (DT (the))(NN (morning))(VBD (<))(CD (3))))) |ET| 
1  |BT| (ROOT (S (NP (PRP (we)))(VP (VBP (be)))(NP (DT (all))(NN (part)))(PP (IN (of)))(NP (DT (the))(JJ (same))(, (,))(JJ (sick))(JJ (little))(NNS (game))))) |ET| 
1  |BT| (ROOT (S (VP (VBG (study)))(PP (IN (for)))(NP (PRP$ (my))(NN (science))(NN (test)))(VP (VBG (do)))(NP (PRP$ (my))(NN (art))(NN (project)))(PP (IN (at)))(NP (RB (once))))(S (NP (FW (i)))(VP (NN (wonder)))(ADVP (WRB (how)))(NP (DT (this)))(VP (MD (will))(VB (pan)))(PRT (RP (out))))) |ET| 
-1  |BT| (ROOT (S (ADVP (WRB (why)))(NP (PRP (it)))(ADVP (RB (so)))(NP (VBN (cold)))(PP (IN (in)))(NP (DT (the))(NN (house))))(S (NP (PRP$ (my))(JJ (hot))(NN (cocoa)))(VP (VBZ (be)))(ADJP (JJ (cold)))(ADVP (RB (again)))(NP (RB (w))))) |ET| 
-1  |BT| (ROOT (S (NP (NN (softball)))(PP (IN (in)))(NP (DT (the))(NN (morning))))(S (NP (NN (football)))(PP (IN (in)))(NP (DT (the))(NN (afternoon))))(S (NP (WP (what)))(VP (MD (could))(VB (be)))(ADJP (JJR (better))))) |ET| 
-1  |BT| (ROOT (S (NP (DT (a))(JJ (amazing))(NN (time)))(PP (IN (in)))(NP (NNP (nyc)))(ADVP (RB (now)))(NP (PRP (it)))(VP (VBZ (be)))(ADVP (RP (back)))(PP (TO (to)))(NP (NN (reality))))) |ET| 
1  |BT| (ROOT (S (PP (VB (don)))(NP (`` (`))(NNP (t)))(VP (VBP (want))(TO (to))(VB (talk.all)))(NP (FW (i)))(VP (VB (hear)))(VP (VBZ (be)))(NP (NN (noise))))) |ET| 
1  |BT| (ROOT (S (NP (NNP (free))(PRP$ (my))(NN (baby.im)))(ADVP (RB (here)))(VP (IN (thru)))(NP (PRP (it)))(NP (DT (all))(JJ (babe)))(PP (FW (i)))(NP (NN (love))(NN (u))))) |ET| 
1  |BT| (ROOT (S (ADVP (WRB (how)))(NP (PRP (you)))(VP (VB (survive)))(NP (DT (the))(NN (zombie))(NN (apocalypse))))) |ET| 
-1  |BT| (ROOT (S (ADVP (RB (well)))(PP (VB (peoplei)))(NP (PRP$ (its))(NN (time)))(NP (LS (2)))(VP (VB (shut)))(NP (DT (the))(NNS (shuder)))(PP (IN (on)))(NP (NN (mi))(NNS (eye)))(VP (VB (luv)))(NP (PRP (ya))))) |ET| 
-1  |BT| (ROOT (S (ADVP (WRB (when)))(NP (PRP (you)))(VP (VBP (want))(TO (to))(VB (enjoy)))(NP (NN (life)))(VP (VB (think)))(NP (NN (today)))(PP (IN (as)))(NP (PRP$ (you))(NN (life)))(NP (POS ('s))(NN (firstday))))(S (ADVP (WRB (when)))(NP (PRP (you)))(VP (VBP (want))(TO (to))(VB (achieve)))(NP (NN (something)))(PP (IN (in)))(NP (NN (life)))(VP (VB (think)))(NP (NN (today)))(PP (JJ (asyour)))(NP (NN (life)))(NP (POS ('s))(JJ (last))(NN (day))))) |ET| 
-1  |BT| (ROOT (S (NP (NNP (officially))(NNP (woke))(NNP (now))(NNP (so))(NNP (time))(TO (to))(NNP (move))(NNP (around))))) |ET| 
1  |BT| (ROOT (S (NP (RB (only))(CD (365))(NN (day)))(VP (VBD (leave))))(S (NP (PRP (i)))(VP (MD (will))(VB (be)))(PP (IN (with)))(NP (JJ (u)))(NP (DT (all))))) |ET| 
1  |BT| (ROOT (S (NP (NN (today)))(NP (PRP (i)))(VP (VBP (pray)))(PP (IN (for))))(S (NP (PRP (i)))(VP (VBP (do))(RB (not))(VB (know)))(NP (NN (acceptance))))(S (ADVP (RB (maybe)))(NP (RB (normality))))(S (NP (PRP (i)))(VP (VBP (do))(RB (not))(VB (wan))(TO (na))(VB (feel)))(ADVP (RB (so))(JJ (off)))(ADJP (JJ (unstable)))(NP (PDT (all))(DT (the))(NN (time))))(S (ADVP (RB (not))(RB (just)))(ADJP (RB (emotionally))(JJ (stable)))(PP (IN (in)))(NP (DT (all))(NNS (aspect))))) |ET| 
1  |BT| (ROOT (S (VP (VBZ (be)))(NP (NNP (lovin))(NNP (life)))(ADVP (RB (right)))(ADVP (RB (now))))) |ET| 
-1  |BT| (ROOT (S (NP (NN (wow)))(VP (VBD (buy)))(NP (PRP$ (my))(JJ (first))(NN (webcam)))(NP (DT (this)))(VP (VBZ (be)))(NP (NN (fuckin))(NN (kool))))) |ET| 
-1  |BT| (ROOT (S (NP (NN (man))(FW (i))(NN (cant)))(VP (VBP (believe)))(NP (FW (i)))(ADVP (RB (still)))(VP (VBP (havent))(VBN (finish)))(NP (VBG (shop)))(NP (DT (this)))(VP (VBZ (be)))(ADVP (NN (sooo)))(PP (IN (unlike)))(NP (PRP (i))))) |ET| 
-1  |BT| (ROOT (S (VP (VBZ (be)))(NP (NN (missin))(NNP (nic))))(S (VP (VBP (do)))(VP (VB (have)))(NP (NN (anything)))(VP (TO (to))(VB (do)))(NP (JJ (2day))))(S (NP (VB (text)))(VP (PRP (i)))(ADVP (RB (ppl))))(S (NP (NNP (luv)))(ADVP (VBP (u))(DT (all))))(S (NP (PRP (i)))(VP (VBP (luv)))(NP (NNP (u))(NNP (nic))))) |ET| 
1  |BT| (ROOT (S (VP (VBG (push)))(PP (RP (through)))(NP (NN (today))))(S (NP (VBP (the))(JJ (next))))) |ET| 
1  |BT| (ROOT (S (NP (`` ("))(NNP (pms)))(PP (VBN (piss)))(NP (IN (at))(NNPS (men))(NNP (syndrome))('' (")))(NP (DT (the))(JJ (last))(NN (song))(NN (xp))))) |ET| 
1  |BT| (ROOT (S (VP (VBZ (be)))(VP (VBG (listen)))(PP (TO (to)))(NP (NNP (ccr))))) |ET| 
-1  |BT| (ROOT (S (NP (DT (the))(JJS (best))(NN (night)))(VP (VBG (hang)))(PRT (RP (out)))(PP (IN (with)))(NP (PRP$ (my))(NNS (kid))))) |ET| 
-1  |BT| (ROOT (S (ADVP (RB (off)))(PP (TO (to)))(NP (DT (the))(NN (craft))(NN (sale))))) |ET| 
-1  |BT| (ROOT (S (NP (`` ("))(NNP (wilbie)))(NP (PRP (you)))(VP (VBP (be)))(NP (DT (the))(JJS (best))(NNP (friend)))(NP (PRP (i)))(VP (VBP (have))))) |ET| 
1  |BT| (ROOT (S (VP (VBZ (be)))(UCP (VBG (love)))(NP (DT (this))(JJ (beautiful))(NN (wheather.oh)))(ADVP (WRB (how)))(NP (FW (i)))(VP (VBP (have))(VBN (miss)))(NP (DT (the))(NN (sun))(CC (&))(PRP$ (my))(JJ (flip))(NNS (flop))))(S (ADVP (RB (up)))(PP (IN (at)))(NP (VBZ (mom))(NN (house)))(PP (IN (for)))(NP (NN (dinner)))(PP (IN (before)))(NP (NN (work))(NN (tonight))))(S (NP (NNP (hope))(NN (everyone)))(VP (VBZ (be))(VBG (have)))(NP (DT (a))(NNP (blessed))(NN (weekend))))) |ET| 
1  |BT| (ROOT (S (NP (NNS (mother)))(VP (VBG (go))(TO (to))(VB (drive)))(NP (PRP (i)))(NP (NNS (banana))))(S (ADVP (RB (up)))(UCP (RB (down)))(NP (DT (the))(NNS (stair)))(NP (DT (all))(NN (day))))(S (NP (FW (i)))(VP (VBP (have))(VBN (get)))(NP (CD (one))(NN (hell)))(PP (IN (of)))(NP (DT (a))(NN (workout))))) |ET| 
1  |BT| (ROOT (S (NP (JJ (done)))(VP (NN (wrapping)))(NP (NNS (present)))(VP (VBP (thank)))(NP (NN (god)))(ADVP (RB (now)))(VP (FW (i))(MD (can))(RB (finally))(VB (relax))))) |ET| 
-1  |BT| (ROOT (S (VP (VBD (be))(VBN (suppose))(TO (to))(VB (be)))(ADVP (RP (off))(IN (out)))(PP (IN (on)))(NP (DT (the))(NNS (tile)))(NP (NN (tonight)))(NP (NN (mate)))(VP (MD (can))(RB (not))(VB (go)))(ADVP (RB (now))))(S (VP (VB (guess)))(NP (WP (what)))(NP (PRP (i)))(VP (VBP (be))(RB (not))(RB (really))(VBN (bother)))(NP (RB (too))(JJ (bloody))(JJ (cold))(NNS (!!!!!))))) |ET| 
-1  |BT| (ROOT (S (VP (VBZ (be)))(NP (NNP (super)))(VP (VBN (pump)))(SBAR (IN (that)))(NP (NNP (dom))(NNP (nighelli)))(VP (VBZ (be)))(ADVP (RB (back))(CD (<)))(LST (CD (3))))) |ET| 
-1  |BT| (ROOT (S (NP (NNP (hey))(WP (who))(NNP (all))(VBD (be))(NNP (gon))(NNP (na))(NNP (puy))(NNP (mi))(NNP (psp)))(NP (NNP (at))(DT (the))(NNP (starting))(NNP (price)))(PP (IN (of)))(NP ($ ($))(CD (20))(CD (!?!?!?))))) |ET| 
1  |BT| (ROOT (S (ADVP (NN (sooooooo)))(VP (VBN (do)))(PP (IN (with)))(NP (JJ (flip))(NN (floppin)))(NP (NN (friend))(NNS (swappin))))) |ET| 
1  |BT| (ROOT (S (NP (NN (pizza))(CC (and))(NN (poetry))))(S (NP (WP (what)))(VP (VB (be)))(ADJP (JJR (better))))(S (VP (VB (hang)))(PRT (RP (out)))(PP (IN (with)))(NP (JJ (ex-cons)))(ADVP (JJ (only))(NNS (up)))(NP (DT (the))(NN (fun))(NN (factor))))) |ET| 
1  |BT| (ROOT (S (ADVP (RB (sometimes)))(NP (PRP (you)))(VP (VBP (have))(TO (to))(VB (deal)))(PP (IN (with)))(NP (WP (what)))(NP (PRP (you)))(VP (VBP (want))(RB (not))(RB (necessarily))(VBG (be)))(NP (WP (what)))(NP (PRP (you)))(VP (VBP (need))))) |ET| 
-1  |BT| (ROOT (S (NP (WP (what)))(VP (MD (will)))(NP (NN (today))(VB (bring))))) |ET| 
-1  |BT| (ROOT (S (NP (PRP (you)))(VP (VB (solve)))(NP (DT (the))(NN (riddle)))(PP (IN (of)))(NP (PRP$ (you))(NN (heart))))(S (NP (NNP (iron))(NNP (man))(VBD (<))(CD (3))))) |ET| 
-1  |BT| (ROOT (S (NP (PRP (we)))(VP (VBP (get))(TO (to))(VB (see)))(NP (PRP$ (we))(NN (baby))(NN (tomorow))))(S (VP (MD (can))(RB (not))(VB (wait))))) |ET| 
1  |BT| (ROOT (S (NP (DT (the))(NNP (future)))(VP (VBZ (be)))(NP (NNP (lookin))(NNP (so))(NNP (much))(NNP (brighter))))) |ET| 
1  |BT| (ROOT (S (NP (DT (the))(NN (boyf)))(VP (VBZ (have))(VBN (book)))(NP (NNP (chester))(NNP (zoo)))(PP (IN (for)))(NP (NNP (sat)))(VP (RB (so))(JJ (excited))))) |ET| 
1  |BT| (ROOT (S (NP (NNP (new))(NN (series)))(SBAR (IN (if)))(NP (JJ (big))(NN (bang))(NN (theory)))(VP (VBZ (:})))(NP (NNP (woop))))) |ET| 
-1  |BT| (ROOT (S (VP (VBZ (be)))(PP (IN (on)))(NP (NN (autopilot))))) |ET| 
-1  |BT| (ROOT (S (NP (FW (i)))(ADVP (RB (absolutely)))(VP (VBP (love))(VBG (be)))(ADVP (RB (alone)))(NP (NN (home)))(VP (VBN (bore)))(PP (IN (on)))(NP (PRP$ (my))(NNP (friday))(NNS (night))))) |ET| 
-1  |BT| (ROOT (S (NP (JJ (zetsubou)))(ADVP (JJ (billy)))(NP (NN (maximum))(DT (the))(NN (hormone))))) |ET| 
1  |BT| (ROOT (S (NP (PRP (i)))(VP (VBD (do))(RB (not))(VB (win)))(NP (DT (the))(JJ (ipad))))(S (VP (VBP (**))(VB (tear))))) |ET| 
1  |BT| (ROOT (S (NP (PRP$ (my))(NNS (daughter))(`` ("))(NN (father)))(VP (VBD (decide)))(NP (PRP (he)))(VP (MD (will))(RB (not))(VB (pay)))(NP (NN (child))(NN (support)))(ADVP (RB (anymore))))(S (NP (PRP (i)))(VP (MD (can))(RB (not))(VB (survive)))(PP (IN (without)))(NP (PRP (it))))(S (NP (FW (i)))(VP (NN (hope)))(NP (PRP (they)))(VP (VB (arrest)))(NP (PRP (he))))) |ET| 
1  |BT| (ROOT (S (NP (DT (this))(NN (class)))(VP (VBZ (be)))(NP (CD (one))(JJ (big))(NN (joke))))(S (NP (PRP (we)))(VP (VBP (do))(RB (not))(VB (do)))(NP (NN (anything))))) |ET| 
-1  |BT| (ROOT (S (NP (NNP (random))(NNP (boyceville))(NN (kid)))(NP (`` ("))(RB (dude)))(ADVP (WRB (how)))(NP (PRP (you)))(VP (VB (make)))(NP (IN (that))(DT (half))(NN (court))(VBD (shoot))))(S (NP (NNP (logan)))(NP (`` ("))(NNP (uhhh.it)))(VP (VBD (go)))(PP (IN (in)))(NP (DT (the))(NN (hoop))('' ("))(NNP (*)))(VP (VBZ (walk)))(ADVP (RB (away))))) |ET| 
-1  |BT| (ROOT (S (NP (VB (wtf))))(S (ADVP (WRB (why)))(NP (PRP (they)))(VP (VB (make)))(NP (NNP (claire)))(NP (DT (a))(NN (lesbian))))) |ET| 
-1  |BT| (ROOT (S (VP (VBD (get)))(PP (IN (in)))(NP (DT (the))(NN (car)))(VP (VBN (turn)))(PP (IN (on)))(NP (DT (the))(NN (engine)))(NP (WP (what)))(VP (VBD (come)))(PP (NN (on.bupbup)))(NP (NN (americano))))(S (VP (MD (could))(RB (not))(VB (have))(VBN (time)))(NP (PRP (it)))(ADVP (JJR (better)))(SBAR (IN (if)))(NP (FW (i)))(VP (VBD (try))))(S (NP (NN (xxx))))) |ET| 
1  |BT| (ROOT (S (NP (-LRB- (-lrb-))(TO (to))(NN (everyone))(-RRB- (-rrb-)))(NP (WP (what)))(VP (VBZ (be)))(NP (PRP$ (you))(NN (opinion)))(PP (IN (on)))(NP (NN (gambling))))) |ET| 
1  |BT| (ROOT (S (NP (NN (today)))(VP (VBD (suck))))) |ET| 
1  |BT| (ROOT (S (VP (VB (come)))(PP (IN (on)))(NP (JJ (vikings))))) |ET| 
-1  |BT| (ROOT (S (NP (NN (today)))(VP (MD (will))(VB (be)))(NP (NNP (great))))) |ET| 
-1  |BT| (ROOT (S (NP (PRP (i)))(VP (VBD (know)))(NP (DT (this))(NN (day)))(VP (MD (would))(VB (come))))) |ET| 
-1  |BT| (ROOT (S (NP (NN (hey)))(VP (VBZ (do)))(NP (NN (anyone)))(VP (VB (know)))(NP (DT (the))(VBG (blog))(CD (4))(NN (mrs.))(NNS (davi)))(PP (-LRB- ({)))(NP (DT (the))(JJ (short))(JJ (white))(CD (one))(NN (lol))(-RRB- (}))))) |ET| 
1  |BT| (ROOT (S (NP (FW (i))(JJ (lovee))(JJ (gabby))))(S (NP (PRP (she)))(VP (VBZ (be)))(ADJP (RB (soo))(JJ (amazing))))) |ET| 
1  |BT| (ROOT (S (VP (VBG (watch)))(NP (DT (the))(JJ (simpsons))(NN (movie))(NN (wishin))(FW (i)))(VP (MD (could))(VB (sleep))))) |ET| 
1  |BT| (ROOT (S (NP (NNP (yay)))(PP (IN (for)))(NP (NNP (friday)))(NP (DT (the))(NN (start)))(PP (IN (of)))(NP (DT (the))(NN (weekend))))) |ET| 
-1  |BT| (ROOT (S (NP (NNP (god)))(VP (VBZ (be)))(ADJP (JJ (great))))) |ET| 
-1  |BT| (ROOT (S (NP (PRP (we)))(VP (VBP (ll))(VB (add)))(NP (RB (enough)))(PP (IN (of)))(NP (DT (the))(NN (world)))(NP ('' ("))(-RRB- (}))))) |ET| 
-1  |BT| (ROOT (S (VP (VBZ (be)))(VP (VBG (get)))(ADJP (JJ (ready)))(VP (TO (to))(VB (head)))(ADVP (RP (away)))(PP (IN (for)))(NP (DT (the))(JJ (whole))(NN (weekend))))(S (NP (VB (yay)))(ADJP (JJ (exciting))))) |ET| 
1  |BT| (ROOT (S (VP (NNS (look)))(PP (VBP (like)))(NP (EX (there)))(VP (MD (will))(VB (be)))(NP (DT (some))(JJ (awesome))(NNS (photo)))(PP (IN (from)))(NP (JJ (last))(NN (night))))) |ET| 
1  |BT| (ROOT (S (VP (VBD (get)))(NP (DT (a))(NN (job)))(NP (NN (today))(JJ (woot))(JJ (woot))(NNS (:d))(VBP (start)))(PP (IN (on)))(NP (NNP (tuesday)))(SBAR (NNP (:d)))(NP (PRP (i)))(VP (VBP (love)))(NP (DT (this))(NN (week))))) |ET| 
1  |BT| (ROOT (S (NP (NN (man)))(UCP (FW (i)))(VP (VBP (be)))(NP (VBN (frusterate)))(NP (NN (today)))(SBAR (JJ (>_>)))(NP (NN (tomorrow)))(VP (MD (should))(VB (rock)))(NP (NNS (sock)))(SBAR (IN (though)))(NP (NNP (:d))(NNP (heck))(VBZ (yess))))) |ET| 
-1  |BT| (ROOT (S (NP (JJ (haha))(NN (woman)))(ADVP (IN (outside)))(NP (PRP$ (my))(NN (house)))(VP (NN (swearing)))(PP (IN (on)))(NP (DT (the))(NN (phone))(NN (cos)))(NP (PRP (she)))(VP (VBD (forget)))(NP (PRP$ (she))))) |ET| 
-1  |BT| (ROOT (S (VP (VBG (fuck)))(NP (NN (god)))(VP (RB (damned)))(NP (JJ (cunt))(NN (ass))(NN (mother))(VBG (fuck))(NN (bitch))(NN (ass))(VBP (fuck))(NN (face))))(S (NP (VB (suck))(PRP$ (my))(JJ (big))(JJ (fucking))(JJ (black))(NN (dick)))(NP (PRP (i)))(VP (VBP (wan))(TO (na))(VB (see)))(NP (DT (that))(NN (ass))(NN (clap)))(NP (NN (bitch))))) |ET| 
-1  |BT| (ROOT (S (NP (RB (just)))(VP (VBD (get)))(NP (NN (home)))(PP (IN (from)))(VP (NN (hangin)))(PP (IN (with)))(NP (NNP (ma)))(NP (POS ('))(NNS (boy))))(S (NP (NNP (college))(CC (and))(VBP (work)))(NP (NN (tomorrow))))) |ET| 
1  |BT| (ROOT (S (VP (VBZ (be)))(ADVP (NN (ssooooo)))(ADJP (JJ (happy))))(S (NP (PRP$ (its))(DT (the))(NN (weekend))))) |ET| 
1  |BT| (ROOT (S (ADVP (WRB (why)))(NP (DT (this))(NN (weekend))(VB (end)))(ADVP (RB (so))(RB (quickly))))) |ET| 
1  |BT| (ROOT (S (NP (DT (the))(RBS (best))(JJ (mind-altering))(NN (drug)))(VP (VBZ (be)))(NP (NN (truth))))) |ET| 
-1  |BT| (ROOT (S (NP (NNP (happy))(VBD (republic))(NNP (day))))(S (NP (NNP (connor))(NNP (paff)))(VP (VBZ (be)))(NP (DT (a))(JJ (evil))(NN (butthead))))(S (NP (NNP (p))))) |ET| 
-1  |BT| (ROOT (S (VP (NNP (shopping)))(NP (VBZ (be))(DT (the))(JJ (new))(NN (thing)))(VP (TO (to))(NNP (do))))(S (VP (NNP (love)))(NP (PRP (you))(NNP (d))(CC (and))(NNP (nick))))) |ET| 
-1  |BT| (ROOT (S (PP (VB (like)))(NP (DT (this)))(PP (IN (for)))(NP (DT (a))(NNS (jame)))(VP (VBZ (think))))) |ET| 
1  |BT| (ROOT (S (VP (VBD (eat)))(ADVP (RB (too))(RB (much)))(PP (IN (on)))(NP (NNS (valentine)))(ADJP (JJ (day.still))(JJ (full)))(PP (IN (as)))(NP (NN (hell.won)))(NP (POS ('))(NN (t)))(VP (VBP (have))(TO (to))(VB (eat)))(NP (RB (no))(RBR (more)))(PP (IN (for)))(ADVP (IN (at))(JJS (least)))(NP (DT (a))(NN (couple)))(PP (IN (of)))(NP (NNS (day))))) |ET| 
1  |BT| (ROOT (S (VP (VB (do)))(NP (PRP (i)))(NP (DT (a))(NN (favor))))(S (NP (VB (send))(DT (some))(NNS (salami)))(PP (TO (to)))(NP (PRP (ya))(NN (boy)))(PP (IN (in)))(NP (DT (the))(NN (army))))) |ET| 
1  |BT| (ROOT (S (NP (NNP (inbox))(NNP (only)))(VP (VB (tell)))(NP (PRP (i)))(NP (NN (something)))(NP (PRP (you)))(VP (VBP (have))(RB (always))(VBD (want))(TO (to))(VB (tell/ask)))(NP (PRP (i))))(S (NP (PRP (i)))(VP (MD ('ll))(VB (keep)))(NP (PRP (it)))(PP (IN (between)))(NP (PRP (we))))(S (NP (NNP (post))(DT (this)))(PP (IN (as)))(NP (PRP$ (you))(NN (status)))(VP (VB (see)))(NP (WP (what)))(NP (PRP (you)))(VP (VBP (get))))) |ET| 
-1  |BT| (ROOT (S (ADVP (WRB (why)))(NP (DT (every))(NN (school)))(PP (IN (in)))(NP (DT (the))(NN (state)))(VP (VB (get)))(ADJP (VBN (close)))(PP (IN (except)))(NP (JJ (ours))))(S (NP (VBP (figure)))(SBAR (DT (that)))(NP (CD (one)))(ADJP (RP (out))))) |ET| 
-1  |BT| (ROOT (S (ADVP (WRB (how)))(NP (DT (the))(NNP (h))(NN (***)))(VP (VBP (do)))(NP (PRP (i)))(VP (VB (register)))(PP (IN (for)))(NP (DT (the))(NNP (zumba))(NNP (convention))))(S (NP (EX (there)))(VP (VBZ (be)))(NP (DT (no))(NN (link))))) |ET| 
-1  |BT| (ROOT (S (NP (DT (all))(PRP (i)))(VP (VBP (want))(TO (to))(VB (do)))(VP (VBZ (be)))(VP (VB (have)))(NP (DT (some))(NN (fun))))) |ET| 
1  |BT| (ROOT (S (UCP (NNP (o)))(NP (NNP (yay)))(NP (JJR (more))(NN (snow))(NN (tonight))(CC (and))(NN (tomorrow))))) |ET| 
1  |BT| (ROOT (S (VP (VBZ (have)))(NP (DT (a))(JJ (upper))(JJ (respiratory))(NN (infection))(NNP (d))))) |ET| 
1  |BT| (ROOT (S (NP (WP (who))(NNP (dat))(NNP (say))(NNP (they))(VBD (gon))(NNP (na))(NN (beat)))(PP (NNP (them)))(NP (NNP (saints))))) |ET| 
-1  |BT| (ROOT (S (VP (VB (fuck)))(NP (PRP (it))))) |ET| 
-1  |BT| (ROOT (S (VP (VBG (go))(TO (to))(VB (go))(VB (eat)))(NP (NNP (yay))))) |ET| 
-1  |BT| (ROOT (S (NP (CD (367))(NNS (piece)))(PP (IN (of)))(NP (NN (candy))))) |ET| 
1  |BT| (ROOT (S (NP (NNP (nina))(NNP (simone)))(VP (VBZ (be)))(NP (DT (a))(NN (goddess))))(S (NP (DT (that)))(VP (VBZ (be)))(NP (DT (all))))) |ET| 
1  |BT| (ROOT (S (VP (VBG (go)))(PP (TO (to)))(NP (NNP (randolph))(NNP (moose)))(NP (NN (tonight)))(PP (IN (for)))(NP (NNP (halloween))(NN (party.then))(VBP (stay)))(PP (IN (at)))(NP (NNP (farron))(CC (&))(NNP (tina)))(NP (POS ('s)))(PP (IN (for)))(NP (DT (the))(NN (night))))(S (VP (VBG (drive)))(PP (IN (at)))(NP (NN (night))))) |ET| 
1  |BT| (ROOT (S (NP (PRP (i)))(VP (VBP (love)))(NP (DT (the))(`` ("))(JJ (ohcrapihave))(NN (n'tdonemyhomework))('' ("))(NN (status)))(NP (POS ('s))))(S (ADVP (RB (especially)))(PP (IN (since)))(NP (PRP (i)))(UCP (VBP (stilll)))(VP (VBP (need))(TO (to))(VB (finnish)))(NP (NN (mine))))) |ET| 
-1  |BT| (ROOT (S (VP (VBZ (have))(JJ (baked)))(NP (DT (some))(NNS (cake)))(VP (VBD (realise)))(NP (PRP (she)))(VP (VBZ (be)))(NP (DT (a))(JJ (natural))(NN (baker))))) |ET| 
-1  |BT| (ROOT (S (VP (VBZ (be)))(ADJP (NN (thinkn)))(PP (NN (aww)))(NP (NN (hell))(NN (naw))))(S (NP (JJ (l0l))(NNS (???))))) |ET| 
-1  |BT| (ROOT (S (NP (PDT (all))(DT (the))(JJ (extra))(NNS (chip)))(PP (IN (without)))(NP (NN (cheese)))(PP (IN (on)))(NP (PRP (they)))(PP (IN (after)))(NP (NNS (nacho)))(VP (VBZ (be)))(NP (RB (just))(DT (a))(VBP (let))(RP (down))))) |ET| 
1  |BT| (ROOT (S (NP (NNS (princess)))(PP (IN (of)))(NP (PRP$ (my))(NN (city)))(NP (NN (mistress)))(PP (IN (of)))(NP (JJ (yo))(NN (town))))) |ET| 
1  |BT| (ROOT (S (VP (VB (thank)))(NP (PRP (you)))(PP (IN (for)))(NP (DT (the))(NN (birthday))(NNS (wish)))(PP (IN (from)))(NP (NN (everyone))))) |ET| 
1  |BT| (ROOT (S (PP (RB (just)))(VP (VBG (go)))(PP (TO (to)))(NP (VB (smile)))(VP (VB (get)))(PP (IN (through)))(NP (DT (the))(NN (day))))) |ET| 
-1  |BT| (ROOT (S (VP (VB (thank)))(NP (NN (u)))(NP (NN (everyone)))(PP (IN (for)))(NP (DT (the))(RB (bday))(JJ (msgs)))(NP (NN (xxx))))) |ET| 
-1  |BT| (ROOT (S (NP (NNP (defenestration)))(NP (DT (a))(NN (throwing)))(PP (IN (of)))(NP (DT (a))(NN (person))(CC (or))(NN (thing)))(PP (RP (out)))(PP (IN (of)))(NP (DT (a))(NN (window))))) |ET| 
-1  |BT| (ROOT (S (NP (CD (9-3))(NN (!!!!!))))(S (NP (DT (the))(NN (end)))(PP (TO (to)))(NP (DT (a))(JJ (great))(NN (weekend)))(NP (DT (the))(NN (begining)))(PP (IN (of)))(NP (DT (a))(JJ (great))(NN (week))))) |ET| 
1  |BT| (ROOT (S (VP (VBD (be))(VBN (wake)))(ADVP (RP (up)))(VP (VBZ (be)))(PP (TO (to))(VBN (thrill))))) |ET| 
1  |BT| (ROOT (S (VP (VB (he)))(NP (DT (a))(JJ (angry))(NN (elf))))) |ET| 
1  |BT| (ROOT (S (NP (PRP (i)))(VP (VBP (think)))(NP (NNP (kacee)))(VP (VBZ (be))(VBG (gon))(TO (na))(VB (be)))(NP (DT (a))(NN (crawler)))(ADVP (RB (soon))))) |ET| 
-1  |BT| (ROOT (S (NP (WP (what)))(VP (TO (to))(VBP (do)))(ADVP (RB (tonight))))) |ET| 
-1  |BT| (ROOT (S (NP (VBD (need))(NN (something)))(VP (TO (to))(VB (do)))(VP (VBN (bore))))) |ET| 
-1  |BT| (ROOT (S (NP (JJ (good))(NN (morning))(NN (world)))(NP (DT (all)))(NP (WP (who)))(VP (VBP (inhabit)))(NP (PRP (it))))) |ET| 
1  |BT| (ROOT (S (NP (VBZ (love)))(VP (VBG (be))(VBN (lock)))(PRT (RP (out)))(PP (IN (of)))(NP (DT (the))(NN (house))))) |ET| 
1  |BT| (ROOT (S (PP (VB (beware)))(NP (DT (the))(NNS (ides)))(PP (IN (of)))(NP (NNP (march))))(S (NP (JJ (truer))(NNS (word)))(VP (VBD (be))(RB (never))(VBD (say))))) |ET| 
1  |BT| (ROOT (S (NP (NNP (ma))(NN (bday)))(VP (VBZ (be)))(PP (IN (in)))(NP (DT (a))(NN (hour.turnin)))(NP (CD (18))(NNP (biznatches))))(S (NP (VBP (^))(CD (3))(NNS (^))))) |ET| 
-1  |BT| (ROOT (S (NP (JJ (thinks))(JJS (best))(NN (character)))(PP (IN (in)))(NP (DT (the))(NNP (office)))(VP (VBZ (be)))(ADVP (RB (definitly)))(NP (JJ (creed))))) |ET| 
-1  |BT| (ROOT (S (ADJP (NNP (there))(NNP (truly)))(VP (VBZ (be)))(NP (DT (a))(NN (god)))(NP (PRP (he))(NNP (truly))(VBZ (be))(DT (a))(NNP (wonderful))(NNP (god))))(S (NP (PRP (he)))(PP (NNP (only)))(NP (VBP (see)))(NP (VBZ (be))(DT (the))(NN (best)))(PP (IN (in)))(NP (NNP (me))))) |ET| 
-1  |BT| (ROOT (S (VP (VBZ (be)))(ADVP (NN (home)))(PP (IN (for)))(NP (JJ (thanksgiving))(NN (break))))) |ET| 
1  |BT| (ROOT (S (VP (VBZ (want)))(PP (TO (to)))(NP (VB (go))(NN (home)))(NP (VB (hybernate))))) |ET| 
1  |BT| (ROOT (S (NP (PRP (i)))(VP (MD (can))(RB (not))(VB (wait))(TO (to))(VB (go)))(NP (NN (workout)))(ADVP (NN (tonight))))) |ET| 
1  |BT| (ROOT (S (PP (TO (to)))(NP (DT (the))(NNP (lawrence))(NN (family)))(NP (WP (who)))(VP (VBZ (be))(VBG (go)))(PP (TO (to)))(NP (DT (the))(NN (farm))(NN (tomorrow))))) |ET| 
-1  |BT| (ROOT (S (NP (PRP (i)))(VP (VBP (need))(TO (to))(VB (go)))(PP (TO (to)))(NP (NN (bed)))(ADVP (RB (now))))) |ET| 
-1  |BT| (ROOT (S (NP (`` ("))(NNP (constellations))(NN (glow)))(NP (PRP$ (they))(NN (shine)))(VP (MD (can))(RB (not))(VB (compare)))(PP (TO (to)))(NP (PRP$ (you))(JJ (inner))(NN (star))))(S (NP (NNP (rhonda))(NNP (stapletor))))) |ET| 
-1  |BT| (ROOT (S (VP (VBD (go)))(PP (TO (to)))(NP (VB (see)))(NP (DT (the))(NN (pre-screening)))(PP (IN (of)))(NP (NN (tron)))(NP (JJ (last))(NN (night))))(S (NP (PRP (it)))(VP (VBD (be)))(ADJP (RB (pretty))(JJ (good))))) |ET| 
1  |BT| (ROOT (S (NP (NNP (tombstone)))(VP (VBZ (be)))(ADVP (RB (finally)))(PP (IN (on)))(NP (NN (bluray))))) |ET| 
1  |BT| (ROOT (S (NP (PRP (it)))(VP (VBZ (be)))(NP (NNP (friday))(CC (and))(NNP (hunter)))(VP (VBZ (be))(VBG (go))(TO (to))(VB (spend)))(NP (DT (the))(NN (weekend)))(PP (IN (at)))(NP (DT (a))(NNS (friend))))(S (NP (WP (what)))(VP (TO (to))(VB (do)))(NP (WP (what)))(VP (TO (to))(VB (do))))) |ET| 
1  |BT| (ROOT (S (NP (WP (who)))(VP (MD (would))(VB (have))(VBN (think)))(PP (RP (over)))(NP (CD (20))(NNS (year)))(ADVP (RB (ago)))(SBAR (IN (that)))(NP (PRP (i)))(VP (MD (would))(VB (love))(VBG (work)))(PP (IN (in)))(NP (DT (a))(NNP (school))))(S (NP (PRP (it)))(VP (VBZ (amaze)))(NP (PRP (i)))(ADVP (WRB (how)))(NP (PRP (i)))(VP (VBP (get)))(PP (IN (out)))(PP (IN (of)))(VP (VBG (help)))(NP (DT (the))(NNS (kid))))) |ET| 
-1  |BT| (ROOT (S (NP (MD (can))(RB (not))(VB (wait)))(VP (TO (to))(RB (finally))(VB (try)))(NP (NN (rock)))(VP (VBG (climb)))(PP (IN (on)))(NP (NNP (friday))))) |ET| 
-1  |BT| (ROOT (S (NP (PRP (you)))(NP (CD (14,136))(NNS (other)))(PP (IN (like)))(NP (DT (this))('' ("))(CD (1))(NN (hour)))(SBAR (RB (ago)))(NP (NNP (soo)))(VP (VBD (sych))))) |ET| 
-1  |BT| (ROOT (S (VP (VBG (go))(NN (fishing)))(PP (IN (with)))(NP (PRP$ (my))(NNS (grandparent))))) |ET| 
1  |BT| (ROOT (S (NP (NNP (mannn))(PRP (i)))(VP (VBD (know)))(NP (NN (bj)))(VP (VBD (look)))(PP (RP (out)))(PP (IN (of)))(NP (NN (shape))))(S (NP (PRP (he)))(VP (VBZ (need))(TO (to))(VB (listen)))(PP (TO (to)))(NP (PRP$ (he))(NN (corner))))) |ET| 
1  |BT| (ROOT (S (VP (VBD (have)))(NP (CD (one))(NN (motherfucking)))(ADJP (JJ (crazy))))) |ET| 
1  |BT| (ROOT (S (NP (PRP (i)))(VP (VBP (wish)))(NP (PRP (i)))(VP (VBD (do))(RB (not))(VB (know)))(ADVP (RB (now)))(NP (WP (what)))(NP (PRP (i)))(VP (VBD (do))(RB (not))(VB (know)))(ADVP (RB (then))))) |ET| 
-1  |BT| (ROOT (S (NP (-LRB- (-lrb-))(CD (8))(-RRB- (-rrb-))(NNP (cos)))(NP (PRP (you)))(VP (VBP (be)))(ADJP (JJ (amazing)))(NP (RB (just))(DT (the))(NN (way)))(NP (PRP (you)))(VP (VBP (be)))(NP (CD (8))))) |ET| 
-1  |BT| (ROOT (S (VP (VBD (get)))(NP (NN (money)))(VP (NN (singin)))(PRT (IN (out)))(NP (DT (the))(NN (ass))(NN (bahaha))))) |ET| 
-1  |BT| (ROOT (S (NP (VBZ (valentine))(NN (day)))(VP (VBD (fuck)))(NP (DT (the))(JJ (valentines))(NN (day))))) |ET| 
1  |BT| (ROOT (S (NP (VB (im)))(ADVP (NN (sooo)))(VP (RB (hapy)))(SBAR (IN (that)))(NP (PRP$ (my))(NNS (account)))(ADVP (VBP (back))))) |ET| 
1  |BT| (ROOT (S (NP (JJ (happy))(NN (birthday))(NN (count)))(PP (RB (as)))(PP (IN (of)))(NP (CD (12:22))(VBP (be)))(NP (CD (2))))) |ET| 
1  |BT| (ROOT (S (VP (VBG (wait)))(PP (IN (on)))(NP (NNP (kia))(NNP (turner)))(VP (TO (to))(VB (get)))(ADVP (IN (out)))(PP (IN (of)))(NP (NN (class))))) |ET| 
-1  |BT| (ROOT (S (NP (NN (manhunt)))(PP (IN (at)))(NP (CD (2))(VBP (be)))(VP (VB (work)))(PP (IN (at)))(NP (CD (11))))(S (ADJP (RB (sure)))(ADVP (WRB (how))(RB (ill)))(VP (VB (survive))))) |ET| 
-1  |BT| (ROOT (S (VP (VBZ (need)))(NP (DT (a))(JJ (good))(JJ (strong))(NN (dose)))(PP (IN (of)))(NP (NNP (castle))(CC (and))(NN (nothing)))(ADJP (RB (else))))) |ET| 
-1  |BT| (ROOT (S (ADJP (NN (way)))(VP (TO (to))(VB (go)))(NP (VBZ (star))))(S (NP (VB (nice))(NN (job)))(PP (IN (on)))(VP (VBG (put)))(NP (NN (modano)))(VP (TO (to))(NN (shame))))) |ET| 
1  |BT| (ROOT (S (ADVP (RB (finally)))(NP (NNP (home))(JJ (sweet))(NNP (*))(NNP (kelso))(NNP (*)))(VP (VBP (<)))(NP (CD (3)))(NP (DT (the))(JJ (*))(NN (sea))))) |ET| 
1  |BT| (ROOT (S (NP (VB (roll)))(PP (RP (on)))(NP (NN (tomorrow)))(VP (VB (let)))(NP (DT (the))(NN (hen))(NN (weekend))(NNS (antic)))(VP (VBP (begin.limerick)))(NP (NN (wont)))(VP (VB (know)))(NP (WP (what)))(VP (VBD (hit)))(NP (PRP (it))))) |ET| 
1  |BT| (ROOT (S (NP (VBG (brave))(DT (the))(NN (snow)))(VP (TO (to))(VB (take)))(NP (DT (some))(JJR (more))(NNS (pic))))) |ET| 
-1  |BT| (ROOT (S (VP (VBZ (have)))(NP (DT (a))(NNP (very))(NNP (interesting)))(NP (NNP (frustrating)))(ADVP (NNP (long)))(NP (NNP (crazy))(NNP (day))))) |ET| 
-1  |BT| (ROOT (S (ADVP (RB (here)))(NP (PRP (i)))(VP (VBD (be))(VBG (think))(VB (thank)))(NP (NNP (god)))(NP (DT (those)))(VP (VBN (confuse)))(NP (NN (man))(NNS (cloud)))(VP (VBP (be))(RB (slowly))(VBG (clear)))(ADVP (NN (up.now)))(ADVP (RP (back)))(PP (IN (from)))(NP (NNP (germany)))(PP (IN (with)))(NP (DT (a))(NN (bang)))(ADVP (RB (here)))(NP (PRP (we)))(VP (VBP (go)))(ADVP (RB (again))))(S (NP (NN (<))(CD (3)))(VP (FW (i))(VBP (suppose)))(NP (NN (ti)))(ADVP (JJR (better)))(VP (TO (to))(VB (be))(VBN (piss)))(PRT (RP (off)))(SBAR (IN (than)))(VP (VBN (piss)))(PP (IN (on))))(S (NP (DT (either))(NN (way))(VBZ (wish))(NN (everything)))(VP (MD (would))(VB (be))(VBN (fix)))(NP (NN (haha))(NN (<)))(LST (CD (3))))) |ET| 
-1  |BT| (ROOT (S (NP (PRP (i)))(VP (VBD (find)))(PRT (RP (out)))(NP (NN (today)))(VP (VBG (write)))(NP (NNP (xmas)))(VP (VBZ (be))(RB (not))(VBG (take)))(NP (DT (the))(NNP (christ)))(PP (RP (out)))(PP (IN (of)))(NP (NNP (christmas)))(ADVP (IN (after))(DT (all))))(S (ADVP (RB (however)))(NP (PRP (i)))(VP (VBP (think)))(NP (PRP (i)))(VP (VBP (be))(RB (still))(VBG (go))(TO (to))(VB (be))(VBG (write)))(NP (PRP (it)))(PP (IN (as)))(NP (NNP (christmas))))) |ET| 
1  |BT| (ROOT (S (NP (VBZ (there))(DT (no))(NN (rewinding)))(PP (IN (in)))(NP (NN (life))))(S (VP (VBD (get))(RB (ta))(VB (deal)))(PP (IN (with)))(NP (PRP (it)))(VP (VB (move)))(PP (RP (on))))) |ET| 
1  |BT| (ROOT (S (NP (RB (just))(DT (another))(NN (day)))(PP (IN (in)))(NP (NN (paradise))))) |ET| 
1  |BT| (ROOT (S (NP (JJ (great))(NN (day)))(PP (IN (at)))(NP (NN (pool)))(PP (IN (inside)))(VP (JJ (resting)))(NP (NN (watchin))(NN (shrek))))) |ET| 
-1  |BT| (ROOT (S (NP (JJ (crazy))(NN (ass))(NN (day)))(PP (IN (in)))(NP (DT (the))(NN (reality)))(PP (IN (of)))(NP (NN (ben))(NN (couse))))) |ET| 
-1  |BT| (ROOT (S (ADVP (WRB (when)))(NP (NN (u)))(VP (VB (think)))(PP (IN (of)))(NP (NN (ur))(NN (life)))(NP (NN (wat))(VBZ (cum)))(VP (TO (to))(VB (mind))))) |ET| 
-1  |BT| (ROOT (S (PP (IN (like)))(PP (IN (in)))(NP (CD (11hours))(FW (i)))(VP (MD (will))(VB (be))(VBG (sit)))(PP (IN (in)))(NP (DT (a))(NN (plane))(NN (lol))))) |ET| 
1  |BT| (ROOT (S (NP (NN (something))(JJ (new)))(VP (VBZ (be))(VBG (emerge)))(VP (MD (will))(VB (bring)))(NP (JJ (new))(CC (and))(JJ (exciting))(NN (energy))))(S (NP (JJ (;}))(NNS (cheer))))) |ET| 
1  |BT| (ROOT (S (NP (DT (some))(VBG (catch)))(PRT (RP (up)))(PP (IN (with)))(NP (DT (some))(NNS (old))(NNS (friend)))(ADVP (NN (tonight))))(S (NP (PRP$ (its))(VBN (be)))(PP (IN (over)))(NP (CD (20))(NNS (year)))(SBAR (IN (since)))(NP (PRP (we)))(VP (VBP (have))(VB (see)))(NP (DT (each))(JJ (other)))(VP (VBD (have)))(NP (DT (a))(JJ (great))(NN (time))))(S (NP (JJ (good))(NNS (time)))(PP (IN (with)))(NP (JJ (old))(NNS (friend)))(VP (VBZ (be)))(NP (DT (the))(JJS (best))))) |ET| 
1  |BT| (ROOT (S (NP (NNS (bagel)))(ADJP (NN (cream)))(PP (IN (with)))(NP (NN (mom)))(VP (VBP (love)))(NP (PRP (she))))(S (NP (DT (a))(RB (pretty))(JJ (good))(NN (night)))(NP (JJ (last))(NN (night))))(S (VP (VBP (work)))(ADVP (RB (either)))(NP (CD (1))(CC (or))(CD (2)))(PP (TO (to)))(NP (CD (6))))(S (NP (VB (pay))(NN (day))))(S (NP (NN (birthday))(NN (weekend)))(PP (VBZ (:})))(NP (WP (who)))(VP (VBZ (be)))(PP (IN (in))))) |ET| 
-1  |BT| (ROOT (S (NP (CD (1))(NN (ng))(NN (y))(VBP (m?t))(RB (m?i))(VBG (nh?ng))(JJ (r?t)))(PP (NN (th)))(NP (NN (v))))(S (NP (NNP (d))))) |ET| 
-1  |BT| (ROOT (S (NP (NN (everyone)))(VP (VBN (come))(TO (to))(NNP (comedy)))(NP (NNP (zen)))(NP (DT (this)))(UCP (NNP (saturday)))(PP (IN (with)))(NP (PRP (we))))(S (NP (PRP (i)))(VP (VBP (promise)))(NP (PRP (it)))(VP (MD (will))(VB (be)))(NP (NN (fun))))) |ET| 
-1  |BT| (ROOT (S (NP (VBZ (love))(JJ (retail))(NN (therapy))))(S (NP (VBD (<))(CD (3))))) |ET| 
1  |BT| (ROOT (S (PP (IN (on)))(NP (DT (the))(NN (rooftop)))(PP (IN (under)))(NP (DT (the))(NN (sky))))) |ET| 
1  |BT| (ROOT (S (NP (RB (just)))(VP (VBD (get)))(NP (DT (the))(NN (sheet))(NN (music)))(PP (IN (for)))(NP (VB (imagine)))(PP (IN (by)))(NP (NN (john))(NN (lennon)))(PP (IN (on)))(NP (DT (the))(NN (piano)))(NP (NNP (d))))) |ET| 
1  |BT| (ROOT (S (NP (VBD (indulge)))(PP (IN (in)))(NP (DT (this)))(VP (VBD (behold)))(NP (DT (all)))(PP (IN (of)))(NP (PRP$ (its))(NN (glory)))(PP (IN (through)))(NP (DT (all)))(PP (IN (of)))(NP (PRP$ (its))(NNS (horror))))) |ET| 
-1  |BT| (ROOT (S (SBAR (IN (while)))(NP (DT (the))(NN (rain)))(VP (VBZ (come))(VBG (pour)))(PP (RB (inside))))) |ET| 
-1  |BT| (ROOT (S (NP (PRP (it)))(VP (VBZ (be)))(NP (DT (the))(NN (weekend))))) |ET| 
-1  |BT| (ROOT (S (NP (PRP (i)))(VP (VBP (be))(VBG (watch)))(NP (DT (the))(JJ (blackshawks))(NN (game)))(PP (IN (vs.)))(NP (DT (the))(NNP (la))(NNS (king))))) |ET| 
1  |BT| (ROOT (S (NP (PRP (they)))(VP (VBD (put)))(NP (NNP (mccoy)))(PP (IN (in)))(NP (NNP (!!!))))(S (NP (NNP (d))))) |ET| 
1  |BT| (ROOT (S (NP (CD (3rd))(NN (place)))(PP (IN (for)))(NP (NNP (ritz)))(NP (NNP (at))(NN (world))(VBZ (champ))))(S (VP (VB (thank)))(NP (PRP (you))))) |ET| 
1  |BT| (ROOT (S (NP (PRP (i)))(VP (VBP (be)))(NP (DT (every))(NNP (woman))(VBP (cuz)))(NP (PRP (i)))(VP (VBD (get))(NN (ta)))(NP (NNP (b.))(NNP (anything)))(ADVP (RB (else)))(VP (VBZ (be)))(NP (DT (a))(NNP (option))))(S (NP (NNS (smooch))))) |ET| 
-1  |BT| (ROOT (S (VP (VB (thank)))(NP (NN (u))(NNS (guy))))(S (ADJP (RB (very))(JJ (happy))))) |ET| 
-1  |BT| (ROOT (S (PP (FW (i)))(NP (NN (love))(NNP (cnn)))(ADVP (RB (just)))(SBAR (IN (because)))(NP (NNP (anderson))(NNP (cooper)))(VP (VBZ (be)))(PP (IN (on)))(NP (PRP (it))))(S (NP (NN (lol)))(NP (NNP (d))))) |ET| 
-1  |BT| (ROOT (S (NP (JJ (red))(NN (eye)))(NP (VBZ (be))(RB (then))(NNS (harri)))(NP (POS ('s))(NN (crab))(NN (house)))(PP (IN (with)))(NP (NN (mommy))(, (,))(NN (dad))(, (,))(NN (aunt))(NN (wonda)))(NP (NN (burnie))))) |ET| 
1  |BT| (ROOT (S (NP (DT (this))(NN (week)))(VP (VBZ (be))(RB (not))(VBG (go)))(ADVP (RB (fast))(RB (enough))))) |ET| 
1  |BT| (ROOT (S (VP (VB (let)))(NP (PRP ('s)))(VP (VB (face)))(NP (DT (the))(NN (reality))))) |ET| 
1  |BT| (ROOT (S (NP (NNS (wish)))(NP (PRP (she)))(VP (MD (could))(VB (go)))(PRT (RP (out)))(VP (TO (to))(VB (see)))(NP (DT (the))(NN (game))(NN (tonight))))) |ET| 
-1  |BT| (ROOT (S (VP (VBG (go)))(PP (TO (to)))(NP (DT (a))(NN (event)))(PP (IN (in)))(NP (NNP (ma)))(NP (DT (this))(NN (weekend)))(VP (MD (might))(RB (not))(VB (have)))(NP (NNS (interweb)))(PP (IN (till)))(NP (NNP (monday))))) |ET| 
-1  |BT| (ROOT (S (NP (FW (i)))(VP (MD (would))(VB (drive)))(PP (RP (on)))(PP (TO (to)))(NP (DT (the))(NN (end)))(PP (IN (with)))(NP (PRP (you))))) |ET| 
-1  |BT| (ROOT (S (VP (VBD (piss)))(PRT (RP (off))))) |ET| 
1  |BT| (ROOT (S (SBAR (IN (if)))(NP (PRP (it)))(VP (VBZ (be))(VBN (mean))(TO (to))(VB (be)))(NP (PRP (it)))(VP (MD (will))(VB (come)))(ADVP (RB (back)))(PP (TO (to)))(NP (PRP (you))))(S (SBAR (IN (if)))(NP (PRP (it)))(VP (VBZ (do))(RB (not)))(NP (PRP (you)))(VP (VBD (be)))(ADVP (RB (way)))(ADJP (RB (too))(JJ (good)))(PP (IN (for)))(NP (PRP (it)))(ADVP (RB (anyway))))) |ET| 
1  |BT| (ROOT (S (NP (FW (i))(NN (hate)))(ADVP (WRB (when)))(NP (JJ (stupid))(NN (shit)))(SBAR (WDT (that)))(NP (VBP (shouldnt)))(VP (VB (bother)))(NP (PRP (i)))(ADVP (RB (actually)))(VP (VBZ (do))))) |ET| 
1  |BT| (ROOT (S (NP (FW (i)))(VP (NN (leave)))(NP (PRP$ (my))(NNS (tooth))(NNS (mark)))(PP (IN (in)))(NP (JJ (styrophome))(NNS (cup)))(SBAR (RB (so)))(NP (FW (i)))(VP (VBP (know)))(NP (JJ (theyre))(NN (mine))))) |ET| 
-1  |BT| (ROOT (S (NP (NN (today)))(VP (VBD (be)))(ADJP (RB (quite)))(NP (DT (the))(NN (day)))(ADVP (IN (as)))(NP (JJS (most)))(PP (IN (of)))(NP (PRP (you)))(VP (VBP (kno)))(NP (WP (what)))(VP (VBZ (have))(VBN (be))(VBG (go)))(PP (RP (on))))(S (VP (VBN (manage))(TO (to))(VB (get)))(NP (DT (a))(NN (place)))(PP (RB (so)))(NP (VBZ (everything)))(VP (VBG (go)))(NP (VB (work)))(PRT (RP (out))))(S (NP (JJ (thx))(NNS (guy)))(PP (IN (for)))(NP (PRP$ (you))(NN (support))))) |ET| 
-1  |BT| (ROOT (S (ADVP (RB (again)))(NP (DT (this))(NN (type)))(PP (IN (of)))(NP (NN (attitude))))(S (NP (NN (dun)))(VP (VBP (wish)))(NP (CD (2)))(VP (VBP (refer)))(NP (WP (who)))(VP (VBZ (be)))(NP (DT (this))))(S (NP (WP (what))(JJ (wrong)))(PP (IN (of)))(VP (VBG (give)))(NP (PRP$ (my))(NN (comment))))(S (NP (JJ (reallie))(NN (ur))(VBD (stupd)))(ADVP (NNP (da)))(NP (NN (xiao))(NN (jie))(NN (attitude)))(PP (VBP (/)))(NP (NN (temper))))(S (VP (VB (piss)))(PRT (RP (off)))(NP (JJ (mi)))(ADVP (NN (nw))))) |ET| 
-1  |BT| (ROOT (S (NP (NNP (puzzle)))(VP (VBZ (be))(VBN (go)))(PP (TO (to)))(NP (VB (work)))(PP (IN (in)))(NP (NNP (monteregie)))(PP (IN (for)))(NP (DT (the))(NN (summer))))(S (NP (PRP (he)))(VP (VBZ (be))(VBG (go))(TO (to))(VB (make)))(NP (RB (so))(JJ (many))(JJ (little))(NNS (kid)))(ADJP (JJ (happy)))(VP (VB (be)))(ADJP (JJ (good)))(NP (PRP$ (my))(JJ (special))(NN (boy))(VBD (<)))(LST (CD (3))))) |ET| 
1  |BT| (ROOT (S (NP (NN (school)))(VP (VBN (cancel)))(NP (WP (what))))) |ET| 
1  |BT| (ROOT (S (NP (PRP (one)))(VP (MD (must))(RB (not))(VB (be))(VBN (attach)))(PP (TO (to)))(NP (NN (anything)))(PP (IN (as)))(NP (DT (all))(WDT (that)))(VP (VBZ (be)))(ADJP (JJ (visible)))(VP (VBZ (have))(TO (to))(VB (vanish))))) |ET| 
1  |BT| (ROOT (S (NP (PRP$ (my))(NN (dad)))(VP (VBZ (hold)))(NP (DT (the))(NN (record)))(PP (IN (for)))(NP (DT (the))(JJS (most))(NNS (people)))(VP (VBN (punch)))(PRT (RP (out)))(PP (IN (with)))(NP (CD (one))(NN (hand))))) |ET| 
-1  |BT| (ROOT (S (NP (UH (oh))(JJ (caffeinated))(NN (tea)))(NP (WP (what)))(NP (PRP (i)))(VP (VB (do)))(PP (IN (without)))(NP (PRP (you))))) |ET| 
-1  |BT| (ROOT (S (VP (VBN (workin)))(PP (IN (on)))(NP (JJR (more))(NN (computer))(NN (painting))))) |ET| 
-1  |BT| (ROOT (S (NP (PRP (i)))(VP (NNP (wan)))(NP (NNP (na))(VBP (see))(NNP (tracy))(NNP (mcgrady)))(PP (IN (on)))(NP (NNP (tha))(NNP (bulls))(NNP (by))(NNP (thursday))))) |ET| 
1  |BT| (ROOT (S (NP (WDT (what))(DT (a))(RB (utterly))(JJ (craptastic))(NN (day))(RB (yeasterday)))(VP (VBD (be))))(S (NP (NNP (today)))(VP (VBD (be)))(ADVP (RB (only))(RB (slightly)))(ADJP (JJR (better))))(S (NP (NN (nothing)))(VP (MD (could))(RB (possibly))(VB (top)))(NP (DT (the))(NN (loss)))(PP (IN (of)))(NP (PRP$ (we))(NNP (daisy))(NN (girl))))(S (NP (PRP$ (my))(NN (heart))(, (,))(NNS (thought))(CC (and))(NNS (prayer)))(VP (VBP (belong)))(PP (TO (to)))(NP (NNP (shannon))(CC (and))(NNP (jason))))(S (VP (NNP (love)))(NP (PRP (you))(NNS (guy))))) |ET| 
1  |BT| (ROOT (S (ADVP (RB (just)))(VP (VBD (go)))(PP (TO (to)))(NP (NNP (ppac)))(VP (VBD (see)))(NP (NNP (rain.it))(VBD (be))(NNP (awsum))))) |ET| 
1  |BT| (ROOT (S (ADVP (RB (finally)))(VP (VBZ (know)))(NP (DT (another))(NN (meaning)))(PP (IN (of)))(NP (NNP (bmw))))(S (NP (NNP (lmao))(NNP (xd))))) |ET| 
-1  |BT| (ROOT (S (NP (NNP (tonight)))(VP (NNP (id)))(PP (VBP (like)))(VP (TO (to))(VB (fly)))(ADVP (RP (away)))(NP (DT (a))(VB (be))(NN (brand)))(NP (JJ (new))(DT (another))(NN (day))))) |ET| 
-1  |BT| (ROOT (S (NP (NNP (sister)))(VP (VBZ (be))(VBG (come)))(ADVP (RB (home))(RB (soon))))(S (VP (VBG (go))(TO (to))(VB (eat))))) |ET| 
-1  |BT| (ROOT (S (NP (NN (anyone)))(VP (VBP (want)))(NP (DT (a))(NN (ticket)))(PP (TO (to)))(NP (DT (the))(NNP (megadeth/slayer))(NN (show)))(PP (IN (in)))(NP (NNP (moncton))))(S (VP (VBD (lem)))(NP (PRP (i)))(VP (VB (know)))(SBAR (IN (if)))(ADVP (RB (so))))) |ET| 
1  |BT| (ROOT (S (VP (VBP (sleep)))(NP (NN (wont))(VB (grace)))(NP (PRP (i))))) |ET| 
1  |BT| (ROOT (S (NP (DT (the))(JJ (slow))(VB (fade)))(PP (IN (of)))(NP (NN (love)))(NP (PRP$ (its))(JJ (soft))(NN (edge)))(VP (MD (might))(VB (cut)))(NP (PRP (you))))) |ET| 
1  |BT| (ROOT (S (NP (NNP (frustrated)))(VP (NNP (wondering)))(SBAR (IN (if)))(NP (PRP (i)))(VP (MD (can))(RB (even))(VB (do)))(NP (DT (this))))) |ET| 
-1  |BT| (ROOT (S (SBAR (IN (if)))(NP (PRP (i)))(VP (VBD (be)))(ADJP (JJ (fat)))(NP (PRP (i)))(ADVP (RB (probably)))(VP (MD (would))(RB (not))(VB (have))(VBN (catch)))(NP (DT (the))(NN (board))))(S (NP (NNP (selena))(NNP (baccam))))) |ET| 
-1  |BT| (ROOT (S (VP (VBG (eat)))(NP (NN (ice))(NN (cream)))(NP (NNP (ddd))))) |ET| 
-1  |BT| (ROOT (S (NP (JJ (sore)))(PP (IN (from)))(NP (DT (the))(NN (fair))))(S (NP (NNP (didnt))(RB (even)))(VP (VBP (know)))(NP (DT (this)))(VP (MD (could))(VB (happen))))) |ET| 
1  |BT| (ROOT (S (NP (PRP$ (my))(NN (dad)))(VP (VBZ (be)))(ADVP (NN (home)))(PP (IN (for)))(NP (DT (the))(NN (weekend))))(S (NP (PRP (i)))(VP (VBD (invite)))(NP (PRP (he)))(VP (TO (to))(VB (do)))(NP (NN (breakfast)))(NP (NN (tomorrow)))(PP (IN (for)))(NP (CD (my))(NN (birthday)))(NP (PRP (he)))(VP (VBZ (be))(VBG (go)))(NP (NN (golfing))))) |ET| 
1  |BT| (ROOT (S (NP (SYM (&))(NNS (heart)))(NP (NN (yay))))(S (NP (NN (ketelyn)))(VP (VBZ (be))(VBG (come)))(ADVP (RP (over))))(S (NP (PRP$ (its)))(VP (VBG (go))(TO (to))(VB (be)))(NP (DT (a))(JJ (good))(CD (one)))(NP (NN (today))))) |ET| 
1  |BT| (ROOT (S (VP (VBZ (be)))(NP (NNP (ready)))(VP (TO (to)))(NP (VBP (see))(DT (the))(NNP (sen10rs))(NNP (dominate)))(PP (IN (in)))(NP (NNP (powder))(NNP (puff)))(VP (NNP (<)))(NP (CD (3))(CD (<)))(LST (CD (3))))) |ET| 
-1  |BT| (ROOT (S (ADJP (JJ (tired)))(NP (PRP$ (its))(RB (only)))(NP (DT (the))(JJ (fourth))(NN (day)))(PP (IN (of)))(NP (NN (school)))(NP (NN (/))))) |ET| 
-1  |BT| (ROOT (S (NP (NN (ty)))(VP (FW (i))(VBP (wan))(TO (na))(VB (go))(NN (swimming)))(NP (NN (today))))(S (VP (VBP (need))(TO (to))(VB (find)))(NP (DT (a))(NN (pool))))(S (NP (RB (:{))(PRP (i)))(VP (VBP (dont))(VBN (fit)))(PP (IN (in)))(NP (NNP (ty)))(NP (POS ('s))(NN (pool)))(VP (NN (haha))))) |ET| 
-1  |BT| (ROOT (S (NP (DT (this))(NN (shit)))(VP (VBZ (be))(VBG (go)))(PRT (RP (down)))(NP (NN (hill))))) |ET| 
1  |BT| (ROOT (S (NP (NNP (death)))(VP (VBZ (have))(VBN (come)))(PP (IN (upon)))(NP (PRP (we))))(S (VP (NNP (let)))(NP (POS ('s)))(ADVP (RB (just)))(VP (VBP (hope)))(SBAR (IN (that)))(PP (IN (at)))(NP (DT (the))(NN (end))(NNP (cef)))(VP (MD (will))(RB (still))(JJ (okay))))) |ET| 
1  |BT| (ROOT (S (NP (DT (the))(JJ (loveliest))(NN (night))(NNP (:})))(VP (VBD (be))(VBN (treat)))(PP (IN (like)))(NP (DT (a))(NNS (princess)))(NP (NNS (thanks))(NN (baby))(NN (xxx))))) |ET| 
1  |BT| (ROOT (S (INTJ (UH (wow)))(VP (VB (have)))(NP (PRP$ (my))(NN (day)))(VP (VBN (take)))(NP (DT (a))(NN (turn)))(PP (IN (for)))(NP (DT (the))(JJS (worst))))) |ET| 
-1  |BT| (ROOT (S (VP (NNP (got))(NNP (ta))(VBP (love)))(NP (WRB (how))(JJ (affordable))(NN (college)))(VP (VBZ (be)))(NP (DT (these))(NNS (day))))(S (NP (RB (just)))(VP (VBD (order)))(NP (DT (a))(NN (book)))(PP (IN (for)))(NP (PRP$ (my))(JJ (upcoming))(NN (class)))(PP (IN (for)))(NP (DT (the))(JJ (low))(JJ (low))(NN (price)))(PP (IN (of)))(NP ($ ($))(CD (156))))(S (NP (PDT (all))(PRP (i)))(VP (MD (can))(VB (say)))(VP (VBZ (be)))(NP (PRP (it)))(ADVP (JJR (better)))(VP (VB (be)))(ADJP (JJ (amazing)))(NP (RB (truly))(NN (life))(VBG (change))))) |ET| 
-1  |BT| (ROOT (S (VP (VB (please))(RB (pray)))(PP (IN (for)))(NP (PRP (i)))(NP (PRP$ (my))(NN (mom)))(VP (TO (to))(VB (have)))(NP (DT (a))(JJ (safe))(NN (flight.i)))(VP (VBP (be)))(NP (CD (100)))(PP (IN (on)))(NP (DT (the))(NN (anxiety))(NN (scale))(RB (right)))(ADVP (RB (now))))) |ET| 
-1  |BT| (ROOT (S (VP (VB (join)))(NP (PRP (i)))(PP (IN (for)))(NP (VB (spin)))(NP (NN (today))))(S (PP (VBD (9am)))(NP (NNP (mesquite)))(NP (CD (24))(NNP (hour))))(S (NP (NNP (great))(VBP (ride)))(NP (JJ (great))(NN (gym)))(NP (JJ (great))(NNS (people))))(S (NP (VBP (have))(NN (fun)))(SBAR (IN (while)))(NP (PRP (you))(NN (workout)))(VP (VB (be))(VBN (inspire))))) |ET| 
1  |BT| (ROOT (S (NP (VBG (understand))(NN (evolution)))(NP (DT (this))(NN (morning))))) |ET| 
1  |BT| (ROOT (S (NP (NN (tonight)))(VP (VBZ (be))(VBG (go))(TO (to))(VB (be)))(ADJP (JJ (awesome))))) |ET| 
1  |BT| (ROOT (S (NP (PRP (i)))(VP (VBP (be)))(ADJP (VBN (tire)))(PP (IN (of)))(VP (VBG (be)))(ADJP (JJ (allergic)))(PP (TO (to)))(NP (NN (everything))))) |ET| 
-1  |BT| (ROOT (S (NP (NNP (eggs))(CC (and))(NNP (grits))))) |ET| 
-1  |BT| (ROOT (S (NP (NN (vacation)))(PP (TO (to)))(NP (NNP (ocean))(NNP (city)))(NP (NNP (maryland))(NN (tommorow))))) |ET| 
-1  |BT| (ROOT (S (NP (DT (the))(NN (dance)))(VP (VBD (be)))(NP (JJ (pretty))(NN (fun)))(NP (NN (today))))) |ET| 
1  |BT| (ROOT (S (NP (RB (just)))(VP (VBD (get)))(ADVP (RB (back)))(PP (IN (from)))(NP (NNP (nashua))(VBN (tire)))(PP (IN (as)))(NP (NN (fuck))(CC (and))(JJ (sore))))(S (NP (PRP (i)))(VP (VBD (get))(TO (to))(VB (see)))(NP (PRP$ (my))(NN (wifey)))(SBAR (IN (though)))(NP (JJ (hakuna)))(VP (NNS (:}))(VBP (~)))(NP (CD (9-28-10))(NNS (~))))) |ET| 
1  |BT| (ROOT (S (NP (FW (i))(NN (hope))(CD (2011)))(VP (MD (can))(VB (exceed)))(NP (PRP$ (my))(NN (expectation)))(ADVP (RB (just)))(PP (IN (like)))(NP (DT (this))(NN (year)))(VP (VBD (do))))(S (NP (FW (i)))(VP (VB (have)))(NP (NNS (goal)))(NP (FW (i)))(ADVP (RB (now)))(VP (VBP (want))(TO (to))(VB (achieve))))) |ET| 
1  |BT| (ROOT (S (NP (PRP (i)))(VP (VBD (do))(RB (not))(NN (trip))))(S (NP (DT (the))(NN (ground)))(ADVP (RB (just)))(VP (VBD (look)))(SBAR (IN (like)))(NP (PRP (it)))(VP (MD (could))(VB (use)))(NP (DT (a))(NN (hug))))(S (NP (DT (that)))(VP (VBZ (be)))(NP (DT (all))))) |ET| 
-1  |BT| (ROOT (S (NP (PRP (i)))(VP (VBP (hate)))(NP (NNP (facebook))(JJ (mobile))))(S (NP (PRP (i)))(VP (VBP (hate)))(NP (DT (this))(JJ (stupid))(NN (phone))))(S (NP (PRP (i)))(VP (VBP (hate))(VBG (have)))(NP (DT (no))(NN (internet))))(S (VP (VBG (go))(TO (to))(VB (kill)))(NP (PRP (myself)))(ADVP (RB (now))))) |ET| 
-1  |BT| (ROOT (S (NP (PRP (i)))(ADVP (RB (still)))(VP (VBP (think)))(NP (FW (i)))(VP (VB (have)))(NP (NN (school))(NN (tommorow))))) |ET| 
-1  |BT| (ROOT (S (NP (NNP (dabu))(NNP (dabu))(VBZ (dabu))(NNP (dabu))(NNP (da))))(S (NP (WP (who)))(VP (MD (can))(VB (name)))(NP (WP (what)))(VP (VBP (show)))(NP (DT (this)))(VP (VBZ (be)))(PP (IN (from))))) |ET| 
1  |BT| (ROOT (S (NP (NNP (spinoza))(CC (and))(NN (coffee))))) |ET| 
1  |BT| (ROOT (S (VP (VBG (make)))(NP (NN (study))(NNS (note))))(S (NP (NNP (planning)))(PP (TO (to)))(NP (NN (ace)))(NP (DT (these))(NNS (test))))) |ET| 
1  |BT| (ROOT (S (NP (CD (five))(CD (hundred))(VBP (twenty-five))(CD (thousand))(NNS (moment)))(ADVP (RB (so))(RB (dear))))) |ET| 
-1  |BT| (ROOT (S (NP (RB (about)))(VP (TO (to))(NN (color)))(NP (UH (hello))(NNP (kitty)))(PP (IN (with)))(NP (PRP$ (my))(JJ (princess.the))(NNS (joy)))(PP (IN (of)))(NP (NN (motherhood)))(VP (VBD (get))(TO (to))(VB (love)))(NP (PRP (it))))) |ET| 
-1  |BT| (ROOT (S (ADVP (RB (just)))(VP (VBG (think)))(PP (IN (about)))(NP (PRP (you))))) |ET| 
-1  |BT| (ROOT (S (NP (RB (sissy)))(VP (JJ (dog-holding)))(PP (IN (down)))(NP (NNP (james)))(NP (NNP (loki-watching))(NN (tv)))(NP (NNP (taytay-snoring)))(NP (NN (ocasta-stole)))(NP (PRP$ (my))(NN (chair)))(NP (JJ (me-laughing)))(PP (IN (at)))(NP (DT (the))(NN (bunch))))) |ET| 
1  |BT| (ROOT (S (NP (PRP (i)))(VP (VBP (hate)))(NP (DT (that))(NN (feeling)))(ADVP (WRB (where)))(NP (PRP (you)))(VP (VBP (dont))(RB (even))(VB (know)))(NP (WP (what)))(NP (DT (the))(VBP (fuck)))(NP (PRP$ (you))(NN (feeling))))) |ET| 
1  |BT| (ROOT (S (NP (PRP (i)))(VP (VBP (be))(VBG (raise)))(NP (DT (a))(NN (army)))(PP (IN (of)))(NP (JJ (homeless))(NNS (man)))(PP (IN (in)))(NP (DT (the))(NN (basement))))) |ET| 
1  |BT| (ROOT (S (NP (PRP (i)))(VP (VBP (hate))(VBG (chop)))(NP (JJ (onions))))(S (NP (PRP (it)))(VP (VBZ (make)))(NP (PRP (i)))(VP (VB (cry))))) |ET| 
-1  |BT| (ROOT (S (NP (PRP (i)))(VP (VBD (come)))(PP (TO (to)))(NP (DT (a))(NN (conclusion))))(S (NP (DT (that))(NN (conclusion)))(VP (VBZ (be)))(NP (NNP (oviposition))))) |ET| 
-1  |BT| (ROOT (S (NP (WP (what)))(NP (DT (the))(NN (hell))))(S (ADVP (WRB (when)))(VP (VBD (do)))(NP (NNS (spider)))(VP (VB (start))(VBG (fly))))) |ET| 
-1  |BT| (ROOT (S (ADVP (WRB (when)))(NP (DT (the))(NN (fuck)))(VP (VBZ (be)))(NP (NN (school))(VBG (start))))) |ET| 
1  |BT| (ROOT (S (VP (VBG (think)))(PP (IN (about)))(VP (VBG (go)))(NP (DT (all))(JJ (natural))(JJ (next))(NN (year))))) |ET| 
1  |BT| (ROOT (S (VP (VBD (go))(NN (shopping)))(PP (IN (with)))(NP (PRP$ (my))(NNS (life))(NNS (savings))))) |ET| 
1  |BT| (ROOT (S (ADVP (RB (still)))(VP (VBN (use)))(PP (TO (to)))(NP (DT (this))(JJ (whole))(JJ (short))(NN (hair))(NN (thing))))) |ET| 
-1  |BT| (ROOT (S (NP (DT (no))(VBP (urge)))(VP (TO (to))(VB (remove)))(NP (PRP (myself)))(PP (IN (from)))(NP (PRP$ (my))(NN (bed))))) |ET| 
-1  |BT| (ROOT (S (NP (PRP (i)))(VP (VBP (know)))(NP (PRP (i)))(VP (VBP (be)))(ADJP (JJ (good)))(PP (IN (at)))(VP (VBG (take)))(NP (NNS (compliment)))(INTJ (NN (gosh))))) |ET| 
-1  |BT| (ROOT (S (NP (CD (five))(CD (hundred))(JJ (twenty-five))(CD (thousand))(CD (six))(CD (hundred))(NNS (minute))))) |ET| 
1  |BT| (ROOT (S (NP (DT (some))(NN (packing)))(NP (NN (today))))(S (VP (VBG (move)))(VP (VBZ (be)))(NP (NN (fun))))) |ET| 
1  |BT| (ROOT (S (VP (VBG (clean)))(NP (DT (the))(NN (house.wut)))(ADJP (RB (else)))(VP (VBZ (be)))(NP (EX (there)))(VP (TO (to))(VB (do))))) |ET| 
1  |BT| (ROOT (S (VP (VB (become)))(ADJP (JJ (happy)))(ADVP (WRB (when)))(NP (PRP (you)))(VP (VBP (see)))(NP (NNS (other))(VBG (smile))(NN (:}))))) |ET| 
-1  |BT| (ROOT (S (SBAR (IN (if)))(NP (PRP (you)))(VP (VBP (want))(TO (to))(VB (be)))(NP (JJ (together)))(NP (PRP (you)))(ADVP (VBP (qot)))(NP (NN (to-get-her))))) |ET| 
-1  |BT| (ROOT (S (VP (VBD (travel)))(ADVP (RB (backward)))(PP (IN (in)))(NP (NN (time)))(PP (IN (for)))(NP (DT (the))(JJ (sole))(NN (purpose)))(PP (IN (of)))(VP (VBG (post)))(NP (DT (this))(NN (message))))) |ET| 
-1  |BT| (ROOT (S (VP (VBZ (love)))(NP (NNS (ghost))(CC (and))(NN (stuff))))) |ET| 
1  |BT| (ROOT (S (NP (PRP (i)))(VP (VBD (use))(TO (to))(VB (think)))(NP (CD (one))(NN (day)))(NP (PRP (we)))(VP (MD (would))(VB (tell)))(NP (DT (the))(NN (story)))(PP (IN (of)))(NP (PRP (we))))) |ET| 
1  |BT| (ROOT (S (NP (NNP (fb))(NNP (im))(NNP (back))))(S (NP (NNP (please))(NNP (rise)))(PP (IN (for)))(NP (DT (the))(NN (singin)))(PP (IN (of)))(NP (NNP (tha))(NNP (national))(NNP (trap))(NNP (star))(NNP (anthem))))(S (NP (NNP (bitch))(NNP (im))(NNP (amazing))))) |ET| 
1  |BT| (ROOT (S (NP (PRP (i)))(PP (VBP (like)))(NP (PRP (it)))(PP (IN (by)))(NP (DT (the))(JJ (front))(NN (door)))(VP (VBG (lean)))(PRT (RP (up)))(PP (IN (against)))(NP (DT (the))(NN (table))))) |ET| 
-1  |BT| (ROOT (S (VP (VBZ (have))(VBN (run)))(PP (RP (out)))(PP (IN (of)))(NP (NNP (big))(NNP (bang))(NN (theory))(NNS (episode))))(S (NP (WP (what))(DT (a))(JJ (massive))(NN (twat))))) |ET| 
-1  |BT| (ROOT (S (NP (NN (today)))(VP (VBZ (be)))(NP (DT (the))(JJ (1st))))(S (NP (PRP (i)))(VP (VBP (be)))(ADJP (JJ (ready)))(PP (TO (to)))(NP (VB (kick))(NN (drama)))(PP (IN (in)))(NP (DT (the))(NNS (tooth))))) |ET| 
-1  |BT| (ROOT (S (NP (PRP$ (you)))(PP (JJ (like)))(NP (DT (a))(VBZ (octapus))))(S (NP (VBZ (tenticle)))(VP (NN (flyin)))(NP (DT (all)))(PP (IN (over)))(NP (DT (the))(NN (place))))(S (NP (NNP (rob))(NNP (ruscher))))) |ET| 
1  |BT| (ROOT (S (NP (NNP (inception)))(VP (VBD (be)))(NP (DT (a))(JJ (awesome))(NN (movie))))) |ET| 
1  |BT| (ROOT (S (NP (FW (i)))(VP (VBD (have)))(NP (JJ (homework.and))(NN (class)))(PP (IN (at)))(NP (CD (9am))))) |ET| 
1  |BT| (ROOT (S (ADVP (RB (now)))(PP (IN (on)))(NP (NNS (holiday)))(PP (IN (for)))(NP (DT (the))(JJ (next))(CD (three))(NNS (week)))(NP (JJ (ye)))(NP (NN (ha))(NN (god)))(VP (VBZ (be)))(ADJP (JJ (great))))) |ET| 
-1  |BT| (ROOT (S (NP (FW (i)))(VP (RB (completley))(VBP (love)))(NP (DT (the))(NN (gravity))(NN (gun))))) |ET| 
-1  |BT| (ROOT (S (SBAR (IN (if)))(NP (VBP (qod)))(ADVP (RB (ever)))(VP (VBN (need)))(NP (DT (a))(NN (anqel)))(NP (PRP (he)))(VP (VBD (make)))(NP (DT (a))(JJ (qreat))(NN (choice))))) |ET| 
-0.97804415228003582782889679947402  |BT| (ROOT (S (ADVP (LS (first)))(NP (RB (daily))(`` ("))(NN (spring))('' ("))(-LRB- (-lrb-))(RB (not)))(ADVP (RB (really)))(VP (-RRB- (-rrb-))(VBP (run)))(NP (NN (tomorrow))(SYM (=))(NNP (excited))))) |ET| 
1  |BT| (ROOT (S (NP (NNP (please))(NNP (lord))))(S (NP (NNP (help))(NNP (my))(VBD (throat))(TO (to))(NNP (feel))(NNP (better))))) |ET| 
1  |BT| (ROOT (S (PP (IN (in)))(NP (NN (case)))(PP (IN (of)))(NP (DT (a))(NN (fire)))(NP (WDT (what)))(VP (NNS (step)))(NP (PRP (you)))(VP (VB (take))))(S (NP (NNP (big))(VBP (ass))(NNS (one))))) |ET| 
1  |BT| (ROOT (S (NP (DT (this))(NN (time)))(NP (NN (tomorrow)))(NP (PRP (i)))(VP (VBP (have)))(NP (DT (a))(NN (appointment)))(PP (IN (with)))(NP (PRP$ (my))(NN (couch)))(NP (DT (a))(NN (blanket)))(NP (DT (a))(NN (pillow))))) |ET| 
-1  |BT| (ROOT (S (NP (MD (should)))(VP (VB (cut)))(NP (NN (hair)))(ADVP (JJ (short)))(PP (IN (for)))(NP (NN (rest)))(PP (IN (of)))(NP (DT (the))(NN (year))))(S (NP (RB (yes))(CC (or))(RB (no))))) |ET| 
-1  |BT| (ROOT (S (VP (MD (can))(RB (not))(VB (wait)))(PP (IN (for)))(NP (DT (this))(NN (weekend))))(S (NP (VB (:d))(NN (fun))(NN (fun))(NN (fun))))) |ET| 
-1  |BT| (ROOT (S (NP (JJ (great))(NN (couple)))(PP (IN (of)))(NP (NNS (day)))(PP (IN (at)))(NP (DT (the))(NNP (state))(NNP (fair))))(S (NP (NNS (thanks)))(PP (IN (for)))(NP (DT (the))(JJ (amazing))(NNS (performance))(VBZ (haygood))))) |ET| 
1  |BT| (ROOT (S (NP (WP (what)))(NP (VBZ (be))(DT (the))(NN (deal)))(PP (IN (with)))(NP (DT (the))(NNS (siren)))(VP (VBG (go)))(PRT (RP (off)))(PP (IN (in)))(NP (NNP (smyrna))))) |ET| 
1  |BT| (ROOT (S (NP (POS ('))(VBP (ti))(RB (not))(NN (happiness)))(SBAR (IN (that)))(NP (PRP (i)))(VP (VBP (feel))))) |ET| 
1  |BT| (ROOT (S (NP (PRP (i)))(VP (VBP (swear)))(NP (DT (this)))(VP (VBZ (be)))(NP (JJ (anti-catholicism))))(S (SBAR (IN (if)))(NP (PRP (you)))(VP (VBP (think)))(NP (PRP (it)))(VP (VBZ (be)))(NP (PRP (i)))(VP (VBP (think)))(NP (IN (that)))(VP (VBZ (be)))(ADVP (JJ (funny)))(ADVP (RB (too))))) |ET| 
-1  |BT| (ROOT (S (NP (PRP (you)))(NP (PRP (i)))(NP (PRP (we)))(VP (VBP (be))(VBG (gon))(TO (na))(VB (make)))(NP (PRP (it)))(PP (IN (through))))) |ET| 
-1  |BT| (ROOT (S (NP (PRP (i)))(VP (VBP (love)))(NP (PRP (it)))(ADVP (WRB (when)))(NP (PRP (she)))(VP (VBZ (say)))(NP (PRP$ (its))(NN (cool))(FW (i)))(VP (VBD (get)))(NP (PRP (it))))) |ET| 
-1  |BT| (ROOT (S (VP (VBG (miss)))(NP (PRP$ (she))(NNS (mate)))(ADVP (RB (so))(RB (much)))(ADVP (RB (right))(RB (now)))(VP (VBP (wish)))(NP (PRP (they)))(ADVP (WRB (where)))(PP (IN (with)))(NP (PRP (i)))(ADVP (RB (now))))) |ET| 
1  |BT| (ROOT (S (NP (NNS (thanks))(NNP (hayley))(NNP (cassidy)))(PP (IN (for)))(NP (DT (the))(CD (3))(NN (hour))(RB (long))(VB (catch))(JJ (up.good))(NN (chat)))(NP (JJ (good))(NNS (time))))(S (NP (JJ (:p))(NN (xx))))) |ET| 
1  |BT| (ROOT (S (NP (`` ("))(CD (one))(NN (day)))(PP (IN (in)))(NP (NN (retrospect)))(NP (DT (the))(NNS (year)))(PP (IN (of)))(NP (NN (struggle)))(VP (MD (will))(VB (strike)))(NP (PRP (you)))(PP (IN (as)))(NP (DT (the))(RBS (most))(JJ (beautiful))))(S (NP (NNP (sigmund))(NNP (freud))))) |ET| 
1  |BT| (ROOT (S (NP (UH (hey))(NNP (v))(NNP (team.see))(VBP (yall)))(PP (IN (at)))(NP (CD (6.15)))(VP (RB (am)))(PP (IN (at)))(NP (DT (the))(NNP (mercury))(NNP (theatre)))(VP (TO (to))(VB (pack)))(NP (JJ (little))(NN (truck))))(S (NP (NNP (night))(NN (team)))(NP (CD (3.15))(VBP (pm)))(PP (IN (at)))(NP (DT (the))(NN (aotea)))(PP (IN (for)))(NP (NNP (sound))(NN (check)))(VP (NNS (:}))(VB (see)))(NP (PRP (you)))(ADVP (RB (soon)))(VP (JJ (aree))))) |ET| 
-1  |BT| (ROOT (S (NP (NNP (y))(NNP (thank))(NNP (u)))(PP (IN (if)))(NP (NNP (u)))(NP (POS ('))(NN (z))(DT (a))(NNP (hata))(VBZ (!!!!!))))) |ET| 
-1  |BT| (ROOT (S (NP (VB (omg))))(S (VP (VBG (wake)))(PRT (RP (up)))(PP (IN (in)))(NP (DT (a))(NN (king))(NN (size))(NN (bed)))(PP (IN (in)))(NP (DT (the))(NNP (presidential))(NN (suite)))(VP (VBZ (feel)))(ADJP (JJ (sooooooooooooo))(JJ (good))))) |ET| 
-1  |BT| (ROOT (S (VP (VBG (reply)))(PP (TO (to)))(NP (PDT (all))(PRP$ (my))(NN (budday)))(VP (VBZ (wish))))(S (NP (NNP (:}))(VBZ (:}))))) |ET| 
1  |BT| (ROOT (S (NP (PRP (you)))(VP (VBP (be))(VBG (stab)))(NP (PRP (i)))(PP (IN (through)))(NP (PRP (you))))) |ET| 
1  |BT| (ROOT (S (SBAR (IN (if)))(NP (PRP (it)))(VP (VBZ (hurt)))(NP (PRP (you)))(NP (DT (this))(JJ (much)))(ADVP (RB (then)))(NP (PRP (it)))(VP (MD (must))(VB (be)))(NP (NN (love))))) |ET| 
1  |BT| (ROOT (S (UCP (NNP (omg)))(NP (PRP (i)))(VP (VBP (be)))(PP (IN (in)))(NP (NNP (paris))))(S (NP (PRP (i)))(ADVP (RB (just)))(VP (VBD (get)))(ADVP (RB (here)))(NP (NN (today))))) |ET| 
-1  |BT| (ROOT (S (NP (PRP (you)))(NP (PRP (i)))(VP (VBP (collide))))(S (NP (NNP (whoo))(NNP (!!!!))))) |ET| 
-1  |BT| (ROOT (S (ADVP (RB (maybe)))(NP (PRP (you)))(VP (MD ('ll))(VB (find)))(PP (RP (out))))) |ET| 
-1  |BT| (ROOT (S (VP (VB (save)))(NP (PRP$ (you))(NN (breath)))(NP (PRP (i)))(VP (MD (will))(RB (not))(VB (care))))(S (NP (PRP (i)))(VP (VBP (think)))(NP (PRP (i)))(VP (VBD (make)))(NP (PRP (it)))(ADJP (RB (very))(JJ (clear))))) |ET| 
1  |BT| (ROOT (S (PP (IN (off)))(PP (TO (to)))(NP (VB (walmart.got)))(NP (DT (a))(NN (giggle))(JJS (fest)))(VP (TO (to))(VB (feed))))(S (NP (-LRB- (-lrb-)))(VP (VBN (get))(TO (to))(NN (love)))(NP (NNS (sleepover))))) |ET| 
1  |BT| (ROOT (S (VP (VBZ (feel)))(ADJP (JJ (ill)))(VP (MD (can))(RB (not))(VB (sleep))))) |ET| 
1  |BT| (ROOT (S (VP (VBN (addict)))(PP (TO (to)))(NP (DT (the))(NN (game))(`` ("))(JJ (angry))(NNS (bird))))) |ET| 
-1  |BT| (ROOT (S (VP (VBZ (be)))(PP (VBG (start)))(PP (TO (to)))(NP (VB (stress-out)))(PP (IN (about)))(NP (PRP$ (he))(NNS (exam))))) |ET| 
-1  |BT| (ROOT (S (VP (VBN (goin)))(PP (TO (to)))(NP (DT (the))(NN (gymm))))) |ET| 
-1  |BT| (ROOT (S (VP (VBZ (be)))(ADVP (NN (almighty))))) |ET| 
1  |BT| (ROOT (S (ADVP (NNP (totally)))(VP (VBZ (suck)))(PP (IN (in)))(NP (NNP (starcraft))(CD (2))))(S (NP (PRP (i)))(VP (MD (should))(VB (think)))(ADVP (RB (twice))(IN (before)))(VP (VBG (challenge)))(NP (NNP (wafi))(CC (or))(NNP (richie))))) |ET| 
1  |BT| (ROOT (S (NP (NNP (drops)))(PP (IN (of)))(NP (NNP (jupiter)))(PP (IN (by)))(NP (NNP (train)))(VP (VBZ (give)))(NP (PRP (i)))(NP (VBZ (chill)))(NP (DT (every))(NN (time)))(NP (PRP (i)))(VP (VBP (listen)))(PP (TO (to)))(NP (PRP (it))))(S (NP (NN (something)))(PP (IN (about)))(NP (DT (the))(JJ (poetic))(NNS (lyric))))) |ET| 
1  |BT| (ROOT (S (ADVP (UH (wow)))(ADVP (JJ (weird)))(ADVP (WRB (how)))(NP (NNS (thing)))(VP (VBP (work)))(PRT (RP (out)))(VP (VBZ (be)))(NP (PRP (it))))) |ET| 
-1  |BT| (ROOT (S (ADJP (JJ (tired)))(ADJP (JJ (weary))))(S (ADVP (RB (still)))(VP (MD (can))(RB (not))(VB (fkin)))(NP (VB (sleep))(JJ (~))))) |ET| 
-1  |BT| (ROOT (S (ADVP (UH (well)))(NP (PRP (i)))(VP (VBD (be)))(ADJP (JJ (silly)))(VP (TO (to))(VB (walk)))(ADVP (NN (home)))(NP (NN (tonight))))) |ET| 
-1  |BT| (ROOT (S (NP (NNP (daughter-in-law)))(NP (POS ('s))(NN (van)))(VP (VBD (be))(VBN (hit)))(NP (JJ (last))(NN (night))))(S (NP (NNP (thank))(VBD (god)))(SBAR (IN (that)))(NP (PRP (she)))(NP (DT (the))(CD (4))(NNS (kid)))(VP (VBD (be)))(ADJP (JJ (ok))))) |ET| 
1  |BT| (ROOT (S (PP (TO (to)))(NP (DT (the))(NN (windowwwwwwwwwwwwwwwwww)))(PP (TO (to)))(NP (DT (the))(NN (waaaaaall))))(S (NP (VBD (<))(CD (3))))) |ET| 
1  |BT| (ROOT (S (NP (PRP (you)))(VP (MD (may))(VB (be)))(NP (CD (one)))(PP (TO (to)))(NP (DT (the))(NN (world)))(VP (VB (be)))(NP (DT (the))(NN (world)))(PP (TO (to)))(NP (CD (one))(VBP (<)))(NP (CD (3))(NNP (*))(CD (1-27-11))(NNS (*))))) |ET| 
1  |BT| (ROOT (S (NP (DT (a))(NN (part)))(PP (IN (of)))(NP (PRP (i)))(ADVP (RB (just)))(VP (VBD (die)))(PP (RB (inside))))) |ET| 
-1  |BT| (ROOT (S (NP (PRP (i)))(VP (VBD (have))(TO (to))(VB (get)))(PRT (IN (off)))(NP (DT (the))(NN (boat)))(SBAR (IN (so)))(NP (PRP (i)))(VP (MD (could))(VB (walk)))(PP (IN (on)))(NP (NN (water))))) |ET| 
-1  |BT| (ROOT (S (NP (VBD (miss))(CD (3))(NNS (week)))(PP (IN (of)))(NP (NN (church)))(NP (DT (this))(NN (month))))(S (NP (PRP (i)))(VP (VBP (fail)))(NP (JJ (|))))) |ET| 
-1  |BT| (ROOT (S (ADVP (RB (so))(JJ (much)))(PP (IN (for)))(VP (VBG (try))(TO (to))(VB (be)))(NP (DT (a))(JJ (good))(NN (person))))(S (ADVP (RB (yet)))(NP (DT (another))(NN (slap)))(PP (IN (in)))(NP (DT (the))(NN (face))))) |ET| 
1  |BT| (ROOT (S (VP (VBZ (be)))(VP (VBG (feel)))(ADJP (JJ (creative))))) |ET| 
1  |BT| (ROOT (S (ADVP (RB (just)))(VP (VBD (realize)))(ADVP (WRB (how)))(ADJP (JJ (tired)))(NP (PRP (she)))(ADVP (RB (actually)))(VP (VBZ (be))))(S (NP (NNP (-_-))(NNP (bye))(VBP (bye))))) |ET| 
1  |BT| (ROOT (S (NP (PRP$ (my))(NN (room)))(VP (VBZ (be)))(ADJP (JJ (spotless))))(S (NP (VB (yay))))(S (NP (CD (51))(NNS (day))))) |ET| 
-1  |BT| (ROOT (S (NP (PRP$ (my))(NN (hand)))(VP (VBZ (be)))(ADJP (JJ (cold)))(VP (VBZ (need)))(NP (NN (warmth))))) |ET| 
-1  |BT| (ROOT (S (NP (NN (swensson)))(VP (VBZ (be)))(NP (PRP$ (my))(NN (hero))))) |ET| 
-1  |BT| (ROOT (S (NP (EX (there)))(VP (VBZ (be)))(ADVP (RB (always)))(NP (DT (a))(NN (reason)))(VP (TO (to))(NN (smile))))) |ET| 
1  |BT| (ROOT (S (NP (NN (blood)))(PP (IN (on)))(NP (DT (the))(NN (staircase))))) |ET| 
1  |BT| (ROOT (S (VP (`` ("))(VB (get)))(PP (IN (in)))(NP (DT (the))(NN (bowl)))(NP (PRP (you)))(VP (VBP (get)))(PP (IN (in)))(NP (DT (the))(NN (bowl))('' ("))(NN (haha)))(PP (FW (i)))(NP (NN (love))(VBP (tht))(JJ (commercial))))) |ET| 
1  |BT| (ROOT (S (NP (JJ (good))(NN (food)))(NP (JJ (good))(NN (company)))(NP (JJ (great))(NN (sex))))(S (NP (PRP (i)))(VP (VBP (think)))(NP (PRP (i)))(VP (MD (could))(VB (call)))(NP (DT (this))(NN (weekend)))(NP (DT (a))(JJ (good))(CD (one))))(S (NP (DT (a))(RB (very))(JJ (good))(NN (one))))) |ET| 
-1  |BT| (ROOT (S (NP (RB (just))(VBD (get))(DT (the))(NNP (best))(NNP (surprise))(NNP (ever))))) |ET| 
-1  |BT| (ROOT (S (NP (JJ (last))(NN (day)))(PP (IN (in)))(NP (NNP (mehico))))(S (ADVP (RB (back)))(PP (IN (across)))(NP (DT (the))(NN (border)))(PP (TO (to)))(NP (NNP (la))(NNP (tomoro))))) |ET| 
-1  |BT| (ROOT (S (NP (PRP (it)))(VP (VBZ (be)))(NP (DT (the))(NN (weekend)))(PP (IN (in)))(NP (DT (the))(NN (meantime)))(NP (CD (one))(NN (time)))(ADVP (NNP (excellence))))(S (NP (NNP (d))))) |ET| 
1  |BT| (ROOT (S (NP (PRP (i)))(VP (VBD (use))(TO (to))(VB (think)))(NP (NN (carbon))(NN (paper)))(VP (VBD (be)))(ADJP (JJ (awesome))))(S (VP (VBZ (damn)))(NP (PRP$ (my))(NN (ignorance))))) |ET| 
1  |BT| (ROOT (S (NP (WP (what)))(VP (VBZ (go)))(ADVP (RP (around)))(VP (VBZ (come)))(ADVP (RP (around))))) |ET| 
1  |BT| (ROOT (S (NP (VB (heheh)))(SBAR (IN (if)))(NP (EX (there)))(VP (VBZ (be)))(NP (NN (anyone)))(NP (PRP (you)))(VP (VBP (do))(RB (not))(VB (wan))(TO (na)))(NP (NNP (piss)))(SBAR (NNP (off)))(NP (PRP (it)))(VP (VBZ (be)))(NP (NN (death))))) |ET| 
-1  |BT| (ROOT (S (VP (`` ("))(VBZ (re-examine)))(SBAR (IN (that)))(NP (PRP (you)))(VP (VBP (have))(VBN (be))(VBN (tell))))(S (VP (CC (and))(VBP (dismiss)))(SBAR (IN (that)))(NP (WDT (which)))(VP (VBZ (insult)))(NP (PRP$ (you))(NN (soul))))(S (NP (NNP (walt))(NNP (whitman))))) |ET| 
-1  |BT| (ROOT (S (NP (PRP (it)))(VP (VBZ (be)))(NP (RB (just))(CD (one)))(PP (IN (of)))(NP (DT (those))(NNS (day)))(ADVP (WRB (where)))(NP (PRP (you)))(VP (VBP (feel)))(PP (IN (like)))(VP (VBG (punch)))(NP (DT (a))(NN (bitch))))) |ET| 
-1  |BT| (ROOT (S (VP (VBZ (want))(TO (to))(VB (start))(VBG (count)))(PRT (RP (down)))(ADVP (WRB (how)))(NP (JJ (many))(VBZ (sleep)))(SBAR (IN (until)))(NP (PRP (we)))(VP (VBP (go)))(ADVP (RP (away)))(PP (IN (on)))(NP (PRP$ (we))(NNS (jolly))))) |ET| 
1  |BT| (ROOT (S (ADVP (RB (never)))(VP (VBP (hesitate))(TO (to))(VB (invest)))(NP (NN (time)))(PP (IN (in)))(NP (PRP$ (you))(NN (relationship))))) |ET| 
1  |BT| (ROOT (S (NP (NN (math)))(PP (IN (at)))(NP (CD (12:30)))(ADVP (RB (then)))(ADVP (NN (home)))(PP (IN (for)))(NP (DT (the))(NN (weekend))))) |ET| 
1  |BT| (ROOT (S (NP (NN (ok))(FW (i)))(VP (VBP (be))(VBN (bore)))(PP (RP (out)))(PP (IN (of)))(NP (PRP$ (my))(NN (mind)))(ADVP (RB (now))))(S (ADVP (WRB (where)))(NP (PRP$ (my))(NNS (girl)))(PP (IN (at)))(NP (NN (tonight))))) |ET| 
-1  |BT| (ROOT (S (NP (VBD (todd)))(PP (NN (wedding)))(ADVP (RB (then)))(PP (IN (after)))(NP (NN (party))(NN (sesh))))) |ET| 
-1  |BT| (ROOT (S (NP (PRP (i)))(VP (VBP (live)))(NP (DT (every))(NN (moment)))(PP (FW (i)))(NP (VB (laugh)))(ADJP (JJ (everyday))))(S (NP (NNP (middle))(NNS (finger)))(PP (TO (to)))(NP (VB (tha))(NNS (hater)))(PP (IN (as)))(NP (FW (i))(VB (laugh)))(PP (IN (in)))(NP (NN (yo))(VBP (face))))) |ET| 
-1  |BT| (ROOT (S (NP (NNP (great))(NN (night)))(PP (IN (at)))(NP (NN (pub))(NN (playin))(NN (pool)))(PP (IN (with)))(NP (NN (alan))(CC (and))(NN (gary))))) |ET| 
1  |BT| (ROOT (S (VP (VBG (love)))(NP (DT (the))(NN (picture)))(SBAR (IN (that)))(NP (NNP (alice))(NNP (alexandrovna))(NNP (rozkov)))(VP (VBZ (edited.looks)))(ADJP (JJ (awesomful)))(UCP (SYM (=)))(NP (NNP (d))))) |ET| 
1  |BT| (ROOT (S (NP (NNP (rite)))(UCP (VBZ (that)))(NP (DT (that))))(S (ADVP (VBZ (senseless)))(NP (RB (tonight))(NN (anyone))))) |ET| 
1  |BT| (ROOT (S (SBAR (IN (if)))(NP (PRP (you)))(VP (MD (can))(RB (not))(VB (beat)))(NP (PRP ('em))(VBP (arrange)))(VP (TO (to))(VB (have)))(NP (PRP (they)))(VP (VBN (beat))))) |ET| 
-1  |BT| (ROOT (S (ADVP (WRB (why)))(NP (VBP (be)))(NP (PRP (i)))(ADJP (JJ (able)))(VP (TO (to))(VB (sleep))))) |ET| 
-1  |BT| (ROOT (S (NP (VB (thank))(JJ (effing))(NN (god))))(S (NP (PRP (i)))(VP (VBP (think)))(NP (PRP (i)))(VP (VBP (be)))(ADVP (RB (finally)))(VP (VBG (get)))(NP (PRP$ (my))(NN (truck)))(ADVP (RB (back)))(NP (NN (tomorrow))(RB (night))))) |ET| 
-0.95210458727672464540603414206998  |BT| (ROOT (S (SBAR (IN (if)))(NP (PRP (you)))(VP (MD (can))(RB (not))(VB (convince)))(NP (PRP (they)))(VP (VB (confuse)))(NP (JJ (them.-harry))(NNP (s))(NNP (truman))))) |ET| 
1  |BT| (ROOT (S (NP (PRP (i)))(VP (VBP (love)))(NP (PRP$ (my))(NN (family))(CC (and))(NNS (friend))))) |ET| 
1  |BT| (ROOT (S (VP (VBG (go))(TO (to))(VB (be)))(PP (IN (with)))(NP (NNP (chanelle))(NNP (fuller))(CC (&))(NNP (crys))(NNP (leann))(NN (toniqht))(VBP (:d)))(VP (NN (hmu))))) |ET| 
1  |BT| (ROOT (S (NP (RB (there))(PRP (ya)))(VP (VBP (go)))(NP (RB (p))))) |ET| 
-1  |BT| (ROOT (S (NP (NNS (hope)))(SBAR (WDT (that)))(NP (DT (a))(JJ (certain))(NNS (person)))(VP (VBZ (change)))(NP (PRP$ (she))(NN (mind))))) |ET| 
-1  |BT| (ROOT (S (NP (NNP (thanx))(FW (i)))(VP (VBD (have)))(NP (DT (a))(NN (blast))(NN (nd))(JJ (letonah))(NN (im))(CD (14))(JJ (nd))(NN (luv))(NNS (yal)))(VP (VBP (<)))(NP (CD (3))))) |ET| 
-1  |BT| (ROOT (S (VP (VBZ (want))(TO (to))(VB (go))(JJ (skating)))(NP (RB (so))(JJ (bad))))) |ET| 
1  |BT| (ROOT (S (VP (VBZ (want)))(PP (TO (to)))(NP (VB (go)))(PP (TO (to)))(NP (DT (a))(NNP (halloween))(NN (party)))(PP (IN (as)))(NP (NNP (magenta))))(S (NP (PRP (i)))(VP (VB (pull)))(NP (PRP (it)))(PRT (IN (off)))(ADVP (RB (though))))) |ET| 
1  |BT| (ROOT (S (NP (PRP (we)))(VP (MD (can))(RB (not))(VB (be))(NN (wt)))(NP (PRP (we)))(ADVP (RB (usually)))(VP (VB (be))))(S (NP (RB (too))(JJ (much))(VBZ (change))))) |ET| 
1  |BT| (ROOT (S (ADJP (VBN (excite)))(PP (IN (for)))(NP (NN (tomorrow))))(S (INTJ (RB (yes))))(S (NP (NNP (graduation))(NNP (na))(NNP (ni))(NNP (brother))(NNP (dear))))(S (NP (JJ (whooo-hooo))(NNS (!!))))(S (INTJ (VB (yeah))))(S (NP (PRP (i)))(ADVP (RB (so)))(NP (JJ (proud))(JJ (little))(NN (brother))))) |ET| 
-0.95067583635074337511383646415197  |BT| (ROOT (S (NP (VB (day))(CD (5)))(NP (DT (no))(NN (end)))(PP (IN (in)))(NP (NN (sight)))(VP (VB (please))(VB (let)))(NP (DT (this)))(VP (VB (be)))(PP (IN (over)))(NP (PRP (i)))(VP (VBP (have))(VBD (have)))(ADJP (RB (enough))))) |ET| 
-1  |BT| (ROOT (S (SBAR (VB (awe)))(NP (PRP (i)))(VP (VBP (love)))(NP (PRP$ (my))(NN (family))(CC (and))(NNS (friend))))(S (NP (PRP (they)))(VP (VBP (keep)))(NP (PRP (i)))(VP (NN (goin))))) |ET| 
-1  |BT| (ROOT (S (VP (VB (hang)))(PRT (RP (out)))(PP (IN (with)))(NP (NNP (caleb))))(S (NP (RB (about)))(VP (TO (to))(VB (go))(VB (do)))(NP (NN (something))(NNP (crazy))))(S (NP (NNP (hahahaha))(NNP (jk))))) |ET| 
1  |BT| (ROOT (S (VP (VBZ (have))(TO (to))(VB (write)))(NP (DT (a))(JJ (new))(NN (word))(NN (arrangement))(NN (poem)))(VP (VBZ (be)))(UCP (RP (out)))(PP (IN (of)))(NP (NNS (idea))))) |ET| 
1  |BT| (ROOT (S (NP (FW (i)))(VP (NN (hate)))(NP (NNS (test)))(NP (PRP (you))(NNS (seconds)))(NP (WDT (that)))(VP (VBP (??))))) |ET| 
1  |BT| (ROOT (S (VP (VBZ (be)))(VP (VBG (get)))(NP (DT (the))(JJ (last))(NN (wisdom))(NN (tooth)))(VP (VBN (remove)))(NP (DT (this))(NN (morning))))) |ET| 
-1  |BT| (ROOT (S (ADVP (RB (just)))(VP (VBD (finish)))(NP (DT (the))(NNP (susan))(NNP (komen))(NN (race)))(PP (IN (for)))(NP (DT (the))(NN (cure))))) |ET| 
-1  |BT| (ROOT (S (VP (VBZ (be)))(ADVP (RB (now)))(NP (DT (the))(JJ (proud))(NN (owner)))(PP (IN (of)))(NP (DT (a))(CD (2005))(NNP (infiniti))(NN (g35))))) |ET| 
-1  |BT| (ROOT (S (NP (WP (who))(DT (all)))(VP (VBZ (be))(VBG (go)))(PP (TO (to)))(NP (DT (the))(NNP (green))(NNP (wave)))(VP (NN (show)))(NP (DT (this))(NN (evening))))) |ET| 
1  |BT| (ROOT (S (VP (NNS (look)))(PP (IN (like)))(VP (VBD (be))(VBG (add)))(NP (DT (another))(NN (family))(NN (member)))(NP (NN (amanda)))(VP (RB (just))(VBD (confirm)))(SBAR (IN (that)))(NP (VBZ (she)))(ADJP (JJ (pregnant))))) |ET| 
1  |BT| (ROOT (S (SBAR (IN (if)))(NP (PRP (you)))(VP (VBP (do))(RB (not))(VB (go)))(SBAR (IN (after)))(NP (WP (what)))(NP (PRP (you)))(VP (VBP (want)))(NP (PRP (you)))(VP (MD ('ll))(RB (never))(VB (have)))(NP (PRP (it))))(S (SBAR (IN (if)))(NP (PRP (you)))(VP (VBP (do))(RB (not))(VB (ask)))(NP (DT (the))(NN (answer)))(VP (VBZ (be)))(ADVP (RB (always))(RB (no))))(S (SBAR (IN (if)))(NP (PRP (you)))(VP (VBP (do))(RB (not))(VB (step)))(ADVP (RP (forward)))(NP (PRP (you)))(VP (VBP (be)))(ADVP (RB (always)))(PP (IN (in)))(NP (DT (the))(JJ (same))(NN (place))))) |ET| 
1  |BT| (ROOT (S (ADVP (RB (well)))(VP (VBD (play)))(NP (NNP (india))))(S (ADJP (JJ (sad)))(PP (IN (for)))(NP (PRP$ (we))(NN (loss)))(VP (NN (though.still)))(NP (NNP (pakistan))(NNP (zindabaad))))) |ET| 
-1  |BT| (ROOT (S (NP (FW (i)))(VP (NN (love)))(NP (PRP$ (my))(NN (wife)))(ADJP (RB (very))(RB (much)))(PP (JJ (:})))(VP (NN (smile)))(ADJP (JJ (gorgeous)))(PP (FW (i)))(VP (VBP (be))(NN (thinkin)))(PP (IN (of)))(NP (PRP (you))))) |ET| 
-1  |BT| (ROOT (S (NP (NNP (thou)))(VP (VBZ (ask)))(PP (IN (for)))(NP (NN (deletion))))(S (NP (NNP (thou)))(VP (VBD (shalt))(VB (be))(VBN (delete))))(S (NP (NNP (poof))))) |ET| 
-0.90596351529488916565213685316849  |BT| (ROOT (S (NP (NNP (life)))(VP (NNP (isn)))(ADVP (VBP (t))(RB (just)))(PP (IN (about)))(NP (NN (work))))(S (VP (VB (be)))(ADJP (JJ (sure)))(NP (PRP (you)))(VP (VBP (find)))(NP (DT (a))(NN (balance)))(PP (IN (between)))(NP (NN (work))(CC (and))(NN (life))(NNS (area))))(S (VP (VB (make)))(NP (NN (time)))(PP (IN (for)))(NP (NN (family)))(NP (JJ (social))(NN (life)))(NP (PRP$ (you))(NN (partner))(, (,))(NN (health))(CC (&))(NN (fitness)))(PP (CC (and)))(PP (IN (of)))(NP (NN (course)))(NP (PRP (yourself))))) |ET| 
1  |BT| (ROOT (S (ADVP (RB (just)))(VP (VBD (get)))(ADVP (NN (bk)))(PP (IN (from)))(NP (DT (the))(NN (mall))))) |ET| 
1  |BT| (ROOT (S (VP (VBZ (be))(VBG (cancel)))(NP (DT (the))(NN (weekend.if)))(NP (PRP (i)))(VP (VBP (have))(TO (to))(VB (work)))(ADVP (RB (then)))(NP (NN (everyone)))(ADJP (RB (else)))(VP (VBZ (have))(TO (to))(VB (suffer)))(ADVP (RB (too))))) |ET| 
1  |BT| (ROOT (S (PP (IN (on)))(NP (DT (the))(NN (floor))))) |ET| 
-1  |BT| (ROOT (S (NP (DT (the))(NN (world)))(VP (MD (will))(LS (c)))(NP (VB (illumination)))(PP (IN (at)))(NP (DT (the))(NN (dawn)))(PP (IN (of)))(NP (NN (humanity))))) |ET| 
-1  |BT| (ROOT (S (ADVP (RB (just)))(NP (DT (another))(NN (lesson)))(VP (VBD (learn))))) |ET| 
-1  |BT| (ROOT (S (NP (DT (every))(NN (smile)))(VP (VBZ (be)))(NP (JJ (free))(NN (therapy))))(S (NP (DT (the))(NN (sound)))(PP (IN (of)))(NP (NN (laughter)))(NP (WDT (that)))(VP (VBZ (go)))(PP (IN (like)))(NP (DT (a))(NN (symphany))))) |ET| 
1  |BT| (ROOT (S (NP (DT (this)))(VP (VBZ (be)))(NP (PRP$ (my))(JJ (first))(NNP (pirates))(NN (game)))(PP (IN (since)))(NP (CD (1986))))(S (NP (-LRB- (-lrb-)))(VP (VB (believe)))(NP (PRP (it))))(S (NP (PRP (i)))(VP (VBP (seem))(TO (to))(VB (be))(VBG (mess)))(NP (NNS (thing)))(PRT (RP (up)))(PP (IN (for)))(NP (PRP (they))))) |ET| 
1  |BT| (ROOT (S (INTJ (UH (oh)))(NP (NNP (emma))))(S (PP (IN (for)))(NP (DT (the))(NN (love)))(NP (PDT (all)))(UCP (DT (that)))(VP (VBZ (be)))(ADJP (JJ (good))))(S (NP (UH (please)))(VP (VB (let)))(NP (PRP (we)))(VP (VB (sleep))))) |ET| 
1  |BT| (ROOT (S (VP (VB (take)))(NP (IN (that))(, (,))(NN (aussie))(VBZ (bastard))))(S (NP (VBZ (;})))(VP (VBG (shit)))(NP (PRP (myself)))(PP (IN (for)))(NP (DT (the))(JJ (whole))(NN (game))))(S (NP (NNP (shoot))(DT (the))(NNP (ref))))) |ET| 
-1  |BT| (ROOT (S (ADVP (WRB (why)))(NP (NNS (people)))(VP (VB (blame)))(NP (NNP (obama)))(PP (IN (for)))(NP (PRP$ (we))(JJ (financial))(NN (crisis)))(SBAR (IN (that)))(NP (NNP (bush)))(VP (VBD (put)))(NP (PRP (we)))(PP (IN (into))))) |ET| 
-1  |BT| (ROOT (S (VP (VBG (take)))(NP (PDT (all))(DT (the))(NNS (quiz)))(NP (PRP$ (my))(NNS (friend)))(VP (VBP (be))(VBG (post)))(NP (NNS (result)))(VP (TO (to))))) |ET| 
-0.99879861238452638527718363548047  |BT| (ROOT (S (NP (VBZ (do)))(VP (NN (anyone))(VB (have)))(NP (DT (any))(JJ (old))(JJ (prepaid))(NNS (phone)))(NP (PRP (they)))(VP (VB (dont)))(NP (NN (use)))(SBAR (RB (anymore))(IN (that)))(NP (FW (i)))(VP (MD (could))(VB (have))(NN (??))))) |ET| 
1  |BT| (ROOT (S (NP (DT (another))(NN (day)))(NP (DT (another))(NN (dollar))))) |ET| 
1  |BT| (ROOT (S (VP (VBZ (be)))(ADVP (RB (just)))(NP (DT (a))(NN (part)))(PP (IN (of)))(NP (DT (the))(NN (past))))) |ET| 
1  |BT| (ROOT (S (NP (VBZ (ducktale))(NN (theme))(NN (song)))(VP (VBG (be))(VBN (play)))(PP (IN (upon)))(NP (NN (closing)))(PP (IN (of)))(NP (NNP (hatters))))(S (NP (VB (ye))))) |ET| 
-1  |BT| (ROOT (S (NP (DT (another))(NN (day)))(PP (VBD (aniehe)))(NP (DT (another))(NN (day)))(NP (DT (another))(NN (dollar))))) |ET| 
-1  |BT| (ROOT (S (NP (JJ (last))(NN (official))(NN (game)))(PP (IN (of)))(NP (DT (the))(NN (season))))) |ET| 
-1  |BT| (ROOT (S (VP (VBZ (be)))(ADJP (JJ (ready)))(PP (IN (for)))(NP (DT (the))(NNP (florida))(NN (game))))) |ET| 
1  |BT| (ROOT (S (SBAR (FW (i)))(NP (NNP (dont)))(VP (VBP (want))(TO (to))(VB (go)))(PP (TO (to)))(NP (VB (work)))(VP (NN (tomorrow))))) |ET| 
1  |BT| (ROOT (S (NP (DT (the))(JJ (smexiest))(NNS (man)))(ADJP (JJ (alive)))(VP (VBP (be)))(NP (NNP (justin))(NNP (bieber)))(NP (NNP (jeydon))(NNP (whale)))(NP (NNP (taylor))(NNP (laughtner)))(NP (JJ (greyson))(NN (chance))))) |ET| 
1  |BT| (ROOT (S (PP (RB (about)))(VP (TO (to))(VB (get)))(ADJP (JJ (ready)))(VP (VB (hit)))(NP (DT (the))(NN (butterfly)))(VP (TO (to))(VB (finish))(VBG (film)))(NP (PRP$ (we))(NN (entertainment))(NN (piece.and)))(VP (VBP (get)))(NP (DT (some))(NNS (game)))(PP (IN (in)))(SBAR (NN (while)))(NP (PRP (we)))(PP (IN (at)))(NP (PRP (it))))) |ET| 
-1  |BT| (ROOT (S (NP (JJ (common)))(NP (VBP (lie))(TO (to))(NNP (me))))(S (NP (NNP (p))))) |ET| 
-1  |BT| (ROOT (S (VP (VBZ (be))(VBG (look)))(ADVP (RB (forward)))(PP (TO (to)))(NP (NNP (february))))(S (NP (PRP (it)))(VP (MD (can))(RB (not))(VB (come)))(ADVP (RB (soon))(RB (enough))))) |ET| 
-0.95627869021871381161048475405551  |BT| (ROOT (S (NP (PRP (i)))(VP (VBP (dont))(VBP (want))(TO (to))(VB (hone)))(PRT (RP (up)))(PP (TO (to)))(NP (NN (tomorrow))))) |ET| 
1  |BT| (ROOT (S (PP (IN (by)))(NP (PRP$ (my))(NN (voice)))(NP (VB (heal))(CD (three)))(PP (IN (by)))(NP (NN (confusion))('' ("))(JJS (best))(NN (ability)))(ADVP (RB (ever))))) |ET| 
0.9269412247374285707124386135547  |BT| (ROOT (S (NP (DT (any))(JJR (better))(NN (option)))(PP (IN (than)))(NP (NNP (visio))))) |ET| 
1  |BT| (ROOT (S (NP (VBN (chillin)))(PP (IN (with)))(NP (DT (the))(NNS (bro))))) |ET| 
-1  |BT| (ROOT (S (NP (VBZ (techno)))(PP (IN (on)))(NP (DT (the))(NN (weather))(NN (channel))))) |ET| 
-1  |BT| (ROOT (S (VP (VBZ (be)))(PP (IN (on)))(NP (NN (facebook)))(PP (IN (with)))(NP (NN (nothing))(CD (2)))(VP (VBP (say))))) |ET| 
-1  |BT| (ROOT (S (NP (VBN (whirlwind)))(PP (IN (of)))(NP (NN (activity))))) |ET| 
1  |BT| (ROOT (S (NP (NNP (dorothy))(VBZ (lewe)))(NP (IN (that)))(VP (VBZ (be)))(ADJP (JJ (hot))))(S (NP (PRP$ (we))(NN (collection)))(VP (VBZ (be))(VBG (grow))))) |ET| 
1  |BT| (ROOT (S (ADVP (VBP (back)))(PP (TO (to)))(NP (NN (office)))(PP (IN (for)))(NP (PRP (i))))) |ET| 
1  |BT| (ROOT (S (VP (VBD (party)))(ADVP (JJ (alittle)))(PP (TO (to)))(NP (JJ (hard))(JJ (last))(NN (night))))(S (VP (VBD (get)))(PP (TO (to)))(NP (VB (recover)))(PP (TO (to)))(NP (NN (party)))(ADVP (RB (too))(JJ (hard)))(ADVP (RB (again)))(NP (NN (today))))(S (NP (NN (lol)))(VP (VBP (see)))(NP (RB (u)))(ADVP (RB (soon))(JJ (tina))))) |ET| 
-0.99520550576072031034868814458605  |BT| (ROOT (S (VP (JJ (exhausted)))(PP (IN (from)))(VP (VBG (work)))(ADJP (NNS (4am-10pm)))(PP (IN (with)))(NP (DT (a))(CD (3))(NN (hour))(VBP (break)))(PP (IN (in)))(NP (DT (the))(NN (middle))))(S (NP (PRP (i)))(VP (VBP (think))(RB (even)))(NP (PRP$ (my))(NN (hair)))(VP (VBZ (be)))(ADVP (JJ (sore)))(PP (RB (o)))(NP (-RRB- (-rrb-))))) |ET| 
-1  |BT| (ROOT (S (VP (VBG (wonder)))(SBAR (IN (if)))(NP (PRP (i)))(VP (MD (will))(VB (like)))(NP (DT (the))(NNP (event.i))(VBP (miss))(NNP (lost)))(VP (VBP (need)))(NP (DT (a))(NN (replacement))))) |ET| 
-1  |BT| (ROOT (S (VP (VBG (listen)))(PP (TO (to)))(NP (DT (the))(JJ (awkward))(NN (conversation))(VBZ (downstair)))(PP (IN (about)))(NP (VBG (fiddle)))(PP (IN (with)))(NP (DT (a))(NN (fiddle))))) |ET| 
1  |BT| (ROOT (S (VP (VBZ (be))(VBG (ride)))(PP (IN (on)))(NP (DT (a))(NN (wave)))(PP (IN (of)))(NP (JJ (good))(NN (emotion))))) |ET| 
0.97728631348237082754337734513683  |BT| (ROOT (S (PP (FW (i)))(NP (JJ (didnt)))(VP (VBP (watch)))(NP (DT (the))(NN (game)))(VP (VBD (do))(NN (shannon))(VB (throw)))(PRT (RP (down)))(NP (DT (a))(NN (slam))))) |ET| 
1  |BT| (ROOT (S (NP (NN (time)))(VP (TO (to))(VB (eat)))(NP (DT (a))(NN (lot)))(PP (IN (of)))(NP (NNS (chillus))))) |ET| 
-1  |BT| (ROOT (S (NP (NN (time)))(VP (TO (to))(VB (work)))(PP (IN (on)))(NP (DT (some))(NNS (dream))))) |ET| 
-0.95778809912270901349984342232347  |BT| (ROOT (S (ADVP (RB (off)))(PP (TO (to)))(NP (DT (a))(NN (photo))(VB (shoot))))) |ET| 
-0.92012325574084774526539831640548  |BT| (ROOT (S (VP (VB (go)))(PP (IN (on)))(NP (DT (a))(NN (roller))(NN (coster)))(PP (IN (for)))(NP (DT (the))(JJ (first))(NN (time)))(ADVP (RB (ever)))(NP (NN (today))))(S (NP (JJ (scariest))(NN (thing)))(VP (VBP (ive))(RB (ever))(VBN (do))))(S (NP (PRP (it)))(VP (VBD (be)))(ADVP (NN (alot)))(PP (IN (of)))(NP (NN (fun))))) |ET| 
0.92941001877564155542188473191345  |BT| (ROOT (S (NP (PRP$ (its))(NNP (pouring))(NN (rain)))(NP (PRP (i)))(VP (VBP (love)))(NP (PRP (it)))(VP (VBP (<)))(NP (CD (3))(CD (<)))(LST (CD (3))))) |ET| 
1  |BT| (ROOT (S (NP (NNP (finally))))(S (NP (VBD (refund))(NNP (day))))) |ET| 
1  |BT| (ROOT (S (NP (VBZ (be)))(NP (NN (anyone)))(VP (VBG (go)))(PP (TO (to)))(NP (DT (the))(NN (fair))))(S (NP (PRP (i)))(VP (VBP (want))(TO (to))(VB (go)))(PP (IN (for)))(NP (DT (the))(NN (cimmon))(NNS (roll))))) |ET| 
-1  |BT| (ROOT (S (VP (VBZ (be))(VBG (enjoy)))(NP (DT (this))(NNP (ice))(NN (day)))(PP (IN (with)))(NP (PRP$ (my))(NN (baby))(NN (boy))))(S (NP (VBD (<))(CD (3))))) |ET| 
-0.99837096236171074536969172186218  |BT| (ROOT (S (NP (NNP (yey))))(S (NP (PRP (i)))(VP (VBP (be))(RB (so))(JJ (excited)))(SBAR (IN (that)))(NP (NNP (ali)))(VP (VBZ (be)))(NP (DT (the))(JJ (new))(JJ (bachelorette))))(S (ADVP (VB (aww)))(NP (PRP (i)))(VP (RB (just))(VBP (love)))(NP (PRP (she))))) |ET| 
-0.98379830478167629159713669650955  |BT| (ROOT (S (NP (PRP (i)))(VP (VB (bleed)))(NP (NN (black))(CC (&))(SYM (&))(NNP (gold))))(S (NP (WP (who))(NNP (dat))(NNP (nation))))) |ET| 
1  |BT| (ROOT (S (NP (NNP (monday))(NN (morning)))(PRT (RB (off)))(VP (TO (to))(VB (work)))(VP (NN (hope)))(NP (NN (everyone)))(VP (VBZ (have)))(NP (DT (a))(JJ (good))(NN (day))))) |ET| 
1  |BT| (ROOT (S (NP (CD (1))(NN (kiddo)))(PP (IN (at)))(NP (JJ (grandmas))(NN (house))(CD (.1))(NN (kiddo)))(PP (IN (at)))(NP (DT (a))(JJ (sleepover.house)))(ADVP (DT (all)))(PP (TO (to)))(NP (PRP (myself)))(NP (DT (no))(NN (idea)))(NP (WP (what)))(VP (TO (to))(VB (do))))) |ET| 
1  |BT| (ROOT (S (ADVP (NN (sooo)))(VP (VBN (tempt))(TO (to))(VB (start))(VBG (pack)))(ADVP (RB (now)))(VP (NN (haha))))) |ET| 
-1  |BT| (ROOT (S (NP (WP (what)))(VP (TO (to))(VB (do)))(NP (WP (what)))(VP (TO (to))(VB (do))))) |ET| 
-0.96156606121269283526942217577016  |BT| (ROOT (S (NP (RB (im)))(VP (JJ (bored)))(ADJP (JJ (sleepy)))(NP (FW (i)))(ADVP (RB (just)))(VP (VBP (dont))(NN (wan))(TO (na))(VB (stop)))(NP (NN (today))))(S (NP (FW (i)))(VP (NN (guess)))(PP (VBZ (that)))(NP (DT (a))(JJ (good))(NN (thing))))) |ET| 
-1  |BT| (ROOT (S (NP (NN (dont)))(PP (VBP (like)))(NP (DT (this))(NN (part))('' (')))(PP (TO (to)))(NP (NN (part))('' ('))))) |ET| 
1  |BT| (ROOT (S (NP (PRP (i)))(VP (VBP (hate))(VBG (have)))(NP (DT (a))(JJ (sore))(NN (throat))))) |ET| 
1  |BT| (ROOT (S (NP (PRP (it)))(VP (VBZ (be)))(ADJP (RB (so))(JJ (beautiful)))(ADVP (IN (outside))(RB (right))(RB (now))))(S (NP (NNS (feel)))(PP (VBP (like)))(NP (RB (houston/enid/me)))(VP (VBG (sit)))(PP (IN (on)))(NP (DT (the))(NN (ferry)))(PP (IN (in)))(NP (NNP (new))(NNP (orleans))))) |ET| 
1  |BT| (ROOT (S (NP (PRP (she)))(VP (VBZ (be)))(NP (NN (love))(CD (<))(CD (3))))) |ET| 
-1  |BT| (ROOT (S (VP (VBZ (be)))(VP (VBG (hide)))(PP (IN (from)))(NP (NNS (patient))))) |ET| 
-1  |BT| (ROOT (S (NP (NNP (romania)))(VP (VBZ (be)))(NP (DT (the))(NN (boooaaaaawwwwwwwwwwwwwssssssssss))))) |ET| 
-1  |BT| (ROOT (S (ADVP (RB (apparently)))(NP (EX (there)))(VP (VBZ (be)))(NP (DT (a))(JJ (serial))(NN (flasher)))(VP (VBG (claim)))(NP (JJR (more))(NNS (victim)))(NP (NNP (oh))(NNP (noes))))) |ET| 
1  |BT| (ROOT (S (VP (VBG (go))(TO (to))(VB (see)))(NP (NN (luke))))(S (NP (RB (then))(NNS (lot)))(PP (IN (of)))(NP (NN (shopping)))(PP (IN (after)))(NP (WDT (that))))) |ET| 
1  |BT| (ROOT (S (PP (TO (to)))(NP (JJ (cold))(TO (to))(VB (be))(JJ (outside)))(NP (NN (today))))) |ET| 
1  |BT| (ROOT (S (VP (VBG (try))(TO (to))(VB (make)))(NP (NN (hoenn)))(PP (IN (in)))(NP (NN (minecraft.wait)))(ADVP (WRB (why)))(VP (VBP (be)))(NP (FW (i)))(VP (VBG (do)))(NP (DT (this))))) |ET| 
-1  |BT| (ROOT (S (NP (VBZ (be)))(NP (NN (today)))(VP (VBG (go))(TO (to))(VB (be)))(ADJP (JJR (better))))) |ET| 
-1  |BT| (ROOT (S (NP (NN (today)))(VP (VBZ (be))(VBG (go))(TO (to))(VB (be)))(NP (DT (a))(JJ (good))(NN (day))))) |ET| 
-1  |BT| (ROOT (S (NP (VBZ (do))(NN (anyone)))(VP (VB (know)))(PP (IN (of)))(NP (DT (any))(NNS (place)))(NP (WDT (that)))(VP (VBP (be))(VBG (hire))))) |ET| 
1  |BT| (ROOT (S (VP (VBZ (be))(VBG (play)))(NP (NNP (fire))(NNP (emblem)))(NP (DT (the))(NNP (binding))(NNP (blade))))) |ET| 
1  |BT| (ROOT (S (VP (VBZ (be)))(NP (VBG (think)))(PP (IN (about)))(NP (NNP (donna))))) |ET| 
1  |BT| (ROOT (S (NP (-LRB- (-lrb-))(VB (and)))(PP (IN (for)))(NP (DT (the))(JJ (third))(, (,))(VB (post))))(S (NP (NNP (luke))(NNP (shannon)))(VP (VBZ (be)))(ADVP (RB (also)))(ADVP (RB (indeed)))(ADJP (RB (pretty))(JJ (cool))))) |ET| 
-0.96576787193948976373292225616751  |BT| (ROOT (S (VP (NN (workin)))(PP (IN (on)))(NP (DT (the))(NN (research))(NN (paper))(VBD (={))))(S (ADJP (JJ (ready)))(PP (IN (for)))(NP (NNP (new))(NN (moon)))(NP (NNP (friday)))(VP (SYM (=))))) |ET| 
-1  |BT| (ROOT (S (NP (NNP (<))(CD (3))(VBG (turn)))(NP (PRP$ (my))(NNS (dream)))(PP (IN (into)))(NP (NN (reality))(CD (<))(CD (3))))) |ET| 
-1  |BT| (ROOT (S (SBAR (IN (if)))(NP (NNS (action)))(VP (VBP (be)))(ADJP (JJR (stronger)))(PP (IN (than)))(NP (NNS (word)))(ADVP (WRB (why)))(VP (VBZ (be)))(NP (DT (the))(NN (pen))(NN (mightier)))(PP (IN (than)))(NP (DT (the))(NN (sword))))) |ET| 
1  |BT| (ROOT (S (NP (DT (another))(NN (day)))(PP (IN (without)))(NP (NN (sleep.it)))(NP (VBZ (be))(VBG (gon)))(VP (TO (na))(VB (be)))(NP (DT (a))(JJ (long))(NN (night)))(PP (IN (at)))(NP (NN (work)))(NP (NN (tonight))))) |ET| 
1  |BT| (ROOT (S (NP (PRP (they)))(VP (VBP (be))(VBG (run)))(NP (PRP$ (they))(NN (engine)))(ADVP (RB (just)))(SBAR (IN (like)))(NP (PRP (you)))(VP (MD (ought))(TO (to))(VB (be)))(PP (TO (to)))(NP (PRP (i)))(NP (PRP$ (my))(NN (heart))))(S (NP (PRP (i)))(VP (VB (correct)))(NP (DT (the))(NN (dawn)))(NP (PRP$ (my))(NN (body)))(NP (DT (the))(JJ (sorry)))(VP (MD (might))(VB (do)))(NP (PRP (it))))(S (VP (NNP (long))(VBP (lift)))(NP (CD (one))(NN (line)))(NP (JJ (big))(JJ (red))(NN (machine))))) |ET| 
0.94722683631205883969528258603532  |BT| (ROOT (S (NP (NN (merry))(VBZ (christma)))(PP (TO (to)))(NP (DT (all))(CC (and))(TO (to))(PDT (all)))(NP (DT (a))(JJ (good))(NN (night))))) |ET| 
-0.88279928278579089528932399844052  |BT| (ROOT (S (NP (PRP (i)))(VP (VBD (do))(RB (not))(RB (really))(VB (have)))(NP (NN (time)))(VP (VBD (do)))(NP (PRP (it)))(ADVP (RB (anyway)))(PP (IN (at)))(NP (NNS (work.i))(VB (miss))(NN (you.same)))(NP (POS ('))(NN (ol))(NN (here.elena)))(VP (VBZ (be))(VBG (have)))(NP (DT (a))(NN (boy))))(S (NP (PRP (i)))(VP (VBD (be))(VBG (die))(TO (to))(VB (tell)))(NP (PRP (you))))) |ET| 
-0.75774953628869723409877678932389  |BT| (ROOT (S (NP (PRP (we)))(VP (MD (can))(RB (not))(VB (solve)))(NP (PRP$ (we))(NNS (problem)))(PP (IN (with)))(NP (DT (the))(JJ (same))(NN (thinking)))(NP (PRP (we)))(VP (VBD (use)))(ADVP (WRB (when)))(NP (PRP (we)))(VP (VBD (create)))(NP (PRP (they))))) |ET| 
-1  |BT| (ROOT (S (VP (VBZ (be)))(NP (JJ (headin))(NN (home))))(S (NP (JJ (happy))(NNS (mother))(NN (day)))(PP (TO (to)))(NP (PRP$ (my))(JJ (wonderful))(NN (mother))))(S (NP (FW (i))(NN (love)))(NP (PRP (you))))) |ET| 
1  |BT| (ROOT (S (NP (NNS (rabbit)))(VP (VBP (be)))(ADJP (JJ (incapable)))(PP (IN (of)))(VP (VBG (vomit))))) |ET| 
1  |BT| (ROOT (S (VP (JJ (spent)))(NP (DT (the))(NN (day)))(PP (IN (with)))(NP (NNP (rach)))(NP (DT (the))(NNS (kid)))(VP (NN (:}))(VBD (have)))(PP (NN (alotta)))(NP (NN (fun))(CC (but))(RB (sleeeeeepy))))) |ET| 
1  |BT| (ROOT (S (ADVP (RB (just)))(VP (VBG (watch)))(NP (DT (the))(NN (sun))(VB (rise)))(PP (IN (on)))(NP (DT (the))(NN (train)))(PP (IN (with)))(NP (NNP (aubz))(CC (&))(NNP (ninz))))) |ET| 
-1  |BT| (ROOT (S (PP (IN (in)))(NP (DT (the))(NN (que)))(PP (IN (for)))(NP (NN (bfmv)))(PP (IN (with)))(NP (NNP (heather))(NNP (mcgaffney))))) |ET| 
-0.92321526013912569297303889470641  |BT| (ROOT (S (NP (VBN (make))(JJ (oatmeal))(NN (chocolate))(NN (chip))(NNS (cookie)))(PP (IN (with)))(NP (NNP (rory)))(VP (RB (now))(VBG (take)))(NP (DT (the))(NNS (twin)))(PP (TO (to)))(NP (DT (the))(NN (pool))))) |ET| 
-0.98005454313082873696316710265819  |BT| (ROOT (S (NP (NNP (life)))(VP (MD (can))(RB (just))(VB (turn)))(PRT (RP (around)))(PP (IN (for)))(NP (DT (the))(JJR (better)))(PP (IN (in)))(NP (RB (just))(DT (a))(NN (snap))))) |ET| 
0.94549029536188466948942732415162  |BT| (ROOT (S (NP (NN (everything)))(NP (WDT (that)))(VP (VBZ (be)))(ADJP (JJ (real)))(VP (VBD (be))(VBN (imagine)))(ADVP (JJ (first.all)))(NP (PRP (you)))(VP (VBP (need))(TO (to))(VB (do)))(VP (VBZ (be)))(VP (VB (believe))))) |ET| 
0.62668808998938230203634702775162  |BT| (ROOT (S (VP (VBZ (be)))(NP (NN (anyone))(VBG (wear))(NNS (jeans))(NN (tomorra))))) |ET| 
1  |BT| (ROOT (S (NP (VBD (awe))(NN (man)))(NP (NNP (wow)))(NP (POS ('s)))(ADJP (RB (down))(IN (until)))(NP (CD (11))(NN (dx))(WP (what)))(VP (VBP (be)))(NP (PRP (i)))(VP (TO (to))(VB (do)))(ADVP (RB (now))))(S (NP (NNP (dx))))) |ET| 
-1  |BT| (ROOT (S (NP (DT (that))(JJ (awkward))(NN (moment)))(ADVP (WRB (when)))(NP (PRP (you)))(VP (VBP (wake)))(PRT (RP (up)))(NP (NNP (may))(CD (22nd)))(NP (NNP (jesus)))(VP (VBZ (be)))(ADVP (RB (here))))) |ET| 
