SVM-light Version V5.01-TK-1.4.3_smoothing
5 # kernel type
3 # kernel parameter -d 
1 # kernel parameter -g 
1 # kernel parameter -s 
1 # kernel parameter -r 
empty# kernel parameter -u 
0.4 # kernel parameter -L 
1 # kernel parameter -T 
T # kernel parameter -C 
1 # kernel parameter -F 
1 # kernel parameter -S 
0.400000 # kernel parameter -M 
3 # kernel parameter -N 
S # kernel parameter -V 
S # kernel parameter -W 
 # kernel parameter -G 
1.000000 # similarity threshold -H 
1.000000 # terminal factor -X 
empty # matrix path -P 
empty # cache path -Z 
1000000 # cache size -A 
10000000 # cache max size -B 
0.500000 # refresh factor -D 
10 # highest feature index 
20000 # number of training documents 
8969 # number of support vectors plus 1 
-3.5973905 # threshold b, each following line is a SV (starting with alpha*y)
-1  |BT| (ROOT (S (PP (FW (i)))(NP (NNP (want))(NN (to))(JJ (change))(NN (the))(VBD (world)))(PP (NN (but)))(NP (NNP (not))(NNP (myself))))) |ET| 
-1  |BT| (ROOT (S (NP (FW (i)))(VP (VBD (put)))(NP (VBN (ol))(PRP$ (my))(NN (effort)))(PP (IN (in)))(NP (DT (the))(NN (test)))(PP (IN (before)))(NP (DT (the))(NN (test))))) |ET| 
-1  |BT| (ROOT (S (NP (PRP (i)))(VP (VBP (ll))(RB (never))(VB (be)))(NP (DT (a))(NN (fake)))(PP (TO (to)))(NP (PRP (you))(FW (i)))(VP (VBP (swear)))(NP (-LRB- (-lrb-))(CD (8))(-RRB- (-rrb-))))(S (NP (PRP (i)))(VP (VBP (ll))(RB (never))(VB (be)))(NP (DT (a))(NN (fake)))(PP (TO (to)))(NP (DT (the))(NNS (people)))(PP (FW (i)))(NP (NN (love))(-LRB- (-lrb-))(CD (8))))) |ET| 
-1  |BT| (ROOT (S (NP (NNP (truth)))(VP (VBZ (be)))(NP (WP (what)))(NP (DT (the))(NN (majority)))(VP (VBZ (think)))(VP (VBZ (be)))(ADVP (JJ (right))))(S (NP (VBD (hahahah))))) |ET| 
-1  |BT| (ROOT (S (NP (NNP (dang))(NNP (that))(NNP (kerrigan))(NN (girl)))(VP (VBZ (have)))(NP (NNP (sufficient))(NNP (vespene))(NNP (ass)))(UCP (NN (xd))))) |ET| 
1  |BT| (ROOT (S (NP (NNP (te))(NNP (deum)))(NP (PRP (i)))(VP (VBP (loathe)))(NP (JJ (thee))))(S (NP (PRP (i)))(VP (MD ('ll))(VB (like)))(NP (PRP (you)))(PP (IN (after)))(NP (NNP (wednesday))))) |ET| 
1  |BT| (ROOT (S (ADJP (NN (way)))(VP (TO (to))(VB (go)))(ADVP (NNS (netherland))))) |ET| 
1  |BT| (ROOT (S (NP (PRP (i)))(VP (VBD (kiss)))(NP (DT (a))(NN (girl))))(S (NP (PRP (it)))(VP (VBD (be)))(NP (NN (ok))))) |ET| 
1  |BT| (ROOT (S (NP (NNP (tip)))(PP (IN (for)))(NP (NN (life))(NN (time)))(ADVP (NNP (always)))(VP (VBP (try))(TO (to))(VB (pretend)))(PP (TO (to)))(NP (PRP (yourself)))(SBAR (IN (that)))(NP (PRP (you)))(VP (VBP (be)))(ADJP (JJ (happy))))(S (ADVP (RB (slowly)))(NP (PRP (it)))(VP (VBZ (become)))(NP (PRP$ (you))(NN (habit))(CC (&))(RB (finally)))(NP (PRP (it)))(VP (VBZ (become)))(NP (JJ (ur))(NN (nature))))) |ET| 
1  |BT| (ROOT (S (NP (PRP (he)))(VP (VBZ (be))(NN (climbin)))(PP (IN (in)))(NP (PRP$ (you))(NNS (window)))(NP (PRP (he)))(VP (VBZ (be)))(NP (VBN (snatchin)))(NP (PRP$ (you))(NNS (people)))(ADVP (RB (up))))) |ET| 
-1  |BT| (ROOT (S (NP (PRP (i)))(VP (VBP (be)))(NP (DT (the))(NNP (devil)))(SBAR (IN (that)))(NP (PRP (you)))(VP (VBD (make)))(NP (PRP (i))))) |ET| 
-1  |BT| (ROOT (S (NP (NNP (tomorrow)))(VP (VBZ (be)))(NP (JJ (war.oh))(NN (baby))))(S (NP (PRP (i)))(VP (VBP (love)))(NP (PRP (it)))(NP (PRP (i)))(VP (NNP (love)))(NP (PRP (it))))) |ET| 
-1  |BT| (ROOT (S (NP (NNP (dear))(NNP (rainboots)))(VP (VB (thank)))(NP (PRP (you))))) |ET| 
1  |BT| (ROOT (S (VP (VBZ (have)))(NP (DT (the))(NN (world)))(PP (IN (on)))(NP (DT (a))(NN (string))))) |ET| 
1  |BT| (ROOT (S (VP (VBZ (have)))(NP (NN (music)))(PP (IN (on)))(NP (DT (the))(NN (brain)))(VP (VBZ (be))(VBG (write)))(NP (DT (a))(NN (song))))) |ET| 
1  |BT| (ROOT (S (ADVP (WRB (where)))(NP (DT (the))(NNS (guy)))(VP (VBP (be)))(ADJP (RB (hunky)))(NP (DT (the))(NN (chocolate)))(VP (VBZ (be)))(ADJP (RB (chunky))))) |ET| 
-1  |BT| (ROOT (S (VP (VBZ (have)))(NP (DT (a))(JJ (apprentice))(NN (gym))(VBN (junkie)))(PP (IN (under)))(NP (PRP$ (he))(NN (wing))))(S (NP (PRP (i)))(VP (VBP (have))(VBN (wait)))(PP (IN (for)))(NP (DT (this))(NN (day))))) |ET| 
-1  |BT| (ROOT (S (NP (NNS (hope))(NN (work)))(VP (VBZ (finish)))(ADVP (JJ (early)))(PP (IN (on)))(NP (NNP (thursday)))(NP (NNS (deadmau5)))(PP (IN (in)))(NP (DT (a))(NN (club)))(VP (VBZ (be)))(NP (DT (a))(NN (dream)))(VP (VBN (come)))(ADJP (JJ (true))))) |ET| 
-1  |BT| (ROOT (S (VP (VBD (be))(VBN (sucker)))(PP (IN (into)))(VP (VBG (watch)))(NP (DT (the))(NN (transporter)))(ADVP (RB (possibly)))(NP (DT (the))(JJS (worst))(NN (movie)))(ADVP (RB (ever)))(VP (VBN (make))))) |ET| 
1  |BT| (ROOT (S (NP (PRP (it)))(VP (VBZ (be)))(NP (NNP (friday)))(NP (NNP (friday)))(NP (NNP (friday))))(S (VP (VB (thank)))(NP (PRP (you))))) |ET| 
1  |BT| (ROOT (S (PP (TO (to)))(NP (DT (the))(NNS (one)))(NP (PRP (i)))(VP (VBP (love)))(NP (PRP (i)))(VP (VBP (love)))(NP (PRP (you))))) |ET| 
1  |BT| (ROOT (S (NP (PRP (i)))(VP (VBD (get)))(NP (WP (what)))(NP (PRP (i)))(VP (VBD (give))))) |ET| 
-1  |BT| (ROOT (S (PP (VBG (accord)))(PP (TO (to)))(NP (JJ (recent))(NNS (survey)))(NP (NNP (shit)))(NP (VBZ (be)))(ADJP (RB (about)))(VP (TO (to))(VB (go)))(ADVP (RP (down))))(S (NP (NNP (o))))) |ET| 
-1  |BT| (ROOT (S (SBAR (IN (if)))(NP (WDT (that)))(VP (VBD (be)))(NP (DT (a))(NN (epic))(NN (leg))(NN (session)))(NP (PRP (i)))(VP (VBP (do))(RB (not))(VB (know)))(NP (WP (what)))(VP (VBZ (be))))) |ET| 
-1  |BT| (ROOT (S (ADVP (WRB (when)))(NP (EX (there)))(VP (VBZ (be)))(NP (DT (no))(NN (room)))(PP (FW (i)))(NP (NN (hell)))(NP (DT (the))(JJ (dead)))(VP (MD (shall))(VB (walk)))(NP (DT (the))(NN (earth))))(S (ADVP (UH (true))(RB (enough)))(NP (PRP (i)))(VP (VBP (see))))) |ET| 
1  |BT| (ROOT (S (VP (VBG (enjoy)))(NP (DT (the))(JJ (last))(JJ (quiet))(NN (weekend)))(PP (IN (before)))(NP (DT (the))(NNP (holiday))(NN (madness)))(VP (VBZ (begin))))) |ET| 
1  |BT| (ROOT (S (NP (JJ (first))(NN (day)))(PP (IN (of)))(NP (JJ (high))(NN (school)))(VP (VBD (be)))(ADJP (RB (pretty))(JJ (good)))(UCP (-LRB- (-lrb-)))(PP (IN (in)))(NP (JJ (other))(NNS (word)))(PP (FW (i)))(NP (VBD (didnt)))(VP (VB (get))(VBN (lose))))) |ET| 
1  |BT| (ROOT (S (NP (PRP$ (its))(NNP (christmas))(NN (!!))))(S (VP (VB (bring)))(PRT (RP (out)))(NP (DT (the))(VB (mince))(NNS (pie))))) |ET| 
-1  |BT| (ROOT (S (NP (CD (9))(NNS (hour)))(VP (VBD (spend)))(PP (IN (on)))(NP (DT (the))(NN (bus)))(NP (DT (no))(JJ (decent))(NN (sleep))))(S (NP (VB (gon)))(VP (TO (na))(VB (do)))(NP (DT (the))(JJ (same))(NN (thing)))(ADVP (RB (again)))(NP (NN (tomorrow))))(S (NP (NNP (woohoo))))(S (ADVP (IN (at))(JJS (least)))(NP (JJ (nakauwi))(NN (rin)))(PP (NN (ako)))(VP (VBP (ng)))(NP (NNP (isabela))))) |ET| 
-1  |BT| (ROOT (S (NP (WP (what)))(NP (DT (the))(VBP (fuck))(VBG (master))(NN (bio)))(SBAR (IN (since)))(ADVP (WRB (when)))(VP (VBD (be)))(NP (DT (the))(NN (quiz)))(ADJP (JJ (due)))(PP (IN (at)))(NP (CD (4:30))))(S (NP (PRP (i)))(VP (RB (have)))(NP (VBP (work))))) |ET| 
-1  |BT| (ROOT (S (VP (VBP (be)))(ADVP (EX (there)))(NP (JJ (good))(NNS (people)))(ADVP (RB (anywhere))(IN (out))(RB (there)))(ADVP (RB (anymore))))) |ET| 
1  |BT| (ROOT (S (VP (VBZ (be)))(PP (VBG (start)))(NP (PRP$ (he))(NN (countdown)))(PP (TO (to)))(NP (PRP$ (he))(NN (freedom))))) |ET| 
1  |BT| (ROOT (S (NP (NNP (spanish)))(VP (VBZ (be)))(NP (PRP$ (my))(JJ (4th))(NN (language))))) |ET| 
1  |BT| (ROOT (S (PP (VB (find)))(NP (PRP$ (my))(NN (phone))))(S (NP (VB (yay))))(S (ADVP (RB (now)))(VP (VBG (head)))(PP (TO (to)))(NP (NNP (candace))(NNP (kennedy)))(NP (VBZ (be))(NN (party))))) |ET| 
-1  |BT| (ROOT (S (ADVP (WRB (why)))(VP (VBZ (be)))(NP (PRP$ (my))(NN (room)))(NP (DT (a))(NN (icebox))))) |ET| 
-1  |BT| (ROOT (S (NP (VBZ (do)))(NP (NN (anyone)))(VP (VB (know)))(ADVP (WRB (where)))(NP (JJ (my))(NNPS (worms)))(VP (VBZ (be))))) |ET| 
-1  |BT| (ROOT (S (VP (VBD (take)))(NP (DT (a))(JJ (whole))(NN (camera)))(ADVP (RB (apart))(RB (only)))(PP (TO (to)))(NP (VB (realise.the))(NN (battery)))(VP (VBZ (be))(VBN (charge)))(ADVP (RB (separately)))(PP (TO (to)))(NP (DT (the))(NN (camera))))) |ET| 
1  |BT| (ROOT (S (NP (FW (i)))(ADVP (RB (just)))(VP (VBN (realize)))(SBAR (IN (that)))(NP (PRP (we)))(VP (VBP (have)))(NP (CD (one))(JJR (more))(NN (mouth)))(PP (IN (before)))(NP (NN (school))(NNS (start))))) |ET| 
1  |BT| (ROOT (S (NP (EX (there)))(VP (VBP (be)))(NP (RB (so))(JJ (many))(JJ (beautiful))(JJ (female))(NN (opera))(NNS (star)))(ADVP (RB (physically))(CC (and))(RB (vocally))))(S (NP (PRP (i)))(VP (MD (can))(RB (not))(RB (ever))(VB (see)))(NP (PRP (myself)))(VP (VBG (burn)))(PP (IN (with)))(NP (DT (this))(NN (passion)))(PP (IN (for)))(NP (DT (any))(JJ (other))(NN (profession))))) |ET| 
1  |BT| (ROOT (S (NP (NNP (gta)))(NP (NNP (wheres))(NNP (conti))))(S (NP (NNP (nathan)))(PP (IN (over)))(NP (RB (there)))(VP (VBP (he)))(NP (DT (a))(JJ (right))(NN (cunty))))) |ET| 
-1  |BT| (ROOT (S (VP (VBG (leg)))(NP (PRP (it)))(PP (TO (to)))(NP (DT (the))(NN (shop)))(PP (IN (in)))(NP (DT (the))(NN (thunder))(CC (and))(NN (lightning))(NN (cos))(NN (coke)))(VP (VBZ (be)))(NP (PRP$ (my))(NN (life))))(S (NP (RB (im))(NN (schmadt))))) |ET| 
-1  |BT| (ROOT (S (PP (FW (i)))(VP (VBG (enjoy)))(NP (VBP (facebook)))(PP (IN (in)))(NP (NN (class))))(S (NP (PRP (it)))(VP (VBZ (be)))(NP (DT (a))(NN (norm)))(PP (IN (on)))(NP (NNP (wed))))) |ET| 
-1  |BT| (ROOT (S (NP (DT (the))(NN (heart)))(VP (VBZ (decide)))(NP (WP (what)))(NP (PRP (it)))(VP (VBZ (decide)))(VP (VBZ (be)))(NP (DT (all))(WDT (that)))(ADVP (RB (really)))(VP (VBZ (matter))))(S (NP (NNP (paulo))(NNP (coelho)))(NP (NNP (by))(NNP (the))(NNP (river))(NNP (piedra)))(NP (PRP (i))(NNP (sat))(NNP (down))(CC (and))(NNP (wept))))) |ET| 
1  |BT| (ROOT (S (NP (DT (all))(WDT (that)))(VP (VBZ (be)))(ADVP (RB (well)))(VP (VBZ (end)))(ADVP (RB (well))))) |ET| 
1  |BT| (ROOT (S (VP (VBZ (be)))(ADVP (RB (so)))(ADJP (JJ (glad)))(SBAR (IN (that)))(NP (DT (the))(NN (week)))(VP (VBZ (be)))(ADVP (RB (finally))(NN (over.he)))(VP (VBZ (be)))(ADJP (RB (very))(RB (very))(JJ (tired))))) |ET| 
1  |BT| (ROOT (S (VP (VBZ (be)))(NP (DT (the))(RBS (most))(JJ (beautifullerest))(NN (girl)))(ADVP (RB (ever))))) |ET| 
-1  |BT| (ROOT (S (NP (CD (2010)))(VP (VBZ (be)))(NP (DT (the))(JJ (same))(IN (as))(CD (2009))(NNS (people)))(VP (VBP (make)))(NP (PRP (it)))(VP (TO (to))(VB (be)))(ADVP (JJR (more))))) |ET| 
-1  |BT| (ROOT (S (VP (VB (woo)))(NP (VBD (fuck)))(NP (PRP (you)))(VP (NNS (error)))(NP (NNS (bar)))(PP (IN (in)))(NP (VBP (excel))))(S (VP (VBZ (show)))(ADVP (WRB (how)))(ADVP (RB (easily)))(NP (DT (a))(NN (semester)))(PP (IN (of)))(VP (VBG (learn)))(ADVP (WRB (how)))(VP (TO (to))(VB (use)))(NP (PRP (they)))(VP (VBZ (vanish)))(PP (IN (within)))(NP (CD (3))(NNS (month))))) |ET| 
-1  |BT| (ROOT (S (ADVP (VB (nevermind)))(NP (WP (what)))(NP (PRP (they)))(VP (VBP (think)))(PP (IN (about)))(NP (PRP (i)))(NP (DT (the))(JJ (shattered))(NN (symphony))))) |ET| 
1  |BT| (ROOT (S (NP (VB (oh)))(ADVP (UH (no))))(S (NP (NNP (paralyzing))(CD (5ths))))) |ET| 
1  |BT| (ROOT (S (VP (VBZ (have))(VBN (collapse)))(PP (IN (on)))(NP (DT (the))(NN (sofa)))(VP (MD (will))(RB (not)))(NP (VB (move))))(S (NP (VB (post))(NN (exam))(NN (potato))(NN (syndrome)))(PP (JJ (:})))(NP (NN (woohoo))))) |ET| 
1  |BT| (ROOT (S (NP (PRP (i)))(VP (VBP (be))(VBG (gain)))(NP (NN (weight)))(ADVP (RBR (faster)))(PP (IN (than)))(NP (DT (the))(NN (speed)))(PP (IN (of)))(NP (NN (light))))(S (NP (POS ('))(NNP (-lrb-))))) |ET| 
-1  |BT| (ROOT (S (NP (NN (year)))(PP (IN (of)))(NP (DT (the))(NNP (black))(NNP (rainbow)))(VP (SYM (=)))(NP (PRP$ (my))(NN (life))(CD (<))(CD (3))))) |ET| 
-1  |BT| (ROOT (S (NP (NN (respect)))(VP (VBZ (be)))(ADVP (RB (just)))(NP (DT (the))(NN (minimum))))) |ET| 
-1  |BT| (ROOT (S (NP (CD (203))(NNS (thanks)))(PP (IN (for)))(NP (DT (the))(NN (weekend))))) |ET| 
1  |BT| (ROOT (S (NP (JJ (heavy))(NNS (rain)))(VP (VBG (pipe)))(NP (JJ (hot))(NN (tea)))(SBAR (DT (that)))(NP (JJ (eternal))(NN (wait)))(NP (DT (a))(JJ (favourite))(NN (film))))) |ET| 
1  |BT| (ROOT (S (NP (WP (what)))(NP (VBZ (be))(DT (a))(JJ (dazzling))(NN (urbanite)))(PP (IN (like)))(NP (PRP (you)))(VP (VBG (do)))(PP (IN (in)))(NP (DT (a))(JJ (rustic))(NN (setting)))(PP (IN (like)))(NP (DT (this))))) |ET| 
1  |BT| (ROOT (S (NP (NNP (love)))(VP (VBZ (hurt)))(ADVP (WRB (when)))(NP (PRP (you)))(VP (VBP (know)))(SBAR (IN (that)))(NP (PRP (it)))(VP (MD (will))(RB (never))(VB (come)))(ADJP (JJ (true))))) |ET| 
-1  |BT| (ROOT (S (ADVP (UH (well)))(NP (PRP (i)))(VP (VBP (love)))(SBAR (IN (that)))(NP (EX (there)))(VP (VBP (be)))(NP (DT (no))(NNS (post)))(VP (TO (to))(VB (display)))(PP (IN (on)))(NP (PRP$ (my))(NNP (news))(NNP (feed))))) |ET| 
-1  |BT| (ROOT (S (VP (VBD (do))(RB (not))(VB (expect))(TO (to))(VB (end)))(PRT (RP (up)))(PP (IN (in)))(NP (JJ (first))(NN (aid))))) |ET| 
-1  |BT| (ROOT (S (VP (VBG (miss)))(NP (PRP$ (my))(NN (hunny)))(ADVP (RB (so))(RB (much))))(S (NP (VB (hate)))(NP (DT (these))(NNS (weekend))))) |ET| 
1  |BT| (ROOT (S (NP (NN (crabgrass)))(VP (VBZ (be)))(NP (DT (the))(NN (bane)))(PP (IN (of)))(NP (PRP$ (my))(NN (existence)))(ADVP (RB (right))(RB (now))))) |ET| 
1  |BT| (ROOT (S (NP (PRP (it)))(VP (VBZ (be)))(NP (DT (the))(NN (nature)))(PP (IN (of)))(NP (DT (all))(NN (greatness)))(VP (TO (to))(VB (be)))(ADJP (JJ (inaccurate))))) |ET| 
1  |BT| (ROOT (S (VP (VBD (set)))(NP (DT (a))(JJ (new))(NN (record)))(NP (NN (today)))(NP (CD (6))(NNS (hour)))(PP (IN (in)))(NP (DT (the))(NN (library))))) |ET| 
-1  |BT| (ROOT (S (NP (NNP (love)))(VP (VBZ (be)))(PP (IN (on)))(NP (DT (the))(NN (line)))(NP (PRP (i)))(VP (VBP (be)))(ADJP (IN (about)))(VP (TO (to))(VB (be))(NN (kind))))(S (NP (DT (that)))(VP (VBZ (be)))(NP (DT (a))(NN (promise)))(NP (DT (a))(NN (threat))))) |ET| 
-1  |BT| (ROOT (S (ADVP (WRB (where)))(VP (VBZ (be)))(NP (DT (the))(NN (snow))))) |ET| 
-1  |BT| (ROOT (S (NP (DT (another))(NN (evening)))(PP (IN (of)))(NP (NN (thinkin))))(S (VP (NN (2morrow)))(VP (VBZ (be)))(NP (DT (a))(JJ (new))(NN (day))))) |ET| 
1  |BT| (ROOT (S (NP (PRP$ (my))(NN (heart)))(VP (VBZ (beat)))(PP (IN (for)))(NP (PRP$ (my))(JJ (favorite))(NNS (boy))))(S (NP (PRP (i)))(VP (VBP (be))(RB (so))(VBN (bless))(TO (to))(VB (have)))(NP (PRP (they)))(PP (IN (in)))(NP (PRP$ (my))(NN (life))))(S (VP (VB (thank)))(NP (PRP (you))(NNP (god))))(S (NP (CD (:}))(CD (-rrb-))))) |ET| 
1  |BT| (ROOT (S (NP (CD (three))(NNS (thing)))(PP (IN (in)))(NP (NN (life)))(NP (WDT (that)))(ADVP (RB (never)))(VP (VBP (fail)))(NP (UH (true))(VBP (love)))(NP (NNP (determination))(CC (and))(NNP (belief))))) |ET| 
1  |BT| (ROOT (S (NP (NNP (dont))(VBP (spoil)))(NP (WP (what)))(NP (PRP (you)))(VP (VBP (have)))(PP (IN (by)))(VP (VBG (desire)))(NP (WP (what)))(NP (PRP (you)))(VP (VBP (do))(RB (not))(VB (have))))(S (SBAR (IN (because)))(NP (WP (what)))(NP (PRP (you)))(VP (VBP (have)))(ADVP (RB (now))))(S (VP (VBZ (be)))(NP (CD (one)))(PP (IN (of)))(NP (DT (the))(JJ (many))(NNS (thing)))(ADVP (IN (once)))(NP (PRP (you)))(VP (VBP (have))(VBN (pray)))(PP (IN (for))))) |ET| 
-1  |BT| (ROOT (S (NP (VB (study))(RB (abroad))(NN (application)))(VP (VBG (do)))(NP (PRP$ (my))(NN (head)))(PP (IN (in)))(ADVP (RB (again))))) |ET| 
-1  |BT| (ROOT (S (NP (DT (these))(NN (bandwagon))(VBZ (packer))(NNS (fan)))(ADVP (RB (only)))(VP (IN (like)))(NP (PRP (they)))(VP (VB (cause)))(NP (NN (lil))(NNS (wayne))(JJ (green))(CC (and))(JJ (yellow))(NN (smh))))) |ET| 
-1  |BT| (ROOT (S (NP (EX (there)))(VP (VBP (be)))(NP (CD (three))(NNS (constant)))(PP (IN (in)))(NP (NN (life))))(S (NP (VB (change))(, (,))(NN (choice))(CC (and))(NNS (principle))))) |ET| 
1  |BT| (ROOT (S (NP (DT (another))(NN (day)))(NP (DT (another))(NN (dollar.then)))(NP (DT (the))(NNS (dollar)))(VP (VBP (add)))(PRT (RP (up))))) |ET| 
1  |BT| (ROOT (S (NP (JJ (black))(CC (and))(JJ (yellow)))(NP (PDT (all))(DT (the))(NN (way))(NNS (steeler)))(VP (VBP (be))(VBG (go))(TO (to))(VB (win)))(NP (DT (the))(NN (superbowl))))) |ET| 
1  |BT| (ROOT (S (PP (RB (out)))(PP (IN (for)))(NP (DT (the))(NN (night))))(S (NP (VBZ (colombus)))(PP (IN (for)))(NP (DT (the))(NN (weekend))))) |ET| 
-1  |BT| (ROOT (S (NP (FW (i)))(VP (VBD (put)))(NP (PDT (all))(PRP$ (my))(NN (effort)))(PP (IN (in)))(NP (DT (the))(NN (test)))(PP (IN (before)))(NP (DT (the))(NN (test))))) |ET| 
-1  |BT| (ROOT (S (NP (NN (anyone)))(VP (VBP (want))(TO (to))(VB (come)))(NP (NN (work)))(PP (IN (with)))(NP (PRP (i)))(PP (IN (in)))(NP (NNP (america)))(PP (IN (for)))(NP (DT (the))(NN (summer))))(S (NP (NNP (p))))) |ET| 
-1  |BT| (ROOT (S (NP (NNS (feel)))(PP (VBP (like)))(NP (DT (a))(NN (day)))(ADJP (JJ (full)))(PP (IN (of)))(NP (NNS (lady)))(PP (IN (from)))(NP (DT (the))(CD (80)))(NP (VBZ (be))))) |ET| 
1  |BT| (ROOT (S (VP (VBZ (be)))(ADVP (RB (incredibly)))(ADJP (JJ (happy))))(S (NP (NNS (thanks)))(PP (TO (to)))(NP (DT (a))(RB (particularly))(JJ (amazing))(NN (person)))(PP (IN (in)))(NP (PRP$ (my))(NN (life))))) |ET| 
1  |BT| (ROOT (S (VP (VBZ (be)))(PP (IN (in)))(NP (NN (love)))(PP (IN (with)))(NP (JJ (eighth))(NN (blackbird))(CD (<)))(LST (CD (3))))) |ET| 
1  |BT| (ROOT (S (ADVP (RB (already)))(NP (NNP (thursday)))(ADVP (WRB (why)))(VP (VBZ (do)))(NP (NN (time)))(VP (VB (fly)))(PP (IN (by))))) |ET| 
-1  |BT| (ROOT (S (VP (VBZ (have))(RB (actually))(VBN (resort)))(PP (TO (to)))(NP (NNP (glasgow))(NNP (uni))(NNP (library)))(PP (IN (on)))(NP (DT (a))(NNP (saturday))(NN (night))))(S (NP (WP (what)))(VP (VBZ (have)))(NP (PRP$ (my))(NN (life)))(VP (VBN (come))(TO (to))(NNP (??))))) |ET| 
-1  |BT| (ROOT (S (VP (VBD (have)))(NP (DT (a))(RB (pretty))(JJ (good))(NN (day))))(S (ADVP (RB (now)))(VP (VBP (im)))(ADVP (RB (very)))(ADJP (RB (very))(JJ (ready)))(VP (TO (to))(VB (go)))(PP (TO (to)))(NP (NN (bed))))) |ET| 
-1  |BT| (ROOT (S (ADVP (RB (well)))(VP (VB (thank)))(NP (NN (god)))(VP (VBP (do))(RB (not))(VB (need))(TO (to))(VB (give)))(NP (DT (a))(NN (shit)))(PP (IN (about)))(NP (DT (the))(JJ (speluncean))(NNS (explorer)))(ADVP (RB (anymore))))) |ET| 
1  |BT| (ROOT (S (VP (VBZ (be))(VBG (watch)))(NP (DT (the))(NN (clock)))(VP (VBG (wish)))(NP (PRP (it)))(VP (MD (would))(VB (tick)))(NP (DT (a))(RB (little))(RBR (faster)))(VP (VBG (bring)))(PP (IN (in)))(NP (DT (the))(NN (weekend))))) |ET| 
1  |BT| (ROOT (S (NP (MD (can))(NN (someone)))(VP (VB (tell)))(NP (PRP (i)))(NP (WP (what)))(NP (DT (the))(NN (meaning)))(PP (IN (of)))(NP (NN (life)))(VP (VBZ (be))))) |ET| 
1  |BT| (ROOT (S (NP (PRP (i)))(VP (VBP (be)))(ADJP (JJ (laaaame)))(NP (NNP (megan))(NNP (thomas)))(VP (VBZ (be)))(NP (DT (the))(NN (coolest)))(NP (JJ (bestest))(NN (friend)))(ADVP (NN (eveeeerrr))))) |ET| 
-1  |BT| (ROOT (S (NP (NN (man))(NN (tthi)))(VP (VBZ (be)))(NP (JJ (bullshit))))) |ET| 
-1  |BT| (ROOT (S (NP (PRP (you)))(VP (VBP (be)))(PP (IN (out)))(PP (IN (of)))(NP (PRP$ (you))(NN (vector))))) |ET| 
-1  |BT| (ROOT (S (NP (PRP$ (you))(NN (heart)))(VP (MD (can))(VB (grow))(CC (and))(VB (hold)))(NP (JJR (more)))(SBAR (IN (than)))(NP (PRP (you)))(VP (MD (can))(VB (dream))))) |ET| 
1  |BT| (ROOT (S (ADVP (RB (really)))(VP (JJ (excited)))(PP (IN (about)))(NP (DT (the))(JJ (upcoming))(NN (wedding)))(PP (IN (in)))(NP (NNP (nyc))))(S (NP (NNS (congrat)))(PP (TO (to)))(NP (NNP (tony))(CC (and))(NNP (rick.we)))(VP (VBP (be))(VBG (go))(TO (to))(VB (have)))(NP (DT (a))(NN (blast)))(VP (VBG (celebrate)))(NP (PRP$ (you))(NN (ceremony))))) |ET| 
1  |BT| (ROOT (S (VP (VBG (look)))(ADVP (RB (forward)))(PP (TO (to)))(VP (VBG (have)))(NP (DT (a))(JJ (nice))(NN (weekend)))(PP (IN (with)))(NP (PRP$ (my))(JJ (favorite))(NNS (boy))))(S (NP (CD (:}))))) |ET| 
1  |BT| (ROOT (S (ADVP (RB (finally)))(VP (VBD (get)))(NP (WP (what))(FW (i)))(VP (VBD (want))))(S (NP (JJ (thnnku))(NN (god))))) |ET| 
-1  |BT| (ROOT (S (VP (VBZ (be))(VBN (do))(VBG (give)))(NP (DT (the))(JJ (right))(NN (something)))(PP (TO (to)))(NP (DT (the))(JJ (wrong))(NN (person))))) |ET| 
-1  |BT| (ROOT (S (NP (NNP (nana))(DT (the))(NNP (anime)))(VP (VBZ (be)))(ADJP (NN (sooooooooooo))(JJ (good)))(NP (PRP (i)))(ADVP (RB (just)))(VP (VBD (finish)))(NP (PRP (it))))(S (NP (PRP (i)))(VP (VBD (cry)))(ADVP (RB (so))(JJ (much))))) |ET| 
-1  |BT| (ROOT (S (NP (PRP (i)))(VP (MD (can))(VB (be))(VBN (change)))(PP (IN (by)))(NP (WP (what)))(VP (VBZ (happen)))(PP (TO (to)))(NP (PRP (i))))(S (NP (PRP (i)))(VP (VBP (refuse))(TO (to))(VB (be))(VBN (reduce)))(PP (IN (by)))(NP (PRP (it))))(S (NP (JJ (maya))(NNS (angelou))))) |ET| 
1  |BT| (ROOT (S (VP (MD (can))(VB (count))(TO (to))(NN (schfifty-five))))) |ET| 
1  |BT| (ROOT (S (NP (PRP (i)))(VP (VBP (want))(TO (to))(VB (satisfy)))(NP (DT (the))(JJ (undisclosed))(NNS (desire)))(PP (IN (in)))(NP (PRP$ (you))(NN (heart))))) |ET| 
1  |BT| (ROOT (S (NP (RB (only))(CD (18))(NNS (day)))(ADVP (IN (till))(NN (initiation))))) |ET| 
-1  |BT| (ROOT (S (PP (IN (in)))(NP (DT (the))(NNP (heights)))(VP (VBD (be)))(NP (NNP (amazing))))) |ET| 
-1  |BT| (ROOT (S (NP (JJ (whole))(NN (body)))(VP (VBZ (hurt))(VBG (go))(TO (to))(VB (sleep))))) |ET| 
-1  |BT| (ROOT (S (NP (NNP (mehhh))(VBD (dislike)))(NP (DT (this))(NN (whole))(RB (not))(VBG (feel))(JJ (good))(NN (thing))))) |ET| 
1  |BT| (ROOT (S (VP (VBZ (be)))(VP (VBG (make)))(NP (JJ (homemade))(NNS (noodle)))(PP (IN (for)))(NP (JJ (homemade))(NN (chicken))(JJ (noodle))(NN (soup))))(S (ADVP (RB (just)))(NP (DT (the))(JJ (right))(NN (kind)))(PP (IN (of)))(NP (NN (meal)))(PP (IN (for)))(NP (DT (this))(NN (kind)))(PP (IN (of)))(NP (NN (day))))) |ET| 
1  |BT| (ROOT (S (NP (PRP (it)))(VP (VBZ (be)))(NP (WP (what)))(NP (PRP (we)))(VP (VBP (get))))(S (NP (WP (who)))(NP (PRP (we)))(VP (VBP (become)))(NP (WP (what)))(NP (PRP (we)))(VP (VBP (contribute))))(S (NP (WDT (that)))(VP (VBZ (give))(VBG (mean)))(PP (TO (to)))(NP (PRP$ (we))(NNS (life))))) |ET| 
1  |BT| (ROOT (S (NP (PRP (i)))(VP (VBP (think)))(NP (PRP (we)))(VP (VBP (be))(RB (actually))(VBG (go))(TO (to))(VB (get)))(NP (DT (the))(NN (house))))(S (NP (JJ (>))(NNS (^_^)))(PP (VBP (<)))(NP (NNP (sooooo))(JJ (excited))))) |ET| 
-1  |BT| (ROOT (S (NP (NN (watchin)))(VP (VBZ (christma)))(NP (NNS (movie)))(PP (IN (with)))(NP (DT (the))(NN (fam))))(S (VP (UH (oh)))(PP (JJ (frosty)))(NP (PRP (he)))(VP (VBZ (kill)))(NP (PRP (i))))) |ET| 
-1  |BT| (ROOT (S (ADVP (RB (finally)))(PP (IN (over)))(NP (PDT (all))(DT (the))(NN (sickness))))(S (ADVP (VBP (back)))(PP (TO (to)))(NP (NN (school)))(PP (IN (for)))(NP (PRP (i))))(S (VP (VBG (go))(TO (to))(VB (miss))(VBG (be))(VBN (baby)))(PP (UH (tho))))) |ET| 
-1  |BT| (ROOT (S (VP (VBG (listen)))(PP (TO (to)))(NP (WDT (that))(JJ (new))(NNP (yeezy)))(NP (POS ('s))(NN (album))))(S (NP (PRP$ (its))(RB (too)))(VP (JJ (fucking)))(ADJP (JJ (sick))))) |ET| 
1  |BT| (ROOT (S (NP (DT (the))(NNP (emma-nator)))(VP (VBZ (have))(VBN (do)))(NP (PRP$ (she))(NN (job)))(ADVP (RB (well))(RB (today.mommy)))(VP (VBZ (be)))(PP (IN (near)))(NP (NN (collapse))))) |ET| 
1  |BT| (ROOT (S (VP (VBZ (be)))(NP (DT (the))(JJ (happiest))(NN (guy))(JJ (alive))(NNS (thanks)))(PP (TO (to)))(NP (CD (one))(JJ (special))(NN (person))))) |ET| 
1  |BT| (ROOT (S (PP (IN (for)))(NP (DT (the))(JJ (first))(NN (time)))(VP (RB (ever))(VBG (watch)))(NP (NNP (penelope))))) |ET| 
-1  |BT| (ROOT (S (VP (VB (do)))(NP (DT (the))(NN (ramshank))))) |ET| 
-1  |BT| (ROOT (S (NP (WP (what)))(NP (DT (the))(NN (fuck)))(VP (VBP (be)))(NP (NNP (greece)))(VP (VBG (do))))) |ET| 
-1  |BT| (ROOT (S (PP (IN (up)))(NP (VBZ (agaib))(NN (studyin))))(S (NP (DT (this)))(VP (VBZ (be)))(ADVP (RB (really)))(ADVP (JJ (hard))))(S (NP (VB (test))(NN (tommorrow))(CD (2)))(PP (IN (on)))(NP (NNP (monday))(CD (1)))(PP (IN (on)))(NP (NNP (wednesday))))) |ET| 
1  |BT| (ROOT (S (NP (PRP (i)))(VP (VBD (make)))(PRT (RP (up)))(NP (PRP$ (my))(NN (mind))))(S (NP (PRP (i)))(ADVP (RB (really)))(VP (VBP (do))(RB (not))(VB (care))))(S (NP (VBD (<))(CD (3))))) |ET| 
1  |BT| (ROOT (S (NP (PRP (i)))(VP (VBD (lick)))(NP (PRP$ (my))(NN (mom)))(NP (POS ('s))(NNS (wenus)))(NP (PRP (she)))(VP (MD (could))(RB (not))(VB (feel)))(NP (PRP (it))))) |ET| 
1  |BT| (ROOT (S (NP (PRP (they)))(VP (VBP (say)))(NP (JJ (bad))(NNS (thing)))(VP (VBZ (happen)))(PP (IN (in)))(NP (CD (3))))(S (NP (PRP (i)))(VP (VBD (lose)))(NP (NN (someone)))(ADJP (RB (close)))(PP (TO (to)))(NP (PRP (i)))(NP (NN (today))))(S (NP (PRP (i)))(VP (MD ('ll))(VB (miss)))(NP (PRP (you)))(NP (PRP$ (my))(NN (brother))))) |ET| 
-1  |BT| (ROOT (S (NP (PRP (i)))(VP (VBP (love)))(NP (PRP$ (he))(NN (fragrance))))) |ET| 
-1  |BT| (ROOT (S (NP (NNP (awwwwwwwwwwwww))(NNP (lily)))(VP (VBZ (be))(VBG (be)))(NP (JJ (super))(JJ (affectionate))(NN (tonight)))(NP (PRP (she)))(NP (VBZ (be)))(ADVP (RB (actually)))(VP (VBG (cuddle)))(PP (IN (with)))(NP (PRP (i))))) |ET| 
-1  |BT| (ROOT (S (NP (PRP (i)))(VP (VBP (do)))(NP (PRP (it)))(PP (IN (for)))(NP (DT (the))(NN (hood)))(SBAR (IN (because)))(NP (DT (the))(NN (hood)))(VP (VBD (tell)))(NP (PRP (i)))(NP (PRP (i)))(VP (MD (should))))) |ET| 
1  |BT| (ROOT (S (VP (VB (love)))(NP (DT (the))(NN (rain))))) |ET| 
1  |BT| (ROOT (S (VP (VBN (answer)))(NP (DT (a))(NN (question)))(PP (IN (on)))(NP (NNP (friend))(NNP (facts))))) |ET| 
1  |BT| (ROOT (S (VP (VBG (be)))(NP (JJ (sick))(CC (and))(VBG (watch))(NNP (buffy))))) |ET| 
-1  |BT| (ROOT (S (NP (VB (love)))(VP (JJ (havin)))(NP (NNS (friend)))(NP (WDT (that)))(VP (MD (will))(RB (never))(VB (give)))(PRT (RP (up))))) |ET| 
-1  |BT| (ROOT (S (NP (MD (can))(RB (not)))(VP (VB (wait)))(PP (IN (for)))(NP (PRP$ (my))(NN (naya)))(VP (TO (to))(VB (meet)))(NP (JJ (tamzens))(NN (sumaium))))(S (VP (RB (either)))(NP (VBD (tonite))(CC (or))(NNP (thursday))))) |ET| 
-1  |BT| (ROOT (S (NP (NNP (halloweeen))(NNP (~)))(NP (CD (3))(NNP (time)))(VP (TO (to))(VB (scare)))(NP (DT (the))(NNS (child))))) |ET| 
1  |BT| (ROOT (S (NP (PRP (i)))(VP (VBP (miss)))(NP (DT (that))(CD (one))(JJ (true))(NN (friend))))) |ET| 
1  |BT| (ROOT (S (NP (VBD (see))(DT (a))(NN (glimpse)))(PP (IN (of)))(NP (NNP (god)))(NP (NN (today)))(PP (IN (in)))(NP (DT (the))(NN (practice))(NN (room))))(S (NP (DT (these))(NNS (freshman)))(VP (VBP (be)))(NP (NN (beast))))) |ET| 
1  |BT| (ROOT (S (NP (PRP (i)))(VP (VBP (love)))(NP (NN (man))(NNS (clothes))))) |ET| 
-1  |BT| (ROOT (S (NP (VB (havin))(DT (a))(NNP (girls))(NNP (nite)))(PP (IN (with)))(NP (CD (one)))(PP (IN (of)))(NP (NNP (my))(NNP (sisters.missin)))(NP (DT (the))(NNP (other))(CD (one))))(S (NP (PRP (i)))(VP (VBP (love)))(NP (NNP (ya))(VBP (will))(DT (both))))) |ET| 
-1  |BT| (ROOT (S (NP (PRP (i)))(PP (VB (despise)))(NP (DT (this))(NN (morning))))) |ET| 
-1  |BT| (ROOT (S (VP (NNP (love)))(NP (VBD (doesnt))(VBN (hurt)))(NP (NN (love)))(VP (VBZ (complete)))(NP (WP (what)))(NP (PRP (it)))(VP (VBZ (have))(VBN (start))))) |ET| 
1  |BT| (ROOT (S (NP (WP (who)))(VP (VBZ (think)))(NP (JJ (france)))(VP (VBZ (be))(VBG (go))(TO (to))(VB (beat)))(NP (NN (mex)))(PP (IN (on)))(NP (NNP (june))(CD (17))))) |ET| 
1  |BT| (ROOT (S (NP (NNP (man)))(VP (VBZ (look)))(PP (IN (at)))(NP (JJ (outward))(NN (appearance)))(NP (DT (the))(NNP (lord)))(VP (VBZ (look)))(PP (IN (within))))) |ET| 
1  |BT| (ROOT (S (ADVP (RB (almost))(RB (back)))(PP (TO (to)))(NP (NN (school.that)))(NP (VBZ (be)))(ADVP (WRB (when)))(NP (NN (vacation))(NN (time)))(PP (IN (for)))(NP (NNS (kid)))(VP (VBZ (be)))(ADJP (IN (over))(SYM (&)))(NP (NN (vacation))(NN (time)))(PP (IN (for)))(NP (NNS (parent)))(VP (VBZ (begin))))(S (NP (NNP (lol))))) |ET| 
-1  |BT| (ROOT (S (VP (VBP (have))(VBN (alot)))(PP (IN (on)))(NP (PRP$ (my))(NN (mind)))(NP (NN (today))))) |ET| 
-1  |BT| (ROOT (S (NP (NNP (god)))(VP (VBZ (be)))(NP (NNP (workin)))(PP (IN (in)))(NP (NNP (mysterious))(NNP (ways.he)))(VP (VBZ (be)))(NP (NNP (good.thank))(NNP (u))(NNP (jesus))))) |ET| 
-1  |BT| (ROOT (S (NP (NN (3am)))(NP (DT (a))(NN (ambulance))(VBZ (roll)))(PP (IN (in)))(NP (NNP (d))))(S (NP (VBN (thunkchu)))(PP (IN (for)))(VP (VBG (be)))(ADVP (EX (there))(VBD (<)))(LST (CD (3))))) |ET| 
1  |BT| (ROOT (S (NP (WP (what)))(NP (VBZ (be))(JJ (good))(NN (fb))))) |ET| 
1  |BT| (ROOT (S (NP (PRP (i)))(ADVP (RB (just)))(VP (VBD (come)))(PP (IN (from)))(NP (DT (the))(NN (fountain))))) |ET| 
1  |BT| (ROOT (S (NP (VBZ (wish)))(NP (PRP (he)))(VP (RB (coulda))(VBN (see)))(NP (DT (the))(NN (end)))(PP (IN (of)))(NP (DT (the))(NN (packer))(VBN (game.and)))(VP (TO (to))(VB (think)))(NP (PRP (i)))(VP (VBD (write)))(NP (PRP (they)))(PRT (RP (off)))(ADVP (IN (like))(DT (that))))) |ET| 
-1  |BT| (ROOT (S (NP (NN (ffuuckk)))(ADVP (VBD (nott)))(NP (DT (the))(NN (rain))))) |ET| 
-1  |BT| (ROOT (S (NP (JJ (first))(NN (person)))(VP (VBZ (shooter)))(PP (IN (on)))(NP (DT (the))(NNP (wii))))(S (NP (PRP (they)))(VP (VBD (fuck)))(NP (NN (suck))))(S (NP (PRP (i)))(VP (MD ('ll))(VB (stick)))(PP (TO (to)))(NP (DT (a))(NNP (xbox)))(VP (VB (thank)))(NP (PRP (you)))(ADVP (RB (very))(RB (much))))) |ET| 
-1  |BT| (ROOT (S (ADVP (RB (hopefully)))(NP (PRP (we)))(VP (VBP (get)))(NP (DT (the))(NN (car)))(NP (NN (today))))) |ET| 
1  |BT| (ROOT (S (NP (NNP (everbody)))(VP (VBZ (go)))(ADJP (JJ (crazy)))(NP (NN (today))))(S (NP (DT (this)))(VP (VBZ (go)))(PP (TO (to)))(NP (PRP$ (my))(NN (gaga))(NNS (classmate))))) |ET| 
1  |BT| (ROOT (S (NP (CD (three))(NNS (thing)))(PP (IN (in)))(NP (NN (life)))(SBAR (IN (that)))(NP (RB (once)))(VP (VBN (go))(RB (never))(VB (be))(VBN (come)))(ADVP (RP (back)))(NP (NNP (time)))(NP (NNP (words)))(NP (NNP (opportunity))))) |ET| 
1  |BT| (ROOT (S (NP (PRP (it)))(VP (VBZ (be)))(ADJP (JJ (hard)))(VP (TO (to))(VB (guard)))(NP (PRP$ (my))(NN (sanity)))(NP (NN (today))))) |ET| 
-1  |BT| (ROOT (S (NP (DT (this)))(VP (VBZ (be)))(NP (DT (a))(JJ (cold))(NN (war)))(NP (PRP (you)))(ADVP (RB (better)))(VP (VBP (know)))(NP (WP (what)))(NP (PRP (you)))(VP (VBP (be))(VBG (fight)))(PP (IN (for))))(S (NP (DT (this)))(VP (VBZ (be)))(NP (DT (a))(JJ (cold))(NN (war)))(VP (VBP (do)))(NP (PRP (you)))(VP (VB (know)))(NP (WP (what)))(NP (PRP (you)))(VP (VBP (be))(VBG (fight)))(PP (IN (for))))) |ET| 
-1  |BT| (ROOT (S (NP (NNP (snow))(NN (day))))(S (NP (NNP (day)))(PP (IN (of)))(VP (VBG (draw))(CC (and))(VBG (laze)))(ADVP (RP (around))))(S (INTJ (UH (oh))(VB (yeah))))) |ET| 
-1  |BT| (ROOT (S (VP (VBG (walk)))(PP (IN (at)))(NP (NN (pe))(NN (ha))(NN (todayy)))(VP (VBZ (be)))(NP (JJ (good))(NN (day)))(NP (NNP (d))))) |ET| 
1  |BT| (ROOT (S (NP (NN (look)))(PP (IN (at)))(NP (DT (the))(NN (difference.you)))(VP (MD (can))(VB (see)))(NP (PRP$ (he))(NN (face)))(ADVP (RB (now))))) |ET| 
1  |BT| (ROOT (S (NP (PRP (you)))(VP (MD (can))(RB (not))(VB (be)))(ADJP (JJ (lonely)))(SBAR (IN (if)))(NP (NN (u)))(PP (IN (like)))(NP (DT (the))(NN (person)))(NP (NN (u)))(VP (VBP (be)))(ADVP (RB (alone)))(PP (IN (with))))) |ET| 
1  |BT| (ROOT (S (ADVP (RB (somewhere)))(PP (IN (over)))(NP (DT (the))(NNS (year)))(NP (PRP (i)))(VP (VBD (have))(VBN (forget)))(NP (DT (the))(NN (i)))(PP (IN (in)))(NP (NNP (me))))(S (ADVP (RB (again)))(NP (NN (today)))(NP (PRP (i)))(VP (VBP (be)))(PP (IN (in)))(NP (NNP (love)))(PP (IN (with)))(NP (NNP (myself))))) |ET| 
-1  |BT| (ROOT (S (NP (NN (anyone)))(NP (WP (who)))(VP (VBZ (say)))(NP (DT (the))(NN (word))('' ('))(NN (tube))('' (')))(NP (NN (today)))(VP (VBZ (be))(JJ (retarded))))) |ET| 
-1  |BT| (ROOT (S (NP (PRP (i)))(VP (VBD (have))(TO (to))(VB (get)))(PP (IN (off)))(NP (DT (the))(NNP (boat)))(NP (PRP (i)))(VP (MD (could))(VBP (walk)))(PP (IN (on)))(NP (NNP (water))))) |ET| 
-1  |BT| (ROOT (S (NP (NN (today)))(VP (VBZ (be)))(NP (DT (the))(NN (day)))(SBAR (IN (that)))(NP (NN (kez)))(VP (VBZ (be)))(NP (PRP$ (my))(NN (dog)))(ADVP (RB (again))))(S (NP (NNP (wooohooo))))) |ET| 
1  |BT| (ROOT (S (NP (VB (cry)))(PP (IN (without)))(VP (VBG (weep))))(S (NP (NN (talk)))(PP (IN (without)))(VP (VBG (speak))))(S (NP (VB (scream)))(PP (IN (without)))(VP (VBG (raise)))(NP (PRP$ (you))(NN (voice))(VBG (<))(CD (3))))) |ET| 
1  |BT| (ROOT (S (VP (NNP (start)))(NP (DT (the))(VBP (work)))(PP (IN (in)))(NP (DT (the))(NN (name)))(PP (IN (of)))(NP (NNP (god))))(S (NP (DT (the))(NN (work)))(PP (IN (with)))(NP (DT (the))(NN (help)))(PP (IN (of)))(NP (NNP (god))))(S (VP (VB (finish)))(NP (DT (the))(NN (work)))(PP (IN (with)))(NP (NNS (thanks)))(PP (TO (to)))(NP (NNP (god))))(S (SBAR (IN (because)))(NP (PRP (he)))(VP (VBZ (decide)))(VP (VBZ (give)))(VP (VBZ (make)))(NP (NN (everything)))(ADJP (JJ (possible))))) |ET| 
1  |BT| (ROOT (S (NP (NN (cant))(VB (wait)))(PP (JJ (untill)))(NP (NN (lamb)))(PP (IN (of)))(NP (NNS (god))(CC (and))(NNS (megadethh)))(NP (NN (anthrax))(JJ (new))(NN (album)))(VP (TO (to))(VB (come)))(PRT (RP (out))))) |ET| 
-1  |BT| (ROOT (S (VP (VBG (lay)))(PRT (RP (down)))(PP (IN (with)))(NP (DT (the))(JJ (prettiest))(NN (angel)))(PP (IN (of)))(NP (PDT (all))(PRP$ (my))(NN (bebe))(VBZ (shae))(JJ (:}))))) |ET| 
-1  |BT| (ROOT (S (PP (IN (at)))(NP (NN (dix))(NNS (hill))(NN (pool))(NNS (everyone)))(ADJP (VBP (welcome)))(VP (TO (to))(VB (come)))(NP (NN (chill)))(PP (IN (with)))(NP (PRP (i)))(NP (PRP$ (my))(NNS (girl))))) |ET| 
-1  |BT| (ROOT (S (NP (DT (those))(NNS (bottle)))(PP (IN (of)))(NP (NN (gilliter)))(NP (PRP (you)))(VP (VBP (uy))))(S (NP (PRP$ (they))(NNS (vampire)))(NP (NNP (dead))(NNP (vampires))))) |ET| 
1  |BT| (ROOT (S (NP (DT (the))(NN (hook)))(VP (VBZ (bring)))(NP (PRP (you)))(ADVP (RP (back))))) |ET| 
1  |BT| (ROOT (S (VP (VBZ (be)))(PP (IN (in)))(NP (DT (the))(NNP (robertson))(NNP (ra))(NN (office))))(S (VP (VB (come)))(NP (NN (visit))))) |ET| 
1  |BT| (ROOT (S (VP (VBZ (be)))(VP (VBG (prepare)))(NP (NN (dinner)))(SBAR (RB (ugh)))(ADVP (WRB (why)))(VP (VBP (do)))(NP (DT (the))(JJ (onions)))(VP (NN (hafta))(VB (make)))(NP (PRP (i)))(VP (VB (cry))))(S (NP (NNP ('))))) |ET| 
-1  |BT| (ROOT (S (VP (VBN (be))(NN (fishing))(CC (and))(RB (only))(VBD (catch)))(NP (DT (the))(NN (sun))))(S (NP (NNP (s)))(ADVP (RB (still)))(VP (VBD (have)))(NP (DT (a))(NN (laugh)))(ADVP (IN (though)))(VP (NN (lol))))) |ET| 
-1  |BT| (ROOT (S (VP (NNS (look)))(PP (VBP (like)))(NP (PRP (you)))(VP (VBP (be))(VBG (try))(TO (to))(VB (take)))(PRT (RP (over)))(NP (DT (the))(NN (world))))(S (ADVP (WRB (how)))(NP (PRP (i)))(VP (VB (help))))(S (NP (VBP (<))(CD (3))(FW (viva))(FW (la))(NNP (paper))(NNP (clip))))) |ET| 
-1  |BT| (ROOT (S (NP (NNP (off)))(VP (TO (to)))(NP (VBP (work))))(S (NP (NNP (may))(DT (the))(NNP (week))(NNP (begin))))) |ET| 
1  |BT| (ROOT (S (NP (PRP (i)))(VP (VBP (procrastinate)))(PP (IN (on)))(NP (NN (homework)))(PP (IN (by)))(VP (VBG (do)))(NP (JJ (other))(NN (homework))))) |ET| 
1  |BT| (ROOT (S (NP (DT (another))(JJ (great))(NN (day)))(PP (IN (on)))(NP (NNP (san))(NNP (diego))(NNP (bay))))) |ET| 
1  |BT| (ROOT (S (NP (PRP (i)))(VP (VBP (enjoy)))(NP (DT (every))(NN (fraction)))(PP (IN (of)))(NP (PRP$ (my))(NN (life)))(VP (VBG (look)))(PP (IN (below)))(NP (NN (average))))) |ET| 
-1  |BT| (ROOT (S (VP (VBG (hope)))(NP (DT (this))(NN (weekend)))(VP (VBZ (go)))(PP (IN (as)))(NP (VBD (plan))))) |ET| 
-1  |BT| (ROOT (S (VP (VBG (watch)))(NP (NN (house))))) |ET| 
-1  |BT| (ROOT (S (VP (VBG (have)))(NP (CD (one)))(PP (IN (of)))(NP (DT (the))(JJS (greatest))(NNS (day))))) |ET| 
1  |BT| (ROOT (S (VP (VBZ (be))(VBG (look)))(ADVP (RB (forward)))(PP (TO (to)))(NP (NNP (matching))(NNP (pyjama))(NNP (suits))))(S (NP (NNP (d))))) |ET| 
1  |BT| (ROOT (S (NP (DT (this))(NN (weather)))(VP (VBZ (be))(JJ (a-m-a-y-zing))))(S (NP (NNP (d))))) |ET| 
1  |BT| (ROOT (S (NP (DT (the))(NNP (sharks))(NNP (forever))))) |ET| 
-1  |BT| (ROOT (S (NP (NNP (im))(NNP (soooooo))(VBD (tried.but))(DT (a))(NN (friend)))(PP (IN (in)))(NP (NNP (need))))(S (NP (VBZ (be))(DT (a))(NN (friend)))(PP (IN (in)))(NP (NNP (deed.an))(NNP (im))(NNP (there))))) |ET| 
-1  |BT| (ROOT (S (NP (NNP (bronchitis)))(NP (NN (kidney))(NN (infection))(CC (and))(NN (flu))))(S (NP (JJ (happy))(NN (birthday)))(PP (TO (to)))(NP (PRP (i))))(S (NP (NNS (thanks)))(NP (DT (every))(NN (body)))(PP (IN (for)))(NP (DT (the))(NN (birthday)))(VP (VBZ (wish))))(S (NP (PRP (i)))(ADVP (RB (really)))(VP (VBP (appreciate)))(NP (PRP (it))))) |ET| 
-1  |BT| (ROOT (S (NP (JJ (great))(NN (day))))) |ET| 
1  |BT| (ROOT (S (VP (VBG (spend)))(NP (DT (the))(NN (day)))(PP (IN (with)))(NP (PRP$ (my))(JJ (wonderful))(, (,))(JJ (funny))(, (,))(JJ (loving))(, (,))(JJ (beautiful))(NN (mommy))))(S (NP (PRP (i)))(VP (VBP (love)))(NP (PRP (you)))(NP (RB (mommy))))) |ET| 
1  |BT| (ROOT (S (VP (VBD (have)))(NP (VBN (issma)))(NP (NN (today))))(S (NP (PRP (it)))(VP (VBD (be)))(NP (NN (fun)))(VP (VBG (be)))(PP (IN (with)))(NP (PRP$ (my))(NNS (homy))))) |ET| 
1  |BT| (ROOT (S (VP (VB (look)))(PP (IN (at)))(NP (DT (the))(NNS (brightness)))(PP (IN (of)))(NP (DT (the))(NN (lamp)))(NP (DT (the))(VBZ (darkness)))(PP (IN (underneath)))(NP (PRP (it))))(S (NP (NNP (optimism)))(VP (VBZ (be)))(NP (DT (a))(NN (attribute)))(NP (PRP$ (its))(DT (a))(NN (way)))(PP (IN (of)))(NP (NN (life))))) |ET| 
-1  |BT| (ROOT (S (ADVP (RB (far)))(NP (DT (the))(RB (only))(NN (fun))(NN (thing)))(VP (TO (to))(VB (do)))(PP (IN (at)))(NP (NN (school)))(VP (VBZ (be))(VB (get)))(PP (IN (on)))(NP (NN (facebook))))(S (NP (RB (jeez)))(NP (PRP (i)))(VP (VBP (need)))(NP (NN (something)))(VP (TO (to))(VB (occupy)))(NP (PRP$ (my))(NN (time)))(NP (IN (that)))(VP (VBZ (be)))(NP (NN (homework))))) |ET| 
-1  |BT| (ROOT (S (NP (JJ (nite))(NNS (/))(VBP (/)))(PP (CD (/)))(NP (CD (4:45)))(VP (VBZ (be))(VBN (comin)))(ADVP (RB (early))))(S (ADVP (RB (then))(IN (off)))(VP (TO (to))(VB (perry)))(NP (NNP (ga))(CD (4)))(NP (DT (a))(JJ (feild))(NN (trip)))(PP (IN (with)))(NP (NN (mason))))) |ET| 
-1  |BT| (ROOT (S (NP (PRP$ (my))(NN (love)))(VP (VBZ (leave)))(ADVP (RB (tonight))))(S (NP (-LRB- (-lrb-)))(VP (VBG (go))(TO (to))(VB (miss)))(NP (PRP (he)))(ADVP (RB (so))(RB (so)))(ADJP (RB (much))))(S (ADVP (RB (hopefully)))(VP (VBG (go)))(ADVP (RP (out)))(VP (VBD (sit))))(S (VP (MD (will))(VB (help)))(PP (IN (with)))(NP (DT (the))(NNS (loneliness))))(S (NP (NN (nothing)))(PP (IN (like)))(NP (JJ (good))(NNS (friend))(CC (and))(NN (tequila))))) |ET| 
1  |BT| (ROOT (S (VP (VBG (fall)))(UCP (RB (asleep)))(PP (IN (in)))(NP (NNS (hope)))(SBAR (IN (that)))(NP (PRP (i)))(VP (MD (will))(RB (not))(VBP (wake)))(PRT (RP (up))))) |ET| 
1  |BT| (ROOT (S (NP (NNP (dont)))(VP (VBP (hate))(VB (eat)))(NP (NN (cake))))) |ET| 
1  |BT| (ROOT (S (NP (DT (a))(JJ (little))(NN (pass))(NN (protection)))(VP (MD (would))(VB (have))(VBN (be)))(ADJP (JJ (nice))))) |ET| 
-1  |BT| (ROOT (S (NP (NNS (bea)))(NP (NNP (kawa)))(PP (VBP (hangout)))(NP (NN (time))))(S (NP (NNP (d))))) |ET| 
-1  |BT| (ROOT (S (NP (VB (be))(DT (the))(JJ (new))(NNS (year)))(PP (IN (on)))(NP (NNP (happy)))(NP (NNP (d))(NNP (<))(CD (3))))) |ET| 
-1  |BT| (ROOT (S (SBAR (IN (before)))(NP (FW (i)))(VP (VBP (leave)))(VP (VB (capture)))(NP (DT (the))(NN (moment)))(SBAR (IN (so)))(NP (PRP (it)))(ADVP (RB (never)))(VP (VBP (ends.before)))(NP (FW (i)))(VP (VB (leave))))) |ET| 
1  |BT| (ROOT (S (NP (PRP (i)))(VP (VBP (be)))(ADVP (RB (so)))(ADJP (JJ (lucky)))(VP (TO (to))(VB (have)))(NP (WP (what)))(NP (PRP (i)))(VP (VBP (have.my)))(NP (NN (family)))(VP (VBZ (be)))(NP (PDT (such))(DT (a))(NN (blessing)))(NP (PRP (i)))(VP (VBP (thank)))(NP (NNP (god)))(PP (IN (for)))(NP (PRP (they)))(ADJP (JJ (everyday))))) |ET| 
1  |BT| (ROOT (S (NP (PRP (you)))(VP (MD (can))(RB (not))(VB (help)))(NP (NN (someone)))(VP (VB (get)))(PRT (RP (up)))(NP (DT (a))(NN (hill)))(PP (IN (without)))(VP (VBG (get)))(ADVP (RBR (closer)))(PP (TO (to)))(NP (DT (the))(NN (top)))(NP (PRP (yourself))))) |ET| 
1  |BT| (ROOT (S (NP (NN (today)))(VP (VBZ (be)))(NP (DT (the))(NN (start)))(PP (IN (of)))(NP (DT (a))(JJ (new))(NN (adventure))))(S (NP (NNP (new))(VBZ (challenge)))(VP (TO (to))(VB (face)))(NP (JJ (new))(NNS (memory)))(VP (TO (to))(VB (make)))(NP (JJ (new))(NNS (obstacle)))(VP (TO (to))(VB (overcome)))(NP (CD (<))(CD (3))))) |ET| 
-1  |BT| (ROOT (S (NP (PRP (it)))(VP (VBZ (be)))(ADJP (JJ (official)))(NP (PRP (i)))(VP (VBP (be)))(ADJP (NN (nuttier)))(PP (IN (than)))(NP (DT (a))(JJ (squirrel))(JJ (turd))))) |ET| 
-1  |BT| (ROOT (S (NP (NNS (people)))(VP (VBP (cheat)))(SBAR (IN (because)))(NP (PRP (they)))(VP (VBP (dont))(VB (understand)))(NP (PRP (themselves))))(S (PP (RB (so)))(NP (PRP$ (my))(NN (opinion)))(PP (IN (of)))(NP (PRP (you)))(VP (MD (will))(RB (just))(VB (be.oh)))(NP (JJ (poor))(NN (thing))))(S (NP (PRP (they)))(VP (VBP (be)))(ADVP (RB (still)))(NP (DT (a))(NN (child))))) |ET| 
-1  |BT| (ROOT (S (NP (NNS (>))(VBP (<))(NN (boooooooooo)))(NP (PRP (i)))(VP (VBP (do))(RB (not))(VB (want))(TO (to))(VB (go)))(ADVP (RB (back)))(PP (TO (to)))(NP (VB (work))(NN (tommarrow))))) |ET| 
1  |BT| (ROOT (S (NP (DT (the))(JJR (more))(NN (we))(VBD (sweat)))(PP (IN (for)))(NP (NNP (peace))))(S (NP (DT (the))(NNP (less))(NNP (we))(VBD (bleed)))(PP (IN (in)))(NP (NNP (war))))) |ET| 
1  |BT| (ROOT (S (PP (IN (like)))(NP (DT (this))(CC (and))(FW (i)))(VP (MD (will))(VB (tell)))(NP (PRP (you)))(NP (NN (something)))(VP (FW (i)))(PP (IN (like)))(NP (NNP (aboutyou))))) |ET| 
1  |BT| (ROOT (S (NP (DT (the))(NNS (annoyingness)))(PP (IN (of)))(NP (NNP (things))))) |ET| 
-1  |BT| (ROOT (S (NP (VB (beware)))(PP (IN (of)))(NP (NN (imitators.nothin)))(PP (IN (like)))(NP (DT (the))(JJ (real))(NN (thing))))) |ET| 
-1  |BT| (ROOT (S (NP (NN (blood)))(PP (IN (on)))(NP (DT (the))(NN (staircase))))) |ET| 
-1  |BT| (ROOT (S (VP (VBP (fuck))(VBG (leave)))(PP (IN (for)))(NP (DT (the))(NN (lakee)))(PP (IN (in)))(NP (DT (a))(NN (lil))))) |ET| 
1  |BT| (ROOT (S (NP (NNS (bitch)))(VP (VBP (do))(RB (not))(RB (just))(VB (happen)))(NP (PRP (they)))(VP (VBP (be))(VBN (make))))) |ET| 
1  |BT| (ROOT (S (VP (VBP (be)))(NP (FW (i)))(VP (VBG (stand)))(ADVP (RB (too))(RB (close)))(PP (TO (to)))(NP (DT (the))(NN (flame))))) |ET| 
1  |BT| (ROOT (S (NP (PRP (i)))(VP (VBP (want)))(NP (NN (weather)))(NP (WDT (that)))(VP (VBZ (be)))(ADJP (RB (too))(JJ (cold)))(ADVP (RB (too))(JJ (hot.just)))(ADVP (RB (right))))(S (VP (VBZ (be)))(SBAR (DT (that)))(ADVP (RB (too))(JJ (much)))(VP (TO (to))(VB (ask)))(PP (IN (for)))(NP (NNP (?!))))) |ET| 
-1  |BT| (ROOT (S (VP (VBZ (be)))(NP (NNP (not)))(VP (VBG (look)))(ADVP (RB (forward)))(PP (TO (to)))(NP (JJ (next))(NN (week))))) |ET| 
-1  |BT| (ROOT (S (VP (VBG (get)))(ADJP (JJ (ready)))(PP (TO (to)))(NP (VB (head)))(ADVP (RP (back)))(PP (TO (to)))(NP (NNP (charleston))))) |ET| 
-1  |BT| (ROOT (S (VP (VBZ (be)))(NP (NNP (vt)))(VP (VBN (bind))))(S (VP (VBG (hit)))(NP (DT (the))(NNS (slope)))(PP (IN (at)))(NP (NNP (killington)))(NP (DT (all))(NN (weekend))))(S (ADJP (JJ (excited))))) |ET| 
1  |BT| (ROOT (S (NP (NNP (applied)))(PP (IN (for)))(NP (DT (a))(NN (job)))(PP (IN (at)))(NP (NNP (helen))(NNP (hall))(NNP (library))))(S (ADVP (RB (hopefully)))(VP (RB (ill))(VB (get)))(NP (DT (the))(NN (job))))) |ET| 
1  |BT| (ROOT (S (VP (VBG (put)))(PP (IN (in)))(NP (JJR (more))(NNS (application)))(VP (VBP (wish)))(NP (PRP (i)))(NP (NN (luck))))) |ET| 
1  |BT| (ROOT (S (NP (NN (kitty)))(PP (IN (on)))(NP (PRP$ (my))(NN (foot)))(NP (PRP (i)))(VP (VBP (wan))(TO (na))(VB (touch)))(NP (PRP (it))))) |ET| 
-1  |BT| (ROOT (S (NP (JJ (happy))(NNP (thanksgiving))))(S (NP (PRP (i)))(VP (VBP (be)))(ADJP (JJ (thankful)))(PP (IN (for)))(NP (PRP$ (my))(NN (family)))(NP (NNS (friend)))(NP (PRP (you))))) |ET| 
-1  |BT| (ROOT (S (NP (PRP (you)))(VP (VBP (be)))(NP (DT (the))(NN (music)))(PP (IN (in)))(NP (PRP (i))))) |ET| 
-1  |BT| (ROOT (S (VP (VB (save)))(NP (PRP (i)))(PP (IN (from)))(NP (DT (those))(JJ (creepy))(NNS (people)))(NP (WP (who)))(VP (VBP (lurk)))(PP (IN (in)))(NP (DT (the))(NNP (alleyways))))) |ET| 
1  |BT| (ROOT (S (VP (VBZ (be)))(ADVP (RB (back)))(PP (IN (from)))(NP (VBG (camp)))(NP (NNP (still)))(VP (NN (hasnt))(VBD (have)))(NP (DT (a))(NN (nap)))(NP (NNP (o))))) |ET| 
1  |BT| (ROOT (S (VP (VBZ (be))(VBN (head)))(PP (TO (to)))(NP (NNP (san))(NNP (diego))(VBG (today.sailing)))(NP (DT (this))(NN (weekend))))) |ET| 
1  |BT| (ROOT (S (VP (VBZ (be)))(ADJP (JJ (sick))(CC (and)))(VP (VBG (go)))(PP (TO (to)))(NP (DT (the))(NN (doctor))))) |ET| 
-1  |BT| (ROOT (S (NP (NN (goal)))(VP (VBZ (be))(TO (to))(VB (expand)))(NP (PRP$ (my))(NN (collection))))) |ET| 
-1  |BT| (ROOT (S (NP (NN (today)))(VP (VBZ (be)))(NP (DT (the))(NN (day)))(SBAR (FW (i)))(VP (VBD (give)))(NP (NN (birth)))(PP (TO (to)))(NP (PRP$ (my))(NNS (princess))(NNP (makayla))(NNP (leann.mommy))(NNP (loves))(NNP (u))(NNP (so))(NNP (much))))) |ET| 
-1  |BT| (ROOT (S (NP (FW (i)))(ADVP (RB (just)))(VP (VBD (take)))(NP (PRP$ (my))(NN (permit))(NN (test)))(PP (IN (for)))(NP (DT (the))(JJ (third))(NN (time))(CC (and))(FW (i)))(VP (VBD (pass))))) |ET| 
1  |BT| (ROOT (S (VP (VBG (get)))(ADJP (JJ (ready)))(VP (TO (to))(VB (meet)))(PRT (RP (up)))(PP (IN (with)))(NP (JJ (kerry))(CC (and))(JJ (ashley))))(S (SBAR (RB (:})))(NP (PRP (i)))(VP (VBP (be)))(ADVP (RB (so)))(ADJP (JJ (excited))))) |ET| 
1  |BT| (ROOT (S (NP (PRP (i)))(VP (VBP (be)))(ADJP (VBN (bore)))(PP (IN (of)))(NP (PRP (you))(VBP (farmville)))(ADVP (RB (now)))(VP (VB (get)))(PP (RP (out)))(PP (IN (of)))(NP (PRP$ (my))(NN (life)))(NP (NNP (d))))) |ET| 
1  |BT| (ROOT (S (VP (VBZ (want))(TO (to))(VB (go)))(ADVP (RP (out)))(VP (VB (do)))(NP (NN (somthing)))(PP (IN (with)))(NP (NNS (friend))))) |ET| 
-1  |BT| (ROOT (S (VP (VB (gon))(TO (na))(VB (get)))(PP (IN (into)))(NP (NN (shape)))(VP (VB (be)))(NP (JJ (skinny))(NN (date))(JJ (hot))(NNS (guy)))(VP (VB (have))(JJ (anwsome)))(NP (NN (life))(CD (<)))(LST (CD (3))))) |ET| 
-1  |BT| (ROOT (S (NP (VB (goin))(TO (to))(NNP (hang))(NNP (out)))(PP (IN (with)))(NP (NNP (friends)))(VP (NNP (tonite))))) |ET| 
-1  |BT| (ROOT (S (NP (NNS (girl)))(VP (MD (can))(RB (not))(VB (live)))(PP (IN (with)))(NP (PRP (they)))(NP (FW (i)))(VP (MD (can))(RB (sure)))(PP (IN (in)))(NP (DT (the))(NN (hell)))(VP (VB (live)))(PP (IN (without)))(NP (PRP (they))))) |ET| 
1  |BT| (ROOT (S (VP (VBN (excite)))(PP (IN (for)))(NP (DT (the))(JJ (new))(NNS (beginning)))(NP (DT (this))(JJ (next))(NN (month)))(VP (MD (will))(VB (bring))))) |ET| 
1  |BT| (ROOT (S (NP (`` ("))(RB (sara)))(NP (PRP (you)))(VP (VBP (be)))(NP (DT (the))(NN (poet)))(PP (IN (in)))(NP (PRP$ (my))(NN (heart))))) |ET| 
1  |BT| (ROOT (S (NP (NNP (:}))(NNP (<)))(NP (CD (3))(NNP (great))))) |ET| 
-1  |BT| (ROOT (S (SBAR (IN (if)))(NP (PRP (you)))(VP (VBP (feel)))(SBAR (IN (like)))(NP (PRP (you)))(VP (NN (cant))(VBP (trust)))(NP (DT (any)))(PP (IN (of)))(NP (DT (these))(NNS (bitch)))(PP (IN (like)))(NP (DT (this))(NN (comment))))) |ET| 
-1  |BT| (ROOT (S (NP (RB (sometimes))(NNS (thing)))(VP (VBP (be))(RB (really)))(ADVP (WRB (how)))(NP (PRP (they)))(VP (VBP (appear))))) |ET| 
-1  |BT| (ROOT (S (NP (NNP (lmao))(NNP (:}))(NNP (jashaelyn)))(VP (VBZ (say)))(NP (VB (daddy))(JJ (pretty))(NNS (toe)))(SBAR (IN (as)))(NP (PRP (she))(NNS (dump))(CC (and))(NNS (lick))(VB (go-gurt)))(PP (RP (off)))(NP (PRP$ (she))(NNS (toe))))) |ET| 
1  |BT| (ROOT (S (NP (NN (something)))(VP (MD (must))(VB (die))(TO (to))(VB (be))(JJ (reborn))))) |ET| 
1  |BT| (ROOT (S (NP (NNP (truth)))(VP (VBZ (be)))(NP (NN (everybody)))(VP (VBZ (be))(VBG (go))(TO (to))(VB (hurt)))(NP (PRP (you))))(S (NP (PRP (you)))(ADVP (RB (just)))(VP (VBD (get))(RB (ta))(VB (find)))(NP (DT (the))(NNS (one))(IN (worth)))(VP (VBG (suffer)))(PP (IN (for))))(S (NP (: (-))(NNP (bob))(NNP (marley)))(UCP (VBP (~))))) |ET| 
1  |BT| (ROOT (S (NP (PRP (i)))(VP (VBP (have))(VBN (do)))(NP (DT (another))(JJ (trapolining))(NN (competition)))(PP (IN (in)))(NP (NNP (paignton)))(NP (FW (i)))(VP (VBD (come))))) |ET| 
-1  |BT| (ROOT (S (NP (NNP (peace)))(NP (NNP (love))))) |ET| 
-1  |BT| (ROOT (S (NP (RB (barbars)))(NP (PRP (it)))(VP (VBZ (be)))(ADVP (RB (then))(JJ (:'})))(NP (NN (tonight)))(VP (MD (will))(VB (be)))(ADJP (JJ (sick))))) |ET| 
-1  |BT| (ROOT (S (PP (IN (in)))(NP (DT (the))(NN (mood)))(VP (TO (to))(VB (dress)))(PRT (RP (up)))(PP (IN (in)))(NP (NN (kimono)))(ADVP (RB (again))))(S (NP (VBD (<))(CD (3))))) |ET| 
1  |BT| (ROOT (S (NP (NN (tomorrow))(PRP$ (its))(NN (woza))(VBD (friday.and))(JJ (sad))(CC (but))(JJ (true))(DT (the))(NN (weekend)))(VP (MD (will))(VB (fly)))(PP (IN (by)))(SBAR (IN (before)))(NP (PRP (you)))(VP (MD (can))(RB (even))(VB (start))(VBG (relax))))) |ET| 
1  |BT| (ROOT (S (NP (JJ (happy))(NNS (mother))(NN (day))(VBD (<)))(LST (CD (3))))) |ET| 
1  |BT| (ROOT (S (ADVP (WRB (where)))(NP (DT (those))(NN (crab))(NNS (photo)))(PP (IN (from)))(NP (NN (camp))))) |ET| 
-1  |BT| (ROOT (S (PP (VB (like)))(NP (PRP$ (my))(NNS (staus))(CC (and))(RB (ill)))(VP (VB (tell)))(NP (PRP (you)))(NP (WP (what)))(VP (FW (i))(NN (think)))(PP (IN (of)))(NP (NN (u))(NN (lol))))) |ET| 
-1  |BT| (ROOT (S (NP (DT (the))(NN (bible))(VBZ (scare)))(NP (PRP (i)))(NP (PRP$ (its))(RB (very))(JJ (interesting)))(VP (TO (to))(VB (read)))(PP (IN (at)))(NP (DT (the))(JJ (same))(NN (time))))) |ET| 
-1  |BT| (ROOT (S (NP (EX (there)))(VP (VBP (aint)))(NP (CD (one))(NN (part)))(PP (IN (of)))(NP (PRP (i)))(NP (VBZ (that))(JJ (sweet)))(ADVP (IN (so)))(VP (VBP (expect)))(NP (DT (a))(JJ (bad))(NN (gurl))))) |ET| 
1  |BT| (ROOT (S (NP (PRP (you)))(VP (VBG (kid)))(NP (NNP (me))))(S (NP (NNS (>))(VBP (<))(NNP (come)))(PP (IN (on)))(NP (NNP (mexico))))) |ET| 
1  |BT| (ROOT (S (PP (IN (in)))(NP (DT (the))(VBP (end))))(S (NP (NNP (love)))(VP (VBZ (be)))(NP (NNP (all))(NNP (that))(NNP (matters))))(S (VP (NNP (everything)))(NP (NNP (else)))(VP (VBZ (be)))(NP (NNP (false))))) |ET| 
1  |BT| (ROOT (S (NP (NNP (josh))(CC (&))(NNP (lilly)))(VP (VBP (be)))(PP (IN (on)))(NP (DT (the))(NN (road)))(PP (TO (to)))(NP (NNP (stillwater))))(S (NP (PRP (they)))(VP (VBP (be)))(VP (VBG (take)))(NP (DT (the))(JJ (written))(VBG (drive))(NN (test))))) |ET| 
-1  |BT| (ROOT (S (NP (NNP (we))(NNP (girl))(NNP (scout)))(VP (MD (will))(VB (be)))(NP (NNP (at))(NNP (panda))(NNP (express))(NNP (all))(NNP (day))))(S (VP (NNP (come)))(NP (NNP (help))(NNP (our))(NNP (girls))))) |ET| 
-1  |BT| (ROOT (S (VP (VBZ (be)))(UCP (VBG (pack)))(VP (VBG (clean)))(VP (VBG (study))))(S (NP (CD (two))(NNS (exam)))(NP (NN (tomorrow)))(VP (RB (then))(VBG (go)))(ADVP (NN (home))))) |ET| 
-1  |BT| (ROOT (S (VP (VBG (wait)))(PP (IN (for)))(NP (NNP (friday)))(VP (TO (to))(VB (come))))) |ET| 
1  |BT| (ROOT (S (NP (PRP (i)))(VP (VBD (get)))(NP (CD (99))(NNS (problem)))(VP (VB (thank)))(NP (NN (god)))(NP (DT (a))(NN (man))(VB (aint)))(NP (CD (one))(NN (lol))))) |ET| 
1  |BT| (ROOT (S (NP (NNP (truth)))(VP (VBZ (be)))(ADVP (RB (sometimes)))(ADJP (JJ (hard)))(VP (TO (to))(VB (tell)))(SBAR (IN (that)))(NP (PRP (we)))(VP (VBP (need)))(NP (NN (fiction)))(VP (TO (to))(VB (make)))(NP (PRP (it)))(ADJP (JJ (credible))))) |ET| 
1  |BT| (ROOT (S (NP (VB (yum))))(S (NP (NN (blueberry))(VBZ (waffle))))(S (SBAR (IN (with)))(NP (NN (bacon))(NN (eg)))(NP (NN (orange))(NN (juice))))) |ET| 
-1  |BT| (ROOT (S (NP (VBZ (think)))(SBAR (IN (that)))(NP (DT (the))(NNP (italy)))(SBAR (NNP (vs)))(NP (NNP (slovakia)))(VP (VBD (be)))(PP (IN (by)))(NP (RB (far))(DT (the))(JJS (best))(NN (game)))(ADVP (RB (so))(RB (far))))) |ET| 
-1  |BT| (ROOT (S (NP (PRP (we)))(VP (MD (can))(VB (pretend)))(NP (PRP (you)))(ADVP (RB (never)))(ADVP (RB (even)))(VP (VBD (know)))(NP (PRP (i))))(S (NP (PRP (it)))(VP (MD (would))(VB (work)))(PRT (RP (out))))(S (VP (VBP (do))(RB (not))(VB (let))(VB (go)))(PP (IN (of)))(NP (DT (that))(CD (one)))(NP (PRP (i)))(VP (MD ('ll))(VB (find)))(NP (NN (mine))))) |ET| 
-1  |BT| (ROOT (S (NP (NNP (good))(NNP (nite))(NNP (fb/my))(VBZ (thought))(NN (r)))(PP (IN (with)))(NP (NNP (my))(NNP (lovin))(NNP (cousin)))(NP (WP (who)))(VP (VBD (lost)))(NP (NNP (her))(NNP (husband))(NNP (this))(NNP (mornin))))(S (NP (NNP (shannon)))(NP (PRP (i)))(VP (VBP (love)))(NP (JJ (dearly))))(S (NP (NNP (/))(NNP (/)))(PP (NNP (/)))(NP (NNP (eveybody))(NNP (keep))(NNP (her)))(PP (IN (in)))(NP (NNP (ur))(NNP (thoughts)))(PP (NNP (thru)))(NP (DT (the))(NNP (next))(NNP (few))(NNP (weeks))(NNP (thzs))(NNP (love))(NNP (u))(NNP (all))))) |ET| 
1  |BT| (ROOT (S (NP (EX (there)))(VP (MD (will))(VB (be)))(NP (DT (no))(NN (sporking)))(PP (IN (in)))(NP (DT (this))(NN (house))))) |ET| 
1  |BT| (ROOT (S (VP (MD (will))(VB (be)))(PP (IN (in)))(NP (NNP (sacramento)))(NP (DT (this))(NNP (friday))))(S (VP (VB (be))(JJ (cool))(TO (to))(VB (see)))(NP (NN (everyone))))) |ET| 
1  |BT| (ROOT (S (NP (JJ (loveddd))(DT (the))(NN (beach))(CC (&)))(VP (NN (doesnt)))(VP (TO (to))(VB (come)))(ADVP (RB (back))))) |ET| 
-1  |BT| (ROOT (S (NP (DT (this))(NN (rain)))(ADVP (RB (really)))(VP (VBZ (need))(TO (to))(VB (stop))))) |ET| 
-1  |BT| (ROOT (S (NP (NNP (thinks)))(NP (DT (this))(NNS (holiday)))(VP (MD (should))(VB (be)))(ADJP (JJ (sick)))(NP (NNP (especially)))(NP (DT (this))(NN (weekend))(VBD (:}))))(S (NP (NNP (jake))(NNP (simpson))))) |ET| 
-1  |BT| (ROOT (S (NP (NNS (kid)))(PP (IN (in)))(NP (DT (the))(NN (bed)))(NP (RB (now))(NNP (its))(NNP (mommy))(VBP (time))))) |ET| 
1  |BT| (ROOT (S (VP (VBD (have)))(NP (DT (a))(JJ (great))(NN (time)))(VP (VBG (hang)))(PRT (RP (out)))(PP (IN (with)))(NP (PRP$ (my))(NN (friend))(NNP (jack))(NNP (e.))(NNP (wells)))(VP (VBG (tour)))(PP (IN (around)))(NP (NNP (dallas)))(NP (NN (today))))) |ET| 
1  |BT| (ROOT (S (NP (NNPS (clothes)))(ADVP (RB (never)))(VP (VBZ (make)))(NP (PRP (we)))(NP (DT (the))(JJ (gentle))(NN (person)))(NP (DT (the))(NN (character)))(VP (VBZ (make))))(S (NP (NNP (success)))(VP (VBZ (be)))(ADJP (JJ (permanent))(NN (wen)))(NP (PRP (we)))(VP (VBP (acheive)))(NP (PRP (it)))(PP (IN (without)))(VP (VBG (destroy)))(NP (PRP$ (we))(NN (character))))) |ET| 
1  |BT| (ROOT (S (NP (JJ (live))(NN (life)))(PP (IN (by)))(NP (NNS (can)))(CONJP (RB (instead))(IN (of)))(NP (NNS (cannot))))) |ET| 
-1  |BT| (ROOT (S (PP (IN (on)))(NP (DT (a))(NN (school))(NN (trip)))(PP (IN (with)))(NP (CD (40))(NNS (middler))))(S (NP (FW (i)))(VP (MD (must))(VB (be)))(NP (JJ (crazy))(CD (4))))) |ET| 
-1  |BT| (ROOT (S (NP (PRP (i)))(ADVP (RB (just)))(VP (VBD (find)))(NP (DT (a))(NN (nest)))(PP (IN (of)))(NP (NN (lady))(NNS (bug))))(S (NP (EX (there)))(VP (VBP (be)))(NP (IN (over))(CD (200)))(ADVP (RB (up)))(PP (IN (behind)))(NP (PRP$ (my))(NN (house)))(PP (IN (on)))(NP (DT (a))(NN (grave)))(PP (IN (of)))(NP (NNS (someone))(JJ (pet))))(S (NP (NNP (odd))(VBP (place)))(PP (IN (for)))(NP (PRP (they))))) |ET| 
-1  |BT| (ROOT (S (NP (NNP (<))(LS (3))(VB (thank))(NN (god)))(NP (PRP (i)))(VP (VBP (be)))(NP (DT (a))(JJ (independent))(NN (fight)))(PP (IN (against)))(NP (NNP (<))(CD (3))))) |ET| 
1  |BT| (ROOT (S (NP (VBZ (need)))(VP (TO (to))(VB (finish)))(NP (PRP$ (my))(NN (summer))(NN (reading.now)))(VP (TO (to))(VB (force)))(NP (PRP (myself)))(VP (TO (to))(VB (read))(VBG (found)))(NP (NNPS (brothers))(JJ (*))(NNS (shudder))(VBP (*))(NNP (d))))) |ET| 
1  |BT| (ROOT (S (VP (VBZ (be))(VBN (determine))(TO (to))(VB (look)))(ADJP (JJ (old))))) |ET| 
1  |BT| (ROOT (S (ADVP (RB (really)))(VP (VBG (like)))(NP (DT (this))(JJ (almost-ninety-degree))(JJ (warm))(NN (weather))(SYM (=))(NNP (d))))) |ET| 
-1  |BT| (ROOT (S (VP (VBG (get)))(PRT (RP (up)))(VP (VBZ (be)))(ADJP (JJ (hard)))(VP (TO (to))(VB (do)))(NP (RB (damn))(JJ (rainy))(NN (weather))))) |ET| 
-1  |BT| (ROOT (S (NP (NN (anything)))(VP (VBZ (be)))(ADJP (JJ (possible))))) |ET| 
-1  |BT| (ROOT (S (NP (VB (humm)))(VP (WP (what))(TO (to))(VB (do)))(PP (TO (to)))(NP (NN (day))))) |ET| 
1  |BT| (ROOT (S (VP (VBG (leave)))(PP (IN (for)))(NP (NNP (castlegar)))(NP (NN (tomorrow))(NN (morning)))(PP (IN (at)))(NP (CD (5))))(S (ADVP (RB (back)))(PP (IN (on)))(NP (VBP (like))(NNP (thursday))))) |ET| 
1  |BT| (ROOT (S (NP (RB (ok)))(VP (VB (let)))(NP (POS ('s)))(VP (VB (do)))(NP (PRP (it))))(S (NP (NNP (*))(NNP (pone))(NNP (eye)))(PP (IN (of)))(NP (DT (the))(NN (tiger)))(NP (CD (8))(-RRB- (-rrb-))(NNP (de))(NNP (fondo))(NNP (*))))) |ET| 
1  |BT| (ROOT (S (NP (VB (disregard))(JJ (last))(NN (status))(NN (update.it)))(VP (VBD (be)))(NP (DT (a))(NN (moment)))(PP (IN (of)))(NP (NN (inspration)))(PP (IN (for)))(NP (DT (a))(NN (poem))(NN (im))(VBG (write))))) |ET| 
-1  |BT| (ROOT (S (VP (VBD (watch)))(NP (DT (the))(NNPS (simpsons)))(VP (VBG (expect)))(NP (NNP (glee)))(VP (VBD (see)))(NP (NN (flight)))(PP (IN (of)))(NP (DT (the))(NNPS (conchords))))(S (NP (NNP (way)))(ADVP (RBR (more))(JJ (awesome))))) |ET| 
-1  |BT| (ROOT (S (VP (VBN (complete)))(NP (DT (the))(CD (1st)))(PP (IN (of)))(NP (CD (5))(JJ (new))(NNS (recipe)))(NP (JJ (tonight.traditional))(NNP (spanish))(NN (paellum)))(PP (IN (with)))(NP (NN (chicken))(CC (and))(NN (seafood)))(ADVP (RB (down)))(NP (CD (4)))(VP (TO (to))(VB (go))))) |ET| 
-1  |BT| (ROOT (S (VP (VB (thank)))(NP (PRP (ya)))(UCP (MD ('ll)))(SBAR (RB (off)))(NP (PRP (i)))(VP (VB (go)))(ADVP (RB (now)))(VP (TO (to))(VB (wallow)))(PP (IN (in)))(NP (PRP$ (my))(NNS (oldness))))) |ET| 
1  |BT| (ROOT (S (NP (NN (tonight)))(VP (VBZ (be))(VBG (go))(TO (to))(VB (be)))(ADJP (JJ (awesome))))) |ET| 
1  |BT| (ROOT (S (VP (VBZ (want)))(PP (TO (to)))(NP (VB (put)))(PRT (RP (up)))(NP (DT (the))(JJ (periodic))(NN (table)))(PP (IN (of)))(NP (JJ (nom))(NNS (photo))))) |ET| 
1  |BT| (ROOT (S (VP (VBZ (be)))(VP (VBG (try))(RB (not))(TO (to))(VB (get)))(NP (DT (a))(NN (cold))))) |ET| 
-1  |BT| (ROOT (S (VP (VBZ (be)))(NP (DT (a))(NN (disturber)))(PP (IN (of)))(NP (DT (the))(NN (peace))))) |ET| 
-1  |BT| (ROOT (S (VP (VBZ (be)))(ADVP (RB (really))(NN (tired.when)))(VP (MD (will))(NN (today))(VB (end))))) |ET| 
-1  |BT| (ROOT (S (NP (VBZ (who)))(VP (VBG (go))(TO (to))(VB (swanny)))(NP (NN (hill))(NN (tmrw))))) |ET| 
1  |BT| (ROOT (S (NP (RB (just))(VBD (hear)))(NP (PRP (they)))(VP (VBP (be))(VBG (make)))(NP (NNP (scream))(CD (4)))(VP (UH (oh)))(NP (PRP$ (my))(NN (goodness))))(S (NP (NNP (:d)))(VP (NNP (d))))) |ET| 
1  |BT| (ROOT (S (ADVP (RB (ever)))(VP (VBP (get)))(NP (DT (those))(NNS (moment)))(ADVP (WRB (when)))(NP (NN (u)))(ADVP (RB (just)))(VP (VBP (smile)))(PP (IN (for)))(NP (DT (no))(JJ (apparant))(NN (reason))))(S (NP (FW (i)))(VP (VB (do)))(SBAR (IN (that)))(NP (PDT (all))(DT (the))(NN (time))))) |ET| 
1  |BT| (ROOT (S (VP (VBD (find)))(NP (JJ (new))(VB (thrash))(NN (metal))(NNS (band))))) |ET| 
-1  |BT| (ROOT (S (VP (MD (could))(RB (not))(VB (be)))(ADJP (RBR (more))(VBN (ruin))))(S (NP (PRP$ (its))(NNP (friday))(NN (eve))(VBZ (lettssssss)))(VP (VB (get))(VBN (fuck))))) |ET| 
-1  |BT| (ROOT (S (NP (RB (ok)))(VP (NN (ok)))(NP (NN (ok))(VBP (question))(NN (time))))(S (NP (DT (a))(FW (i)))(VP (MD ('ll))(VB (try))(TO (to))(VB (answer))))) |ET| 
-1  |BT| (ROOT (S (NP (NN (optimism)))(NP (NNP (waiting)))(PP (IN (for)))(NP (DT (a))(NN (ship)))(VP (TO (to))(VB (come)))(PP (RP (in)))(ADVP (WRB (when)))(NP (PRP (you)))(VP (VBP (have))(RB (not))(VBD (send)))(NP (CD (one)))(PRT (RP (out))))) |ET| 
1  |BT| (ROOT (S (NP (JJS (best))(CC (or))(DT (the))(JJS (worst))(NN (part)))(PP (IN (of)))(NP (NN (anything)))(VP (VBZ (be)))(ADVP (EX (there)))(VP (VBZ (be)))(NP (DT (a))(DT (the))(NN (end))))(S (ADVP (WRB (when)))(NP (PRP$ (its)))(NP (DT (the))(NN (end)))(NP (POS ('))(NN (nothing)))(ADVP (RB (really))(VBP (matter))))) |ET| 
1  |BT| (ROOT (S (VP (VB (let))(VB (go)))(PP (IN (of)))(NP (DT (the))(VBN (fade)))(SBAR (IN (so)))(NP (EX (there)))(VP (VBZ (be)))(NP (NN (room)))(SBAR (IN (for)))(NP (DT (the))(JJ (vibrant))))) |ET| 
1  |BT| (ROOT (S (VP (VBZ (let))(VB (see)))(ADVP (WRB (how)))(NP (DT (the))(NN (case)))(VP (VBZ (go)))(NP (PRP$ (my))(JJ (first))(NN (day)))(PP (IN (of)))(NP (PRP$ (my))(JJ (first))(NN (trial))))) |ET| 
-1  |BT| (ROOT (S (VP (VB (decorate)))(NP (DT (the))(JJ (common))(NN (room))))(S (NP (NNP (haha))))) |ET| 
-1  |BT| (ROOT (S (NP (DT (the))(JJS (worst))(NN (night)))(PP (IN (in)))(NP (NN (town)))(ADVP (RB (ever))))(S (NP (NNP (should)))(PP (IN (of)))(NP (RB (just)))(VP (VBD (go)))(PP (TO (to)))(NP (NN (bed))))) |ET| 
-1  |BT| (ROOT (S (PP (IN (as)))(NP (NNP (days))(NNP (go))(NNP (by))(NNP (im))(NNP (startin))(TO (to))(VBP (see))(NNS (thing)))(PP (IN (for)))(NP (WDT (what)))(NP (NNP (they))(NNP (really))(NNP (are.but)))(PP (IN (in)))(NP (DT (the))(NNP (end)))(NP (DT (the))(NNP (only))(NNP (thing))(NNP (that))(NNP (matters)))(VP (VBZ (be)))(NP (NNP (my))(NNP (kids))(NNP (:}))))(S (NP (NN (sry)))(SBAR (IN (if)))(NP (VBP (u)))(VP (JJ (dont))(VBP (understand)))(SBAR (DT (that))))) |ET| 
1  |BT| (ROOT (S (NP (VB (hummmmm)))(UCP (WP (what)))(VP (TO (to))(VB (do))))) |ET| 
1  |BT| (ROOT (S (NP (NN (time)))(VP (TO (to))(VB (go))))) |ET| 
1  |BT| (ROOT (S (NP (PRP (i)))(VP (VBP (need))(TO (to))(VB (go)))(PP (TO (to)))(NP (VB (sleep))))) |ET| 
-1  |BT| (ROOT (S (NP (VB (bout)))(VP (TO (to))(VB (go)))(PP (TO (to)))(NP (NN (school))))) |ET| 
-1  |BT| (ROOT (S (NP (PRP (i)))(VP (VBP (love))(VBG (listen)))(PP (TO (to)))(NP (NN (dvd))(NNS (commentary))))) |ET| 
-1  |BT| (ROOT (S (ADVP (NNP (alright)))(NP (PRP (he)))(VP (VBZ (be))(VBN (goin))(TO (to))(VB (sleep)))(NP (VB (need)))(NP (NN (someone)))(ADJP (RB (else)))(VP (TO (to))(VB (talk)))(PP (TO (to))))) |ET| 
1  |BT| (ROOT (S (VP (VBD (have)))(NP (DT (a))(JJ (awesome))(NN (day))))(S (NP (DT (the))(NNP (game))(VBD (be))(NNP (sooo))(NNP (intense))))(S (NP (NNP (haha)))(VP (NNP (:})))(NP (VBZ (charger))(NNP (ftw))))(S (ADVP (RB (again))))) |ET| 
1  |BT| (ROOT (S (NP (NNP (teamwork)))(VP (VBZ (make)))(NP (DT (the))(NN (dream))(NN (work))))(S (NP (NNP (teamwork))))) |ET| 
1  |BT| (ROOT (S (NP (RB (just)))(VP (VBD (lose)))(NP (DT (the))(NN (game))))(S (NP (CC (and))(NNP (so))(NNP (did))(PRP (you))(NNP (hahahahahahahahaha))))) |ET| 
-1  |BT| (ROOT (S (NP (DT (the))(NNS (busy)))(VP (VBP (have))(RB (just))(VBN (be))(VBD (bully))))) |ET| 
-1  |BT| (ROOT (S (VP (VBZ (be)))(VP (VBG (have)))(NP (DT (the))(JJS (most))(JJ (relaxing))(NN (summer))(NN (alhumdulillah))))) |ET| 
-1  |BT| (ROOT (S (NP (NNP (quietness)))(VP (VBZ (be)))(NP (DT (the))(NN (soul)))(PP (IN (of)))(NP (NN (life))))) |ET| 
1  |BT| (ROOT (S (VP (VB (come)))(PP (TO (to)))(NP (NN (school)))(SBAR (RB (even))(IN (though)))(NP (JJ (walang))(NN (pasok))))) |ET| 
1  |BT| (ROOT (S (NP (FW (i)))(VP (NN (hate))(VBG (be))(VBD (lie)))(PP (TO (to)))(NP (RB (so))(RB (much))))) |ET| 
1  |BT| (ROOT (S (ADVP (RB (back)))(PP (TO (to)))(NP (VB (work))))(S (NP (RB (not)))(ADVP (RB (really)))(VP (VBG (want))(TO (to))(VB (be)))(ADVP (RP (back)))(PP (IN (at)))(NP (NN (work))))) |ET| 
-1  |BT| (ROOT (S (NP (VB (work)))(ADVP (RB (tonight))))(S (ADVP (RB (finally))))) |ET| 
-1  |BT| (ROOT (S (ADVP (RB (finally)))(NP (NN (im)))(VP (VBD (finish)))(ADVP (RB (packin.ready)))(VP (TO (to))(VB (go)))(UCP (RB (:})))(UCP (RB (so)))(UCP (JJ (excited))))) |ET| 
-1  |BT| (ROOT (S (NP (NN (hahaha))))(S (NP (FW (i)))(ADVP (NN (jus)))(VP (VBD (remember)))(NP (WP (what)))(VP (VBD (happen)))(NP (JJ (last))(NN (night))))(S (NP (FW (i)))(VP (VBP (be))(VBG (go))(TO (to))(VB (pretend)))(NP (VBP (that))(RB (never))(VBN (happen))))) |ET| 
1  |BT| (ROOT (S (NP (PRP (i)))(VP (VBP (have)))(NP (DT (the))(JJS (best))(NN (mom)))(PP (IN (in)))(NP (DT (the))(NN (world))))) |ET| 
1  |BT| (ROOT (S (NP (NN (worry)))(VP (VBZ (be)))(NP (DT (a))(NN (mis-use)))(PP (IN (of)))(NP (NN (imagination))))) |ET| 
1  |BT| (ROOT (S (VP (VBZ (be)))(NP (NNP (pissed))))) |ET| 
-1  |BT| (ROOT (S (VP (VBZ (love)))(NP (DT (the))(NN (weather))))) |ET| 
-1  |BT| (ROOT (S (VP (VBZ (be)))(ADJP (RP (up)))(PP (IN (in)))(NP (DT (the))(NN (air)))(PP (IN (with)))(NP (PRP$ (my))(JJ (favorite))(NN (pilot))))) |ET| 
-1  |BT| (ROOT (S (PP (IN (at)))(NP (NNS (mason)))(ADVP (VBP (bball))(VBN (practice.then))(RP (off)))(PP (TO (to)))(NP (NN (bed))))) |ET| 
1  |BT| (ROOT (S (NP (NN (man))(DT (this)))(VP (VBZ (be)))(NP (DT (the))(JJ (3rd))(NN (night)))(PP (FW (i)))(NP (NN (cant))(NN (sleep))(NN (cuz)))(NP (VBP (im)))(ADJP (JJ (sick))))(S (NP (FW (i)))(VP (NN (hate)))(NP (DT (this))))(S (VP (VBG (look)))(ADVP (RB (forward)))(PP (TO (to)))(VP (VBG (throw)))(PRT (RP (away)))(NP (PRP$ (my))(NN (past)))(PP (IN (for)))(NP (JJ (good))(NN (tomorrow))))) |ET| 
0.97437451463200264178965426253853  |BT| (ROOT (S (NP (NN (anyone)))(ADVP (RB (still)))(VP (VBG (use)))(NP (DT (the))(NN (kik))(NN (messenger))(VBZ (app))))(S (SBAR (IN (if)))(ADVP (RB (so)))(SBAR (VBZ (inbox)))(NP (PRP (i)))(NP (PRP$ (you))(NN (username))))) |ET| 
1  |BT| (ROOT (S (NP (VBZ (wat)))(NP (DT (a))(JJ (emogul))))(S (NP (VB (im)))(ADVP (RB (really)))(VP (VBN (confuse))))) |ET| 
-1  |BT| (ROOT (S (NP (NNP (well))(VBD (good))(NNP (nite))(NNP (fb))(NNP (love))(NNP (u))(NNP (all))))(S (NP (NNP (back)))(VP (TO (to))(VBP (work)))(NP (DT (a))(DT (the))(NNP (mommies))(NNP (duties)))(PP (CD (2morrow)))(NP (-LRB- (-lrb-)))(NP (PRP (i)))(VP (VBP (love))(VBG (be)))(NP (DT (a))(NN (mother))(-RRB- (-rrb-))))) |ET| 
-1  |BT| (ROOT (S (NP (PRP (i)))(PP (VBP (have)))(NP (DT (the))(JJ (best))(NNP (day))(NNP (e))(NNP (v))(NN (e))(NN (r))))(S (NP (NNP (mom))(VBD (thank))(NNP (u))(NNP (so))(NNP (much))))(S (NP (NNP (gary)))(NP (PRP (i)))(VP (NNP (love)))(NP (NNP (u))(JJR (more))(JJ (every))(NNP (day))(VBD (thank))(NNP (u)))(PP (IN (for)))(NP (DT (a))(JJ (great))(NN (evenin))))) |ET| 
-1  |BT| (ROOT (S (VP (NNP (havin)))(NP (DT (a))(RB (pretty))(JJ (good))(NN (day)))(ADVP (RB (so))(RB (far.only)))(NP (NNP (god)))(VP (MD (can))(JJ (help.u)))(ADVP (RB (just)))(VP (VB (have))(TO (to))(VB (ask)))(NP (DT (a))(VBZ (belive.thxs))(NNP (jesus)))(PP (IN (for)))(NP (PRP (he)))(VP (VB (work)))(NP (NN (u))(SYM (r))(NN (doin)))(PP (IN (in)))(NP (PRP$ (my))(NN (life))))) |ET| 
1  |BT| (ROOT (S (NP (FW (i)))(VP (MD ('ll))(VB (be)))(PP (IN (in)))(NP (DT (the))(NN (sky))))) |ET| 
1  |BT| (ROOT (S (NP (VB (work)))(NP (NN (today)))(PP (IN (at)))(NP (CD (2))))) |ET| 
1  |BT| (ROOT (S (PP (FW (i)))(NP (NN (love)))(NP (DT (this))(NN (weather))(CD (<))(CD (3))))) |ET| 
-1  |BT| (ROOT (S (NP (FW (i))(NN (wish)))(VP (FW (i)))(VP (MD (could))(VB (start)))(ADVP (RB (again)))(NP (DT (a))(CD (million))(NNS (mile)))(ADVP (RB (away))))) |ET| 
-1  |BT| (ROOT (S (SBAR (IN (if)))(NP (FW (i)))(VP (VBD (be))(TO (to))(VB (die)))(NP (WP (what)))(VP (MD (would))(VB (be)))(NP (PRP$ (you))(JJ (last))(NNS (word)))(PP (TO (to)))(NP (PRP (i))))) |ET| 
-1  |BT| (ROOT (S (VP (VB (look)))(PP (IN (at)))(NP (PDT (all))(DT (that))(JJ (lonely))(NNS (people))))) |ET| 
1  |BT| (ROOT (S (NP (NNP (straight))(NNP (ones)))(NP (NNP (at))(NNP (region))(NNP (marching))(NNP (contest))))(S (NP (VBP (:d)))(VP (WP$ (whose)))(ADJP (JJ (amazing))))(S (NP (DT (the))(NNP (charger))(NNP (band))(NNPS (thats)))(NP (WP (who)))(NP (NNP (d))))) |ET| 
1  |BT| (ROOT (S (VP (VBZ (be)))(PP (IN (about)))(UCP (TO (to)))(VP (VB (go)))(PP (TO (to)))(NP (NN (bed)))(NP (DT (the))(JJ (big))(NN (question)))(VP (VBZ (be)))(NP (WP (what))(NN (film)))(VP (TO (to))(VB (watch))))(S (NP (DT (the))(NNS (choice)))(VP (VBP (be)))(NP (RB (almost))(NNP (famous)))(ADVP (NNP (twilight)))(NP (NN (sex)))(NP (DT (the))(NNP (city))(NNP (movie))(CC (or))(NNP (high))(NNP (fidelity))))) |ET| 
1  |BT| (ROOT (S (NP (PRP$ (its))(DT (a))(NNP (saturday))(NN (night)))(NP (FW (i)))(VP (VBP (have)))(NP (NNS (58friend)))(PP (IN (on)))(NP (NN (facebook))))(S (VP (VBP (ive)))(ADJP (RB (very))(JJ (popular)))(VP (VBP (have)))(NP (NN (alot)))(PP (IN (of)))(NP (NNS (friend))))(S (NP (PDT (all))(PRP$ (my))(NNS (friend)))(VP (VBP (have)))(NP (DT (no))(NNS (life))))(S (NP (NN (lol))(VBZ (prob)))(ADVP (WRB (why)))(NP (PRP (they))(NNS (friend)))(PP (IN (with)))(NP (PRP (i)))(NP (VBP (p))))) |ET| 
-1  |BT| (ROOT (S (NP (VB (needz)))(NP (DT (the))(JJ (light))))(S (NP (PRP (i)))(VP (VBP (<)))(NP (CD (3))(NNP (matthew))))) |ET| 
-1  |BT| (ROOT (S (NP (NN (family)))(PP (IN (on)))(NP (PRP$ (we))(NN (way)))(VP (TO (to))(VB (church.have)))(ADVP (VBD (alot)))(VP (TO (to))(VB (give)))(PP (TO (to)))(NP (DT (the))(NN (lod)))(NP (NN (today))))(S (NP (JJ (alot))(NN (goin))(IN (thru)))(NP (PRP$ (my))(NN (mind.thenfamily))(VBZ (pic)))(PP (IN (at)))(NP (CD (3))))) |ET| 
-1  |BT| (ROOT (S (ADJP (JJ (happy)))(PP (NNP (tuesday)))(NP (FW (i)))(VP (VBP (feel)))(ADJP (JJ (amazing)))(PP (IN (in)))(NP (DT (the))(NN (office))(NN (ac))))) |ET| 
1  |BT| (ROOT (S (NP (CD (12))(NNS (rat)))(VP (VBD (kill)))(ADVP (RB (still)))(PP (TO (to)))(NP (JJ (many)))(VP (TO (to))(VB (go))))) |ET| 
1  |BT| (ROOT (S (NP (NNS (thanks)))(ADVP (RB (again)))(PP (IN (for)))(NP (DT (the))(NNP (b))(NN (day)))(VP (VBZ (wish)))(NP (PRP (i)))(VP (VB (appreciate)))(NP (PRP (it)))(NP (PRP$ (my))(NNP (fb))(NNS (peep))))) |ET| 
1  |BT| (ROOT (S (NP (NNS (people)))(VP (SYM (r)))(NP (JJ (terrible))(DT (these))(NNS (day))))) |ET| 
-1  |BT| (ROOT (S (NP (MD (can))(PRP (we)))(VP (VB (go)))(ADVP (RB (back)))(PP (TO (to)))(NP (NNP (friday)))(VP (VB (please))))) |ET| 
-1  |BT| (ROOT (S (VP (VBZ (feel)))(ADJP (JJ (good))(TO (to)))(VP (VB (be))(RB (unconditionally))(VBN (love))))) |ET| 
-1  |BT| (ROOT (S (NP (NNP (leeds))(CC (or))(NNP (ebay)))(NP (PRP (it)))(VP (VBZ (be)))(ADVP (RB (then))))) |ET| 
0.90737718613578388637819216455682  |BT| (ROOT (S (VP (VBN (bore)))(PP (IN (at)))(NP (DT (the))(NN (library))))(S (NP (NN (text))(PRP (i)))(VP (NNS (guy))))) |ET| 
1  |BT| (ROOT (S (VP (VBG (watch)))(NP (NNP (clash)))(PP (IN (of)))(NP (DT (the))(NNPS (titans)))(PP (IN (in)))(NP (CD (3d))))(S (NP (PRP (i)))(UCP (DT (a)))(NP (DT (another))(NN (dude)))(PP (IN (in)))(NP (DT (the))(JJ (whole))(NN (cinema))(NN (room))))) |ET| 
1  |BT| (ROOT (S (NP (PRP (i)))(VP (VBP (be)))(PP (IN (in)))(NP (DT (the))(NN (mood)))(PP (IN (for)))(NP (DT (some))(NNP (chili)))(NP (POS ('s))(NN (babyback))(NNS (rib))))(S (NP (VB (extra))(NN (sauce))))) |ET| 
-1  |BT| (ROOT (S (NP (NNP (dress))(NN (shopping)))(PP (IN (for)))(NP (DT (the))(NN (wedding)))(NP (NN (today))))(S (NP (NNP (holla))))) |ET| 
-1  |BT| (ROOT (S (VP (VBG (sit)))(PP (IN (in)))(NP (NN (line)))(PP (IN (for)))(NP (DT (the))(CD (12:30))(NN (showing)))(PP (IN (of)))(NP (NNP (eclispe))))) |ET| 
-1  |BT| (ROOT (S (NP (VBN (chillin)))(PP (IN (with)))(NP (PRP$ (my))(NN (lil))(NN (cuz))))(S (VP (VBD (have)))(NP (NNS (lott)))(PP (IN (of)))(NP (NN (fun)))(NP (NN (today))))) |ET| 
1  |BT| (ROOT (S (NP (PRP$ (its)))(ADVP (RB (so)))(VP (JJ (good))(TO (to))(VB (be)))(ADJP (JJ (alive))))) |ET| 
1  |BT| (ROOT (S (NP (MD (can)))(VP (VB (wait))(TO (to))(VB (go)))(ADVP (RB (back))))) |ET| 
1  |BT| (ROOT (S (ADVP (RB (now)))(NP (PRP (i)))(VP (VBP (remember)))(ADVP (WRB (why)))(NP (PRP (we)))(VP (VBD (stop))(VBG (talk))))(S (NP (PRP (we)))(VP (MD (should))(VB (go)))(ADVP (RB (back)))(PP (TO (to)))(NP (DT (that))))(S (NP (NNP (d))))) |ET| 
-1  |BT| (ROOT (S (NP (RB (omg)))(NP (PRP (i)))(VP (VBP (be)))(ADJP (RB (so))(JJ (happy)))(ADVP (RB (now))))(S (NP (PRP (i)))(VP (VBP (be)))(ADVP (RB (so))(JJ (glad)))(SBAR (IN (that)))(NP (PRP$ (my))(NN (wish)))(VP (VBZ (have))(VBN (come)))(ADJP (JJ (true)))(NP (RB (lol))))) |ET| 
-1  |BT| (ROOT (S (ADVP (WRB (why)))(NP (DT (the))(NNP (fuck)))(VP (VBP (be)))(NP (PRP (i)))(VP (VBP (awake)))(NP (NNP (ahhh))(NNP (way)))(VP (TO (to)))(NP (NNP (early))(NNP (sooo))(NNP (bored))(NNP (maury))))) |ET| 
-1  |BT| (ROOT (S (NP (PRP (i)))(VP (VBP (be))(VBG (go))(TO (to))(VB (be))(VBG (get)))(NP (DT (a))(NN (tatto)))(NP (DT (any))(NNS (suggestion)))(PP (IN (of)))(NP (WP (what)))(NP (PRP (it)))(VP (MD (should))(VB (be))))) |ET| 
1  |BT| (ROOT (S (NP (JJ (happy))(JJ (fourth)))(PP (IN (of)))(NP (NNP (july))(NN (everyone))))(S (VP (VBD (let)))(NP (DT (the))(NNS (cookout)))(VP (VB (begin))))) |ET| 
1  |BT| (ROOT (S (VP (VB (consolidate)))(NP (DT (the))(JJS (best)))(PP (IN (of)))(NP (NN (today))))) |ET| 
1  |BT| (ROOT (S (UCP (VBP (gosh)))(NP (FW (i)))(VP (VB (feel)))(ADJP (JJR (worse)))(PP (IN (than)))(NP (NN (yesterday))))) |ET| 
-1  |BT| (ROOT (S (NP (JJS (worst))(VBP (sleep))(NN (ever.im)))(ADVP (RB (just)))(VP (RB (not))(JJ (havin)))(NP (DT (the))(JJS (best)))(PP (IN (of)))(NP (NN (luck))(NNS (guy))))) |ET| 
-1  |BT| (ROOT (S (VP (MD (can)))(NP (`` ('))(VB (wait)))(PP (IN (till)))(NP (DT (the))(JJ (new))(NN (season)))(PP (IN (of)))(NP (NN (jersey))(NN (shore))))) |ET| 
-1  |BT| (ROOT (S (PP (NN (o)))(NP (NN (man)))(NP (DT (another))(JJ (roarin))(NNP (friday)))(PP (IN (at)))(NP (DT (the))(NN (pad))))) |ET| 
1  |BT| (ROOT (S (NP (PRP (it)))(VP (VBZ (be)))(NP (NNP (saturday)))(NP (DT (no))(JJR (more))(NN (sex)))(NP (DT (the))(NNP (city)))(VP (TO (to))(VB (watch))))(S (NP (WP (what)))(VP (VBP (be)))(NP (PRP (i)))(VP (VBG (go))(TO (to))(VB (do)))(PP (IN (with)))(NP (PRP (myself))))) |ET| 
1  |BT| (ROOT (S (NP (PRP (i)))(VP (VBD (think)))(NP (NNP (transylvania)))(VP (VBZ (be)))(NP (DT (a))(JJ (fictional))(NN (country))))(S (NP (PRP (it)))(VP (VBD (turn)))(PRT (RP (out)))(SBAR (IN (that)))(NP (PRP (it)))(VP (VBZ (be)))(NP (DT (a))(JJ (historical))(NN (country))))) |ET| 
1  |BT| (ROOT (S (VP (NNP (love)))(VP (VBZ (be)))(ADJP (JJ (blind)))(NP (NN (marriage)))(VP (VBZ (be)))(NP (DT (the))(NN (eye-opener))))(S (NP (NNP (pauline))(NNP (thomason))))) |ET| 
-1  |BT| (ROOT (S (ADVP (WRB (why)))(NP (PRP (you)))(VP (VB (let)))(NP (PRP (i)))(VP (VB (stay)))(ADVP (RB (here)))(NP (DT (all)))(PP (IN (by)))(NP (PRP (myself))))(S (NP (PRP (she))(SYM (&))(PRP (he)))(VP (VBZ (be)))(NP (NN (fun))))) |ET| 
-1  |BT| (ROOT (S (VP (VB (fuck)))(NP (PRP (ya)))(NP (PRP (we)))(VP (VBD (win))))(S (PP (IN (after)))(NP (NN (work)))(ADVP (RB (off)))(PP (TO (to)))(NP (NNP (west))(NNP (hollywood)))(VP (TO (to))(VB (celebrate))))) |ET| 
-1  |BT| (ROOT (S (VP (VBZ (be)))(NP (NN (blueberry))(VBG (pick))))(S (ADVP (RB (then)))(VP (VBG (make)))(NP (DT (some))(NN (homemade))(JJ (blueberry))(NN (pie))))) |ET| 
1  |BT| (ROOT (S (VP (VBG (go))(VBG (swim)))(PP (IN (with)))(NP (NNP (michael))(NNP (crawley)))(ADVP (RB (then)))(NP (NN (dinner)))(PP (IN (with)))(NP (NNP (amy))(NNP (sikes))(NNP (-lrb-))))) |ET| 
1  |BT| (ROOT (S (NP (RB (just)))(VP (VBD (get))(VBN (do)))(PP (IN (with)))(NP (DT (the))(JJS (best))(NN (voice))(NN (class)))(ADVP (RB (ever))))) |ET| 
1  |BT| (ROOT (S (NP (NN (love))(CC (and))(NN (peace)))(VP (VBP (be)))(NP (DT (the))(RB (only))(CD (two))(NNS (thing)))(PP (IN (on)))(NP (NN (earth))(JJ (worth))(NN (anything))))) |ET| 
-1  |BT| (ROOT (S (NP (VB (goin)))(VP (TO (to))(VB (have)))(NP (DT (a))(JJ (great))(NN (nite)))(PP (IN (with)))(NP (DT (the))(NN (kids.wishin)))(NP (PDT (all)))(NP (PRP$ (my))(NN (fb))(NNS (friend)))(NP (DT (a))(JJ (happy))(DT (a))(JJ (safe))(NN (halloween))))) |ET| 
-1  |BT| (ROOT (S (NP (NN (psyched))(IN (about))(NN (class))(FW (i)))(VP (VBD (have)))(NP (NN (tonight))(PRP$ (my))(NN (teacher)))(VP (VBZ (be)))(ADJP (JJ (awsome))))(S (NP (PRP$ (its))(DT (a))(NN (flippin))(JJ (terrific))(NN (class))))(S (NP (PRP$ (its))(NN (one)))(ADVP (WRB (where)))(NP (FW (i)))(VP (VBP (get))(TO (to))(VB (have)))(NP (JJS (alot)))(PP (IN (of)))(NP (NNS (opinion)))(VP (FW (hha))))) |ET| 
-1  |BT| (ROOT (S (PP (FW (i)))(NP (NN (love)))(NP (PRP (it)))(ADVP (WRB (how)))(NP (NNS (bird)))(VP (VBP (be)))(NP (RB (so))(VBG (flip))(NN (love)))(PP (IN (in)))(NP (DT (the))(NN (morning))))) |ET| 
1  |BT| (ROOT (S (VP (VB (fuck)))(NP (PRP (it))))(S (NP (PRP (i)))(VP (VBP (be)))(PRT (RP (off)))(NP (DT (this)))(VP (TO (to))(VB (smoke)))(NP (VBN (weed))))) |ET| 
1  |BT| (ROOT (S (NP (PRP (they)))(VP (VBP (be)))(PP (IN (among)))(NP (PRP (we))))(S (NP (PRP (they)))(ADVP (RB (here)))(VP (TO (to))(VB (harm)))(NP (PRP (we)))(VP (VB (save)))(NP (PRP (we))))) |ET| 
1  |BT| (ROOT (S (ADVP (RB (sometimes)))(NP (PRP (it)))(VP (VBZ (be)))(ADJP (JJR (easier)))(VP (TO (to))(VB (hate)))(NP (PRP (you)))(PP (IN (than)))(VP (TO (to))(VB (think)))(PP (IN (about)))(ADVP (WRB (why)))(NP (FW (i))(VB (miss)))(PP (VBP (you.consider)))(NP (PRP (i)))(VP (VBN (go))))) |ET| 
-1  |BT| (ROOT (S (NP (NNS (day)))(VP (VBD (go)))(PP (RP (by)))(NP (PRP (we)))(VP (VBD (wait)))(NP (PRP (i)))(VP (VBP (guess)))(NP (PRP (we)))(VP (VBP (be))(VBG (get)))(ADJP (JJR (older))))(S (NP (PRP (we)))(VP (MD (could))(RB (not))(VB (win)))(PP (IN (in)))(NP (DT (the))(NN (end))))) |ET| 
-1  |BT| (ROOT (S (VP (UH (please))(VB (pray)))(PP (IN (for)))(NP (PRP (we))))(S (NP (NNP (leavin))(NNP (florida)))(VP (TO (to))(VB (come)))(ADVP (RP (back)))(NP (NN (home)))(VP (VBD (get)))(PP (IN (into)))(NP (DT (a))(NN (car))(NN (accident))))) |ET| 
-1  |BT| (ROOT (S (VP (VBP (be)))(NP (PRP (we)))(ADVP (RB (there))(RB (yet))))) |ET| 
1  |BT| (ROOT (S (PP (IN (at)))(NP (DT (that))(NN (airport)))(PP (IN (in)))(NP (NNP (vancouver))))(S (VP (NNP (flying)))(PP (IN (out)))(NP (FW (i))(IN (about))(CD (2))(NNS (hour)))(VP (RB (then))(VBG (fly)))(PP (IN (from)))(NP (NNP (chicago)))(PP (TO (to)))(NP (NNP (birmingham))))(S (ADVP (RB (almost))(VBP (back)))(NP (NN (home))))) |ET| 
1  |BT| (ROOT (S (ADVP (RB (just)))(VP (VBD (get))(VBN (do)))(VP (VBG (have)))(NP (DT (a))(NN (water))(NN (fight)))(PP (IN (with)))(NP (PRP$ (my))(NNS (kid)))(SBAR (IN (while)))(VP (VBG (wash)))(NP (DT (the))(NN (fun-v))))(S (NP (PDT (such))(DT (a))(JJ (nice))(JJ (warm))(NN (day)))(PP (TO (to)))(NP (NN (day))))) |ET| 
1  |BT| (ROOT (S (VP (VBG (take)))(NP (DT (a))(NN (break)))(PP (IN (at)))(NP (NN (work)))(ADVP (RB (so))(RB (far)))(ADJP (RB (so))(JJ (good)))(NP (NNP (b))(`` ("))(NNP (h.)))(NP (PRP (i)))(VP (VBP (love))(VBG (work)))(NP (DT (the))(JJ (first))(NN (day)))(PP (IN (of)))(NP (DT (the))(NN (week))))) |ET| 
-1  |BT| (ROOT (S (VP (VBZ (be))(VBG (shit)))(NP (CD (one))(RB (about)))(VP (TO (to))(VB (go)))(PP (IN (on)))(NP (DT (the))(NN (pitch)))(PP (IN (at)))(NP (NNP (tranmere))))) |ET| 
-1  |BT| (ROOT (S (NP (NNP (power)))(VP (VBZ (be)))(ADVP (RB (back)))(PP (IN (on))))(S (NP (VB (woot))))) |ET| 
-1  |BT| (ROOT (S (NP (NNP (may))(DT (the))(NNP (party))(NNP (begin.my))(NNP (sisters)))(VP (MD (will))(VB (be)))(NP (RB (here))(TO (to))(NNP (help)))(PP (IN (in)))(NP (DT (the))(NNP (am))(CD (.22))(NNP (teenagers))(NNP (imust))(NNP (me))(NNP (out)))(PP (IN (of)))(NP (NNP (my))(NNP (mind))))(S (NP (NNP (nah))(RB (just))(NNP (love))(NNP (happy))(NNP (birthday))(NNP (ty-ty))))) |ET| 
1  |BT| (ROOT (S (NP (NNS (yall)))(VP (VBG (complain)))(NP (IN (about))(NN (rain)))(PP (FW (i)))(NP (VBP (wish)))(NP (PRP (we)))(VP (VBD (have)))(NP (NN (rain))))) |ET| 
1  |BT| (ROOT (S (VP (VBD (have)))(NP (DT (a))(NN (dream)))(PP (IN (about)))(NP (DT (the))(NNP (ap))(NN (gov))(NN (exam)))(NP (JJ (last))(NN (night))))) |ET| 
1  |BT| (ROOT (S (NP (VBZ (that))(JJ (odd)))(NP (PRP$ (my))(NN (arm)))(VP (VBZ (seem))(TO (to))(VB (be))(VBG (go)))(NP (JJ (red))(, (,))(VBG (sting))(CC (and))(VBG (swell)))(ADVP (RP (up))))) |ET| 
-1  |BT| (ROOT (S (NP (FW (i)))(VP (RB (am)))(NP (CD (one))(RB (very))(VBN (bless))(NN (person))))(S (NP (FW (i)))(VP (VBP (have)))(NP (DT (the))(JJS (best))(NN (husband)))(PP (IN (in)))(NP (DT (the))(NN (world))(CD (.4))(JJ (wonderful))(NNS (kid)))(NP (DT (a))(NNS (friend)))(NP (IN (that)))(VP (FW (i)))(VP (MD (can))(VB (depend)))(PP (NN (on.im)))(VP (NN (goin))(TO (to))(VB (live)))(NP (NN (day))(CD (2))(NN (day)))(PP (IN (with)))(NP (DT (no))(NNS (regret))))) |ET| 
-1  |BT| (ROOT (S (VP (VBD (get))(VBN (offer)))(NP (DT (a))(JJ (full))(NN (ride)))(PP (TO (to)))(NP (NNP (charleston))(NNP (southern))))) |ET| 
-1  |BT| (ROOT (S (VP (VBD (have)))(NP (DT (a))(CD (18))(NN (hour))(NN (day)))(ADVP (RB (straight)))(PP (IN (through))))) |ET| 
1  |BT| (ROOT (S (VP (VBZ (be)))(PP (IN (in)))(NP (NNS (dalla)))(PP (IN (for)))(NP (DT (the))(JJ (weekenddd))(NN (<))(CD (3))))) |ET| 
1  |BT| (ROOT (S (NP (DT (the))(SYM (mic)))(PP (IN (on)))(NP (PRP$ (my))(NNP (ds)))(VP (VBN (stop))(VBG (work)))(VP (FW (idk)))(ADVP (WRB (why))))) |ET| 
1  |BT| (ROOT (S (NP (NNP (malnutrition)))(VP (VBZ (contribute)))(PP (TO (to)))(NP (JJR (more))(IN (than))(PDT (half)))(PP (IN (of)))(NP (DT (all))(NN (child))(NNS (death))))(S (NP (-LRB- (-lrb-))(NN (source)))(NP (NNP (world))(NNP (health))(NNP (organization))))) |ET| 
-1  |BT| (ROOT (S (NP (NN (bout)))(VP (TO (to))(VB (get)))(NP (PRP$ (my))(NNS (nail)))(VP (VBN (do)))(PP (IN (with)))(NP (NNP (tori))(NNP (soinlovewithmeh))(NNP (jackson))(CC (and))(NNP (tomesha))(NNP (brown))))) |ET| 
-1  |BT| (ROOT (S (NP (NN (cepacol)))(VP (VBZ (be)))(NP (DT (the))(RBS (most))(JJ (vile))(NN (thing)))(NP (FW (i)))(VP (VBP (have))(RB (ever))(VBN (taste))))) |ET| 
-1  |BT| (ROOT (S (VP (NN (hangin)))(PP (IN (with)))(NP (NNS (philli)))(VP (VBG (live)))(NP (DT (the))(NN (life))(NN (man))))) |ET| 
1  |BT| (ROOT (S (VP (MD (should))(RB (reaaaaaalllly))(VB (organise)))(NP (DT (a))(VB (get))(NN (together/housewarming)))(ADVP (RB (soon))))(S (NP (JJ (ppls))(NN (work))(NNS (load)))(VP (VBP (be))(VBG (start))(TO (to))(VB (build)))(PRT (RP (up))))) |ET| 
1  |BT| (ROOT (S (ADVP (RB (really)))(VP (VBP (want)))(NP (DT (a))(NN (mandolin)))(ADVP (RB (now))))(S (ADVP (VBD (:}))(RB (now)))(VP (TO (to))(VB (buy)))(NP (CC (or))(RB (not)))(VP (TO (to))(VB (buy))))) |ET| 
1  |BT| (ROOT (S (VP (VBZ (think)))(NP (NNP (belle))(NNP (amie)))(VP (MD (might))(VB (go)))(ADVP (NN (tonight)))(NP (PRP (they)))(VP (VBP (be)))(NP (RB (just))(DT (a))(NN (bit))(JJ (boring.matt)))(VP (TO (to))(VB (win))))) |ET| 
-1  |BT| (ROOT (S (NP (PRP (i)))(VP (MD (would))(RB (rather))(VB (pick)))(PRT (RP (up)))(NP (NNS (fight)))(CONJP (RB (instead))(IN (of)))(NP (NNS (flower))))(S (NP (CD (>))))) |ET| 
-1  |BT| (ROOT (S (NP (VBG (dangg)))(NP (DT (this))(JJ (moviee)))(VP (TO (to))(VB (make)))(NP (PRP (i)))(VP (RB (cryy))))) |ET| 
-1  |BT| (ROOT (S (PP (IN (up)))(NP (DT (a))(NN (goin))))(S (NP (NNP (off))(TO (to))(VBP (work)))(NP (PRP (i))(VBP (go))))(S (VP (VB (check)))(PP (RP (in)))(PP (IN (with)))(NP (PRP (ya)))(VP (MD ('ll))(RB (later))))) |ET| 
1  |BT| (ROOT (S (VP (VBZ (be))(VBG (find)))(NP (NN (beauty)))(PP (IN (in)))(NP (NN (simplicity)))(CONJP (RB (rather))(IN (than)))(VP (VBG (make)))(NP (NN (life)))(VP (VBN (complicate))))) |ET| 
1  |BT| (ROOT (S (VP (VBZ (be)))(VP (VBG (get))(VBN (scare)))(PP (IN (with)))(NP (NNS (thing)))(VP (VBG (be))(RB (really)))(UCP (JJ (smooth))))) |ET| 
1  |BT| (ROOT (S (NP (CD (one))(NN (thing)))(VP (VBG (misss)))(PP (IN (on)))(NP (DT (this))(NN (trip)))(PP (TO (to)))(NP (DT (the))(NNP (bay)))(PP (NN (area.the)))(NP (NN (sun))))) |ET| 
-1  |BT| (ROOT (S (VP (VBZ (be)))(ADVP (RB (really)))(VP (VBN (piss)))(PRT (RP (off)))(ADVP (RB (now))))) |ET| 
-1  |BT| (ROOT (S (VP (VBZ (be))(VBN (psych)))(PP (IN (for)))(NP (DT (the))(NN (debate)))(NP (NN (tomorrow))))(S (NP (DT (this)))(VP (VBZ (be))(VBG (go))(TO (to))(VB (be)))(NP (NN (fun))))) |ET| 
-1  |BT| (ROOT (S (VP (VBG (go)))(PP (IN (for)))(NP (DT (a))(NN (run))))(S (ADVP (RB (then)))(VP (VBP (have))(TO (to))(VB (get)))(NP (NN (stuff)))(PP (IN (for)))(NP (NN (vball))))) |ET| 
1  |BT| (ROOT (S (NP (WP (what)))(VP (VBP (do)))(NP (PRP (you)))(VP (VB (think)))(PP (IN (of)))(NP (NN (ma))(NN (profile))(NN (pic))(NNS (people))))) |ET| 
1  |BT| (ROOT (S (NP (PRP (i)))(VP (VBP (miss)))(NP (PRP$ (my))(NN (mommy))(CC (and))(NNS (daddy.i)))(VP (VBP (have))(VBN (get)))(NP (DT (a))(JJ (tummy))(NN (ache)))(NP (DT (no))(CD (one)))(VP (TO (to))(VB (take)))(NP (NN (care)))(PP (IN (of)))(NP (PRP (i))))) |ET| 
1  |BT| (ROOT (S (NP (DT (another))(NN (day)))(PP (IN (of)))(NP (RB (absolutely))(NN (nothing))))(S (PP (IN (besides)))(NP (VBZ (*))(JJ (neighhhh))))(S (NP (: (;))(NNP (dd))(NNP (lol))))) |ET| 
-1  |BT| (ROOT (S (NP (RB (only))(CD (15-20))(NN (%)))(PP (IN (of)))(NP (JJ (american))(NNS (soldier)))(VP (VBD (hit)))(NP (PRP$ (they))(NN (target))))) |ET| 
-1  |BT| (ROOT (S (NP (CD (0121))(NN (everyone)))(VP (VBP (do)))(NP (CD (one)))(PP (IN (with)))(NP (DT (these))(NN (number))(NN (status))('' ('))))) |ET| 
-1  |BT| (ROOT (S (NP (JJ (gave))(NN (alot)))(PP (IN (of)))(NP (NNS (people)))(NP (DT (another))(NN (chance)))(NP (NN (today)))(NP (NNP (dont)))(VP (VBP (make)))(NP (PRP (i)))(VP (VB (regret)))(NP (PRP (it))))) |ET| 
1  |BT| (ROOT (S (VP (VBG (go))(TO (to))(VB (iron)))(NP (NN (mountain)))(NP (NN (today))))(S (ADVP (RB (then)))(NP (NN (allie)))(VP (VBZ (be)))(NP (RB (later))(SYM (=))))) |ET| 
1  |BT| (ROOT (S (NP (NNP (bed)))(ADVP (RB (then)))(NP (NNP (play)))(ADVP (RB (then)))(VP (VBZ (madrigal))))(S (NP (VBP (<))(CD (3))))) |ET| 
1  |BT| (ROOT (S (VP (VBZ (be)))(ADVP (RB (so)))(ADJP (VBN (excite)))(PP (IN (for)))(NP (DT (the))(NN (weekend))))) |ET| 
-1  |BT| (ROOT (S (ADVP (NN (ev)))(NP (NN (em)))(VP (VBP (be)))(NP (DT (the))(JJ (bestest))(NN (!!!!))))(S (NP (NNS (thanks))(NNS (guy))))) |ET| 
-1  |BT| (ROOT (S (NP (NNP (ano))(VBP (ba))(VBN (naman)))(PP (VBG (itong)))(NP (NNP (dining-philosophers)))(VP (TO (na)))(PP (TO (to))))(S (NP (NN (hay)))(VP (SYM (=))))) |ET| 
-1  |BT| (ROOT (S (ADVP (WRB (why)))(VP (VBZ (be)))(NP (PRP (it)))(ADJP (VBN (sooo))(JJ (cold)))(PP (IN (in)))(NP (NNP (monkey))(NNP (joess))))(S (NP (RB (hmu))))) |ET| 
1  |BT| (ROOT (S (NP (PRP (i)))(PP (VBP (like)))(NP (PRP (it)))(PP (IN (on)))(NP (DT (the))(NN (kitchen))(NN (table))))) |ET| 
1  |BT| (ROOT (S (NP (PRP (i)))(VP (VBP (do))(RB (not))(VB (have)))(NP (DT (any))(JJ (enemies.just))(NNS (individual)))(NP (WP (who)))(VP (VBP (have)))(NP (NNS (misconception)))(PP (IN (about)))(NP (PRP (i)))(NP (NNP (rich))(NNP (g.))))) |ET| 
1  |BT| (ROOT (S (NP (PRP (i)))(VP (MD (will))(RB (never))(VB (be)))(ADJP (RB (too))(JJ (old)))(PP (IN (for)))(NP (JJ (sponge))(NN (bob)))(NP (PRP (i)))(VP (NN (freakin))(VBP (love)))(NP (DT (this))(NN (show))(SYM (=))(NNP (d))))) |ET| 
-1  |BT| (ROOT (S (ADVP (NNP (omg)))(NP (PRP (i)))(VP (VBP (love)))(NP (DT (the))(NNP (new))(NNP (boyzz))(-LRB- (-lrb-))(NNP (-lrb-))))) |ET| 
-1  |BT| (ROOT (S (VP (VBZ (be)))(ADVP (RB (really)))(NP (JJ (embaressed))(NN (cuz))(JJ (tilla)))(VP (VBN (catch)))(NP (PRP (i)))(VP (VBG (snore)))(ADVP (NNP (xd.there)))(VP (VBZ (go)))(NP (PRP$ (my))(JJ (third))(NN (marriage))))) |ET| 
-1  |BT| (ROOT (S (PP (IN (like)))(NP (DT (this)))(SBAR (IN (if)))(NP (PRP (you)))(VP (VBP (think)))(NP (PRP (you)))(VP (MD (can))(VB (beat)))(NP (PRP (i)))(PP (IN (at)))(NP (DT (a))(NN (sing-off))))) |ET| 
1  |BT| (ROOT (S (ADVP (RB (finally)))(VP (VBP (get))(TO (to))(VB (sit)))(ADVP (RP (down)))(VP (VB (relax))))(S (NP (PRP$ (its))(RB (only))(CD (943))(NN (pm))))) |ET| 
1  |BT| (ROOT (S (NP (`` ("))(NNP (god)))(VP (VBZ (be)))(ADJP (JJS (closest)))(PP (TO (to)))(NP (DT (those)))(PP (IN (with)))(NP (JJ (broken))(NNS (heart))))(S (NP (JJ (jewish))(NN (proverb))))) |ET| 
0.9502255569029852688700543694722  |BT| (ROOT (S (ADVP (VBP (definately)))(VP (VBG (look)))(ADVP (RB (forward)))(PP (TO (to)))(NP (NN (school)))(NP (NN (tomorrow))))(S (PP (IN (at)))(NP (NNS (gramma)))(PP (IN (for)))(NP (DT (the))(NN (week))(JJ ('till))(NNS (parent)))(VP (VBP (get)))(NP (NN (home))))) |ET| 
-1  |BT| (ROOT (S (NP (PRP$ (its)))(ADVP (RB (finally)))(VP (JJ (nice)))(PP (IN (on)))(NP (PRP$ (my))(NN (day)))(PRT (RP (off))))(S (VP (VBG (go))(JJ (kayaking))))) |ET| 
-1  |BT| (ROOT (S (NP (NNP (hahah))(NNP (carrick)))(VP (VBZ (need))(TO (to))(VB (improve)))(PP (IN (on)))(NP (DT (the))(JJS (best))(VBG (motivate))(NN (speech)))(ADVP (RB (ever))))) |ET| 
-1  |BT| (ROOT (S (NP (CD (two))(JJR (more))(NNS (day))))(S (VP (NN (ahhhh))(VBD (let)))(NP (DT (the))(NN (packing)))(VP (VB (begin)))(PP (IN (for)))(NP (JJ (real))(DT (this))(NN (time))(NN (ahaha))))) |ET| 
1  |BT| (ROOT (S (NP (# (#))(CD (1111))(CD (one)))(PP (IN (of)))(NP (DT (the))(RBS (most))(JJ (powerful))(CC (and))(JJ (intelligent))(NNS (person)))(SBAR (WDT (that)))(NP (FW (i)))(VP (VBP (have))(RB (ever))(VBN (meet))))(S (ADVP (UH (yes)))(NP (PRP (they)))(VP (VBP (be)))(NP (NNP (human))(NNP (:})))(VP (VB (thank)))(NP (PRP (you)))(ADVP (RB (so))(RB (much)))(PP (IN (for)))(NP (DT (the))(JJ (wonderful))(NN (advice))))) |ET| 
1  |BT| (ROOT (S (NP (NN (saint)))(ADVP (NN (diago)))(VP (VBZ (mean)))(NP (DT (a))(DT (a))(JJ (whales)))(ADJP (NN (vagina.off)))(PP (VB (anne)))(NP (JJ (frank))(DT (the))(NN (musical))))) |ET| 
1  |BT| (ROOT (S (NP (NNP ([))(NNP (social))(NNP (+))(NNP (])))(ADVP (RB (sometimes)))(NP (PRP (i)))(VP (VBP (think)))(SBAR (IN (that)))(NP (PRP (i)))(VP (VBP (have)))(NP (RB (too))(JJ (much))(NN (self))(NN (esteem))))(S (NP (PRP (i)))(VP (VBP (realize)))(SBAR (IN (that)))(NP (PRP (i)))(VP (VBP (be)))(ADVP (RB (just))(RB (really)))(NP (RB (pretty))(JJ ([))(NNP (/)))(NP (NNP ([))(NNP (/))(NNP (]))(NNP ([))(VBP (/))))) |ET| 
-1  |BT| (ROOT (S (NP (NN (ha)))(PP (NNS (that)))(NP (WP (what)))(NP (PRP (they)))(VP (VBP (said.meth)))(VP (VBZ (be)))(NP (NN (power))))) |ET| 
-1  |BT| (ROOT (S (NP (DT (this))(NN (weekend))(VBD (<))(CD (3))))(S (NP (NNP (party)))(ADVP (NN (tonight)))(NP (NNP (tranmere))(VBD (tommorow))(VBG (stay)))(PP (RP (up)))(NP (NNP (party)))(NP (-LRB- (-lrb-))(NNP (yn)))(NP (NNP (party)))(NP (NNP (town))))(S (NP (NNP (sundays)))(VP (VBG (go))(TO (to))(VB (feel)))(PP (IN (like)))(NP (NN (death)))(VP (NN (ahwell))))) |ET| 
-1  |BT| (ROOT (S (NP (NNS (mother))(NN (day)))(VP (VBZ (be)))(NP (DT (a))(NN (joke))(CC (and))(FW (i)))(VP (MD (can))(VB (say)))(SBAR (IN (that)))(SBAR (IN (because)))(NP (FW (i)))(VP (VBP (be)))(NP (CD (one))))) |ET| 
1  |BT| (ROOT (S (VP (VB (thank)))(NP (PRP (you))(VBZ (tasper)))(PP (IN (from)))(NP (DT (the))(NN (bottom)))(PP (IN (of)))(NP (PRP$ (my))(NN (heart))))) |ET| 
1  |BT| (ROOT (S (NP (DT (this))(NN (beat)))(VP (VBZ (be)))(ADJP (JJ (sick)))(NP (FW (i)))(VP (NN (wan))(TO (na))(VB (take)))(NP (DT (a))(NN (ride)))(PP (IN (on)))(NP (PRP$ (you))(NN (disco))(NN (stick))))) |ET| 
1  |BT| (ROOT (S (NP (NN (snow))(VBD (damnit))))(S (NP (PRP (i)))(VP (VBP (need)))(NP (DT (the))(NN (time)))(PRT (RB (off))))) |ET| 
-1  |BT| (ROOT (S (VP (VB (have)))(NP (DT (a))(NN (wonderfulday)))(PP (IN (with)))(NP (PRP$ (my))(NN (family)))(PP (IN (at)))(NP (DT (the))(NN (beach.now)))(NP (DT (a))(NN (family))(NNS (movie.i))(VBP (love))(NN (family))(NNS (weekend))))) |ET| 
-1  |BT| (ROOT (S (NP (NN (downtown))(NNP (laverne)))(VP (VBD (be)))(NP (VBN (poppin)))(NP (JJ (last))(NN (night))))(S (NP (DT (a))(NN (blast)))(PP (IN (with)))(NP (DT (the))(NN (family))))) |ET| 
-1  |BT| (ROOT (S (NP (RB (just)))(VP (VBD (have)))(NP (PRP$ (he))(JJ (first))('' ('))(NN (snow))(NN (ball)))(NP (POS ('))(NN (fight)))(PP (IN (of)))(NP (DT (the))(NN (year))))(S (ADJP (JJ (amazing))))) |ET| 
1  |BT| (ROOT (S (VP (VBZ (be)))(VP (VBG (stay)))(PP (RP (in))))) |ET| 
1  |BT| (ROOT (S (NP (DT (this))(JJ (wagner))(NN (thing)))(VP (VBZ (be))(VBN (gettin)))(ADVP (IN (beyond))(JJ (ridiculous))))) |ET| 
1  |BT| (ROOT (S (NP (PRP (i))(VBP (can))(NNP (not))(NNP (fuking))(NNP (wait)))(PP (IN (for)))(NP (NNP (dragon))(NNP (age))(NNP (ii))(PRP (it)))(VP (VBZ (be))(VBG (go))(TO (to))(VB (be)))(NP (NNP (epic))))) |ET| 
-1  |BT| (ROOT (S (NP (LS (d))(JJS (hardest))(NN (thing)))(VP (VBZ (be)))(PP (TO (to)))(NP (NNP (return))))) |ET| 
-1  |BT| (ROOT (S (NP (NNS (dungeon))(CC (and))(NNS (dragon)))(VP (VBZ (be)))(ADVP (RB (really)))(ADJP (JJ (good))))) |ET| 
-1  |BT| (ROOT (S (NP (PRP (it)))(VP (VBZ (be)))(ADVP (RB (even)))(NP (NNP (wednesday)))(VP (NNP (={)))(NP (NNP (<))(CD (3))(NNP (matthew))))) |ET| 
1  |BT| (ROOT (S (NP (FW (i)))(VP (VBD (have)))(NP (DT (some))(NNS (dream)))(NP (PRP (they)))(VP (VBD (be)))(NP (NNS (cloud)))(PP (IN (in)))(NP (PRP$ (my))(NN (coffee)))(NP (NNS (cloud)))(PP (IN (in)))(NP (PRP$ (my))(NN (coffe))))) |ET| 
1  |BT| (ROOT (S (NP (NNP (jason))(NNP (aldean))(VBD (concert)))(PP (IN (with)))(NP (NNP (katie))(NNP (white))(NNP (tomorrow))))(S (PP (JJ (throwin)))(NP (NN (k)))(NP (POS ('s))(NN (-lrb-))))) |ET| 
1  |BT| (ROOT (S (PP (IN (by)))(NP (RB (far))(CD (one)))(PP (IN (of)))(NP (DT (the))(JJS (best))(NNS (night))(NN (ive)))(VP (VBD (have)))(NP (DT (this))(NN (year))))(S (NP (VB (<))(CD (3)))(NP (PRP$ (my))(JJ (sweet))(NN (kd))(NNS (sister))))) |ET| 
-1  |BT| (ROOT (S (VP (VBZ (be)))(PP (IN (with)))(ADVP (NN (emmm.still))(RB (only)))(VP (VBD (get)))(NP (CD (4))(NNS (hour)))(PP (IN (of)))(NP (NN (sleep))))(S (NP (CD (8))(NNS (hour)))(PP (IN (of)))(NP (NN (sleep)))(VP (VBP (total)))(NP (DT (this))(NN (weekend))))) |ET| 
-1  |BT| (ROOT (S (PP (IN (in)))(NP (DT (the))(NN (morning))(NN (im))(VBG (make))(NNS (waffle))))) |ET| 
-1  |BT| (ROOT (S (VP (VBG (be)))(ADVP (JJ (sad)))(PP (IN (with)))(NP (DT (the))(JJ (right))(NNS (people)))(VP (VBZ (be)))(ADJP (JJR (better)))(PP (IN (than)))(VP (VBG (be)))(ADJP (JJ (happy)))(PP (IN (with)))(NP (DT (the))(JJ (wrong))(NNS (one))))) |ET| 
1  |BT| (ROOT (S (NP (NNP (death)))(VP (TO (to))(DT (the))(NNP (disney)))(NP (NNP (channel))(CC (and))(NNP (all)))(PP (IN (of)))(NP (PRP (it)))(VP (VBZ (be)))(NP (NNP (shitty))(NNP (shows)))(VP (NNP (bring)))(NP (NNP (back))(NNP (recess))))) |ET| 
1  |BT| (ROOT (S (NP (DT (the))(NNP (kite))(NNP (runner)))(VP (VBZ (be)))(NP (DT (a))(JJ (beast))(NN (book))))) |ET| 
1  |BT| (ROOT (S (VP (VBZ (love)))(NP (NNP (bill)))(NP (NNP (ted))))) |ET| 
-1  |BT| (ROOT (S (NP (DT (the))(JJ (poopie))(NN (list)))(VP (VBZ (make)))(NP (PRP (i)))(VP (VB (laugh))))) |ET| 
-1  |BT| (ROOT (S (NP (PRP (i)))(VP (VB (mention)))(NP (DT (that))(FW (i))(VB (hate))(NNS (man))))) |ET| 
-1  |BT| (ROOT (S (NP (PRP (i)))(VP (VBP (do))(RB (not))(VB (care)))(NP (WP (what))(NN (anybody)))(VP (VBZ (say)))(NP (PRP (i)))(VP (JJ (fucking))(VBP (love)))(NP (NNP (jim))(NNP (carry))))) |ET| 
1  |BT| (ROOT (S (ADJP (JJ (happy)))(PP (IN (with)))(NP (DT (some))(NN (percipitation))))(S (NP (JJ (darn))(JJ (dry))(NN (place)))(NP (PRP (we)))(VP (VBP (live)))(PP (IN (in))))) |ET| 
1  |BT| (ROOT (S (VP (VBZ (be)))(NP (DT (a))(NN (sucker)))(PP (IN (for)))(NP (NN (anything)))(PP (IN (with)))(NP (DT (a))(NNP (lawrence))(NN (brother)))(PP (IN (in)))(NP (PRP (it))))) |ET| 
1  |BT| (ROOT (S (NP (RB (ahh))(PRP (i)))(VP (VBP (love)))(NP (NN (skiing)))(ADVP (RB (now))(RP (off)))(PP (TO (to)))(NP (VBN (napkinhood)))(PP (IN (in)))(NP (NN (beauty)))(NP (DT (the))(NN (beast))))) |ET| 
-1  |BT| (ROOT (S (NP (JJ (prime))(CD (16))(JJ (happy))(NN (hour)))(PP (IN (with)))(NP (PRP$ (my))(NN (brother))(CC (and))(NNS (amigo))))(S (NP (VBD (<))(CD (3))))) |ET| 
-1  |BT| (ROOT (S (NP (DT (this))(NN (place)))(VP (VBZ (be)))(NP (DT (a))(NN (proctologist)))(NP (POS ('s))(NN (dream))))(S (NP (NNP (wall)))(VP (TO (to))(NN (wall)))(NP (VBZ (asshole))))) |ET| 
-1  |BT| (ROOT (S (NP (PRP$ (my))(NN (nvidium))(VBZ (geforce))(CD (8600))(NN (gt)))(NP (NNP (august))(JJ (5th))(CD (2007)))(NP (NNP (january)))(PP (CD (1st)))(NP (CD (2011))))(S (NP (VB (requiescat)))(PP (IN (in)))(NP (NN (pace))))) |ET| 
1  |BT| (ROOT (S (NP (PRP (i)))(VP (VBP (think)))(NP (PRP (i)))(VP (VBP (know)))(NP (PRP (i)))(VP (VBP (be)))(ADJP (JJ (sure)))(NP (PRP (i)))(VP (VBP (do))(RB (not))(VB (care))))) |ET| 
1  |BT| (ROOT (S (NP (PRP (i)))(ADVP (RB (really)))(NP (NNP (really))(VBP (hate)))(VP (VBG (do)))(NP (NNS (karyotype))))) |ET| 
1  |BT| (ROOT (S (NP (FW (i)))(VP (NN (think)))(NP (PRP (i)))(VP (VBP (have))(VBN (become)))(ADJP (JJ (nocturnal))))) |ET| 
-1  |BT| (ROOT (S (NP (VB (im)))(VP (VBN (bore)))(NP (PRP (i)))(VP (VBP (need))(TO (to))(VB (do)))(NP (NN (something)))(ADVP (NN (fuck))))) |ET| 
-1  |BT| (ROOT (S (NP (NNP (kanyee))(NNP (:}))(VBP (ooohhh)))(NP (PRP (i)))(VP (VBP (be))(VBN (lovin)))(NP (DT (the))(NNS (lyric)))(PP (TO (to)))(NP (DT (this))(NN (songg))))) |ET| 
-1  |BT| (ROOT (S (NP (DT (the))(NN (road)))(NP (PRP (you)))(VP (VBP (know)))(NP (FW (i)))(VP (VBP (be)))(ADJP (VBN (scare)))(VP (TO (to))(VB (go)))(ADVP (RP (down))))) |ET| 
1  |BT| (ROOT (S (NP (VB (id)))(VP (JJ (st0p)))(NP (DT (the))(NN (w0rld)))(VP (VB (melt)))(NP (NN (wd)))(UCP (NN (u.))))) |ET| 
1  |BT| (ROOT (S (NP (JJ (happy))(NNP (father)))(NP (POS ('s))(NN (day)))(PP (TO (to)))(NP (PRP$ (my))(NNP (dad))(NNP (richard))(NNP (sandy))))(S (VP (NNP (love)))(NP (NNP (u))))) |ET| 
1  |BT| (ROOT (S (VP (VBZ (be)))(ADJP (VBN (excite)))(VP (TO (to))(RB (finallyyyy))(VB (have)))(NP (NNP (fca)))(NP (NN (tomorrow))(NN (morning))))(S (NP (PRP (you))(NNS (guy)))(VP (MD (should))(RB (all))(VB (come)))(NP (VBZ (kthank))))) |ET| 
-1  |BT| (ROOT (S (VP (VBZ (be)))(NP (NN (watchin))(NN (i-robot)))(PP (IN (with)))(NP (NNP (dad)))(NP (NNP (scotia)))(VP (VBG (do)))(NP (DT (some))(JJ (work-related))(NN (stuff))))) |ET| 
-1  |BT| (ROOT (S (NP (PRP (it)))(VP (VBZ (be)))(NP (DT (a))(NN (jersey))(NN (thing)))(NP (NN (u)))(VP (VBD (get))(RB (ta))(VB (be)))(PP (IN (from)))(NP (NN (jersey)))(VP (TO (to))(VB (get)))(NP (PRP (it))))(S (NP (NN (lmao))(NN (funniest))(VBD (shit)))(ADVP (RB (ever)))(PP (IN (on)))(NP (JJ (south))(NN (park))))) |ET| 
-1  |BT| (ROOT (S (NP (NNS (guess)))(PP (VBP (who)))(NP (JJ (caught))(NN (nomonium)))(VP (NN (at)))(NP (NNP (the))(NNPS (races))(VBP (~))))) |ET| 
1  |BT| (ROOT (S (NP (PRP (i)))(VP (VBD (get)))(NP (DT (a))(NN (ticket)))(NP (DT (this))(NN (morning))))(S (NP (VBD (omg))))(S (NP (JJR (worse))(NN (thing)))(VP (TO (to))(VB (start)))(NP (PRP$ (you))(NN (day)))(PP (IN (with)))(NP (NN (lol))))) |ET| 
1  |BT| (ROOT (S (NP (NNP (modest))(NNP (mouse))(, (,))(NNP (goldfish))(CC (and))(NNP (mysims))(NNP (party)))(PP (IN (on)))(NP (DT (the))(NN (d)))(VP (VB (make)))(NP (CD (one))(NNP (relaxing))(NN (afternoon))))) |ET| 
1  |BT| (ROOT (S (VP (VBZ (be)))(ADJP (JJ (ready)))(VP (TO (to))(VB (go)))(PP (TO (to)))(NP (VB (work)))(NP (NNS (today.i))(VBP (be))(JJ (super))(JJ (tired))(CC (and))(VBG (feel)))(NP (DT (a))(JJ (little)))(PP (IN (under)))(NP (DT (the))(NN (weather))))) |ET| 
-1  |BT| (ROOT (S (NP (NNP (adrienne)))(VP (VBZ (be))(VBG (come)))(PP (TO (to)))(NP (PRP$ (my))(NN (house)))(PP (IN (for)))(NP (DT (the))(NN (day))))) |ET| 
-1  |BT| (ROOT (S (NP (NN (magkakaroon))(NN (pdn))(VBP (ba))(NN (ng))(NN (naruto)))(VP (NN (bleach)))(PP (IN (at)))(NP (CD (one))(NN (pice)))(NP (DT (this))(NN (week))))) |ET| 
-1  |BT| (ROOT (S (VP (VBD (have)))(NP (DT (a))(JJ (great))(NN (weekend))))(S (PP (IN (on)))(NP (PRP$ (my))(NN (way))(NN (home)))(ADJP (RB (completely)))(VP (VBD (wipe)))(PRT (RP (out))))(S (VP (VBD (get))(FW (ta))(VB (head)))(ADVP (RP (back)))(PP (TO (to)))(NP (DT (the))(NN (airport))(VB (tmrw)))(VP (TO (to))(VB (drop)))(PRT (RP (off)))(NP (PRP$ (my))(NN (man))))) |ET| 
1  |BT| (ROOT (S (VP (VBZ (be)))(ADJP (RP (off)))(VP (TO (to))(VB (do)))(NP (JJR (more))(NNS (kid)))(VP (NN (stuff)))(PP (IN (in)))(NP (DT (the))(NN (community.god))(, (,))(VB (grant))(PRP (i))(NN (patience))))) |ET| 
1  |BT| (ROOT (S (NP (DT (this)))(VP (VBZ (have))(VBN (be)))(NP (DT (the))(JJ (worst))(NN (week)))(ADVP (RB (ever))))(S (NP (FW (i)))(VP (NN (wish)))(NP (PRP (it)))(VP (VBD (be)))(ADVP (RP (over))(RB (already))))) |ET| 
1  |BT| (ROOT (S (VP (VBZ (be)))(NP (NNP (ready)))(VP (TO (to)))(NP (VBP (see))(DT (the))(NNP (sen10rs))(NNP (dominate)))(PP (IN (in)))(NP (NNP (powder))(NNP (puff)))(VP (NNP (<)))(NP (CD (3))(CD (<)))(LST (CD (3))))) |ET| 
-1  |BT| (ROOT (S (NP (VB (kickball))(JJ (final))(CD (four))))(S (VP (VB (come)))(PP (RP (on)))(ADVP (RB (down)))(VP (VB (support)))(NP (DT (the))(NNS (ballstard))))(S (NP (VB (im)))(VP (VBG (bring)))(NP (DT (a))(NN (keg))))(S (NP (PRP (i)))(VP (VBP (want)))(SBAR (IN (that)))(NP (# (#))(CD (1))(NN (spot)))(ADJP (RB (so))(JJ (bad)))(NP (PRP (i)))(VP (MD (can))(VB (taste)))(NP (PRP (it))))) |ET| 
-1  |BT| (ROOT (S (NP (WP (who)))(VP (VBZ (be)))(ADVP (RB (really)))(PP (IN (in)))(NP (NN (detention))))(S (NP (PRP (i)))(VP (VBP (be)))(ADVP (RB (pretty)))(ADJP (JJ (sure)))(NP (PRP (it)))(VP (VBZ (be)))(NP (PRP (i))))) |ET| 
-1  |BT| (ROOT (S (NP (NN (housework)))(ADVP (RB (then)))(NP (NN (work))(NN (work)))(NP (JJ (uugggghhhh))))(S (NP (VB (calgon)))(VP (VB (take)))(NP (PRP (it)))(ADVP (RP (away))))) |ET| 
0.97473744613940915826333366567269  |BT| (ROOT (S (NP (JJ (happy))(NNP (thanksgiving)))(PP (TO (to)))(NP (PDT (all))(PRP$ (we))(NN (family))(CC (and))(NNS (friend))))) |ET| 
1  |BT| (ROOT (S (VP (VB (catch)))(NP (DT (some))(VB (mean))(NNS (wave)))(PP (IN (with)))(NP (NN (ashleigh)))(NP (DT (this))(NN (weekend)))(PP (IN (at)))(NP (NNS (whararikkus))))) |ET| 
1  |BT| (ROOT (S (NP (NNP (happy))(VBZ (mother))(NNP (day))))) |ET| 
-1  |BT| (ROOT (S (NP (NNP (mini))(NN (panic))(NN (attack.well))(FW (i)))(VP (VBD (get)))(NP (NNS (thing)))(VP (TO (to))(VB (do)))(ADVP (RB (so))(NNS (adio))))) |ET| 
-1  |BT| (ROOT (S (NP (JJ (qira'atul))(JJ (quran))(NN (competition)))(PP (IN (on)))(NP (NNP (march))(JJ (6th))(, (,))(JJ (2010crowne))(NNP (plaza))(NNP (hotel)))(NP (NNP (hamilton)))(VP (VBP (bring)))(NP (PRP$ (you))(NNS (friend))(CC (and))(NN (family))))) |ET| 
-1  |BT| (ROOT (S (NP (VBP (:p))(-LRB- (-lrb-)))(PP (TO (to)))(NP (DT (that))(JJ (special))(NN (someone))))) |ET| 
1  |BT| (ROOT (S (VP (VBZ (be)))(VP (VBG (feel)))(NP (JJ (lazy))(NN (today))))(S (ADVP (RB (maybe)))(NP (PRP (it)))(VP (VBZ (be)))(NP (DT (the))(JJ (overcast))(NN (weather))(NNS (condition))))) |ET| 
1  |BT| (ROOT (S (PP (VBN (tire)))(PP (IN (of)))(VP (VBG (sit)))(PRT (RP (around))))(S (NP (PRP (i)))(VP (VBP (guess)))(NP (PRP (i)))(VP (MD ('ll))(VB (clean)))(NP (DT (the))(NN (house)))(ADVP (RB (now))))) |ET| 
1  |BT| (ROOT (S (NP (WDT (whatever)))(NP (WP (who)))(VP (VBZ (tell)))(NP (NN (someone)))(SBAR (IN (that)))(NP (PRP (they)))(VP (VBP (love))(TO (to))(VB (shut)))(NP (DT (the))(NN (fuck)))(PRT (RP (up))))(S (VP (VBP (like)))(ADVP (RB (really))))) |ET| 
