SVM-light Version V5.01-TK-1.4.3_smoothing
5 # kernel type
3 # kernel parameter -d 
1 # kernel parameter -g 
1 # kernel parameter -s 
1 # kernel parameter -r 
empty# kernel parameter -u 
0.4 # kernel parameter -L 
1 # kernel parameter -T 
T # kernel parameter -C 
1 # kernel parameter -F 
1 # kernel parameter -S 
0.400000 # kernel parameter -M 
3 # kernel parameter -N 
S # kernel parameter -V 
S # kernel parameter -W 
 # kernel parameter -G 
1.000000 # similarity threshold -H 
1.000000 # terminal factor -X 
empty # matrix path -P 
empty # cache path -Z 
1000000 # cache size -A 
10000000 # cache max size -B 
0.500000 # refresh factor -D 
10 # highest feature index 
8000 # number of training documents 
3569 # number of support vectors plus 1 
-3.5499743 # threshold b, each following line is a SV (starting with alpha*y)
-1.0228854639984272800745657150401  |BT| (ROOT (S (NP (PRP (we)))(VP (VBP (be)))(NP (PDT (all))(DT (the))(NNS (victim)))(PP (IN (of)))(NP (JJ (bad))(NNS (decision)))(NP (DT (these))(NNS (day)))(INTJ (UH (no))))) |ET| 
-1.0228854639984272800745657150401  |BT| (ROOT (S (ADVP (WRB (how)))(NP (DT (the))(NN (hell)))(VP (VBZ (be)))(NP (DT (a))(JJ (quesidilla)))(ADVP (JJR (more)))(PP (IN (than)))(NP (DT (a))(NN (burrito))))(S (NP (DT (that)))(VP (VBZ (be)))(NP (NN (b))))) |ET| 
-1.0228854639984272800745657150401  |BT| (ROOT (S (NP (PDT (all))(PRP$ (my))(NNS (song)))(VP (VBD (get))(VBN (delete)))(PP (IN (from)))(NP (PRP$ (my))(NN (play))(NN (list))))(S (NP (NN (nothing)))(VP (MD (can))(VB (be)))(ADJP (RBR (more))(JJ (painful)))(SBAR (IN (than)))(NP (DT (this))))(S (NP (POS ('))(NNP (-lrb-))))) |ET| 
-1.0228854639984272800745657150401  |BT| (ROOT (S (NP (FW (i)))(VP (VBD (have)))(NP (NN (work)))(NP (NN (tomorrow)))(PP (IN (from)))(NP (CD (5)))(ADJP (RB (close))(VB (kill)))(NP (PRP (i))))) |ET| 
-1.0228854639984272800745657150401  |BT| (ROOT (S (NP (NNP (wow.i)))(VP (MD (can))(RB (actually))(VB (work)))(NP (DT (this))(NN (face))(NN (book))(NN (thing)))(ADVP (RB (now))))(S (NP (VB (sloooow))))(S (NP (VB (lol))))) |ET| 
1.0228854639984272800745657150401  |BT| (ROOT (S (NP (PRP (it)))(VP (VBZ (be)))(NP (DT (the))(RBS (most))(JJ (wonderful))(NN (time)))(PP (IN (of)))(NP (DT (the))(NN (year))))(S (NP (DT (that)))(VP (VBZ (be)))(SBAR (IN (if)))(NP (PRP (you)))(VP (VBP (do))(RB (not))(VB (work)))(PP (IN (in)))(NP (JJ (retail))(NNS (!!))))(S (NP (VBD (whew))))) |ET| 
1.0228854639984272800745657150401  |BT| (ROOT (S (NP (FW (i)))(ADVP (RB (just)))(VP (VBP (get)))(NP (NNP (monkey))(NNP (rape))))) |ET| 
1.0228854639984272800745657150401  |BT| (ROOT (S (VP (VB (shut)))(PRT (RP (up))(CC (and))(VB (put)))(NP (PRP$ (you))(NN (money)))(ADVP (WRB (where)))(NP (PRP$ (you))(NN (mouth)))(VP (VBZ (be))))(S (VP (VBP (do))(RB (not))(VB (be)))(NP (DT (a))(NN (baby)))(VP (VB (remember)))(NP (WP (what)))(NP (PRP (you)))(VP (VBD (tell)))(NP (PRP (i))))) |ET| 
1.0228854639984272800745657150401  |BT| (ROOT (S (NP (NNP (esok)))(NP (JJ (single))(NNP (katy))(NNP (perry)))(VP (VBD (bertajuk)))(NP (NNP (et))(NN (akan))(NN (dilacarkan))))(S (NP (NNP (yay))))) |ET| 
1.0228854639984272800745657150401  |BT| (ROOT (S (NP (VBD (hipi))))) |ET| 
-1.0228854639984272800745657150401  |BT| (ROOT (S (NP (NNP (awesome))(NNP (facebook))))) |ET| 
-1.0228854639984272800745657150401  |BT| (ROOT (S (NP (JJ (tommorows))(NN (school))))) |ET| 
-1.0228854639984272800745657150401  |BT| (ROOT (S (NP (JJ (last))(NN (day))))) |ET| 
1.0228854639984272800745657150401  |BT| (ROOT (S (NP (DT (a))(NN (moment)))(PP (IN (like)))(NP (DT (this))))) |ET| 
1.0228854639984272800745657150401  |BT| (ROOT (S (NP (NN (ty)))(VP (FW (i))(VBP (wan))(TO (na))(VB (go))(NN (swimming)))(NP (NN (today))))(S (VP (VBP (need))(TO (to))(VB (find)))(NP (DT (a))(NN (pool))))(S (NP (RB (:{))(PRP (i)))(VP (VBP (dont))(VBN (fit)))(PP (IN (in)))(NP (NNP (ty)))(NP (POS ('s))(NN (pool)))(VP (NN (haha))))) |ET| 
1.0228854639984272800745657150401  |BT| (ROOT (S (VP (VBZ (be)))(ADJP (VBN (stoke)))(PP (IN (for)))(NP (NN (today))))(S (NP (NNP (tanning))(VBP (+))(NNP (act))(NNPS (french)))(VP (VB (get)))(NP (NNP (crunk))(SYM (=))(JJ (good))(NNS (time))))) |ET| 
-1.0228854639984272800745657150401  |BT| (ROOT (S (NP (WDT (what))(NN (type)))(PP (IN (of)))(NP (NN (ship)))(ADVP (RB (never)))(VP (VBZ (sink))))(S (ADVP (WRB (why)))(NP (DT (a))(NN (friendship)))(PP (IN (of)))(NP (NN (course))))) |ET| 
-1.0228854639984272800745657150401  |BT| (ROOT (S (VP (VBZ (be)))(NP (PRP (it)))(ADVP (RB (almost)))(NP (JJ (over))))(S (NP (FW (i)))(VP (MD (need)))(NP (DT (a))(NN (nap))))) |ET| 
-1.0228854639984272800745657150401  |BT| (ROOT (S (VP (VBN (callin)))(NP (PRP (it)))(NP (DT (a))(JJ (early))(NN (night)))(VP (VBG (go)))(PP (TO (to)))(NP (NN (bed))))(S (VP (VBP (have)))(NP (DT (a))(JJ (great))(NN (day)))(PP (JJ (2marrow)))(NP (NN (everyone))))) |ET| 
1.0228854639984272800745657150401  |BT| (ROOT (S (NP (NN (holum))))) |ET| 
1.0228854639984272800745657150401  |BT| (ROOT (S (NP (JJ (8th))(NN (month))(VBP (wow))))(S (NP (NN (i))))(S (NP (PRP (she))))) |ET| 
1.0228854639984272800745657150401  |BT| (ROOT (S (NP (NNP (da))(NNP (bears.woo))(NNP (hoo))))) |ET| 
-1.0228854639984272800745657150401  |BT| (ROOT (S (NP (JJ (nyt2))(NNS (:}))(VBD (<))(CD (3))))) |ET| 
-1.0228854639984272800745657150401  |BT| (ROOT (S (ADVP (JJ (italy))))) |ET| 
-1.0228854639984272800745657150401  |BT| (ROOT (S (NP (NNP (laugh)))(ADVP (RB (as))(RB (much)))(SBAR (IN (as)))(NP (PRP (you)))(VP (VB (breathe))(CC (and))(VBP (love)))(ADVP (RB (as))(RB (long)))(SBAR (IN (as)))(NP (PRP (you)))(VP (VBP (live))))) |ET| 
1.0228854639984272800745657150401  |BT| (ROOT (S (NP (NNP (temple))(NNP (grandin)))(VP (VBZ (be)))(NP (DT (a))(RB (really))(JJ (good))(NN (movie))))(S (NP (PRP (i)))(ADVP (RB (honestly)))(VP (VBP (tear)))(PRT (RP (up)))(NP (DT (a))(JJ (few))(NNS (time))))) |ET| 
1.0228854639984272800745657150401  |BT| (ROOT (S (NP (JJ (good))(NN (night)))(ADVP (NN (ppl))))) |ET| 
1.0228854639984272800745657150401  |BT| (ROOT (S (NP (NNP (ya))(PRP (i)))(VP (VBD (get)))(NP (PRP$ (my))(NN (car))(NN (seat))(NN (reimbursement))(NN (check))))(S (NP (JJ (new))(NN (car))(NNS (seat)))(ADVP (RB (here)))(NP (PRP (we)))(VP (VBP (come))))) |ET| 
-1.0228854639984272800745657150401  |BT| (ROOT (S (NP (NNP (syracuse))(NNP (university)))(VP (VBZ (be)))(ADJP (RP (out)))(VP (TO (to))(VB (get)))(NP (PRP (i)))(NP (PRP (i)))(VP (VBP (swear))))) |ET| 
-1.0228854639984272800745657150401  |BT| (ROOT (S (NP (NNS (hope))(NN (emma)))(VP (VBZ (have)))(NP (DT (a))(JJ (good))(NN (time))))(S (NP (NNP (d))))) |ET| 
-1.0228854639984272800745657150401  |BT| (ROOT (S (ADVP (RB (well)))(VP (VB (thank)))(NP (NN (god)))(VP (VBP (do))(RB (not))(VB (need))(TO (to))(VB (give)))(NP (DT (a))(NN (shit)))(PP (IN (about)))(NP (DT (the))(JJ (speluncean))(NNS (explorer)))(ADVP (RB (anymore))))) |ET| 
1.0228854639984272800745657150401  |BT| (ROOT (S (NP (NNP (alex))(NNP (zane))(VBD (<))(CD (3))))) |ET| 
1.0228854639984272800745657150401  |BT| (ROOT (S (VP (VBG (anticipate)))(NP (NN (snow)))(PP (IN (on)))(NP (NNP (christmas))(NN (day))(NN ([))))) |ET| 
1.0228854639984272800745657150401  |BT| (ROOT (S (VP (VBG (talk)))(NP (RB (much))(IN (about)))(NP (PRP (oneself)))(VP (MD (can))(RB (also))(VB (be)))(NP (DT (a))(NN (means)))(VP (TO (to))(VB (conceal)))(PP (PRP (oneself))))) |ET| 
-1.0228854639984272800745657150401  |BT| (ROOT (S (VP (VBN (enrol)))(PP (IN (in)))(NP (NNS (class)))(ADVP (RB (finally))))) |ET| 
-1.0228854639984272800745657150401  |BT| (ROOT (S (VP (VBD (do))(RB (not))(VB (expect))(TO (to))(VB (end)))(PRT (RP (up)))(PP (IN (in)))(NP (JJ (first))(NN (aid))))) |ET| 
-1.0228854639984272800745657150401  |BT| (ROOT (S (VP (VBZ (be)))(NP (VBG (feelig))(RB (quite))(JJ (lucky))(NN (today))))(S (NP (JJ (irish))(NN (pride))))(S (NP (VBD (<))(CD (3))))) |ET| 
1.0228854639984272800745657150401  |BT| (ROOT (S (NP (NNP (megamind)))(VP (VBZ (be)))(NP (NNP (awesome))))) |ET| 
1.0228854639984272800745657150401  |BT| (ROOT (S (VP (VBZ (be))(VBG (read)))(NP (DT (a))(JJ (good))(NN (book))))) |ET| 
1.0228854639984272800745657150401  |BT| (ROOT (S (VP (NNP (shopping)))(NP (VBZ (be))(DT (the))(JJ (new))(NN (thing)))(VP (TO (to))(NNP (do))))(S (VP (NNP (love)))(NP (PRP (you))(NNP (d))(CC (and))(NNP (nick))))) |ET| 
-1.0228854639984272800745657150401  |BT| (ROOT (S (NP (JJ (happy))(NNS (valentine))(NN (day))(NN (baby)))(PP (FW (i)))(NP (VBP (love)))(NP (PRP (you))))) |ET| 
-1.0228854639984272800745657150401  |BT| (ROOT (S (NP (NN (phone)))(VP (VBD (break))))) |ET| 
-1.0228854639984272800745657150401  |BT| (ROOT (S (NP (VBP (make)))(VP (PRP (it))))) |ET| 
1.0228854639984272800745657150401  |BT| (ROOT (S (NP (NN (order)))(VP (VBZ (be)))(PP (IN (in))))(S (NP (RB (im)))(ADVP (RB (very)))(VP (JJ (excited))(TO (to))(VB (get))(VBN (start)))(VP (VBP (hope)))(NP (DT (all)))(VP (VBZ (go)))(ADVP (RB (well))))(S (NP (CD (:0))(RB (-rrb-))))) |ET| 
1.0228854639984272800745657150401  |BT| (ROOT (S (NP (NNP (energizer))(NNP (bunny)))(VP (VBN (arrest)))(VP (VBN (charge)))(PP (IN (with)))(NP (NN (battery))))) |ET| 
1.0228854639984272800745657150401  |BT| (ROOT (S (NP (DT (any))(JJ (last))(NNS (tip)))(PP (IN (for)))(NP (JJ (maths))(NN (paper))))) |ET| 
-1.0228854639984272800745657150401  |BT| (ROOT (S (NP (NNP (life)))(VP (VBZ (be)))(NP (DT (a))(JJ (warefare))(NN (!!!!!!!!!!!!!!!!!!!!!!!!!!!!))))(S (NP (NNP (waaaaaaaaaah))))) |ET| 
-1.0228854639984272800745657150401  |BT| (ROOT (S (NP (NN (blood)))(PP (IN (on)))(NP (DT (the))(NN (staircase))))) |ET| 
-1.0228854639984272800745657150401  |BT| (ROOT (S (NP (PRP (i)))(VP (VBP (be))(RB (so))(VBN (confue)))(PP (IN (with)))(NP (DT (the))(NNP (a.p))(NN (world))(NN (history))(NN (essay))))) |ET| 
1.0228854639984272800745657150401  |BT| (ROOT (S (NP (PRP (i)))(ADVP (RB (still)))(VP (VBP (think)))(NP (FW (i)))(VP (VB (have)))(NP (NN (school))(NN (tommorow))))) |ET| 
1.0228854639984272800745657150401  |BT| (ROOT (S (NP (FW (i)))(VP (VBD (see)))(NP (DT (a))(NN (monkey)))(VP (VBG (eat)))(NP (DT (a))(NN (banana)))(NP (PRP (it)))(VP (VBD (be)))(ADJP (JJ (weird))))) |ET| 
1.0228854639984272800745657150401  |BT| (ROOT (S (ADJP (RB (so))(JJ (happy))))) |ET| 
-1.0228854639984272800745657150401  |BT| (ROOT (S (PP (VB (don)))(NP (`` (`))(NNP (t)))(VP (VBP (want))(TO (to))(VB (talk.all)))(NP (FW (i)))(VP (VB (hear)))(VP (VBZ (be)))(NP (NN (noise))))) |ET| 
-1.0228854639984272800745657150401  |BT| (ROOT (S (NP (NN (fml))(NN (coolant)))(VP (VBZ (be)))(ADJP (JJ (super))(NN (fucking))))) |ET| 
-1.0228854639984272800745657150401  |BT| (ROOT (S (NP (FW (i))(JJ (lovee))(JJ (gabby))))(S (NP (PRP (she)))(VP (VBZ (be)))(ADJP (RB (soo))(JJ (amazing))))) |ET| 
1.0228854639984272800745657150401  |BT| (ROOT (S (NP (NNP (inuman)))(VP (VBP (pa))))(S (NP (NNP (baka))(NNS (final)))(VP (NN (muna))))(S (NP (NN (haha))))) |ET| 
1.0228854639984272800745657150401  |BT| (ROOT (S (NP (CD (9-3))(NN (!!!!!))))(S (NP (DT (the))(NN (end)))(PP (TO (to)))(NP (DT (a))(JJ (great))(NN (weekend)))(NP (DT (the))(NN (begining)))(PP (IN (of)))(NP (DT (a))(JJ (great))(NN (week))))) |ET| 
1.0228854639984272800745657150401  |BT| (ROOT (S (SBAR (FW (i)))(NP (NN (cant)))(VP (VBP (do)))(NP (PRP (it)))(UCP (NN (cant)))(NP (DT (all)))(PP (IN (of)))(NP (PRP (they)))(VP (VB (be))(NN (ms.)))(NP (JJ (nike))(CD (2011))))(S (NP (PRP (it)))(VP (VBZ (be)))(ADVP (RB (just))))) |ET| 
-1.0228854639984272800745657150401  |BT| (ROOT (S (NP (PRP (i)))(VP (VBP (need)))(NP (DT (a))(NN (remedy))))(S (PP (IN (for)))(NP (WP (what)))(VP (VBZ (be))(NN (ailin)))(NP (PRP (i))))(S (NP (PRP (you)))(VP (VBP (see))))) |ET| 
-1.0228854639984272800745657150401  |BT| (ROOT (S (NP (WP (what)))(VP (VBP (be)))(NP (DT (some))(JJ (good))(NNS (responsibility)))(PP (JJ (/)))(NP (NNS (chore)))(PP (IN (for)))(NP (DT (a))(CD (15))(NN (year)))(ADJP (JJ (old))))) |ET| 
-1.0228854639984272800745657150401  |BT| (ROOT (S (NP (NNS (dream)))(VP (VBP (be)))(NP (DT (the))(NNS (touchstone)))(PP (IN (of)))(NP (PRP$ (we))(NN (character))))) |ET| 
1.0228854639984272800745657150401  |BT| (ROOT (S (VP (VBZ (be)))(ADVP (NN (almighty))))) |ET| 
1.0228854639984272800745657150401  |BT| (ROOT (S (NP (PRP (i)))(VP (VBZ (have)))(NP (NNP (friday))(NN (school)))(NP (NN (tomorrow))(JJ (weak))))) |ET| 
1.0228854639984272800745657150401  |BT| (ROOT (S (VP (VB (woo))))(S (NP (JJ (last))(NN (day))))) |ET| 
-1.0228854639984272800745657150401  |BT| (ROOT (S (NP (NNP (band))(NN (concert)))(NP (NN (tonight))))(S (NP (NNP (>))))) |ET| 
-1.0228854639984272800745657150401  |BT| (ROOT (S (VP (NN (feelin)))(NP (NNS (good.miss))(NNP (my))(NNP (hubbie))(NNP (bad.but))(NNP (im))(NNP (tryin))))) |ET| 
-1.0228854639984272800745657150401  |BT| (ROOT (S (NP (JJ (last))(NN (night)))(VP (VBD (be)))(NP (NN (fun))))) |ET| 
1.0228854639984272800745657150401  |BT| (ROOT (S (NP (-LRB- (-lrb-))(CD (8))(-RRB- (-rrb-))(NNP (cos)))(NP (PRP (you)))(VP (VBP (be)))(ADJP (JJ (amazing)))(NP (RB (just))(DT (the))(NN (way)))(NP (PRP (you)))(VP (VBP (be)))(NP (CD (8))))) |ET| 
1.0228854639984272800745657150401  |BT| (ROOT (S (NP (DT (the))(NNP (south)))(VP (VBZ (be)))(NP (DT (the))(JJ (phanny))(NN (pack)))(PP (IN (of)))(NP (DT (the))(NNP (unnited))(NNPS (states))))) |ET| 
1.0228854639984272800745657150401  |BT| (ROOT (S (NP (PRP (you)))(VP (MD (can))(NN (kiss)))(NP (PRP (i)))(PP (IN (with)))(NP (DT (the))(NNS (window)))(ADJP (JJ (open))))) |ET| 
-1.0228854639984272800745657150401  |BT| (ROOT (S (VP (VBG (be)))(NP (JJ (sick))(VBZ (suck))))(S (NP (PRP (i)))(VP (VBP (have))(VBN (be)))(ADJP (JJ (sick)))(NP (DT (all))(NN (week))))(S (VP (JJ (greeting)))(ADVP (JJR (better)))(ADVP (RB (then))(JJR (worse))))) |ET| 
-1.0228854639984272800745657150401  |BT| (ROOT (S (NP (NNS (answer)))(PP (TO (to)))(NP (PRP$ (my))(NNS (prayer))))(S (VP (VB (thank)))(NP (PRP (you))))) |ET| 
-1.0228854639984272800745657150401  |BT| (ROOT (S (NP (PRP (it)))(VP (VBZ (suck)))(NP (NNP (nawt)))(VP (VBG (have)))(NP (NNP (da))(NNP (guy))(NNP (yuu))(NNP (want))(CC (&))(NNS (heart))))) |ET| 
1.0228854639984272800745657150401  |BT| (ROOT (S (NP (JJ (fair)))(VP (VBD (be)))(NP (DT (a))(NN (blast))))(S (NP (NN (mwahaha)))(VP (NNP (d))))) |ET| 
1.0228854639984272800745657150401  |BT| (ROOT (S (NP (NN (uuuhh)))(VP (VBD (tiiiir))))) |ET| 
1.0228854639984272800745657150401  |BT| (ROOT (S (NP (RB (not))(CD (one))(NN (trick))(CC (or))(NN (treater)))(NP (NNP (d))))) |ET| 
-1.0228854639984272800745657150401  |BT| (ROOT (S (NP (DT (a))(JJ (longg))(NN (weekend)))(VP (VBD (spend)))(ADVP (RB (well))))) |ET| 
-1.0228854639984272800745657150401  |BT| (ROOT (S (NP (FW (i)))(VP (VBD (fight)))(NP (DT (the))(NN (law)))(NP (DT (the))(NN (law)))(VP (VBD (win))))) |ET| 
-1.0228854639984272800745657150401  |BT| (ROOT (S (NP (JJ (red))))) |ET| 
1.0228854639984272800745657150401  |BT| (ROOT (S (VP (VBG (eat)))(NP (NNS (grape))))(S (NP (VBP (theyre))(JJ (sour))(CC (but))(JJ (sweet))))(S (NP (VB (yum))))) |ET| 
1.0228854639984272800745657150401  |BT| (ROOT (S (NP (`` (")))(VP (VBP (do))(RB (not))(VB (try)))(NP (CD (2)))(VP (VB (understand)))(NP (NN (everything))))(S (SBAR (RB (because)))(ADVP (RB (sometimes)))(NP (PRP (it)))(VP (VBZ (be))(RB (not))(VBN (mean))(TO (to))(VB (understand))))(S (ADJP (RB (rather)))(VP (TO (to))(VBP (accept))))) |ET| 
1.0228854639984272800745657150401  |BT| (ROOT (S (NP (CD (11))(NNS (month)))(ADVP (RB (ago)))(PP (IN (on)))(NP (DT (this))(NN (day))(VBD (god)))(VP (VB (bless)))(NP (PRP (i)))(PP (IN (with)))(NP (DT (a))(JJ (angel.a))(JJ (beautiful))(NN (baby))(NN (girl))))(S (NP (JJ (happy))(CD (11))(NN (month))(NN (birthday))(NNP (taygan-leigh))(NNP (jeftha))(RB (mommy))(CC (and))(RB (daddy)))(VP (VBZ (love)))(NP (VBN (u)))(ADVP (RB (very))(RB (much))))) |ET| 
-1.0228854639984272800745657150401  |BT| (ROOT (S (NP (MD (can))(RB (not)))(VP (VB (wait)))(PP (IN (for)))(NP (PRP$ (my))(NN (naya)))(VP (TO (to))(VB (meet)))(NP (JJ (tamzens))(NN (sumaium))))(S (VP (RB (either)))(NP (VBD (tonite))(CC (or))(NNP (thursday))))) |ET| 
-1.0228854639984272800745657150401  |BT| (ROOT (S (NP (RB (b'cos)))(NP (PRP$ (you)))(VP (NN (love)))(NP (PRP$ (you))(NN (love)))(NP (PRP$ (you))(NN (love)))(VP (VBZ (be)))(NP (PRP$ (my))(NN (drug))))(S (NP (NN (lalalum))))) |ET| 
-1.0228854639984272800745657150401  |BT| (ROOT (S (NP (DT (this))(NN (class)))(VP (VBZ (be)))(NP (CD (one))(JJ (big))(NN (joke))))(S (NP (PRP (we)))(VP (VBP (do))(RB (not))(VB (do)))(NP (NN (anything))))) |ET| 
1.0228854639984272800745657150401  |BT| (ROOT (S (NP (NNS (crutch)))(VP (VBD (come)))(ADVP (RB (finally))))) |ET| 
1.0228854639984272800745657150401  |BT| (ROOT (S (NP (VB (praise)))(VP (VB (confuse)))(NP (DT (the))(NN (enemy))))) |ET| 
1.0228854639984272800745657150401  |BT| (ROOT (S (NP (CD (32))(CD (+32))(SYM (=))(CD (64))))) |ET| 
-1.0228854639984272800745657150401  |BT| (ROOT (S (NP (NN (science))(NN (magic))(VBP (show))(JJ (lol))(NN (xx))))) |ET| 
-1.0228854639984272800745657150401  |BT| (ROOT (S (NP (NNP (shinrei))(NNP (tantei))(NNP (yakumo)))(VP (VBD (be)))(NP (PDT (such))(DT (a))(JJ (good))(NN (anime)))(NP (PRP (i)))(VP (VBD (cry)))(NP (NN (sooooooooo))(RB (much))(CD (<))(CD (3))))) |ET| 
-1.0228854639984272800745657150401  |BT| (ROOT (S (NP (NNP (para))(NNP (papapa))(NNP (pa))(NNP (pa))(NNP (pa))))) |ET| 
1.0228854639984272800745657150401  |BT| (ROOT (S (VP (VBG (go)))(PP (TO (to)))(NP (DT (a))(NN (movie))(NNS (:})))(VP (VBP (need))(TO (to))(VB (get)))(NP (PRP$ (my))(NN (mind)))(ADVP (RB (away)))(PP (IN (for)))(NP (DT (a))(JJ (few))(NNS (hour))))) |ET| 
1.0228854639984272800745657150401  |BT| (ROOT (S (NP (PRP (it)))(VP (VBZ (be)))(NP (DT (the))(JJ (proudest))(NN (moment)))(PP (IN (of)))(NP (DT (every))(NN (indian.we)))(PP (VB (don)))(NP (PRP (it))))(S (NP (NNS (yappiiiiiiiiiiiius))))) |ET| 
1.0228854639984272800745657150401  |BT| (ROOT (S (NP (DT (every))(NN (smile)))(VP (VBZ (be)))(NP (JJ (free))(NN (therapy))))(S (NP (DT (the))(NN (sound)))(PP (IN (of)))(NP (NN (laughter)))(NP (WDT (that)))(VP (VBZ (go)))(PP (IN (like)))(NP (DT (a))(NN (symphany))))) |ET| 
-1.0228854639984272800745657150401  |BT| (ROOT (S (VP (VBZ (be))(VBG (ride)))(PP (IN (on)))(NP (DT (a))(NN (wave)))(PP (IN (of)))(NP (JJ (good))(NN (emotion))))) |ET| 
-1.0228854639984272800745657150401  |BT| (ROOT (S (NP (VB (work)))(PP (IN (from)))(NP (JJ (10am)))(NP (JJ (6pm))(NN (text)))(NP (DT (the))(NN (cell))))) |ET| 
-1.0228854639984272800745657150401  |BT| (ROOT (S (NP (NN (beer)))(PP (IN (with)))(NP (DT (a))(NN (bit)))(PP (IN (of)))(NP (NN (sprite))))) |ET| 
1.0228854639984272800745657150401  |BT| (ROOT (S (VP (NN (craving)))(NP (NNP (mcdonalds))(NNP (fml))))) |ET| 
1.0228854639984272800745657150401  |BT| (ROOT (S (NP (NNP (halloween))(NNP (sunday))))) |ET| 
1.0228854639984272800745657150401  |BT| (ROOT (S (NP (NNP (so))(NNP (bored))))) |ET| 
-1.0228854639984272800745657150401  |BT| (ROOT (S (NP (NNP (eeeeeeeeeeeeeeeeeeee))(NNP (!!!!!))))) |ET| 
-1.0228854639984272800745657150401  |BT| (ROOT (S (NP (NNP (fml))))) |ET| 
-1.0228854639984272800745657150401  |BT| (ROOT (S (NP (NN (fucking))(VBP (hate))(NN (rainn))))) |ET| 
1.0228854639984272800745657150401  |BT| (ROOT (S (NP (PRP (it)))(VP (VBD (rain)))(PP (IN (on)))(NP (PRP (i))))(S (NP (VBZ (:{)))(VP (VBG (consider))(VBG (watch)))(NP (NNP (august))(NNP (rush))(NN (tonight))))(S (ADVP (RB (maybe)))(NP (DT (a))(NN (bit)))(PP (IN (of)))(NP (JJ (light)))(VP (NN (reading))))) |ET| 
1.0228854639984272800745657150401  |BT| (ROOT (S (VP (VBG (listen)))(PP (TO (to)))(NP (DT (the))(JJ (awkward))(NN (conversation))(VBZ (downstair)))(PP (IN (about)))(NP (VBG (fiddle)))(PP (IN (with)))(NP (DT (a))(NN (fiddle))))) |ET| 
1.0228854639984272800745657150401  |BT| (ROOT (S (NP (JJ (re-readin))(CD (5))(NNS (people)))(NP (PRP (you)))(VP (VBP (meet)))(PP (IN (in)))(NP (NN (heaven))))(S (NP (CD (<))(CD (3)))(PP (VBP (like)))(PP (IN (for)))(NP (DT (a))(NN (remeber)))(ADVP (WRB (when))))) |ET| 
-1.0228854639984272800745657150401  |BT| (ROOT (S (VP (VB (speak)))(ADVP (RB (only)))(ADVP (WRB (when)))(NP (PRP (you)))(NP (NNP (feel))(NN (yourr))(NNS (word)))(VP (VBP (be)))(ADJP (JJR (better)))(PP (IN (than)))(NP (DT (the))(NNP (silence))))) |ET| 
-1.0228854639984272800745657150401  |BT| (ROOT (S (VP (VBG (wait)))(PP (IN (for)))(NP (DT (the))(NN (day)))(VP (TO (to))(NNS (end.i))(RB (just))(VBP (wan))(TO (na))(VB (lay)))(PRT (RP (down))))(S (ADJP (RB (so))(VBN (tire)))(PP (IN (for)))(NP (DT (some))(NN (reason))))) |ET| 
-1.0228854639984272800745657150401  |BT| (ROOT (S (NP (VBZ (be)))(NP (NN (anyone)))(VP (VBG (go)))(PP (TO (to)))(NP (DT (the))(NN (fair))))(S (NP (PRP (i)))(VP (VBP (want))(TO (to))(VB (go)))(PP (IN (for)))(NP (DT (the))(NN (cimmon))(NNS (roll))))) |ET| 
1.0228854639984272800745657150401  |BT| (ROOT (S (NP (NNP (purple))))) |ET| 
1.0228854639984272800745657150401  |BT| (ROOT (S (NP (NNP (sleepy))))) |ET| 
1.0228854639984272800745657150401  |BT| (ROOT (S (NP (NNP (aghh))))) |ET| 
-1.0228854639984272800745657150401  |BT| (ROOT (S (NP (VB (gladiator))))(S (NP (NNP (d))))) |ET| 
-1.0228854639984272800745657150401  |BT| (ROOT (S (NP (NNP (i.am.so.bored))))) |ET| 
-1.0228854639984272800745657150401  |BT| (ROOT (S (NP (NNP (george))(NNP (galloway)))(VP (VBD (be)))(NP (NNP (amazingggggggg))))) |ET| 
1.0228854639984272800745657150401  |BT| (ROOT (S (VP (VBP (do)))(VP (VB (know)))(ADVP (WRB (how)))(NP (PRP (it)))(VP (VBZ (be)))(NP (PRP (you)))(VP (VBN (look)))(PP (IN (at)))(NP (PRP (i))))(S (VP (VBD (see)))(NP (DT (the))(NN (person)))(SBAR (IN (that)))(NP (FW (i)))(VP (MD (could))(VB (be))))(S (PP (IN (like)))(NP (NN (mercy)))(VP (VBG (ragee))(TO (to))(VB (save)))(NP (PRP (i)))(NP (DT (all))(DT (that))(FW (i))(NN (need)))(VP (VBZ (be)))(NP (PRP (you)))(ADJP (RB (so))(JJ (beautiful))(JJ (beautiful))))(S (NP (FW (i))(NN (cant)))(VP (VBP (explain)))(ADVP (WRB (how)))(NP (PRP$ (you))(VBG (change)))(NP (PRP$ (my))(NN (life))))) |ET| 
1.0228854639984272800745657150401  |BT| (ROOT (S (VP (VB (damn))))(S (NP (PRP (you)))(VP (VBD (get)))(NP (PRP (i)))(VP (NNS (feelin)))(NP (POS ('))(NN (good))))) |ET| 
1.0228854639984272800745657150401  |BT| (ROOT (S (NP (JJ (first))(NN (day)))(PP (IN (of)))(NP (PRP$ (my))(JJ (clinical))(NN (rotation)))(NP (NN (today))))(S (NP (PRP (i)))(VP (VBP (be)))(ADVP (RB (so)))(ADJP (JJ (excited))))) |ET| 
-1.0228854639984272800745657150401  |BT| (ROOT (S (NP (FW (i)))(VP (VBP (know)))(NP (PRP (it)))(VP (VBZ (killz)))(NP (RB (u)))(VP (VB (see)))(NP (PRP (i)))(VP (VBG (do)))(ADVP (NN (soo))(NN (gud))))) |ET| 
-1.0228854639984272800745657150401  |BT| (ROOT (S (ADVP (RB (sometimes)))(NP (PRP (you)))(VP (VBP (have))(TO (to))(VB (deal)))(PP (IN (with)))(NP (WP (what)))(NP (PRP (you)))(VP (VBP (want))(RB (not))(RB (necessarily))(VBG (be)))(NP (WP (what)))(NP (PRP (you)))(VP (VBP (need))))) |ET| 
-1.0228854639984272800745657150401  |BT| (ROOT (S (VP (NNP (love)))(NP (VBD (doesnt))(VBN (hurt)))(NP (NN (love)))(VP (VBZ (complete)))(NP (WP (what)))(NP (PRP (it)))(VP (VBZ (have))(VBN (start))))) |ET| 
1.0228854639984272800745657150401  |BT| (ROOT (S (NP (JJ (common)))(NP (VBP (lie))(TO (to))(NNP (me))))(S (NP (NNP (p))))) |ET| 
1.0228854639984272800745657150401  |BT| (ROOT (S (VP (VBZ (be))(VBG (lose)))(NP (PRP$ (she))(NN (voice)))(PP (IN (before)))(NP (NN (speech))(NN (day))))(S (NP (NNP (fantastic))))) |ET| 
1.0228854639984272800745657150401  |BT| (ROOT (S (NP (NNP (baking)))(VP (VBZ (christma)))(NP (NNS (cookie)))(NP (DT (all))(NN (day))))(S (NP (NNP (d))))) |ET| 
-1.0228854639984272800745657150401  |BT| (ROOT (S (NP (NNP (im))(NNP (cleanin))(VBD (my))(NNP (house))))(S (NP (NNP (so))(NNP (leave))(VBP (me))(VBG (along))))) |ET| 
-1.0228854639984272800745657150401  |BT| (ROOT (S (NP (NNP (hurtin))(VBP (inside))))(S (NP (NNP (but))(MD (will))(VB (not))(NNP (show))(NNP (it))))) |ET| 
-1.0228854639984272800745657150401  |BT| (ROOT (S (ADVP (RB (really)))(NP (JJ (bad))(NN (headache))(CC (and))(NN (stomach))(NNS (ache.i)))(VP (VBP (think)))(NP (NN (vickie)))(VP (VBD (get)))(NP (PRP (i)))(NP (JJ (sick))(NN (>))))(S (NP (NNP (<))))) |ET| 
1.0228854639984272800745657150401  |BT| (ROOT (S (SBAR (IN (if)))(NP (PRP (you)))(VP (VBP (want))(TO (to))(VB (be)))(NP (JJ (together)))(NP (PRP (you)))(ADVP (VBP (qot)))(NP (NN (to-get-her))))) |ET| 
1.0228854639984272800745657150401  |BT| (ROOT (S (NP (NNP (vee))(NNP (dah))(NNP (ca)))(NP ('' ('))(SYM (z))(NN (defender)))(PP (NN (ov)))(NP (`` ("))(DT (the))(NN (corrupt))('' ("))))) |ET| 
1.0228854639984272800745657150401  |BT| (ROOT (S (PP (NNP (win)))(VP (NNP (something))))) |ET| 
-1.0228854639984272800745657150401  |BT| (ROOT (S (VP (VB (damn))))) |ET| 
-1.0228854639984272800745657150401  |BT| (ROOT (S (NP (NNP (selamat))(NNP (berpuasa))(NNP (semua))(NNP (~))(NNP (~)))(NP (NNP (d))))) |ET| 
-1.0228854639984272800745657150401  |BT| (ROOT (S (NP (`` ("))(NNPS (haters)))(VP (VBP (be))(VBN (confuse)))(NP (NNS (admirer)))(NP (WP (who)))(VP (MD (can))(RB (t))(VB (understand)))(ADVP (WRB (why)))(NP (NN (everybody)))(ADJP (RB (else)))(VP (VBZ (like)))(NP (PRP (you)))(NP ('' ("))(NNP (paulo))(NNP (coelho))))) |ET| 
1.0228854639984272800745657150401  |BT| (ROOT (S (NP (JJ (aaaaaaaaaaaaaaaaaaaaaaahhhhhh))(NNS (!!!))))(S (NP (PRP (ya)))(VP (VBP (e)))(NP (CD (21/10/09))(JJ (>))(JJ (___))))) |ET| 
1.0228854639984272800745657150401  |BT| (ROOT (S (NP (VB (kabooom))))(S (VP (VBZ (go)))(NP (PRP$ (my))(NN (heart))))) |ET| 
1.0228854639984272800745657150401  |BT| (ROOT (S (NP (WRB (how))(JJ (many))(NNS (point)))(VP (VBZ (do)))(NP (DT (a))(JJ (ninja))(NN (star)))(VP (VB (have))(NN (??))))(S (NP (VBP (lol))))) |ET| 
-1.0228854639984272800745657150401  |BT| (ROOT (S (NP (VB (nice))(NN (parenting))(NN (mom))(CC (and))(NN (dad))))(S (NP (PRP (you)))(VP (VBD (teach)))(NP (PRP (i)))(NP (DT (the))(JJS (best))(NN (way)))(VP (TO (to))(VB (solve)))(NP (DT (a))(NN (marriage)))(VP (VBZ (be)))(VP (TO (to))(VB (get)))(NP (DT (a))(NN (divorce))))) |ET| 
-1.0228854639984272800745657150401  |BT| (ROOT (S (SBAR (RB (hmmmmmmmmmmm)))(NP (PRP (i)))(VP (VBP (love)))(ADVP (WRB (how)))(NP (PRP$ (my))(NN (back)))(VP (VBZ (become)))(NP (DT (a))(NN (cat))(JJ (bed.fun))(NN (stuff))))) |ET| 
-1.0228854639984272800745657150401  |BT| (ROOT (S (NP (DT (the))(NNP (future)))(VP (VBZ (be)))(NP (NNP (lookin))(NNP (so))(NNP (much))(NNP (brighter))))) |ET| 
1.0228854639984272800745657150401  |BT| (ROOT (S (VP (MD (will))(VB (be)))(NP (NN (home)))(NP (NN (today)))(PP (IN (by)))(NP (CD (12))(NNS (:}))))) |ET| 
1.0228854639984272800745657150401  |BT| (ROOT (S (ADVP (RB (back)))(VP (NN (home)))(SBAR (IN (after)))(NP (CD (two))(JJ (free))(NN (voice))(NNS (lesson)))(NP (NN (today)))(NP (NN (woop))(VBD (woop))))) |ET| 
1.0228854639984272800745657150401  |BT| (ROOT (S (NP (VB (dunkar))(RB (spotify)))(NP (NN (och))(NN (ska))(LS (f)))(VP (VBP (r)))(NP (NN (ka))(NN (att)))(VP (NN (dricka)))(NP (NN (bort))(NN (lite))(VBG (skallebang)))(PP (NN (fr)))(NP (NN (n))(NN (jobbet))))) |ET| 
-1.0228854639984272800745657150401  |BT| (ROOT (S (NP (NNP (paddle))(NNP (boarding)))(PP (IN (with)))(NP (NNP (turtless.fuun))(NNP (bt))(NNP (scaary))))(S (NP (NNP (;p))(NNP (lol))))) |ET| 
-1.0228854639984272800745657150401  |BT| (ROOT (S (NP (JJ (last))(NN (day)))(PP (IN (in)))(NP (NNP (mehico))))(S (ADVP (RB (back)))(PP (IN (across)))(NP (DT (the))(NN (border)))(PP (TO (to)))(NP (NNP (la))(NNP (tomoro))))) |ET| 
1.0228854639984272800745657150401  |BT| (ROOT (S (NP (WP (what)))(NP (DT (a))(NN (day))))) |ET| 
1.0228854639984272800745657150401  |BT| (ROOT (S (NP (PRP (i)))(VP (VBP (love)))(NP (PRP (it))))) |ET| 
1.0228854639984272800745657150401  |BT| (ROOT (S (NP (PRP (i)))(VP (VBP (hate)))(NP (IN (that))(JJ (awkward))(NN (moment)))(ADVP (WRB (when)))(NP (PRP (you)))(VP (VBP (kick)))(NP (NNP (taylor)))(VP (VB (break)))(NP (PRP$ (you))(NN (toe))))) |ET| 
-1.0228854639984272800745657150401  |BT| (ROOT (S (NP (CD (47/47)))(VP (VBP (chew)))(NP (PRP$ (my))(NN (sack))))) |ET| 
-1.0228854639984272800745657150401  |BT| (ROOT (S (VP (MD (can))(RB (not))(VB (sleep)))(NP (NN (p))))) |ET| 
-1.0228854639984272800745657150401  |BT| (ROOT (S (NP (NN (guild))(NNS (war)))(NP (NN (anyone))))) |ET| 
1.0228854639984272800745657150401  |BT| (ROOT (S (NP (VBZ (techno)))(PP (IN (on)))(NP (DT (the))(NN (weather))(NN (channel))))) |ET| 
1.0228854639984272800745657150401  |BT| (ROOT (S (VP (VBZ (be)))(ADVP (RB (back)))(PP (IN (from)))(NP (NNP (mcleod))))) |ET| 
1.0228854639984272800745657150401  |BT| (ROOT (S (ADVP (RB (seriously)))(NP (WP (what)))(VP (VBZ (be)))(PP (IN (with)))(NP (DT (the))(NN (crap))(NN (tv))))(S (NP (WP (who)))(ADVP (RB (even)))(VP (VBZ (like)))(NP (WP (who))(NNP (framed))(NNP (roger))(NNP (rabbit))))) |ET| 
-1.0228854639984272800745657150401  |BT| (ROOT (S (NP (JJ (tongue))(NNS (piercing)))(VP (VBP (do))(RB (not))(RB (really))(VB (hurt)))(PP (IN (at)))(ADVP (JJ (first))))(S (NP (PRP (i)))(ADVP (RB (definitely)))(VP (VBD (think)))(NP (PRP (it)))(VP (MD (would))(VB (be)))(NP (RBR (more))(JJ (painful))(NN (>))))(S (NP (NNP (<))))) |ET| 
-1.0228854639984272800745657150401  |BT| (ROOT (S (NP (JJ (immature))(NN (love)))(VP (VBZ (say)))(NP (PRP (i)))(VP (VBP (love)))(NP (PRP (you)))(SBAR (IN (because)))(NP (PRP (i)))(VP (VBP (need)))(NP (PRP (you))))(S (NP (JJ (mature))(NN (love)))(VP (VBZ (say)))(NP (`` (')))(NP (PRP (i)))(VP (VBP (need)))(NP (PRP (you)))(SBAR (IN (because)))(NP (PRP (i)))(VP (VBP (love)))(NP (PRP (you))))(S (VP (VBG (look)))(PRT (RP (up)))(NP (JJ (random))(NNS (quote))))) |ET| 
-1.0228854639984272800745657150401  |BT| (ROOT (S (NP (PRP (i)))(VP (VBP (realize)))(NP (PRP (it)))(VP (VBZ (be)))(ADVP (RB (only)))(PP (IN (in)))(NP (PRP (myself)))(NP (IN (that)))(NP (FW (i)))(VP (VB (find)))(NP (JJ (real))(NN (love)))(NP (JJ (real))(NN (truth))))) |ET| 
1.0228854639984272800745657150401  |BT| (ROOT (S (VP (MD (can))(RB (not))(VB (believe)))(NP (PRP (it))))(S (VP (MD (can))(RB (not))))(S (NP (MD (can))(RB (not)))(VP (MD (can))(RB (not))))(S (NP (PRP$ (its))(NN (reality))))) |ET| 
1.0228854639984272800745657150401  |BT| (ROOT (S (NP (NNP (youuuu))(NNP (bumderrrrrrrr))))) |ET| 
1.0228854639984272800745657150401  |BT| (ROOT (S (NP (NNP (kirisute))(NNP (gomeeeeeeeeeennn))))) |ET| 
-1.0228854639984272800745657150401  |BT| (ROOT (S (NP (VB (whew))))) |ET| 
-1.0228854639984272800745657150401  |BT| (ROOT (S (NP (VBZ (masendus))))) |ET| 
-1.0228854639984272800745657150401  |BT| (ROOT (S (NP (DT (this))(NN (crap)))(VP (MD (can))(VB (go)))(ADVP (NN (far.far.far))(RB (away))))) |ET| 
1.0228854639984272800745657150401  |BT| (ROOT (S (NP (NN (today)))(VP (VBD (be)))(ADJP (JJ (realllllll))(JJ (good)))(PP (FW (i)))(NP (NNS (muss)))(VP (VBP (say)))(NP (FW (i)))(VP (VBD (enjoy)))(NP (PRP$ (my))(NN (self))))) |ET| 
1.0228854639984272800745657150401  |BT| (ROOT (S (NP (VB (im))(JJ (sick)))(NP (VB (im)))(VP (VBN (stick)))(PP (IN (at)))(NP (NN (work)))(NP (VB (im)))(ADJP (JJ (unable)))(VP (TO (to))(VB (leave.aaaaaaahhhhhh))))) |ET| 
1.0228854639984272800745657150401  |BT| (ROOT (S (NP (NNP (baby))(PRP (i)))(VP (VBP (be))(VBG (beg)))(NP (NN (baby)))(NP (PRP (i)))(VP (VBP (be))(VBG (beg))(VBG (beg)))(NP (NN (baby))))(S (NP (PRP (i)))(VP (VBD (forget)))(ADVP (WRB (how)))(NP (PRP (i)))(VP (VBD (like)))(NP (NNP (jodeci))))) |ET| 
-1.0228854639984272800745657150401  |BT| (ROOT (S (NP (PRP (i)))(VP (VBP (wish)))(NP (PRP (i)))(VP (VBD (have)))(NP (JJ (choclate))(NN (chip))(NNS (cookie)))(VP (TO (to))(VB (eat)))(ADVP (RB (right))(RB (now))))) |ET| 
-1.0228854639984272800745657150401  |BT| (ROOT (S (SBAR (IN (if)))(NP (PRP (i)))(VP (MD (can))(RB (not))(VB (tell)))(NP (WP (who)))(NP (VBZ (be))(JJ (gay)))(ADVP (WRB (how)))(NP (PRP (i)))(VP (VBP (know)))(NP (WP (who)))(VP (TO (to))(VB (judge))))) |ET| 
-1.0228854639984272800745657150401  |BT| (ROOT (S (VP (VB (go)))(PP (IN (on)))(NP (DT (a))(NN (roller))(NN (coster)))(PP (IN (for)))(NP (DT (the))(JJ (first))(NN (time)))(ADVP (RB (ever)))(NP (NN (today))))(S (NP (JJ (scariest))(NN (thing)))(VP (VBP (ive))(RB (ever))(VBN (do))))(S (NP (PRP (it)))(VP (VBD (be)))(ADVP (NN (alot)))(PP (IN (of)))(NP (NN (fun))))) |ET| 
1.0228854639984272800745657150401  |BT| (ROOT (S (NP (VB (number))))) |ET| 
1.0228854639984272800745657150401  |BT| (ROOT (S (NP (NNP (monster))(NNP (trucks))(NNP (were))(NNP (awesome))))) |ET| 
1.0228854639984272800745657150401  |BT| (ROOT (S (NP (JJ (purple))))) |ET| 
-1.0228854639984272800745657150401  |BT| (ROOT (S (NP (NN (http://www.formspring.me/jmquigg))))) |ET| 
-1.0228854639984272800745657150401  |BT| (ROOT (S (NP (RB (too))(JJ (lazy))(NN (today))(VBP (*))(NNS (yawn))))) |ET| 
-1.0228854639984272800745657150401  |BT| (ROOT (S (NP (NNS (action)))(VP (VBP (speak)))(ADJP (RBR (louder)))(PP (IN (than)))(NP (JJ (words.period))))) |ET| 
1.0228854639984272800745657150401  |BT| (ROOT (S (NP (PRP (i)))(VP (VBP (need))(TO (to))(VB (go)))(PP (TO (to)))(NP (NN (bed)))(ADVP (RB (now))))) |ET| 
1.0228854639984272800745657150401  |BT| (ROOT (S (NP (PRP (i)))(VP (VBP (be)))(ADVP (RB (really)))(PP (IN (in)))(NP (DT (the))(NN (mood)))(VP (TO (to))(VB (watch)))(NP (DT (some))(JJ (old))(NNS (cartoon))))) |ET| 
1.0228854639984272800745657150401  |BT| (ROOT (S (VP (JJ (exhausted)))(PP (IN (from)))(VP (VBG (work)))(ADJP (NNS (4am-10pm)))(PP (IN (with)))(NP (DT (a))(CD (3))(NN (hour))(VBP (break)))(PP (IN (in)))(NP (DT (the))(NN (middle))))(S (NP (PRP (i)))(VP (VBP (think))(RB (even)))(NP (PRP$ (my))(NN (hair)))(VP (VBZ (be)))(ADVP (JJ (sore)))(PP (RB (o)))(NP (-RRB- (-rrb-))))) |ET| 
-1.0228854639984272800745657150401  |BT| (ROOT (S (NP (FW (i)))(ADVP (RB (still)))(VP (VBP (wan))(TO (na))(VB (make)))(NP (DT (a))(NN (try))))(S (NP (NNP (<))))) |ET| 
-1.0228854639984272800745657150401  |BT| (ROOT (S (VP (VBZ (be)))(ADVP (RB (really)))(ADVP (RB (reallyreallyreallyreallyreallyreallyreallyreallyreallyreallyreallyreallyreallyreallyreallyreallyreallyreallyreallyreallyreallyreallyreallyreallyreallyreallyreallyreallyreallyreallyreallyreallyreallyreallyreallyreallyreallyreallyreallyreallyreallyreallyreallyreallyreallyreallyreallyreallyreallyreallyreallyreallyreallyreallyreallyreallyreallyreallyreallyreallyreallyreallyreallyreallyreallyreallyreally)))(VP (JJ (bored))))) |ET| 
-1.0228854639984272800745657150401  |BT| (ROOT (S (NP (PRP (it)))(VP (VBZ (be)))(NP (JJ (snowing))))) |ET| 
1.0228854639984272800745657150401  |BT| (ROOT (S (NP (NN (uz))(NN (necitam))(RB (statusy)))(VP (VBP (do)))(NP (NN (utorka))))) |ET| 
1.0228854639984272800745657150401  |BT| (ROOT (S (NP (VBP (im)))(VP (JJ (hungry))(VB (thank)))(NP (NN (god)))(PP (IN (for)))(NP (JJ (throw-in-the-oven))(NN (pizza)))(NP (POS ('s))))) |ET| 
1.0228854639984272800745657150401  |BT| (ROOT (S (ADVP (NN (n.n)))(VP (VBN (buy)))(NP (NN (sum))(NNS (clothes)))(VP (VBZ (be))(JJ (happeh))))) |ET| 
-1.0228854639984272800745657150401  |BT| (ROOT (S (UCP (UH (wow)))(NP (PRP (i)))(VP (VBD (miss))(VBG (be)))(ADVP (NN (home))))) |ET| 
-1.0228854639984272800745657150401  |BT| (ROOT (S (NP (NNP (steak)))(NP (NN (pasta)))(PP (IN (for)))(NP (NN (dinner)))(PP (IN (with)))(NP (DT (some))(NN (apple))(NN (pie))(CC (and))(NN (vanilla))(NN (ice))(NN (cream)))(PP (IN (for)))(NP (NN (dessert.it)))(NP (POS ('s))(JJ (cool)))(VP (TO (to))(VB (cook)))(ADVP (NN (sometimes.when)))(PP (FW (i)))(NP (VBP (feel)))(PP (IN (like)))(NP (NN (it.lol))))) |ET| 
1.0228854639984272800745657150401  |BT| (ROOT (S (NP (PRP (it)))(VP (VBZ (be)))(NP (NN (barbecue))(NN (time))))) |ET| 
1.0228854639984272800745657150401  |BT| (ROOT (S (NP (NNP (school))(NN (year)))(VP (VBZ (be)))(ADVP (RP (over))))) |ET| 
1.0228854639984272800745657150401  |BT| (ROOT (S (NP (NNP (gusto))(VBP (ko)))(VP (TO (na))(VB (naman)))(NP (JJ (ata))(JJ (magaral))(NN (ng))(NN (medisina))))) |ET| 
-1.0228854639984272800745657150401  |BT| (ROOT (S (NP (VB (shemesh)))(VP (CD ('10)))(NP (WP (what))))) |ET| 
-1.0228854639984272800745657150401  |BT| (ROOT (S (NP (PRP (i)))(VP (JJ (fucking))(VBP (hate)))(NP (NN (muscle))(NNS (spasm))))) |ET| 
-1.0228854639984272800745657150401  |BT| (ROOT (S (NP (-LRB- (-lrb-))(TO (to))(NN (everyone))(-RRB- (-rrb-)))(NP (WP (what)))(VP (VBZ (be)))(NP (PRP$ (you))(NN (opinion)))(PP (IN (on)))(NP (NN (gambling))))) |ET| 
1.0228854639984272800745657150401  |BT| (ROOT (S (INTJ (VB (hell))(NN (yeah))))(S (NP (NNP (zombie))(VBP (simpson))(NN (episode))))) |ET| 
1.0228854639984272800745657150401  |BT| (ROOT (S (NP (NNP (ugh))))(S (NP (JJ (tired)))(PP (IN (of)))(VP (VBG (fight)))(PP (IN (with)))(NP (PRP (he))))(S (ADVP (RB (just)))(VP (VBP (wish)))(NP (FW (i)))(VP (MD (could))(VB (let))(VB (go)))(PP (IN (of)))(NP (PRP (he))))(S (NP (VBP (hate))(DT (this))))) |ET| 
1.0228854639984272800745657150401  |BT| (ROOT (S (PP (FW (i)))(NP (JJ (didnt)))(VP (VBP (watch)))(NP (DT (the))(NN (game)))(VP (VBD (do))(NN (shannon))(VB (throw)))(PRT (RP (down)))(NP (DT (a))(NN (slam))))) |ET| 
-1.0228854639984272800745657150401  |BT| (ROOT) |ET| 
-1.0228854639984272800745657150401  |BT| (ROOT (S (NP (FW (i)))(VP (VBP (know)))(NP (PRP (you)))(VP (VBP (be))(VBN (creepin)))(PP (IN (on)))(NP (PRP (i))(VBP (mr))(NN (sanderson)))(NP (NN (tonight))(DT (a))(JJ (good))(NN (night)))(PP (IN (for)))(NP (DT (a))(NN (walk))))) |ET| 
-1.0228854639984272800745657150401  |BT| (ROOT (S (NP (FW (i)))(VP (NN (feel)))(ADJP (JJ (sick))))(S (NP (VBP (noo))(NN (buenoo))))) |ET| 
-1.0228854639984272800745657150401  |BT| (ROOT (S (NP (NNP (ahh))(VBZ (mio))(NNS (dio))))(S (NP (NNP (jajjaja))(PRP (i)))(ADVP (RB (just)))(VP (VBD (wake)))(PRT (RP (up)))(PP (IN (from)))(NP (JJ (crazy))(NN (night)))(NP (PRP (i)))(VP (VBP (love)))(NP (PRP$ (my))(NNS (nigga))))(S (NP (VB (check))(DT (this)))(PP (IN (out)))(NP (CD (5))(NNS (voicemail)))(NP (CD (25))(NN (text))(NNS (message)))(UCP (RB (smh))))) |ET| 
1.0228854639984272800745657150401  |BT| (ROOT (S (NP (PRP (i)))(VP (VBP (need)))(NP (JJ (other))(NNS (people))(NN (opinion))))(S (NP (WP (what)))(SBAR (IN (if)))(NP (PRP (i)))(VP (VBD (get)))(NP (NNS (contact))))) |ET| 
1.0228854639984272800745657150401  |BT| (ROOT (S (ADVP (JJ (quien)))(NP (PRP (i))(NN (compra))(VBZ (boleto))(NNP (del))(NNP (cetyssorteo))))) |ET| 
1.0228854639984272800745657150401  |BT| (ROOT (S (NP (NN (finnaly)))(VP (VBD (do)))(NP (DT (some))(RB (much))(VBN (need))(JJ (shoping))))) |ET| 
-1.0228854639984272800745657150401  |BT| (ROOT) |ET| 
-1.0228854639984272800745657150401  |BT| (ROOT (S (NP (NN (u)))(VP (NN (hav))(VBD (get))(RB (ta))(VB (be))(VBN (kiddin)))(NP (PRP (i))))) |ET| 
-1.0228854639984272800745657150401  |BT| (ROOT (S (NP (NNP (wat)))(VP (VBZ (be))(SYM (d)))(NP (JJS (worst))(NN (tin)))(NP (NN (u)))(VP (NN (hav)))(NP (NN (done?share))(NN (pl))))) |ET| 
-1.0228854639984272800745657150401  |BT| (ROOT (S (NP (PRP (i)))(VP (VBP (be))(VBN (excite)))(PP (IN (about)))(NP (JJ (tommarrow))(NN (<))(CD (3))(SYM (=))(-RRB- (-rrb-))))) |ET| 
1.0228854639984272800745657150401  |BT| (ROOT (S (NP (VB (dnt)))(ADVP (RB (never)))(VP (VB (settle)))(PP (IN (for)))(NP (RBR (less))))(S (ADVP (NNP (always)))(NP (NNP (believe))(NNP (u))(VBZ (deserve)))(ADVP (JJR (more))))) |ET| 
1.0228854639984272800745657150401  |BT| (ROOT (S (NP (NN (karma)))(VP (VBZ (kick)))(NP (RB (ass)))(SBAR (RB (so)))(NP (FW (i)))(VP (VBP (do))(RB (not))(VB (have))(TO (to)))(NP (RB (p))))) |ET| 
1.0228854639984272800745657150401  |BT| (ROOT (S (NP (JJ (last))(NN (night)))(VP (VBD (be)))(ADJP (JJ (awesome))))) |ET| 
-1.0228854639984272800745657150401  |BT| (ROOT (S (ADVP (RB (well)))(VP (VBD (play)))(NP (NNP (india))))(S (ADJP (JJ (sad)))(PP (IN (for)))(NP (PRP$ (we))(NN (loss)))(VP (NN (though.still)))(NP (NNP (pakistan))(NNP (zindabaad))))) |ET| 
-1.0228854639984272800745657150401  |BT| (ROOT (S (ADVP (RB (finally)))(VP (VBN (do))(VBG (move))))) |ET| 
-1.0228854639984272800745657150401  |BT| (ROOT (S (ADVP (RB (still)))(VP (VBP (have)))(NP (NN (taste)))(PP (IN (of)))(NP (JJ (salty))(JJ (sandy))(NN (water)))(PP (IN (in)))(NP (PRP$ (my))(NN (mouth))))) |ET| 
1.0228854639984272800745657150401  |BT| (ROOT (S (VP (VBZ (be)))(NP (JJ (unpackin))(NN (stuff)))(NP (JJ (2day))))(S (NP (NN (fun))(NN (fun))(NN (fun))))(S (NP (-LRB- (-lrb-)))(NP (NNP (lub)))(UCP (PDT (all)))(NP (PRP$ (my))(NNS (fwand))))(S (NP (VB (text)))(NP (PRP (i))))) |ET| 
1.0228854639984272800745657150401  |BT| (ROOT (S (NP (PRP (i)))(VP (MD (might))(VB (be))(VBN (disown)))(PP (IN (from)))(NP (PRP$ (my))(NN (family)))(ADVP (RB (now)))(NP (VB (/))(NNS (thanks))(NNS (politics))))) |ET| 
1.0228854639984272800745657150401  |BT| (ROOT (S (NP (PRP (he)))(VP (VBZ (tell)))(NP (PRP (i)))(NP (FW (i)))(VP (MD (can))(VB (do)))(NP (NN (anything)))(SBAR (FW (i)))(VP (VB (put)))(NP (PRP$ (my))(NN (mind)))(PP (TO (to))))(S (VP (VB (fly)))(NP (DT (a))(NN (plane))))(S (NP (NN (haha))(FW (i)))(VP (VBP (think))))(S (NP (NN (haha)))(VP (VBP (mr.))(JJ (perfect))(NN (aint)))(ADVP (RB (right)))(NP (DT (this))(NN (time))))) |ET| 
-1.0228854639984272800745657150401  |BT| (ROOT (S (NP (NNP (life)))(VP (VBZ (be)))(NP (DT (a))(NN (dream))))) |ET| 
-1.0228854639984272800745657150401  |BT| (ROOT (S (NP (NN (lol))(NNS (>)))(SBAR (VBP (<)))(NP (PRP (i)))(VP (VBP (love)))(NP (JJ (anime))))(S (NP (VBD (<))(CD (3))))) |ET| 
-1.0228854639984272800745657150401  |BT| (ROOT (S (VP (VBZ (be)))(ADJP (VBN (tire)))(VP (VBN (forget)))(NP (DT (some))(JJ (french))(NN (homework)))(VP (VBZ (have))(TO (to))(VB (do)))(NP (PRP (it))))(S (ADVP (RB (really)))(VP (VBZ (do))(RB (not))(VB (feel)))(PP (IN (like)))(NP (PRP (it))))(S (NP (VBD (meh))))(S (INTJ (UH (oh))(UH (well))))) |ET| 
1.0228854639984272800745657150401  |BT| (ROOT (S (VP (VBZ (think)))(NP (PRP$ (its))(JJ (good))(CD (2)))(VP (VBP (have)))(NP (PRP$ (he))(JJ (old))(NN (job)))(ADVP (RB (back))))) |ET| 
1.0228854639984272800745657150401  |BT| (ROOT (S (NP (NN (fish))(NNS (tale)))(NP (VBP (sushi.so))(JJ (many))(JJ (hard))(NNS (choice))))) |ET| 
1.0228854639984272800745657150401  |BT| (ROOT (S (NP (NN (swore)))(PP (IN (into)))(NP (DT (the))(NNP (air))(NNP (force))(SYM (=))))) |ET| 
-1.0228854639984272800745657150401  |BT| (ROOT (S (VP (VB (rock)))(NP (DT (the))(CD (three))(NNS (musketeer))(NN (shirt)))(NP (NN (today))))) |ET| 
-1.0228854639984272800745657150401  |BT| (ROOT (S (NP (NN (ffuuccckk)))(PP (FW (i)))(NP (NN (cant))(NN (slleeeepppppp))(NN (text))(JJ (meeeeeeeeeee))(NN (hahaaa))(CD (4511194))))) |ET| 
-1.0228854639984272800745657150401  |BT| (ROOT (S (NP (FW (i))(VBD (<))(CD (3)))(NP (PRP$ (my))(NN (family))))) |ET| 
1.0228854639984272800745657150401  |BT| (ROOT (S (NP (PRP (it)))(VP (VBZ (kill)))(NP (PRP (i)))(VP (TO (to))(VB (know)))(NP (WRB (how))(RB (much)))(NP (PRP (i)))(ADVP (RB (really)))(VP (VBP (love)))(NP (PRP (you))))(S (NP (POS ('))(NNP (-lrb-))))) |ET| 
1.0228854639984272800745657150401  |BT| (ROOT (S (NP (NNP (justin))(NNP (bieber))))(S (NP (NN (something)))(PP (IN (about)))(NP (DT (this))(NN (kid)))(ADVP (RB (really)))(VP (VBZ (bother)))(NP (PRP (i))))) |ET| 
1.0228854639984272800745657150401  |BT| (ROOT (S (NP (NNP (vienna)))(VP (VBZ (sound)))(NP (JJ (dont))(NN (work))))(S (NP (NNP (t_t))))) |ET| 
-1.0228854639984272800745657150401  |BT| (ROOT (S (NP (VB (im)))(ADVP (RP (back)))(PP (IN (in)))(NP (NNP (sydney)))(ADVP (RB (safely))))(S (NP (NN (work))(NNS (2moro))))) |ET| 
1.0228854639984272800745657150401  |BT| (ROOT (S (VP (VBZ (be))(VBG (die))(TO (to))(VB (go)))(NP (NN (skiing))(NN (<))(CD (3))))) |ET| 
-1.0228854639984272800745657150401  |BT| (ROOT (S (NP (NNS (what)))(PP (IN (on)))(NP (NNP (my))(NNP (mind))))(S (NP (NNP (can))(NNP (u))(NNP (say))(NNP (s))(NNP (t))(NN (r))(NNP (e))(NNP (s))(NNP (s))(NNP (!!!!!))))) |ET| 
-1.0228854639984272800745657150401  |BT| (ROOT (S (NP (`` ("))(VBP (do))(RB (not))(VB (mind))(PRP (i))))(S (NP (PRP (i)))(ADVP (RB (just)))(VP (VBP (have)))(NP (NN (pain))(NNP (tourrette)))(NP (POS ('s))))) |ET| 
1.0228854639984272800745657150401  |BT| (ROOT (S (NP (NN (today)))(NP (PRP$ (my))(NN (life)))(VP (VBZ (begin))))) |ET| 
1.0228854639984272800745657150401  |BT| (ROOT (S (NP (FW (i)))(VP (VB (keep)))(NP (NN (you))))) |ET| 
-1.0228854639984272800745657150401  |BT| (ROOT (S (VP (VBZ (love)))(PP (TO (to)))(NP (VB (watch))(NN (ice))(NN (dancing))))) |ET| 
-1.0228854639984272800745657150401  |BT| (ROOT (S (NP (`` ("))(NNP (greatness)))(VP (VBZ (inspire)))(NP (NN (envy))))(S (NP (NNP (envy))(VBZ (engender))(NN (spite))))(S (NP (NNP (spite))(VBZ (spawn)))(VP (NNS (lie))))(S (NP (VBP (>))(`` ("))(JJ (voldemort))('' ("))))) |ET| 
-1.0228854639984272800745657150401  |BT| (ROOT (S (NP (JJ (*))(NN (sigh))(VBD (*))))(S (NP (VB (hmmm))(NN (time)))(VP (TO (to))(VB (start)))(NP (DT (the))(JJ (delete))(NN (game))))) |ET| 
1.0228854639984272800745657150401  |BT| (ROOT (S (NP (FW (i)))(VP (VBD (get)))(NP (PRP$ (my))(NN (ring)))(VP (VBN (clean)))(NP (PRP$ (its)))(PP (JJ (like)))(NP (JJ (new))(NNS (*)))(PP (VBG (=})))(NP (CD (<))(CD (3))(VBP (love)))(NP (PRP (it))))) |ET| 
0.91988663657501001935656859131996  |BT| (ROOT (S (NP (NN (re))(NNS (cosn))(VBP (tr))(SYM (c))(NN (t)))(PP (FW (i)))(NP (NNS (nnnnngn))(VBP (u.)))(VP (VBG (start)))(ADVP (RB (now))))) |ET| 
0.93312941902780277558804300497286  |BT| (ROOT (S (NP (VB (im)))(PP (IN (in)))(NP (JJ (new))(NN (york))(CD (2))(NN (day)))(NP (WP (who)))(VP (VBP (wan))(TO (na))(VB (come))))) |ET| 
-1.0228854639984272800745657150401  |BT| (ROOT (S (VP (VBG (ting)))(NP (JJ (tong))))) |ET| 
-1.0228854639984272800745657150401  |BT| (ROOT (S (VP (VB (fuck)))(NP (PRP$ (my))(NN (life))))(S (VP (VB (thank)))(NP (NN (god)))(PP (IN (for)))(NP (JJ (good))(NNS (friend))))) |ET| 
-1.0228854639984272800745657150401  |BT| (ROOT (S (NP (VBZ (sometimess)))(VP (VBG (let)))(NP (PRP (it)))(VP (VB (go)))(NP (NNP (worrrks))(NNP (waaay))(NNP (better))(NNP (;]))))) |ET| 
1.0228854639984272800745657150401  |BT| (ROOT (S (NP (VBZ (love))(JJ (retail))(NN (therapy))))(S (NP (VBD (<))(CD (3))))) |ET| 
1.0228854639984272800745657150401  |BT| (ROOT (S (NP (JJ (good))(NN (bye))(CD (2010))(VBP (~))(UH (hello))(CD (2011))))(S (NP (NNP (d))))) |ET| 
1.0228854639984272800745657150401  |BT| (ROOT (S (NP (NNP (equipo)))(PP (FW (de)))(NP (NNP (metodologiaaaa))(VBP (que))(RB (hay))(VB (que))(NN (hacer))))(S (NP (DT (no))(FW (se))(FW (nadaaa))))) |ET| 
-1.0228854639984272800745657150401  |BT| (ROOT (S (NP (VB (bostonn))))(S (NP (VBD (<))(CD (3))))) |ET| 
-1.0228854639984272800745657150401  |BT| (ROOT (S (NP (NNP (new))(NNP (york))))(S (NP (NNP (d))))) |ET| 
-1.0228854639984272800745657150401  |BT| (ROOT (S (ADJP (NNP (freezing))))(S (NP (NN (a))))) |ET| 
1.0228854639984272800745657150401  |BT| (ROOT (S (VP (RB (spotify)))(NP (VB (invite))(VB (please))(NN (anyone))))) |ET| 
1.0228854639984272800745657150401  |BT| (ROOT (S (NP (PRP (i)))(VP (VBD (have))(TO (to))(VB (get)))(PRT (IN (off)))(NP (DT (the))(NN (boat)))(SBAR (IN (so)))(NP (PRP (i)))(VP (MD (could))(VB (walk)))(PP (IN (on)))(NP (NN (water))))) |ET| 
1.0228854639984272800745657150401  |BT| (ROOT (S (VP (VBG (play)))(NP (NNP (will))(NNP (fit)))(PP (IN (with)))(NP (NNP (paige))(NN (haha))(SYM (=))(NN (p))))) |ET| 
-1.0228854639984272800745657150401  |BT| (ROOT (S (VP (VBZ (be)))(PP (IN (at)))(NP (NN (mc))(NNS (donald)))(VP (JJ (hehe)))(PP (IN (with)))(NP (PRP$ (he))(NNS (classmate))))) |ET| 
-1.0228854639984272800745657150401  |BT| (ROOT (S (NP (VBP (ppl)))(VP (VBG (get))(VBG (jo)))(NP (PRP$ (my))(NNS (result)))(VP (RB (nt)))(ADVP (RB (yet))(RP (out))))) |ET| 
-1.0228854639984272800745657150401  |BT| (ROOT (S (NP (FW (i)))(VP (RB (am))(VBP (chillen)))(PP (IN (at)))(NP (NN (work))(NN (hollum)))(ADVP (RB (back))(NNP (friday))))) |ET| 
1.0228854639984272800745657150401  |BT| (ROOT (S (NP (NN (goodnight))))(S (NP (VBD (<))(CD (3))))) |ET| 
1.0228854639984272800745657150401  |BT| (ROOT (S (NP (JJ (happy))(NNP (friday))))(S (NP (NNP (;}))(NNP (cheers))))) |ET| 
1.0228854639984272800745657150401  |BT| (ROOT (S (NP (NNP (badtrp))))(S (NP (NNS (hindus))(VBP (ako))(VBG (mkapag))(NNP (mu))))) |ET| 
-1.0228854639984272800745657150401  |BT| (ROOT (S (NP (JJ (happy))(NNP (daylight))(NNP (saving))(NNP (time))(NNP (day))))) |ET| 
-1.0228854639984272800745657150401  |BT| (ROOT (S (NP (VB (ya))(NN (tengo))))(S (NP (NN (mismo))(VBD (numero))))) |ET| 
-1.0228854639984272800745657150401  |BT| (ROOT (S (NP (-LRB- (-lrb-))(NNP (?????))))(S (NP (CD (????????))))) |ET| 
1.0228854639984272800745657150401  |BT| (ROOT (S (VP (VBZ (be)))(VP (VBG (fuck))(VBN (piss)))(PRT (RP (off)))(PP (IN (as)))(NP (NN (fuck))(, (,))(IN (like))(, (,)))(PP (IN (for)))(NP (NN (fuck)))(NP (POS ('s))(NN (sake))))(S (VP (VBD (fuck))))) |ET| 
1.0228854639984272800745657150401  |BT| (ROOT (S (NP (DT (the))(JJS (best))(NN (night)))(VP (VBG (hang)))(PRT (RP (out)))(PP (IN (with)))(NP (PRP$ (my))(NNS (kid))))) |ET| 
1.0228854639984272800745657150401  |BT| (ROOT (S (VP (VBG (go))(NN (camping)))(PP (IN (in))))) |ET| 
-1.0228854639984272800745657150401  |BT| (ROOT (S (NP (VB (lol)))(VP (VBG (watchingg)))(NP (DT (the))(NN (roast)))(PP (IN (of)))(NP (JJ (donald))(NN (trumph))))) |ET| 
-1.0228854639984272800745657150401  |BT| (ROOT (S (NP (VB (jazzin))(: (')))(PRT (RP (up)))(PP (IN (for)))(NP (NNP (saturday))))) |ET| 
-1.0228854639984272800745657150401  |BT| (ROOT (S (VP (VBG (go))(TO (to))(VB (go))(VB (eat)))(NP (NNP (yay))))) |ET| 
1.0228854639984272800745657150401  |BT| (ROOT (S (NP (NNP (asan))(VBP (ang))(JJ (pause))(NN (button))))(S (VP (JJ (ayoko))(NN (pa)))(NP (NNS (pumunta))(VBP (dun))))) |ET| 
1.0228854639984272800745657150401  |BT| (ROOT (S (NP (NNP (lone))(VBZ (wolf))(NN (barrel))))) |ET| 
1.0228854639984272800745657150401  |BT| (ROOT (S (NP (NNP (these))(NNP (bitch))(NNP (asses))(VBP (be))(RB (not))(VB (even))(NNP (trying))))) |ET| 
-1.0228854639984272800745657150401  |BT| (ROOT (S (NP (DT (a))(NNP (todos))(NNP (mis))(NNP (amigos)))(VP (NNP (de)))(NP (NNP (facebook))(NNP (les))(NNP (deseo)))(PP (NNP (un)))(NP (NNP (muy))(NNP (feliz))(DT (a))(NNP (o))(NNP (nuevo.gracias))(NNP (diegoel))))) |ET| 
-1.0228854639984272800745657150401  |BT| (ROOT (S (NP (PRP (i)))(VP (VBP (be)))(NP (DT (a))(JJ (space-bound))(NN (rocketship)))(NP (PRP$ (you))(NN (heart)))(NP (POS ('s))(DT (the))(NN (moon))))) |ET| 
-1.0228854639984272800745657150401  |BT| (ROOT (S (NP (NNP (la))(NN (voz))(NN (humana)))(NP (DT (no))(JJ (puede)))(PP (NN (alcanzar))(FW (la))(NN (distancium))(FW (de))(FW (la))(NN (vocecillum))(FW (de))(FW (la))(NN (conciencium))(-LRB- (-lrb-))(NNP (gandhi))))) |ET| 
1.0228854639984272800745657150401  |BT| (ROOT (S (NP (NNP (library)))(VP (VBZ (be)))(ADJP (RB (so))(JJ (cold))))(S (NP (RB (noooiiissseyyyyyy))(NNP (xd))(NN (cant))(NN (focus)))(PP (VBP (*)))(NP (NN (head))(NNS (explode))))) |ET| 
1.0228854639984272800745657150401  |BT| (ROOT (S (NP (RB (nearly))(NN (time)))(PP (TO (to)))(NP (VB (suit))(RP (up))))(S (NP (NNP (barney))(NNP (style))))(S (VP (VB (gon))(TO (na))(VB (be)))(NP (VBN (legend))))(S (VP (VB (wait)))(PP (IN (for)))(NP (PRP (it))))) |ET| 
1.0228854639984272800745657150401  |BT| (ROOT (S (VP (VB (wan))(TO (na))(VB (go)))(VP (TO (to))(FW (karaoke))))) |ET| 
-1.0228854639984272800745657150401  |BT| (ROOT (S (NP (PRP (i)))(VP (VBP (wan))(TO (na))(VB (go))(VBG (shop)))(ADVP (RB (now))))(S (NP (PRP$ (my)))(ADVP (RB (just))(RB (too))(JJ (lazy)))(VP (TO (to))(VB (get))(VBN (change))))) |ET| 
-1.0228854639984272800745657150401  |BT| (ROOT (S (NP (NNP (pakistan))(NNP (zindabad))))) |ET| 
-1.0228854639984272800745657150401  |BT| (ROOT (S (NP (`` ("))(JJ (mutual))(NN (attraction)))(VP (VBZ (be)))(ADJP (JJ (mutual))))) |ET| 
1.0228854639984272800745657150401  |BT| (ROOT (S (PP (IN (like)))(NP (DT (a))(NN (boss)))(VP (VBP (ima)))(NP (CD (1.2)))(NP (DT (the))(JJ (gorgous))(NN (day))))) |ET| 
1.0228854639984272800745657150401  |BT| (ROOT (S (NP (`` ("))(NNP (l'obsession))(NNP (de))(VBZ (l'ailleur)))(ADVP (JJ (c'est))(NN (l'impossibilit)))(NP (FW (de))(NN (l'instant))))) |ET| 
1.0228854639984272800745657150401  |BT| (ROOT (S (VP (`` ("))(NNP (excuse)))(NP (PRP (i)))(VP (VBP (be)))(NP (PRP (you)))(NP (DT (a))(NN (dictionary))))(S (NP (RB (cuz)))(NP (PRP (you)))(VP (VBP (give))(VBG (mean)))(PP (TO (to)))(NP (PRP$ (my))(NN (life))))(S (NP (NNS (corny.ampf))))) |ET| 
-1.0228854639984272800745657150401  |BT| (ROOT (S (ADVP (RB (just)))(VP (VBD (send)))(PP (IN (in)))(NP (PRP$ (my))(JJ (last))(JJ (premin))(NN (internship))(NN (journal)))(PP (IN (for)))(NP (DT (the))(NN (summer))))(S (NP (PRP (it)))(VP (VBZ (be))(VBG (come)))(PP (TO (to)))(NP (DT (a))(NN (close)))(ADVP (RB (soon)))(VP (VBZ (be)))(NP (PRP (it))))) |ET| 
-1.0228854639984272800745657150401  |BT| (ROOT (S (NP (WP (who)))(VP (MD (would))(VB (have))(VBN (think)))(PP (RP (over)))(NP (CD (20))(NNS (year)))(ADVP (RB (ago)))(SBAR (IN (that)))(NP (PRP (i)))(VP (MD (would))(VB (love))(VBG (work)))(PP (IN (in)))(NP (DT (a))(NNP (school))))(S (NP (PRP (it)))(VP (VBZ (amaze)))(NP (PRP (i)))(ADVP (WRB (how)))(NP (PRP (i)))(VP (VBP (get)))(PP (IN (out)))(PP (IN (of)))(VP (VBG (help)))(NP (DT (the))(NNS (kid))))) |ET| 
-1.0228854639984272800745657150401  |BT| (ROOT (S (NP (NN (cant))(VB (wait)))(PP (IN (for)))(NP (NN (today)))(VP (TO (to))(VB (be)))(PP (IN (over))))(S (NP (NNP (cant))(VBP (wait)))(VP (TO (to))(VB (relax))))) |ET| 
1.0228854639984272800745657150401  |BT| (ROOT (S (ADVP (RB (officially)))(VP (VBP (hate)))(NP (NN (bus))(NNS (driver))))) |ET| 
1.0228854639984272800745657150401  |BT| (ROOT (S (NP (VB (layy)))(ADVP (RP (back))))) |ET| 
1.0228854639984272800745657150401  |BT| (ROOT (S (NP (VBP (wow))))(S (VP (VBG (be))(VBN (graduate)))(VP (VBZ (be)))(NP (DT (a))(JJ (different))(NN (feeling))))(S (NP (PRP (it)))(VP (VBZ (be)))(NP (DT (a))(JJ (good))(NN (feeling)))(ADVP (RB (though))))(S (VP (VB (look)))(PRT (RP (out)))(NP (NN (world))))(S (ADVP (RB (here)))(VP (VBZ (come)))(NP (NNP (southside))(NNP (high)))(NP (POS ('s))(NN (class)))(PP (IN (of)))(NP (CD (2010))))) |ET| 
-1.0228854639984272800745657150401  |BT| (ROOT (S (NP (NNP (wow)))(NP (PRP$ (my))(NN (poo)))(VP (VBZ (smell))))) |ET| 
-1.0228854639984272800745657150401  |BT| (ROOT (S (NP (PRP (i)))(VP (VBP (be)))(NP (RB (so))(NNP (erkedd))(NNP (yoo))(NNP (uhh))))) |ET| 
-1.0228854639984272800745657150401  |BT| (ROOT (S (VP (VBD (get)))(UCP (NN (ta)))(VP (NN (work))))) |ET| 
1.0228854639984272800745657150401  |BT| (ROOT (S (ADVP (RB (really)))(VP (VBP (want)))(NP (DT (a))(NN (mandolin)))(ADVP (RB (now))))(S (ADVP (VBD (:}))(RB (now)))(VP (TO (to))(VB (buy)))(NP (CC (or))(RB (not)))(VP (TO (to))(VB (buy))))) |ET| 
1.0228854639984272800745657150401  |BT| (ROOT (S (NP (RB (just)))(VP (VBN (watch)))(NP (DT (the))(NN (traped)))(PP (IN (in)))(NP (DT (the))(NN (closet))(NN (saga)))(ADVP (RB (still)))(VP (VBZ (make)))(NP (DT (no))(JJ (sence))))(S (NP (NN (lol))))) |ET| 
1.0228854639984272800745657150401  |BT| (ROOT (S (NP (PRP (i)))(VP (NN (bag)))(NP (NNS (every1)))(NP (POS ('s))(NN (aim)))(NP (NN (screen))(VB (name))))(S (NP (NNS (juss)))(VP (VBP (drop))(NN (itt))))) |ET| 
-1.0228854639984272800745657150401  |BT| (ROOT (S (NP (NNS (mother)))(VP (VBG (go))(TO (to))(VB (drive)))(NP (PRP (i)))(NP (NNS (banana))))(S (ADVP (RB (up)))(UCP (RB (down)))(NP (DT (the))(NNS (stair)))(NP (DT (all))(NN (day))))(S (NP (FW (i)))(VP (VBP (have))(VBN (get)))(NP (CD (one))(NN (hell)))(PP (IN (of)))(NP (DT (a))(NN (workout))))) |ET| 
-1.0228854639984272800745657150401  |BT| (ROOT (S (NP (PRP (we)))(VP (VB (pretend)))(NP (IN (that))(NNS (airplane)))(PP (IN (in)))(NP (DT (the))(NN (night))(NN (sky)))(VP (VBP (be)))(PP (IN (like)))(NP (VBG (shoot))(NNS (stars.i)))(VP (MD (could))(RB (really))(VB (use)))(NP (DT (a))(VBP (wish))(RB (right)))(ADVP (RB (now)))(VP (VBP (wish)))(ADVP (RB (right))(RB (now)))(VP (VBP (wish)))(ADVP (RB (right))(RB (now))))) |ET| 
-1.0228854639984272800745657150401  |BT| (ROOT (S (NP (JJ (celebrated))(NN (kody)))(NP (POS ('s))(JJ (8th))(JJ (b-day)))(ADVP (NN (tonight)))(PP (IN (at)))(NP (NN (mom))(CC (and))(NNS (dad))(NN (omg.my))(NN (baby)))(VP (VBZ (be))(VBG (gon))(TO (na))(VB (be)))(NP (CD (8)))(VP (VBP (do)))(NP (PRP (you)))(VP (VBP (know)))(ADVP (WRB (how)))(VP (VBG (devestate)))(SBAR (IN (that)))(NP (NNS (is.i)))(VP (VBP (need)))(NP (DT (a))(NN (baby.lol))))) |ET| 
1.0228854639984272800745657150401  |BT| (ROOT (S (NP (PRP (i)))(VP (VBP (miss)))(NP (PRP$ (my))(NN (fiance))))) |ET| 
1.0228854639984272800745657150401  |BT| (ROOT (S (NP (NNP (karley)))(VP (VBZ (be)))(NP (NNP (awesome))(NNP (:}))))) |ET| 
1.0228854639984272800745657150401  |BT| (ROOT (S (NP (PRP (you)))(VP (VBD (break)))(NP (PRP$ (my))(NN (heart)))(NP (NN (tissue))(NN (wont)))(VP (VB (fix)))(NP (PRP (it))))(S (ADVP (VBZ (ily))))(S (NP (NNP (sang-jun))))) |ET| 
-1.0228854639984272800745657150401  |BT| (ROOT (S (NP (PRP (i)))(VP (VBP (miss)))(NP (PRP (you))))) |ET| 
-1.0228854639984272800745657150401  |BT| (ROOT (S (NP (PRP (i)))(VP (VBP (need)))(NP (DT (some))(NN (food))))) |ET| 
1.0228854639984272800745657150401  |BT| (ROOT) |ET| 
1.0228854639984272800745657150401  |BT| (ROOT (S (VP (VBZ (have))(VBN (manage))(TO (to))(VB (piss)))(NP (NNP (wafi)))(PRT (RP (off)))(PP (IN (as)))(ADJP (JJ (usual))))) |ET| 
1.0228854639984272800745657150401  |BT| (ROOT (S (NP (NN (inyeccion))(FW (de))(NN (orgullo))(SYM (&))(JJ (evil))(CC (&))(NN (courage))(JJ (urgente))(NN (u.u))(NN (segun))(NN (receta))(FW (de))(FW (la))(NNP (doctora))(NNP (genesis))(NNP (melissa))(NNP (c))(NN (u.u))))) |ET| 
-1.0228854639984272800745657150401  |BT| (ROOT (S (NP (PRP (i)))(VP (VBP (miss)))(NP (PRP (you))))) |ET| 
-1.0228854639984272800745657150401  |BT| (ROOT (S (NP (DT (the))(NN (bus)))(VP (VBZ (be)))(ADJP (JJ (bad))))(S (NP (PRP$ (its))(NN (kind)))(PP (IN (of)))(NP (NN (relaxing.it)))(ADVP (RB (just)))(VP (VBZ (take)))(NP (RBR (longer))))) |ET| 
-1.0228854639984272800745657150401  |BT| (ROOT (S (VP (VB (goingg)))(ADJP (JJ (crazy)))(PP (IN (from)))(NP (NNS (boredness))))(S (NP (NN (texxt))))) |ET| 
-1.0228854639984272800745657150401  |BT| (ROOT (S (NP (NNP (may))(NNP (vampire))(VBZ (diary))(NN (season))(CD (2))(NN (naaaa))(NNS (!!!))))(S (NP (NNP (=}))(NNP (-rrb-))(NNP (-rrb-))(-RRB- (-rrb-))(JJ (-rrb-))(-RRB- (-rrb-))))) |ET| 
1.0228854639984272800745657150401  |BT| (ROOT (S (NP (PRP (i)))(VP (VBP (feel)))(PP (IN (like)))(NP (NN (shit))))(S (NP (PRP (i)))(VP (VBP (hope)))(NP (PRP (i)))(VP (VBP (wake)))(PRT (RP (up))))) |ET| 
1.0228854639984272800745657150401  |BT| (ROOT (S (NP (PRP (i)))(VP (VBP (be)))(NP (CD (one))(JJ (lucky))(SYM (&))(VBN (bless))(NN (lady))))) |ET| 
1.0228854639984272800745657150401  |BT| (ROOT (S (NP (NN (snow))(VBD (damnit))))(S (NP (PRP (i)))(VP (VBP (need)))(NP (DT (the))(NN (time)))(PRT (RB (off))))) |ET| 
-1.0228854639984272800745657150401  |BT| (ROOT (S (VP (VBZ (love))(VBG (hang)))(PRT (RP (out)))(PP (IN (with)))(NP (NNP (matthew)))(NP (POS ('s))(NN (family))))(S (NP (NNS (=}))(-LRB- (-lrb-)))(NP (PRP (i)))(VP (VBP (<)))(NP (CD (3))(NNP (matthew))(-RRB- (-rrb-))))) |ET| 
-1.0228854639984272800745657150401  |BT| (ROOT (S (ADVP (RB (har))(RB (just)))(VP (RB (g)))(NP (VBP (tt)))(PP (NNP (igenom)))(NP (NNP (heta))(VBN (steal)))(NP (RB (och))(SYM (f))(VBP (tt))(NN (topp))(NN (betyg))))(S (NP (NNP (saknaden))(LS (r)))(PP (VBP (fortfarande)))(NP (NN (stor)))(NP (NNS (man)))(VP (NN (ljuset)))(PP (FW (i)))(NP (NN (tunneln))(SYM (r)))(VP (NN (starkare))(NN (n))(NN (n))(NN (gonsin))))(S (NP (VB (hj))(JJ (rtat))(NN (dunkar))(NN (som))(NN (jag))(NN (sprungit)))(PP (IN (en)))(NP (NN (mil)))(VP (VB (ett)))(NP (JJ (leende))(NN (ligger)))(ADVP (NN (ver)))(VP (JJ (mina)))(NP (NN (l))(NN (ppar))))(S (NP (JJ (helt))(JJ (klart))(NN (v)))(VP (VBZ (rlden)))(NP (LS (b))(NNP (sta))(POS ('))(NN (semester)))(ADVP (RB (ever))))) |ET| 
-1.0228854639984272800745657150401  |BT| (ROOT (S (NP (DT (some))(VBG (catch)))(PRT (RP (up)))(PP (IN (with)))(NP (DT (some))(NNS (old))(NNS (friend)))(ADVP (NN (tonight))))(S (NP (PRP$ (its))(VBN (be)))(PP (IN (over)))(NP (CD (20))(NNS (year)))(SBAR (IN (since)))(NP (PRP (we)))(VP (VBP (have))(VB (see)))(NP (DT (each))(JJ (other)))(VP (VBD (have)))(NP (DT (a))(JJ (great))(NN (time))))(S (NP (JJ (good))(NNS (time)))(PP (IN (with)))(NP (JJ (old))(NNS (friend)))(VP (VBZ (be)))(NP (DT (the))(JJS (best))))) |ET| 
1.0228854639984272800745657150401  |BT| (ROOT (S (VP (VBZ (be)))(NP (NNP (not))(DT (a))(NN (fan)))(PP (IN (of)))(NP (DT (the))(NNP (vincent))(NNP (dance))(NNP (company))))) |ET| 
1.0228854639984272800745657150401  |BT| (ROOT (S (NP (NN (nothing)))(VP (VBG (involve)))(NP (PRP (you)))(VP (VBZ (concern)))(NP (PRP (i)))(NP (NN (today))))) |ET| 
1.0228854639984272800745657150401  |BT| (ROOT (S (NP (NNP (eggs))(CC (and))(NNP (grits))))) |ET| 
-1.0228854639984272800745657150401  |BT| (ROOT (S (NP (NN (shaalalalalaaa))))) |ET| 
-1.0228854639984272800745657150401  |BT| (ROOT (S (NP (NNP (terribleday))))) |ET| 
-1.0228854639984272800745657150401  |BT| (ROOT (S (NP (POS ('))(NN (human))('' ('))))) |ET| 
1.0228854639984272800745657150401  |BT| (ROOT (S (ADJP (VBD (ungh))))(S (NP (FW (i)))(VP (VBP (have))(VBN (get)))(NP (DT (a))(JJ (terrible))(VBP (migrane))))) |ET| 
1.0228854639984272800745657150401  |BT| (ROOT (S (NP (RB (just)))(VP (VBD (get)))(NP (NN (home)))(PP (IN (from)))(VP (NN (hangin)))(PP (IN (with)))(NP (NNP (ma)))(NP (POS ('))(NNS (boy))))(S (NP (NNP (college))(CC (and))(VBP (work)))(NP (NN (tomorrow))))) |ET| 
1.0228854639984272800745657150401  |BT| (ROOT (S (ADJP (JJ (ready)))(PP (IN (for)))(NP (DT (some))(VBP (sleep))))(S (NP (NNP (church)))(PP (IN (in)))(NP (DT (the))(NN (morning))(VBD (<))(CD (3))))) |ET| 
-1.0228854639984272800745657150401  |BT| (ROOT (S (NP (DT (the))(NNP (bed)))(VP (VBZ (be)))(NP (NNP (callin))(NNP (my))(NNP (name))))(S (NP (NNP (nite))(NNP (nite)))(VP (NNP (peeps))))) |ET| 
-1.0228854639984272800745657150401  |BT| (ROOT (S (ADVP (RB (so))(RB (very)))(ADJP (JJ (tired))))(S (ADVP (WRB (why)))(VP (VBP (be))(FW (i))(RB (so))(JJ (tired)))(NP (PDT (all))(DT (the))(NN (time))))) |ET| 
-1.0228854639984272800745657150401  |BT| (ROOT (S (NP (NNP (time)))(PP (IN (for)))(NP (NN (bed)))(PP (IN (for)))(NP (PRP (i))))(S (NP (PRP (i)))(VP (VBP (hope)))(NP (NN (everyone)))(VP (VBZ (have)))(NP (DT (a))(JJ (great))(NN (day))))) |ET| 
1.0228854639984272800745657150401  |BT| (ROOT (S (NP (UH (hey))(VB (nate))))) |ET| 
1.0228854639984272800745657150401  |BT| (ROOT (S (NP (NN (sixteen))))) |ET| 
1.0228854639984272800745657150401  |BT| (ROOT (S (NP (DT (no))(JJ (new))(NN (pictuuuuuure))))) |ET| 
-1.0228854639984272800745657150401  |BT| (ROOT (S (NP (NN (state)))(NP (NN (today))))) |ET| 
-1.0228854639984272800745657150401  |BT| (ROOT (S (NP (VBD (tire))))) |ET| 
-1.0228854639984272800745657150401  |BT| (ROOT (S (NP (DT (a))(JJ (good))(NN (night)))(NP (JJ (last))(NN (night)))(VP (RB (just))(VBG (try))(TO (to))(VB (get)))(PRT (IN (over)))(NP (DT (this))(JJ (damn))(NN (flu))(NN (shit))))) |ET| 
1.0228854639984272800745657150401  |BT| (ROOT (S (VP (VBG (eat)))(NP (NN (soup))))(S (NP (PRP (it)))(VP (VBZ (be))(VBG (make)))(NP (PRP (i)))(VP (VB (feel)))(NP (DT (a))(NN (lot)))(ADJP (RBR (better))))) |ET| 
1.0228854639984272800745657150401  |BT| (ROOT (S (NP (NNP (puzzle)))(VP (VBZ (be))(VBN (go)))(PP (TO (to)))(NP (VB (work)))(PP (IN (in)))(NP (NNP (monteregie)))(PP (IN (for)))(NP (DT (the))(NN (summer))))(S (NP (PRP (he)))(VP (VBZ (be))(VBG (go))(TO (to))(VB (make)))(NP (RB (so))(JJ (many))(JJ (little))(NNS (kid)))(ADJP (JJ (happy)))(VP (VB (be)))(ADJP (JJ (good)))(NP (PRP$ (my))(JJ (special))(NN (boy))(VBD (<)))(LST (CD (3))))) |ET| 
1.0228854639984272800745657150401  |BT| (ROOT (S (NP (NN (work)))(VP (VBD (be)))(ADJP (JJ (super))(JJ (busy))))(S (ADVP (RB (hopefully)))(NP (PRP (i)))(VP (VBP (get)))(NP (DT (a))(NNP (saturday))(CC (or))(NNP (sunday)))(PP (NN (off.not)))(VP (VBG (hold)))(NP (PRP$ (my))(NN (breath))))) |ET| 
-1.0228854639984272800745657150401  |BT| (ROOT (S (NP (PRP (i)))(VP (VBP (have))(TO (to))(VB (put)))(ADVP (RP (together)))(NP (DT (a))(NN (outline)))(PP (IN (with)))(NP (RB (absolutely))(DT (no))(NN (information))))(S (NP (NNP (shoot))(NNP (me))))) |ET| 
-1.0228854639984272800745657150401  |BT| (ROOT (S (NP (NNP (ma))(NN (bday)))(VP (VBZ (be)))(PP (IN (in)))(NP (DT (a))(NN (hour.turnin)))(NP (CD (18))(NNP (biznatches))))(S (NP (VBP (^))(CD (3))(NNS (^))))) |ET| 
-1.0228854639984272800745657150401  |BT| (ROOT (S (NP (PRP (i)))(ADVP (RB (now)))(VP (VBP (have)))(NP (DT (a))(JJ (little))(NN (sister))))(S (VP (VBN (name)))(NP (NNP (cierra))))) |ET| 
1.0228854639984272800745657150401  |BT| (ROOT (S (ADVP (RB (too))(RB (early))))) |ET| 
1.0228854639984272800745657150401  |BT| (ROOT (S (ADVP (WRB (how)))(VP (VBP (come)))(NP (NN (nothing)))(ADJP (JJ (good)))(VP (VBZ (seem))(TO (to))(VB (be)))(PP (IN (on)))(NP (NN (tv)))(ADVP (WRB (when)))(NP (PRP$ (you))(VBN (bore))))) |ET| 
1.0228854639984272800745657150401  |BT| (ROOT (S (NP (NN (time)))(VP (TO (to))(VB (work)))(PP (IN (on)))(NP (DT (some))(NNS (dream))))) |ET| 
-1.0228854639984272800745657150401  |BT| (ROOT (S (VP (MD (can))(RB (not))(VB (wait)))(SBAR (IN (till)))(NP (FW (i)))(VP (VB (get)))(NP (PRP$ (my))(JJ (marine))(NN (aquarium)))(NP (VB (refugium))(NN (tank)))(PP (IN (for)))(NP (PRP$ (my))(NN (birthday))))) |ET| 
-1.0228854639984272800745657150401  |BT| (ROOT (S (VP (VBZ (be)))(PP (IN (about)))(PP (TO (to)))(NP (VB (go)))(PP (TO (to)))(NP (DT (the))(NN (gym)))(VP (VB (work)))(NP (DT (some))(NN (flab)))(PRT (RP (off))))) |ET| 
-1.0228854639984272800745657150401  |BT| (ROOT (S (NP (VBD (ya))(JJ (estoy)))(VP (NN (harto))(IN (de))(NN (todo))(NN (esto)))(PP (IN (en)))(NP (NN (serio))))(S (NP (DT (no))(FW (se)))(VP (FW (hasta)))(NP (FW (donde))(FW (aguantare)))(NP (POS ('))(JJ (-lrb-))))) |ET| 
1.0228854639984272800745657150401  |BT| (ROOT (S (NP (VBD (clubland))))(S (NP (VBZ (let)))(VP (VB (be))(NN (havin))))) |ET| 
1.0228854639984272800745657150401  |BT| (ROOT (S (NP (DT (a))(NN (strawberry)))(VP (VBZ (be)))(NP (DT (a))(JJ (actual))(NN (berry)))(NP (DT (a))(NN (banana)))(VP (VBZ (be))))(S (NP (NNP (omg))(VBZ (fact))))) |ET| 
1.0228854639984272800745657150401  |BT| (ROOT (S (VP (MD (can))(RB (not))(VB (wait)))(PP (IN (for)))(NP (DT (this))(NN (weekend))))(S (NP (VB (:d))(NN (fun))(NN (fun))(NN (fun))))) |ET| 
-1.0228854639984272800745657150401  |BT| (ROOT (S (VP (VBG (look)))(PRT (RP (up)))(NP (JJ (new))(NNS (song)))(VP (TO (to))(VB (learn)))(PP (IN (on)))(NP (DT (the))(NN (guitar.after)))(SBAR (WDT (that)))(VP (VBG (study)))(NP (VBD (>))))(S (NP (NNP (<))))) |ET| 
-1.0228854639984272800745657150401  |BT| (ROOT (S (NP (`` ("))(NNP (yo))(, (,))(NN (she-bitch)))(VP (VBZ (let))(VB (go))))) |ET| 
-1.0228854639984272800745657150401  |BT| (ROOT (S (VP (VBD (have)))(NP (DT (a))(JJ (interesting))(NN (day))))(S (VP (VBD (wrestle)))(NP (DT (a))(VBG (recover))(JJ (alcoholic)))(PP (SYM (@)))(NP (DT (the))(NN (med))(NN (center))))(S (NP (NN (fun))(NN (day))))) |ET| 
1.0228854639984272800745657150401  |BT| (ROOT (S (VP (VB (go)))(NP (NNP (pats)))(NP (NNP (brady)))(VP (VBZ (have))(VBN (find)))(NP (PRP$ (he))(NN (game))))) |ET| 
1.0228854639984272800745657150401  |BT| (ROOT (S (NP (VBN (wasaua)))(VP (NN (tomorrow)))(PP (IN (for)))(NP (NN (appt)))(PP (IN (with)))(NP (NN (mouth/gum))(NN (specialist))))(S (NP (VBD (blahh))))(S (NP (NN (shopping)))(VP (VBZ (make)))(NP (PRP (it)))(NP (PRP (i)))(VP (NN (guess))))) |ET| 
1.0228854639984272800745657150401  |BT| (ROOT (S (VP (VBZ (appear))(TO (to))(VB (have))(VBN (murder)))(NP (PRP$ (she))(JJ (mobile))(NN (:-{))))(S (NP (SYM (e))(CC (or))(VBZ (f/b)))(NP (PRP (i)))(PP (IN (until)))(NP (DT (the))(NN (resurrection)))(NP (DT (the))(JJ (second))(VBG (come))(-RRB- (-rrb-))))) |ET| 
-1.0228854639984272800745657150401  |BT| (ROOT (S (NP (PRP (i)))(ADVP (RB (just)))(VP (VBD (buy)))(NP (NN (oblivion))(CC (and))(NN (cant))(VB (wait)))(VP (TO (to))(VB (play)))(NP (PRP (it))))) |ET| 
-1.0228854639984272800745657150401  |BT| (ROOT (S (NP (PRP (it)))(VP (VBZ (be)))(ADJP (RB (all))(JJ (okay))))(S (NP (PRP (it)))(VP (VBZ (be)))(NP (NN (fertilizer))))) |ET| 
-1.0228854639984272800745657150401  |BT| (ROOT (S (NP (CD (two))(VBP (jr.))(NN (bacon))(NNS (cheeseburger)))(NP (DT (a))(NN (bunch)))(PP (IN (of)))(NP (NNS (fries))))(S (NP (NNP (sam)))(VP (VBZ (be)))(ADJP (JJ (happy))))(S (NP (VB (:}))(NNP (time)))(PP (IN (for)))(NP (NNP (walmart))))) |ET| 
1.0228854639984272800745657150401  |BT| (ROOT (S (VP (VBZ (want))(TO (to))(VB (go))(JJ (skating)))(NP (RB (so))(JJ (bad))))) |ET| 
1.0228854639984272800745657150401  |BT| (ROOT (S (NP (# (#))(CD (7)))(VP (VBD (have)))(NP (DT (a))(NN (blast)))(PP (IN (with)))(NP (PRP (you)))(PP (IN (in)))(NP (NNP (high))(NNP (school))))(S (NP (NNP (wish))(FW (i)))(VP (VBD (have)))(NP (DT (a))(NN (chance)))(PP (TO (to)))(NP (RB (really))(NN (party)))(PP (IN (with)))(NP (PRP (you)))(ADVP (RB (back)))(PP (IN (in)))(NP (DT (the))(NN (day))))(S (ADVP (NNP (always)))(VP (VBD (have)))(NP (DT (that))(JJ (crazy))(NN (hair))(NN (thing)))(VP (VBG (go)))(PRT (RP (on))))(S (NP (NNP (lol))))) |ET| 
1.0228854639984272800745657150401  |BT| (ROOT (S (VP (VBZ (be)))(ADVP (JJR (better)))(ADVP (RB (now))))(S (NP (FW (i))(NN (love))(VBP (u))(NNP (nic))))(S (NP (CD (<)))(NP (CD (3))(CD (<))(CD (3))(CD (<))(CD (3))))) |ET| 
-1.0228854639984272800745657150401  |BT| (ROOT (S (VP (VBG (go)))(UCP (TO (to))(VB (meet)))(NP (NNP (melissa))(NNP (marr)))(PP (IN (with)))(NP (NNP (matthew))(CC (and))(NNP (liz))(NNP (:d)))(PP (RB (so)))(VP (VBG (freak))(JJ (excited))))) |ET| 
-1.0228854639984272800745657150401  |BT| (ROOT (S (NP (NN (manly)))(PP (IN (with)))(NP (NNS (lili))(VBD (<))(CD (3))))) |ET| 
-1.0228854639984272800745657150401  |BT| (ROOT (S (VP (VBN (get)))(NP (PRP$ (my))(JJ (full))(NN (back))(NNP (:}))))) |ET| 
1.0228854639984272800745657150401  |BT| (ROOT (S (NP (PRP (it)))(VP (VBZ (be)))(ADJP (JJ (cold))))(S (NP (POS ('))(NNP (-lrb-))))) |ET| 
1.0228854639984272800745657150401  |BT| (ROOT (S (NP (VBN (upset)))(PP (IN (about)))(NP (NNS (thing)))(NP (WDT (that)))(VP (VBP (be)))(ADVP (RB (really)))(NP (PRP$ (my))(NN (business)))(ADVP (WRB (why)))(VP (VBZ (be)))(NP (PRP (it)))(ADJP (RB (so))(JJ (frustrating))))) |ET| 
1.0228854639984272800745657150401  |BT| (ROOT (S (NP (JJ (*))(NN (sigh)))(SBAR (VBP (*)))(NP (PRP (i)))(VP (VBP (be)))(ADJP (JJ (sick)))(PP (IN (of)))(NP (DT (these))(NNS (scar)))(VP (RB (especially))(VBG (make)))(NP (PRP (it)))(ADJP (JJR (worse))))) |ET| 
-1.0228854639984272800745657150401  |BT| (ROOT (S (NP (NNP (ang))(VBD (sakit))(JJ (ng))(NN (tagiliran))(NN (ku))))(S (NP (VBP (xet))))) |ET| 
-1.0228854639984272800745657150401  |BT| (ROOT (S (INTJ (VBD (awwwwwww))))(S (NP (VB (im))(NNP (super))(JJ (happy)))(ADVP (RB (now)))(VP (JJ (*)))(NP (NN (sigh)))(SBAR (VBP (*)))(NP (PRP (he)))(VP (VBZ (be)))(NP (DT (the))(JJS (best))(NN (!!!))))) |ET| 
-1.0228854639984272800745657150401  |BT| (ROOT (S (NP (PRP (i)))(VP (VBP (be)))(ADJP (VBN (marry)))(PP (TO (to)))(NP (NNP (hannah))(NNP (taylor))))(S (NP (VBD (<))(CD (3))))) |ET| 
1.0228854639984272800745657150401  |BT| (ROOT (S (NP (NN (movie))(NN (date)))(PP (IN (with)))(NP (NN (wew)))(ADVP (RB (later)))(NP (NN (haha))))) |ET| 
1.000454673954036532990130581311  |BT| (ROOT (S (NP (NNP (mum))(VBD (say)))(NP (PRP (i)))(VP (VBD (didnt)))(NP (NNP (have))(NNP (t))(NNP (o))(NNP (go))(TO (to))(NNP (schoool))(NNP (tomorrow))))) |ET| 
1.0228854639984272800745657150401  |BT| (ROOT (S (NP (VBD (lose))(DT (a))(NN (pint)))(PP (IN (of)))(NP (NN (blood)))(NP (WP (what)))(VP (VBZ (feel)))(PP (IN (like)))(NP (DT (a))(NN (pound)))(PP (IN (of)))(NP (NN (hair))))) |ET| 
-1.0228854639984272800745657150401  |BT| (ROOT (S (VP (VBG (go)))(NP (NN (bowling)))(NP (NN (tonight)))(VP (VBG (play)))(NP (NN (laser))(NN (tag))))) |ET| 
-1.0228854639984272800745657150401  |BT| (ROOT (S (ADVP (RB (back)))(PP (IN (from)))(NP (NNP (george))))(S (VP (VBD (be)))(ADJP (JJ (cool))))(S (VP (VBD (get))(RB (really))(JJ (bad)))(NP (NN (sunburn)))(PP (IN (on)))(NP (DT (the))(NN (beach))))) |ET| 
-1.0228854639984272800745657150401  |BT| (ROOT (S (NP (NN (math)))(PP (IN (at)))(NP (CD (12:30)))(ADVP (RB (then)))(ADVP (NN (home)))(PP (IN (for)))(NP (DT (the))(NN (weekend))))) |ET| 
1.0228854639984272800745657150401  |BT| (ROOT (S (NP (NN (blackberry))(CC (and))(NN (wallet)))(VP (VBD (knick))))(S (NP (VB (guess)))(VP (NNS (who)))(NP (DT (a))(JJ (happy))(NN (camper))))) |ET| 
0.98153772544852491144240502762841  |BT| (ROOT (S (NP (NN (plane)))(VP (VBD (get))(VBN (delay))))(S (NP (-LRB- (-lrb-))(NN (yay))))(S (NP (DT (another))(NN (day)))(PP (IN (in)))(NP (NNP (korea))(NNP (:d)))(NP (NNP (<))(CD (3))(CD (dk))))) |ET| 
1.0228854639984272800745657150401  |BT| (ROOT (S (NP (NN (ano))(NN (kaya))(VBZ (ireregalo))(NN (ko))))(S (NP (VBP (hmm))))) |ET| 
-1.0228854639984272800745657150401  |BT| (ROOT (S (NP (NNP (y?n))(NNP (ph))))(S (NP (JJ (ng)))(VP (NN (l))(NN (n))(NN (t?t))))) |ET| 
-1.0228854639984272800745657150401  |BT| (ROOT (S (PP (IN (in)))(NP (NN (macon))(NNS (!!!!!!!!!))))(S (NP (PRP$ (my))(NNS (brother)))(NP (CD (18))(NN (birthday))))(S (NP (JJ (woo-hoo))(NNS (!!))))) |ET| 
-1.0228854639984272800745657150401  |BT| (ROOT (S (NP (VBN (walk))(DT (a))(NNP (day))(NNP (n))(NNP (my))(NNP (shoes.you))(NNP (wouldnt))(NNP (wan))(NNP (na)))(VP (VBP (give)))(PP (NNP (them)))(NP (NNP (back))))(S (VP (NNP (#epitimizing))))) |ET| 
1.0228854639984272800745657150401  |BT| (ROOT (S (VP (VBN (goin)))(PP (TO (to)))(NP (DT (the))(NN (gymm))))) |ET| 
1.0228854639984272800745657150401  |BT| (ROOT (S (ADVP (RB (off)))(PP (TO (to)))(NP (NN (night))(VBP (train))))) |ET| 
1.0228854639984272800745657150401  |BT| (ROOT (S (VP (VBZ (be)))(VP (VBG (look)))(ADVP (RB (forward)))(PP (TO (to)))(NP (NNS (final)))(VP (VBP (be))(VBG (look)))(ADVP (RB (forward)))(PP (TO (to)))(NP (DT (the))(NNS (city))))) |ET| 
-1.0228854639984272800745657150401  |BT| (ROOT (S (VP (VBZ (have)))(NP (NN (nothing)))(PP (TO (to)))(NP (VB (say)))(NP (NN (today))))) |ET| 
-1.0228854639984272800745657150401  |BT| (ROOT (S (NP (NNP (monday))(NN (morning)))(PRT (RB (off)))(VP (TO (to))(VB (work)))(VP (NN (hope)))(NP (NN (everyone)))(VP (VBZ (have)))(NP (DT (a))(JJ (good))(NN (day))))) |ET| 
-1.0228854639984272800745657150401  |BT| (ROOT (S (VP (VBN (addict)))(PP (TO (to)))(NP (DT (the))(NN (game))(`` ("))(JJ (angry))(NNS (bird))))) |ET| 
0.85194263301265049648236526991241  |BT| (ROOT (S (NP (NNP (god)))(VP (MD (will))(RB (never))(VB (drop)))(NP (PRP (you)))(ADVP (RBR (further)))(PP (IN (than)))(NP (PRP$ (you))(NNS (knee))))(S (NP (VBD (<))(CD (3))))) |ET| 
1.0228854639984272800745657150401  |BT| (ROOT (S (VP (VBG (feel)))(NP (VBN (bore))(VBN (put)))(PP (IN (of)))(NP (PRP$ (my))(NNS (brain)))(VP (VBP (roll)))(PP (IN (on)))(NP (CD (3.10))))) |ET| 
1.0228854639984272800745657150401  |BT| (ROOT (S (NP (`` ("))(CD (one))(NN (thing)))(NP (PRP (i)))(VP (VBP (like)))(PP (RB (about)))(NP (VBZ (stone))))(S (NP (PRP (they)))(VP (VBP (come)))(PP (IN (in)))(NP (PRP$ (my))(NN (waybutonce)))(NP (PRP (i)))(VP (VBP (pass)))(NP (PRP (they)))(NP (PRP (they)))(ADVP (RB (automatically)))(VP (VB (become)))(NP (PRP$ (my))(NNS (milestone))))(S (NP (NNP (direction)))(VP (VBZ (be)))(NP (VBN (imp))(RB (not))(NN (speed))))) |ET| 
-1.0228854639984272800745657150401  |BT| (ROOT (S (ADVP (RB (honestly)))(NP (PRP (i)))(ADVP (RB (really)))(VP (VBP (do)))(NP (NNP (miss)))(NP (PRP (you))))) |ET| 
-1.0228854639984272800745657150401  |BT| (ROOT (S (NP (PRP (you)))(VP (VBP (think)))(SBAR (VBZ (becca)))(NP (RB (guna)))(VP (VB (be))(VBN (psych)))(SBAR (IN (that)))(NP (PRP (you)))(VP (VBD (bring)))(NP (DT (a))(NN (bottle)))(PP (IN (of)))(NP (NNP (lube))))) |ET| 
-1.0228854639984272800745657150401  |BT| (ROOT (S (ADVP (RB (just)))(VP (VBD (return)))(PP (IN (from)))(NP (PRP$ (we))(JJS (best))(NN (show)))(ADVP (RB (yet))))) |ET| 
1.0228854639984272800745657150401  |BT| (ROOT (S (NP (NN (nothing)))(VP (VBZ (be)))(ADJP (JJ (permanent))))(S (PP (IN (except)))(NP (NN (change))))) |ET| 
1.0228854639984272800745657150401  |BT| (ROOT (S (VP (VBZ (be))(VBG (watch)))(NP (NNP (casablanca)))(PP (IN (in)))(NP (NN (bed.sunny)))(NP (NNP (saturday))(NN (morning))(JJ (bliss))))) |ET| 
1.0228854639984272800745657150401  |BT| (ROOT (S (NP (EX (there)))(VP (VBZ (be)))(NP (NN (nothing)))(ADJP (RB (as))(JJ (bad)))(PP (IN (as))))(S (VP (NN (slogging)))(PP (IN (in)))(NP (NN (office)))(PP (IN (on)))(NP (NN (week)))(VP (VBZ (end))))(S (NP (VBZ (suck))))) |ET| 
-1.0228854639984272800745657150401  |BT| (ROOT (S (NP (WP (what)))(VP (VBZ (be)))(NP (DT (the))(NN (difference)))(PP (IN (between)))(NP (NN (maturity))(CC (and))(NNS (childishness))))) |ET| 
-1.0228854639984272800745657150401  |BT| (ROOT (S (ADJP (NNP (there))(NNP (truly)))(VP (VBZ (be)))(NP (DT (a))(NN (god)))(NP (PRP (he))(NNP (truly))(VBZ (be))(DT (a))(NNP (wonderful))(NNP (god))))(S (NP (PRP (he)))(PP (NNP (only)))(NP (VBP (see)))(NP (VBZ (be))(DT (the))(NN (best)))(PP (IN (in)))(NP (NNP (me))))) |ET| 
-1.0228854639984272800745657150401  |BT| (ROOT (S (VP (`` ("))(NN (fight)))(PP (IN (at)))(NP (NN (goat))(NN (sacrifice)))(VP (VBZ (spark)))(NP (JJ (fatal))(NN (stampede)))(PP (IN (in)))(NP (NNP (india)))(NP ('' ("))))) |ET| 
1.0228854639984272800745657150401  |BT| (ROOT (S (NP (PRP (i)))(ADVP (RB (now)))(VP (VB (pronounce)))(NP (PRP (you)))(VP (NN (chuck))(CC (and))(NN (harry)))(NP (NNP (d))))) |ET| 
1.0228854639984272800745657150401  |BT| (ROOT (S (NP (JJ (good))(NNS (friend)))(VP (VBP (be)))(ADVP (RB (forever))))) |ET| 
1.0228854639984272800745657150401  |BT| (ROOT (S (NP (PRP (i)))(VP (VBP (jui)))(NP (NNP (al))(NN (centro))(JJ (con))(JJ (mis))(NNS (padresss))))) |ET| 
-1.0228854639984272800745657150401  |BT| (ROOT (S (NP (PRP (i)))(PP (VBP (like)))(NP (JJ (pirate))(NN (language)))(ADVP (JJR (better))))) |ET| 
-1.0228854639984272800745657150401  |BT| (ROOT (S (NP (VBG (wish))(PRP (i)))(VP (MD (could))(VB (have))(VBN (go)))(PP (TO (to)))(NP (NN (church)))(NP (NN (today))))(S (ADVP (RB (instead)))(NP (PRP (i)))(VP (VBP (be))(VBN (stick)))(PP (IN (at)))(NP (NN (work))))(S (NP (JJ (*))(NN (sigh))(NNS (*))))) |ET| 
-1.0228854639984272800745657150401  |BT| (ROOT (S (NP (PRP (i)))(VP (VBP (know)))(NP (FW (i)))(VP (VBP (be))(VBG (talk)))(NP (NNS (lot))(CC (but))(FW (i)))(VP (MD (can))(VB (schedule)))(NP (PRP (you)))(PP (IN (in)))(VP (TO (to))(VB (talk)))(NP (JJ (next))(NN (week))))) |ET| 
1.0228854639984272800745657150401  |BT| (ROOT (S (VP (VBZ (have)))(NP (DT (a))(NNP (very))(NNP (interesting)))(NP (NNP (frustrating)))(ADVP (NNP (long)))(NP (NNP (crazy))(NNP (day))))) |ET| 
1.0228854639984272800745657150401  |BT| (ROOT (S (NP (NNS (thanks)))(PP (IN (for)))(NP (PDT (all)))(NP (DT (the))(NN (birthday)))(VP (VBZ (wish))))) |ET| 
1.0228854639984272800745657150401  |BT| (ROOT (S (NP (DT (no))(NN (school)))(NP (NNP (wednesday))))) |ET| 
-1.0228854639984272800745657150401  |BT| (ROOT (S (ADJP (JJ (disappointing))))) |ET| 
-1.0228854639984272800745657150401  |BT| (ROOT (S (NP (NNS (thanks)))(VP (VBN (alot)))(PP (IN (for)))(NP (DT (the))(NNS (wish))(JJ (everyonee)))(PP (NNS (:})))(NP (VBP (<))(CD (3))))) |ET| 
-1.0228854639984272800745657150401  |BT| (ROOT (S (NP (NNP (wthailz)))(NP (NNP (venus))(NNP (m))(NNP (shih))))) |ET| 
1.0228854639984272800745657150401  |BT| (ROOT (S (VP (VBZ (be))(VBG (go)))(PP (TO (to)))(NP (DT (the))(NN (beach)))(PP (IN (in)))(NP (DT (a))(NN (while))))(S (SBAR (NNP (wish)))(NP (PRP (you)))(VP (MD (could))(VB (come)))(NP (NNP (babe))))(S (VP (NNP (love)))(NP (PRP (you)))(NP (PRP (i)))(VP (MD ('ll))(VB (talk)))(PP (TO (to)))(NP (PRP (you)))(ADVP (RB (later)))(ADVP (RB (hopefully))))) |ET| 
1.0228854639984272800745657150401  |BT| (ROOT (S (NP (UH (oh))(NN (summer))(NN (vacation))))(S (NP (PRP (i)))(VP (MD (can))(`` (`)))(NP (RB (t))(VB (wait)))(PP (IN (till)))(NP (PRP (we)))(VP (VBP (meet)))(ADVP (RB (again)))(NP (JJ (next))(NN (year))))(S (NP (JJ (tired)))(NP (NN (today))))) |ET| 
1.0210924640319607448191163712181  |BT| (ROOT (S (NP (PRP (i)))(VP (VBP (have))(VBN (be)))(PP (IN (without)))(NP (NNS (narcotic)))(PP (IN (for)))(NP (IN (over))(DT (a))(NN (month)))(ADVP (RB (now)))(VP (VBG (do)))(ADJP (JJ (great))))(S (NP (PRP (i)))(VP (VBP (be))(VBG (start)))(NP (DT (a))(JJ (new))(NN (med)))(PP (IN (for)))(NP (NN (pain)))(NP (PRP$ (its))(RB (not)))(NP (DT (a))(JJ (narcotic))(NN (!!))))) |ET| 
-1.0228854639984272800745657150401  |BT| (ROOT (S (NP (VBD (gah))))(S (NP (PRP (i)))(VP (VBP (think)))(NP (PRP (i)))(VP (VBD (develop)))(NP (DT (a))(NN (allergy)))(PP (IN (with)))(NP (NNS (mango))))(S (NP (PRP (they)))(VP (VBP (be)))(NP (PRP$ (my))(JJ (favorite))(NN (fruit)))(ADVP (RB (too))))) |ET| 
-1.0228854639984272800745657150401  |BT| (ROOT (S (VP (UH (oh))(VB (fuck))))(S (NP (PRP (it)))(VP (VBZ (be)))(NP (NNP (friday))))) |ET| 
-1.0228854639984272800745657150401  |BT| (ROOT (S (ADVP (RB (finally))(RB (back)))(PP (IN (in)))(NP (NNP (miami))(VBP (<))(CD (3)))(NP (DT (no))(NN (school)))(PP (IN (for)))(NP (PRP (i)))(NP (NN (tomorrow))))) |ET| 
1.0228854639984272800745657150401  |BT| (ROOT (S (NP (PRP$ (my))(NN (reflection)))(NP (JJ (dirty))(NN (mirror))))) |ET| 
1.0228854639984272800745657150401  |BT| (ROOT (S (LST (CD (1))(RB (down)))(NP (CD (1)))(VP (TO (to))(VB (go))))) |ET| 
0.96827945676716564715746926594875  |BT| (ROOT (S (PP (IN (on)))(NP (JJ (2k12))(NN (whoopin))(NNP (da))(NNS (celtic))(VBP (ass))(JJ (lol)))(UCP (NN (bout)))(VP (NN (ta))(VB (play)))(NP (JJ (online))(NN (fwm))))) |ET| 
-1.0228854639984272800745657150401  |BT| (ROOT (S (NP (NN (home))(DT (all))(NN (day)))(VP (VBD (elevate)))(NP (PRP$ (my))(NN (foot)))(NP (PDT (all)))(NP (DT (the))(NN (pain)))(PP (IN (for)))(NP (DT (a))(RB (really))(JJ (bad))(NN (bruise))))) |ET| 
-1.0228854639984272800745657150401  |BT| (ROOT (S (NP (PRP$ (my))(NN (compueter)))(VP (VBN (fuke)))(PRT (RP (up)))(ADVP (RB (now)))(VP (RB (now)))(NP (PRP (it)))(VP (VBP (sez)))(NP (NNS (window)))(VP (VBZ (be)))(ADVP (RB (now)))(ADJP (JJ (genuine))))) |ET| 
-1.0228854639984272800745657150401  |BT| (ROOT (S (NP (VB (teach))(NNP (me))(NNP (how)))(VP (TO (to))(NNP (beva)))(NP (NNP (keyboard))(NNP (warriorrr))(NNP (ill))(NNP (fight))(NNP (yah))(NNP (fuckerrrrrrss))))) |ET| 
1.0228854639984272800745657150401  |BT| (ROOT (S (NP (PRP (i)))(VP (VBP (be))(VBG (gon))(TO (na))(VB (do)))(NP (WP (what)))(NP (PRP (i)))(VP (VBP (do)))(ADVP (JJS (best))))(S (NP (PRP (i)))(VP (VBP (guess)))(NP (RB (uhm))))) |ET| 
1.0228854639984272800745657150401  |BT| (ROOT (S (NP (NN (e)))(VP (VBZ (drive)))(NP (PRP (i)))(ADJP (JJ (crazy))))) |ET| 
1.0228854639984272800745657150401  |BT| (ROOT (S (NP (RB (just)))(VP (VBD (get)))(NP (PRP$ (my))(NN (laptop)))(NP (NN (today)))(NP (PRP (it)))(VP (VBZ (rule))))(S (NP (NNP (xd))))) |ET| 
-1.0228854639984272800745657150401  |BT| (ROOT (S (SBAR (IN (if)))(NP (NN (history)))(VP (VBZ (repeat)))(NP (PRP (itself)))(NP (PRP (i)))(VP (VBP (be))(JJ (sooo))(VBG (gon))(TO (na))(VB (get)))(NP (DT (a))(NN (dinosaur))))) |ET| 
-1.0228854639984272800745657150401  |BT| (ROOT (S (ADVP (WRB (when)))(NP (PRP (i)))(VP (VBP (say)))(NP (NNP (hillshire)))(NP (PRP (you)))(VP (VBP (say)))(NP (NN (farm))))) |ET| 
-1.0228854639984272800745657150401  |BT| (ROOT (S (NP (NNP (business))(NNP (management)))(ADVP (RB (here)))(NP (PRP (i)))(VP (VBP (come))))(S (NP (VB (not))))) |ET| 
1.0228854639984272800745657150401  |BT| (ROOT (S (NP (NNP (u)))(VP (MD (can))(VB (hurt)))(NP (NN (wit))(NNS (word))))(S (NP (NN (bt))(NN (u)))(VP (MD (can))(NN (olso))(VB (hurt)))(NP (NN (wit))(NN (silence))))) |ET| 
1.0228854639984272800745657150401  |BT| (ROOT (S (NP (VB (omg))))(S (VP (VBG (wake)))(PRT (RP (up)))(PP (IN (in)))(NP (DT (a))(NN (king))(NN (size))(NN (bed)))(PP (IN (in)))(NP (DT (the))(NNP (presidential))(NN (suite)))(VP (VBZ (feel)))(ADJP (JJ (sooooooooooooo))(JJ (good))))) |ET| 
0.93287094645970081163710574401193  |BT| (ROOT (S (NP (VB (thankful)))(PP (IN (for)))(NP (DT (the))(NNS (man))(CC (and))(NNS (woman)))(NP (WP (who)))(VP (VBD (fight)))(NP (PRP$ (we))(NNS (war))))(S (NP (NNP (missing))(NNP (jack))(NNP (watts)))(VP (VBD (<)))(NP (CD (3))))) |ET| 
-1.0228854639984272800745657150401  |BT| (ROOT (S (NP (JJ (kelui2)))(PP (IN (for)))(NP (PDT (all))(PRP$ (my))(NNS (mate)))(PP (JJ (yg)))(NP (NN (ada))(NN (kt))(NN (kulim)))(VP (VBZ (let)))(NP (VB (lepak))(NN (mcd)))(VP (VBZ (be)))(NP (NNP (fadzlullah))(NNP (suhaimi))))) |ET| 
-1.0228854639984272800745657150401  |BT| (ROOT (S (ADVP (NNP (totally)))(VP (VBZ (suck)))(PP (IN (in)))(NP (NNP (starcraft))(CD (2))))(S (NP (PRP (i)))(VP (MD (should))(VB (think)))(ADVP (RB (twice))(IN (before)))(VP (VBG (challenge)))(NP (NNP (wafi))(CC (or))(NNP (richie))))) |ET| 
-1.0228854639984272800745657150401  |BT| (ROOT (S (ADVP (RB (apparently)))(NP (DT (the))(NNP (verizon))(NN (store)))(VP (MD (can))(RB (not))(VB (transfer)))(NP (PRP$ (my))(NNS (contact)))(NP (RBS (best))(VB (buy))(VBG (can.gg))(NNP (verizon))))) |ET| 
1.0228854639984272800745657150401  |BT| (ROOT (S (NP (PRP (i)))(VP (VBP (be))(VBG (get)))(SBAR (IN (that)))(NP (PRP (i)))(VP (VBP (want)))(NP (DT (another))(JJ (tattoo))(NN (itch))))) |ET| 
1.0228854639984272800745657150401  |BT| (ROOT (S (NP (NNP (ryan))(NNP (johnson))(VBN (make)))(NP (PRP (i)))(NP (DT (a))(JJ (sammich)))(NP (NN (today))))) |ET| 
0.89728642107408995709505461491062  |BT| (ROOT (S (NP (RB (just)))(VP (VBP (promise)))(NP (PRP (i)))(NP (PRP (you)))(VP (MD ('ll))(VB (think)))(PP (IN (of)))(NP (PRP (i))))) |ET| 
-1.0228854639984272800745657150401  |BT| (ROOT (S (NP (PRP (i)))(VP (VBP (be)))(NP (DT (a))(JJ (strong))(NN (girl)))(NP (RB (even))(DT (the))(JJ (strong)))(VP (MD (can))(VB (be))(VBN (knock)))(ADVP (RP (down))))(S (NP (PRP (i)))(VP (MD (will))(VB (pick)))(NP (PRP (myself)))(PRT (RP (up)))(VP (VB (become)))(ADJP (RB (even))(JJR (stronger))))(S (NP (PRP (i)))(VP (MD (will))(VB (be)))(NP (WP (who)))(NP (PRP (i)))(VP (VBP (be)))(PP (IN (by)))(NP (NN (choice)))(CONJP (RB (not)))(PP (IN (by)))(NP (NN (circumstance))))) |ET| 
-1.0228854639984272800745657150401  |BT| (ROOT (S (NP (PRP (you)))(VP (MD (can))(RB (not))(VB (buy)))(NP (NN (love)))(NP (PRP (you)))(VP (MD (can))(VB (pay)))(ADVP (RB (heavily)))(PP (IN (for)))(NP (PRP (it))))) |ET| 
-1.0228854639984272800745657150401  |BT| (ROOT (S (NP (RB (just)))(VP (VBD (do)))(NP (NN (web))(VB (cam)))(PP (IN (with)))(NP (NN (family)))(PP (IN (in)))(NP (NNP (florida))))(S (NP (PRP (i)))(VP (VBP (think)))(NP (PRP$ (my))(NN (brother)))(VP (VBD (didnt)))(NP (VB (stop)))(VP (VBG (smile)))(NP (DT (the))(JJ (whole))(NN (time))))) |ET| 
1.0228854639984272800745657150401  |BT| (ROOT (S (VP (VBZ (be)))(VP (VBG (leave)))(ADVP (RB (now))))(S (INTJ (NNP (goodbye))))) |ET| 
1.0228854639984272800745657150401  |BT| (ROOT (S (NP (CD (2))(NNS (month)))(ADVP (RB (ago)))(NP (DT (the))(NN (trouble)))(VP (VBD (start))))(S (VP (VBZ (have)))(NP (PRP (it)))(VP (VBN (end)))(PP (IN (by)))(ADVP (RB (now))))(S (NP (RB (only))(NNP (god)))(VP (VBZ (know))))) |ET| 
1.0228854639984272800745657150401  |BT| (ROOT (S (NP (NN (hahaha))(FW (i)))(VP (VBD (run)))(PP (JJ (in2)))(NP (DT (a))(NN (door))))(S (ADJP (JJ (awesome))))(S (NP (PRP$ (my))(NN (face)))(VP (VBZ (hurt))))) |ET| 
-1.0228854639984272800745657150401  |BT| (ROOT (S (VP (VBZ (be)))(VP (VBG (feel)))(ADVP (RB (rather))(JJ (unwell))))) |ET| 
-1.0228854639984272800745657150401  |BT| (ROOT (S (VP (VBZ (be)))(ADVP (RB (back)))(PP (IN (in)))(NP (NN (school)))(VP (NN (lovin)))(SBAR (NN (it.now)))(NP (PRP (i)))(ADVP (RB (just)))(VP (VBP (need))(TO (to))(VB (find)))(NP (DT (a))(NN (job))))) |ET| 
-1.0228854639984272800745657150401  |BT| (ROOT (S (ADVP (RB (finally)))(VP (VBD (get)))(NP (DT (a))(NNP (ps3)))(ADVP (RB (now)))(VP (MD (will))(VB (play)))(NP (NNP (xiii))))) |ET| 
0.88122571448251219017322455329122  |BT| (ROOT (S (NP (FW (i)))(VP (MD (would))(VB (drive)))(PP (RP (on)))(PP (TO (to)))(NP (DT (the))(NN (end)))(PP (IN (with)))(NP (PRP (you))))) |ET| 
1.0228854639984272800745657150401  |BT| (ROOT (S (VP (VBG (gon))(TO (na))(VB (hang)))(PRT (RP (out)))(PP (IN (with)))(NP (NN (family)))(VP (VBZ (today.so))(VBN (excite))))) |ET| 
1.0228854639984272800745657150401  |BT| (ROOT (S (NP (POS ('))(VBP (ah))(RB (wah))(RB (yuh)))(VP (VB (gimmeh)))(NP (PRP (it)))(PP (IN (in)))(NP (NNP (de))(NN (beach))))) |ET| 
-1.0228854639984272800745657150401  |BT| (ROOT (S (NP (FW (i)))(VP (MD (need)))(NP (DT (a))(NN (gun))))) |ET| 
-1.0228854639984272800745657150401  |BT| (ROOT (S (NP (JJ (oooo))(NN (man)))(VP (JJ (hard)))(NP (NN (night)))(NP (JJ (last))(NN (night))))(S (VP (VB (thank)))(NP (PRP (you))(JJ (phil))))) |ET| 
-1.0228854639984272800745657150401  |BT| (ROOT (S (NP (VB (note)))(PP (TO (to)))(NP (NN (self)))(VP (NNP (need))(TO (to))(VB (schedule))(CC (and))(VB (advertise)))(NP (NN (fall))(NNS (workshop))))(S (VP (VB (note)))(PP (TO (to)))(NP (NNS (other)))(VP (NNP (feel)))(ADVP (JJ (free)))(VP (TO (to))(VB (nag)))(NP (PRP (i)))(PP (IN (about)))(NP (PRP (it))))) |ET| 
1.0228854639984272800745657150401  |BT| (ROOT (S (NP (DT (that))(JJ (awkward))(NN (moment)))(ADVP (WRB (when)))(NP (PRP (you)))(VP (VBP (wake)))(PRT (RP (up)))(NP (NNP (may))(CD (22nd)))(NP (NNP (jesus)))(VP (VBZ (be)))(ADVP (RB (here))))) |ET| 
1.0228854639984272800745657150401  |BT| (ROOT (S (ADVP (RB (just)))(VP (VBN (thinkin))))) |ET| 
0.97886546874866420253624710312579  |BT| (ROOT (S (NP (JJ (veut))(NN (tre))(NN (mardi)))(VP (SYM (=)))(NP (NNP (dddddd))(NNP (expeeect))))) |ET| 
-1.0228854639984272800745657150401  |BT| (ROOT (S (VP (VBN (workin)))(PP (IN (on)))(NP (JJR (more))(NN (computer))(NN (painting))))) |ET| 
-1.0228854639984272800745657150401  |BT| (ROOT (S (NP (PRP$ (my))(NN (ear)))(VP (VBZ (be))(VBN (bruise))))) |ET| 
-1.0228854639984272800745657150401  |BT| (ROOT (S (NP (PRP (i)))(ADVP (RB (accidentally)))(VP (VBN (irradiate)))(NP (PRP (myself))))) |ET| 
0.98283283864432613441408648213837  |BT| (ROOT (S (NP (NNS (kandi)))(VP (MD (may))(VB (demeo)))(VP (VB (>)))(NP (JJ (pure))(NN (genius))))) |ET| 
0.94104524893564911458554433920654  |BT| (ROOT (S (VP (VBZ (be)))(UCP (VBG (love)))(NP (DT (this))(JJ (beautiful))(NN (wheather.oh)))(ADVP (WRB (how)))(NP (FW (i)))(VP (VBP (have))(VBN (miss)))(NP (DT (the))(NN (sun))(CC (&))(PRP$ (my))(JJ (flip))(NNS (flop))))(S (ADVP (RB (up)))(PP (IN (at)))(NP (VBZ (mom))(NN (house)))(PP (IN (for)))(NP (NN (dinner)))(PP (IN (before)))(NP (NN (work))(NN (tonight))))(S (NP (NNP (hope))(NN (everyone)))(VP (VBZ (be))(VBG (have)))(NP (DT (a))(NNP (blessed))(NN (weekend))))) |ET| 
0.94042069542030992668202316053794  |BT| (ROOT (S (VP (VBZ (be)))(UCP (VBN (sit)))(PP (IN (at)))(NP (NNS (holl)))(VP (VBG (wait)))(SBAR (IN (for)))(NP (NN (holly)))(VP (TO (to))(VB (finish)))(NP (PRP$ (she))(JJ (fake))(NN (tan))(JJ (:p))(NNP (x))))) |ET| 
-1.0228854639984272800745657150401  |BT| (ROOT (S (NP (NN (ang))(NNS (value))(VBP (nga))(NN (naman))))(S (NP (SYM (=))(VBP (/)))(NP (FW (di))(TO (na))(NN (ko))(NN (makausad.hayst))))) |ET| 
-1.0228854639984272800745657150401  |BT| (ROOT (S (ADVP (WRB (when)))(NP (VBN (bore))(IN (as))(NN (wood))(VBD (skype))))(S (NP (VBZ (who)))(ADVP (RP (down))))) |ET| 
-1.0228854639984272800745657150401  |BT| (ROOT (S (NP (NN (bout))(CD (2)))(VP (VBP (go)))(NP (CD (2))))) |ET| 
1.0228854639984272800745657150401  |BT| (ROOT (S (NP (PRP$ (my))(NN (cell))(NN (phone)))(VP (VBZ (be))(VBN (bustede))))) |ET| 
1.0228854639984272800745657150401  |BT| (ROOT (S (PP (VBZ (well.thats)))(NP (DT (a))(NN (bitch))))) |ET| 
1.0228854639984272800745657150401  |BT| (ROOT (S (NP (VB (screw)))(NP (PRP (you)))(VP (RB (too))(VB (sleep))))) |ET| 
-1.0228854639984272800745657150401  |BT| (ROOT (S (NP (VB (yay)))(VP (PRP (i))))) |ET| 
-1.0228854639984272800745657150401  |BT| (ROOT (S (NP (NNP (y))(NNP (thank))(NNP (u)))(PP (IN (if)))(NP (NNP (u)))(NP (POS ('))(NN (z))(DT (a))(NNP (hata))(VBZ (!!!!!))))) |ET| 
-1.0228854639984272800745657150401  |BT| (ROOT (S (NP (UH (ah)))(VP (VB (screw)))(NP (DT (this))(JJ (dumb))(NN (website)))(NP (PRP (i)))(VP (VBP (be)))(PRT (RP (out))))) |ET| 
1.0228854639984272800745657150401  |BT| (ROOT (S (NP (`` ("))(VB (make))(NN (everything)))(ADJP (RB (as))(JJ (simple)))(PP (IN (as)))(ADJP (JJ (possible)))(ADJP (JJR (simpler))))(S (NP (NNP (albert))(NNP (einstein))(-LRB- (-lrb-))(NNP (1879-1955))))) |ET| 
1.0228854639984272800745657150401  |BT| (ROOT (S (NP (NNP (makikita))(NNP (ko))(NNP (na))(NNP (si))(VBD (edward))(NNP (cullen))))(S (NP (NNP (so))(NNP (excytd))))) |ET| 
0.88860076894672401781605231008143  |BT| (ROOT (S (ADVP (RB (finally)))(NP (PRP$ (my))(JJ (last))(JJ (final))(NNS (2nite))))(S (NP (NN (whoo))(VBP (hoo))))) |ET| 
-1.0228854639984272800745657150401  |BT| (ROOT (S (NP (JJ (bombie))(NN (dinner))))(S (NP (JJ (thanx))(NN (uncle))(NN (jim))))) |ET| 
-1.0228854639984272800745657150401  |BT| (ROOT (S (NP (NNP (gretchen))(NNP (wilson))(NNS (rule))))(S (NP (VBP (lol))))) |ET| 
-1.0228854639984272800745657150401  |BT| (ROOT (S (NP (NNP (human))(NNP (slaves))))(S (PP (IN (in)))(NP (DT (a))(NNP (insect))(NNP (nation))))(S (NP (NN (awwwwwawwwawwwawwww))))) |ET| 
1.0228854639984272800745657150401  |BT| (ROOT (S (NP (PRP (i)))(VP (VBP (be))(VBN (exhaust))))) |ET| 
1.0228854639984272800745657150401  |BT| (ROOT (S (NP (PRP (i)))(VP (VBP (see)))(NP (JJ (sunshine))))) |ET| 
1.0228854639984272800745657150401  |BT| (ROOT (S (NP (PRP (i)))(VP (VBP (love)))(SBAR (IN (that)))(ADVP (WRB (when)))(NP (PRP (i)))(VP (VBP (get))(VBN (stress)))(NP (PRP (i)))(VP (VBP (lose)))(NP (PRP$ (my))(NN (appetite))))) |ET| 
-1.0228854639984272800745657150401  |BT| (ROOT (S (NP (PRP (i)))(VP (NNP (love)))(NP (PRP$ (my))(NNS (boy))))) |ET| 
-1.0228854639984272800745657150401  |BT| (ROOT (S (NP (PRP (i)))(VP (VBP (be))(JJ (sooo))(JJ (tired))))) |ET| 
-1.0228854639984272800745657150401  |BT| (ROOT (S (NP (PRP (i)))(VP (VBP (hate))(VBG (chop)))(NP (JJ (onions))))(S (NP (PRP (it)))(VP (VBZ (make)))(NP (PRP (i)))(VP (VB (cry))))) |ET| 
1.0228854639984272800745657150401  |BT| (ROOT (S (NP (CD (six))(NNS (nation))(NN (boy))))(S (VP (VB (make)))(NP (DT (a))(JJ (great))(NN (night)))(PRT (IN (in))))) |ET| 
1.0228854639984272800745657150401  |BT| (ROOT (S (NP (NNP (happy))(VBD (republic))(NNP (day))))(S (NP (NNP (connor))(NNP (paff)))(VP (VBZ (be)))(NP (DT (a))(JJ (evil))(NN (butthead))))(S (NP (NNP (p))))) |ET| 
1.0228854639984272800745657150401  |BT| (ROOT (S (NP (JJ (8th))(NN (chair))))(S (ADVP (RB (really)))(ADJP (JJ (mad))))) |ET| 
-1.0228854639984272800745657150401  |BT| (ROOT (S (ADVP (RB (still)))(ADJP (RB (awake))))) |ET| 
-1.0228854639984272800745657150401  |BT| (ROOT (S (VP (VBD (get)))(NP (DT (a))(JJ (early))(NN (mark))(CC (and))(NN (dont)))(VP (VB (have))(TO (to))(VB (be)))(ADVP (RB (back)))(NP (IN (till))(CD (1))(NN (tomorrow))))(S (NP (VBD (awesome))))) |ET| 
-1.0228854639984272800745657150401  |BT| (ROOT (S (NP (NN (soduku))(CC (and))(NN (backgammon))))(S (NP (WP (what))(DT (a))(JJ (crazy))(NN (night)))(PP (IN (at)))(NP (DT (the))(NN (shore))))(S (VP (VBP (wish)))(NP (DT (the))(NN (neighbor)))(VP (MD (would))(VB (come))(VB (kill)))(NP (DT (the))(NN (cricket)))(NP (WDT (that)))(VP (VBZ (be)))(PP (JJ (outside)))(PP (IN (of)))(NP (PRP$ (my))(NN (window))))) |ET| 
1.0228854639984272800745657150401  |BT| (ROOT (S (NP (PRP (i)))(VP (VBP (do))(RB (not))(VB (hate)))(NP (PRP (you))))) |ET| 
1.0025898155424572966154528330662  |BT| (ROOT (S (NP (NNP (anime))(NNP (fucking))(NNP (expo)))(NP (PRP (i)))(VP (NNP (live)))(NP (NNP (breate))(NNP (n))(NNP (eat))(NNP (this))(NNP (shit))))) |ET| 
1.0228854639984272800745657150401  |BT| (ROOT (S (NP (PRP$ (its))(PRP$ (you))(JJ (*))(NN (loss)))(VP (NNP (*)))(NP (NNP (mother))(NNP (f))(NNP (**))(NNP (ker))))) |ET| 
-1.0228854639984272800745657150401  |BT| (ROOT (S (NP (PRP (i)))(VP (VBP (be)))(NP (DT (a))(JJ (wannabe))(NN (transformer))))(S (NP (PRP (you)))(VP (VBP (know)))(NP (PRP (you)))(VP (VBP (be)))(ADJP (JJ (jealous))))) |ET| 
1.0213863565345180361987331707496  |BT| (ROOT (S (NP (NN (anyone)))(VP (VBD (interest)))(PP (IN (in)))(VP (VBG (go)))(PP (TO (to)))(NP (VB (ja))(NN (rule))(NN (concert))))) |ET| 
-1.0228854639984272800745657150401  |BT| (ROOT (S (NP (DT (the))(RBS (best))(JJ (mind-altering))(NN (drug)))(VP (VBZ (be)))(NP (NN (truth))))) |ET| 
-1.0228854639984272800745657150401  |BT| (ROOT (S (NP (PRP (i)))(VP (VBP (do))(RB (not))(RB (quite))(VB (understand)))(NP (NNS (number))))) |ET| 
1.0228854639984272800745657150401  |BT| (ROOT (S (NP (NNP (<))(CD (3))(VBG (turn)))(NP (PRP$ (my))(NNS (dream)))(PP (IN (into)))(NP (NN (reality))(CD (<))(CD (3))))) |ET| 
1.0228854639984272800745657150401  |BT| (ROOT (S (NP (DT (the))(NN (summer)))(VP (VBD (end)))(NP (CD (2)))(ADVP (RB (soon))))) |ET| 
-1.0228854639984272800745657150401  |BT| (ROOT (S (NP (JJ (tonights))(NN (agenda)))(NP (NNP (salsa))(NNP (dancing))))) |ET| 
-1.0228854639984272800745657150401  |BT| (ROOT (S (NP (NNP (chiropractor)))(VP (VBZ (equal)))(NP (JJ (awesome))))) |ET| 
-1.0228854639984272800745657150401  |BT| (ROOT (S (NP (WP (what)))(VP (VBZ (give)))(NP (NN (life)))(PP (TO (to)))(NP (NNS (people)))(VP (VBZ (be)))(NP (NN (hope)))(SBAR (IN (while)))(NP (WP (what)))(VP (VBZ (kill)))(NP (PRP (they)))(VP (VBZ (be)))(NP (NN (despair))))) |ET| 
1.0228854639984272800745657150401  |BT| (ROOT (S (NP (PRP (i)))(VP (VBP (be))(RB (actually)))(NP (DT (a))(JJ (unicorn/goat))(NN (hybrid))))(S (VP (NNP (bet)))(NP (PRP (you))(VBZ (never))(NNP (saw))(NNP (that))(NNP (com))('' (')))(PP (IN (in)))(NP (NNP (huh))))) |ET| 
1.0228854639984272800745657150401  |BT| (ROOT (S (PP (TO (to)))(NP (PDT (all))(DT (the))(NN (ap))(NNS (student)))(VP (VBP (pullin)))(NP (DT (all))(NNS (nighter)))(VP (VB (know)))(NP (DT (this)))(NP (PRP (you)))(VP (VBP (be)))(ADJP (RB (alone))))) |ET| 
1.0228854639984272800745657150401  |BT| (ROOT (S (ADVP (NNS (y)))(VP (VBP (be))(FW (i)))(PRT (RP (up)))(ADVP (RB (still))))) |ET| 
-1.0228854639984272800745657150401  |BT| (ROOT (S (VP (VBG (study)))(PP (IN (for)))(NP (PRP$ (my))(NN (science))(NN (test)))(VP (VBG (do)))(NP (PRP$ (my))(NN (art))(NN (project)))(PP (IN (at)))(NP (RB (once))))(S (NP (FW (i)))(VP (NN (wonder)))(ADVP (WRB (how)))(NP (DT (this)))(VP (MD (will))(VB (pan)))(PRT (RP (out))))) |ET| 
-1.0228854639984272800745657150401  |BT| (ROOT (S (VP (VBG (watch))(RB (yet)))(NP (DT (another))(NNP (alien))(NN (movie)))(PP (IN (with)))(NP (PRP$ (my))(NN (uncle))(CD (<))(CD (3))))) |ET| 
-1.0228854639984272800745657150401  |BT| (ROOT (S (NP (PRP$ (its))(NNP (friday)))(NP (DT (this)))(VP (VBZ (have))(VBN (be)))(NP (DT (the))(JJS (longest))(JJ (short))(NN (week)))(NP (PRP (we)))(VP (VBP (have))(VBN (have)))(PP (IN (in)))(NP (DT (a))(JJ (long))(NN (time))))) |ET| 
1.003724102542628227041632271721  |BT| (ROOT (S (NP (PRP (i)))(VP (VBP (love))(JJ (beards.wow)))(NP (JJ (#edge))))(S (NP (NN (lol))))) |ET| 
1.0228854639984272800745657150401  |BT| (ROOT (S (NP (NNP (q)))(NP (WP (what)))(VP (VBZ (be)))(NP (DT (the))(NN (meaning)))(PP (IN (of)))(NP (NN (life))))(S (NP (NNP (a)))(NP (PRP (i))))) |ET| 
1.0228854639984272800745657150401  |BT| (ROOT (S (NP (NNP (cq)))(VP (VBZ (be)))(NP (NNP (soooo))(NNP (boring))))) |ET| 
-1.0228854639984272800745657150401  |BT| (ROOT (S (NP (NNP (snow)))(NP (NNP (snow)))(NP (NNP (snow))))(S (NP (JJ (glad))(PRP (you)))(VP (MD (could))(RB (finally))(VB (make)))(NP (PRP (it))))(S (SBAR (RB (even))(RB (though)))(NP (PRP$ (its))(RB (only))(DT (a))(NN (couple))(VBZ (flurry)))(VP (PRP$ (you)))(ADVP (RB (still)))(ADVP (RB (here))))) |ET| 
-1.0228854639984272800745657150401  |BT| (ROOT (S (NP (NNP (head)))(VP (VBZ (feel)))(PP (IN (like)))(NP (PRP (it)))(VP (VBZ (be))(VBG (be))(VBN (stab))))(S (VP (VBG (go)))(PP (TO (to)))(NP (VB (sleep))))(S (ADVP (RB (hopefully)))(NP (PRP (it)))(VP (VBZ (get)))(ADJP (JJR (better))))) |ET| 
-1.0228854639984272800745657150401  |BT| (ROOT (S (VP (VBZ (be)))(VP (VBG (love)))(NP (DT (the))(NN (apple))))(S (NP (PRP (i)))(VP (MD (could))(VB (eat)))(NP (PRP (he)))(PRT (RP (up))))(S (VP (VBD (do))(RB (not))(VB (fail)))(NP (DT (the))(JJ (mid-term))(NN (afterall))))(S (NP (PRP$ (my))(NNS (brain)))(VP (VBP (be)))(ADVP (RB (still)))(PP (JJ (worth)))(NP (NN (something))))) |ET| 
1.0228854639984272800745657150401  |BT| (ROOT (S (PP (VB (like)))(NP (DT (this)))(PP (IN (for)))(NP (DT (a))(NNS (jame)))(VP (VBZ (think))))) |ET| 
1.0185585709519842101400399769773  |BT| (ROOT (S (NP (NNS (what)))(PP (IN (with)))(NP (NN (di))(VBP (netwk))(NN (nw))))(S (NP (VBZ (babe)))(VP (SYM (r))(VBN (suppose)))(NP (CD (2))(CD (fb))(JJ (steady))(NN (nw))))(S (NP (VB (mcheww))))) |ET| 
