SVM-light Version V5.01-TK-1.4.3_smoothing
5 # kernel type
3 # kernel parameter -d 
1 # kernel parameter -g 
1 # kernel parameter -s 
1 # kernel parameter -r 
empty# kernel parameter -u 
0.4 # kernel parameter -L 
1 # kernel parameter -T 
T # kernel parameter -C 
1 # kernel parameter -F 
1 # kernel parameter -S 
0.400000 # kernel parameter -M 
3 # kernel parameter -N 
S # kernel parameter -V 
S # kernel parameter -W 
 # kernel parameter -G 
1.000000 # similarity threshold -H 
1.000000 # terminal factor -X 
empty # matrix path -P 
empty # cache path -Z 
1000000 # cache size -A 
10000000 # cache max size -B 
0.500000 # refresh factor -D 
10 # highest feature index 
4000 # number of training documents 
1770 # number of support vectors plus 1 
-3.4778591 # threshold b, each following line is a SV (starting with alpha*y)
-1.0121088705269847274337280396139  |BT| (ROOT (S (NP (WDT (what))(NN (type)))(PP (IN (of)))(NP (NN (ship)))(ADVP (RB (never)))(VP (VBZ (sink))))(S (ADVP (WRB (why)))(NP (DT (a))(NN (friendship)))(PP (IN (of)))(NP (NN (course))))) |ET| 
-1.0121088705269847274337280396139  |BT| (ROOT (S (VP (VBN (callin)))(NP (PRP (it)))(NP (DT (a))(JJ (early))(NN (night)))(VP (VBG (go)))(PP (TO (to)))(NP (NN (bed))))(S (VP (VBP (have)))(NP (DT (a))(JJ (great))(NN (day)))(PP (JJ (2marrow)))(NP (NN (everyone))))) |ET| 
-1.0121088705269847274337280396139  |BT| (ROOT (S (NP (PRP (i)))(VP (VBP (be))(RB (so))(VBN (confue)))(PP (IN (with)))(NP (DT (the))(NNP (a.p))(NN (world))(NN (history))(NN (essay))))) |ET| 
-1.0121088705269847274337280396139  |BT| (ROOT (S (VP (VBN (enrol)))(PP (IN (in)))(NP (NNS (class)))(ADVP (RB (finally))))) |ET| 
-1.0121088705269847274337280396139  |BT| (ROOT (S (NP (NNP (syracuse))(NNP (university)))(VP (VBZ (be)))(ADJP (RP (out)))(VP (TO (to))(VB (get)))(NP (PRP (i)))(NP (PRP (i)))(VP (VBP (swear))))) |ET| 
1.0121088705269847274337280396139  |BT| (ROOT (S (NP (FW (i)))(ADVP (RB (just)))(VP (VBP (get)))(NP (NNP (monkey))(NNP (rape))))) |ET| 
1.0121088705269847274337280396139  |BT| (ROOT (S (VP (VB (shut)))(PRT (RP (up))(CC (and))(VB (put)))(NP (PRP$ (you))(NN (money)))(ADVP (WRB (where)))(NP (PRP$ (you))(NN (mouth)))(VP (VBZ (be))))(S (VP (VBP (do))(RB (not))(VB (be)))(NP (DT (a))(NN (baby)))(VP (VB (remember)))(NP (WP (what)))(NP (PRP (you)))(VP (VBD (tell)))(NP (PRP (i))))) |ET| 
1.0121088705269847274337280396139  |BT| (ROOT (S (NP (NNP (esok)))(NP (JJ (single))(NNP (katy))(NNP (perry)))(VP (VBD (bertajuk)))(NP (NNP (et))(NN (akan))(NN (dilacarkan))))(S (NP (NNP (yay))))) |ET| 
1.0121088705269847274337280396139  |BT| (ROOT (S (ADVP (RB (back)))(VP (NN (home)))(SBAR (IN (after)))(NP (CD (two))(JJ (free))(NN (voice))(NNS (lesson)))(NP (NN (today)))(NP (NN (woop))(VBD (woop))))) |ET| 
1.0121088705269847274337280396139  |BT| (ROOT (S (VP (VBZ (be))(VBG (read)))(NP (DT (a))(JJ (good))(NN (book))))) |ET| 
-1.0121088705269847274337280396139  |BT| (ROOT (S (NP (FW (i))(VBD (<))(CD (3)))(NP (PRP$ (my))(NN (family))))) |ET| 
-1.0121088705269847274337280396139  |BT| (ROOT (S (NP (NNS (hope))(NN (emma)))(VP (VBZ (have)))(NP (DT (a))(JJ (good))(NN (time))))(S (NP (NNP (d))))) |ET| 
-1.0121088705269847274337280396139  |BT| (ROOT (S (ADVP (RB (well)))(VP (VB (thank)))(NP (NN (god)))(VP (VBP (do))(RB (not))(VB (need))(TO (to))(VB (give)))(NP (DT (a))(NN (shit)))(PP (IN (about)))(NP (DT (the))(JJ (speluncean))(NNS (explorer)))(ADVP (RB (anymore))))) |ET| 
1.0121088705269847274337280396139  |BT| (ROOT (S (VP (VBG (listen)))(PP (TO (to)))(NP (DT (the))(JJ (awkward))(NN (conversation))(VBZ (downstair)))(PP (IN (about)))(NP (VBG (fiddle)))(PP (IN (with)))(NP (DT (a))(NN (fiddle))))) |ET| 
1.0121088705269847274337280396139  |BT| (ROOT (S (VP (VBG (anticipate)))(NP (NN (snow)))(PP (IN (on)))(NP (NNP (christmas))(NN (day))(NN ([))))) |ET| 
1.0121088705269847274337280396139  |BT| (ROOT (S (NP (DT (a))(NN (moment)))(PP (IN (like)))(NP (DT (this))))) |ET| 
-1.0121088705269847274337280396139  |BT| (ROOT (S (NP (NN (blood)))(PP (IN (on)))(NP (DT (the))(NN (staircase))))) |ET| 
-1.0121088705269847274337280396139  |BT| (ROOT (S (NP (FW (i)))(VP (VBD (fight)))(NP (DT (the))(NN (law)))(NP (DT (the))(NN (law)))(VP (VBD (win))))) |ET| 
-1.0121088705269847274337280396139  |BT| (ROOT (S (VP (VBD (do))(RB (not))(VB (expect))(TO (to))(VB (end)))(PRT (RP (up)))(PP (IN (in)))(NP (JJ (first))(NN (aid))))) |ET| 
1.0121088705269847274337280396139  |BT| (ROOT (S (NP (NNP (temple))(NNP (grandin)))(VP (VBZ (be)))(NP (DT (a))(RB (really))(JJ (good))(NN (movie))))(S (NP (PRP (i)))(ADVP (RB (honestly)))(VP (VBP (tear)))(PRT (RP (up)))(NP (DT (a))(JJ (few))(NNS (time))))) |ET| 
1.0121088705269847274337280396139  |BT| (ROOT (S (NP (NNP (ya))(PRP (i)))(VP (VBD (get)))(NP (PRP$ (my))(NN (car))(NN (seat))(NN (reimbursement))(NN (check))))(S (NP (JJ (new))(NN (car))(NNS (seat)))(ADVP (RB (here)))(NP (PRP (we)))(VP (VBP (come))))) |ET| 
1.0121088705269847274337280396139  |BT| (ROOT (S (NP (JJ (8th))(NN (month))(VBP (wow))))(S (NP (NN (i))))(S (NP (PRP (she))))) |ET| 
-1.0121088705269847274337280396139  |BT| (ROOT (S (NP (FW (i))(JJ (lovee))(JJ (gabby))))(S (NP (PRP (she)))(VP (VBZ (be)))(ADJP (RB (soo))(JJ (amazing))))) |ET| 
-1.0121088705269847274337280396139  |BT| (ROOT (S (NP (NNP (im))(NNP (cleanin))(VBD (my))(NNP (house))))(S (NP (NNP (so))(NNP (leave))(VBP (me))(VBG (along))))) |ET| 
-1.0121088705269847274337280396139  |BT| (ROOT (S (NP (NN (fucking))(VBP (hate))(NN (rainn))))) |ET| 
1.0121088705269847274337280396139  |BT| (ROOT (S (NP (DT (the))(NNP (south)))(VP (VBZ (be)))(NP (DT (the))(JJ (phanny))(NN (pack)))(PP (IN (of)))(NP (DT (the))(NNP (unnited))(NNPS (states))))) |ET| 
1.0121088705269847274337280396139  |BT| (ROOT (S (NP (DT (any))(JJ (last))(NNS (tip)))(PP (IN (for)))(NP (JJ (maths))(NN (paper))))) |ET| 
1.0121088705269847274337280396139  |BT| (ROOT (S (NP (NNP (vee))(NNP (dah))(NNP (ca)))(NP ('' ('))(SYM (z))(NN (defender)))(PP (NN (ov)))(NP (`` ("))(DT (the))(NN (corrupt))('' ("))))) |ET| 
-1.0121088705269847274337280396139  |BT| (ROOT (S (NP (DT (a))(JJ (longg))(NN (weekend)))(VP (VBD (spend)))(ADVP (RB (well))))) |ET| 
-1.0121088705269847274337280396139  |BT| (ROOT (S (VP (NN (feelin)))(NP (NNS (good.miss))(NNP (my))(NNP (hubbie))(NNP (bad.but))(NNP (im))(NNP (tryin))))) |ET| 
-1.0121088705269847274337280396139  |BT| (ROOT (S (NP (`` ("))(NNPS (haters)))(VP (VBP (be))(VBN (confuse)))(NP (NNS (admirer)))(NP (WP (who)))(VP (MD (can))(RB (t))(VB (understand)))(ADVP (WRB (why)))(NP (NN (everybody)))(ADJP (RB (else)))(VP (VBZ (like)))(NP (PRP (you)))(NP ('' ("))(NNP (paulo))(NNP (coelho))))) |ET| 
1.0121088705269847274337280396139  |BT| (ROOT (S (NP (NNP (alex))(NNP (zane))(VBD (<))(CD (3))))) |ET| 
1.0121088705269847274337280396139  |BT| (ROOT (S (NP (NNP (baking)))(VP (VBZ (christma)))(NP (NNS (cookie)))(NP (DT (all))(NN (day))))(S (NP (NNP (d))))) |ET| 
1.0121088705269847274337280396139  |BT| (ROOT (S (NP (PRP (i)))(ADVP (RB (still)))(VP (VBP (think)))(NP (FW (i)))(VP (VB (have)))(NP (NN (school))(NN (tommorow))))) |ET| 
-1.0121088705269847274337280396139  |BT| (ROOT (S (NP (PRP (it)))(VP (VBZ (suck)))(NP (NNP (nawt)))(VP (VBG (have)))(NP (NNP (da))(NNP (guy))(NNP (yuu))(NNP (want))(CC (&))(NNS (heart))))) |ET| 
-1.0121088705269847274337280396139  |BT| (ROOT (S (NP (PRP (i)))(VP (VBP (realize)))(NP (PRP (it)))(VP (VBZ (be)))(ADVP (RB (only)))(PP (IN (in)))(NP (PRP (myself)))(NP (IN (that)))(NP (FW (i)))(VP (VB (find)))(NP (JJ (real))(NN (love)))(NP (JJ (real))(NN (truth))))) |ET| 
-1.0121088705269847274337280396139  |BT| (ROOT (S (NP (NN (lol))(NNS (>)))(SBAR (VBP (<)))(NP (PRP (i)))(VP (VBP (love)))(NP (JJ (anime))))(S (NP (VBD (<))(CD (3))))) |ET| 
1.0121088705269847274337280396139  |BT| (ROOT (S (VP (VBG (talk)))(NP (RB (much))(IN (about)))(NP (PRP (oneself)))(VP (MD (can))(RB (also))(VB (be)))(NP (DT (a))(NN (means)))(VP (TO (to))(VB (conceal)))(PP (PRP (oneself))))) |ET| 
1.0121088705269847274337280396139  |BT| (ROOT (S (NP (FW (i)))(VP (VBD (see)))(NP (DT (a))(NN (monkey)))(VP (VBG (eat)))(NP (DT (a))(NN (banana)))(NP (PRP (it)))(VP (VBD (be)))(ADJP (JJ (weird))))) |ET| 
1.0121088705269847274337280396139  |BT| (ROOT (S (VP (NNP (shopping)))(NP (VBZ (be))(DT (the))(JJ (new))(NN (thing)))(VP (TO (to))(NNP (do))))(S (VP (NNP (love)))(NP (PRP (you))(NNP (d))(CC (and))(NNP (nick))))) |ET| 
-1.0121088705269847274337280396139  |BT| (ROOT (S (NP (MD (can))(RB (not)))(VP (VB (wait)))(PP (IN (for)))(NP (PRP$ (my))(NN (naya)))(VP (TO (to))(VB (meet)))(NP (JJ (tamzens))(NN (sumaium))))(S (VP (RB (either)))(NP (VBD (tonite))(CC (or))(NNP (thursday))))) |ET| 
-1.0121088705269847274337280396139  |BT| (ROOT (S (VP (VBG (wait)))(PP (IN (for)))(NP (DT (the))(NN (day)))(VP (TO (to))(NNS (end.i))(RB (just))(VBP (wan))(TO (na))(VB (lay)))(PRT (RP (down))))(S (ADJP (RB (so))(VBN (tire)))(PP (IN (for)))(NP (DT (some))(NN (reason))))) |ET| 
-1.0121088705269847274337280396139  |BT| (ROOT (S (NP (VB (lol)))(VP (VBG (watchingg)))(NP (DT (the))(NN (roast)))(PP (IN (of)))(NP (JJ (donald))(NN (trumph))))) |ET| 
1.0121088705269847274337280396139  |BT| (ROOT (S (VP (VBP (do)))(VP (VB (know)))(ADVP (WRB (how)))(NP (PRP (it)))(VP (VBZ (be)))(NP (PRP (you)))(VP (VBN (look)))(PP (IN (at)))(NP (PRP (i))))(S (VP (VBD (see)))(NP (DT (the))(NN (person)))(SBAR (IN (that)))(NP (FW (i)))(VP (MD (could))(VB (be))))(S (PP (IN (like)))(NP (NN (mercy)))(VP (VBG (ragee))(TO (to))(VB (save)))(NP (PRP (i)))(NP (DT (all))(DT (that))(FW (i))(NN (need)))(VP (VBZ (be)))(NP (PRP (you)))(ADJP (RB (so))(JJ (beautiful))(JJ (beautiful))))(S (NP (FW (i))(NN (cant)))(VP (VBP (explain)))(ADVP (WRB (how)))(NP (PRP$ (you))(VBG (change)))(NP (PRP$ (my))(NN (life))))) |ET| 
1.0121088705269847274337280396139  |BT| (ROOT (S (NP (-LRB- (-lrb-))(CD (8))(-RRB- (-rrb-))(NNP (cos)))(NP (PRP (you)))(VP (VBP (be)))(ADJP (JJ (amazing)))(NP (RB (just))(DT (the))(NN (way)))(NP (PRP (you)))(VP (VBP (be)))(NP (CD (8))))) |ET| 
1.0121088705269847274337280396139  |BT| (ROOT (S (NP (JJ (good))(NN (night)))(ADVP (NN (ppl))))) |ET| 
-1.0121088705269847274337280396139  |BT| (ROOT (S (NP (JJ (last))(NN (night)))(VP (VBD (be)))(NP (NN (fun))))) |ET| 
-1.0121088705269847274337280396139  |BT| (ROOT (S (NP (NNP (shinrei))(NNP (tantei))(NNP (yakumo)))(VP (VBD (be)))(NP (PDT (such))(DT (a))(JJ (good))(NN (anime)))(NP (PRP (i)))(VP (VBD (cry)))(NP (NN (sooooooooo))(RB (much))(CD (<))(CD (3))))) |ET| 
-1.0121088705269847274337280396139  |BT| (ROOT (S (VP (NNP (love)))(NP (VBD (doesnt))(VBN (hurt)))(NP (NN (love)))(VP (VBZ (complete)))(NP (WP (what)))(NP (PRP (it)))(VP (VBZ (have))(VBN (start))))) |ET| 
1.0121088705269847274337280396139  |BT| (ROOT (S (NP (RB (just)))(VP (VBN (watch)))(NP (DT (the))(NN (traped)))(PP (IN (in)))(NP (DT (the))(NN (closet))(NN (saga)))(ADVP (RB (still)))(VP (VBZ (make)))(NP (DT (no))(JJ (sence))))(S (NP (NN (lol))))) |ET| 
1.0121088705269847274337280396139  |BT| (ROOT (S (NP (CD (2))(NNS (month)))(ADVP (RB (ago)))(NP (DT (the))(NN (trouble)))(VP (VBD (start))))(S (VP (VBZ (have)))(NP (PRP (it)))(VP (VBN (end)))(PP (IN (by)))(ADVP (RB (now))))(S (NP (RB (only))(NNP (god)))(VP (VBZ (know))))) |ET| 
1.0121088705269847274337280396139  |BT| (ROOT (S (NP (DT (every))(NN (smile)))(VP (VBZ (be)))(NP (JJ (free))(NN (therapy))))(S (NP (DT (the))(NN (sound)))(PP (IN (of)))(NP (NN (laughter)))(NP (WDT (that)))(VP (VBZ (go)))(PP (IN (like)))(NP (DT (a))(NN (symphany))))) |ET| 
-1.0121088705269847274337280396139  |BT| (ROOT (S (VP (VBZ (be)))(NP (PRP (it)))(ADVP (RB (almost)))(NP (JJ (over))))(S (NP (FW (i)))(VP (MD (need)))(NP (DT (a))(NN (nap))))) |ET| 
-1.0121088705269847274337280396139  |BT| (ROOT (S (NP (NNP (life)))(VP (VBZ (be)))(NP (DT (a))(NN (dream))))) |ET| 
-1.0121088705269847274337280396139  |BT| (ROOT (S (NP (DT (the))(NNP (future)))(VP (VBZ (be)))(NP (NNP (lookin))(NNP (so))(NNP (much))(NNP (brighter))))) |ET| 
1.0121088705269847274337280396139  |BT| (ROOT (S (VP (VBG (play)))(NP (NNP (will))(NNP (fit)))(PP (IN (with)))(NP (NNP (paige))(NN (haha))(SYM (=))(NN (p))))) |ET| 
1.0121088705269847274337280396139  |BT| (ROOT (S (NP (PRP (i)))(VP (VBP (need))(TO (to))(VB (go)))(PP (TO (to)))(NP (NN (bed)))(ADVP (RB (now))))) |ET| 
1.0121088705269847274337280396139  |BT| (ROOT (S (NP (NN (nothing)))(VP (VBG (involve)))(NP (PRP (you)))(VP (VBZ (concern)))(NP (PRP (i)))(NP (NN (today))))) |ET| 
-1.0121088705269847274337280396139  |BT| (ROOT (S (NP (JJ (immature))(NN (love)))(VP (VBZ (say)))(NP (PRP (i)))(VP (VBP (love)))(NP (PRP (you)))(SBAR (IN (because)))(NP (PRP (i)))(VP (VBP (need)))(NP (PRP (you))))(S (NP (JJ (mature))(NN (love)))(VP (VBZ (say)))(NP (`` (')))(NP (PRP (i)))(VP (VBP (need)))(NP (PRP (you)))(SBAR (IN (because)))(NP (PRP (i)))(VP (VBP (love)))(NP (PRP (you))))(S (VP (VBG (look)))(PRT (RP (up)))(NP (JJ (random))(NNS (quote))))) |ET| 
-1.0121088705269847274337280396139  |BT| (ROOT (S (NP (PRP (i)))(VP (VBP (wish)))(NP (PRP (i)))(VP (VBD (have)))(NP (JJ (choclate))(NN (chip))(NNS (cookie)))(VP (TO (to))(VB (eat)))(ADVP (RB (right))(RB (now))))) |ET| 
-1.0121088705269847274337280396139  |BT| (ROOT (S (NP (NNP (ahh))(VBZ (mio))(NNS (dio))))(S (NP (NNP (jajjaja))(PRP (i)))(ADVP (RB (just)))(VP (VBD (wake)))(PRT (RP (up)))(PP (IN (from)))(NP (JJ (crazy))(NN (night)))(NP (PRP (i)))(VP (VBP (love)))(NP (PRP$ (my))(NNS (nigga))))(S (NP (VB (check))(DT (this)))(PP (IN (out)))(NP (CD (5))(NNS (voicemail)))(NP (CD (25))(NN (text))(NNS (message)))(UCP (RB (smh))))) |ET| 
1.0121088705269847274337280396139  |BT| (ROOT (S (NP (NNP (megamind)))(VP (VBZ (be)))(NP (NNP (awesome))))) |ET| 
1.0121088705269847274337280396139  |BT| (ROOT (S (NP (PRP (it)))(VP (VBZ (be)))(NP (NN (barbecue))(NN (time))))) |ET| 
1.0121088705269847274337280396139  |BT| (ROOT (S (NP (NNP (library)))(VP (VBZ (be)))(ADJP (RB (so))(JJ (cold))))(S (NP (RB (noooiiissseyyyyyy))(NNP (xd))(NN (cant))(NN (focus)))(PP (VBP (*)))(NP (NN (head))(NNS (explode))))) |ET| 
-1.0121088705269847274337280396139  |BT| (ROOT (S (NP (-LRB- (-lrb-))(TO (to))(NN (everyone))(-RRB- (-rrb-)))(NP (WP (what)))(VP (VBZ (be)))(NP (PRP$ (you))(NN (opinion)))(PP (IN (on)))(NP (NN (gambling))))) |ET| 
-1.0121088705269847274337280396139  |BT| (ROOT (S (NP (NN (ffuuccckk)))(PP (FW (i)))(NP (NN (cant))(NN (slleeeepppppp))(NN (text))(JJ (meeeeeeeeeee))(NN (hahaaa))(CD (4511194))))) |ET| 
-1.0121088705269847274337280396139  |BT| (ROOT (S (NP (NNP (para))(NNP (papapa))(NNP (pa))(NNP (pa))(NNP (pa))))) |ET| 
1.0121088705269847274337280396139  |BT| (ROOT (S (NP (PRP (i)))(VP (VBP (need)))(NP (JJ (other))(NNS (people))(NN (opinion))))(S (NP (WP (what)))(SBAR (IN (if)))(NP (PRP (i)))(VP (VBD (get)))(NP (NNS (contact))))) |ET| 
1.0121088705269847274337280396139  |BT| (ROOT (S (NP (PRP (it)))(VP (VBD (rain)))(PP (IN (on)))(NP (PRP (i))))(S (NP (VBZ (:{)))(VP (VBG (consider))(VBG (watch)))(NP (NNP (august))(NNP (rush))(NN (tonight))))(S (ADVP (RB (maybe)))(NP (DT (a))(NN (bit)))(PP (IN (of)))(NP (JJ (light)))(VP (NN (reading))))) |ET| 
1.0121088705269847274337280396139  |BT| (ROOT (S (NP (FW (i)))(VP (VBD (get)))(NP (PRP$ (my))(NN (ring)))(VP (VBN (clean)))(NP (PRP$ (its)))(PP (JJ (like)))(NP (JJ (new))(NNS (*)))(PP (VBG (=})))(NP (CD (<))(CD (3))(VBP (love)))(NP (PRP (it))))) |ET| 
-1.0121088705269847274337280396139  |BT| (ROOT (S (NP (FW (i)))(VP (VBP (know)))(NP (PRP (it)))(VP (VBZ (killz)))(NP (RB (u)))(VP (VB (see)))(NP (PRP (i)))(VP (VBG (do)))(ADVP (NN (soo))(NN (gud))))) |ET| 
-1.0121088705269847274337280396139  |BT| (ROOT (S (NP (VBZ (be)))(NP (NN (anyone)))(VP (VBG (go)))(PP (TO (to)))(NP (DT (the))(NN (fair))))(S (NP (PRP (i)))(VP (VBP (want))(TO (to))(VB (go)))(PP (IN (for)))(NP (DT (the))(NN (cimmon))(NNS (roll))))) |ET| 
-1.0121088705269847274337280396139  |BT| (ROOT (S (NP (PRP (i)))(VP (JJ (fucking))(VBP (hate)))(NP (NN (muscle))(NNS (spasm))))) |ET| 
1.0121088705269847274337280396139  |BT| (ROOT (S (NP (RB (not))(JJ (happy))))) |ET| 
1.0121088705269847274337280396139  |BT| (ROOT (S (NP (NNP (monster))(NNP (trucks))(NNP (were))(NNP (awesome))))) |ET| 
1.0121088705269847274337280396139  |BT| (ROOT (S (NP (NNP (lone))(VBZ (wolf))(NN (barrel))))) |ET| 
-1.0121088705269847274337280396139  |BT| (ROOT (S (NP (RB (too))(JJ (lazy))(NN (today))(VBP (*))(NNS (yawn))))) |ET| 
-1.0121088705269847274337280396139  |BT| (ROOT (S (NP (NNS (what)))(PP (IN (on)))(NP (NNP (my))(NNP (mind))))(S (NP (NNP (can))(NNP (u))(NNP (say))(NNP (s))(NNP (t))(NN (r))(NNP (e))(NNP (s))(NNP (s))(NNP (!!!!!))))) |ET| 
-1.0121088705269847274337280396139  |BT| (ROOT (S (NP (-LRB- (-lrb-))(NNP (?????))))(S (NP (CD (????????))))) |ET| 
1.0121088705269847274337280396139  |BT| (ROOT (S (VP (VBZ (appear))(TO (to))(VB (have))(VBN (murder)))(NP (PRP$ (she))(JJ (mobile))(NN (:-{))))(S (NP (SYM (e))(CC (or))(VBZ (f/b)))(NP (PRP (i)))(PP (IN (until)))(NP (DT (the))(NN (resurrection)))(NP (DT (the))(JJ (second))(VBG (come))(-RRB- (-rrb-))))) |ET| 
1.0121088705269847274337280396139  |BT| (ROOT (S (NP (NNP (baby))(PRP (i)))(VP (VBP (be))(VBG (beg)))(NP (NN (baby)))(NP (PRP (i)))(VP (VBP (be))(VBG (beg))(VBG (beg)))(NP (NN (baby))))(S (NP (PRP (i)))(VP (VBD (forget)))(ADVP (WRB (how)))(NP (PRP (i)))(VP (VBD (like)))(NP (NNP (jodeci))))) |ET| 
1.0121088705269847274337280396139  |BT| (ROOT (S (NP (PRP (i)))(VP (VBD (have))(TO (to))(VB (get)))(PRT (IN (off)))(NP (DT (the))(NN (boat)))(SBAR (IN (so)))(NP (PRP (i)))(VP (MD (could))(VB (walk)))(PP (IN (on)))(NP (NN (water))))) |ET| 
-1.0121088705269847274337280396139  |BT| (ROOT (S (NP (PRP (i)))(VP (VBP (be))(VBN (excite)))(PP (IN (about)))(NP (JJ (tommarrow))(NN (<))(CD (3))(SYM (=))(-RRB- (-rrb-))))) |ET| 
-1.0121088705269847274337280396139  |BT| (ROOT (S (NP (NN (phone)))(VP (VBD (break))))) |ET| 
-1.0121088705269847274337280396139  |BT| (ROOT (S (NP (NN (beer)))(PP (IN (with)))(NP (DT (a))(NN (bit)))(PP (IN (of)))(NP (NN (sprite))))) |ET| 
1.0121088705269847274337280396139  |BT| (ROOT (S (INTJ (VB (hell))(NN (yeah))))(S (NP (NNP (zombie))(VBP (simpson))(NN (episode))))) |ET| 
1.0121088705269847274337280396139  |BT| (ROOT (S (NP (NNP (asan))(VBP (ang))(JJ (pause))(NN (button))))(S (VP (JJ (ayoko))(NN (pa)))(NP (NNS (pumunta))(VBP (dun))))) |ET| 
1.0121088705269847274337280396139  |BT| (ROOT (S (NP (WRB (how))(JJ (many))(NNS (point)))(VP (VBZ (do)))(NP (DT (a))(JJ (ninja))(NN (star)))(VP (VB (have))(NN (??))))(S (NP (VBP (lol))))) |ET| 
-1.0121088705269847274337280396139  |BT| (ROOT (S (NP (JJ (bombie))(NN (dinner))))(S (NP (JJ (thanx))(NN (uncle))(NN (jim))))) |ET| 
-1.0121088705269847274337280396139  |BT| (ROOT (S (NP (VBP (ppl)))(VP (VBG (get))(VBG (jo)))(NP (PRP$ (my))(NNS (result)))(VP (RB (nt)))(ADVP (RB (yet))(RP (out))))) |ET| 
-1.0121088705269847274337280396139  |BT| (ROOT (S (NP (NNP (snow)))(NP (NNP (snow)))(NP (NNP (snow))))(S (NP (JJ (glad))(PRP (you)))(VP (MD (could))(RB (finally))(VB (make)))(NP (PRP (it))))(S (SBAR (RB (even))(RB (though)))(NP (PRP$ (its))(RB (only))(DT (a))(NN (couple))(VBZ (flurry)))(VP (PRP$ (you)))(ADVP (RB (still)))(ADVP (RB (here))))) |ET| 
1.0121088705269847274337280396139  |BT| (ROOT (S (VP (MD (will))(VB (be)))(NP (NN (home)))(NP (NN (today)))(PP (IN (by)))(NP (CD (12))(NNS (:}))))) |ET| 
1.0121088705269847274337280396139  |BT| (ROOT (S (NP (NN (finnaly)))(VP (VBD (do)))(NP (DT (some))(RB (much))(VBN (need))(JJ (shoping))))) |ET| 
1.0121088705269847274337280396139  |BT| (ROOT (S (VP (VBG (go))(NN (camping)))(PP (IN (in))))) |ET| 
-1.0121088705269847274337280396139  |BT| (ROOT (S (NP (NNP (wat)))(VP (VBZ (be))(SYM (d)))(NP (JJS (worst))(NN (tin)))(NP (NN (u)))(VP (NN (hav)))(NP (NN (done?share))(NN (pl))))) |ET| 
-1.0121088705269847274337280396139  |BT| (ROOT (S (VP (VB (go)))(PP (IN (on)))(NP (DT (a))(NN (roller))(NN (coster)))(PP (IN (for)))(NP (DT (the))(JJ (first))(NN (time)))(ADVP (RB (ever)))(NP (NN (today))))(S (NP (JJ (scariest))(NN (thing)))(VP (VBP (ive))(RB (ever))(VBN (do))))(S (NP (PRP (it)))(VP (VBD (be)))(ADVP (NN (alot)))(PP (IN (of)))(NP (NN (fun))))) |ET| 
-1.0121088705269847274337280396139  |BT| (ROOT (S (ADVP (RB (still)))(VP (VBP (have)))(NP (NN (taste)))(PP (IN (of)))(NP (JJ (salty))(JJ (sandy))(NN (water)))(PP (IN (in)))(NP (PRP$ (my))(NN (mouth))))) |ET| 
1.0121088705269847274337280396139  |BT| (ROOT (S (NP (WP (what)))(NP (DT (a))(NN (day))))) |ET| 
1.0121088705269847274337280396139  |BT| (ROOT (S (VP (VB (wan))(TO (na))(VB (go)))(VP (TO (to))(FW (karaoke))))) |ET| 
1.0121088705269847274337280396139  |BT| (ROOT (S (NP (PRP$ (its))(NN (time)))(VP (TO (to))(VB (go))))) |ET| 
-1.0121088705269847274337280396139  |BT| (ROOT (S (VP (VBZ (love)))(PP (TO (to)))(NP (VB (watch))(NN (ice))(NN (dancing))))) |ET| 
-1.0121088705269847274337280396139  |BT| (ROOT (S (NP (NNP (george))(NNP (galloway)))(VP (VBD (be)))(NP (NNP (amazingggggggg))))) |ET| 
-1.0121088705269847274337280396139  |BT| (ROOT (S (NP (CD (47/47)))(VP (VBP (chew)))(NP (PRP$ (my))(NN (sack))))) |ET| 
1.0121088705269847274337280396139  |BT| (ROOT (S (VP (JJ (exhausted)))(PP (IN (from)))(VP (VBG (work)))(ADJP (NNS (4am-10pm)))(PP (IN (with)))(NP (DT (a))(CD (3))(NN (hour))(VBP (break)))(PP (IN (in)))(NP (DT (the))(NN (middle))))(S (NP (PRP (i)))(VP (VBP (think))(RB (even)))(NP (PRP$ (my))(NN (hair)))(VP (VBZ (be)))(ADVP (JJ (sore)))(PP (RB (o)))(NP (-RRB- (-rrb-))))) |ET| 
1.0121088705269847274337280396139  |BT| (ROOT (S (NP (JJ (re-readin))(CD (5))(NNS (people)))(NP (PRP (you)))(VP (VBP (meet)))(PP (IN (in)))(NP (NN (heaven))))(S (NP (CD (<))(CD (3)))(PP (VBP (like)))(PP (IN (for)))(NP (DT (a))(NN (remeber)))(ADVP (WRB (when))))) |ET| 
1.0121088705269847274337280396139  |BT| (ROOT (S (NP (RB (just)))(VP (VBD (get)))(NP (NN (home)))(PP (IN (from)))(VP (NN (hangin)))(PP (IN (with)))(NP (NNP (ma)))(NP (POS ('))(NNS (boy))))(S (NP (NNP (college))(CC (and))(VBP (work)))(NP (NN (tomorrow))))) |ET| 
-1.0121088705269847274337280396139  |BT| (ROOT (S (NP (NNP (ma))(NN (bday)))(VP (VBZ (be)))(PP (IN (in)))(NP (DT (a))(NN (hour.turnin)))(NP (CD (18))(NNP (biznatches))))(S (NP (VBP (^))(CD (3))(NNS (^))))) |ET| 
-1.0121088705269847274337280396139  |BT| (ROOT (S (NP (NNS (mother)))(VP (VBG (go))(TO (to))(VB (drive)))(NP (PRP (i)))(NP (NNS (banana))))(S (ADVP (RB (up)))(UCP (RB (down)))(NP (DT (the))(NNS (stair)))(NP (DT (all))(NN (day))))(S (NP (FW (i)))(VP (VBP (have))(VBN (get)))(NP (CD (one))(NN (hell)))(PP (IN (of)))(NP (DT (a))(NN (workout))))) |ET| 
-1.0121088705269847274337280396139  |BT| (ROOT (S (NP (WP (what)))(NP (DT (a))(NN (day)))(PP (IN (from)))(NP (NN (hell))))) |ET| 
1.0121088705269847274337280396139  |BT| (ROOT (S (ADVP (RB (officially)))(VP (VBP (hate)))(NP (NN (bus))(NNS (driver))))) |ET| 
1.0121088705269847274337280396139  |BT| (ROOT (S (NP (PRP (i)))(VP (VBP (love)))(NP (PRP (it))))) |ET| 
1.0121088705269847274337280396139  |BT| (ROOT (S (NP (PRP$ (its))(NN (time))(NN (to.)))(VP (VBP (eat)))(NP (DT (some))(NN (cheese))(SYM (=))(NNP (dd))))) |ET| 
-1.0121088705269847274337280396139  |BT| (ROOT (S (NP (PRP (i)))(VP (VBP (miss)))(NP (PRP (you))))) |ET| 
-1.0121088705269847274337280396139  |BT| (ROOT (S (NP (PRP (i)))(VP (VBP (need)))(NP (DT (some))(NN (food))))) |ET| 
-1.0121088705269847274337280396139  |BT| (ROOT (S (NP (PRP (i)))(VP (VBP (be)))(NP (DT (a))(JJ (wannabe))(NN (transformer))))(S (NP (PRP (you)))(VP (VBP (know)))(NP (PRP (you)))(VP (VBP (be)))(ADJP (JJ (jealous))))) |ET| 
1.0121088705269847274337280396139  |BT| (ROOT (S (NP (NN (plane)))(VP (VBD (get))(VBN (delay))))(S (NP (-LRB- (-lrb-))(NN (yay))))(S (NP (DT (another))(NN (day)))(PP (IN (in)))(NP (NNP (korea))(NNP (:d)))(NP (NNP (<))(CD (3))(CD (dk))))) |ET| 
1.0121088705269847274337280396139  |BT| (ROOT (S (VP (VBZ (be)))(VP (VBG (go)))(PP (IN (on)))(NP (DT (a))(NNS (mission))(NN (trip)))(PP (TO (to)))(NP (NN (atlanta))(NN (tomorrow))))(S (ADJP (RB (so))(JJ (excited))))) |ET| 
1.0121088705269847274337280396139  |BT| (ROOT (S (VP (VBG (head)))(PP (TO (to)))(NP (DT (the))(NN (er)))(VP (TO (to))(VB (have)))(NP (PRP$ (my))(NN (ankle)))(VP (VBD (look)))(PP (IN (at))))(S (VP (VBZ (hurt)))(PP (IN (like)))(NP (NN (hell))))) |ET| 
-1.0121088705269847274337280396139  |BT| (ROOT (S (NP (NN (cant))(VB (wait)))(PP (IN (for)))(NP (NN (today)))(VP (TO (to))(VB (be)))(PP (IN (over))))(S (NP (NNP (cant))(VBP (wait)))(VP (TO (to))(VB (relax))))) |ET| 
-1.0121088705269847274337280396139  |BT| (ROOT (S (NP (NN (guild))(NNS (war)))(NP (NN (anyone))))) |ET| 
-1.0121088705269847274337280396139  |BT| (ROOT (S (NP (DT (some))(VBG (catch)))(PRT (RP (up)))(PP (IN (with)))(NP (DT (some))(NNS (old))(NNS (friend)))(ADVP (NN (tonight))))(S (NP (PRP$ (its))(VBN (be)))(PP (IN (over)))(NP (CD (20))(NNS (year)))(SBAR (IN (since)))(NP (PRP (we)))(VP (VBP (have))(VB (see)))(NP (DT (each))(JJ (other)))(VP (VBD (have)))(NP (DT (a))(JJ (great))(NN (time))))(S (NP (JJ (good))(NNS (time)))(PP (IN (with)))(NP (JJ (old))(NNS (friend)))(VP (VBZ (be)))(NP (DT (the))(JJS (best))))) |ET| 
1.0121088705269847274337280396139  |BT| (ROOT (S (NP (PRP (i)))(VP (VBP (be)))(NP (CD (one))(JJ (lucky))(SYM (&))(VBN (bless))(NN (lady))))) |ET| 
1.0121088705269847274337280396139  |BT| (ROOT (S (NP (JJ (aaaaaaaaaaaaaaaaaaaaaaahhhhhh))(NNS (!!!))))(S (NP (PRP (ya)))(VP (VBP (e)))(NP (CD (21/10/09))(JJ (>))(JJ (___))))) |ET| 
0.86408026199957466140233464102494  |BT| (ROOT (S (NP (PRP (i)))(VP (VBP (be)))(ADVP (RB (so))(JJ (jew-sy))))) |ET| 
-1.0121088705269847274337280396139  |BT| (ROOT (S (NP (PRP (i)))(VP (VBP (wan))(TO (na))(VB (go))(VBG (shop)))(ADVP (RB (now))))(S (NP (PRP$ (my)))(ADVP (RB (just))(RB (too))(JJ (lazy)))(VP (TO (to))(VB (get))(VBN (change))))) |ET| 
-1.0121088705269847274337280396139  |BT| (ROOT (S (NP (NNP (may))(NNP (vampire))(VBZ (diary))(NN (season))(CD (2))(NN (naaaa))(NNS (!!!))))(S (NP (NNP (=}))(NNP (-rrb-))(NNP (-rrb-))(-RRB- (-rrb-))(JJ (-rrb-))(-RRB- (-rrb-))))) |ET| 
-1.0121088705269847274337280396139  |BT| (ROOT (S (NP (WP (who)))(VP (MD (would))(VB (have))(VBN (think)))(PP (RP (over)))(NP (CD (20))(NNS (year)))(ADVP (RB (ago)))(SBAR (IN (that)))(NP (PRP (i)))(VP (MD (would))(VB (love))(VBG (work)))(PP (IN (in)))(NP (DT (a))(NNP (school))))(S (NP (PRP (it)))(VP (VBZ (amaze)))(NP (PRP (i)))(ADVP (WRB (how)))(NP (PRP (i)))(VP (VBP (get)))(PP (IN (out)))(PP (IN (of)))(VP (VBG (help)))(NP (DT (the))(NNS (kid))))) |ET| 
1.0121088705269847274337280396139  |BT| (ROOT (S (VP (VBZ (be))(VBG (watch)))(NP (NNP (casablanca)))(PP (IN (in)))(NP (NN (bed.sunny)))(NP (NNP (saturday))(NN (morning))(JJ (bliss))))) |ET| 
1.0121088705269847274337280396139  |BT| (ROOT (S (NP (NN (karma)))(VP (VBZ (kick)))(NP (RB (ass)))(SBAR (RB (so)))(NP (FW (i)))(VP (VBP (do))(RB (not))(VB (have))(TO (to)))(NP (RB (p))))) |ET| 
1.0121088705269847274337280396139  |BT| (ROOT (S (NP (PRP$ (my))(NN (reflection)))(NP (JJ (dirty))(NN (mirror))))) |ET| 
-1.0121088705269847274337280396139  |BT| (ROOT (S (NP (FW (i)))(VP (RB (am))(VBP (chillen)))(PP (IN (at)))(NP (NN (work))(NN (hollum)))(ADVP (RB (back))(NNP (friday))))) |ET| 
-1.0121088705269847274337280396139  |BT| (ROOT (S (NP (NNP (la))(NN (voz))(NN (humana)))(NP (DT (no))(JJ (puede)))(PP (NN (alcanzar))(FW (la))(NN (distancium))(FW (de))(FW (la))(NN (vocecillum))(FW (de))(FW (la))(NN (conciencium))(-LRB- (-lrb-))(NNP (gandhi))))) |ET| 
-1.0121088705269847274337280396139  |BT| (ROOT (S (NP (PRP (i)))(VP (VBP (be)))(NP (DT (a))(JJ (space-bound))(NN (rocketship)))(NP (PRP$ (you))(NN (heart)))(NP (POS ('s))(DT (the))(NN (moon))))) |ET| 
1.0121088705269847274337280396139  |BT| (ROOT (S (NP (NNP (equipo)))(PP (FW (de)))(NP (NNP (metodologiaaaa))(VBP (que))(RB (hay))(VB (que))(NN (hacer))))(S (NP (DT (no))(FW (se))(FW (nadaaa))))) |ET| 
1.0121088705269847274337280396139  |BT| (ROOT (S (NP (PRP (you)))(VP (MD (can))(NN (kiss)))(NP (PRP (i)))(PP (IN (with)))(NP (DT (the))(NNS (window)))(ADJP (JJ (open))))) |ET| 
1.0121088705269847274337280396139  |BT| (ROOT (S (NP (VB (he)))(NP (DT (a))(NN (punk))))(S (NP (NN (he)))(VP (VBZ (know)))(NP (VBN (im)))(VP (VBG (talk)))(PP (IN (about)))(NP (PRP (he))))(S (NP (FW (haha))))) |ET| 
-1.0121088705269847274337280396139  |BT| (ROOT (S (VP (VBG (go)))(UCP (TO (to))(VB (meet)))(NP (NNP (melissa))(NNP (marr)))(PP (IN (with)))(NP (NNP (matthew))(CC (and))(NNP (liz))(NNP (:d)))(PP (RB (so)))(VP (VBG (freak))(JJ (excited))))) |ET| 
-1.0121088705269847274337280396139  |BT| (ROOT (S (VP (VBZ (be)))(PP (IN (about)))(PP (TO (to)))(NP (VB (go)))(PP (TO (to)))(NP (DT (the))(NN (gym)))(VP (VB (work)))(NP (DT (some))(NN (flab)))(PRT (RP (off))))) |ET| 
-1.0121088705269847274337280396139  |BT| (ROOT (S (NP (PRP (you)))(VP (MD (can))(RB (not))(VB (buy)))(NP (NN (love)))(NP (PRP (you)))(VP (MD (can))(VB (pay)))(ADVP (RB (heavily)))(PP (IN (for)))(NP (PRP (it))))) |ET| 
1.0121088705269847274337280396139  |BT| (ROOT (S (ADVP (JJ (quien)))(NP (PRP (i))(NN (compra))(VBZ (boleto))(NNP (del))(NNP (cetyssorteo))))) |ET| 
1.0121088705269847274337280396139  |BT| (ROOT (S (NP (DT (the))(NN (summer)))(VP (VBD (end)))(NP (CD (2)))(ADVP (RB (soon))))) |ET| 
1.0121088705269847274337280396139  |BT| (ROOT (S (NP (NN (blackberry))(CC (and))(NN (wallet)))(VP (VBD (knick))))(S (NP (VB (guess)))(VP (NNS (who)))(NP (DT (a))(JJ (happy))(NN (camper))))) |ET| 
-1.0121088705269847274337280396139  |BT| (ROOT (S (ADVP (RB (finally)))(VP (VBD (get)))(NP (DT (a))(NNP (ps3)))(ADVP (RB (now)))(VP (MD (will))(VB (play)))(NP (NNP (xiii))))) |ET| 
-1.0121088705269847274337280396139  |BT| (ROOT (S (NP (NNP (wthailz)))(NP (NNP (venus))(NNP (m))(NNP (shih))))) |ET| 
-1.0121088705269847274337280396139  |BT| (ROOT (S (VP (VBD (have)))(NP (DT (a))(RB (absolutely))(JJ (amazing))(NN (show)))(PP (IN (at)))(NP (NNP (leela)))(NP (POS ('s))(JJ (last))(NN (night))))) |ET| 
1.0121088705269847274337280396139  |BT| (ROOT (S (SBAR (IN (if)))(NP (PRP (you)))(VP (VBP (want))(TO (to))(VB (be)))(NP (JJ (together)))(NP (PRP (you)))(ADVP (VBP (qot)))(NP (NN (to-get-her))))) |ET| 
1.0121088705269847274337280396139  |BT| (ROOT (S (NP (RB (nearly))(NN (time)))(PP (TO (to)))(NP (VB (suit))(RP (up))))(S (NP (NNP (barney))(NNP (style))))(S (VP (VB (gon))(TO (na))(VB (be)))(NP (VBN (legend))))(S (VP (VB (wait)))(PP (IN (for)))(NP (PRP (it))))) |ET| 
1.0121088705269847274337280396139  |BT| (ROOT (S (ADVP (WRB (how)))(VP (VBP (come)))(NP (NN (nothing)))(ADJP (JJ (good)))(VP (VBZ (seem))(TO (to))(VB (be)))(PP (IN (on)))(NP (NN (tv)))(ADVP (WRB (when)))(NP (PRP$ (you))(VBN (bore))))) |ET| 
-1.0121088705269847274337280396139  |BT| (ROOT (S (NP (NN (u)))(VP (NN (hav))(VBD (get))(RB (ta))(VB (be))(VBN (kiddin)))(NP (PRP (i))))) |ET| 
-1.0121088705269847274337280396139  |BT| (ROOT (S (NP (PRP (i)))(VP (VBP (be))(VBG (go))(TO (to))(VB (miss)))(NP (JJ (dlsu)))(PP (JJ (vs)))(NP (JJ (admu))))) |ET| 
-1.0121088705269847274337280396139  |BT| (ROOT (S (NP (PRP (i)))(ADVP (RB (just)))(VP (VBD (buy)))(NP (NN (oblivion))(CC (and))(NN (cant))(VB (wait)))(VP (TO (to))(VB (play)))(NP (PRP (it))))) |ET| 
1.0121088705269847274337280396139  |BT| (ROOT (S (VP (VBZ (be)))(ADVP (RB (back)))(PP (IN (from)))(NP (NNP (mcleod))))) |ET| 
1.0121088705269847274337280396139  |BT| (ROOT (S (ADVP (RB (off)))(PP (TO (to)))(NP (NN (night))(VBP (train))))) |ET| 
1.0121088705269847274337280396139  |BT| (ROOT (S (VP (VBZ (have)))(NP (DT (a))(NNP (very))(NNP (interesting)))(NP (NNP (frustrating)))(ADVP (NNP (long)))(NP (NNP (crazy))(NNP (day))))) |ET| 
-1.0121088705269847274337280396139  |BT| (ROOT (S (ADVP (RB (well)))(VP (VBD (play)))(NP (NNP (india))))(S (ADJP (JJ (sad)))(PP (IN (for)))(NP (PRP$ (we))(NN (loss)))(VP (NN (though.still)))(NP (NNP (pakistan))(NNP (zindabaad))))) |ET| 
-1.0121088705269847274337280396139  |BT| (ROOT (S (ADVP (RB (also))(RB (back)))(PP (IN (from)))(NP (NNP (detroit))))) |ET| 
-1.0121088705269847274337280396139  |BT| (ROOT (S (NP (JJ (kelui2)))(PP (IN (for)))(NP (PDT (all))(PRP$ (my))(NNS (mate)))(PP (JJ (yg)))(NP (NN (ada))(NN (kt))(NN (kulim)))(VP (VBZ (let)))(NP (VB (lepak))(NN (mcd)))(VP (VBZ (be)))(NP (NNP (fadzlullah))(NNP (suhaimi))))) |ET| 
0.93207267752266786953185828679125  |BT| (ROOT (S (NP (RB (just)))(VP (VBP (promise)))(NP (PRP (i)))(NP (PRP (you)))(VP (MD ('ll))(VB (think)))(PP (IN (of)))(NP (PRP (i))))) |ET| 
1.0121088705269847274337280396139  |BT| (ROOT (S (NP (PRP (i)))(VP (VBZ (have)))(NP (NNP (friday))(NN (school)))(NP (NN (tomorrow))(JJ (weak))))) |ET| 
1.0121088705269847274337280396139  |BT| (ROOT (S (NP (NNP (job))(NNP (interveiw)))(NP (NN (today))(NNP (woot))(NNP (woot)))(VP (VBP (wish)))(NP (PRP (i)))(NP (NN (luck))(SYM (=))(NNP (d))))) |ET| 
-1.0121088705269847274337280396139  |BT| (ROOT (S (NP (PRP (i)))(ADVP (RB (accidentally)))(VP (VBN (irradiate)))(NP (PRP (myself))))) |ET| 
-1.0121088705269847274337280396139  |BT| (ROOT (S (NP (DT (the))(RBS (best))(JJ (mind-altering))(NN (drug)))(VP (VBZ (be)))(NP (NN (truth))))) |ET| 
-1.0121088705269847274337280396139  |BT| (ROOT (S (SBAR (IN (if)))(NP (NN (history)))(VP (VBZ (repeat)))(NP (PRP (itself)))(NP (PRP (i)))(VP (VBP (be))(JJ (sooo))(VBG (gon))(TO (na))(VB (get)))(NP (DT (a))(NN (dinosaur))))) |ET| 
1.0121088705269847274337280396139  |BT| (ROOT (S (NP (DT (the))(JJS (best))(NN (night)))(VP (VBG (hang)))(PRT (RP (out)))(PP (IN (with)))(NP (PRP$ (my))(NNS (kid))))) |ET| 
1.0121088705269847274337280396139  |BT| (ROOT (S (NP (PRP (i)))(VP (VBP (have))(VBN (be)))(PP (IN (without)))(NP (NNS (narcotic)))(PP (IN (for)))(NP (IN (over))(DT (a))(NN (month)))(ADVP (RB (now)))(VP (VBG (do)))(ADJP (JJ (great))))(S (NP (PRP (i)))(VP (VBP (be))(VBG (start)))(NP (DT (a))(JJ (new))(NN (med)))(PP (IN (for)))(NP (NN (pain)))(NP (PRP$ (its))(RB (not)))(NP (DT (a))(JJ (narcotic))(NN (!!))))) |ET| 
1.0121088705269847274337280396139  |BT| (ROOT (S (NP (NNP (hey))(WP (who))(NNP (all))(VBD (be))(NNP (gon))(NNP (na))(NNP (puy))(NNP (mi))(NNP (psp)))(NP (NNP (at))(DT (the))(NNP (starting))(NNP (price)))(PP (IN (of)))(NP ($ ($))(CD (20))(CD (!?!?!?))))) |ET| 
-1.0121088705269847274337280396139  |BT| (ROOT (S (VP (VBG (study)))(PP (IN (for)))(NP (PRP$ (my))(NN (science))(NN (test)))(VP (VBG (do)))(NP (PRP$ (my))(NN (art))(NN (project)))(PP (IN (at)))(NP (RB (once))))(S (NP (FW (i)))(VP (NN (wonder)))(ADVP (WRB (how)))(NP (DT (this)))(VP (MD (will))(VB (pan)))(PRT (RP (out))))) |ET| 
-1.0121088705269847274337280396139  |BT| (ROOT (S (PP (IN (in)))(NP (NN (macon))(NNS (!!!!!!!!!))))(S (NP (PRP$ (my))(NNS (brother)))(NP (CD (18))(NN (birthday))))(S (NP (JJ (woo-hoo))(NNS (!!))))) |ET| 
-1.0121088705269847274337280396139  |BT| (ROOT (S (NP (JJ (oooo))(NN (man)))(VP (JJ (hard)))(NP (NN (night)))(NP (JJ (last))(NN (night))))(S (VP (VB (thank)))(NP (PRP (you))(JJ (phil))))) |ET| 
0.95489318020037805556654575411812  |BT| (ROOT (S (NP (NN (resava)))(VP (VBD (kvizove)))(NP (TO (na))(NNP (facebook-u))))) |ET| 
1.0121088705269847274337280396139  |BT| (ROOT (S (NP (NN (car)))(VP (VBZ (have))(VBN (snuff)))(NP (PRP (it))))) |ET| 
1.0035069592876149080495906673605  |BT| (ROOT (S (NP (NNP (wish)))(SBAR (WDT (that)))(NP (PRP (i)))(VP (VBD (be)))(ADVP (RB (still)))(ADVP (RB (up))(RB (north))))) |ET| 
-1.0121088705269847274337280396139  |BT| (ROOT (S (VP (VBZ (have)))(NP (NN (nothing)))(PP (TO (to)))(NP (VB (say)))(NP (NN (today))))) |ET| 
-1.0121088705269847274337280396139  |BT| (ROOT (S (ADVP (RB (finally)))(VP (VBN (do))(VBG (move))))) |ET| 
-1.0121088705269847274337280396139  |BT| (ROOT (S (NP (PRP (we)))(VP (VB (pretend)))(NP (IN (that))(NNS (airplane)))(PP (IN (in)))(NP (DT (the))(NN (night))(NN (sky)))(VP (VBP (be)))(PP (IN (like)))(NP (VBG (shoot))(NNS (stars.i)))(VP (MD (could))(RB (really))(VB (use)))(NP (DT (a))(VBP (wish))(RB (right)))(ADVP (RB (now)))(VP (VBP (wish)))(ADVP (RB (right))(RB (now)))(VP (VBP (wish)))(ADVP (RB (right))(RB (now))))) |ET| 
0.91650635440178385149323503355845  |BT| (ROOT (S (VP (VB (woo))))(S (NP (JJ (last))(NN (day))))) |ET| 
1.0121088705269847274337280396139  |BT| (ROOT (S (NP (VB (omg))))(S (VP (VBG (wake)))(PRT (RP (up)))(PP (IN (in)))(NP (DT (a))(NN (king))(NN (size))(NN (bed)))(PP (IN (in)))(NP (DT (the))(NNP (presidential))(NN (suite)))(VP (VBZ (feel)))(ADJP (JJ (sooooooooooooo))(JJ (good))))) |ET| 
1.0121088705269847274337280396139  |BT| (ROOT (S (ADVP (RB (ahh))(RB (so)))(NP (PRP (i)))(VP (VBP (dont)))(ADVP (RB (really)))(VP (VB (feel)))(PP (IN (like)))(VP (VBG (do)))(NP (NN (anything)))(ADVP (NN (today))))(S (PP (IN (like)))(NP (EX (there)))(VP (VBZ (be)))(NP (NN (anything)))(VP (TO (to))(VB (do)))(ADVP (NNS (anyway))))) |ET| 
-1.0121088705269847274337280396139  |BT| (ROOT (S (NP (NNP (business))(NNP (management)))(ADVP (RB (here)))(NP (PRP (i)))(VP (VBP (come))))(S (NP (VB (not))))) |ET| 
-1.0121088705269847274337280396139  |BT| (ROOT (S (NP (JJ (happy))(JJ (petrol))(NN (price))(NN (change))(NN (day))))) |ET| 
-1.0121088705269847274337280396139  |BT| (ROOT (S (NP (PRP (i)))(VP (VBP (have))(TO (to))(VB (put)))(ADVP (RP (together)))(NP (DT (a))(NN (outline)))(PP (IN (with)))(NP (RB (absolutely))(DT (no))(NN (information))))(S (NP (NNP (shoot))(NNP (me))))) |ET| 
1.0121088705269847274337280396139  |BT| (ROOT (S (NP (VBN (upset)))(PP (IN (about)))(NP (NNS (thing)))(NP (WDT (that)))(VP (VBP (be)))(ADVP (RB (really)))(NP (PRP$ (my))(NN (business)))(ADVP (WRB (why)))(VP (VBZ (be)))(NP (PRP (it)))(ADJP (RB (so))(JJ (frustrating))))) |ET| 
1.0121088705269847274337280396139  |BT| (ROOT (S (ADVP (RB (seriously)))(NP (WP (what)))(VP (VBZ (be)))(PP (IN (with)))(NP (DT (the))(NN (crap))(NN (tv))))(S (NP (WP (who)))(ADVP (RB (even)))(VP (VBZ (like)))(NP (WP (who))(NNP (framed))(NNP (roger))(NNP (rabbit))))) |ET| 
1.0121088705269847274337280396139  |BT| (ROOT (S (NP (NNS (thanks)))(PP (IN (for)))(NP (PDT (all)))(NP (DT (the))(NN (birthday)))(VP (VBZ (wish))))) |ET| 
-1.0121088705269847274337280396139  |BT| (ROOT (S (NP (NNS (thanks)))(VP (VBN (alot)))(PP (IN (for)))(NP (DT (the))(NNS (wish))(JJ (everyonee)))(PP (NNS (:})))(NP (VBP (<))(CD (3))))) |ET| 
-1.0121088705269847274337280396139  |BT| (ROOT (S (NP (NNP (head)))(VP (VBZ (feel)))(PP (IN (like)))(NP (PRP (it)))(VP (VBZ (be))(VBG (be))(VBN (stab))))(S (VP (VBG (go)))(PP (TO (to)))(NP (VB (sleep))))(S (ADVP (RB (hopefully)))(NP (PRP (it)))(VP (VBZ (get)))(ADJP (JJR (better))))) |ET| 
-1.0121088705269847274337280396139  |BT| (ROOT (S (ADJP (NNP (there))(NNP (truly)))(VP (VBZ (be)))(NP (DT (a))(NN (god)))(NP (PRP (he))(NNP (truly))(VBZ (be))(DT (a))(NNP (wonderful))(NNP (god))))(S (NP (PRP (he)))(PP (NNP (only)))(NP (VBP (see)))(NP (VBZ (be))(DT (the))(NN (best)))(PP (IN (in)))(NP (NNP (me))))) |ET| 
1.0121088705269847274337280396139  |BT| (ROOT (S (ADVP (RB (now)))(NP (NNP (van))(NNP (halen))))) |ET| 
1.0121088705269847274337280396139  |BT| (ROOT (S (NP (NNP (halloween))(NNP (sunday))))) |ET| 
1.0121088705269847274337280396139  |BT| (ROOT (S (NP (NNP (these))(NNP (bitch))(NNP (asses))(VBP (be))(RB (not))(VB (even))(NNP (trying))))) |ET| 
-1.0121088705269847274337280396139  |BT| (ROOT (S (NP (PRP$ (its))(NN (snowing))))) |ET| 
-1.0121088705269847274337280396139  |BT| (ROOT (S (ADVP (RB (just)))(NP (DT (another))(JJ (manic))(NNP (monday))))) |ET| 
-1.0121088705269847274337280396139  |BT| (ROOT (S (ADVP (RB (just)))(VP (VBD (return)))(PP (IN (from)))(NP (PRP$ (we))(JJS (best))(NN (show)))(ADVP (RB (yet))))) |ET| 
0.97976064185207745182992766785901  |BT| (ROOT (S (VP (VBZ (be)))(ADVP (VBN (chillin)))(PP (IN (at)))(NP (NN (home))))(S (NP (NN (bout)))(VP (TO (to))(VB (be)))(PP (IN (on)))(NP (DT (the))(JJ (fone))(NN (wit)))(NP (PRP$ (my))(NN (boo))))(S (PP (NNP (:})))(NP (VBD (so))(VBN (excite))(NN (bout))(NN (tomorro))))(S (NP (PRP (i)))(VP (VBP (love)))(NP (PRP (you)))(ADJP (NNP (nic))))) |ET| 
0.80657848816650357104407476072083  |BT| (ROOT (S (NP (JJ (first))(NN (day)))(PP (IN (of)))(NP (PRP$ (my))(JJ (clinical))(NN (rotation)))(NP (NN (today))))(S (NP (PRP (i)))(VP (VBP (be)))(ADVP (RB (so)))(ADJP (JJ (excited))))) |ET| 
1.0121088705269847274337280396139  |BT| (ROOT (S (VP (VBZ (be)))(ADVP (JJR (better)))(ADVP (RB (now))))(S (NP (FW (i))(NN (love))(VBP (u))(NNP (nic))))(S (NP (CD (<)))(NP (CD (3))(CD (<))(CD (3))(CD (<))(CD (3))))) |ET| 
-1.0121088705269847274337280396139  |BT| (ROOT (S (NP (NNP (easter))(NNS (egg)))(VP (VBP (be)))(ADJP (RB (so))(JJ (temping))))(S (NP (NNP (d))))) |ET| 
-1.0121088705269847274337280396139  |BT| (ROOT (S (NP (DT (the))(NNP (bed)))(VP (VBZ (be)))(NP (NNP (callin))(NNP (my))(NNP (name))))(S (NP (NNP (nite))(NNP (nite)))(VP (NNP (peeps))))) |ET| 
-1.0121088705269847274337280396139  |BT| (ROOT (S (NP (PRP (i)))(VP (VBP (know)))(NP (FW (i)))(VP (VBP (be))(VBG (talk)))(NP (NNS (lot))(CC (but))(FW (i)))(VP (MD (can))(VB (schedule)))(NP (PRP (you)))(PP (IN (in)))(VP (TO (to))(VB (talk)))(NP (JJ (next))(NN (week))))) |ET| 
0.81771385908444516044113470343291  |BT| (ROOT (S (NP (NN (act))(NN (score)))(VP (VBD (go)))(ADVP (RB (up)))(NP (DT (a))(NN (point))))) |ET| 
1.0121088705269847274337280396139  |BT| (ROOT (S (NP (NN (bak)))(VP (TO (to))(VB (fbook)))(PP (IN (after)))(NP (DT (a))(JJ (week.feels)))(ADVP (NN (gud))))) |ET| 
0.66661358232802669920857852048357  |BT| (ROOT (S (NP (PRP$ (my))(NN (speech)))(VP (VBD (go)))(ADVP (RB (well))))) |ET| 
-1.0121088705269847274337280396139  |BT| (ROOT (S (NP (NN (math)))(PP (IN (at)))(NP (CD (12:30)))(ADVP (RB (then)))(ADVP (NN (home)))(PP (IN (for)))(NP (DT (the))(NN (weekend))))) |ET| 
-1.0121088705269847274337280396139  |BT| (ROOT (S (NP (DT (a))(JJ (good))(NN (night)))(NP (JJ (last))(NN (night)))(VP (RB (just))(VBG (try))(TO (to))(VB (get)))(PRT (IN (over)))(NP (DT (this))(JJ (damn))(NN (flu))(NN (shit))))) |ET| 
-1.0121088705269847274337280396139  |BT| (ROOT (S (NP (VBD (ya))(JJ (estoy)))(VP (NN (harto))(IN (de))(NN (todo))(NN (esto)))(PP (IN (en)))(NP (NN (serio))))(S (NP (DT (no))(FW (se)))(VP (FW (hasta)))(NP (FW (donde))(FW (aguantare)))(NP (POS ('))(JJ (-lrb-))))) |ET| 
1.0121088705269847274337280396139  |BT| (ROOT (S (NP (NNP (vienna)))(VP (VBZ (sound)))(NP (JJ (dont))(NN (work))))(S (NP (NNP (t_t))))) |ET| 
1.0121088705269847274337280396139  |BT| (ROOT (S (NP (NNP (badtrp))))(S (NP (NNS (hindus))(VBP (ako))(VBG (mkapag))(NNP (mu))))) |ET| 
1.0121088705269847274337280396139  |BT| (ROOT (S (NP (NNP (u)))(VP (MD (can))(VB (hurt)))(NP (NN (wit))(NNS (word))))(S (NP (NN (bt))(NN (u)))(VP (MD (can))(NN (olso))(VB (hurt)))(NP (NN (wit))(NN (silence))))) |ET| 
-1.0121088705269847274337280396139  |BT| (ROOT (S (NP (NN (beach))(NN (time))))) |ET| 
-1.0121088705269847274337280396139  |BT| (ROOT (S (NP (PRP (i)))(VP (VBP (do))(RB (not))(RB (quite))(VB (understand)))(NP (NNS (number))))) |ET| 
-1.0121088705269847274337280396139  |BT| (ROOT (S (NP (NNP (iiiiiiiiiiii)))(VP (VBD (wanttt)))(NP (DT (a))(JJ (jobbbb))))(S (NP (NNP (grrrr))))(S (VP (VB (get)))(NP (PRP (i)))(ADVP (IN (out)))(PP (IN (of)))(NP (RB (here))))(S (NP (NNP (ugh))))(S (NP (NNP (p))))) |ET| 
1.0121088705269847274337280396139  |BT| (ROOT (S (NP (NN (est))(NN (surpresa))(NN (com)))(PP (IN (as)))(NP (NNS (capacidade)))(PP (FW (de)))(NP (NNP (eliana))(NNP (fonseca))(NNP (;p))))) |ET| 
0.97201066419690618225502021232387  |BT| (ROOT (S (VP (VBN (move)))(PP (RP (out)))(PP (IN (of)))(NP (DT (the))(NN (hell))(JJ (whole))(NN (today)))(NP (VBP (im)))(ADVP (RB (very)))(VP (VBN (relax)))(ADVP (RP (over))(RB (here))))(S (NP (RB (just))(VB (chillin))(CC (and))(VB (stayin))(JJ (warm))))) |ET| 
1.0121088705269847274337280396139  |BT| (ROOT (S (VP (VBZ (be))(VBG (die))(TO (to))(VB (go)))(NP (NN (skiing))(NN (<))(CD (3))))) |ET| 
-1.0121088705269847274337280396139  |BT| (ROOT (S (VP (VBZ (be)))(ADJP (JJ (sick))))(S (NP (`` ("))(DT (no))(JJ (skool))(NN (2morrow)))(NP (NNP (d))))) |ET| 
-1.0121088705269847274337280396139  |BT| (ROOT (S (NP (PRP$ (my))(NN (compueter)))(VP (VBN (fuke)))(PRT (RP (up)))(ADVP (RB (now)))(VP (RB (now)))(NP (PRP (it)))(VP (VBP (sez)))(NP (NNS (window)))(VP (VBZ (be)))(ADVP (RB (now)))(ADJP (JJ (genuine))))) |ET| 
-1.0121088705269847274337280396139  |BT| (ROOT (S (VP (VBN (get)))(NP (PRP$ (my))(JJ (full))(NN (back))(NNP (:}))))) |ET| 
1.0121088705269847274337280396139  |BT| (ROOT (S (NP (PRP (i)))(VP (VBP (be))(VBG (get)))(SBAR (IN (that)))(NP (PRP (i)))(VP (VBP (want)))(NP (DT (another))(JJ (tattoo))(NN (itch))))) |ET| 
0.87237434575200512032466804157593  |BT| (ROOT (S (NP (PRP (i)))(VP (VBP (feel)))(PP (IN (like)))(NP (PRP (it)))(VP (MD (should))(RB (already))(LS (b)))(NP (VB (sumner))))) |ET| 
0.95165005701608484933728959731525  |BT| (ROOT (S (NP (RB (just))(VBN (see))(NN (bebo))))(S (NP (PRP (i)))(VP (VBP (love)))(NP (PRP (he)))(ADVP (RB (so))(RB (much)))(NP (FW (i)))(VP (VB (miss)))(NP (PRP (he)))(VP (TO (to))))(S (NP (NNP (cant))(VBP (wait)))(VP (TO (to))(VB (see)))(NP (PRP (you)))(VP (FW (i))(RB (just))(VBP (want)))(NP (DT (a))(NN (hug))(CC (and))(NN (kiss))))) |ET| 
-1.0121088705269847274337280396139  |BT| (ROOT (S (NP (PRP (you)))(VP (VBP (think)))(SBAR (VBZ (becca)))(NP (RB (guna)))(VP (VB (be))(VBN (psych)))(SBAR (IN (that)))(NP (PRP (you)))(VP (VBD (bring)))(NP (DT (a))(NN (bottle)))(PP (IN (of)))(NP (NNP (lube))))) |ET| 
-1.0121088705269847274337280396139  |BT| (ROOT (S (SBAR (IN (if)))(NP (PRP (you)))(VP (MD (can))(RB (not))(VB (beat)))(NP (PRP ('em))(VBP (arrange)))(VP (TO (to))(VB (have)))(NP (PRP (they)))(VP (VBN (beat))))) |ET| 
-1.0121088705269847274337280396139  |BT| (ROOT (S (NP (NNP (time)))(PP (IN (for)))(NP (NN (bed)))(PP (IN (for)))(NP (PRP (i))))(S (NP (PRP (i)))(VP (VBP (hope)))(NP (NN (everyone)))(VP (VBZ (have)))(NP (DT (a))(JJ (great))(NN (day))))) |ET| 
1.0121088705269847274337280396139  |BT| (ROOT (S (INTJ (UH (wow)))(VP (VB (have)))(NP (PRP$ (my))(NN (day)))(VP (VBN (take)))(NP (DT (a))(NN (turn)))(PP (IN (for)))(NP (DT (the))(JJS (worst))))) |ET| 
1.0121088705269847274337280396139  |BT| (ROOT (S (VP (MD (can))(RB (not))(VB (wait)))(PP (IN (for)))(NP (DT (this))(NN (weekend))))(S (NP (VB (:d))(NN (fun))(NN (fun))(NN (fun))))) |ET| 
1.0121088705269847274337280396139  |BT| (ROOT (S (NP (DT (that))(JJ (awkward))(NN (moment)))(ADVP (WRB (when)))(NP (PRP (you)))(VP (VBP (wake)))(PRT (RP (up)))(NP (NNP (may))(CD (22nd)))(NP (NNP (jesus)))(VP (VBZ (be)))(ADVP (RB (here))))) |ET| 
-1.0121088705269847274337280396139  |BT| (ROOT (S (NP (NNP (y?n))(NNP (ph))))(S (NP (JJ (ng)))(VP (NN (l))(NN (n))(NN (t?t))))) |ET| 
-1.0121088705269847274337280396139  |BT| (ROOT (S (VP (VBZ (be)))(VP (VBG (love)))(NP (DT (the))(NN (apple))))(S (NP (PRP (i)))(VP (MD (could))(VB (eat)))(NP (PRP (he)))(PRT (RP (up))))(S (VP (VBD (do))(RB (not))(VB (fail)))(NP (DT (the))(JJ (mid-term))(NN (afterall))))(S (NP (PRP$ (my))(NNS (brain)))(VP (VBP (be)))(ADVP (RB (still)))(PP (JJ (worth)))(NP (NN (something))))) |ET| 
-1.0121088705269847274337280396139  |BT| (ROOT (S (ADVP (NNP (totally)))(VP (VBZ (suck)))(PP (IN (in)))(NP (NNP (starcraft))(CD (2))))(S (NP (PRP (i)))(VP (MD (should))(VB (think)))(ADVP (RB (twice))(IN (before)))(VP (VBG (challenge)))(NP (NNP (wafi))(CC (or))(NNP (richie))))) |ET| 
1.0121088705269847274337280396139  |BT| (ROOT (S (NP (VBP (bbl))(VBG (gon)))(VP (TO (na))(VB (waste)))(NP (NN (youtube)))(NP (POS ('s))(NN (bandwith))))) |ET| 
1.0121088705269847274337280396139  |BT| (ROOT (S (NP (JJ (happy))(NNP (valentine)))(NP (POS ('s))(NNP (day))(, (,))(NN (everyone))))) |ET| 
1.0121088705269847274337280396139  |BT| (ROOT (S (NP (PRP$ (its))(PRP$ (you))(JJ (*))(NN (loss)))(VP (NNP (*)))(NP (NNP (mother))(NNP (f))(NNP (**))(NNP (ker))))) |ET| 
-1.0121088705269847274337280396139  |BT| (ROOT (S (NP (VB (teach))(NNP (me))(NNP (how)))(VP (TO (to))(NNP (beva)))(NP (NNP (keyboard))(NNP (warriorrr))(NNP (ill))(NNP (fight))(NNP (yah))(NNP (fuckerrrrrrss))))) |ET| 
-1.0121088705269847274337280396139  |BT| (ROOT (S (NP (CD (five))(CD (hundred))(VBP (twenty-five))(CD (thousand))(NNS (moment)))(ADVP (RB (so))(RB (dear))))) |ET| 
-1.0121088705269847274337280396139  |BT| (ROOT (S (NP (NN (bout))(CD (2)))(VP (VBP (go)))(NP (CD (2))))) |ET| 
1.0121088705269847274337280396139  |BT| (ROOT (S (NP (NN (snow))(VBD (damnit))))(S (NP (PRP (i)))(VP (VBP (need)))(NP (DT (the))(NN (time)))(PRT (RB (off))))) |ET| 
1.0121088705269847274337280396139  |BT| (ROOT (S (NP (RB (just)))(VP (VBD (get)))(NP (PRP$ (my))(NN (laptop)))(NP (NN (today)))(NP (PRP (it)))(VP (VBZ (rule))))(S (NP (NNP (xd))))) |ET| 
0.96285225955684117238320141041186  |BT| (ROOT (S (NP (PRP (i)))(VP (VBP (be))(RB (actually)))(NP (DT (a))(JJ (unicorn/goat))(NN (hybrid))))(S (VP (NNP (bet)))(NP (PRP (you))(VBZ (never))(NNP (saw))(NNP (that))(NNP (com))('' (')))(PP (IN (in)))(NP (NNP (huh))))) |ET| 
-1.0121088705269847274337280396139  |BT| (ROOT (S (VP (VBZ (love))(VBG (hang)))(PRT (RP (out)))(PP (IN (with)))(NP (NNP (matthew)))(NP (POS ('s))(NN (family))))(S (NP (NNS (=}))(-LRB- (-lrb-)))(NP (PRP (i)))(VP (VBP (<)))(NP (CD (3))(NNP (matthew))(-RRB- (-rrb-))))) |ET| 
-1.0121088705269847274337280396139  |BT| (ROOT (S (VP (VBD (have)))(NP (DT (a))(JJ (interesting))(NN (day))))(S (VP (VBD (wrestle)))(NP (DT (a))(VBG (recover))(JJ (alcoholic)))(PP (SYM (@)))(NP (DT (the))(NN (med))(NN (center))))(S (NP (NN (fun))(NN (day))))) |ET| 
-1.0121088705269847274337280396139  |BT| (ROOT (S (VP (VBD (get)))(NP (PRP$ (my))(NNP (wii)))(NP (PRP$ (my))(NN (man)))(NP (PRP$ (my))(NNS (grandparent)))(VP (VBP (be)))(ADVP (RB (here))(VBG (<))))) |ET| 
1.0121088705269847274337280396139  |BT| (ROOT (S (NP (NN (pano))(SYM (b)))(VP (TO (to))(NNP (?????))))) |ET| 
1.0121088705269847274337280396139  |BT| (ROOT (S (ADVP (RB (now)))(PP (IN (on)))(NP (NNS (holiday)))(PP (IN (for)))(NP (DT (the))(JJ (next))(CD (three))(NNS (week)))(NP (JJ (ye)))(NP (NN (ha))(NN (god)))(VP (VBZ (be)))(ADJP (JJ (great))))) |ET| 
0.87940560485261465295536709163571  |BT| (ROOT (S (PP (IN (on)))(NP (JJ (2k12))(NN (whoopin))(NNP (da))(NNS (celtic))(VBP (ass))(JJ (lol)))(UCP (NN (bout)))(VP (NN (ta))(VB (play)))(NP (JJ (online))(NN (fwm))))) |ET| 
-1.0121088705269847274337280396139  |BT| (ROOT (S (NP (NNP (hahahahaha))(NNP (wata))(NNP (bag)))(PP (IN (of)))(NP (NNP (shit))))) |ET| 
-1.0121088705269847274337280396139  |BT| (ROOT (S (VP (VBN (workin)))(PP (IN (on)))(NP (JJR (more))(NN (computer))(NN (painting))))) |ET| 
-1.0121088705269847274337280396139  |BT| (ROOT (S (NP (NNP (y))(NNP (thank))(NNP (u)))(PP (IN (if)))(NP (NNP (u)))(NP (POS ('))(NN (z))(DT (a))(NNP (hata))(VBZ (!!!!!))))) |ET| 
0.97981202639509712426502119342331  |BT| (ROOT (S (VP (VBZ (be)))(UCP (VBG (love)))(NP (DT (this))(JJ (beautiful))(NN (wheather.oh)))(ADVP (WRB (how)))(NP (FW (i)))(VP (VBP (have))(VBN (miss)))(NP (DT (the))(NN (sun))(CC (&))(PRP$ (my))(JJ (flip))(NNS (flop))))(S (ADVP (RB (up)))(PP (IN (at)))(NP (VBZ (mom))(NN (house)))(PP (IN (for)))(NP (NN (dinner)))(PP (IN (before)))(NP (NN (work))(NN (tonight))))(S (NP (NNP (hope))(NN (everyone)))(VP (VBZ (be))(VBG (have)))(NP (DT (a))(NNP (blessed))(NN (weekend))))) |ET| 
0.94895113974742340001711227159831  |BT| (ROOT (S (ADVP (RB (still)))(PP (IN (in)))(NP (NN (springhill)))(NP (PRP$ (my))(NN (titus)))(VP (VBZ (be)))(ADJP (VBN (doin))(RBR (better)))(VP (VB (thank)))(NP (NN (god.gonna)))(VP (VB (go))(VB (eat)))(ADVP (JJ (sumwhere)))(PP (IN (in)))(NP (NNP (da))(NNS (hill)))(VP (NN (wat))(TO (to))(VB (eat))))) |ET| 
0.95003648498223747242974468463217  |BT| (ROOT (S (ADVP (RB (so)))(ADVP (RB (here)))(NP (PRP (we)))(VP (VBP (be)))(NP (RB (just))(CD (3:28))(NNS (minute)))(PP (IN (from)))(NP (PRP$ (we))(JJ (first))(NN (celebration))))) |ET| 
-1.0121088705269847274337280396139  |BT| (ROOT (S (NP (VB (fight))(NN (terror)))(VP (TO (to))(VB (defend)))(NP (NN (freedom)))(SBAR (IN (so)))(NP (PRP (you)))(VP (MD (can))(VB (buy)))(NP (JJR (more))(NN (stuff))))) |ET| 
-1.0121088705269847274337280396139  |BT| (ROOT (S (NP (NNP (monday))(NN (morning)))(PRT (RB (off)))(VP (TO (to))(VB (work)))(VP (NN (hope)))(NP (NN (everyone)))(VP (VBZ (have)))(NP (DT (a))(JJ (good))(NN (day))))) |ET| 
-1.0121088705269847274337280396139  |BT| (ROOT (S (NP (PRP (i)))(VP (VBP (be))(JJ (sooo))(JJ (tired))))) |ET| 
1.0121088705269847274337280396139  |BT| (ROOT (S (NP (JJ (happy))(NNS (friendship))(NN (day))(CD (2)))(PP (IN (of)))(NP (NN (u))))) |ET| 
1.0121088705269847274337280396139  |BT| (ROOT (S (NP (VBZ (techno)))(PP (IN (on)))(NP (DT (the))(NN (weather))(NN (channel))))) |ET| 
1.0101996242012027948931063292548  |BT| (ROOT (S (NP (NNP (el)))(VP (LS (d)))(NP (DT (a))(FW (de))(FW (la))(VBD (chele))))) |ET| 
-1.0121088705269847274337280396139  |BT| (ROOT (S (NP (NN (soduku))(CC (and))(NN (backgammon))))(S (NP (WP (what))(DT (a))(JJ (crazy))(NN (night)))(PP (IN (at)))(NP (DT (the))(NN (shore))))(S (VP (VBP (wish)))(NP (DT (the))(NN (neighbor)))(VP (MD (would))(VB (come))(VB (kill)))(NP (DT (the))(NN (cricket)))(NP (WDT (that)))(VP (VBZ (be)))(PP (JJ (outside)))(PP (IN (of)))(NP (PRP$ (my))(NN (window))))) |ET| 
-1.0121088705269847274337280396139  |BT| (ROOT (S (NP (JJ (thinks))(JJS (best))(NN (character)))(PP (IN (in)))(NP (DT (the))(NNP (office)))(VP (VBZ (be)))(ADVP (RB (definitly)))(NP (JJ (creed))))) |ET| 
-1.0121088705269847274337280396139  |BT| (ROOT (S (VP (VBZ (be)))(VP (VBG (celebrate)))(NP (JJ (new))(NNS (year)))(NP (DT (the))(JJ (french)))(VP (NN (way.involving)))(NP (DT (the))(NNS (dog))))) |ET| 
0.64709931757266458962618571604253  |BT| (ROOT (S (NP (PRP (i)))(VP (VBP (be))(VBN (exhaust))))) |ET| 
1.0121088705269847274337280396139  |BT| (ROOT (S (NP (PRP (i)))(VP (VBP (love)))(SBAR (IN (that)))(ADVP (WRB (when)))(NP (PRP (i)))(VP (VBP (get))(VBN (stress)))(NP (PRP (i)))(VP (VBP (lose)))(NP (PRP$ (my))(NN (appetite))))) |ET| 
1.0121088705269847274337280396139  |BT| (ROOT (S (NP (NN (e)))(VP (VBZ (drive)))(NP (PRP (i)))(ADJP (JJ (crazy))))) |ET| 
-1.0121088705269847274337280396139  |BT| (ROOT (S (ADVP (WRB (when)))(NP (PRP (i)))(VP (VBP (say)))(NP (NNP (hillshire)))(NP (PRP (you)))(VP (VBP (say)))(NP (NN (farm))))) |ET| 
-1.0121088705269847274337280396139  |BT| (ROOT (S (NP (PRP (i)))(VP (NNP (wan)))(NP (NNP (na))(VBP (see))(NNP (tracy))(NNP (mcgrady)))(PP (IN (on)))(NP (NNP (tha))(NNP (bulls))(NNP (by))(NNP (thursday))))) |ET| 
-1.0121088705269847274337280396139  |BT| (ROOT (S (NP (PRP (i)))(VP (NNP (love)))(NP (PRP$ (my))(NNS (boy))))) |ET| 
1.0121088705269847274337280396139  |BT| (ROOT (S (NP (DT (a))(NN (strawberry)))(VP (VBZ (be)))(NP (DT (a))(JJ (actual))(NN (berry)))(NP (DT (a))(NN (banana)))(VP (VBZ (be))))(S (NP (NNP (omg))(VBZ (fact))))) |ET| 
0.96167288659512861759282031925977  |BT| (ROOT (S (VP (NNS (want)))(PP (TO (to)))(NP (VB (go)))(PP (TO (to)))(NP (NNP (shake)))(PP (IN (in)))(NP (NNP (tha))(NNP (park))(VBD (:{))(-LRB- (-lrb-))(-LRB- (-lrb-))(JJ (-lrb-))))) |ET| 
0.93024171282073231381559708097484  |BT| (ROOT (S (VP (VBZ (be))(VBG (watch)))(NP (DT (a))(NN (show)))(VP (VBN (call)))(NP (NNPS (americans))(NNP (cutest))(NNP (cats.what)))(VP (VBZ (have)))(NP (DT (this))(NN (county)))(VP (VBN (come)))(PP (TO (to))))(S (NP (PRP (they)))(VP (VBP (be)))(ADJP (DT (all))(RB (so))(JJ (cute))))) |ET| 
-1.0121088705269847274337280396139  |BT| (ROOT (S (NP (PRP$ (its))(NNP (friday)))(NP (DT (this)))(VP (VBZ (have))(VBN (be)))(NP (DT (the))(JJS (longest))(JJ (short))(NN (week)))(NP (PRP (we)))(VP (VBP (have))(VBN (have)))(PP (IN (in)))(NP (DT (a))(JJ (long))(NN (time))))) |ET| 
-1.0121088705269847274337280396139  |BT| (ROOT (S (NP (VB (grabbin))(DT (a))(NN (coffee))))(S (NP (NN (headin)))(PP (TO (to)))(NP (NN (alpharetta))))(S (ADVP (VBD (awww))))(S (VP (VBN (hangin)))(PP (IN (with)))(NP (JJ (mags))(NN (day))))(S (NP (NNP (yay))(NNP (:}))(NNP (:}))))(S (NP (NN (lol))))) |ET| 
-1.0121088705269847274337280396139  |BT| (ROOT (S (NP (NNP (officially))(NNP (woke))(NNP (now))(NNP (so))(NNP (time))(TO (to))(NNP (move))(NNP (around))))) |ET| 
1.0121088705269847274337280396139  |BT| (ROOT (S (NP (NNP (disfrutando))(NNP (cada)))(VP (NNP (etapa)))(PP (FW (de)))(NP (NNP (mi))(NNP (vida)))(NP (NNP (d))))) |ET| 
0.7374299706452720482019458358991  |BT| (ROOT (S (NP (PRP (i)))(VP (VBP (see)))(NP (JJ (sunshine))))) |ET| 
1.0121088705269847274337280396139  |BT| (ROOT (S (ADVP (RB (maybe)))(NP (PRP (you)))(VP (MD ('ll))(VB (break))))) |ET| 
-1.0121088705269847274337280396139  |BT| (ROOT (S (NP (PRP (i)))(VP (VBP (be))(VBG (consider)))(NP (DT (a))(JJ (mad))(NN (man))(NN (marathon)))(NP (DT (this))(NN (evening))))) |ET| 
-1.0121088705269847274337280396139  |BT| (ROOT (S (NP (UH (ah)))(VP (VB (screw)))(NP (DT (this))(JJ (dumb))(NN (website)))(NP (PRP (i)))(VP (VBP (be)))(PRT (RP (out))))) |ET| 
-1.0121088705269847274337280396139  |BT| (ROOT (S (NP (POS ('))(VBP (ti))(RB (not))(NN (happiness)))(SBAR (IN (that)))(NP (PRP (i)))(VP (VBP (feel))))) |ET| 
1.0121088705269847274337280396139  |BT| (ROOT (S (NP (VB (thankful)))(PP (IN (for)))(NP (DT (the))(NNS (man))(CC (and))(NNS (woman)))(NP (WP (who)))(VP (VBD (fight)))(NP (PRP$ (we))(NNS (war))))(S (NP (NNP (missing))(NNP (jack))(NNP (watts)))(VP (VBD (<)))(NP (CD (3))))) |ET| 
1.0121088705269847274337280396139  |BT| (ROOT (S (ADJP (JJ (ready)))(PP (IN (for)))(NP (DT (some))(VBP (sleep))))(S (NP (NNP (church)))(PP (IN (in)))(NP (DT (the))(NN (morning))(VBD (<))(CD (3))))) |ET| 
0.8946960006767467055155407251732  |BT| (ROOT (S (NP (VB (day))(CD (5)))(NP (DT (no))(NN (end)))(PP (IN (in)))(NP (NN (sight)))(VP (VB (please))(VB (let)))(NP (DT (this)))(VP (VB (be)))(PP (IN (over)))(NP (PRP (i)))(VP (VBP (have))(VBD (have)))(ADJP (RB (enough))))) |ET| 
-1.0121088705269847274337280396139  |BT| (ROOT (S (NP (NN (wooooooo))(NN (cant))(VB (wait)))(PP (IN (for)))(NP (CD (five))))(S (NP (NNP (bike))(VBP (ride)))(ADVP (RB (here)))(VP (FW (i))(VB (come))))) |ET| 
-1.0121088705269847274337280396139  |BT| (ROOT (S (NP (NNP (nina))(NNP (simone)))(VP (VBZ (be)))(NP (DT (a))(NN (goddess))))(S (NP (DT (that)))(VP (VBZ (be)))(NP (DT (all))))) |ET| 
-1.0121088705269847274337280396139  |BT| (ROOT (S (VP (MD (can))(RB (not))(VB (wait)))(PP (IN (for)))(NP (DT (the))(NN (peace)))(NP (JJ (quiet)))(NP (IN (that)))(VP (MD (will))(VB (be)))(ADVP (RB (here)))(PP (IN (in)))(NP (CD (three))(NNS (day))))) |ET| 
1.0121088705269847274337280396139  |BT| (ROOT (S (NP (NNP (eggs))(CC (and))(NNP (grits))))) |ET| 
0.99735428793353220200401665351819  |BT| (ROOT (S (NP (VBZ (do)))(VP (NN (anyone))(VB (have)))(NP (DT (a))(JJ (black))(NN (light)))(SBAR (IN (that)))(NP (PRP (i)))(VP (MD (can))(VB (borrow))))) |ET| 
1.0121088705269847274337280396139  |BT| (ROOT (S (NP (NNP (lyf))(NNP (iz))(NNP (lik))(NNP (sex)))(SBAR (IN (if)))(NP (NN (u)))(VP (VBP (wnt)))(NP (DT (a))(NN (hapy))(VBG (end)))(VP (VBP (do))(RB (not))(VB (rush))))) |ET| 
-1.0121088705269847274337280396139  |BT| (ROOT (S (NP (NN (qed))(NN (tisma))(JJ (green))(NNS (eye)))(PP (NN (u)))(NP (NN (tiftakar))(SYM (f)))(NP (POS ('))(NNP (trudy))(NNP (darmanin))))) |ET| 
-1.0121088705269847274337280396139  |BT| (ROOT (S (NP (VB (beautiful))(DT (a))(JJ (*))(NN (luva))))) |ET| 
-1.0121088705269847274337280396139  |BT| (ROOT (S (ADVP (WRB (when)))(NP (NN (u)))(VP (VB (think)))(PP (IN (of)))(NP (NN (ur))(NN (life)))(NP (NN (wat))(VBZ (cum)))(VP (TO (to))(VB (mind))))) |ET| 
1.0121088705269847274337280396139  |BT| (ROOT (S (VP (VBZ (be)))(PP (IN (on)))(NP (NN (facebook)))(PP (IN (with)))(NP (NN (nothing))(CD (2)))(VP (VBP (say))))) |ET| 
0.88167512515346768697810375670088  |BT| (ROOT (S (VP (NNP (got))(NNP (ta))(VBP (love)))(NP (WRB (how))(JJ (affordable))(NN (college)))(VP (VBZ (be)))(NP (DT (these))(NNS (day))))(S (NP (RB (just)))(VP (VBD (order)))(NP (DT (a))(NN (book)))(PP (IN (for)))(NP (PRP$ (my))(JJ (upcoming))(NN (class)))(PP (IN (for)))(NP (DT (the))(JJ (low))(JJ (low))(NN (price)))(PP (IN (of)))(NP ($ ($))(CD (156))))(S (NP (PDT (all))(PRP (i)))(VP (MD (can))(VB (say)))(VP (VBZ (be)))(NP (PRP (it)))(ADVP (JJR (better)))(VP (VB (be)))(ADJP (JJ (amazing)))(NP (RB (truly))(NN (life))(VBG (change))))) |ET| 
0.83828200538481834058757158345543  |BT| (ROOT (S (ADVP (RB (so)))(NP (VBN (im)))(PRT (RP (up)))(PP (IN (on)))(NP (PRP$ (my))(NN (bro))(NN (xbox))(CD (360))(JJ (kinect))(NN (playin))(NNS (fighter))(VBD (uncage))(NN (smh))))(S (NP (DT (this)))(VP (VBZ (be)))(NP (DT (a))(NN (work)))(PP (RP (out)))(NP (FW (im)))(ADVP (RB (so)))(PP (IN (over)))(NP (NN (weight)))(NP (PRP$ (its))(NN (ashame))))) |ET| 
-1.0121088705269847274337280396139  |BT| (ROOT (S (ADVP (RB (finally))))(S (NP (PRP (i)))(VP (VBP (have)))(NP (DT (a))(NN (job))(NN (interview)))(NP (NN (tomorrow)))(PP (IN (for)))(NP (NNP (sam)))(NP (POS ('s))(NN (club))(NNP (:d))(JJ (woot))(NN (woot))))(S (NP (NNP ([))(NNP (<))(CD (3))(NNP (matthew))(NNP (]))))) |ET| 
-1.0121088705269847274337280396139  |BT| (ROOT (S (VP (VBZ (be)))(PP (IN (about)))(PP (TO (to)))(NP (VB (go)))(PP (TO (to)))(NP (DT (the))(NNS (movie)))(PP (IN (with)))(NP (NNP (naima))(CC (and))(NNP (philipp))))) |ET| 
-1.0121088705269847274337280396139  |BT| (ROOT (S (NP (NNP (hatred)))(VP (VBZ (be))(RB (never))(VBN (end)))(PP (IN (by)))(NP (NN (hatred)))(PP (IN (by)))(NP (NN (love))))) |ET| 
0.86611870062886409105118445950211  |BT| (ROOT (S (SBAR (NNP (uh)))(NP (VBP (im))(JJ (super))(JJ (tired)))(NP (PRP$ (my))(NN (back)))(VP (VBZ (hurt)))(VP (FW (i)))(NP (NN (cant)))(VP (VBP (go))(TO (to))(VB (sleep))))) |ET| 
0.88682793278412108683994574676035  |BT| (ROOT (S (NP (FW (se))(NN (fue)))(NP (DT (a))(NN (tomar))(VBP (una)))(NP (RB (siesta))(LS (x)))(VP (VB (see))(NN (u)))(ADVP (RB (later))(VBG (<)))(LST (CD (3))))) |ET| 
0.90259206155327054155179666850017  |BT| (ROOT (S (NP (JJ (*))(NN (sigh)))(SBAR (VBP (*)))(NP (PRP (i)))(VP (VBP (be)))(ADJP (JJ (sick)))(PP (IN (of)))(NP (DT (these))(NNS (scar)))(VP (RB (especially))(VBG (make)))(NP (PRP (it)))(ADJP (JJR (worse))))) |ET| 
-1.0121088705269847274337280396139  |BT| (ROOT (S (NP (PRP$ (my))(NN (ear)))(VP (VBZ (be))(VBN (bruise))))) |ET| 
-1.0121088705269847274337280396139  |BT| (ROOT (S (NP (NNP (los))(FW (hip))(FW (critas)))(PP (FW (vienen)))(NP (FW (disfrazados)))(PP (FW (de)))(NP (FW (amigos))(FW (-lrb-))))) |ET| 
-1.0121088705269847274337280396139  |BT| (ROOT (S (ADVP (NNP (wonderin)))(NP (NNP (y)))(VP (VBP (be)))(NP (FW (i)))(ADVP (RB (even)))(VP (VBD (wake)))(ADVP (RB (right))(RB (now))))) |ET| 
1.0121088705269847274337280396139  |BT| (ROOT (S (NP (DT (this))(NN (chocolate))(NN (pie)))(VP (VBZ (be)))(NP (RB (yummy))(CD (:3)))(VP (NNS (tomorrow))(VBG (go))(TO (to))(VB (be)))(NP (NN (fun))))) |ET| 
0.80602941496032509682834188424749  |BT| (ROOT (S (NP (VBD (tire)))(VP (VBG (try))(TO (to))(VB (work)))(PP (IN (on)))(NP (DT (a))(JJ (last))(NN (minute))(NN (project))))) |ET| 
1.0121088705269847274337280396139  |BT| (ROOT (S (NP (NN (time)))(VP (TO (to))(VB (work)))(PP (IN (on)))(NP (DT (some))(NNS (dream))))) |ET| 
-1.0121088705269847274337280396139  |BT| (ROOT (S (VP (VBG (fuck)))(NP (NN (god)))(VP (RB (damned)))(NP (JJ (cunt))(NN (ass))(NN (mother))(VBG (fuck))(NN (bitch))(NN (ass))(VBP (fuck))(NN (face))))(S (NP (VB (suck))(PRP$ (my))(JJ (big))(JJ (fucking))(JJ (black))(NN (dick)))(NP (PRP (i)))(VP (VBP (wan))(TO (na))(VB (see)))(NP (DT (that))(NN (ass))(NN (clap)))(NP (NN (bitch))))) |ET| 
-1.0121088705269847274337280396139  |BT| (ROOT (S (VP (VB (keep))(VBG (smile)))(NP (PRP (it)))(VP (NNS (freak)))(NP (NNS (people)))(ADVP (IN (out))))) |ET| 
-1.0121088705269847274337280396139  |BT| (ROOT (S (NP (PRP (i)))(ADVP (RB (honestly)))(VP (VBP (do))(RB (not))(VB (know)))(SBAR (IN (if)))(NP (PRP (i)))(VP (MD (could))(VB (survive)))(PP (IN (without)))(NP (NNP (bruno))(NNP (mars))))) |ET| 
1.0121088705269847274337280396139  |BT| (ROOT (S (NP (PRP$ (my))(NN (cell))(NN (phone)))(VP (VBZ (be))(VBN (bustede))))) |ET| 
0.9457746249299657792519724353042  |BT| (ROOT (S (ADVP (NNS (y)))(VP (VBP (be))(FW (i)))(PRT (RP (up)))(ADVP (RB (still))))) |ET| 
1.0121088705269847274337280396139  |BT| (ROOT (S (NP (PRP$ (my))(NN (goodness))(NNS (people)))(ADVP (SYM (r))(JJ (stupid))))(S (NP (VBG (choke))(NN (game)))(ADVP (RB (really))))) |ET| 
-1.0121088705269847274337280396139  |BT| (ROOT (S (VP (VBZ (be)))(VP (VBG (say)))(PP (NNS (bye2)))(PP (IN (for)))(ADJP (JJ (good))))) |ET| 
-1.0121088705269847274337280396139  |BT| (ROOT (S (NP (NN (ok))(NN (time)))(VP (TO (to))(VB (get)))(PRT (RP (up))))) |ET| 
-1.0121088705269847274337280396139  |BT| (ROOT (S (NP (NNS (vamo))(NNP (pa))(NNP (el))(NNP (infierno))(NNP (aunque)))(NP (NNP (no))(NNP (sea))(NNP (eterno))(SYM (=))($ ($))(CD (<))(CD (3))))) |ET| 
1.0121088705269847274337280396139  |BT| (ROOT (S (NP (PRP (i)))(VP (VBD (lose)))(NP (NNP (bob)))(NP (NNP (reyes))(FW (status))))) |ET| 
1.0121088705269847274337280396139  |BT| (ROOT (S (NP (PRP (i)))(VP (VBP (be))(VBG (gon))(TO (na))(VB (do)))(NP (WP (what)))(NP (PRP (i)))(VP (VBP (do)))(ADVP (JJS (best))))(S (NP (PRP (i)))(VP (VBP (guess)))(NP (RB (uhm))))) |ET| 
0.94917192116903292831153748920769  |BT| (ROOT (S (NP (FW (i)))(VP (MD (would))(VB (drive)))(PP (RP (on)))(PP (TO (to)))(NP (DT (the))(NN (end)))(PP (IN (with)))(NP (PRP (you))))) |ET| 
-1.0121088705269847274337280396139  |BT| (ROOT (S (NP (PRP (i)))(VP (VBP (have)))(NP (DT (the))(JJS (best))(NN (husband)))(ADVP (RB (ever))))) |ET| 
-1.0121088705269847274337280396139  |BT| (ROOT (S (NP (PRP (i)))(VP (VBZ (misssssss)))(NP (PRP$ (my))(NNP (feipoh))(NNP (velvet)))(ADVP (RB (so))(JJ (much))))) |ET| 
-1.0121088705269847274337280396139  |BT| (ROOT (S (NP (VB (im))(DT (a))(VBG (walk))(NN (zombie)))(VP (VBN (dress)))(PP (IN (in)))(NP (JJ (strippy))(NN (orange))))(S (NP (NNP (lord)))(VP (VBP (help)))(NP (PRP (i)))(VP (TO (to))(VB (think))))) |ET| 
0.95290523666914817013662286626641  |BT| (ROOT (S (NP (NNS (wikileak)))(VP (VBG (have)))(NP (RB (so))(RB (much)))(VP (TO (to))(VB (say))))) |ET| 
1.0121088705269847274337280396139  |BT| (ROOT (S (NP (NN (el))(NN (profe)))(PP (FW (de)))(NP (JJ (probabilidad))(JJ (tiene))(NN (correo))))) |ET| 
0.85857472119030298074449092382565  |BT| (ROOT (S (NP (NN (anyone)))(PRT (RP (up)))(PP (IN (for)))(VP (VBG (go)))(PRT (RP (out)))(NP (JJ (next))(NN (weekend))))) |ET| 
-1.0121088705269847274337280396139  |BT| (ROOT (S (NP (VBZ (be))(RB (not)))(VP (VBG (go)))(PP (TO (to)))(NP (NN (school)))(NP (NN (today))))(S (NP (PRP (you))(NNS (guy)))(VP (MD (will))(VB (find)))(PRT (RP (out)))(ADVP (RB (later))))) |ET| 
-1.0121088705269847274337280396139  |BT| (ROOT (S (VP (VBG (go))(NN (shopping)))(PP (IN (with)))(NP (NNP (mum)))(ADVP (RB (later))))) |ET| 
-1.0121088705269847274337280396139  |BT| (ROOT (S (NP (RB (sissy)))(VP (JJ (dog-holding)))(PP (IN (down)))(NP (NNP (james)))(NP (NNP (loki-watching))(NN (tv)))(NP (NNP (taytay-snoring)))(NP (NN (ocasta-stole)))(NP (PRP$ (my))(NN (chair)))(NP (JJ (me-laughing)))(PP (IN (at)))(NP (DT (the))(NN (bunch))))) |ET| 
0.8798000928891253069608069381502  |BT| (ROOT (S (NP (PRP (i)))(VP (VBP (be)))(PP (IN (in)))(NP (DT (a))(NNP (new))(NNP (york))(NN (state)))(PP (IN (of)))(NP (NN (mind))))) |ET| 
0.91160421111010714323441561646177  |BT| (ROOT (S (NP (JJ (good))(NN (news)))(ADVP (RB (here))))(S (NP (NNP (ben)))(VP (VBZ (be)))(ADVP (RP (back)))(PP (TO (to)))(NP (PRP (himself)))(ADVP (RB (back)))(PP (IN (in)))(NP (NN (school))))(S (NP (NNP (keenan)))(NP (VBZ (be))(VBG (go)))(ADVP (NN (tomorrow)))(NP (PRP (i)))(VP (VBP (feel)))(NP (NN (soooo))(RB (much))(RB (better.happy))(RB (home)))(ADVP (RB (again))))) |ET| 
0.80940992775983577889320486065117  |BT| (ROOT (S (NP (PRP (i)))(VP (VBP (know)))(NP (PRP (i)))(VP (VBP (be)))(ADJP (JJ (good)))(PP (IN (at)))(VP (VBG (take)))(NP (NNS (compliment)))(INTJ (NN (gosh))))) |ET| 
-1.0121088705269847274337280396139  |BT| (ROOT (S (NP (NNP (weather))(CC (and))(NNP (love)))(VP (VBP (be)))(NP (DT (the))(CD (two))(NNS (element)))(PP (IN (about)))(NP (WDT (which)))(NP (PRP (one)))(VP (MD (can))(RB (never))(VB (be)))(ADJP (JJ (sure))))) |ET| 
-1.0121088705269847274337280396139  |BT| (ROOT (S (NP (JJ (good))(NN (food)))(NP (JJ (good))(NN (company)))(NP (JJ (great))(NN (sex))))(S (NP (PRP (i)))(VP (VBP (think)))(NP (PRP (i)))(VP (MD (could))(VB (call)))(NP (DT (this))(NN (weekend)))(NP (DT (a))(JJ (good))(CD (one))))(S (NP (DT (a))(RB (very))(JJ (good))(NN (one))))) |ET| 
-1.0121088705269847274337280396139  |BT| (ROOT (S (NP (DT (a))(NNP (mi))(NNP (me))(NNP (gusta))(NNP (en))(NNP (el)))(PP (NNP (piso)))(NP (VBP (:d))))) |ET| 
0.88382788105734999550833208559197  |BT| (ROOT (S (PP (IN (with)))(NP (PRP$ (my))(JJ (hubby))(VBG (watch))(NN (tv))))(S (NP (VBN (talk)))(PP (NN (bout)))(NP (PRP$ (we))(NNS (plan)))(VP (RB (maybe)))(PP (IN (in)))(NP (DT (the))(NN (summer)))(NP (PRP (it)))(VP (MD (will))(VB (be)))(PP (IN (into)))(NP (NN (play))))(S (NP (NNP (god)))(VP (VB (bless)))(NP (PRP (we)))(PP (IN (with)))(NP (DT (the))(NN (plan)))(NP (PRP (we)))(VP (VBP (have))(VBN (talk)))(NP (RB (about))(PRP (i)))(VP (VBP (love)))(NP (PRP (he)))(ADVP (RB (so))(RB (much))))) |ET| 
1.0121088705269847274337280396139  |BT| (ROOT (S (VP (VBZ (be)))(NP (NNP (lovin))(NNP (life)))(ADVP (RB (right)))(ADVP (RB (now))))) |ET| 
1.0121088705269847274337280396139  |BT| (ROOT (S (VP (VBZ (love)))(NP (NNS (ghost))(CC (and))(NN (stuff))))) |ET| 
-1.0121088705269847274337280396139  |BT| (ROOT (S (NP (PRP (i)))(ADVP (RB (kinda)))(VP (VBP (miss))(VBG (watch)))(NP (NNP (general))(NNP (hospital)))(VP (RB (not))(VBG (gon))(TO (na))(VB (lie))))) |ET| 
-1.0121088705269847274337280396139  |BT| (ROOT (S (SBAR (IN (if)))(NP (RB (only))(DT (the))(NN (date)))(VP (MD (would))(VB (have))(VBN (be)))(NP (CD (14))(NNP (november))))) |ET| 
-1.0121088705269847274337280396139  |BT| (ROOT (S (VP (VBZ (feel)))(PP (IN (like)))(NP (VBG (cuddle))))) |ET| 
1.0121088705269847274337280396139  |BT| (ROOT (S (VP (VBP (wish)))(NP (PDT (all))(PRP$ (my))(NNS (fren)))(NP (DT (a))(RB (very))(JJ (happy))(NN (onam))))) |ET| 
0.78623722127260398107040373361087  |BT| (ROOT (S (NP (NN (fun))(NN (day)))(VP (NN (w)))(PP (VBP (/)))(NP (DT (the))(NNS (friend))))(S (VP (VBD (drive)))(PP (TO (to)))(NP (NN (church))(NN (uu))(NN (yogurt)))(NP (CD (5))(NNS (guy)))(SBAR (IN (while)))(VP (VBG (blast)))(ADVP (NNP (mumford))(CC (&))(NNS (son)))(NP (NNP (d))))) |ET| 
0.82643607326883006258810837607598  |BT| (ROOT (S (NP (RB (there)))(VP (VB (be)))(NP (DT (a))(JJ (different))(VBG (end)))(PP (TO (to)))(NP (DT (the))(JJ (same))(JJ (old))(NN (story))))) |ET| 
-1.0121088705269847274337280396139  |BT| (ROOT (S (PP (TO (to)))(NP (PRP$ (my))(RB (perfectly))(JJ (imperfect))(NN (man)))(NP (JJ (happy))(NN (birthday))(NNP (robert))(NNP (viscayno))(NNP (quizon))))(S (NP (NN (i))))(S (NP (PRP (you)))(ADVP (RB (always))))) |ET| 
-1.0121088705269847274337280396139  |BT| (ROOT (S (NP (WP (what)))(NP (DT (a)))(VP (VBP (win)))(NP (JJ (!!!!!!!!!!!!!!!!))))) |ET| 
-1.0121088705269847274337280396139  |BT| (ROOT (S (NP (NNP (grey))(NNP (caramels))(NNS (watashus)))(VP (VBP (wa)))(NP (JJ (modotte))(NN (kita))))) |ET| 
1.0121088705269847274337280396139  |BT| (ROOT (S (ADVP (RB (finally))(VBP (back)))(PP (IN (in)))(NP (NNP (birmingham))))) |ET| 
1.0121088705269847274337280396139  |BT| (ROOT (S (VP (VBN (confuse)))(ADJP (VBN (worry)))(VP (VBN (scare))))) |ET| 
0.91948602624701736285572906126617  |BT| (ROOT (S (NP (NNP (ahahaha))(NNP (poppy)))(NP (POS ('s))(NN (hair)))(NP (NNP (l)))(VP (VBZ (look)))(PP (IN (like)))(NP (VBG (um.nothing)))(NP (PRP (you)))(VP (VBP (have))(VBN (see)))(PP (IN (before)))(NP (CD (<))(CD (3))))) |ET| 
-1.0121088705269847274337280396139  |BT| (ROOT (S (VP (VBZ (be)))(VP (VBG (get))(VBN (snow)))(PP (IN (in)))(PP (IN (with)))(NP (NNP (mike))))) |ET| 
-1.0121088705269847274337280396139  |BT| (ROOT (S (NP (NN (day)))(ADJP (JJ (full)))(PP (IN (of)))(NP (NN (jazz))))(S (NP (`` ("))(NNP (sniff)))(VP (VB (sniff))))(S (PP (IN (in)))(NP (DT (the))(VBP (gentle))(JJ (rain))))) |ET| 
-1.0121088705269847274337280396139  |BT| (ROOT (S (NP (PRP (they)))(VP (VBD (put)))(NP (NNP (mccoy)))(PP (IN (in)))(NP (NNP (!!!))))(S (NP (NNP (d))))) |ET| 
1.0121088705269847274337280396139  |BT| (ROOT (S (NP (NNP (band))(NNP (trip))))(S (NP (PRP (i)))(VP (NNP (love)))(NP (PRP$ (my))(NNS (friend))))) |ET| 
1.0121088705269847274337280396139  |BT| (ROOT (S (NP (VBG (think)))(PP (IN (of)))(NP (PRP (you)))(NP (DT (a))(NN (lot))(VBD (mama))))(S (NP (FW (i)))(VP (VB (miss)))(NP (PRP$ (you))(NN (voice))))) |ET| 
1.0121088705269847274337280396139  |BT| (ROOT (S (NP (PRP (you)))(VP (VBP (give)))(NP (PRP (i)))(VP (NNS (butterfly)))(ADVP (RB (deep)))(PP (RB (inside))))) |ET| 
-1.0121088705269847274337280396139  |BT| (ROOT (S (NP (PRP (you)))(VP (VBP (make)))(NP (PRP (i)))(ADJP (JJ (sick))))) |ET| 
-1.0121088705269847274337280396139  |BT| (ROOT (S (NP (WP (who)))(NP (PRP (you)))(VP (VB (gon))(TO (na))(VB (call))))) |ET| 
-1.0121088705269847274337280396139  |BT| (ROOT (S (NP (PRP (i)))(VP (VBP (need))(TO (to))(VB (get)))(NP (DT (a))(JJ (fucking))(NN (nuke))))) |ET| 
1.0121088705269847274337280396139  |BT| (ROOT (S (NP (NNP (superbowl))))(S (NP (NNP (go))(VBZ (packer))))(S (NP (NNP (d))))) |ET| 
1.0121088705269847274337280396139  |BT| (ROOT (S (NP (DT (the))(JJR (faster))(NN (driver)))(VP (VBZ (get)))(NP (DT (the))(NN (right)))(PP (IN (of)))(NP (NN (way))))) |ET| 
1.0121088705269847274337280396139  |BT| (ROOT (S (NP (NN (softball)))(PP (IN (in)))(NP (DT (the))(NN (morning))))(S (NP (NN (football)))(PP (IN (in)))(NP (DT (the))(NN (afternoon))))(S (NP (WP (what)))(VP (MD (could))(VB (be)))(ADJP (JJR (better))))) |ET| 
-1.0121088705269847274337280396139  |BT| (ROOT (S (NP (NNP (please))(NNP (lord))))(S (NP (NNP (help))(NNP (my))(VBD (throat))(TO (to))(NNP (feel))(NNP (better))))) |ET| 
-1.0121088705269847274337280396139  |BT| (ROOT (S (NP (NNP (twas))(NNP (all))(NNP (my))(NNP (fault))))(S (NP (UH (;{))))) |ET| 
-1.0121088705269847274337280396139  |BT| (ROOT (S (NP (PRP$ (my))(NN (room)))(VP (VBZ (be)))(ADJP (JJ (spotless))))(S (NP (VB (yay))))(S (NP (CD (51))(NNS (day))))) |ET| 
0.65053147546568657055843232228654  |BT| (ROOT (S (NP (JJ (estuve))(NN (perdida))(NN (pero)))(NP (PRP (he)))(VP (NN (vuelto))))) |ET| 
1.0121088705269847274337280396139  |BT| (ROOT (S (NP (MD (can)))(VP (VB (wait))(TO (to))(VB (get)))(PRT (RP (out)))(NP (DT (this))(JJ (shit))(NN (hole))))) |ET| 
0.7069915865630771456551428855164  |BT| (ROOT (S (NP (PRP (i)))(ADVP (RB (never)))(VP (VBD (think)))(NP (PRP (i)))(VP (MD (would))(VB (say)))(NP (DT (this))))) |ET| 
-1.0121088705269847274337280396139  |BT| (ROOT (S (NP (DT (this))(NN (shit)))(VP (VBZ (be))(VBG (go)))(PRT (RP (down)))(NP (NN (hill))))) |ET| 
-1.0121088705269847274337280396139  |BT| (ROOT (S (VP (VBD (piss)))(PRT (RP (off))))) |ET| 
-0.85182232598730611705661885935115  |BT| (ROOT (S (VP (VBN (get))(NN (ta))(VBP (get)))(NP (DT (some))(NN (nap))))) |ET| 
0.96072903041505175458780740882503  |BT| (ROOT (S (NP (NN (ano))(NN (kaya))(VBZ (ireregalo))(NN (ko))))(S (NP (VBP (hmm))))) |ET| 
1.0121088705269847274337280396139  |BT| (ROOT (S (NP (VBZ (love))(JJ (retail))(NN (therapy))))(S (NP (VBD (<))(CD (3))))) |ET| 
1.0121088705269847274337280396139  |BT| (ROOT (S (NP (JJ (last))(NN (night)))(VP (VBD (be)))(NP (NNP (so))(NN (fun))))(S (NP (NNP (d))))) |ET| 
-1.0121088705269847274337280396139  |BT| (ROOT (S (NP (JJ (quien)))(ADVP (NN (quiere)))(VP (VBP (ir)))(NP (DT (a))(NNP (mundo))(NNP (jur)))(PP (NN (sico)))(NP (NN (conmigo))))(S (NP (NNP (d))))) |ET| 
-1.0121088705269847274337280396139  |BT| (ROOT (S (NP (NNP (drops)))(PP (IN (of)))(NP (NNP (jupiter)))(PP (IN (by)))(NP (NNP (train)))(VP (VBZ (give)))(NP (PRP (i)))(NP (VBZ (chill)))(NP (DT (every))(NN (time)))(NP (PRP (i)))(VP (VBP (listen)))(PP (TO (to)))(NP (PRP (it))))(S (NP (NN (something)))(PP (IN (about)))(NP (DT (the))(JJ (poetic))(NNS (lyric))))) |ET| 
-1.0121088705269847274337280396139  |BT| (ROOT (S (VP (RB (grr)))(NP (PRP$ (my))(NN (phone))(NN (dosent)))(VP (VBP (charge)))(NP (DT (any))(JJR (more))))(S (NP (NNP (>)))(NP (NNP (/))))) |ET| 
1.0121088705269847274337280396139  |BT| (ROOT (S (NP (NN (avatar)))(VP (VBZ (be)))(NP (DT (a))(RB (really))(JJ (good))(NN (movie))))) |ET| 
1.0121088705269847274337280396139  |BT| (ROOT (S (VP (VBZ (be)))(VP (VBG (feel)))(ADJP (JJ (creative))))) |ET| 
0.96765802249526300382598265059642  |BT| (ROOT (S (NP (DT (no))(NN (mex)))(VP (VBZ (be))(VBG (lose)))(NP (NN (1-0))))) |ET| 
-0.83005855226903269006299979082542  |BT| (ROOT (S (NP (PRP$ (my))(NN (dinosaur))(NN (name)))(VP (VBZ (beat)))(NP (PRP$ (yours))))) |ET| 
-1.0121088705269847274337280396139  |BT| (ROOT (S (VP (VBZ (be)))(VP (VBG (get)))(ADJP (JJR (stronger))))) |ET| 
-1.0121088705269847274337280396139  |BT| (ROOT (S (NP (FW (i)))(VP (VB (miss)))(NP (PRP$ (my))(NN (record))(NN (player))))) |ET| 
1.0121088705269847274337280396139  |BT| (ROOT (S (VP (JJ (fake)))(NP (PRP (it))))(S (SBAR (NNP (until)))(NP (NNP (u)))(VP (VBP (make)))(NP (PRP (it))))) |ET| 
0.98441774660619463244159987880266  |BT| (ROOT (S (PP (VBD (g20)))(NP (DT (all))(NN (morning)))(PP (IN (for)))(NP (PRP$ (my))(NNP (political))(NNP (science))(NN (class))))(S (VP (VBD (get))(NN (ta))(VB (go)))(ADVP (RB (almost))(RB (late))))(S (VP (VBP (have)))(NP (DT (a))(JJ (great))(NN (day))(NN (everyone))))) |ET| 
1.0035678493176292125355075768312  |BT| (ROOT (S (NP (`` ("))(NNP (we)))(VP (VBP (be)))(NP (NNP (indidginist))(NNP (people)))(PP (IN (of)))(NP (NNP (aotearoa))('' (")))(NP (PRP (you)))(ADVP (RB (sure)))(VP (VBP (be)))(NP (JJ (bubz))))) |ET| 
-0.94248564491951603017128036299255  |BT| (ROOT (S (SBAR (IN (if)))(NP (PRP (you)))(VP (VBP (have))(RB (never))(VBD (lie)))(PP (IN (about)))(NP (NN (anything)))(VP (VB (click))(`` ("))(IN (like))))(S (VP (VB (go)))(ADVP (RB (back)))(VP (VB (click)))(PP (IN (unlike)))(NP (PRP (you)))(VP (VBP (be)))(NP (DT (a))(VBG (lie))(NN (bastard))))) |ET| 
-1.0121088705269847274337280396139  |BT| (ROOT (S (NP (PRP (i)))(ADVP (RB (now)))(VP (VBP (have)))(NP (DT (a))(JJ (little))(NN (sister))))(S (VP (VBN (name)))(NP (NNP (cierra))))) |ET| 
-0.96823895362066647596321899982286  |BT| (ROOT (S (VP (VBZ (feel)))(NP (JJ (great)))(NP (NN (today))))(S (NP (RB (=}))(CC (and)))(ADVP (RB (now)))(NP (PRP (he)))(VP (VBZ (be))(VBG (go))(TO (to))(VB (try))(TO (to))(VB (spread)))(NP (DT (a))(JJ (little)))(PP (IN (of)))(ADVP (DT (that))(RP (around))))) |ET| 
1.0121088705269847274337280396139  |BT| (ROOT (S (PP (IN (like)))(NP (PRP$ (my))(NN (status)))(NP (JJ (ill))(NN (rate))))) |ET| 
0.6943856077294551232270691798476  |BT| (ROOT (S (NP (NNP (taylor))(VBP (maridith))(RB (else)))(NP (JJ (chortle))))) |ET| 
1.0121088705269847274337280396139  |BT| (ROOT (S (NP (NNP (let)))(NP (VBZ (be)))(ADVP (NNP (do))(NNP (this))))) |ET| 
-1.0121088705269847274337280396139  |BT| (ROOT (S (PP (IN (in)))(NP (NN (training)))(NP (DT (all))(NN (day))))) |ET| 
-1.0121088705269847274337280396139  |BT| (ROOT (S (PP (NNP (blackout)))(NP (NNP (not))(NNP (awesome))))) |ET| 
-1.0121088705269847274337280396139  |BT| (ROOT (S (NP (WP (what))(DT (a))(JJ (wonderful))(NN (ca-ric-ature)))(PP (IN (of)))(NP (NN (intimacy))))) |ET| 
1.0121088705269847274337280396139  |BT| (ROOT (S (ADVP (RB (never)))(VP (VB (mind)))(NP (PRP (i)))(VP (VBP (be))(VBG (go)))(PP (TO (to)))(NP (PRP$ (my))(JJ (grandmas))))) |ET| 
0.94831809204669914592500390426721  |BT| (ROOT (S (VP (VBZ (be)))(ADVP (VBN (chillin)))(PP (IN (at)))(NP (NN (home))))(S (NP (NN (mite)))(VP (VB (be))(VBN (goin)))(PRT (RP (out)))(ADVP (RB (later))))(S (VP (VBP (do)))(VP (VB (kno)))(ADVP (RB (yet))))(S (NP (PRP (i)))(VP (VBP (love)))(NP (NNP (u)))(ADJP (NNP (nic))))) |ET| 
0.88914078119735462379935597709846  |BT| (ROOT (S (NP (RB (just)))(VP (VBD (get)))(ADVP (RB (back)))(PP (IN (from)))(NP (NNP (nashua))(VBN (tire)))(PP (IN (as)))(NP (NN (fuck))(CC (and))(JJ (sore))))(S (NP (PRP (i)))(VP (VBD (get))(TO (to))(VB (see)))(NP (PRP$ (my))(NN (wifey)))(SBAR (IN (though)))(NP (JJ (hakuna)))(VP (NNS (:}))(VBP (~)))(NP (CD (9-28-10))(NNS (~))))) |ET| 
-0.98767898962949196572935761651024  |BT| (ROOT (S (VP (VBD (get)))(NP (PRP$ (my))(JJ (full))(NN (licence)))(INTJ (DT (no))(JJR (more))(NN (p)))(NP (POS ('s))))(S (NP (JJS (worst))(VBP (licence))(NN (photo)))(ADVP (RB (ever))))) |ET| 
-1.0121088705269847274337280396139  |BT| (ROOT (S (ADVP (JJ (first)))(VP (TO (na))(NNP (monday)))(NP (NN (ata)))(PP (TO (to)))(VP (TO (na)))(NP (NNS (hindus))(VBP (ako)))(ADVP (JJ (late))))(S (NP (NNP (monday))(NN (rush)))(INTJ (NN (ano))(NN (ka)))(NP (NN (ngayon))))(S (NP (VBD (haha))))(S (NP (JJ (good))(NN (morning))))) |ET| 
-0.98014837856846015462508603377501  |BT| (ROOT (S (ADVP (RB (never)))(VP (VB (be)))(ADJP (JJ (sad)))(PP (IN (for)))(NP (WP (what)))(VP (VBZ (be)))(ADVP (RP (over)))(NP (RB (just)))(VP (VB (be)))(ADJP (JJ (glad)))(SBAR (IN (that)))(NP (PRP (it)))(VP (VBD (be)))(ADVP (IN (once)))(NP (PRP$ (yours))))) |ET| 
0.5727079500073660733860947402718  |BT| (ROOT (S (NP (CD (one)))(PP (IN (of)))(NP (DT (the))(JJS (best))(NNS (weekend)))(PP (IN (in)))(NP (DT (a))(JJ (long))(NN (time))))) |ET| 
1.0121088705269847274337280396139  |BT| (ROOT (S (PP (IN (in)))(NP (NNP (sunny))(NNP (france))))(S (NP (NNP (miss)))(NP (PRP (you)))(ADVP (DT (all)))(NP (RB (especially))(NNP (tom))(NNP (goddard))))) |ET| 
1.0121088705269847274337280396139  |BT| (ROOT (S (NP (CD (two))(NNS (margarita))(CD (one)))(PP (IN (in)))(NP (DT (each))(NN (hand))))) |ET| 
-1.0121088705269847274337280396139  |BT| (ROOT (S (NP (PRP$ (my))(NN (memory)))(VP (VBZ (be))(RB (rapidly))(VBG (deteriorate))))(S (PP (VBG (include)))(NP (DT (the))(NN (memory)))(PP (IN (of)))(NP (PRP (we))))) |ET| 
-1.0121088705269847274337280396139  |BT| (ROOT (S (NP (PRP (i)))(VP (VBP (be))(VBG (go)))(PP (TO (to)))(NP (DT (the))(NN (beach)))(NP (NN (today)))(PP (IN (after)))(NP (NN (work))))(S (NP (PRP (i)))(VP (VBP (intend))(TO (to))(VB (take)))(NP (RB (as))(JJ (many))(NNS (picture)))(SBAR (IN (as)))(NP (PRP (i)))(VP (MD (can))))(S (NP (PRP (i)))(VP (VBP (love)))(NP (PRP (you)))(NP (NNP (florida))))) |ET| 
-1.0121088705269847274337280396139  |BT| (ROOT (S (NP (NNS (feel)))(PP (IN (like)))(NP (PRP (she)))(ADVP (RB (really)))(VP (MD (should))(RB (not))(VB (be))(VBG (watch)))(NP (JJ (many))(JJ (jedward))(NNS (thing)))(PP (IN (on)))(NP (NN (youtube))))) |ET| 
0.83537097351171873960140601411695  |BT| (ROOT (S (NP (VB (grateul)))(NP (NN (today)))(VP (TO (to))(RB (once))(RB (again))(VB (learn)))(NP (NN (humility))))) |ET| 
0.88045371175377951100671225503902  |BT| (ROOT (S (NP (CD (five))(CD (hundred))(JJ (twenty-five))(CD (thousand))(CD (six))(CD (hundred))(NNS (minute))))) |ET| 
1.0121088705269847274337280396139  |BT| (ROOT (S (NP (NN (today)))(VP (VBZ (be))(VBG (go))(TO (to))(VB (be)))(NP (DT (a))(JJ (good))(NN (day))))) |ET| 
-1.0121088705269847274337280396139  |BT| (ROOT (S (NP (JJ (happy))(CD (one))(NNP (month))(NNP (michael))(NNP (huckobey))))) |ET| 
-1.0121088705269847274337280396139  |BT| (ROOT (S (VP (VBZ (be))(VBG (go)))(PP (TO (to)))(NP (DT (the))(JJ (pixel))(NN (porno))(NN (party)))(ADVP (NN (tonight))))) |ET| 
-1.0121088705269847274337280396139  |BT| (ROOT (S (NP (NNP (eid))(NNP (mubarak)))(PP (TO (to)))(NP (PDT (all))(DT (the))(JJ (beautiful))(NNPS (muslims)))(ADVP (IN (out)))(ADVP (EX (there))))) |ET| 
1.0121088705269847274337280396139  |BT| (ROOT (S (SBAR (IN (if)))(NP (NNS (action)))(VP (VBP (be)))(ADJP (JJR (stronger)))(PP (IN (than)))(NP (NNS (word)))(ADVP (WRB (why)))(VP (VBZ (be)))(NP (DT (the))(NN (pen))(NN (mightier)))(PP (IN (than)))(NP (DT (the))(NN (sword))))) |ET| 
1.0121088705269847274337280396139  |BT| (ROOT (S (NP (RB (not))(JJ (sure)))(NP (WP (what)))(VP (TO (to))(VB (do))))(S (NP (WP (what)))(NP (PRP (i)))(VP (VB (do))))(S (PP (VB (txt)))(NP (PRP (i))))) |ET| 
0.97570584837564300340062573013711  |BT| (ROOT (S (NP (PRP$ (my))(NN (weekend)))(VP (VBZ (have))(RB (just))(VBN (start))))(S (NP (NN (stadium))(VBD (tonite)))(NP (JJ (royal))(NN (tomarow)))(NP (NN (church)))(PP (IN (on)))(NP (NNP (sunday))))) |ET| 
-1.0121088705269847274337280396139  |BT| (ROOT (S (NP (JJ (sorry))(NNS (guy)))(NP (PRP (i)))(VP (VBP (be)))(ADVP (RB (back))))(S (NP (NN (xd))))) |ET| 
-0.92777822941339149753758874794585  |BT| (ROOT (S (NP (PRP (i)))(VP (VBD (find)))(PRT (RP (out)))(NP (NN (today)))(VP (VBG (write)))(NP (NNP (xmas)))(VP (VBZ (be))(RB (not))(VBG (take)))(NP (DT (the))(NNP (christ)))(PP (RP (out)))(PP (IN (of)))(NP (NNP (christmas)))(ADVP (IN (after))(DT (all))))(S (ADVP (RB (however)))(NP (PRP (i)))(VP (VBP (think)))(NP (PRP (i)))(VP (VBP (be))(RB (still))(VBG (go))(TO (to))(VB (be))(VBG (write)))(NP (PRP (it)))(PP (IN (as)))(NP (NNP (christmas))))) |ET| 
-1.0121088705269847274337280396139  |BT| (ROOT (S (NP (WP (what)))(NP (DT (a))(JJ (eventful))(NN (trip))(VBP (t))(NNP (tesco)))(NP (POS ('s))))(S (VP (VBG (dance)))(ADVP (RP (up)))(ADVP (VBP (n)))(PP (IN (down)))(NP (FW (de))(NNS (aisle))))(S (NP (VB (noice))))) |ET| 
1.0121088705269847274337280396139  |BT| (ROOT (S (NP (NNP (courtney))(NNP (born)))(NP (NNP (karen))(NNP (lorraine)))(VP (SYM (=))(JJS (best)))(NP (NN (story))(NNS (writer)))(ADVP (RB (ever))))) |ET| 
0.96724322440239463016808940665214  |BT| (ROOT (S (PP (TO (to)))(NP (NNP (duncan))(JJ (ok))))) |ET| 
0.82514215618003650121181635768153  |BT| (ROOT (S (NP (VBD (babysit)))(PP (IN (for)))(NP (CD (4))(NNS (kid)))(NP (NN (tonight))(CD (5-12))(UH (oh))(PRP$ (my))))) |ET| 
-1.0121088705269847274337280396139  |BT| (ROOT (S (VP (VBG (make)))(NP (NN (chocolate))(NNS (cupcake)))(NP (NNP (d))))) |ET| 
-1.0121088705269847274337280396139  |BT| (ROOT (S (NP (RP (up))(NNP (watchin))(NNP (my))(NNP (favorite))(NNP (show)))(NP (NNP (big))(NNP (cat))(NNP (diary))))) |ET| 
-1.0121088705269847274337280396139  |BT| (ROOT (S (ADJP (JJR (better)))(VP (TO (to))(VBP (have)))(NP (DT (a))(JJ (simple))(CC (and))(JJ (peaceful))(NN (life))))) |ET| 
0.99187798030777818425463010498788  |BT| (ROOT (S (NP (PRP (you)))(VP (VBP (be)))(PP (IN (like)))(NP (DT (a))(POS ('))(NN (fun))(POS ('))(NN (vampire))))(S (PP (RB (instead))(IN (of)))(VP (VBG (suck)))(NP (NN (blood)))(NP (PRP (you)))(ADVP (RB (just)))(VP (VBP (suck))))) |ET| 
0.91154867792638694101725604923558  |BT| (ROOT (S (VP (VB (guess)))(NP (WP (what)))(NP (PRP (i)))(VP (VBD (do)))(NP (NN (today))(NNP (south))(NNP (dakota))))(S (NP (NNP (lice))(VBD (shampoo))))) |ET| 
0.79414895137921992507301638397621  |BT| (ROOT (S (NP (PRP (i)))(VP (VBP (swear)))(NP (DT (all))(NNP (ben)))(VP (NNS (need)))(VP (VBZ (be)))(NP (CD (one))(JJR (more))(NN (sack)))(NP (PRP (he)))(VP (VBZ (be)))(ADVP (RP (out))))(S (NP (NNP (take))(NNP (him))(NNP (down))))) |ET| 
-1.0121088705269847274337280396139  |BT| (ROOT (S (NP (NNP (mannn))(PRP (i)))(VP (VBD (know)))(NP (NN (bj)))(VP (VBD (look)))(PP (RP (out)))(PP (IN (of)))(NP (NN (shape))))(S (NP (PRP (he)))(VP (VBZ (need))(TO (to))(VB (listen)))(PP (TO (to)))(NP (PRP$ (he))(NN (corner))))) |ET| 
-1.0121088705269847274337280396139  |BT| (ROOT (S (NP (NN (today)))(VP (VBZ (be)))(NP (DT (the))(JJ (1st))))(S (NP (PRP (i)))(VP (VBP (be)))(ADJP (JJ (ready)))(PP (TO (to)))(NP (VB (kick))(NN (drama)))(PP (IN (in)))(NP (DT (the))(NNS (tooth))))) |ET| 
-1.0121088705269847274337280396139  |BT| (ROOT (S (NP (PRP (you)))(VP (VBP (be))(VBG (stab)))(NP (PRP (you)))(PP (IN (through)))(NP (PRP (he))))) |ET| 
0.83547174149393454989365181972971  |BT| (ROOT (S (NP (VBZ (today)))(NP (DT (a))(NN (cereal))(NN (kinda))(NN (day))))) |ET| 
1.0121088705269847274337280396139  |BT| (ROOT (S (VP (VBG (get)))(NP (VBN (squish))(NN (tomorrow))))) |ET| 
1.0121088705269847274337280396139  |BT| (ROOT (S (NP (NNP (lopettaa))(NN (riemullisen))(NN (raider)))(VP (NNS (iskimisen)))(NP (VBP (t))(NN (lt))(NN (illalta))))) |ET| 
-1.003757826651760609593111439608  |BT| (ROOT (S (NP (VBZ (do)))(VP (NN (anyone))(VB (know)))(SBAR (IN (if)))(NP (DT (a))(NNP (hondo))(JJ (electric))(NN (guitar)))(VP (VBZ (be)))(NP (DT (a))(`` ("))(JJ (good))('' ("))(NN (guitar))))) |ET| 
-0.98473416159274906878096089712926  |BT| (ROOT (S (NP (NNP (im))(NNP (liiiiiiiiikkkkkkkkkkkkkkkkkkkkkkkkkkeeeeeeeeeeeeeeeee))(NNP (so))(NNP (wat))(NNP (im))(NNP (ddddddddddrrrrrrrrrrrruuuuuuuuuuuuuuuunnnnnnnnnnnnnnnnnkkkkkkkkkkkkkkkkk))))) |ET| 
-0.92882810286313399750213193328818  |BT| (ROOT (S (NP (NNP (si)))(VP (NN (mi)))(NP (NNS (palabra))(NN (dicen))(NN (poco)))(NP (NNS (entonce)))(VP (RB (ven))(NN (pa)))(NP (POS ('))(JJ (demostrarte))(NN (que)))(NP (DT (no))(NN (e)))(VP (NN (todo)))(NP ($ ($))(CD ([))(CD (8)))(NP ('' ('))(VBP (<))(CD (3))(CD (]))))) |ET| 
1.0121088705269847274337280396139  |BT| (ROOT (S (NP (PRP (you)))(VP (VBP (be))(VBG (stab)))(NP (PRP (i)))(PP (IN (through)))(NP (PRP (you))))) |ET| 
0.84739583527422002173778992073494  |BT| (ROOT (S (VP (MD (can))(RB (not))(VB (fall)))(ADVP (RB (back))(RB (asleep))))(S (NP (NN (someone)))(VP (VBZ (be))(VBG (keep)))(NP (PRP (he)))(PRT (RP (up))))) |ET| 
0.97745436942436458860328230002779  |BT| (ROOT (S (VP (VBD (have)))(NP (DT (a))(NN (crapload)))(PP (IN (of)))(NP (NN (fun)))(NP (NN (today))))(S (NP (PRP (we)))(VP (VBP (need))(TO (to))(VB (do)))(NP (DT (this)))(ADVP (RB (again))(RB (sometime))))) |ET| 
-1.0121088705269847274337280396139  |BT| (ROOT (S (NP (PRP (i)))(VP (MD (can))(RB (not))(VB (do)))(NP (NN (homework)))(PP (IN (before)))(NP (NN (dinner))))(S (NP (PRP (i)))(ADVP (RB (just)))(VP (MD (can))))) |ET| 
-1.0121088705269847274337280396139  |BT| (ROOT (S (NP (PRP (i)))(VP (VBP (do))(RB (not))(VB (have)))(NP (DT (any))(NN (reason))))(S (SBAR (IN (because)))(NP (PRP (i)))(VP (VBP (do))(RB (not))(RB (ever))(VBP (need)))(NP (PRP (it))))) |ET| 
-1.0121088705269847274337280396139  |BT| (ROOT (S (NP (DT (all))(PRP (i)))(VP (VBP (want))(VBZ (be)))(NP (PRP (you))))) |ET| 
0.89588077884290029384573017523508  |BT| (ROOT (S (PP (NNP (destiny)))(NP (NNP (heree)))(NP (NNP (hackin)))(NP (POS ('))(NNP (the))(NNP (bro))(NNP (page))))(S (NP (NN (ily))(VBD (bro))))(S (NP (NNP (even))(NNP (though))(NNP (yhu))(VB (get)))(PP (RP (on)))(NP (NNP (my))(NNP (nerves))))) |ET| 
0.95792832915269043869699316928745  |BT| (ROOT (S (ADVP (RB (well)))(PP (VB (peoplei)))(NP (PRP$ (its))(NN (time)))(NP (LS (2)))(VP (VB (shut)))(NP (DT (the))(NNS (shuder)))(PP (IN (on)))(NP (NN (mi))(NNS (eye)))(VP (VB (luv)))(NP (PRP (ya))))) |ET| 
0.99620151389011057929678827349562  |BT| (ROOT (S (VP (VBZ (be)))(NP (DT (a))(JJ (proud))(NN (masochist))(NNP (xd))(NNP (xd)))(VP (NNP (xd))))) |ET| 
-1.0121088705269847274337280396139  |BT| (ROOT (S (VP (VBZ (be)))(NP (NNP (superrtired))(RB (nah))))(S (NP (NNP (hindi)))(VP (VBP (pa)))(NP (JJ (nkakagawa))(NN (ng))(NNS (requirement)))(NP (NNS (awt))))) |ET| 
-0.95175717467076970113026845865534  |BT| (ROOT (S (PP (JJ (aakyat)))(NP (NN (muna)))(NP (NNS (kamus)))(NP (NN (today)))(VP (VBP (ng)))(NP (NNP (baguio/benguet)))(NP (VBG (magpapalamig))(VBG (lang))(NN (ng))(NN (ulo))(, (,))(NN (haha)))(VP (NN (bababa)))(NP (RB (din)))(ADJP (JJ (agad))(NNS (buka))))) |ET| 
-0.86589638778082322900786493846681  |BT| (ROOT (S (NP (NNP (hai))(NN (ma))(JJ (du-te))(NN (si))(CD (ia-mi))(CD (2))(NN (doze)))(PP (FW (de)))(NP (NN (bere))))) |ET| 
0.91179173835526028391029740305385  |BT| (ROOT (S (VP (VB (tell)))(NP (PRP (i)))(NP (NN (something)))(SBAR (WDT (that)))(NP (PRP (i)))(VP (VBP (do))(RB (not))(VB (know))))) |ET| 
0.77437671020956011513902694787248  |BT| (ROOT (S (NP (# (#))(CD (8388)))(NP (VBZ (what))(RP (up))(NN (man)))(NP (PRP (i)))(VP (VBP (miss)))(NP (NN (u))(NNS (guy)))(PP (IN (at)))(NP (NN (job))(NN (corps))))) |ET| 
0.84844893117402275795058130825055  |BT| (ROOT (S (NP (NNS (woman)))(VP (VBP (be)))(NP (JJ (such))(JJ (bad))(NNS (influence)))(NP (PRP (i)))(VP (VBP (swear)))(PP (TO (to)))(NP (NN (god))))) |ET| 
-1.0121088705269847274337280396139  |BT| (ROOT (S (VP (NN (lookin)))(PP (IN (at)))(NP (NNS (picture)))(PP (IN (from)))(NP (JJ (new))(NNS (york.i)))(VP (VB (look)))(ADJP (JJ (different))))) |ET| 
-0.9885629127450349384886862935673  |BT| (ROOT (S (NP (VBP (dont)))(ADVP (RB (really)))(VP (VB (know)))(ADVP (WRB (how)))(NP (VBP (im))(VBG (feel)))(NP (NN (today))))) |ET| 
-0.92266547691812950127143722056644  |BT| (ROOT (S (VP (VB (let)))(NP (PRP (i)))(VP (VB (gasp)))(PP (IN (against)))(NP (PRP$ (you))(NNS (lip)))(VP (TO (to))(VB (say)))(NP (DT (this))(NN (phrase)))(NP (PRP (i)))(VP (VBP (love)))(NP (PRP (you))))) |ET| 
1.0121088705269847274337280396139  |BT| (ROOT (S (NP (DT (the))(NN (refrigerator)))(VP (VBZ (be))(VBN (close)))(NP (DT (the))(NN (jellllooooo)))(NP (POS ('s))(NN (jigglin))))(S (NP (JJ (lakeshow))(NNS (!!))))) |ET| 
0.94998706884674144479419055642211  |BT| (ROOT (S (NP (DT (all))(NN (u))(NN (argentina))(VBP (lovers.hahahahahahah))))(S (PP (IN (in)))(NP (PRP$ (you))(NN (face)))(PP (JJ (;})))(NP (NN (;}))))) |ET| 
0.90226049883152781294626265662373  |BT| (ROOT (S (NP (PRP (you)))(VP (MD (may))(VB (be)))(NP (CD (one)))(PP (TO (to)))(NP (DT (the))(NN (world)))(VP (VB (be)))(NP (DT (the))(NN (world)))(PP (TO (to)))(NP (CD (one))(VBP (<)))(NP (CD (3))(NNP (*))(CD (1-27-11))(NNS (*))))) |ET| 
-1.0121088705269847274337280396139  |BT| (ROOT (S (PP (IN (on)))(NP (DT (the))(NN (rooftop)))(PP (IN (under)))(NP (DT (the))(NN (sky))))) |ET| 
-0.96414245066705572817511438188376  |BT| (ROOT (S (ADVP (WRB (when)))(NP (DT (a))(NN (man)))(VP (VBZ (be)))(PP (IN (in)))(NP (NN (love)))(PP (CC (or)))(PP (IN (in)))(NP (NN (debt)))(NP (NN (someone)))(ADJP (RB (else)))(VP (VBZ (have)))(NP (DT (the))(NN (advantage))))) |ET| 
-0.88477136370794262631989113288  |BT| (ROOT (S (NP (VBP (work))(NN (work))(VB (work))))(S (VP (VB (hope)))(NP (PRP$ (its))(DT (a))(JJ (good))(NN (night))))) |ET| 
0.77488934511550433548165983665967  |BT| (ROOT (S (ADVP (WRB (how)))(NP (FW (i)))(VP (VBP (know)))(SBAR (IN (that)))(NP (PRP (you)))(VP (VBD (be))(VBG (wait)))(PP (IN (for)))(NP (PRP (i))))) |ET| 
0.81645294306333004996645286155399  |BT| (ROOT (S (NP (JJ (sick)))(PP (IN (of)))(VP (NN (b)))(NP (PRP$ (its))(PRP (i)))(PP (IN (against)))(NP (JJ (tha))(NN (world))(NN (rite)))(ADVP (RB (now)))(NP (JJ (fuk))(NNS (friend))))) |ET| 
0.8982580595278966129058062506374  |BT| (ROOT (S (SBAR (FW (i)))(NP (NN (love))(NN (glee)))(ADVP (RB (so))(JJ (much)))(VP (NN (xd))))) |ET| 
-0.94185888403316786465779841819312  |BT| (ROOT (S (NP (NN (ohhh))(VBP (wish)))(VP (FW (i)))(VP (MD (could))(VB (move))(TO (to))(NN (florida)))(SBAR (IN (so)))(NP (FW (i)))(VP (MD (can))(VB (be)))(PP (IN (around)))(NP (PRP$ (my))(JJ (cuban-spanish))(NNS (cousin))))) |ET| 
-1.0092316430849306296835266039125  |BT| (ROOT (S (VP (VBN (leave)))(NP (PRP$ (she))(NN (phone)))(PP (IN (in)))(NP (NNP (kim)))(NP (POS ('s))(NN (bag)))(ADVP (RB (so)))(VP (VBP (do))(RB (not))(VB (bother))(VBG (text)))(NP (PRP (i)))(NP (NN (today))))) |ET| 
-0.98854836674100488025374033895787  |BT| (ROOT (S (VP (JJ (saindo)))(NP (NN (cada))(NN (vez))(VBZ (mai))(JJ (tarde))(IN (de))(JJ (embu.trampo))(NN (que))(NN (n)))(PP (NN (o)))(NP (NN (acaba))(NNS (mai))))) |ET| 
0.8469510308920235042151603011007  |BT| (ROOT (S (VP (VBZ (be)))(ADJP (RP (off)))(UCP (TO (to))(VB (english)))(NP (NN (class)))(PP (IN (at)))(NP (DT (the))(NN (university))))) |ET| 
0.76563826092762465869157040287973  |BT| (ROOT (S (VP (VBZ (be)))(ADVP (RB (back)))(PP (IN (from)))(NP (DT (a))(JJ (lovely))(NN (afternoon)))(PP (IN (with)))(NP (PRP$ (she))(NN (hubby))))(S (NP (DT (the))(RBS (most))(JJ (amazing))(NN (roast))(NN (dinner)))(PP (IN (at)))(NP (DT (the))(NNS (king))(NNS (arm)))(ADVP (RB (then)))(VP (VBD (get)))(NP (NNS (present)))(PP (IN (from)))(NP (NNP (helen))))) |ET| 
0.91946829666455487384268963069189  |BT| (ROOT (S (PP (IN (at)))(NP (DT (the))(NN (hospital)))(PP (IN (with)))(NP (NN (alicium))(VBP (sandoval))))) |ET| 
-0.91989692221893770707197290903423  |BT| (ROOT (S (NP (CD (1))(NN (kiddo)))(PP (IN (at)))(NP (JJ (grandmas))(NN (house))(CD (.1))(NN (kiddo)))(PP (IN (at)))(NP (DT (a))(JJ (sleepover.house)))(ADVP (DT (all)))(PP (TO (to)))(NP (PRP (myself)))(NP (DT (no))(NN (idea)))(NP (WP (what)))(VP (TO (to))(VB (do))))) |ET| 
-0.9919917523045098661782503768336  |BT| (ROOT (S (NP (DT (some))(WRB (how))(VBG (look)))(PP (IN (at)))(NP (NNP (max)))(NP (PRP (i)))(ADVP (RB (really)))(VP (VBP (want)))(NP (NN (taco))(NN (bell))))) |ET| 
-0.95464066161849592262456098978873  |BT| (ROOT (S (VP (VB (let))(VB (go)))(PP (IN (of)))(NP (DT (the))(VBN (fade)))(SBAR (IN (so)))(NP (EX (there)))(VP (VBZ (be)))(NP (NN (room)))(SBAR (IN (for)))(NP (DT (the))(JJ (vibrant))))) |ET| 
0.83604722642915185737422234524274  |BT| (ROOT (S (NP (NNS (kandi)))(VP (MD (may))(VB (demeo)))(VP (VB (>)))(NP (JJ (pure))(NN (genius))))) |ET| 
0.83016321161468109579573138034903  |BT| (ROOT (S (VP (VBN (finish)))(NP (PRP$ (my)))(PP (FW (per)))(NP (NNS (reading))))(S (NP (NNS (head)))(VP (VBG (bang)))(NP (NN (cus)))(PP (IN (of)))(NP (PRP (they))))) |ET| 
0.64133346749775821393768637790345  |BT| (ROOT (S (ADVP (NNS (xma))(RB (just)))(VP (VB (hurry)))(PP (RP (on)))(NP (VB (get))(NN (di)))(VP (NN (shit)))(ADVP (RP (over)))(NP (VBN (do))(NN (wit)))(UCP (NN (lik))))) |ET| 
-0.9009992815494997087100159660622  |BT| (ROOT (S (NP (NN (today)))(VP (VBD (be)))(ADJP (RB (quite)))(NP (DT (the))(NN (day)))(ADVP (IN (as)))(NP (JJS (most)))(PP (IN (of)))(NP (PRP (you)))(VP (VBP (kno)))(NP (WP (what)))(VP (VBZ (have))(VBN (be))(VBG (go)))(PP (RP (on))))(S (VP (VBN (manage))(TO (to))(VB (get)))(NP (DT (a))(NN (place)))(PP (RB (so)))(NP (VBZ (everything)))(VP (VBG (go)))(NP (VB (work)))(PRT (RP (out))))(S (NP (JJ (thx))(NNS (guy)))(PP (IN (for)))(NP (PRP$ (you))(NN (support))))) |ET| 
-1.0121088705269847274337280396139  |BT| (ROOT (S (NP (NNP (del))(NNP (taco))(VBD (<))(CD (3))))) |ET| 
-1.0121088705269847274337280396139  |BT| (ROOT (S (NP (NNP (rikki))(NNP (tikki))(VBZ (tavi)))(ADVP (WRB (where)))(NP (SYM (r))(VBP (u))))) |ET| 
0.79377499491678304988084846627316  |BT| (ROOT (S (NP (NNP (mehhr)))(NP (VBP (miss))(NN (winsor)))(NP (POS ('s))(NN (cming)))(VP (TO (to))(VB (see)))(NP (PRP (i)))(PP (IN (on)))(NP (NNP (tuesday))))(S (NP (NNP (:o)))(NP (NNP (/))))) |ET| 
0.8008094066830925283895226129971  |BT| (ROOT (S (NP (VB (teach)))(VP (PRP (i)))(ADVP (WRB (how)))(VP (TO (to))(VB (dougie)))(NP (NNP (gabby))(NNP (duran))(-LRB- (-lrb-)))(NP (NN (haha))))) |ET| 
0.83099548908734810481746535515413  |BT| (ROOT (S (VP (VBN (stress))(NN (ta))(NN (vera))(NN (eee)))(NP (NNP (s)))(NP (NNP (s)))(ADVP (JJ (eeeeagerly)))(NP (NN (lkng))(VBN (frwd)))(PP (IN (for)))(NP (DT (the))(JJ (next))(NN (weekend))))) |ET| 
-1.0121088705269847274337280396139  |BT| (ROOT (S (PP (IN (off)))(PP (TO (to)))(NP (VB (walmart.got)))(NP (DT (a))(NN (giggle))(JJS (fest)))(VP (TO (to))(VB (feed))))(S (NP (-LRB- (-lrb-)))(VP (VBN (get))(TO (to))(NN (love)))(NP (NNS (sleepover))))) |ET| 
-1.0121088705269847274337280396139  |BT| (ROOT (S (NP (NN (cant))(VB (wait)))(PP (IN (for)))(NP (NN (tonight))))(S (NP (NNP (d))))) |ET| 
-0.94419356440537494101761240017368  |BT| (ROOT (S (VP (VBZ (be))(VBG (cancel)))(NP (DT (the))(NN (weekend.if)))(NP (PRP (i)))(VP (VBP (have))(TO (to))(VB (work)))(ADVP (RB (then)))(NP (NN (everyone)))(ADJP (RB (else)))(VP (VBZ (have))(TO (to))(VB (suffer)))(ADVP (RB (too))))) |ET| 
0.94009902966940139812379584327573  |BT| (ROOT (S (NP (NNP (est))(FW (de))(NNP (retour))(FW (en))(NNP (france))))) |ET| 
0.88383436160040373952284653569222  |BT| (ROOT (S (NP (NNP (anger))(VBZ (bleed))(NN (progress))))) |ET| 
0.88784917687201014846465341179282  |BT| (ROOT (S (NP (RB (just))(DT (a))(NN (average))(VBD (dora))))) |ET| 
-1.0121088705269847274337280396139  |BT| (ROOT (S (NP (NNS (sorpresa))(VBP (te))(NNP (da))(FW (la))(NNP (vida))))) |ET| 
-1.0121088705269847274337280396139  |BT| (ROOT (S (NP (VBG (poke)))(VP (VBZ (be)))(ADJP (RB (so))(JJ (tiring))))) |ET| 
-1.0121088705269847274337280396139  |BT| (ROOT (S (NP (PRP (i)))(VP (VBP (be)))(NP (NNP (peter))(NNP (pan)))(NP (DT (the))(NNP (wizard))))) |ET| 
0.86257045449710845197444086807081  |BT| (ROOT (S (NP (CD (1))(NN (ng))(NN (y))(VBP (m?t))(RB (m?i))(VBG (nh?ng))(JJ (r?t)))(PP (NN (th)))(NP (NN (v))))(S (NP (NNP (d))))) |ET| 
0.76463337041665846438576181753888  |BT| (ROOT (S (NP (FW (i)))(VP (RB (am)))(NP (DT (a))(NN (fan)))(PP (IN (of)))(NP (NN (way)))(PP (TO (to)))(NP (JJ (many))(NNS (page)))(PP (IN (like)))(NP (IN (about))(CD (500))(NN (lol)))(NP (NNP (p))))) |ET| 
1.0121088705269847274337280396139  |BT| (ROOT (S (VP (VBZ (be)))(NP (JJ (headin))(NN (home))))(S (NP (JJ (happy))(NNS (mother))(NN (day)))(PP (TO (to)))(NP (PRP$ (my))(JJ (wonderful))(NN (mother))))(S (NP (FW (i))(NN (love)))(NP (PRP (you))))) |ET| 
