SVM-light Version V5.01-TK-1.4.3_smoothing
5 # kernel type
3 # kernel parameter -d 
1 # kernel parameter -g 
1 # kernel parameter -s 
1 # kernel parameter -r 
empty# kernel parameter -u 
0.4 # kernel parameter -L 
1 # kernel parameter -T 
T # kernel parameter -C 
1 # kernel parameter -F 
1 # kernel parameter -S 
0.400000 # kernel parameter -M 
3 # kernel parameter -N 
S # kernel parameter -V 
S # kernel parameter -W 
 # kernel parameter -G 
1.000000 # similarity threshold -H 
1.000000 # terminal factor -X 
empty # matrix path -P 
empty # cache path -Z 
1000000 # cache size -A 
10000000 # cache max size -B 
0.500000 # refresh factor -D 
10 # highest feature index 
4000 # number of training documents 
1754 # number of support vectors plus 1 
-3.9045422 # threshold b, each following line is a SV (starting with alpha*y)
-1.0121088705269847274337280396139  |BT| (ROOT (S (NP (NNP (time)))(PP (IN (for)))(NP (DT (that))(JJ (good))(JJ (old))(NN (cat)))(PP (VBP (nap.txt)))(NP (PRP (it))))) |ET| 
-1.0121088705269847274337280396139  |BT| (ROOT (S (NP (NNP (kinda))(JJ (sad))(NN (tonight)))(VP (VBG (miss)))(NP (DT (some)))(PP (IN (of)))(NP (PRP$ (my))(JJ (old))(NNS (friend)))(ADVP (WRB (where)))(VP (VBZ (have)))(NP (DT (the))(NN (time)))(VP (VBN (go))))) |ET| 
-1.0121088705269847274337280396139  |BT| (ROOT (S (NP (VB (stop))(VBG (think))(JJ (bad))(NNS (thing)))(PP (IN (about)))(NP (PRP (i))))) |ET| 
-1.0121088705269847274337280396139  |BT| (ROOT (S (NP (NNP (im))(NNP (checkin))(NNP (out))(NNP (yo))(NNP (swagger))(NNP (baby))(NNP (girl))(NNP (u))(NNP (can))(VB (get))(PRP (it))))) |ET| 
-1.0121088705269847274337280396139  |BT| (ROOT (S (NP (NNP (ya))(PRP (i)))(VP (VBD (get)))(NP (PRP$ (my))(NN (car))(NN (seat))(NN (reimbursement))(NN (check))))(S (NP (JJ (new))(NN (car))(NNS (seat)))(ADVP (RB (here)))(NP (PRP (we)))(VP (VBP (come))))) |ET| 
1.0121088705269847274337280396139  |BT| (ROOT (S (NP (VB (fight))(NN (terror)))(VP (TO (to))(VB (defend)))(NP (NN (freedom)))(SBAR (IN (so)))(NP (PRP (you)))(VP (MD (can))(VB (buy)))(NP (JJR (more))(NN (stuff))))) |ET| 
1.0121088705269847274337280396139  |BT| (ROOT (S (NP (FW (i)))(VP (VB (spend)))(NP (RB (too))(JJ (much))(NN (time)))(PP (IN (on)))(NP (DT (the))(NN (computer))))(S (NP (DT (the))(NN (sky)))(VP (VBZ (spend)))(NP (RB (too))(JJ (much))(NN (time)))(VP (VBG (cry))))) |ET| 
1.0121088705269847274337280396139  |BT| (ROOT (S (NP (NN (u)))(VP (NN (hav))(VBD (get))(RB (ta))(VB (be))(VBN (kiddin)))(NP (PRP (i))))) |ET| 
1.0121088705269847274337280396139  |BT| (ROOT (S (NP (NNP (la))(NN (voz))(NN (humana)))(NP (DT (no))(JJ (puede)))(PP (NN (alcanzar))(FW (la))(NN (distancium))(FW (de))(FW (la))(NN (vocecillum))(FW (de))(FW (la))(NN (conciencium))(-LRB- (-lrb-))(NNP (gandhi))))) |ET| 
-1.0121088705269847274337280396139  |BT| (ROOT (S (NP (NN (nothing)))(VP (MD (can))(VB (kill)))(NP (NN (joy)))(ADVP (RBR (more))(RB (quickly)))(NP (DT (the))(DT (a))(JJ (unforgiving))(NN (spirit))))) |ET| 
-1.0121088705269847274337280396139  |BT| (ROOT (S (NP (RB (just))(VBD (give))(NN (blood))(CC (and))(JJ (colstons))(NN (trippin))))(S (NP (PRP$ (he))(JJ (fat))(NN (@ss)))(VP (MD (should))(VB (give)))(NP (NN (blood))))) |ET| 
-1.0121088705269847274337280396139  |BT| (ROOT (S (NP (NNP (tomorrow))(NN (night)))(VP (VBZ (be)))(NP (JJ (thee))(NN (night))))) |ET| 
0.95569530786770584551703677789192  |BT| (ROOT (S (NP (JJ (good))(NN (morning))(NN (world)))(NP (DT (all)))(NP (WP (who)))(VP (VBP (inhabit)))(NP (PRP (it))))) |ET| 
1.0121088705269847274337280396139  |BT| (ROOT (S (ADVP (RB (finally))(VBP (back)))(PP (IN (in)))(NP (NNP (birmingham))))) |ET| 
1.0121088705269847274337280396139  |BT| (ROOT (S (VP (RB (bet)))(NP (PRP (she)))(VP (VBZ (like)))(NP (PRP (it)))(PP (IN (in)))(NP (NN (da))(NN (butt))))) |ET| 
-1.0121088705269847274337280396139  |BT| (ROOT (S (ADVP (RB (well))(RB (back)))(PP (IN (in)))(NP (NNP (florida)))(ADVP (RB (now)))(NP (PRP (i)))(VP (VBP (think)))(NP (PRP (i)))(VP (VBD (bring)))(NP (DT (the))(JJ (cold))(NN (weather)))(PP (IN (with)))(NP (PRP (i))))) |ET| 
-1.0121088705269847274337280396139  |BT| (ROOT (S (VP (VBZ (be)))(ADJP (RB (so))(JJ (happy)))(NP (PRP (it)))(VP (VBZ (be)))(NP (NN (home))(NN (time)))(PP (IN (in)))(NP (DT (a))(JJ (few))(NNS (minute))))(S (NP (VB (yipeeeeeee))))) |ET| 
-1.0121088705269847274337280396139  |BT| (ROOT (S (VP (VBG (let)))(NP (NNS (people)))(ADVP (RP (down)))(VP (VBZ (be)))(PP (RB (apart)))(PP (IN (of)))(NP (NN (life))))(S (NP (PRP (you)))(VP (VBP (have))(TO (to))(VB (learn)))(PP (TO (to)))(NP (VB (love))(NNS (people)))(NP (DT (no))(NN (matter)))(NP (WP (what)))(NP (NNS (mistake)))(VP (VBD (be))(VBN (make))))(S (NP (NNP (love))(CC (and))(VB (move)))(PP (RP (on))))) |ET| 
1.0121088705269847274337280396139  |BT| (ROOT (S (NP (JJ (wonderful))(NN (time)))(PP (IN (with)))(NP (NNS (friend))(CC (and))(NN (music))))(S (ADVP (RB (now)))(NP (DT (a))(NN (day)))(PP (IN (of)))(NP (JJ (spiritual))(NN (regeneration))))) |ET| 
1.0121088705269847274337280396139  |BT| (ROOT (S (NP (NNP (temple))(NNP (grandin)))(VP (VBZ (be)))(NP (DT (a))(RB (really))(JJ (good))(NN (movie))))(S (NP (PRP (i)))(ADVP (RB (honestly)))(VP (VBP (tear)))(PRT (RP (up)))(NP (DT (a))(JJ (few))(NNS (time))))) |ET| 
1.0121088705269847274337280396139  |BT| (ROOT (S (VP (VBZ (smell)))(PP (IN (like)))(NP (NN (chocolate))))(S (NP (NN (hahaha))))) |ET| 
-1.0121088705269847274337280396139  |BT| (ROOT (S (NP (NN (everything)))(VP (MD (may))(VB (be))(VBG (fall)))(PP (IN (into)))(NP (NN (place))))(S (NP (VBN (excite)))(PP (IN (for)))(NP (NNP (thursday))))(S (VP (VBG (find)))(PP (RP (out)))(NP (DT (the))(NN (sex))))) |ET| 
-1.0121088705269847274337280396139  |BT| (ROOT (S (NP (NNS (feel)))(VP (VBN (betray)))(PP (IN (by)))(NP (NN (everyone))))) |ET| 
-1.0121088705269847274337280396139  |BT| (ROOT (S (NP (DT (the))(NNS (item)))(NP (PRP (you)))(VP (VBP (make)))(PP (IN (for)))(NP (PRP$ (you))(CD (5))(NNS (responder)))(VP (MD (must))(VB (be))(VBN (make)))(PP (IN (by)))(NP (PRP (you)))(ADVP (RB (personally))))) |ET| 
1.0121088705269847274337280396139  |BT| (ROOT (S (NP (NNP (yay))(PRP$ (my))(NN (nose)))(VP (VBD (stop))(VBG (twitch)))(NP (SYM (=))(NNP (dd))))) |ET| 
1.0121088705269847274337280396139  |BT| (ROOT (S (NP (PRP (i)))(VP (VBZ (have)))(NP (NNP (friday))(NN (school)))(NP (NN (tomorrow))(JJ (weak))))) |ET| 
1.0121088705269847274337280396139  |BT| (ROOT (S (NP (NN (wow)))(VP (VBD (buy)))(NP (PRP$ (my))(JJ (first))(NN (webcam)))(NP (DT (this)))(VP (VBZ (be)))(NP (NN (fuckin))(NN (kool))))) |ET| 
-1.0121088705269847274337280396139  |BT| (ROOT (S (NP (NN (e)))(VP (VBZ (drive)))(NP (PRP (i)))(ADJP (JJ (crazy))))) |ET| 
-1.0121088705269847274337280396139  |BT| (ROOT (S (NP (WP (what)))(NP (DT (a)))(VP (VBP (win)))(NP (JJ (!!!!!!!!!!!!!!!!))))) |ET| 
-1.0121088705269847274337280396139  |BT| (ROOT (S (NP (DT (a))(NN (strawberry)))(VP (VBZ (be)))(NP (DT (a))(JJ (actual))(NN (berry)))(NP (DT (a))(NN (banana)))(VP (VBZ (be))))(S (NP (NNP (omg))(VBZ (fact))))) |ET| 
1.0121088705269847274337280396139  |BT| (ROOT (S (NP (VBP (im)))(VP (VBG (drown)))(PP (IN (in)))(NP (NN (math))))) |ET| 
1.0121088705269847274337280396139  |BT| (ROOT (S (ADVP (RB (finally)))(VP (VBD (get))(TO (to))(VB (go)))(PP (TO (to)))(NP (DT (the))(NN (doctor)))(PP (IN (for)))(NP (DT (the))(NN (baby))))(S (NP (NNS (thing)))(VP (VBP (be))(RB (finally))(VBG (go)))(PP (IN (into)))(NP (NN (place))))(S (NP (PRP (i)))(VP (VBP (love)))(NP (PRP (she)))(ADVP (RB (so))(RB (much))))(S (NP (VB (muah))(NNP (ry'anne))))) |ET| 
0.98729808477794311905029189802008  |BT| (ROOT (S (VP (VBD (get))(VBN (pay)))(NP (NNS (plan)))(VP (VBP (be))(VBN (cancel)))(NP (NNS (what)))(VP (VBG (go)))(ADVP (RP (on))(NN (tonight))))) |ET| 
-1.0121088705269847274337280396139  |BT| (ROOT (S (VP (VBG (watch)))(NP (PRP$ (my))(JJ (favorite))(NN (show))))) |ET| 
-1.0121088705269847274337280396139  |BT| (ROOT (S (ADJP (NN (way)))(VP (TO (to))(VB (go)))(NP (VBZ (star))))(S (NP (VB (nice))(NN (job)))(PP (IN (on)))(VP (VBG (put)))(NP (NN (modano)))(VP (TO (to))(NN (shame))))) |ET| 
-1.0121088705269847274337280396139  |BT| (ROOT (S (VP (VBZ (be)))(VP (VBG (go)))(PRT (RP (out)))(VP (TO (to))(VB (eat)))(PP (IN (with)))(NP (PRP$ (he))(NN (baby))))) |ET| 
1.0121088705269847274337280396139  |BT| (ROOT (S (VP (VBZ (be))(VBG (read)))(NP (DT (a))(JJ (good))(NN (book))))) |ET| 
1.0121088705269847274337280396139  |BT| (ROOT (S (VP (VBZ (want)))(NP (DT (a))(NN (car))))) |ET| 
1.0121088705269847274337280396139  |BT| (ROOT (S (NP (VB (beautiful))(DT (a))(JJ (*))(NN (luva))))) |ET| 
-1.0121088705269847274337280396139  |BT| (ROOT (S (VP (VBD (get)))(NP (DT (a))(NN (droid))))) |ET| 
-1.0121088705269847274337280396139  |BT| (ROOT (S (VP (VBZ (want)))(NP (DT (a))(NN (baby))))) |ET| 
-1.0121088705269847274337280396139  |BT| (ROOT (S (NP (WP (what))(DT (a))(JJ (beautiful))(NN (day))))) |ET| 
1.0121088705269847274337280396139  |BT| (ROOT (S (VP (VBG (study)))(PP (IN (for)))(NP (PRP$ (my))(NN (science))(NN (test)))(VP (VBG (do)))(NP (PRP$ (my))(NN (art))(NN (project)))(PP (IN (at)))(NP (RB (once))))(S (NP (FW (i)))(VP (NN (wonder)))(ADVP (WRB (how)))(NP (DT (this)))(VP (MD (will))(VB (pan)))(PRT (RP (out))))) |ET| 
1.0121088705269847274337280396139  |BT| (ROOT (S (ADJP (JJ (tired)))(ADJP (JJ (weary))))(S (ADVP (RB (still)))(VP (MD (can))(RB (not))(VB (fkin)))(NP (VB (sleep))(JJ (~))))) |ET| 
1.0121088705269847274337280396139  |BT| (ROOT (S (NP (NN (re-do)))(PP (IN (of)))(NP (NN (report))))(S (NP (WP (what))(DT (a))(NN (waste)))(PP (IN (of)))(NP (NN (time)))(NP (VBZ (:{))(VBG (send)))(NP (PRP$ (my))(NN (love)))(PP (TO (to))))(S (NP (NNP (tom))(NNP (goddard)))(ADVP (NNP (:}))))) |ET| 
-1.0121088705269847274337280396139  |BT| (ROOT (S (NP (VBZ (be))(RB (not)))(VP (VBG (go)))(PP (TO (to)))(NP (NN (school)))(NP (NN (today))))(S (NP (PRP (you))(NNS (guy)))(VP (MD (will))(VB (find)))(PRT (RP (out)))(ADVP (RB (later))))) |ET| 
-1.0121088705269847274337280396139  |BT| (ROOT (S (VP (VB (go)))(PP (IN (on)))(NP (DT (a))(NN (roller))(NN (coster)))(PP (IN (for)))(NP (DT (the))(JJ (first))(NN (time)))(ADVP (RB (ever)))(NP (NN (today))))(S (NP (JJ (scariest))(NN (thing)))(VP (VBP (ive))(RB (ever))(VBN (do))))(S (NP (PRP (it)))(VP (VBD (be)))(ADVP (NN (alot)))(PP (IN (of)))(NP (NN (fun))))) |ET| 
-1.0121088705269847274337280396139  |BT| (ROOT (S (ADVP (RB (again)))(NP (DT (this))(NN (type)))(PP (IN (of)))(NP (NN (attitude))))(S (NP (NN (dun)))(VP (VBP (wish)))(NP (CD (2)))(VP (VBP (refer)))(NP (WP (who)))(VP (VBZ (be)))(NP (DT (this))))(S (NP (WP (what))(JJ (wrong)))(PP (IN (of)))(VP (VBG (give)))(NP (PRP$ (my))(NN (comment))))(S (NP (JJ (reallie))(NN (ur))(VBD (stupd)))(ADVP (NNP (da)))(NP (NN (xiao))(NN (jie))(NN (attitude)))(PP (VBP (/)))(NP (NN (temper))))(S (VP (VB (piss)))(PRT (RP (off)))(NP (JJ (mi)))(ADVP (NN (nw))))) |ET| 
1.0121088705269847274337280396139  |BT| (ROOT (S (NP (PRP (i)))(VP (VBD (get)))(NP (WP (what)))(NP (PRP (i)))(VP (VBD (give))))) |ET| 
1.0121088705269847274337280396139  |BT| (ROOT (S (NP (EX (there)))(VP (VBZ (be)))(ADVP (RB (always)))(NP (DT (a))(NN (reason)))(VP (TO (to))(NN (smile))))) |ET| 
1.0121088705269847274337280396139  |BT| (ROOT (S (NP (WP (what)))(NP (DT (a))(NN (day))))) |ET| 
-1.0121088705269847274337280396139  |BT| (ROOT (S (NP (NNP (wish)))(SBAR (WDT (that)))(NP (PRP (i)))(VP (VBD (be)))(ADVP (RB (still)))(ADVP (RB (up))(RB (north))))) |ET| 
-1.0121088705269847274337280396139  |BT| (ROOT (S (NP (PRP (i)))(VP (VBP (have)))(NP (DT (the))(JJS (best))(NN (husband)))(ADVP (RB (ever))))) |ET| 
-1.0121088705269847274337280396139  |BT| (ROOT (S (NP (NNS (vamo))(NNP (pa))(NNP (el))(NNP (infierno))(NNP (aunque)))(NP (NNP (no))(NNP (sea))(NNP (eterno))(SYM (=))($ ($))(CD (<))(CD (3))))) |ET| 
1.0121088705269847274337280396139  |BT| (ROOT (S (NP (NN (anyone)))(VP (VBP (want))(TO (to))(VB (hang)))(PRT (RP (out))))) |ET| 
1.0121088705269847274337280396139  |BT| (ROOT (S (NP (NNP (matt))))(S (NP (NNP (jack))))(S (INTJ (NNP (justin))))(S (NP (NNP (dad))))(S (NP (# (#))(CD (39))))) |ET| 
1.0121088705269847274337280396139  |BT| (ROOT (S (VP (VB (meet)))(NP (DT (the))(JJ (fockers))(NN (op))(NN (tv))(NN (yay))))) |ET| 
-1.0121088705269847274337280396139  |BT| (ROOT (S (VP (VBG (go))(TO (to))(NN (austinnnnn))))(S (NP (JJ (telly))(NN (party))(CC (or))(JJ (whaaaattt))))) |ET| 
-1.0121088705269847274337280396139  |BT| (ROOT (S (NP (NN (anyone)))(VP (VBP (want)))(NP (DT (a))(NN (ticket)))(PP (TO (to)))(NP (DT (the))(NNP (megadeth/slayer))(NN (show)))(PP (IN (in)))(NP (NNP (moncton))))(S (VP (VBD (lem)))(NP (PRP (i)))(VP (VB (know)))(SBAR (IN (if)))(ADVP (RB (so))))) |ET| 
-1.0121088705269847274337280396139  |BT| (ROOT (S (NP (NNP (los))(FW (hip))(FW (critas)))(PP (FW (vienen)))(NP (FW (disfrazados)))(PP (FW (de)))(NP (FW (amigos))(FW (-lrb-))))) |ET| 
1.0121088705269847274337280396139  |BT| (ROOT (S (NP (VBD (miss))(CD (3))(NNS (week)))(PP (IN (of)))(NP (NN (church)))(NP (DT (this))(NN (month))))(S (NP (PRP (i)))(VP (VBP (fail)))(NP (JJ (|))))) |ET| 
1.0121088705269847274337280396139  |BT| (ROOT (S (ADVP (WRB (when)))(NP (NN (everything)))(NP (VBZ (be)))(VP (VBG (come)))(NP (PRP$ (you))(NN (way)))(NP (PRP (you)))(VP (VBP (be)))(PP (IN (in)))(NP (DT (the))(JJ (wrong))(NN (lane))))) |ET| 
0.93590885409282897899885256265406  |BT| (ROOT (S (NP (PRP (it)))(VP (VBZ (be)))(NP (RB (just))(CD (one)))(PP (IN (of)))(NP (DT (those))(NNS (day)))(ADVP (WRB (where)))(NP (PRP (you)))(VP (VBP (feel)))(PP (IN (like)))(VP (VBG (punch)))(NP (DT (a))(NN (bitch))))) |ET| 
-1.0121088705269847274337280396139  |BT| (ROOT (S (NP (NNP (weather))(CC (and))(NNP (love)))(VP (VBP (be)))(NP (DT (the))(CD (two))(NNS (element)))(PP (IN (about)))(NP (WDT (which)))(NP (PRP (one)))(VP (MD (can))(RB (never))(VB (be)))(ADJP (JJ (sure))))) |ET| 
-1.0121088705269847274337280396139  |BT| (ROOT (S (NP (PRP (i)))(VP (VBP (miss)))(NP (PRP (you))))) |ET| 
-1.0121088705269847274337280396139  |BT| (ROOT (S (NP (VB (carve))(PRP$ (you))(NN (name)))(PP (IN (into)))(NP (PRP$ (my))(NN (arm))))) |ET| 
1.001667774367569041515935168718  |BT| (ROOT (S (NP (NN (today)))(VP (VBD (be)))(ADJP (RB (quite)))(NP (DT (the))(NN (day)))(ADVP (IN (as)))(NP (JJS (most)))(PP (IN (of)))(NP (PRP (you)))(VP (VBP (kno)))(NP (WP (what)))(VP (VBZ (have))(VBN (be))(VBG (go)))(PP (RP (on))))(S (VP (VBN (manage))(TO (to))(VB (get)))(NP (DT (a))(NN (place)))(PP (RB (so)))(NP (VBZ (everything)))(VP (VBG (go)))(NP (VB (work)))(PRT (RP (out))))(S (NP (JJ (thx))(NNS (guy)))(PP (IN (for)))(NP (PRP$ (you))(NN (support))))) |ET| 
1.0121088705269847274337280396139  |BT| (ROOT (S (SBAR (IN (if)))(NP (VBP (qod)))(ADVP (RB (ever)))(VP (VBN (need)))(NP (DT (a))(NN (anqel)))(NP (PRP (he)))(VP (VBD (make)))(NP (DT (a))(JJ (qreat))(NN (choice))))) |ET| 
1.0121088705269847274337280396139  |BT| (ROOT (S (NP (RB (just)))(VP (VBD (watch)))(NP (DT (the))(NN (girl)))(NP (WP (who)))(VP (VBD (kick)))(NP (DT (the))(JJ (hornets))(NN (nest))('' ("))))(S (NP (JJ (amazing))(NN (movie)))(VP (VBD (be)))(ADVP (RB (also)))(NP (DT (a))(NN (book))))(S (ADVP (RB (absolutely)))(VP (VBD (love)))(NP (PRP (it))))) |ET| 
-1.0121088705269847274337280396139  |BT| (ROOT (S (VP (VBD (have)))(NP (DT (a))(JJ (interesting))(NN (day))))(S (VP (VBD (wrestle)))(NP (DT (a))(VBG (recover))(JJ (alcoholic)))(PP (SYM (@)))(NP (DT (the))(NN (med))(NN (center))))(S (NP (NN (fun))(NN (day))))) |ET| 
-1.0121088705269847274337280396139  |BT| (ROOT (S (VP (VBZ (be)))(ADJP (JJ (glad)))(NP (PRP (he)))(VP (VBD (get)))(NP (DT (the))(NN (job))))) |ET| 
-1.0121088705269847274337280396139  |BT| (ROOT (S (NP (NNP (si)))(VP (NN (mi)))(NP (NNS (palabra))(NN (dicen))(NN (poco)))(NP (NNS (entonce)))(VP (RB (ven))(NN (pa)))(NP (POS ('))(JJ (demostrarte))(NN (que)))(NP (DT (no))(NN (e)))(VP (NN (todo)))(NP ($ ($))(CD ([))(CD (8)))(NP ('' ('))(VBP (<))(CD (3))(CD (]))))) |ET| 
1.0121088705269847274337280396139  |BT| (ROOT (S (NP (PRP (i)))(ADVP (RB (accidentally)))(VP (VBN (irradiate)))(NP (PRP (myself))))) |ET| 
1.0121088705269847274337280396139  |BT| (ROOT (S (NP (PRP (i)))(VP (VB (regret))(CC (or))(VB (ask)))(NP (PRP (myself)))(NP (PRP (you)))(ADJP (VBN (dead)))(ADVP (RB (yet))))) |ET| 
1.0121088705269847274337280396139  |BT| (ROOT (S (NP (NNS (that))(VBP (rele)))(VP (VBN (startin))(TO (to))(VB (bother)))(NP (PRP (i))))) |ET| 
-1.0121088705269847274337280396139  |BT| (ROOT (S (NP (PRP (i)))(ADVP (RB (really)))(VP (MD (could))(VB (do)))(PP (IN (with)))(VP (NNS (seein)))(NP (POS (')))(NP (DT (some))(NNS (friend)))(ADVP (RB (right))(RB (now))))) |ET| 
-1.0121088705269847274337280396139  |BT| (ROOT (S (NP (DT (no))(NN (school)))(NP (NNP (monday))))) |ET| 
-1.0121088705269847274337280396139  |BT| (ROOT (S (ADVP (RB (never)))(VP (VBP (allow)))(NP (NN (someone)))(VP (TO (to))(VB (be)))(NP (PRP$ (you))(NN (priority)))(SBAR (IN (while)))(VP (VBG (allow)))(NP (PRP (yourself)))(VP (TO (to))(VB (be)))(NP (RB (just))(PRP$ (they))(NN (option))))) |ET| 
1.0121088705269847274337280396139  |BT| (ROOT (S (VP (VBD (get)))(NP (NN (money)))(VP (NN (singin)))(PRT (IN (out)))(NP (DT (the))(NN (ass))(NN (bahaha))))) |ET| 
1.0121088705269847274337280396139  |BT| (ROOT (S (PP (IN (on)))(NP (PRP$ (my))(NN (way)))(PP (TO (to)))(NP (DT (the))(NN (beach))))) |ET| 
1.0121088705269847274337280396139  |BT| (ROOT (S (NP (VBZ (techno)))(PP (IN (on)))(NP (DT (the))(NN (weather))(NN (channel))))) |ET| 
-1.0121088705269847274337280396139  |BT| (ROOT (S (NP (DT (a))(NNP (mi))(NNP (me))(NNP (gusta))(NNP (en))(NNP (el)))(PP (NNP (piso)))(NP (VBP (:d))))) |ET| 
-1.0121088705269847274337280396139  |BT| (ROOT (S (VP (VBZ (be)))(ADVP (RB (just)))(VP (JJ (chilling)))(PP (IN (at)))(NP (DT (the))(JJ (apt))))) |ET| 
-1.0121088705269847274337280396139  |BT| (ROOT (S (NP (VB (aint)))(VP (VBN (be))(TO (to))(VB (sleep))(RB (yet))(VBN (get)))(NP (NN (work)))(PP (IN (in)))(NP (CD (10))(NNS (hour))))) |ET| 
0.9631267267951131305636636170675  |BT| (ROOT (S (NP (VB (lol))))(S (NP (NNP (prue)))(VP (VBZ (be))(VBG (go)))(ADJP (JJ (crazy)))(UCP (RB (xd))))) |ET| 
-1.0121088705269847274337280396139  |BT| (ROOT (S (NP (NNS (sumtime)))(ADVP (WRB (when)))(NP (VBP (im)))(VP (JJ (sad)))(PP (IN (like)))(NP (CD (2)))(VP (VBD (cut)))(NP (PRP (myself))))(S (NP (DT (another))(NN (slice)))(PP (IN (of)))(NP (NN (cheesecake))))(S (NP (NNP (xd))(JJ (hehehe))(NN (lolz))))) |ET| 
-1.0121088705269847274337280396139  |BT| (ROOT (S (NP (JJ (quien)))(ADVP (NN (quiere)))(VP (VBP (ir)))(NP (DT (a))(NNP (mundo))(NNP (jur)))(PP (NN (sico)))(NP (NN (conmigo))))(S (NP (NNP (d))))) |ET| 
-1.0121088705269847274337280396139  |BT| (ROOT (S (NP (NNP (hai))(NN (ma))(JJ (du-te))(NN (si))(CD (ia-mi))(CD (2))(NN (doze)))(PP (FW (de)))(NP (NN (bere))))) |ET| 
1.0121088705269847274337280396139  |BT| (ROOT (S (NP (NN (bout))(CD (2))(NN (dip)))(NP (RB (n))(DT (a))(JJ (few))(NNS (minute))))) |ET| 
1.0121088705269847274337280396139  |BT| (ROOT (S (NP (DT (all)))(VP (VBP (fall)))(ADVP (RP (down))))) |ET| 
-1.0121088705269847274337280396139  |BT| (ROOT (S (NP (PRP$ (my))(NN (speech)))(VP (VBD (go)))(ADVP (RB (well))))) |ET| 
-1.0121088705269847274337280396139  |BT| (ROOT (S (NP (PRP (you)))(VP (MD (can))(NN (kiss)))(NP (PRP (i)))(PP (IN (with)))(NP (DT (the))(NNS (window)))(ADJP (JJ (open))))) |ET| 
-1.0121088705269847274337280396139  |BT| (ROOT (S (NP (CD (146))(NNS (point))(FW (i)))(VP (VBD (do)))(ADVP (NNS (alrus))))) |ET| 
1.0121088705269847274337280396139  |BT| (ROOT (S (VP (VB (havin)))(NP (DT (a))(NN (blast)))(PP (IN (as)))(ADJP (JJ (usual))))(S (VP (NNP (love)))(NP (DT (the))(VBZ (peep)))(PP (IN (at)))(NP (JJ (texas))(NN (roadhouse)))(ADVP (RB (now)))(NP (JJ (lovin))(NN (ufc))))(S (ADVP (NNP (totally)))(VP (VBZ (make)))(PRT (RP (up)))(PP (IN (for)))(NP (NN (yesterday))))) |ET| 
0.98222215435604842692640659151948  |BT| (ROOT (S (NP (PRP (i)))(VP (VBD (find)))(PRT (RP (out)))(NP (NN (today)))(VP (VBG (write)))(NP (NNP (xmas)))(VP (VBZ (be))(RB (not))(VBG (take)))(NP (DT (the))(NNP (christ)))(PP (RP (out)))(PP (IN (of)))(NP (NNP (christmas)))(ADVP (IN (after))(DT (all))))(S (ADVP (RB (however)))(NP (PRP (i)))(VP (VBP (think)))(NP (PRP (i)))(VP (VBP (be))(RB (still))(VBG (go))(TO (to))(VB (be))(VBG (write)))(NP (PRP (it)))(PP (IN (as)))(NP (NNP (christmas))))) |ET| 
-1.0121088705269847274337280396139  |BT| (ROOT (S (NP (NN (snow))(VBD (damnit))))(S (NP (PRP (i)))(VP (VBP (need)))(NP (DT (the))(NN (time)))(PRT (RB (off))))) |ET| 
-1.0121088705269847274337280396139  |BT| (ROOT (S (VP (VBZ (be))(VBG (watch)))(NP (NNP (casablanca)))(PP (IN (in)))(NP (NN (bed.sunny)))(NP (NNP (saturday))(NN (morning))(JJ (bliss))))) |ET| 
-1.0121088705269847274337280396139  |BT| (ROOT (S (ADVP (RB (seriously)))(NP (WP (what)))(VP (VBZ (be)))(PP (IN (with)))(NP (DT (the))(NN (crap))(NN (tv))))(S (NP (WP (who)))(ADVP (RB (even)))(VP (VBZ (like)))(NP (WP (who))(NNP (framed))(NNP (roger))(NNP (rabbit))))) |ET| 
1.0121088705269847274337280396139  |BT| (ROOT (S (NP (NN (garlic))(JJS (fest)))(VP (VBD (go)))(ADJP (JJ (great))))) |ET| 
1.0121088705269847274337280396139  |BT| (ROOT (S (VP (VBD (piss)))(PRT (RP (off))))) |ET| 
1.0121088705269847274337280396139  |BT| (ROOT (S (NP (PRP (you)))(ADVP (JJS (best)))(VP (VBP (wear)))(NP (DT (a))(NN (vest)))(SBAR (IN (before)))(NP (FW (i)))(VP (VBD (put)))(NP (CD (two))(VBP (ta))(PRP (ya))(NN (chest))))) |ET| 
-1.0121088705269847274337280396139  |BT| (ROOT (S (NP (NNP (work)))(VP (VBD (be)))(ADJP (JJ (horrible))))) |ET| 
-1.0121088705269847274337280396139  |BT| (ROOT (S (NP (VBP (hate)))(ADVP (WRB (when))(RB (ppl)))(VP (VBP (do))(RB (not))(VB (pick)))(PRT (RP (up)))(NP (PRP$ (they))(NN (phone))))) |ET| 
-1.0121088705269847274337280396139  |BT| (ROOT (S (PP (NNP (blackout)))(NP (NNP (not))(NNP (awesome))))) |ET| 
0.98729243391248611150246006218367  |BT| (ROOT (S (NP (DT (the))(NN (wind)))(VP (VBZ (be))(JJ (freightened)))(SBAR (NN (o.o)))(NP (NN (something)))(VP (VBZ (be)))(ADJP (RB (very))(JJ (wrong))))) |ET| 
1.0121088705269847274337280396139  |BT| (ROOT (S (NP (NNP (oh))(NNP (yes)))(NP (PRP (i)))(VP (VBP (be)))(NP (NNP (finally))(NNP (taller))(IN (than))(NNP (my))(NNP (mom))))(S (NP (NNP (^_^))(NNP (:d))(NNP (:d))))) |ET| 
0.9231936776950764311777675175108  |BT| (ROOT (S (NP (PRP (it)))(VP (VBZ (be)))(ADJP (JJ (good)))(VP (TO (to))(VB (be))(IN (inside))(VBG (watch)))(NP (RB (telly))(VBG (eat))(NN (tomato))(NN (soup)))(VP (VBG (listen)))(NP (DT (the))(NN (rain)))(PP (IN (outside))))) |ET| 
-1.0121088705269847274337280396139  |BT| (ROOT (S (VP (VB (keep))(VBG (smile)))(NP (PRP (it)))(VP (NNS (freak)))(NP (NNS (people)))(ADVP (IN (out))))) |ET| 
-1.0121088705269847274337280396139  |BT| (ROOT (S (SBAR (IN (if)))(NP (PRP (i)))(VP (VBD (have)))(NP (DT (a))(NN (type)))(ADVP (RB (then)))(VP (NN (baby)))(NP (PRP (it)))(VP (MD (would))(VB (be)))(NP (PRP (you))))) |ET| 
-1.0121088705269847274337280396139  |BT| (ROOT (S (NP (NNS (steeler)))(VP (VBG (go))(TO (to))(VB (win)))(VP (VBD (be))(VBG (let)))(NP (PRP (they)))(VP (VB (win))))) |ET| 
1.0121088705269847274337280396139  |BT| (ROOT (S (NP (NNP (encuentran))(NNP (muerto)))(PP (FW (en)))(NP (NNP (iowa)))(NP (DT (a))(NN (bajista)))(PP (NNP (de)))(NP (NNP (grupo))(NNP (slipknot))))) |ET| 
1.0121088705269847274337280396139  |BT| (ROOT (S (ADVP (RB (back)))(VP (NN (home)))(SBAR (IN (after)))(NP (CD (two))(JJ (free))(NN (voice))(NNS (lesson)))(NP (NN (today)))(NP (NN (woop))(VBD (woop))))) |ET| 
-1.0121088705269847274337280396139  |BT| (ROOT (S (ADVP (RB (finally)))(VP (VBG (get))(TO (to))(VB (bake)))(NP (DT (a))(NN (cake)))(PP (IN (with)))(NP (NNP (libby))(NNP (lobster)))(NP (NN (today))))) |ET| 
-1.0121088705269847274337280396139  |BT| (ROOT (S (NP (FW (i)))(ADVP (RB (never)))(VP (VBP (understand)))(ADVP (WRB (why)))(NP (FW (i)))(VP (VB (make)))(NP (DT (a))(JJ (good))(`` ("))(JJ (gay))('' ("))(NN (friend))))) |ET| 
-1.0121088705269847274337280396139  |BT| (ROOT (S (SBAR (IN (after)))(NP (NN (exam)))(NP (PRP (i)))(VP (MD ('ll))(VB (have)))(NP (DT (a))(JJ (different))(NN (hair))(NN (colour))))) |ET| 
1.0121088705269847274337280396139  |BT| (ROOT (S (NP (PRP (i)))(VP (VBP (be)))(ADJP (JJ (sorry)))(NP (PRP (i)))(VP (VBD (be))(RB (not))(VBG (listen))))(S (NP (PRP (you)))(ADVP (RB (really)))(VP (MD (must))(VB (try))(CC (and))(VB (be)))(ADJP (RBR (more))(JJ (interesting))))) |ET| 
1.0106873552967305940342157555278  |BT| (ROOT (S (NP (PRP (we)))(VP (MD (can))(RB (not))(VB (solve)))(NP (PRP$ (we))(NNS (problem)))(PP (IN (with)))(NP (DT (the))(JJ (same))(NN (thinking)))(NP (PRP (we)))(VP (VBD (use)))(ADVP (WRB (when)))(NP (PRP (we)))(VP (VBD (create)))(NP (PRP (they))))) |ET| 
0.86105131905156662153189017772092  |BT| (ROOT (S (NP (PRP (it)))(VP (VBZ (have))(VBN (snow)))(ADVP (RB (twice)))(NP (PRP (it)))(VP (VBZ (be)))(ADJP (RB (only))(NNP (october)))(ADVP (JJ (15th))))(S (VP (VB (bullshit))))(S (NP (NNP (weatherman)))(NP (PRP (i)))(VP (MD (will))(VB (kill)))(NP (PRP (you))))) |ET| 
-1.0121088705269847274337280396139  |BT| (ROOT (S (NP (POS ('))(VBP (ti))(RB (not))(NN (happiness)))(SBAR (IN (that)))(NP (PRP (i)))(VP (VBP (feel))))) |ET| 
-1.0121088705269847274337280396139  |BT| (ROOT (S (VP (VBZ (be))(VBG (cancel)))(NP (DT (the))(NN (weekend.if)))(NP (PRP (i)))(VP (VBP (have))(TO (to))(VB (work)))(ADVP (RB (then)))(NP (NN (everyone)))(ADJP (RB (else)))(VP (VBZ (have))(TO (to))(VB (suffer)))(ADVP (RB (too))))) |ET| 
-1.0121088705269847274337280396139  |BT| (ROOT (S (SBAR (IN (if)))(NP (PRP (you)))(VP (MD (can))(RB (not))(VB (beat)))(NP (PRP ('em))(VBP (arrange)))(VP (TO (to))(VB (have)))(NP (PRP (they)))(VP (VBN (beat))))) |ET| 
1.0121088705269847274337280396139  |BT| (ROOT (S (NP (NN (nothing)))(VP (TO (to))(VB (say))))) |ET| 
1.0121088705269847274337280396139  |BT| (ROOT (S (VP (NN (lookin)))(PP (IN (at)))(NP (NNS (picture)))(PP (IN (from)))(NP (JJ (new))(NNS (york.i)))(VP (VB (look)))(ADJP (JJ (different))))) |ET| 
1.0121088705269847274337280396139  |BT| (ROOT (S (NP (NNP (vassar))(RB (college))(CD (2014))))) |ET| 
-1.0121088705269847274337280396139  |BT| (ROOT (S (NP (NNS (sorpresa))(VBP (te))(NNP (da))(FW (la))(NNP (vida))))) |ET| 
-1.0121088705269847274337280396139  |BT| (ROOT (S (NP (NNP (happy))(VBP (independence))(NNP (day))))) |ET| 
-1.0121088705269847274337280396139  |BT| (ROOT (S (VP (VB (hang)))(PRT (RP (out)))(PP (IN (with)))(NP (NN (skyler))))) |ET| 
1.0121088705269847274337280396139  |BT| (ROOT (S (NP (PRP (i)))(VP (VBD (have)))(NP (DT (a))(JJ (awesome))(NN (day))))) |ET| 
0.98171353306229203194988031100365  |BT| (ROOT (S (NP (WP (what)))(VP (VBP (do)))(NP (PRP (you)))(VP (VB (get)))(ADVP (WRB (when)))(NP (PRP (you)))(VP (VBP (cross)))(NP (DT (a))(JJ (brown))(NN (chicken)))(PP (IN (with)))(NP (DT (a))(JJ (brown))(NN (cow))))(S (NP (VBD (brownchickenbrowncow))))(S (PP (IN (like)))(NP (DT (this)))(SBAR (IN (if)))(NP (PRP (you)))(VP (VBP (get)))(NP (PRP (it))))) |ET| 
-1.0121088705269847274337280396139  |BT| (ROOT (S (NP (PRP (i)))(VP (VBD (have)))(NP (DT (a))(JJ (bad))(NN (day))))) |ET| 
-1.0121088705269847274337280396139  |BT| (ROOT (S (PP (IN (off)))(PP (TO (to)))(NP (VB (walmart.got)))(NP (DT (a))(NN (giggle))(JJS (fest)))(VP (TO (to))(VB (feed))))(S (NP (-LRB- (-lrb-)))(VP (VBN (get))(TO (to))(NN (love)))(NP (NNS (sleepover))))) |ET| 
-1.0121088705269847274337280396139  |BT| (ROOT (S (NP (CD (1))(NN (kiddo)))(PP (IN (at)))(NP (JJ (grandmas))(NN (house))(CD (.1))(NN (kiddo)))(PP (IN (at)))(NP (DT (a))(JJ (sleepover.house)))(ADVP (DT (all)))(PP (TO (to)))(NP (PRP (myself)))(NP (DT (no))(NN (idea)))(NP (WP (what)))(VP (TO (to))(VB (do))))) |ET| 
1.0121088705269847274337280396139  |BT| (ROOT (S (NP (DT (these))(NNS (wound)))(VP (VBP (be)))(NP (NN (self)))(VP (VBN (inflict))))) |ET| 
0.88907881633594409986898199349525  |BT| (ROOT (S (VP (VBG (watch)))(NP (JJ (old))(NNS (christmas))(CC (and))(NN (star))(NNS (war))(NNS (movie))))) |ET| 
1.0121088705269847274337280396139  |BT| (ROOT (S (NP (NN (insider)))(PP (IN (with)))(NP (NN (laura)))(NP (NNS (boy))(NNS (boy))(NNS (boy)))(VP (NN (gosh)))(NP (FW (i)))(VP (VBP (love)))(NP (PRP (she))))) |ET| 
-1.0121088705269847274337280396139  |BT| (ROOT (S (VP (VBZ (say)))(NP (NNP (au))(NNP (revoir))))) |ET| 
-1.0121088705269847274337280396139  |BT| (ROOT (S (ADVP (JJ (first)))(VP (TO (na))(NNP (monday)))(NP (NN (ata)))(PP (TO (to)))(VP (TO (na)))(NP (NNS (hindus))(VBP (ako)))(ADVP (JJ (late))))(S (NP (NNP (monday))(NN (rush)))(INTJ (NN (ano))(NN (ka)))(NP (NN (ngayon))))(S (NP (VBD (haha))))(S (NP (JJ (good))(NN (morning))))) |ET| 
-1.0121088705269847274337280396139  |BT| (ROOT (S (PP (FW (i)))(NP (NN (love)))(VP (VBG (be)))(NP (JJ (drunk))(SYM (x))))) |ET| 
1.0121088705269847274337280396139  |BT| (ROOT (S (NP (VB (teach)))(VP (PRP (i)))(ADVP (WRB (how)))(VP (TO (to))(VB (dougie)))(NP (NNP (gabby))(NNP (duran))(-LRB- (-lrb-)))(NP (NN (haha))))) |ET| 
1.0121088705269847274337280396139  |BT| (ROOT (S (NP (RB (just))(DT (a))(JJ (bad))(NN (day))))) |ET| 
1.0121088705269847274337280396139  |BT| (ROOT (S (NP (NNS (mother)))(VP (VBG (go))(TO (to))(VB (drive)))(NP (PRP (i)))(NP (NNS (banana))))(S (ADVP (RB (up)))(UCP (RB (down)))(NP (DT (the))(NNS (stair)))(NP (DT (all))(NN (day))))(S (NP (FW (i)))(VP (VBP (have))(VBN (get)))(NP (CD (one))(NN (hell)))(PP (IN (of)))(NP (DT (a))(NN (workout))))) |ET| 
-1.0121088705269847274337280396139  |BT| (ROOT (S (NP (NNP (won))(NNP (2-1))(-LRB- (-lrb-)))(VP (VBN (get)))(NP (DT (a))(JJ (yellow))(NN (card.way)))(VP (TO (to))(VB (start)))(NP (DT (the))(NN (season)))(NP (NNP (d))))) |ET| 
-1.0121088705269847274337280396139  |BT| (ROOT (S (NP (FW (i)))(VP (MD (could))(RB (never))(VB (clean)))(NP (NNS (pool)))(PP (IN (for)))(NP (DT (a))(NN (living)))(NP (VB (im))(JJ (horrible)))(PP (IN (at)))(NP (PRP (it))))) |ET| 
-1.0121088705269847274337280396139  |BT| (ROOT (S (NP (NNS (need)))(NP (DT (a))(NN (drink))))) |ET| 
1.0121088705269847274337280396139  |BT| (ROOT (S (NP (CD (3))(NNS (hour)))(PP (TO (to)))(NP (CD (21))))) |ET| 
1.0121088705269847274337280396139  |BT| (ROOT (S (ADVP (RB (apparently)))(NP (EX (there)))(VP (VBZ (be)))(NP (DT (a))(JJ (serial))(NN (flasher)))(VP (VBG (claim)))(NP (JJR (more))(NNS (victim)))(NP (NNP (oh))(NNP (noes))))) |ET| 
-1.0121088705269847274337280396139  |BT| (ROOT (S (NP (CD (yenendru))(JJ (ketkaamal))(NN (varungaalam))(NN (nirkkaamal))(NN (ivan))(NN (poagum))(NN (vazhiyengum))(NN (manam))(NN (poagudhey))(VBP (<))(CD (3))(JJ (<))(CD (3))))) |ET| 
-1.0121088705269847274337280396139  |BT| (ROOT (S (NP (NNP (life)))(VP (VBZ (be)))(PP (IN (like)))(NP (DT (a))(NN (piano))))(S (NP (NNP (white))(NNS (key)))(VP (VBP (be)))(NP (JJ (happy))(NNS (moment))(CC (&))(JJ (black))(NNS (key)))(VP (VBP (be)))(NP (JJ (sad))(NNS (moment))))(S (NP (VBP (remember))(DT (both))(NNS (key)))(VP (SYM (r)))(VP (VBD (play)))(ADVP (RB (together)))(NP (CD (2)))(VP (VB (give)))(NP (JJ (sweet))(NN (music))))(S (NP (JJ (:}))(-RRB- (-rrb-))(VB (-rrb-)))(ADVP (RB (so)))(VP (VB (enjoy)))(NP (DT (the))(NN (music))))) |ET| 
-1.0121088705269847274337280396139  |BT| (ROOT (S (NP (NN (weekend)))(ADJP (JJ (full)))(PP (IN (of)))(NP (NN (bday))(VBD (parties.and)))(ADVP (RB (hopefully)))(NP (PRP (we)))(VP (MD (can))(RB (finally))(VB (play)))(NP (NN (golf)))(ADVP (RB (again)))(PP (IN (after)))(NP (NNS (week)))(PP (IN (of)))(NP (NN (snow.fun))(NN (fun))(NN (fun))))) |ET| 
1.0121088705269847274337280396139  |BT| (ROOT (S (NP (NNS (dio)))(VP (DT (no)))(NP (NN (desperdicium))(VBP (una))(NN (pena))))) |ET| 
1.0121088705269847274337280396139  |BT| (ROOT (S (ADVP (WRB (when)))(NP (DT (a))(NN (man)))(VP (VBZ (be)))(PP (IN (in)))(NP (NN (love)))(PP (CC (or)))(PP (IN (in)))(NP (NN (debt)))(NP (NN (someone)))(ADJP (RB (else)))(VP (VBZ (have)))(NP (DT (the))(NN (advantage))))) |ET| 
1.0121088705269847274337280396139  |BT| (ROOT (S (NP (NNP (peanut))(NN (butter))(NN (coffee)))(PP (IN (with)))(NP (DT (a))(NN (couple)))(PP (IN (of)))(NP (NNS (drop)))(PP (IN (of)))(NP (JJ (cherry))(NN (syrup))))(S (NP (PRP (it)))(VP (VB (get)))(NP (DT (any))(RBR (more))(JJ (delicious))))) |ET| 
1.0121088705269847274337280396139  |BT| (ROOT) |ET| 
-1.0121088705269847274337280396139  |BT| (ROOT (S (NP (NNP (accounts)))(VP (NNP (exam)))(NP (VBD (tomo))))) |ET| 
-1.0121088705269847274337280396139  |BT| (ROOT (S (NP (NNS (feel)))(PP (IN (like)))(NP (PRP (she)))(ADVP (RB (really)))(VP (MD (should))(RB (not))(VB (be))(VBG (watch)))(NP (JJ (many))(JJ (jedward))(NNS (thing)))(PP (IN (on)))(NP (NN (youtube))))) |ET| 
-1.0121088705269847274337280396139  |BT| (ROOT (S (NP (DT (a))(JJ (awsome))(NN (birthday))(CC (and))(FW (i)))(VP (VBD (get))(TO (to))(VB (spend)))(NP (PRP (it)))(PP (IN (with)))(NP (JJ (awsome))(NNS (people))))) |ET| 
1.0121088705269847274337280396139  |BT| (ROOT (S (VP (VBD (get)))(PP (IN (in)))(NP (DT (the))(NN (car)))(VP (VBN (turn)))(PP (IN (on)))(NP (DT (the))(NN (engine)))(NP (WP (what)))(VP (VBD (come)))(PP (NN (on.bupbup)))(NP (NN (americano))))(S (VP (MD (could))(RB (not))(VB (have))(VBN (time)))(NP (PRP (it)))(ADVP (JJR (better)))(SBAR (IN (if)))(NP (FW (i)))(VP (VBD (try))))(S (NP (NN (xxx))))) |ET| 
1.0050308375248522274603146797745  |BT| (ROOT (S (ADVP (WRB (when)))(NP (PRP (you)))(VP (VBP (want))(TO (to))(VB (enjoy)))(NP (NN (life)))(VP (VB (think)))(NP (NN (today)))(PP (IN (as)))(NP (PRP$ (you))(NN (life)))(NP (POS ('s))(NN (firstday))))(S (ADVP (WRB (when)))(NP (PRP (you)))(VP (VBP (want))(TO (to))(VB (achieve)))(NP (NN (something)))(PP (IN (in)))(NP (NN (life)))(VP (VB (think)))(NP (NN (today)))(PP (JJ (asyour)))(NP (NN (life)))(NP (POS ('s))(JJ (last))(NN (day))))) |ET| 
-1.0121088705269847274337280396139  |BT| (ROOT (S (NP (DT (the))(NNS (freak)))(VP (VBP (come)))(ADVP (RP (out)))(PP (IN (at)))(NP (NN (night))(NN (hahaha))))(S (NP (NN (im)))(PP (IN (in)))(NP (NN (side)))(NP (DT (the))(NN (house))))) |ET| 
-1.0121088705269847274337280396139  |BT| (ROOT (S (NP (JJ (1st))(NN (time)))(PP (IN (in)))(NP (JJ (17years)))(PP (JJ (+)))(NP (NNS (+))(VBP (+))(FW (i)))(VP (VB (have)))(NP (NN (nose))(NN (bleeding))))(S (VP (NN (damn)))(ADVP (RB (now)))(NP (DT (all))(FW (i))(NN (smell)))(VP (VBZ (be)))(NP (NN (blood))))) |ET| 
-1.0121088705269847274337280396139  |BT| (ROOT (S (NP (PRP (i)))(ADVP (RB (just)))(VP (VBD (realize)))(NP (PRP$ (my))(NNS (weekend)))(VP (MD (will))(RB (never))(VB (be)))(ADJP (RB (enough)))(PP (IN (for)))(NP (DT (all)))(PP (IN (of)))(NP (PRP$ (my))(NNS (friend))))(S (VP (VBG (kinukulang)))(PP (TO (na)))(NP (NN (xa)))(NP (NN (haha))))(S (NP (JJ (pero))(JJ (bakit))(NNS (datus))(VBP (naman))(NNS (hindus))))(S (NP (NN (haha)))(ADVP (RB (maybe)))(NP (JJ (ngayon))(JJ (lang))(NN (ako))(VBZ (nagkakaora)))(VP (JJ (sa)))(NP (NN (mga))(NNS (friend))(RB (ko))))(S (NP (RB (haha)))(NP (FW (i)))(VP (MD ('ll))(VB (try))(TO (to))(VB (make)))(PRT (RP (up)))(PP (IN (with)))(NP (DT (all)))(PP (IN (of)))(NP (PRP (you))(NNS (guy))))) |ET| 
1.0121088705269847274337280396139  |BT| (ROOT (S (NP (NNP (scream))))) |ET| 
1.0121088705269847274337280396139  |BT| (ROOT (S (NP (NNP (cat))(VBP (nap))))) |ET| 
1.0121088705269847274337280396139  |BT| (ROOT (S (NP (JJ (such))(DT (a))(JJ (good))(NN (weekend))))) |ET| 
-1.0121088705269847274337280396139  |BT| (ROOT (S (NP (NNP (frridaaaaay))))) |ET| 
-1.0121088705269847274337280396139  |BT| (ROOT (S (NP (NNP (monster))(NNP (trucks))(NNP (were))(NNP (awesome))))) |ET| 
-1.0121088705269847274337280396139  |BT| (ROOT (S (NP (VB (holiday))(SYM (r))(JJ (borrrinng))))) |ET| 
1.0121088705269847274337280396139  |BT| (ROOT (S (PP (IN (at)))(NP (DT (the))(NN (hospital)))(PP (IN (with)))(NP (NN (alicium))(VBP (sandoval))))) |ET| 
0.82714337116538827476830419982434  |BT| (ROOT (S (NP (NN (anybody))(RB (else))(VBG (experience))(NNS (problem)))(PP (IN (with)))(NP (NNP (twitter))))(S (VP (VBP (have)))(VP (VBN (be)))(ADJP (JJ (able)))(VP (TO (to))(VB (access)))(NP (DT (neither))(NN (twitter.com))(CC (nor))(NN (tweetdeck)))(PP (IN (for)))(NP (RB (quite))(DT (some))(NN (time))))) |ET| 
1.0121088705269847274337280396139  |BT| (ROOT (S (VP (VBG (have)))(NP (DT (a))(NN (lot)))(PP (IN (of)))(NP (NN (money)))(VP (MD (will))(RB (not))(VB (make)))(NP (PRP (you)))(ADJP (JJ (happy))))(S (VP (VBG (have)))(NP (DT (a))(JJ (small)))(PP (IN (of)))(NP (JJ (true))(NN (love))(NN (shard)))(VP (MD (will))(VB (make)))(NP (PRP (you)))(NP (JJ (happy))(CD (~))))) |ET| 
-1.0121088705269847274337280396139  |BT| (ROOT (S (SBAR (IN (if)))(NP (PRP (you)))(VP (VBP (have))(RB (never))(VBD (lie)))(PP (IN (about)))(NP (NN (anything)))(VP (VB (click))(`` ("))(IN (like))))(S (VP (VB (go)))(ADVP (RB (back)))(VP (VB (click)))(PP (IN (unlike)))(NP (PRP (you)))(VP (VBP (be)))(NP (DT (a))(VBG (lie))(NN (bastard))))) |ET| 
-1.0121088705269847274337280396139  |BT| (ROOT (S (VP (VBG (get)))(ADJP (JJ (ready)))(VP (TO (to))(VB (take)))(NP (PRP$ (my))(JJ (last))(JJ (final)))(PP (IN (for)))(NP (DT (the))(NN (semester))))(S (NP (PRP (it)))(VP (VBZ (be)))(PP (IN (in)))(NP (NN (computer))(NN (class))))) |ET| 
-1.0121088705269847274337280396139  |BT| (ROOT (S (NP (PRP (i)))(VP (VBP (wish)))(NP (FW (i)))(VP (MD (could))(VB (have)))(NP (DT (this))(NN (moment)))(PP (IN (for)))(NP (NN (life)))(PP (IN (for)))(NP (NN (life)))(PP (IN (for)))(NP (NN (life))))(S (NP (VB (cause)))(PP (IN (in)))(NP (DT (this))(NN (moment)))(NP (PRP (i)))(VP (VBP (feel)))(ADJP (RB (so))(JJ (alive))))) |ET| 
1.0121088705269847274337280396139  |BT| (ROOT (S (NP (NN (likkkeeew))(NNP (boooommmmmmm))))) |ET| 
0.97225687069622990232886650119326  |BT| (ROOT (S (NP (NN (adventure)))(VP (VBZ (be)))(PP (RP (out)))(ADVP (RB (there))))) |ET| 
1.0121088705269847274337280396139  |BT| (ROOT (S (NP (VB (call))(NN (ovum))(NN (joe)))(SBAR (IN (if)))(NP (PRP (ya)))(PP (RB (up))))) |ET| 
1.0121088705269847274337280396139  |BT| (ROOT) |ET| 
-1.0121088705269847274337280396139  |BT| (ROOT (S (NP (NNP (katie))(NNP (renee))(NNP (royal)))(VP (VBZ (be))(VBG (gon))(TO (na))(VB (crack)))(NP (PRP$ (she))(NN (phonee))))) |ET| 
-1.0121088705269847274337280396139  |BT| (ROOT (S (NP (NNP (clint))(NNP (eastwood)))(ADVP (RB (just)))(VP (VBZ (get)))(NP (RBR (more))(JJ (bad-ass)))(SBAR (IN (as)))(NP (PRP (he)))(VP (VBZ (get)))(ADJP (JJR (older))))) |ET| 
-1.0121088705269847274337280396139  |BT| (ROOT (S (ADJP (JJR (better)))(VP (TO (to))(VBP (have)))(NP (DT (a))(JJ (simple))(CC (and))(JJ (peaceful))(NN (life))))) |ET| 
0.85170129015229967262001764538581  |BT| (ROOT (S (ADVP (NNP (tonight)))(VP (VBD (suck)))(ADJP (RB (so))(JJ (bad))))(S (ADVP (WRB (why)))(VP (MD (can))(RB (not)))(NP (NNS (people)))(ADVP (RB (just)))(VP (VB (chill))))) |ET| 
0.89402879538227264522021187076462  |BT| (ROOT (S (VP (VBG (fuck)))(NP (NN (god)))(VP (RB (damned)))(NP (JJ (cunt))(NN (ass))(NN (mother))(VBG (fuck))(NN (bitch))(NN (ass))(VBP (fuck))(NN (face))))(S (NP (VB (suck))(PRP$ (my))(JJ (big))(JJ (fucking))(JJ (black))(NN (dick)))(NP (PRP (i)))(VP (VBP (wan))(TO (na))(VB (see)))(NP (DT (that))(NN (ass))(NN (clap)))(NP (NN (bitch))))) |ET| 
0.86022331236445914726118644466624  |BT| (ROOT (S (NP (NNP (sushi)))(NP (NNP (salsa))))(S (VP (MD (can))(RB (not))(VB (wait))))) |ET| 
-1.0121088705269847274337280396139  |BT| (ROOT (S (NP (RB (only))(CD (two))(NNS (thing))(NN (money)))(VP (MD (can))(RB (not))(VB (buy)))(NP (IN (that)))(VP (VBZ (be)))(NP (JJ (true))(NN (love)))(NP (NN (home))(VBN (grow))(NNS (tomato))))) |ET| 
-1.0121088705269847274337280396139  |BT| (ROOT (S (NP (WP (who)))(ADVP (RB (ever)))(VP (VBD (say))(VBG (say)))(NP (RB (sorry)))(VP (MD (can))(VB (help)))(VP (VBD (be)))(ADJP (JJ (full)))(PP (IN (of)))(NP (NN (shit))))) |ET| 
-1.0121088705269847274337280396139  |BT| (ROOT (S (PP (JJ (aakyat)))(NP (NN (muna)))(NP (NNS (kamus)))(NP (NN (today)))(VP (VBP (ng)))(NP (NNP (baguio/benguet)))(NP (VBG (magpapalamig))(VBG (lang))(NN (ng))(NN (ulo))(, (,))(NN (haha)))(VP (NN (bababa)))(NP (RB (din)))(ADJP (JJ (agad))(NNS (buka))))) |ET| 
0.97335927613651940237815551881795  |BT| (ROOT (S (NP (NNP (*))(NNP (money)))(VP (VBZ (be)))(PP (IN (like)))(NP (DT (a))(JJ (sixth))(NN (sense)))(VP (VBG (make)))(NP (PRP (it)))(ADJP (JJ (possible)))(VP (TO (to))(RB (fully))(VB (enjoy)))(NP (DT (the))(JJ (other))(CD (five))(NNS (*))))) |ET| 
1.0121088705269847274337280396139  |BT| (ROOT (S (NP (PRP$ (my))(NN (chest)))(VP (VBZ (hurt)))(ADVP (-RRB- (-rrb-))))) |ET| 
1.0121088705269847274337280396139  |BT| (ROOT (S (NP (PRP (he)))(ADVP (RB (just))(RB (kinda)))(VP (VBD (fly)))(PP (IN (like)))(NP (DT (a))(JJ (hot))(NN (dog)))(PP (IN (in)))(NP (DT (the))(NN (wind))))) |ET| 
1.0121088705269847274337280396139  |BT| (ROOT) |ET| 
-1.0121088705269847274337280396139  |BT| (ROOT (S (NP (CD (ok))(CD (4)))(NP (JJR (more))(NNS (day))))(S (NP (PRP (i)))(VP (NN (cant))(VBP (wait))(TO (to))(VB (get)))(NP (PRP$ (my))(NN (hair)))(VP (VBD (do)))(NP (NN (today))))) |ET| 
-1.0121088705269847274337280396139  |BT| (ROOT (S (NP (PRP (we)))(VP (VB (pretend)))(NP (IN (that))(NNS (airplane)))(PP (IN (in)))(NP (DT (the))(NN (night))(NN (sky)))(VP (VBP (be)))(PP (IN (like)))(NP (VBG (shoot))(NNS (stars.i)))(VP (MD (could))(RB (really))(VB (use)))(NP (DT (a))(VBP (wish))(RB (right)))(ADVP (RB (now)))(VP (VBP (wish)))(ADVP (RB (right))(RB (now)))(VP (VBP (wish)))(ADVP (RB (right))(RB (now))))) |ET| 
1.0121088705269847274337280396139  |BT| (ROOT (S (NP (JJ (real))(NNS (nigga))(VBP (fuk))(NN (wit)))(VP (NN (meh))(NN (nd)))(NP (FW (i)))(VP (NN (dont))(VB (give)))(NP (DT (a))(NN (fuk)))(NP (WP (who)))(VP (VBP (dont))))) |ET| 
0.9774761531107951650909626550856  |BT| (ROOT (S (NP (NNP (haha))(NNP (janelle))(NNP (carle)))(NP (NNP (hunter))(NNP (igoe)))(NP (PRP (you)))(VP (VBD (get))(RB (ta))(VB (shake)))(NP (VB (shake)))(VP (VB (shake)))(NP (PRP$ (you))(NNS (silly)))(PRT (RP (out))))) |ET| 
1.0121088705269847274337280396139  |BT| (ROOT (S (NP (NNP (hella))(JJ (mad)))(VP (VBD (do))(RB (not))(VB (know)))(NP (PRP (i)))(VP (VBD (be))(VB (suppose)))(PP (TO (to)))(NP (VB (work)))(NP (NN (today))(NNS (asshole))))) |ET| 
-1.0121088705269847274337280396139  |BT| (ROOT) |ET| 
-1.0121088705269847274337280396139  |BT| (ROOT (S (NP (DT (the))(NNP (d)))(VP (VBD (be)))(NP (JJ (good))(JJ (last))(NN (night)))(VP (VBZ (let))(VB (keep)))(NP (PRP (it)))(PRT (RP (up)))(PP (IN (against)))(NP (DT (the))(NNPS (trailblazers))))) |ET| 
-1.0121088705269847274337280396139  |BT| (ROOT (S (NP (NNP (we))(NNP (love))(NNP (ourself))(NNP (even))(NNP (after))(NNP (doing))(NNP (many))(VBZ (mistake))))(S (PP (NNP (then)))(NP (NNP (hw))(NNP (can))(NNP (we))(NNP (hate))(NNP (others))(CD (4))(NNP (their))(CD (one))(NNP (mistake))(NNP (seems))(NNP (strange))(NNP (but))(JJ (true))))) |ET| 
-1.0121088705269847274337280396139  |BT| (ROOT (S (VP (VBG (do)))(NP (NNP (physics))(NN (lab.such))(JJ (tedious))(NN (work))))) |ET| 
1.0121088705269847274337280396139  |BT| (ROOT (S (VP (VBZ (want))(TO (to))(VB (go))(JJ (skating)))(NP (RB (so))(JJ (bad))))) |ET| 
0.90248252724064892404953752702568  |BT| (ROOT (S (NP (PRP (i)))(VP (VBP (have))(VBN (decide))(VBG (keep)))(PRT (RP (up)))(PP (IN (with)))(NP (NNP (facebook)))(VP (MD (could))(VB (be)))(NP (DT (a))(JJ (full))(NN (time))(NN (job))))) |ET| 
0.95380943260169348540955525095342  |BT| (ROOT (S (NP (NNP (wat)))(VP (VBZ (be))(SYM (d)))(NP (JJS (worst))(NN (tin)))(NP (NN (u)))(VP (NN (hav)))(NP (NN (done?share))(NN (pl))))) |ET| 
-1.0121088705269847274337280396139  |BT| (ROOT (S (NP (NNP (brady-moss)))(NP (NNP (brady-welker)))(VP (RB (now))(VBZ (there)))(NP (NNP (brady-gronkowski))))) |ET| 
-1.0121088705269847274337280396139  |BT| (ROOT (S (VP (VBZ (be)))(NP (NN (softball))(NN (game))))(S (ADVP (RB (then)))(NP (NNP (ashley)))(NP (VBZ (be))(NNP (b-day))(NNP (party))))) |ET| 
-1.0121088705269847274337280396139  |BT| (ROOT (S (NP (VB (ahhhhhhhhhhhhhhhhhhhhhhhhhhhhhhhhhhhhhhhhhhhh)))(PP (VB (save)))(NP (PRP (i))))) |ET| 
1.0121088705269847274337280396139  |BT| (ROOT (S (NP (NN (homecoming)))(VP (VBD (be)))(ADJP (JJ (successful))))) |ET| 
1.0121088705269847274337280396139  |BT| (ROOT (S (NP (RB (yes)))(VP (VBD (finish)))(NP (NN (college)))(PP (IN (for)))(NP (DT (the))(NN (week))(NN (result))))) |ET| 
1.0121088705269847274337280396139  |BT| (ROOT (S (NP (NNS (congret)))(PP (TO (to)))(NP (DT (all))(NNP (india)))(VP (VBD (win)))(NP (DT (the))(NN (mathch))))) |ET| 
-1.0121088705269847274337280396139  |BT| (ROOT (S (NP (NNP (oil)))(SBAR (WDT (that)))(NP (VBZ (taste)))(PP (IN (like)))(NP (NN (blood)))(VP (VBD (steal)))(NP (DT (the))(NN (summer))(NN (scent))))) |ET| 
-1.0121088705269847274337280396139  |BT| (ROOT (S (NP (NN (day)))(ADJP (JJ (full)))(PP (IN (of)))(NP (NN (jazz))))(S (NP (`` ("))(NNP (sniff)))(VP (VB (sniff))))(S (PP (IN (in)))(NP (DT (the))(VBP (gentle))(JJ (rain))))) |ET| 
-1.0121088705269847274337280396139  |BT| (ROOT (S (VP (VBG (go)))(PP (TO (to)))(NP (VB (lie)))(PP (IN (on)))(NP (DT (the))(NN (bed)))(VP (TO (to))(VB (wait)))(PP (IN (for)))(NP (NN (baby)))(NP (POS ('s))(NN (call))))(S (NP (JJ (goodnight))(NNS (people))))) |ET| 
1.0066519621631178083021040947642  |BT| (ROOT (S (VP (VBG (watch)))(NP (NNP (hustle))(CC (&))(NNP (flow))))(S (NP (NNP (d))))) |ET| 
1.0121088705269847274337280396139  |BT| (ROOT (S (NP (PRP (we)))(VP (VBP (be))(VBG (leave)))(NP (NNP (washington))(NNP (:{))(NNP (goodbye))(JJ (clean))(NN (air))))(S (NP (DT (the))(NNS (people)))(ADVP (RB (too)))(NP (PRP (i)))(VP (VBP (suppose)))(NP (NNP (p))))) |ET| 
0.68697225059314681594457852042979  |BT| (ROOT (S (VP (VBZ (be)))(NP (NNP (superrtired))(RB (nah))))(S (NP (NNP (hindi)))(VP (VBP (pa)))(NP (JJ (nkakagawa))(NN (ng))(NNS (requirement)))(NP (NNS (awt))))) |ET| 
-1.0121088705269847274337280396139  |BT| (ROOT (S (NP (PRP (i)))(VP (VBP (need)))(NP (DT (some))(NN (food))))) |ET| 
-1.0121088705269847274337280396139  |BT| (ROOT (S (NP (PRP (i)))(VP (VBP (be)))(NP (JJ (sick))(JJ (guize))))(S (NP (CD (111))))) |ET| 
-1.0121088705269847274337280396139  |BT| (ROOT (S (ADVP (RB (never)))(VP (VB (be)))(ADJP (JJ (sad)))(PP (IN (for)))(NP (WP (what)))(VP (VBZ (be)))(ADVP (RP (over)))(NP (RB (just)))(VP (VB (be)))(ADJP (JJ (glad)))(SBAR (IN (that)))(NP (PRP (it)))(VP (VBD (be)))(ADVP (IN (once)))(NP (PRP$ (yours))))) |ET| 
1.0121088705269847274337280396139  |BT| (ROOT (S (VP (VBG (plant)))(NP (DT (the))(NNS (seed)))(PP (IN (of)))(NP (NN (rebellion)))(ADJP (RB (sure)))(VP (VBZ (be)))(NP (DT (a))(NN (lot)))(PP (IN (of)))(NP (NN (fun))))) |ET| 
1.0121088705269847274337280396139  |BT| (ROOT (S (NP (PRP (i)))(ADVP (RB (still)))(NP (VBP (dvr))(NNS (rerun)))(PP (IN (of)))(NP (NNP (walker))(NNP (texas))(NNP (ranger))))) |ET| 
0.99077025732346846176312737952685  |BT| (ROOT (S (VP (VBG (takie)))(NP (NN (care)))(PP (IN (of)))(NP (NNP (samantha)))(NP (POS ('s))(NNP (baby))(NNP (giirl)))(NP (PRP (she)))(VP (VBP (ii)))(NP (CD (2))(JJ (cute))))) |ET| 
-1.0121088705269847274337280396139  |BT| (ROOT (S (VP (VBZ (be)))(VP (VBG (have)))(NP (NN (fun)))(PP (IN (at)))(NP (DT (a))(NN (friend)))(NP (POS ('s))(NN (house))))) |ET| 
-1.0121088705269847274337280396139  |BT| (ROOT (S (VP (VBZ (have)))(ADVP (RB (finally)))(VP (VBN (find)))(PRT (RP (out)))(NP (WP (what)))(NP (NNP (pms)))(VP (VBZ (stand)))(PP (IN (for))))(S (NP (VB (pass))(PRP$ (my))(NN (shotgun))))) |ET| 
-1.0121088705269847274337280396139  |BT| (ROOT (S (VP (VBG (be)))(ADVP (JJ (sad)))(PP (IN (with)))(NP (DT (the))(JJ (right))(NNS (people)))(VP (VBZ (be)))(ADJP (JJR (better)))(PP (IN (than)))(VP (VBG (be)))(ADJP (JJ (happy)))(PP (IN (with)))(NP (DT (the))(JJ (wrong))(NNS (one))))) |ET| 
1.0121088705269847274337280396139  |BT| (ROOT (S (NP (PRP (i)))(VP (MD (would))(VB (join)))(NP (JJ (glee))(NN (club))))) |ET| 
1.0121088705269847274337280396139  |BT| (ROOT (S (NP (PRP (i)))(VP (VB (cut)))(NP (PRP$ (my))(NN (hair))))(S (ADVP (NNP (honestly)))(ADVP (RB (now))))) |ET| 
1.0121088705269847274337280396139  |BT| (ROOT (S (NP (PRP (i)))(VP (VBP (want))(TO (to))(VB (choreograph)))(NP (JJ (quincia))(NNS (era))))) |ET| 
-1.0121088705269847274337280396139  |BT| (ROOT (S (ADVP (NNP (nevermind)))(NP (PRP (i)))(VP (VBD (find)))(NP (PRP (it))))) |ET| 
-1.0121088705269847274337280396139  |BT| (ROOT (S (NP (PRP (you)))(VP (VBP (be))(VBG (stab)))(NP (PRP (i)))(PP (IN (through)))(NP (PRP (you))))) |ET| 
-1.0121088705269847274337280396139  |BT| (ROOT (S (SBAR (RB (awe)))(NP (PRP (i)))(VP (VBP (love)))(NP (NNS (kid))))(S (NP (CD (two))(RB (just)))(VP (VBD (give)))(NP (PRP (i))(NNS (flower))(VBP (^))))) |ET| 
0.81754407627867864416515431003063  |BT| (ROOT (S (VP (VBZ (be)))(VP (VBG (get))(VBN (snow)))(PP (IN (in)))(PP (IN (with)))(NP (NNP (mike))))) |ET| 
0.84837650311336310071652633268968  |BT| (ROOT (S (VP (VBZ (be)))(VP (VBG (get)))(ADJP (JJR (stronger))))) |ET| 
0.90537590400971135196073191764299  |BT| (ROOT (S (VP (VBZ (be)))(VP (VBG (get)))(NP (JJ (nervous))(JJ (1st))(NN (tym)))(VP (MD (will))(VB (be)))(NP (JJ (visible)))(ADVP (NN (nd)))(PP (IN (on)))(NP (NNP (stage))))) |ET| 
-1.0121088705269847274337280396139  |BT| (ROOT (S (NP (VBZ (sean)))(VP (VBG (get))(VBN (rape)))(PP (IN (by)))(NP (JJ (sams))(NN (dog))))) |ET| 
-1.0121088705269847274337280396139  |BT| (ROOT (S (PP (TO (to)))(NP (NNP (duncan))(JJ (ok))))) |ET| 
-1.0121088705269847274337280396139  |BT| (ROOT (S (NP (NN (confusion)))(VP (VBZ (be)))(NP (PRP$ (my))(JJS (latest))(NN (fashion))))(S (NP (VB (somone)))(VP (VB (make)))(PRT (RP (up)))(NP (PRP$ (they))(NN (mind)))(ADVP (RB (aready))))) |ET| 
1.0121088705269847274337280396139  |BT| (ROOT (S (ADVP (WRB (when)))(NP (PRP (i)))(VP (VBD (be))(VBG (sit)))(PP (IN (in)))(NP (NN (art))(NN (class)))(NP (PRP (i)))(ADVP (RB (magically)))(VP (VBD (get)))(NP (NN (chocolate)))(PP (IN (on)))(NP (PRP (i))))(S (NP (PRP (it)))(VP (VBD (be)))(ADJP (JJ (odd))))) |ET| 
1.0121088705269847274337280396139  |BT| (ROOT (S (NP (PRP (you)))(VP (VBP (be)))(PP (IN (like)))(NP (DT (a))(POS ('))(NN (fun))(POS ('))(NN (vampire))))(S (PP (RB (instead))(IN (of)))(VP (VBG (suck)))(NP (NN (blood)))(NP (PRP (you)))(ADVP (RB (just)))(VP (VBP (suck))))) |ET| 
1.0121088705269847274337280396139  |BT| (ROOT (S (NP (NNS (loui)))(NP (PRP (i)))(VP (VBP (be))(VBN (do)))(UCP (VBP (hate)))(NP (PRP (he))))) |ET| 
-1.0121088705269847274337280396139  |BT| (ROOT (S (ADVP (NNP (totally)))(VP (VBZ (suck)))(PP (IN (in)))(NP (NNP (starcraft))(CD (2))))(S (NP (PRP (i)))(VP (MD (should))(VB (think)))(ADVP (RB (twice))(IN (before)))(VP (VBG (challenge)))(NP (NNP (wafi))(CC (or))(NNP (richie))))) |ET| 
-1.0121088705269847274337280396139  |BT| (ROOT (S (NP (RB (geeze)))(NP (DT (the))(NNS (thing)))(NP (PRP (i)))(VP (VBP (go)))(PP (RP (through)))(PP (IN (for)))(NP (NNS (girl))))) |ET| 
-1.0121088705269847274337280396139  |BT| (ROOT (S (VP (VBZ (be)))(VP (VBG (have)))(NP (DT (a))(JJ (woody))(NN (yum)))(ADVP (RB (just)))(SBAR (IN (before)))(NP (FW (i)))(VP (VBP (go))(TO (to))(VB (work))))) |ET| 
1.0121088705269847274337280396139  |BT| (ROOT (S (NP (NNPS (yankees)))(PP (NNP (win)))(NP (NNP (wooo))(NNP (hooo))))) |ET| 
1.0121088705269847274337280396139  |BT| (ROOT (S (NP (CD (one))(NN (article)))(VP (VBN (do)))(NP (CD (one))(JJR (more)))(VP (TO (to))(VB (go))))(S (ADVP (JJ (first)))(NP (DT (some))(NNS (spaghetti)))(ADVP (VBP (bolognese)))(PP (IN (by)))(NP (NNP (marko))))) |ET| 
0.86958771649444011053731173888082  |BT| (ROOT (S (NP (NNP (el)))(VP (NNP (concieto)))(SBAR (FW (de)))(NP (DT (the))(NNPS (killers))(VBP (e)))(PP (IN (en)))(NP (JJ (exactamente))(NN (una))(NN (semana))))) |ET| 
-1.0121088705269847274337280396139  |BT| (ROOT (S (NP (NN (pingchat)))(NP (NN (ryan))(NNS (_)))(NP (VBP (_))(NN (clifton))))) |ET| 
-1.0121088705269847274337280396139  |BT| (ROOT (S (NP (JJ (bored))(CC (but))(JJ (cba))(NN (goin))(NN (bed))))) |ET| 
-1.0121088705269847274337280396139  |BT| (ROOT (S (NP (NNP (economics))(NN (test)))(VP (VBD (go)))(ADVP (RB (well))))(S (ADVP (RB (now)))(NP (FW (i)))(VP (VBP (be)))(PP (IN (on)))(NP (NNP (spring))(NNP (break))))(S (NP (NNP (d))))) |ET| 
0.93646939528031369892602242543944  |BT| (ROOT (S (NP (PRP (they))(NN (tv)))(ADVP (RB (just)))(VP (VBD (tell)))(NP (PRP (i)))(VP (TO (to))(VB (call)))(NP (NN (parliament)))(NP (NN (something)))(VP (VBZ (tell)))(NP (PRP (i)))(NP (PRP (they)))(VP (MD (will))(RB (not))(VB (answer))))) |ET| 
0.86077230590483611027963206652203  |BT| (ROOT (S (NP (VBN (kasabian))(JJ (17th))(NNP (august))))(S (NP (VB (who)))(PRT (RP (up)))(PP (IN (for)))(NP (PRP (it))))) |ET| 
0.8892723674197809957675531222776  |BT| (ROOT (S (NP (NNP (head)))(VP (VBZ (feel)))(PP (IN (like)))(NP (PRP (it)))(VP (VBZ (be))(VBG (be))(VBN (stab))))(S (VP (VBG (go)))(PP (TO (to)))(NP (VB (sleep))))(S (ADVP (RB (hopefully)))(NP (PRP (it)))(VP (VBZ (get)))(ADJP (JJR (better))))) |ET| 
-1.0121088705269847274337280396139  |BT| (ROOT (S (NP (NNP (yay))))(S (NP (PRP (i)))(VP (VBP (feel)))(NP (RB (so))(RB (much))(JJR (better)))(NP (NN (today))))(S (NP (RB (just)))(VP (MD (can))(RB (not))(VB (get)))(PRT (RP (up)))(PP (IN (without)))(NP (VB (get)))(NP (DT (a))(NN (head))(NN (ache))))) |ET| 
-1.0121088705269847274337280396139  |BT| (ROOT (S (NP (NNP (allan))(VBP (stop)))(VP (VBG (stalk)))(NP (PRP$ (my))(NNP (fb))(NN (page))))(S (ADVP (WRB (when)))(NP (NN (something)))(ADJP (JJ (exciting)))(VP (VBZ (happen)))(PP (IN (in)))(NP (PRP$ (my))(NN (life)))(NP (PRP (i)))(VP (MD (will))(VB (let)))(NP (PRP (you)))(VP (VB (know)))(ADVP (JJ (first))))) |ET| 
-1.0121088705269847274337280396139  |BT| (ROOT (S (NP (NNP (snow))(VBD (snow))(CC (and))(JJR (more))(NNS (snow))))(S (VP (VBG (note)))(PP (IN (like)))(NP (DT (the))(NNS (pocono))))) |ET| 
1.0121088705269847274337280396139  |BT| (ROOT (S (NP (PDT (all))(PRP$ (my))(NNS (piercing)))(VP (VBP (be))(VBG (fall)))(ADVP (JJ (outt))))) |ET| 
1.0121088705269847274337280396139  |BT| (ROOT (S (NP (NN (bonobo)))(ADVP (NNP (july))(JJ (12th)))(ADVP (NNP (chicago)))(NP (JJ (full))(NN (fucking))(NN (band))))) |ET| 
0.98227304863484643515647576350602  |BT| (ROOT (S (NP (NNS (creatura)))(NP (JJ (quien))(JJ (tiene))(NN (carbon))(NN (para)))(PP (VBP (hacer)))(NP (NN (uso)))(PP (FW (de)))(NP (NN (hookah))))) |ET| 
-1.0121088705269847274337280396139  |BT| (ROOT (S (NP (PRP$ (its))(NN (time)))(VP (TO (to))(VB (go))))) |ET| 
-1.0121088705269847274337280396139  |BT| (ROOT (S (ADVP (RB (still)))(VP (NN (moar)))(NP (NN (>))))) |ET| 
-1.0121088705269847274337280396139  |BT| (ROOT (S (VP (VBP (wish)))(NP (PDT (all))(PRP$ (my))(NNS (fren)))(NP (DT (a))(RB (very))(JJ (happy))(NN (onam))))) |ET| 
1.0121088705269847274337280396139  |BT| (ROOT (S (NP (NNP (twas))(NNP (all))(NNP (my))(NNP (fault))))(S (NP (UH (;{))))) |ET| 
0.93507114754448916738027719475213  |BT| (ROOT (S (NP (FW (i))(NN (m)))(NP (DT (a))(NN (half))(NN (bottle))(VBZ (blender)))(PP (RP (down)))(PP (IN (in)))(NP (NN (nagpur))))(S (NP (DT (a))(JJ (lovely))(CC (and))(JJ (unbeleivable))(NN (feeling))))) |ET| 
1.0121088705269847274337280396139  |BT| (ROOT (S (PP (IN (in)))(NP (NN (pain))))(S (VP (VB (ask)))(NP (RB (no))(JJR (more)))(NP (JJ (__))))) |ET| 
-1.0121088705269847274337280396139  |BT| (ROOT (S (NP (NNP (goal)))(PP (IN (for)))(NP (DT (the))(NNP (sharks))))(S (NP (NNP (not))(NNP (even))(DT (a))(NNP (minute))(NNP (into))(NNP (game))(CD (6))(NNP (awesome))))) |ET| 
-1.0121088705269847274337280396139  |BT| (ROOT (S (SBAR (IN (if)))(NP (PRP (i)))(VP (RB (just))(VBP (disappear)))(NP (NN (tomorrow)))(VP (MD (will))(NN (everybody))(VB (notice))))(S (ADVP (RB (probably))))) |ET| 
-1.0121088705269847274337280396139  |BT| (ROOT (S (NP (PRP (ya)))(ADVP (RB (no)))(VP (JJ (working))))(S (NP (NN (jjejejejejee))))) |ET| 
1.0121088705269847274337280396139  |BT| (ROOT (S (ADVP (RB (off)))(PP (TO (to)))(NP (NN (night))(VBP (train))))) |ET| 
0.83244234204919220765361842495622  |BT| (ROOT (S (ADJP (JJ (ready)))(VP (TO (to))(VB (go)))(ADVP (NN (home)))(NP (VB (shower)))(VP (VB (jump)))(NP (NN (n))(PRP$ (my))(NN (bed))))) |ET| 
1.0121088705269847274337280396139  |BT| (ROOT (S (NP (FW (i)))(VP (VBD (lose)))(NP (PRP$ (my))(NN (phone))))) |ET| 
-1.0121088705269847274337280396139  |BT| (ROOT (S (NP (JJ (daka))(NN (daka)))(VP (VBD (mohamm)))(ADVP (NN (jihad)))(NP (NN (haaaaarroow))(NNP (:d))(NNP (d))))) |ET| 
-1.0121088705269847274337280396139  |BT| (ROOT (S (NP (FW (i)))(VP (VB (have)))(NP (DT (a))(JJ (new))(NN (goal.to))(VB (sell)))(PP (TO (to)))(NP (CD (20))(NNS (people)))(NP (DT (a))(NN (week))))(S (ADVP (RB (so))(RB (far)))(NP (FW (i)))(VP (VBP (have))(VBN (do)))(NP (DT (this))(NNS (week))(NN (goal))))) |ET| 
-1.0121088705269847274337280396139  |BT| (ROOT (S (NP (UH (aw))(UH (man)))(VP (VBD (lose)))(NP (CD (1-0))))(S (VP (JJ (bummed)))(NP (NN (outt)))(NP (FW (i)))(VP (VBP (know)))(NP (FW (i)))(VP (VBD (hold)))(PRT (RP (up)))(NP (PRP$ (my))(NN (part)))(ADVP (RB (pretty))(RB (well))))(S (NP (NN (cant))(VB (wait)))(PP (IN (for)))(NP (NN (tomorrow))))) |ET| 
0.86927628218665442538792831328465  |BT| (ROOT (S (NP (PRP (i)))(ADVP (RB (totally)))(VP (VBP (feel)))(PP (IN (like)))(NP (NN (shit)))(NP (NN (today)))(NP (NNP (p))))) |ET| 
1.0121088705269847274337280396139  |BT| (ROOT (S (NP (PRP (i)))(ADVP (VBZ (sooo)))(VP (RB (do)))(NP (RB (not))(VBG (<))(CD (3)))(NP (DT (the))(NN (heat))))) |ET| 
1.0121088705269847274337280396139  |BT| (ROOT (S (NP (NNP (wish))(NN (everyone)))(NP (DT (a))(JJ (happy))(NNP (new))(NN (year))))(S (VP (VBP (have)))(NP (DT (a))(JJ (gr8))(NN (year))))) |ET| 
-1.0121088705269847274337280396139  |BT| (ROOT (S (NP (PRP (i)))(VP (VBP (be)))(PP (IN (in)))(NP (DT (a))(NNP (new))(NNP (york))(NN (state)))(PP (IN (of)))(NP (NN (mind))))) |ET| 
-1.0121088705269847274337280396139  |BT| (ROOT (S (NP (NN (alcohol)))(VP (VBZ (be)))(ADJP (JJ (evil))))) |ET| 
-1.0121088705269847274337280396139  |BT| (ROOT (S (NP (VB (yay)))(ADVP (JJ (first)))(UCP (NN (day)))(PP (IN (of)))(NP (NN (school))))) |ET| 
0.84307984020085424692325659634662  |BT| (ROOT (S (VP (VBZ (be))(VBG (read)))(NP (`` ("))(VBG (break))(NNP (dawn)))(UCP ('' (")))(PP (IN (after)))(VP (VBG (eat)))(NP (DT (a))(JJ (delicious))(VBD (stuff))(JJ (green))(NN (pepper)))(NP (PRP (she)))(VP (VBD (make)))(NP (PRP (herself))))) |ET| 
0.93492440427075362840980687906267  |BT| (ROOT (S (VP (VBD (wake)))(PRT (RP (up)))(PP (IN (at)))(NP (CD (3))))(S (NP (NN (reason))))(S (VP (VBD (want)))(PP (TO (to)))(NP (VB (look)))(PP (IN (at)))(NP (DT (the))(NN (moon)))(NP (JJ (beutiful))(CC (and))(JJ (bright))))) |ET| 
0.74755192391351010794409148729756  |BT| (ROOT (S (NP (VB (beautiful))(NNP (south)))(NP (POS ('))(NN (song)))(PP (IN (for)))(NP (WP (whoever)))(NP ('' ('))))) |ET| 
-1.0121088705269847274337280396139  |BT| (ROOT (S (NP (NNP (na))(NNP (tre)))(NP (RB (ce))(JJ (n'est))(NN (pa))(NN (venir))(VBZ (dan))(FW (le))(JJ (monde))))(S (NP (NNP (na))(NNP (tre)))(NP (JJ (c'est))(NN (venir))(VBZ (dan))(DT (la))(NN (vie))))) |ET| 
-1.0121088705269847274337280396139  |BT| (ROOT (S (NP (PRP (i)))(VP (VBD (buy)))(NP (CD (2))(NNS (dog)))(VP (VBN (name)))(NP (POS ('))(NNP (ass))(POS ('))(SYM (&))(POS ('))(NN (face))('' ('))))(S (NP (PRP (i)))(VP (VBD (keep)))(NP (NNP (ass)))(PP (IN (with)))(NP (PRP (i))(SYM (&))(JJ (gifted))(NNP (face))(CD (2))(NN (u))))(S (NP (NNP (face)))(VP (VBD (die)))(NP (FW (i)))(VP (VBD (feel)))(ADJP (RB (so))(JJ (sad)))(SBAR (NN (becoz.wenever)))(NP (FW (i)))(VP (VB (see)))(NP (PRP$ (my))(NN (ass))(FW (i)))(VP (VB (remember))(NN (ur)))(NP (NN (face))))) |ET| 
-1.0121088705269847274337280396139  |BT| (ROOT (S (NP (NNS (feel)))(VP (VBD (knacker)))(SBAR (IN (after)))(NP (CD (3))(JJ (full))(NNS (day)))(ADVP (RB (back)))(PP (IN (at)))(NP (NN (work))))) |ET| 
1.0121088705269847274337280396139  |BT| (ROOT (S (NP (VB (grateul)))(NP (NN (today)))(VP (TO (to))(RB (once))(RB (again))(VB (learn)))(NP (NN (humility))))) |ET| 
0.89757233608764963594950359038194  |BT| (ROOT (S (NP (NN (life)))(VP (VBZ (be)))(ADJP (JJ (simple))))(S (ADVP (RB (just)))(VP (VB (do)))(NP (NN (something))))) |ET| 
1.0121088705269847274337280396139  |BT| (ROOT (S (NP (NN (e)))(PP (NN (tocar)))(NP (FW (la))(NN (guitarra))(VBD (<))(CD (3))))) |ET| 
-1.0121088705269847274337280396139  |BT| (ROOT (S (NP (VB (feelin)))(VP (VBN (feed)))(PRT (RP (up))))) |ET| 
-1.0121088705269847274337280396139  |BT| (ROOT (S (VP (VB (thank)))(NP (RB (u)))(ADVP (DT (all))))) |ET| 
-1.0121088705269847274337280396139  |BT| (ROOT (S (NP (JJ (happy))(JJ (new))(NN (year)))(PP (TO (to)))(NP (DT (all))))) |ET| 
0.88432065986869889950838796721655  |BT| (ROOT (S (ADVP (NN (dammit)))(NP (PRP (i)))(ADVP (RB (just)))(VP (VBD (eat)))(NP (PRP$ (my))(JJ (enitre))(NN (box)))(PP (IN (of)))(NP (NNS (clementine)))(PP (IN (in)))(NP (CD (one)))(VP (VBG (sit))))) |ET| 
0.82791708986259326952250603426364  |BT| (ROOT (S (VP (VBP (do))(RB (not))(VB (break)))(NP (PRP (i)))(SBAR (RB (cuz)))(NP (PRP (i)))(VP (VBP (be))(RB (already))(VBN (crack)))(VP (VBG (bleed)))(PP (IN (from)))(NP (DT (the))(NNS (memory)))(PP (IN (of)))(NP (PRP$ (my))(NN (past))))(S (NP (PRP (it)))(ADVP (RB (too))(JJ (much)))(VP (TO (to))(VB (ask))))) |ET| 
0.95288008849958993895512548988336  |BT| (ROOT (S (ADVP (VB (ahahahah)))(NP (PRP (i)))(VP (VBP (walk)))(PP (RP (in)))(NP (PRP (she)))(VP (VBZ (make)))(NP (DT (a))(NN (crack)))(PP (IN (on)))(NP (NNP (twilight)))(UCP (NN (xd))))) |ET| 
-1.0121088705269847274337280396139  |BT| (ROOT (S (NP (NNP (time)))(PP (IN (for)))(NP (NN (bed)))(PP (IN (for)))(NP (PRP (i))))(S (NP (PRP (i)))(VP (VBP (hope)))(NP (NN (everyone)))(VP (VBZ (have)))(NP (DT (a))(JJ (great))(NN (day))))) |ET| 
-1.0121088705269847274337280396139  |BT| (ROOT (S (NP (NNP (omg))))(S (NP (PRP (i)))(VP (NN (cant))(VBP (believe)))(SBAR (IN (that)))(NP (FW (i)))(ADVP (RB (just)))(VP (VBP (read)))(NP (JJ (chinese))))) |ET| 
-1.0121088705269847274337280396139  |BT| (ROOT (S (NP (FW (i)))(ADVP (RB (just)))(VP (VBN (watch)))(NP (NNP (edward)))(VP (VBZ (scissorhand)))(NP (PRP (it)))(PP (PDT (such)))(NP (DT (a))(JJ (amazing))(NN (movie))))) |ET| 
1.0121088705269847274337280396139  |BT| (ROOT (S (NP (JJ (happy)))(VP (NN (eid)))(PP (TO (to)))(NP (DT (all))))) |ET| 
1.0121088705269847274337280396139  |BT| (ROOT (S (NP (JJ (happy))(JJ (new))(NN (year))(NN (everyone))))) |ET| 
0.82121034709884876967578293260885  |BT| (ROOT (S (NP (RB (im))(JJ (glad))(FW (i)))(VP (VBD (choose))(TO (to))(VB (stay)))(PP (IN (at)))(NP (NN (garden))(NN (grove))(NN (star))))) |ET| 
-1.0121088705269847274337280396139  |BT| (ROOT (S (NP (NNP (awaken))(NNP (mustakrakish))(VBD (<))(CD (3))))) |ET| 
-1.0121088705269847274337280396139  |BT| (ROOT (S (NP (NNP (<))(CD (3))(NN (silva))(NN (bruna))))) |ET| 
-1.0121088705269847274337280396139  |BT| (ROOT (S (NP (PRP (he)))(VP (VBD (do))(RB (not))(RB (even))(VB (have))(TO (to))(VB (go)))(PP (TO (to)))(NP (NNP (jared))))) |ET| 
0.82487521789676709893512907001423  |BT| (ROOT (S (NP (WDT (what))(NN (day)))(VP (VBP (do)))(NP (PRP (we)))(VP (VB (head)))(PRT (RP (out)))(PP (IN (for)))(NP (NN (casa))(NN (hogar))))) |ET| 
1.0121088705269847274337280396139  |BT| (ROOT (S (NP (UH (ah)))(VP (VB (screw)))(NP (DT (this))(JJ (dumb))(NN (website)))(NP (PRP (i)))(VP (VBP (be)))(PRT (RP (out))))) |ET| 
0.83483773290221119367515711928718  |BT| (ROOT (S (NP (PRP (i)))(VP (VBP (do))(RB (not))(VB (give)))(PRT (RP (up)))(VP (VB (fuck)))(NP (DT (this))(NN (shit))))) |ET| 
-1.0121088705269847274337280396139  |BT| (ROOT (S (NP (DT (this))(NN (week)))(ADVP (RP (over))(RB (yet))))) |ET| 
-1.0121088705269847274337280396139  |BT| (ROOT (S (SBAR (IN (if)))(NP (NN (history)))(VP (VBZ (repeat)))(NP (PRP (itself)))(NP (PRP (i)))(VP (VBP (be))(JJ (sooo))(VBG (gon))(TO (na))(VB (get)))(NP (DT (a))(NN (dinosaur))))) |ET| 
-1.0121088705269847274337280396139  |BT| (ROOT (S (VP (VBZ (be)))(NP (RB (soo))(JJ (happy)))(PP (IN (with)))(NP (NN (life))))(S (NP (PRP (i)))(VP (VBP (wish)))(NP (JJ (___________))(NN (haha)))(VP (MD (can))(RB (not))(VB (tell)))(NP (PRP (ya))))(S (PP (VB (lol.text)))(NP (PRP (i)))(VP (NNS (luv))))) |ET| 
1.0121088705269847274337280396139  |BT| (ROOT (S (NP (JJ (long))(NN (hair))))(S (NP (-LRB- (-lrb-))(NNP (wacha))))(S (NP (NNP (d))))) |ET| 
0.86754425470907936546183236714569  |BT| (ROOT (S (VP (VBZ (be)))(NP (NNP (lovin))(NNP (life)))(ADVP (RB (right)))(ADVP (RB (now))))) |ET| 
1.0121088705269847274337280396139  |BT| (ROOT (S (NP (NNP (school))(NN (time))))) |ET| 
-1.0121088705269847274337280396139  |BT| (ROOT (S (NP (CD (1000))(NN (?????))))(S (NP (NNP (????))))(S (NP (CD (97))(NN (%))))(S (NP (CD (3))(NN (%))))(S (NP (VB (?????))))) |ET| 
-1.0121088705269847274337280396139  |BT| (ROOT (S (NP (-LRB- (-lrb-))(NNP (?????))))(S (NP (CD (????????))))) |ET| 
-1.0121088705269847274337280396139  |BT| (ROOT (S (NP (VB (woo-hoo))))(S (NP (DT (the))(NNPS (colts)))(VP (VBD (win))))) |ET| 
1.0121088705269847274337280396139  |BT| (ROOT (S (NP (JJ (re-readin))(CD (5))(NNS (people)))(NP (PRP (you)))(VP (VBP (meet)))(PP (IN (in)))(NP (NN (heaven))))(S (NP (CD (<))(CD (3)))(PP (VBP (like)))(PP (IN (for)))(NP (DT (a))(NN (remeber)))(ADVP (WRB (when))))) |ET| 
0.86775876720039091249958573826007  |BT| (ROOT (S (SBAR (IN (if)))(NP (PRP (i)))(VP (VBD (have)))(NP (PRP$ (my))(JJ (own))(NN (world)))(NP (PRP (i)))(VP (MD (would))(VB (fill)))(NP (PRP (it)))(PP (IN (with)))(NP (NN (wealth))(CC (and))(NN (desire))))) |ET| 
0.8946181828030609350932422785263  |BT| (ROOT (S (VP (VBG (get)))(ADJP (JJ (ready))(TO (to))(VB (go))(VB (see)))(NP (PRP (i)))(ADVP (RB (never)))(VP (VBD (see)))(NP (DT (another))(NN (butterfly)))(ADVP (RB (again))))(S (NP (VB (break)))(NP (DT (a))(NN (leg))(NNP (bird))))) |ET| 
-1.0121088705269847274337280396139  |BT| (ROOT (S (NP (NNP (school)))(VP (VBD (be)))(NP (NN (fun))(NN (today))))) |ET| 
-1.0121088705269847274337280396139  |BT| (ROOT (S (VP (VBZ (have)))(NP (DT (a))(NNP (engraved))(NN (name))(NN (tag)))(PP (IN (for)))(NP (NNP (taco))(NNP (bell)))(ADVP (RB (now))))(S (ADJP (VBZ (jealous))))(S (NP (PRP (you)))(ADVP (RB (very))(RB (well)))(VP (MD (should))(VB (be))))) |ET| 
-1.0121088705269847274337280396139  |BT| (ROOT (S (NP (PRP$ (my))(NN (compueter)))(VP (VBN (fuke)))(PRT (RP (up)))(ADVP (RB (now)))(VP (RB (now)))(NP (PRP (it)))(VP (VBP (sez)))(NP (NNS (window)))(VP (VBZ (be)))(ADVP (RB (now)))(ADJP (JJ (genuine))))) |ET| 
1.0121088705269847274337280396139  |BT| (ROOT (S (NP (NNP (avada))(NNP (kedavra))))(S (NP (SYM (>))))) |ET| 
0.87549912538520713312095722358208  |BT| (ROOT (S (VP (VBZ (love)))(NP (PRP$ (he))(NN (motorcycle))))(S (NP (VB (vroooomm))))) |ET| 
1.0121088705269847274337280396139  |BT| (ROOT (S (NP (NNP (eyeglasses)))(NP (NNP (where)))(VP (VBP (be)))(NP (JJ (youuuuuuuu))(NNS (????))))(S (NP (NNP (={))(NNP (-lrb-))))) |ET| 
-1.0121088705269847274337280396139  |BT| (ROOT (S (NP (PRP (i)))(VP (VBP (have))(TO (to))(VB (put)))(ADVP (RP (together)))(NP (DT (a))(NN (outline)))(PP (IN (with)))(NP (RB (absolutely))(DT (no))(NN (information))))(S (NP (NNP (shoot))(NNP (me))))) |ET| 
-1.0121088705269847274337280396139  |BT| (ROOT (S (NP (VBZ (love))(JJ (retail))(NN (therapy))))(S (NP (VBD (<))(CD (3))))) |ET| 
-1.0121088705269847274337280396139  |BT| (ROOT (S (VP (VBG (make)))(NP (NN (study))(NNS (note))))(S (NP (NNP (planning)))(PP (TO (to)))(NP (NN (ace)))(NP (DT (these))(NNS (test))))) |ET| 
1.0121088705269847274337280396139  |BT| (ROOT (S (NP (NN (poison))(NN (ivy)))(VP (VBZ (suck))))) |ET| 
0.96571342996474529574157941169688  |BT| (ROOT (S (NP (VB (feel)))(ADVP (RB (very))(UH (eh))))) |ET| 
1.0121088705269847274337280396139  |BT| (ROOT (S (NP (JJ (stephen))(NN (colbert)))(VP (VBZ (be)))(NP (DT (a))(NN (cutie))))) |ET| 
-1.0121088705269847274337280396139  |BT| (ROOT (S (VP (VBZ (be)))(ADVP (RB (just)))(NP (DT (a))(NN (part)))(PP (IN (of)))(NP (DT (the))(NN (past))))) |ET| 
-1.0121088705269847274337280396139  |BT| (ROOT (S (NP (NNP (chauncey))(NNP (rogauno-superhero)))(PP (IN (of)))(NP (DT (the))(NN (world))))) |ET| 
-1.0121088705269847274337280396139  |BT| (ROOT (S (NP (DT (the))(NNP (bed)))(VP (VBZ (be)))(NP (NNP (callin))(NNP (my))(NNP (name))))(S (NP (NNP (nite))(NNP (nite)))(VP (NNP (peeps))))) |ET| 
1.0121088705269847274337280396139  |BT| (ROOT (S (NP (NNP (iiiiiiiiiiii)))(VP (VBD (wanttt)))(NP (DT (a))(JJ (jobbbb))))(S (NP (NNP (grrrr))))(S (VP (VB (get)))(NP (PRP (i)))(ADVP (IN (out)))(PP (IN (of)))(NP (RB (here))))(S (NP (NNP (ugh))))(S (NP (NNP (p))))) |ET| 
1.0121088705269847274337280396139  |BT| (ROOT (S (NP (MD (can))(DT (this)))(VP (VB (be)))(NP (NN (love))))(S (NP (VBD (<))(CD (3))))) |ET| 
0.81267375291591004149438504100544  |BT| (ROOT (S (NP (NNP (uts))(VBD (yang))(NN (membosankan))(NN (kelar))))(S (NP (NNP (spa)))(VP (VBD (kapan2))))) |ET| 
-1.0121088705269847274337280396139  |BT| (ROOT (S (NP (NNP (halloween))))(S (NP (VB (boo))))(S (NP (NNP (lol))))) |ET| 
-1.0121088705269847274337280396139  |BT| (ROOT (S (NP (VB (dye)))(VP (VB (remember)))(PP (JJ (dat)))(NP (NN (time))))) |ET| 
-1.0121088705269847274337280396139  |BT| (ROOT (S (NP (NNP (fuckinnnnnnnnnnnnnnnnnnnnn))(VBP (wayne))(JJ (roooooooooooney))))(S (NP (NNP (rooney))))(S (NP (NNP (rooney))))(S (NP (NNP (rooney))))) |ET| 
0.53923741601523389466166236161371  |BT| (ROOT (S (ADVP (RB (just)))(VP (VBD (finish)))(NP (DT (the))(NNP (susan))(NNP (komen))(NN (race)))(PP (IN (for)))(NP (DT (the))(NN (cure))))) |ET| 
0.69089889967330875286677382973721  |BT| (ROOT (S (NP (DT (the))(NN (summer)))(VP (VBD (end)))(NP (CD (2)))(ADVP (RB (soon))))) |ET| 
0.96234355980889940695988116203807  |BT| (ROOT (S (ADVP (WRB (when)))(NP (DT (the))(NN (fuck)))(VP (VBZ (be)))(NP (NN (school))(VBG (start))))) |ET| 
-1.0121088705269847274337280396139  |BT| (ROOT (S (NP (JJ (sachez))(NN (appr))(NN (cier))(VBP (leur))(JJ (juste))(NN (valeur)))(VP (FW (les)))(NP (JJ (petites))(NNS (joie)))(PP (FW (de)))(NP (FW (la))(NN (vie))(NN (quotidienne))))) |ET| 
-1.0121088705269847274337280396139  |BT| (ROOT (S (NP (EX (there)))(VP (VBZ (be)))(NP (RB (only))(CD (one))(JJ (pretty))(NN (child)))(PP (IN (in)))(NP (DT (the))(NN (world)))(NP (DT (every))(NN (mother)))(VP (VBZ (have)))(NP (PRP (it))))) |ET| 
-1.0121088705269847274337280396139  |BT| (ROOT (S (NP (NNP (aww))(NN (boy))(NN (head)))(VP (VBZ (be)))(ADJP (VBN (reck))))) |ET| 
1.0121088705269847274337280396139  |BT| (ROOT (S (NP (VB (goodnight))))(S (NP (NNP (pls)))(VP (VBP (continue)))(NP (PRP$ (you))(NN (support)))(PP (TO (to)))(NP (PRP$ (my))(NN (product))))(S (NP (VBZ (thank))(NN (everyone))))) |ET| 
0.59644213589260841601458196237218  |BT| (ROOT (S (NP (NNP (arrrggghhhh))))(S (NP (NN (seluar))(NN (jean))(NN (aku))(NN (dah))(SYM (x))(JJ (muat))))(S (NP (NN (aku))(NNS (mestus)))(PP (VBP (berbuat)))(NP (JJ (sesuatu))))) |ET| 
0.96316250366405198324315506397397  |BT| (ROOT (S (NP (NN (time)))(PP (IN (for)))(NP (NN (music))))(S (NP (DT (no))(NN (clue)))(NP (WP (what)))(VP (TO (to))(VB (listen)))(PP (TO (to)))(NP (NNP (d))))) |ET| 
-1.0121088705269847274337280396139  |BT| (ROOT (S (ADJP (JJ (happy))(JJ (4th))))(S (VP (VB (love)))(NP (PRP$ (you))(NN (independence))))) |ET| 
-1.0121088705269847274337280396139  |BT| (ROOT (S (NP (PRP$ (my))(NN (phone)))(VP (VBD (break)))(ADVP (RB (again))))(S (VP (VBD (get)))(NP (PRP (it)))(NP (NN (yesterday))))(S (NP (NN (fml)))(NP (PRP$ (my))(NN (phone))(NNS (problem))))) |ET| 
-1.0121088705269847274337280396139  |BT| (ROOT (S (NP (NN (cant))(VBP (stand))(NNS (people)))(NP (WP (who)))(VP (VBP (play)))(NP (NN (music)))(PP (IN (on)))(NP (PRP$ (they))(NN (phone)))(NP (POS ('s))(NN (speaker))))) |ET| 
0.75032132789134198258551577964681  |BT| (ROOT (S (NP (PDT (all))(JJ (vivas)))(VP (VBN (do)))(PP (NN (widout)))(NP (NNS (study)))(NP (NN (nw))(RB (nt)))(VP (VBG (prepare)))(PP (IN (for)))(NP (DT (the))(NN (project))(NN (presentation.coz))(NN (dnt))(NN (study))(JJ (hard))(NN (bt))(NN (party)))(ADJP (RBR (harder)))(VP (VBZ (be)))(NP (DT (the))(NN (life))(NN (mantra))))) |ET| 
0.79248550503947612355659657623619  |BT| (ROOT (S (NP (JJ (kelui2)))(PP (IN (for)))(NP (PDT (all))(PRP$ (my))(NNS (mate)))(PP (JJ (yg)))(NP (NN (ada))(NN (kt))(NN (kulim)))(VP (VBZ (let)))(NP (VB (lepak))(NN (mcd)))(VP (VBZ (be)))(NP (NNP (fadzlullah))(NNP (suhaimi))))) |ET| 
1.0091823377427742158829460095149  |BT| (ROOT (S (VP (VBZ (be)))(NP (DT (a))(NNP (big))(`` ("))(NNP (f'ing))(NNP (deal))))) |ET| 
-1.0121088705269847274337280396139  |BT| (ROOT (S (NP (PRP (i)))(VP (VBP (want))(TO (to))(VB (be)))(NP (JJ (free))))) |ET| 
-1.0121088705269847274337280396139  |BT| (ROOT (S (NP (PRP (i)))(VP (VBP (be))(VBG (go))(TO (to))(VB (miss)))(NP (JJ (dlsu)))(PP (JJ (vs)))(NP (JJ (admu))))) |ET| 
0.77604279397006492580146641557803  |BT| (ROOT (S (NP (PRP (i)))(VP (VBP (do))(RB (not))(IN (like)))(NP (NN (black.it)))(ADVP (RB (just)))(VP (MD (can))(RB (not))(VB (commit)))(PP (TO (to)))(NP (CD (one))(NN (color)))(NP (PRP (it)))(VP (VBZ (be))(VBN (get))(NN (ta))(VB (be)))(NP (PRP (they)))(NP (DT (all))))) |ET| 
0.76081490137362484116323457783437  |BT| (ROOT (S (VP (VBD (have))(CC (and)))(NP (DT (every))(JJ (good))(NN (night)))(PP (IN (with)))(NP (DT (the))(JJ (babe))(VBP (:d)))(VP (VBN (see)))(NP (NNP (ajb)))(VP (VBP (do)))(NP (PRP (they)))(UCP (NN (thing))))(S (VP (VBN (make)))(NP (PRP (i)))(VP (VBP (miss))))(S (ADVP (WRB (how)))(NP (RB (much))(FW (i))(VBP (love))(NN (dance))))(S (NP (JJ (*))(NN (sigh)))(NP (PRP (he)))(VP (VBZ (be)))(ADJP (JJ (perfect))))) |ET| 
0.81389172970195267087234469727264  |BT| (ROOT (S (VP (VBD (legalize)))(NP (PRP (it)))(NP (PRP (i)))(VP (MD (will))(VB (advertise)))(NP (PRP (it))))(S (NP (VBP (~))(NNP (peter))(NNP (tosh))))(S (NP (PRP (it)))(VP (VBZ (be))(VBN (be)))(NP (CD (five))(NNS (year)))(PP (IN (for)))(NP (PRP (i)))(VP (NN (w/out))(CC (but)))(PP (IN (for)))(NP (NN (everyone)))(ADJP (RB (else))(JJ (happy)))(NP (CD (4/20))))) |ET| 
-1.0121088705269847274337280396139  |BT| (ROOT) |ET| 
-1.0121088705269847274337280396139  |BT| (ROOT (S (NP (NNP (hatred)))(VP (VBZ (be))(RB (never))(VBN (end)))(PP (IN (by)))(NP (NN (hatred)))(PP (IN (by)))(NP (NN (love))))) |ET| 
-0.91379645761058458930392589536496  |BT| (ROOT (S (NP (NNP (ma))(NN (bday)))(VP (VBZ (be)))(PP (IN (in)))(NP (DT (a))(NN (hour.turnin)))(NP (CD (18))(NNP (biznatches))))(S (NP (VBP (^))(CD (3))(NNS (^))))) |ET| 
-1.0121088705269847274337280396139  |BT| (ROOT (S (NP (DT (a))(RB (little))(VBN (devastate)))(PP (IN (at)))(NP (DT (the))(NN (moment))))) |ET| 
1.0121088705269847274337280396139  |BT| (ROOT (S (NP (PRP (i)))(VP (VBP (need))(TO (to))(VB (go)))(PP (TO (to)))(NP (NN (bed)))(ADVP (RB (now))))) |ET| 
0.88336204265136031299476826461614  |BT| (ROOT (S (NP (PRP (i)))(VP (VBD (have))(TO (to))(VB (get)))(PRT (IN (off)))(NP (DT (the))(NN (boat)))(SBAR (IN (so)))(NP (PRP (i)))(VP (MD (could))(VB (walk)))(PP (IN (on)))(NP (NN (water))))) |ET| 
0.85992714874872655528292852977756  |BT| (ROOT (S (NP (PDT (all))(NNP (time))(NNP (low))(CC (and))(NNP (paramore)))(VP (VBP (kick)))(NP (JJ (ass)))(ADJP (JJ (unplugged))))) |ET| 
-1.0121088705269847274337280396139  |BT| (ROOT (S (VP (VBG (force)))(NP (PRP (i)))(VP (TO (to))(VB (stay)))(ADJP (JJ (isnt)))(VP (VBG (win)))(NP (PRP (i)))(ADVP (RB (back))))) |ET| 
-1.0121088705269847274337280396139  |BT| (ROOT (S (NP (UH (hey)))(VP (VB (talk)))(PP (TO (to)))(NP (PRP (i))))) |ET| 
-1.0121088705269847274337280396139  |BT| (ROOT (S (NP (DT (some))(NNS (weekend)))(VP (VBP (be)))(ADJP (JJ (such)))(SBAR (IN (that)))(NP (PRP (you)))(VP (VBP (hope)))(NP (PRP (they)))(ADVP (RB (never)))(VP (VBD (happen))))) |ET| 
0.86097005408229132505937286623521  |BT| (ROOT (S (NP ('' ('))(DT (the))(VBP (lose))(NNP (symbol)))(PP (IN (by)))(NP (NNP (dan))(NNP (brown))))(S (NP (DT (a))(JJ (must-buy))(NN (book))))) |ET| 
0.85675458303860407838214996445458  |BT| (ROOT (S (NP (WP (what)))(NP (VBZ (be))(DT (the))(NN (deal)))(PP (IN (with)))(NP (DT (the))(NNS (siren)))(VP (VBG (go)))(PRT (RP (off)))(PP (IN (in)))(NP (NNP (smyrna))))) |ET| 
0.77068237043202492131399594654795  |BT| (ROOT (S (NP (NNP (asante)))(VP (VBZ (be))(VBG (have)))(NP (PRP$ (she))(JJ (first))(NN (guitar))(NN (session)))(NP (NN (today)))(PP (IN (with)))(NP (NNP (cy))(RB (too))(RB (cuteee))(VBG (<))(CD (3))))) |ET| 
-1.0121088705269847274337280396139  |BT| (ROOT (S (ADVP (RB (finally)))(VP (VBD (get)))(NP (DT (a))(NNP (ps3)))(ADVP (RB (now)))(VP (MD (will))(VB (play)))(NP (NNP (xiii))))) |ET| 
-1.0121088705269847274337280396139  |BT| (ROOT (S (NP (NN (time)))(VP (TO (to))(RB (relax.baby)))(NP (# (#))(CD (4)))(VP (VBZ (be)))(ADJP (RB (asleep)))(NP (NNS (kid)))(VP (VBP (be))(VBN (feed))))) |ET| 
-1.0121088705269847274337280396139  |BT| (ROOT (S (NP (RB (too))(JJ (lazy))(NN (today))(VBP (*))(NNS (yawn))))) |ET| 
1.0121088705269847274337280396139  |BT| (ROOT (S (NP (PRP (you)))(NP (PRP (i)))(NP (PRP (we)))(VP (VBP (be))(VBG (gon))(TO (na))(VB (make)))(NP (PRP (it)))(PP (IN (through))))) |ET| 
0.94776764841956306906212148533086  |BT| (ROOT (S (NP (PRP (i)))(VP (VBP (be))(JJ (aimin)))(NP ('' ('))(RB (right)))(PP (IN (at)))(NP (JJ (you250))))) |ET| 
1.0121088705269847274337280396139  |BT| (ROOT (S (NP (PRP (i)))(VP (VBP (hate)))(NP (NNS (computer))))) |ET| 
-1.0077027126226343334280954877613  |BT| (ROOT (S (NP (WP (what)))(NP (PRP (we)))(VP (VB (flee)))(PP (IN (from)))(NP (NNS (flee)))(PP (IN (from)))(NP (PRP (we))))) |ET| 
-1.0121088705269847274337280396139  |BT| (ROOT (S (NP (PRP (i)))(VP (VBP (have)))(NP (VBN (internet))(VBN (again.and))(JJ (high))(NN (speed)))(ADVP (NNS (wireless)))(PP (IN (at)))(NP (WDT (that))))) |ET| 
-0.87780986551045414589822257767082  |BT| (ROOT (S (NP (PRP (i)))(VP (VBP (think)))(NP (DT (a))(JJ (good))(NN (tan)))(NP (DT (a))(JJ (long))(VBP (swim)))(VP (VBP (be)))(PP (IN (in)))(NP (NN (order)))(PP (IN (for)))(NP (NN (tomorrow))))) |ET| 
0.89341487292942489695235508406768  |BT| (ROOT (S (NP (NNP (para))(NNP (papapa))(NNP (pa))(NNP (pa))(NNP (pa))))) |ET| 
0.95897356747674655785829145315802  |BT| (ROOT (S (NP (NN (ar)))(VP (NN (raqda)))(NP (NN (ax))(NN (dawn))(NN (l))(VBZ (assignment)))(VP (JJ (ghejjuh)))(NP (NN (loool)))(NP (NNP (p))))) |ET| 
0.88698580437709351187436368491035  |BT| (ROOT (S (NP (NNP (lone))(VBZ (wolf))(NN (barrel))))) |ET| 
-1.0121088705269847274337280396139  |BT| (ROOT (S (NP (PRP$ (its))(PRP$ (my))(NN (brithday))))) |ET| 
-1.0121088705269847274337280396139  |BT| (ROOT (S (NP (NNP (cansada))(FW (de))(NNP (tanto))(VBD (tramite))(JJ (wuac))))) |ET| 
-1.0121088705269847274337280396139  |BT| (ROOT (S (NP (RB (not))(JJ (happy))))) |ET| 
0.9688211653148202096019758755574  |BT| (ROOT (S (NP (PRP (i)))(ADVP (RB (finally)))(VP (VBD (meet)))(NP (PRP$ (my))(JJ (half))(NN (sister))))(S (ADVP (VBD (akward))))) |ET| 
1.0121088705269847274337280396139  |BT| (ROOT (S (NP (CD (4))(NNS (day)))(VP (TO (to))(VB (go))))(S (NP (JJ (damn))(NN (time)))(VP (VBZ (have))(VBN (fly)))(PP (IN (by)))(NP (RB (too))(JJ (quick))))) |ET| 
0.7492454621274692305732401109708  |BT| (ROOT (S (NP (NNP (sam))(NNP (jo))))(S (VP (VBG (sing)))(NP (DT (a))(NN (song)))(PP (IN (with)))(NP (PRP (i)))(PP (VBD (<)))(NP (CD (3))))(S (NP (RB (yo))(PRP (i)))(VP (MD ('ll))(VB (tell)))(NP (PRP (you)))(NP (WP (what)))(NP (PRP (i)))(VP (VBP (want)))(NP (WP (what)))(NP (PRP (i)))(ADVP (RB (really)))(ADVP (RB (really)))(VP (VBP (want))))) |ET| 
-0.85354096401313495068308156987769  |BT| (ROOT (S (NP (JJ (*))(NN (sigh)))(SBAR (VBP (*)))(NP (PRP (i)))(VP (VBP (be)))(ADJP (JJ (sick)))(PP (IN (of)))(NP (DT (these))(NNS (scar)))(VP (RB (especially))(VBG (make)))(NP (PRP (it)))(ADJP (JJR (worse))))) |ET| 
-0.96378953091884911330566865217406  |BT| (ROOT (S (NP (JJ (sorry))(NN (hubby)))(NP (DT (no))(JJ (new))(NN (tv)))(PP (IN (at)))(NP (DT (this))(NN (time))))(S (NP (NNS (bill)))(VP (VBD (eat)))(NP (PRP (it)))(PRT (RP (up))))(S (ADVP (RB (maybe)))(NP (DT (some))(NN (day)))(ADVP (WRB (when)))(NP (PRP (they)))(VP (VBP (be)))(ADJP (JJ (hungry)))(NP (PRP (you)))(VP (MD ('ll))(VB (get)))(NP (CD (one))))) |ET| 
-1.0121088705269847274337280396139  |BT| (ROOT (S (PP (IN (in)))(NP (NNP (sunny))(NNP (france))))(S (NP (NNP (miss)))(NP (PRP (you)))(ADVP (DT (all)))(NP (RB (especially))(NNP (tom))(NNP (goddard))))) |ET| 
0.94901593332529721180890192044899  |BT| (ROOT (S (NP (NNP (eggs))(CC (and))(NNP (grits))))) |ET| 
0.98553433217891817097466855557286  |BT| (ROOT (S (NP (VB (kelly))(NN (family))(NN (fan))))) |ET| 
0.7894016041213909318230435019359  |BT| (ROOT (S (NP (NN (zit))(VBP (eindelijk))(VBG (terug))(NN (op))(NN (facebook))))) |ET| 
-1.0121088705269847274337280396139  |BT| (ROOT (S (NP (NN (dylan)))(ADVP (NN (completly)))(VP (VBZ (understand)))(NP (DT (the))(NN (backflip))))) |ET| 
-0.99578794261180902935848280321807  |BT| (ROOT (S (NP (CD (five))(CD (hundred))(JJ (twenty-five))(CD (thousand))(CD (six))(CD (hundred))(NNS (minute))))) |ET| 
-1.0121088705269847274337280396139  |BT| (ROOT (S (NP (VB (setelah))(NN (sekian))(NN (lamanya))))(S (VP (VB (offset)))(NP (JJ (baru))(NN (berasa)))(PP (NN (offser)))(NP (NN (lg))))) |ET| 
0.97225534713624928162545302257058  |BT| (ROOT (S (NP (VB (find))(FW (karaoke)))(PP (IN (in)))(NP (NNP (prague))))(S (VP (RB (hurray)))(NP (PRP (it)))(VP (VBD (be)))(NP (DT (a))(JJ (gay))(NN (bar))))) |ET| 
0.65055788605985276351617585532949  |BT| (ROOT (S (NP (RB (just))(VB (hack))(DT (a))(NNP (copy)))(PP (IN (of)))(NP (NNP (halo))(CD (1))(NNP (boo-yah))))(S (NP (PRP (i)))(VP (NNP (love)))(NP (PRP (you)))(NP (VBD (cassandra))))) |ET| 
0.59549446005841877305186926605529  |BT| (ROOT (S (ADVP (RB (just)))(VP (VBG (think)))(PP (IN (about)))(NP (PRP (you))))) |ET| 
-1.0121088705269847274337280396139  |BT| (ROOT (S (ADVP (WRB (how)))(NP (FW (i)))(VP (VBP (know)))(SBAR (IN (that)))(NP (PRP (you)))(VP (VBD (be))(VBG (wait)))(PP (IN (for)))(NP (PRP (i))))) |ET| 
-1.0121088705269847274337280396139  |BT| (ROOT (S (VP (JJ (fake)))(NP (PRP (it))))(S (SBAR (NNP (until)))(NP (NNP (u)))(VP (VBP (make)))(NP (PRP (it))))) |ET| 
-1.0121088705269847274337280396139  |BT| (ROOT (S (ADJP (RB (so))(JJ (bored)))(NP (SYM (@))(NN (work)))(NP (NN (someone))(VBP (talk)))(PP (TO (to)))(NP (PRP (i))))) |ET| 
0.99020687891832470661768184072571  |BT| (ROOT (S (NP (NN (dj)))(NP (NN (whosain)))(VP (VBD (kill))(SYM (d)))(NP (RB (night)))(PP (IN (at)))(NP (JJ (blue))(NN (frog))))) |ET| 
0.84418468024969361973575132651604  |BT| (ROOT (S (NP (JJ (prachtige))(NN (prachtfilm))(VBP (op))(NN (canvas))(NN (nu)))(PP (IN (into)))(NP (NN (rhe)))(ADJP (JJ (wild))))) |ET| 
0.95068201963682508193187459255569  |BT| (ROOT (S (NP (NNS (kandi)))(VP (MD (may))(VB (demeo)))(VP (VB (>)))(NP (JJ (pure))(NN (genius))))) |ET| 
-1.0121088705269847274337280396139  |BT| (ROOT (S (NP (NNP (sura))(NN (openzz)))(PP (IN (in)))(NP (CD (600))(NNS (screen))))) |ET| 
-1.0121088705269847274337280396139  |BT| (ROOT (S (NP (NNP (book)))(PP (IN (of)))(NP (NNP (eli)))(VP (VBD (be)))(ADJP (JJ (awesome))))) |ET| 
-0.8891635038908113353173234827409  |BT| (ROOT (S (NP (JJ (okay))(NN (michael))(VBD (vick))(JJ (calm)))(PP (RB (down))))) |ET| 
0.77711176641087853500522442118381  |BT| (ROOT (S (NP (PRP (i)))(VP (VBP (be))(VBG (go)))(PP (TO (to)))(NP (DT (the))(NN (beach)))(NP (NN (today)))(PP (IN (after)))(NP (NN (work))))(S (NP (PRP (i)))(VP (VBP (intend))(TO (to))(VB (take)))(NP (RB (as))(JJ (many))(NNS (picture)))(SBAR (IN (as)))(NP (PRP (i)))(VP (MD (can))))(S (NP (PRP (i)))(VP (VBP (love)))(NP (PRP (you)))(NP (NNP (florida))))) |ET| 
1.0121088705269847274337280396139  |BT| (ROOT (S (NP (FW (i)))(VP (VBP (be)))(UCP (RB (rather))(JJ (happy))))) |ET| 
1.0121088705269847274337280396139  |BT| (ROOT (S (NP (PRP (i)))(VP (VBP (be)))(NP (NNP (peter))(NNP (pan)))(NP (DT (the))(NNP (wizard))))) |ET| 
-1.0121088705269847274337280396139  |BT| (ROOT (S (NP (VB (screw))(DT (the))(NNS (rule)))(NP (PRP (i)))(VP (VBP (have)))(NP (JJ (green))(NN (hair))))) |ET| 
-0.77738986045576219385822014373844  |BT| (ROOT (S (VP (VBG (try))(TO (to))(VB (make)))(NP (NN (hoenn)))(PP (IN (in)))(NP (NN (minecraft.wait)))(ADVP (WRB (why)))(VP (VBP (be)))(NP (FW (i)))(VP (VBG (do)))(NP (DT (this))))) |ET| 
-0.82662224872640710504612115983036  |BT| (ROOT (S (NP (NN (pimpin)))(VP (VBP (be))))) |ET| 
1.0121088705269847274337280396139  |BT| (ROOT (S (NP (NNP (home)))(PP (IN (in)))(NP (DT (a))(NN (week))))) |ET| 
0.82587942260204050270999687199946  |BT| (ROOT (S (NP (NNP (pentagon)))(VP (VBD (be))(VBG (be)))(ADVP (RB (so))(JJ (close))))) |ET| 
0.8114130525710286923057878993859  |BT| (ROOT (S (VP (VBD (be))(VBN (wake)))(ADVP (RP (up)))(VP (VBZ (be)))(PP (TO (to))(VBN (thrill))))) |ET| 
-0.92159126488986486958054911156069  |BT| (ROOT (S (NP (VBP (nm)))(VP (VBG (go)))(PP (IN (on)))(NP (NNP (home))(NNP (alone)))(NP (NNP (d))))) |ET| 
-1.0121088705269847274337280396139  |BT| (ROOT (S (NP (NNP (oggy))(NNP (mullin)))(VP (MD (can))(VB (hold)))(NP (DT (a))(NN (party))))(S (NP (NNP (d))))) |ET| 
-1.0121088705269847274337280396139  |BT| (ROOT (S (NP (WP (what))(DT (a))(NNS (night))(VBP (sleep))))) |ET| 
0.90477950387860150982533014030196  |BT| (ROOT (S (VP (VBP (need)))(NP (DT (some))(NNS (suggestion)))(PP (IN (for)))(NP (NN (music)))(PP (TO (to)))(NP (NN (download))(NNS (people))))) |ET| 
0.75373474623285918738702093833126  |BT| (ROOT (S (NP (VB (be))(NN (compouter))(VBG (engg)))(PP (NN (likhna)))(NP (NN (tha))(NN (sirf)))(VP (VB (be)))(NP (NN (comp))(NN (likha)))(VP (NNS (wapa))(NNS (karnus)))(NP (VBZ (padegi.wapas))(CD (600))(NNS (rupee))(NN (ka))(NN (phatka))))) |ET| 
-0.73538950482776321848632505862042  |BT| (ROOT (S (NP (JJ (d0ne)))(PP (NN (wiith)))(NP (VBP (english)))(ADVP (RB (now)))(PP (IN (on)))(PP (TO (to)))(NP (NN (art))))) |ET| 
-1.0121088705269847274337280396139  |BT| (ROOT (S (NP (NN (brb))(NNS (7-day))(VBP (cruise)))(PP (TO (to)))(NP (NNP (mexico))))) |ET| 
-0.93833569010611439509261799685191  |BT| (ROOT (S (NP (JJ (demasiadas))(NNS (situacione))(VBP (no)))(VP (NN (rodean.no)))(NP (PRP (i)))(VP (JJ (puedo)))(NP (NN (quedar)))(ADVP (RB (con)))(VP (VB (lo)))(NP (JJ (brazos))(NNS (cruzado))))) |ET| 
1.0121088705269847274337280396139  |BT| (ROOT (S (NP (NNP (feliz))(NNP (natal)))(NP (JJ (pessoal))))(S (NP (SYM (=))(NNP (d))))) |ET| 
0.77498428884839432040365636567003  |BT| (ROOT (S (NP (VBD (facebook))))(S (VP (NNP (take)))(NP (NNP (me))(NNP (hoooommmmeee))))) |ET| 
1.0121088705269847274337280396139  |BT| (ROOT (S (NP (NN (plane)))(VP (VBD (get))(VBN (delay))))(S (NP (-LRB- (-lrb-))(NN (yay))))(S (NP (DT (another))(NN (day)))(PP (IN (in)))(NP (NNP (korea))(NNP (:d)))(NP (NNP (<))(CD (3))(CD (dk))))) |ET| 
-1.0121088705269847274337280396139  |BT| (ROOT (S (NP (NN (sambooka))(SYM (=)))(NP (PRP$ (my))(JJS (worst))(NN (enemy))(SYM (=))(NNP (s))))) |ET| 
-1.0121088705269847274337280396139  |BT| (ROOT (S (NP (JJ (busy)))(VP (VBG (poke)))(NP (DT (a))(JJ (dead))(NN (fish)))(PP (IN (in)))(NP (DT (the))(NNS (eye))))(S (NP (VB (ti))(NN (fun))))) |ET| 
-1.0121088705269847274337280396139  |BT| (ROOT (S (NP (NNP (may))(NNP (vampire))(VBZ (diary))(NN (season))(CD (2))(NN (naaaa))(NNS (!!!))))(S (NP (NNP (=}))(NNP (-rrb-))(NNP (-rrb-))(-RRB- (-rrb-))(JJ (-rrb-))(-RRB- (-rrb-))))) |ET| 
0.69517818001457942767018494123477  |BT| (ROOT (S (NP (NNP (snow)))(NP (NNP (snow)))(NP (NNP (snow))))(S (NP (JJ (glad))(PRP (you)))(VP (MD (could))(RB (finally))(VB (make)))(NP (PRP (it))))(S (SBAR (RB (even))(RB (though)))(NP (PRP$ (its))(RB (only))(DT (a))(NN (couple))(VBZ (flurry)))(VP (PRP$ (you)))(ADVP (RB (still)))(ADVP (RB (here))))) |ET| 
0.91223025701677651344567721025669  |BT| (ROOT (S (VP (JJ (hapi2)))(NP (NN (bday)))(PP (TO (to)))(NP (PRP$ (my))(CD (one))(NN (nd)))(ADVP (RB (only)))(VP (JJ (papa)))(NP (NN (n))(DT (this))(NN (world)))(ADVP (NNP (;]))))) |ET| 
1.0121088705269847274337280396139  |BT| (ROOT (S (VP (VB (fuck)))(NP (PRP (it))))) |ET| 
-1.0121088705269847274337280396139  |BT| (ROOT (S (VP (VBG (go))(NN (scalloping))(CC (and))(RB (maybe))(VBG (fishing.cming)))(NP (NN (home))(NN (tomorrow))))) |ET| 
-1.0121088705269847274337280396139  |BT| (ROOT (S (NP (NNP (v)))(VP (MD (can))(RB (not))(VB (change)))(NP (NNP (da))(NNP (past))))(S (NP (NN (bt))(NN (v)))(VP (MD (can))(VB (let)))(NP (PRP (it)))(VP (VB (go)))(VP (VBN (learn)))(PP (JJ (4m)))(NP (PRP (it))))) |ET| 
-1.0121088705269847274337280396139  |BT| (ROOT (S (NP (PRP (i)))(VP (MD (shall))(VB (take)))(NP (DT (this))(NN (potato))(NN (chip.)))(NP (VB (eat))(PRP (it))))(S (NP (NNP (death))(VB (note)))(NP (JJ (epic))(NN (scene))))) |ET| 
0.85169968992615752156893904611934  |BT| (ROOT (S (NP (VB (omg))))(S (VP (VBG (wake)))(PRT (RP (up)))(PP (IN (in)))(NP (DT (a))(NN (king))(NN (size))(NN (bed)))(PP (IN (in)))(NP (DT (the))(NNP (presidential))(NN (suite)))(VP (VBZ (feel)))(ADJP (JJ (sooooooooooooo))(JJ (good))))) |ET| 
0.68904491858611383037214181968011  |BT| (ROOT (S (VP (VBG (hang)))(PP (IN (at)))(NP (NN (musikfest))(VBG (enjoy))(NN (nora))(NNS (jone)))(VP (VBG (earn)))(NP (PRP$ (my))(VBP (keep))))) |ET| 
0.80280123542295178662442367567564  |BT| (ROOT (S (NP (VB (-rrb-))(VB (-rrb-))(-RRB- (-rrb-))(CD (-rrb-))(-RRB- (-rrb-))(VBG (letsz))(NNP (gooo))(NNP (baabbee))))(S (NP (NNP (-lrb-))(-LRB- (-lrb-))(NNP (-lrb-))(-LRB- (-lrb-))(JJ (-lrb-))))) |ET| 
-1.0121088705269847274337280396139  |BT| (ROOT (S (VP (VB (hang)))(PRT (RP (out)))(PP (IN (with)))(NP (NNP (caleb))))(S (NP (RB (about)))(VP (TO (to))(VB (go))(VB (do)))(NP (NN (something))(NNP (crazy))))(S (NP (NNP (hahahaha))(NNP (jk))))) |ET| 
-0.90352036599333362953956338969874  |BT| (ROOT (S (NP (NN (chillin)))(PP (IN (in)))(NP (DT (the))(JJ (cave))(NN (wih))(NNP (roy))(NNP (walker)))(NP (NNP (ashley))(NNP (head))))) |ET| 
-1.0121088705269847274337280396139  |BT| (ROOT (S (VP (VBZ (be)))(NP (DT (the))(JJ (luckiest))(NN (guy)))(PP (IN (in)))(NP (DT (the))(NN (world)))(NP (RB (all)))(PP (IN (because))(IN (of)))(NP (PRP (she))))) |ET| 
1.0121088705269847274337280396139  |BT| (ROOT (S (NP (NNP (nyc)))(NP (NN (tomorrow))(NN (night))))) |ET| 
0.82251154670008519431689819612075  |BT| (ROOT (S (VP (VBZ (be))(VBG (go)))(PP (TO (to)))(NP (DT (the))(JJ (pixel))(NN (porno))(NN (party)))(ADVP (NN (tonight))))) |ET| 
0.63142766941890438037177091246122  |BT| (ROOT (S (NP (VBG (brave))(DT (the))(NN (snow)))(VP (TO (to))(VB (take)))(NP (DT (some))(JJR (more))(NNS (pic))))) |ET| 
-0.94244316706814246220602626635809  |BT| (ROOT (S (VP (VBD (have)))(NP (DT (a))(JJ (lovely))(NN (graduation))(NN (day))))) |ET| 
-1.0121088705269847274337280396139  |BT| (ROOT (S (NP (NNP (let)))(NP (VBZ (be)))(ADVP (NNP (do))(NNP (this))))) |ET| 
-1.0081200821466023143102574977092  |BT| (ROOT (S (NP (NNS (love))(VBG (be))(NNP (facebook))(NNP (raped))(NNP (at))(VBP (work))))) |ET| 
0.86882049562985486090838094241917  |BT| (ROOT (S (NP (PRP (i)))(VP (VBP (have)))(NP (DT (a))(JJ (deep))(VBG (run))(JJ (love/hate))(NN (relationship)))(PP (IN (with)))(NP (NN (minecraft))))) |ET| 
0.77177150254399762285828501262586  |BT| (ROOT (S (NP (DT (the))(JJ (modern))(NN (equivalent)))(PP (IN (of)))(NP (NN (ganandorf)))(VP (VBZ (be)))(NP (DT (the))(NN (guy)))(VP (RB (w)))(PP (VBP (/)))(NP (JJ (multiple))(JJ (popped))(NNS (collar))))(S (NP (NNS (#douchiness))(VBZ (transcend))(NN (history))))) |ET| 
0.99647959112630135614097071083961  |BT| (ROOT (S (NP (VBZ (starbuck)))(PP (IN (with)))(NP (NN (mrka)))(NP (NN (tomorrow))))(S (ADJP (JJ (ready)))(PP (IN (for)))(NP (DT (a))(NN (vanillabean))))) |ET| 
1.0121088705269847274337280396139  |BT| (ROOT) |ET| 
-1.0121088705269847274337280396139  |BT| (ROOT (S (VP (VBG (wait)))(PP (IN (for)))(NP (PRP$ (my))(JJ (zumba))(NN (class)))(VP (TO (to))(VB (start))))) |ET| 
-0.86689079096469523477708207792602  |BT| (ROOT (S (NP (NN (ok)))(NP (DT (this))(NN (soul)))(VP (VBG (drain)))(NP (NN (heat)))(VP (VBZ (need))(TO (to))(VB (go)))(ADVP (RP (away)))(NP (NNP (x.x))(NNP ([))(VBP (<))(CD (3))(NNP (matthew))(NNS (]))))) |ET| 
-0.94475324749406419666541978585883  |BT| (ROOT (S (NP (NNP (torres))(, (,))(NNP (drogba))(CC (and))(NNP (anelka)))(PP (RB (up)))(NP (JJ (front))))(S (NP (RB (just)))(VP (VB (give)))(NP (PRP (it)))(NP (NN (time)))(NP (IN (that))(NN (line)))(PRT (RB (up)))(VP (MD (will))(VB (be))(VBG (devastate)))(PP (TO (to)))(NP (DT (any))(NN (backline))))) |ET| 
0.75973889314960596497172673480236  |BT| (ROOT (S (NP (NNP (promise)))(NP (PRP (i)))(NP (PRP (you)))(VP (VBD (win)))(NP (RB (t)))(VP (VB (let)))(NP (PRP (they)))(VP (VB (put)))(PRT (RP (out)))(NP (PRP$ (you))(NN (fire))))) |ET| 
0.78076697482753720791492924035992  |BT| (ROOT (S (VP (UH (hey))(VB (do)))(NP (DT (any)))(PP (IN (of)))(NP (PRP (you))(NNS (guy)))(VP (VB (remember)))(NP (NN (jason))(NN (smith)))(PP (IN (from)))(NP (JJ (chaffin))(NN (jr.))(JJ (high))(CC (and))(PRP$ (he))(NN (brother))(NN (devon))))) |ET| 
0.73517291240423732201492157400935  |BT| (ROOT (S (NP (NNP (ik))(NN (heb))(VBG (vandaag))(RB (een))(JJ (heerlijke))(JJ (zelfgemaakte))(NN (risotto)))(VP (VBD (meet))(NN (spruiten))(NN (gegeten)))(NP (NNP (lekk))(SYM (r))))) |ET| 
-0.89005562928990000770568258303683  |BT| (ROOT (S (NP (`` ("))(NNP (dont)))(VP (VBP (walk)))(PP (IN (in)))(NP (NN (front)))(PP (IN (of)))(NP (PRP (i)))(NP (PRP (i)))(VP (MD (might))(RB (not))(VB (follow))))(S (NP (NNP (dont))(VBP (walk)))(PP (IN (behind)))(NP (PRP (i)))(NP (PRP (i)))(VP (MD (might))(RB (not))(VB (lead))))(S (VP (VBP (walk)))(PP (IN (beside)))(NP (PRP (i)))(NP (NN (hand)))(PP (IN (in)))(NP (NN (hand)))(ADVP (RB (forever))))) |ET| 
-1.0121088705269847274337280396139  |BT| (ROOT (S (NP (DT (the))(RBS (best))(JJ (mind-altering))(NN (drug)))(VP (VBZ (be)))(NP (NN (truth))))) |ET| 
-0.87724318839150916549129988197819  |BT| (ROOT (S (NP (VB (roll)))(PP (RP (on)))(NP (NN (tomorrow)))(VP (VB (let)))(NP (DT (the))(NN (hen))(NN (weekend))(NNS (antic)))(VP (VBP (begin.limerick)))(NP (NN (wont)))(VP (VB (know)))(NP (WP (what)))(VP (VBD (hit)))(NP (PRP (it))))) |ET| 
0.91570916734489848920475196791813  |BT| (ROOT (S (VP (VBZ (be)))(VP (VBG (get)))(NP (DT (the))(JJ (last))(NN (wisdom))(NN (tooth)))(VP (VBN (remove)))(NP (DT (this))(NN (morning))))) |ET| 
0.72143579220777787064378117065644  |BT| (ROOT (S (NP (NNP (alsocox)))(VP (VBZ (have))(RB (finally))(VBN (learn)))(ADVP (WRB (how)))(VP (TO (to))(NN (upload)))(NP (NNS (photo))(NNP (walaupun))(LS (x))(NN (ada))(NNS (rezekus))(VBP (dalam)))(PP (NN (syarahan)))(NP (NN (agama))))(S (NP (NNP (saya))(NN (tetap))(NN (bersyukur))(NNP (kerana))(NNP (woody))(NNP (woodpecker))))) |ET| 
0.93552441025011801034594327575178  |BT| (ROOT (S (VP (VBZ (be)))(ADJP (RP (off)))(UCP (TO (to))(VB (english)))(NP (NN (class)))(PP (IN (at)))(NP (DT (the))(NN (university))))) |ET| 
-1.0121088705269847274337280396139  |BT| (ROOT (S (VP (VBZ (be))(VBG (enjoy)))(NP (DT (this))(NNP (ice))(NN (day)))(PP (IN (with)))(NP (PRP$ (my))(NN (baby))(NN (boy))))(S (NP (VBD (<))(CD (3))))) |ET| 
-0.99048124893141864522050354935345  |BT| (ROOT (S (NP (PRP (i)))(VP (VBP (suck)))(PP (IN (at)))(NP (JJ (watercolors.and))(NN (palm))(NNS (tree))))(S (NP (NNP (xd))(NNP (whos))(NNP (going))(TO (to))(NNP (kainsen))(NNP (tommorow))))) |ET| 
-0.98267015319797068606533230195055  |BT| (ROOT (S (NP (JJ (carne))(NN (asada))(NN (wit)))(NP (DT (the))(NN (family)))(ADVP (RB (later)))(PP (IN (on)))(NP (NN (cant))(VBD (beat)))(NP (DT (that))))) |ET| 
0.7642592224304238790466570208082  |BT| (ROOT (S (ADVP (RB (just)))(VP (VBD (get))(VBN (do))(VBG (work)))(PP (RB (ugh)))(VP (VBG (make)))(NP (NN (dinner)))(VP (VBG (go))(TO (to))(NN (bed)))(NP (NN (peace))))) |ET| 
0.69621072845956111230236729170429  |BT| (ROOT (S (NP (NNP (life)))(VP (VBD (travel)))(ADVP (RB (only))(RB (once))))(S (NP (NN (todey)))(NP (POS ('s))(NN (moment)))(NP (VB (become))(NN (tommorow)))(NP (POS ('s))(NN (memory))))(S (NP (VBD (enjoye))(DT (every))(NN (moment)))(PP (IN (of)))(NP (NN (life)))(NP (NN (god)))(ADJP (JJ (bad)))(SBAR (IN (because)))(NP (NN (gift)))(PP (IN (of)))(NP (NN (life)))(VP (VBZ (be)))(NP (NN (life)))(NP (PRP (itself))))) |ET| 
1.0121088705269847274337280396139  |BT| (ROOT (S (NP (NN (today)))(VP (VBZ (be))(VBG (go))(TO (to))(VB (be)))(NP (DT (a))(JJ (good))(NN (day))))) |ET| 
-0.746283919543381468741927164956  |BT| (ROOT (S (NP (NN (time)))(VP (VBZ (fly)))(ADVP (WRB (when)))(NP (PRP (you)))(VP (VBP (be))(VBG (have)))(NP (VBN (fun.good))(JJ (bye))(CD (2010)))(ADVP (UH (hello))(CD (2011))))) |ET| 
-0.88435196232808865879349013994215  |BT| (ROOT (S (ADVP (WRB (when)))(NP (NN (u)))(VP (VB (think)))(PP (IN (of)))(NP (NN (ur))(NN (life)))(NP (NN (wat))(VBZ (cum)))(VP (TO (to))(VB (mind))))) |ET| 
-1.0121088705269847274337280396139  |BT| (ROOT (S (VP (VBP (fuck)))(NP (FW (i)))(VP (VB (hate)))(NP (DT (the))(NN (thought)))(PP (IN (of)))(VP (VBG (go)))(PP (TO (to)))(NP (DT (this))(NN (hole))(NN (tomorrow))))) |ET| 
0.788511706707965664975290565053  |BT| (ROOT (S (NP (PRP (i)))(ADVP (RB (just)))(VP (VBD (forget)))(PP (IN (about)))(NP (PRP$ (my))(NN (fruit)))(PP (IN (on)))(NP (NNP (cafe))(NN (world))))(S (NP (VB (damnit))))) |ET| 
0.65778551545668573208303087085369  |BT| (ROOT (S (NP (NNP (cali)))(ADVP (RB (pretty))(RB (much)))(VP (VBD (kick)))(NP (PRP$ (my))(NN (ass))))(S (NP (NNP (fuckin)))(PP (NNP (beyond)))(NP (NNP (wonderland))(VBD (<))(CD (3))))) |ET| 
0.73301193738228487273289601944271  |BT| (ROOT (S (NP (NNP (<))(LS (3))(VBP (love)))(NP (DT (this))(NN (girl))(NN (sy))(NN (xmrhkan))(NN (sape2.sy))(NN (cuma))(NN (mrhkan))(NN (dirus))(NN (sy))(NN (sendiri.sy))(NN (xpnt)))(VP (NN (ngan)))(NP (NN (keje))(NN (tp))(NN (sy))(NN (penat))(NN (jd))(NNS (dirus))(NN (sy))(NN (sendirus))))(S (NP (VB (sy))(NN (xbencikan))(NN (sesiapa))))) |ET| 
-1.0003981609187260204407721175812  |BT| (ROOT (S (NP (PRP (i)))(ADVP (RB (just)))(VP (VBD (realize)))(NP (PRP$ (my))(NN (sock)))(VP (VBD (be)))(ADVP (RB (inside)))(ADJP (RP (out)))(NP (DT (all))(NN (day))))) |ET| 
-1.0121088705269847274337280396139  |BT| (ROOT (S (NP (JJ (*)))(VP (NN (sigh)))(NP (VBP (*)))(VP (VBN (end)))(PRT (RP (up)))(VP (VBG (lose)))(NP (PRP$ (my))(NN (job))))) |ET| 
-0.85566526382928609351097293256316  |BT| (ROOT (S (NP (PRP (i)))(VP (NN (confunden)))(ADVP (NN (la)))(NP (NNS (actitude))(FW (de))(NN (la))(NN (personas.o))(NN (ser))(NN (que))(NN (yo))(NN (soy)))(NP (NN (que))(NN (toma))(NNS (actitude)))(VP (NNS (confusa))))(S (NP (NN (jejeje))))) |ET| 
1.0121088705269847274337280396139  |BT| (ROOT (S (PP (IN (in)))(NP (DT (the))(NN (begining))))) |ET| 
0.99177331597901507986847491338267  |BT| (ROOT (S (NP (PRP (we))(DT (all)))(VP (VBP (know)))(NP (DT (the))(NNS (consequence)))(ADVP (WRB (when)))(NP (PRP (you)))(VP (VBP (play))(TO (to))(VB (win))))) |ET| 
0.78586776030636074086288545004209  |BT| (ROOT (S (NP (DT (the))(NNP (darkened))(VBZ (humanity))(NN (saga))))(S (NP (WP (what))(VBZ (happen)))(ADVP (WRB (when)))(NP (DT (the))(NNP (truth)))(VP (VBZ (be))(NNP (revealed)))(ADVP (WRB (when)))(NP (NNP (humanity)))(VP (VBZ (be)))(NP (NNP (brought)))(PP (TO (to)))(NP (NNP (light))))) |ET| 
-0.92626700910269854638556807913119  |BT| (ROOT (S (NP (NNP (life)))(VP (MD (can))(RB (just))(VB (turn)))(PRT (RP (around)))(PP (IN (for)))(NP (DT (the))(JJR (better)))(PP (IN (in)))(NP (RB (just))(DT (a))(NN (snap))))) |ET| 
-0.944342990449796970686691111041  |BT| (ROOT (S (NP (JJ (great))(NN (day)))(PP (IN (at)))(NP (NN (pool)))(PP (IN (inside)))(VP (JJ (resting)))(NP (NN (watchin))(NN (shrek))))) |ET| 
-1.0121088705269847274337280396139  |BT| (ROOT (S (SBAR (IN (while)))(NP (DT (the))(NN (rain)))(VP (VBZ (come))(VBG (pour)))(PP (RB (inside))))) |ET| 
0.83790313729709464674044738785597  |BT| (ROOT (S (NP (FW (i))(VBD (<))(CD (3)))(NP (PRP$ (my))(NN (family))))) |ET| 
0.85966435553382791745491431356641  |BT| (ROOT (S (NP (JJ (estuve))(NN (perdida))(NN (pero)))(NP (PRP (he)))(VP (NN (vuelto))))) |ET| 
0.78185674839223151533218469921849  |BT| (ROOT (S (ADVP (RB (well)))(PP (VB (peoplei)))(NP (PRP$ (its))(NN (time)))(NP (LS (2)))(VP (VB (shut)))(NP (DT (the))(NNS (shuder)))(PP (IN (on)))(NP (NN (mi))(NNS (eye)))(VP (VB (luv)))(NP (PRP (ya))))) |ET| 
-0.716494295250413193443250747805  |BT| (ROOT (S (NP (NNP (high))(NNP (ho))(NNP (high))(NNP (ho)))(NP (PRP$ (its)))(PRT (RB (off)))(PP (TO (to)))(NP (JJR (more))(NNS (doctor)))(NP (PRP (we)))(VP (VBP (go))))) |ET| 
-0.94192797283076379333266459070728  |BT| (ROOT (S (NP (JJ (happy))(NN (birthday))(NNP (lelei))(NNP (magturo))))(S (NP (JJ (ayabshu))(CC (and))(JJ (aymishu))))(S (NP (CD (<)))(NP (CD (3))(CD (<))(CD (3))(CD (<))(CD (3))))) |ET| 
-0.55367638651861372789397819360602  |BT| (ROOT (S (NP (JJ (happy))(NN (birthday))(NNP (kacee))))(S (NP (JJ (mommy)))(ADVP (NNS (love)))(NP (PRP (you))))(S (NP (CD (<)))(NP (CD (3))(CD (<))(CD (3))(CD (<))(CD (3))))) |ET| 
