SVM-light Version V5.01-TK-1.4.3_smoothing
5 # kernel type
3 # kernel parameter -d 
1 # kernel parameter -g 
1 # kernel parameter -s 
1 # kernel parameter -r 
empty# kernel parameter -u 
0.4 # kernel parameter -L 
1 # kernel parameter -T 
T # kernel parameter -C 
1 # kernel parameter -F 
1 # kernel parameter -S 
0.400000 # kernel parameter -M 
3 # kernel parameter -N 
S # kernel parameter -V 
S # kernel parameter -W 
 # kernel parameter -G 
1.000000 # similarity threshold -H 
1.000000 # terminal factor -X 
empty # matrix path -P 
empty # cache path -Z 
1000000 # cache size -A 
10000000 # cache max size -B 
0.500000 # refresh factor -D 
10 # highest feature index 
8000 # number of training documents 
3610 # number of support vectors plus 1 
-3.9498926 # threshold b, each following line is a SV (starting with alpha*y)
-1  |BT| (ROOT (S (NP (NNP (time)))(PP (IN (for)))(NP (DT (that))(JJ (good))(JJ (old))(NN (cat)))(PP (VBP (nap.txt)))(NP (PRP (it))))) |ET| 
-1  |BT| (ROOT (S (NP (NNP (kinda))(JJ (sad))(NN (tonight)))(VP (VBG (miss)))(NP (DT (some)))(PP (IN (of)))(NP (PRP$ (my))(JJ (old))(NNS (friend)))(ADVP (WRB (where)))(VP (VBZ (have)))(NP (DT (the))(NN (time)))(VP (VBN (go))))) |ET| 
-1  |BT| (ROOT (S (VP (VBG (go)))(PP (TO (to)))(NP (VB (find)))(NP (PRP (myself)))(NP (DT (a))(JJR (younger))(NN (woman))))(S (NP (VB (scratch))(IN (that)))(VP (MD (will))(VB (start)))(PP (IN (with)))(NP (DT (the))(NNP (woman))(NN (part)))(PP (IN (of)))(NP (DT (that))(NN (statement))))(S (NP (MD (can))(RB (not))(VB (be)))(ADJP (RB (too))(JJ (fussy)))(PP (IN (at)))(NP (PRP$ (my))(NN (age))))) |ET| 
-1  |BT| (ROOT (S (VP (VBZ (think)))(NP (NNP (hunter)))(VP (VBZ (be)))(NP (DT (the))(RBS (most))(JJ (confusing))(NN (person)))(ADVP (RB (ever))))) |ET| 
-1  |BT| (ROOT (S (VP (VBZ (be)))(ADVP (RB (so))(JJ (irritated)))(PP (IN (by)))(NP (NNS (people)))(NP (WP (who)))(ADVP (RB (really)))(VP (VBP (think)))(SBAR (IN (that)))(NP (DT (this))(NN (snow)))(VP (VBZ (disprove)))(NP (JJ (global))(NN (warming))))) |ET| 
1  |BT| (ROOT (S (NP (FW (i)))(VP (VB (spend)))(NP (RB (too))(JJ (much))(NN (time)))(PP (IN (on)))(NP (DT (the))(NN (computer))))(S (NP (DT (the))(NN (sky)))(VP (VBZ (spend)))(NP (RB (too))(JJ (much))(NN (time)))(VP (VBG (cry))))) |ET| 
1  |BT| (ROOT (S (NP (VBP (im)))(VP (VBG (drown)))(PP (IN (in)))(NP (NN (math))))) |ET| 
1  |BT| (ROOT (S (VP (VB (fuck)))(NP (PRP (it))))) |ET| 
1  |BT| (ROOT (S (NP (PRP (it)))(VP (VBZ (be)))(NP (RB (just))(CD (one)))(PP (IN (of)))(NP (DT (those))(NNS (day)))(ADVP (WRB (where)))(NP (PRP (you)))(VP (VBP (feel)))(PP (IN (like)))(VP (VBG (punch)))(NP (DT (a))(NN (bitch))))) |ET| 
0.84828082099455404119225931935944  |BT| (ROOT (S (VP (VBG (fuck)))(NP (NN (god)))(VP (RB (damned)))(NP (JJ (cunt))(NN (ass))(NN (mother))(VBG (fuck))(NN (bitch))(NN (ass))(VBP (fuck))(NN (face))))(S (NP (VB (suck))(PRP$ (my))(JJ (big))(JJ (fucking))(JJ (black))(NN (dick)))(NP (PRP (i)))(VP (VBP (wan))(TO (na))(VB (see)))(NP (DT (that))(NN (ass))(NN (clap)))(NP (NN (bitch))))) |ET| 
-1  |BT| (ROOT (S (VP (NN (damn)))(NP (PRP (it))))(S (NP (DT (the))(VBZ (bear)))(VP (VBN (lose))))) |ET| 
-1  |BT| (ROOT (S (PP (RB (off)))(VP (TO (to))(VB (work))))(S (VP (VBG (work)))(NP (NN (ovrrrr))(NN (timmmme))))) |ET| 
-1  |BT| (ROOT (S (NP (VBP (im)))(VP (VBN (excite)))(PP (IN (for)))(NP (DT (the))(JJ (next))(NN (payday))))(S (NP (FW (i)))(VP (MD (will))(VB (buy)))(NP (NN (something))(NN (haha))))) |ET| 
1  |BT| (ROOT (S (NP (NNP (wednesday)))(NP (NNP (thursday)))(NP (NNP (friday)))(NP (NNP (saturday)))(NP (NNP (sunday)))(NP (NNP (berlin))))) |ET| 
1  |BT| (ROOT (S (NP (NNP (land)))(PP (IN (of)))(NP (DT (the))(NNP (lost)))(VP (VBZ (be)))(ADJP (JJ (amazing))))(S (NP (NNP (*))(VBZ (sing))(NNS (*)))(NP (NNP (d))))) |ET| 
1  |BT| (ROOT (S (NP (NNP (science)))(VP (VBZ (be)))(NP (JJ (anti-darwinism))(CC (and))(JJ (anti-atheism))))) |ET| 
-1  |BT| (ROOT (S (NP (NNP (tomorrow))(NN (night)))(VP (VBZ (be)))(NP (JJ (thee))(NN (night))))) |ET| 
-1  |BT| (ROOT (S (NP (NN (choice)))(VP (VBZ (be)))(NP (DT (the))(JJ (ultimate))(NN (expression)))(PP (IN (of)))(NP (NN (trust))))) |ET| 
-1  |BT| (ROOT (S (NP (NN (everything)))(VP (MD (may))(VB (be))(VBG (fall)))(PP (IN (into)))(NP (NN (place))))(S (NP (VBN (excite)))(PP (IN (for)))(NP (NNP (thursday))))(S (VP (VBG (find)))(PP (RP (out)))(NP (DT (the))(NN (sex))))) |ET| 
1  |BT| (ROOT (S (PP (IN (in)))(NP (DT (the))(NN (mood)))(PP (IN (for)))(NP (DT (some))(NN (bullet)))(PP (IN (for)))(NP (PRP$ (my))(JJ (valentine))))(S (VP (VBG (fail)))(NP (DT (that))(NN (panteraaaaa))))) |ET| 
0.97789290560906516613925987257971  |BT| (ROOT (S (VP (VBG (study)))(PP (IN (for)))(NP (PRP$ (my))(NN (science))(NN (test)))(VP (VBG (do)))(NP (PRP$ (my))(NN (art))(NN (project)))(PP (IN (at)))(NP (RB (once))))(S (NP (FW (i)))(VP (NN (wonder)))(ADVP (WRB (how)))(NP (DT (this)))(VP (MD (will))(VB (pan)))(PRT (RP (out))))) |ET| 
1  |BT| (ROOT (S (ADVP (RB (just)))(VP (VBP (chillin)))(ADJP (JJ (ready)))(VP (TO (to))(VB (go)))(PP (TO (to)))(NP (VB (work))))) |ET| 
-1  |BT| (ROOT (S (NP (NNP (r12)))(ADVP (RB (now)))(VP (VBD (start)))(ADJP (JJ (ready)))(PP (IN (for)))(NP (DT (the))(NN (challenge))))) |ET| 
-1  |BT| (ROOT (S (NP (DT (another))(NN (day)))(PP (VBD (aniehe)))(NP (DT (another))(NN (day)))(NP (DT (another))(NN (dollar))))) |ET| 
-1  |BT| (ROOT (S (VP (VBG (feel)))(ADVP (RB (rather)))(VP (JJ (unwanted))(TO (to))(VB (be)))(ADJP (JJ (honest))))) |ET| 
1  |BT| (ROOT (S (NP (DT (a))(NN (joke)))(VP (VBZ (be)))(NP (DT (the))(RBS (most))(JJ (concrete))(NN (abstraction))))) |ET| 
1  |BT| (ROOT (S (VP (VB (thank)))(NP (NN (god)))(PP (IN (for)))(NP (JJ (good))(NN (fridey))))(S (NP (NN (im)))(VP (VBD (stuff))))) |ET| 
1  |BT| (ROOT (S (NP (DT (the))(JJ (samsung))(NN (galaxy)))(VP (VBZ (be)))(NP (DT (the))(JJ (sweetest))(NN (phone)))(ADVP (RB (ever))))) |ET| 
-1  |BT| (ROOT (S (NP (NN (yahoo))))(S (NP (JJ (carefree))(NNS (moment)))(PP (IN (like)))(NP (DT (this))(RB (just)))(VP (VBZ (make)))(NP (PRP (i)))(VP (VBP (smile))))) |ET| 
-1  |BT| (ROOT (S (ADVP (RB (well))(RB (back)))(PP (IN (in)))(NP (NNP (florida)))(ADVP (RB (now)))(NP (PRP (i)))(VP (VBP (think)))(NP (PRP (i)))(VP (VBD (bring)))(NP (DT (the))(JJ (cold))(NN (weather)))(PP (IN (with)))(NP (PRP (i))))) |ET| 
-1  |BT| (ROOT (S (NP (RB (just))(VBD (give))(NN (blood))(CC (and))(JJ (colstons))(NN (trippin))))(S (NP (PRP$ (he))(JJ (fat))(NN (@ss)))(VP (MD (should))(VB (give)))(NP (NN (blood))))) |ET| 
1  |BT| (ROOT (S (NP (RB (only))(DT (those))(RB (truly))(VBN (lose)))(VP (MD (can))(VB (be))(VBN (find))))) |ET| 
1  |BT| (ROOT (S (NP (JJ (wonderful))(NN (time)))(PP (IN (with)))(NP (NNS (friend))(CC (and))(NN (music))))(S (ADVP (RB (now)))(NP (DT (a))(NN (day)))(PP (IN (of)))(NP (JJ (spiritual))(NN (regeneration))))) |ET| 
1  |BT| (ROOT (S (ADJP (JJ (tired)))(ADJP (JJ (weary))))(S (ADVP (RB (still)))(VP (MD (can))(RB (not))(VB (fkin)))(NP (VB (sleep))(JJ (~))))) |ET| 
-1  |BT| (ROOT (S (NP (VB (idk))(WP (what)))(NP (FW (i)))(VP (VBD (be))(VBG (think))))) |ET| 
-1  |BT| (ROOT (S (VP (VBD (get)))(NP (DT (the))(NN (job)))(PP (IN (at)))(NP (JJ (classic))(NNS (piano)))(PP (IN (as)))(NP (DT (a))(NN (web))(NN (developer))))) |ET| 
-1  |BT| (ROOT (S (NP (NNP (totes)))(VP (VBZ (be)))(NP (DT (the))(NN (way)))(ADVP (RB (forward))))) |ET| 
1  |BT| (ROOT (S (NP (PRP (i)))(VP (VBP (think)))(NP (PRP (i)))(VP (MD ('ll))(VB (call)))(NP (NN (hailey)))(VP (NN (bug)))(NP (PRP (she)))(PP (IN (for)))(ADVP (RB (awhile))))) |ET| 
1  |BT| (ROOT (S (NP (VBD (miss))(CD (3))(NNS (week)))(PP (IN (of)))(NP (NN (church)))(NP (DT (this))(NN (month))))(S (NP (PRP (i)))(VP (VBP (fail)))(NP (JJ (|))))) |ET| 
1  |BT| (ROOT (S (NP (PRP (i)))(VP (VBD (get)))(NP (WP (what)))(NP (PRP (i)))(VP (VBD (give))))) |ET| 
-1  |BT| (ROOT (S (NP (VB (stop))(VBG (think))(JJ (bad))(NNS (thing)))(PP (IN (about)))(NP (PRP (i))))) |ET| 
-1  |BT| (ROOT (S (NP (VB (im)))(VP (VBN (employ)))(NP (JJ (full))(NN (time))))(S (VP (VB (thank)))(NP (PRP (you)))(NP (NNP (god))))) |ET| 
-1  |BT| (ROOT (S (NP (NN (everything))(PRP (i)))(VP (VBD (have)))(NP (PRP (i)))(VP (VBD (give)))(NP (PRP (it)))(PP (TO (to)))(NP (PRP (you))))) |ET| 
1  |BT| (ROOT (S (PP (RB (just)))(VP (VBG (live)))(NP (DT (the))(NN (dream))))) |ET| 
1  |BT| (ROOT (S (NP (WP (what)))(VP (VBZ (be)))(NP (DT (the))(NN (difference)))(PP (IN (between)))(NP (NN (maturity))(CC (and))(NNS (childishness))))) |ET| 
1  |BT| (ROOT (S (NP (DT (the))(NN (world)))(VP (MD (will))(LS (c)))(NP (VB (illumination)))(PP (IN (at)))(NP (DT (the))(NN (dawn)))(PP (IN (of)))(NP (NN (humanity))))) |ET| 
-1  |BT| (ROOT (S (VP (VBG (spend)))(NP (DT (the))(NN (weekend)))(PP (IN (at)))(NP (NN (mom)))(NP (POS ('s)))(PP (IN (with)))(NP (DT (the))(NN (baby))))) |ET| 
-1  |BT| (ROOT (S (NP (NN (nothing)))(VP (MD (can))(VB (kill)))(NP (NN (joy)))(ADVP (RBR (more))(RB (quickly)))(NP (DT (the))(DT (a))(JJ (unforgiving))(NN (spirit))))) |ET| 
-1  |BT| (ROOT (S (VP (VBG (go)))(PP (TO (to)))(NP (RB (really))(VB (enjoy)))(VP (VBG (be)))(PP (IN (at)))(NP (NN (home)))(CONJP (RB (instead))(IN (of)))(NP (NN (school))))) |ET| 
1  |BT| (ROOT (S (NP (DT (another))(`` ("))(NN (labor))(JJ (intense))('' ("))(CC (and))(JJ (long))(NN (week))))(S (NP (VBD (whew))))) |ET| 
1  |BT| (ROOT (S (NP (PRP (i)))(VP (VBP (love)))(NP (PRP (it)))(ADVP (WRB (when)))(NP (PRP (she)))(VP (VBZ (say)))(NP (PRP$ (its))(NN (cool))(FW (i)))(VP (VBD (get)))(NP (PRP (it))))) |ET| 
1  |BT| (ROOT (S (NP (VBD (read))(PRP (it))))(S (NP (PRP (he)))(VP (VBZ (be)))(ADJP (JJ (good))))) |ET| 
-1  |BT| (ROOT (S (NP (PRP (she)))(NP (WP (who)))(VP (VBZ (laugh)))(NP (JJ (last)))(VP (VBZ (think)))(ADJP (JJS (slowest))))) |ET| 
-1  |BT| (ROOT (S (VP (VBZ (be)))(NP (RB (all)))(ADJP (JJ (ready)))(PP (IN (for)))(VP (VBG (christmas.bring)))(NP (PRP (it)))(PP (IN (on)))(NP (NNP (!!!))))(S (ADVP (RB (still)))(VP (VBG (wish)))(PP (IN (for)))(NP (DT (this))(NN (rain)))(VP (TO (to))(VB (go))(VBG (away.bring)))(ADVP (RP (back)))(PP (TO (to)))(NP (JJ (cold))(NNS (!!!))))) |ET| 
-1  |BT| (ROOT (S (ADVP (RB (finally))))(S (NP (DT (the))(NN (weekend)))(VP (VBZ (be)))(ADVP (RB (here))))(S (NP (NNP ([))(NNP (<))(CD (3))(NNP (matthew))(NNP (]))))) |ET| 
1  |BT| (ROOT (S (PP (IN (at)))(NP (NN (churchill)))(VP (VBG (bet)))(NP (DT (the))(NNS (pony))))) |ET| 
1  |BT| (ROOT (S (NP (NNS (rebecca)))(PP (IN (for)))(NP (DT (the))(VBP (win))))) |ET| 
1  |BT| (ROOT (S (NP (VBN (whirlwind)))(PP (IN (of)))(NP (NN (activity))))) |ET| 
-1  |BT| (ROOT (S (NP (PRP (it)))(VP (VBD (be)))(NP (DT (the))(NN (possibility)))(PP (IN (of)))(NP (NNS (darkness)))(NP (WDT (that)))(VP (VBD (make)))(NP (DT (the))(NN (day)))(VP (VB (seem)))(ADJP (RB (so))(JJ (bright))))) |ET| 
-1  |BT| (ROOT (S (INTJ (UH (wow)))(NP (PRP (you)))(VP (VBP (be))(RB (really))(VBG (ruin)))(NP (PRP$ (my))(NN (life))))(S (VP (VB (get)))(PP (IN (out)))(PP (IN (of)))(NP (PRP (it))))) |ET| 
-1  |BT| (ROOT (S (NP (JJ (first))(NN (day)))(PP (IN (of)))(NP (NN (school)))(NP (NNP (]))))) |ET| 
1  |BT| (ROOT (S (VP (VBD (party)))(ADVP (JJ (alittle)))(PP (TO (to)))(NP (JJ (hard))(JJ (last))(NN (night))))(S (VP (VBD (get)))(PP (TO (to)))(NP (VB (recover)))(PP (TO (to)))(NP (NN (party)))(ADVP (RB (too))(JJ (hard)))(ADVP (RB (again)))(NP (NN (today))))(S (NP (NN (lol)))(VP (VBP (see)))(NP (RB (u)))(ADVP (RB (soon))(JJ (tina))))) |ET| 
1  |BT| (ROOT (S (VP (VBG (clean)))(ADVP (RB (then)))(PP (IN (on)))(NP (PRP$ (my))(NN (way)))(ADVP (RB (back)))(PP (TO (to)))(NP (NN (kingsville))))(S (NP (NN (fun))(NN (day)))(NP (NN (yay))))) |ET| 
1  |BT| (ROOT (S (ADVP (RB (off)))(PP (TO (to)))(NP (NN (night))(VBP (train))))) |ET| 
-1  |BT| (ROOT (S (NP (NN (ok))(FW (i)))(VP (VBP (be))(VBN (decide)))(NP (WP (who)))(VP (VBZ (want))(TO (to))(VB (come)))(PP (TO (to)))(NP (VBG (burn))(NN (man))))) |ET| 
-1  |BT| (ROOT (S (VP (VBD (wake)))(PRT (RP (up)))(PP (TO (to)))(NP (DT (a))(NN (debate)))(PP (IN (on)))(NP (NNP (christianity)))(NP (DT (the))(JJ (muslim))(NN (religion)))(PP (FW (i)))(NP (VBP (guess))(FW (i)))(VP (MD (can))(RB (not))(VB (win))(NN (tho)))(SBAR (IN (because)))(NP (DT (the))(NNP (koran)))(VP (VBZ (be)))(NP (RB (too))(JJ (violent.anyone))(NN (care)))(VP (TO (to))(VB (weigh)))(PP (RP (in))))) |ET| 
-1  |BT| (ROOT (S (VP (VBG (let)))(NP (NNS (people)))(ADVP (RP (down)))(VP (VBZ (be)))(PP (RB (apart)))(PP (IN (of)))(NP (NN (life))))(S (NP (PRP (you)))(VP (VBP (have))(TO (to))(VB (learn)))(PP (TO (to)))(NP (VB (love))(NNS (people)))(NP (DT (no))(NN (matter)))(NP (WP (what)))(NP (NNS (mistake)))(VP (VBD (be))(VBN (make))))(S (NP (NNP (love))(CC (and))(VB (move)))(PP (RP (on))))) |ET| 
1  |BT| (ROOT (S (ADJP (RB (so))(NN (ive)))(VP (VBD (realize)))(PP (JJ (whats)))(NP (DT (the))(NN (point)))(PP (IN (in)))(NP (VBG (chase))))(S (NP (FW (i)))(VP (VB (give)))(PRT (JJ (up))))(S (SBAR (IN (if)))(NP (PRP (you)))(VP (VBD (want)))(NP (PRP (i)))(NP (PRP (you)))(VP (VBP (couldve))(VBD (have)))(NP (PRP (i))))) |ET| 
1  |BT| (ROOT (S (NP (PRP (it)))(VP (VBD (be)))(NP (NNP (mrs.))(NNP (peacock))))(S (PP (IN (in)))(NP (DT (the))(NN (graveyard))))(S (PP (IN (with)))(NP (NNP (frankenstein)))(NP (POS ('s))(NNP (chains))))) |ET| 
1  |BT| (ROOT (S (NP (FW (i)))(VP (VBP (do))(RB (not))(VBP (know)))(ADVP (WRB (how)))(NP (PRP (it)))(VP (VBZ (be))(VBG (gon))(TO (na))(VB (take))(TO (to))(VB (feel)))(ADJP (RB (okey))))(S (NP (FW (i)))(VP (VBP (know)))(NP (FW (i)))(VP (VBD (have)))(NP (DT (the))(JJS (best))(NN (day)))(PP (IN (with)))(NP (PRP (you)))(NP (NN (today))))) |ET| 
-1  |BT| (ROOT (S (VP (VBG (fall)))(UCP (RB (asleep)))(PP (IN (in)))(NP (NNS (hope)))(SBAR (IN (that)))(NP (PRP (i)))(VP (MD (will))(RB (not))(VBP (wake)))(PRT (RP (up))))) |ET| 
-1  |BT| (ROOT (S (NP (NN (anyone)))(VP (VBP (want)))(NP (DT (a))(NN (ticket)))(PP (TO (to)))(NP (DT (the))(NNP (megadeth/slayer))(NN (show)))(PP (IN (in)))(NP (NNP (moncton))))(S (VP (VBD (lem)))(NP (PRP (i)))(VP (VB (know)))(SBAR (IN (if)))(ADVP (RB (so))))) |ET| 
-1  |BT| (ROOT (S (NP (PRP (i)))(VP (VBP (have)))(NP (DT (the))(JJS (best))(NN (husband)))(ADVP (RB (ever))))) |ET| 
1  |BT| (ROOT (S (VP (VBZ (be)))(NP (DT (that))(NN (rain)))(NP (NN (snow)))(INTJ (DT (both))))(S (NP (MD (can))(RB (not)))(ADVP (RB (really)))(VP (NNS (tell.i))(VB (think)))(NP (FW (i)))(VP (MD ('ll))(VB (stay)))(ADVP (IN (inside)))(NP (RB (tonight))(DT (either))(NN (way))))) |ET| 
1  |BT| (ROOT (S (VP (VBD (get))(VBN (pay)))(NP (NNS (plan)))(VP (VBP (be))(VBN (cancel)))(NP (NNS (what)))(VP (VBG (go)))(ADVP (RP (on))(NN (tonight))))) |ET| 
0.95958179156950074162324426652049  |BT| (ROOT (S (NP (RB (busy))(NN (day)))(ADVP (NN (ahead.get)))(NP (DT (all))(NN (music)))(ADJP (JJ (ready)))(VP (VB (go))(VB (pick)))(PRT (RP (up)))(NP (NNS (flower)))(ADVP (RB (then))(RP (off)))(PP (TO (to)))(NP (DT (the))(NN (suprise))(NN (birthday))(VBD (party.did))(FW (i))(VB (mention)))(NP (FW (i)))(VP (VB (have))(TO (to))(VB (sing)))(NP (DT (a))(JJ (few))(NNS (song))(SYM (=))(NNS (nurvous))(NN (reck))))) |ET| 
-1  |BT| (ROOT (S (NP (NNP (light))(DT (the))(NN (sky)))(ADJP (RB (as))(JJ (bright)))(PP (IN (as)))(NP (DT (the))(NN (sun))))(S (VP (VB (feel)))(NP (DT (the))(NN (glory)))(SBAR (IN (as)))(NP (PRP (it)))(VP (VBZ (burn)))(NP (PRP (we)))(PP (IN (into)))(NP (NN (time))))(S (VP (VB (let)))(NP (PRP (it)))(VP (VB (shape)))(NP (PRP (we)))(VP (VB (let)))(NP (PRP (it)))(VP (VB (hold)))(NP (PRP (we))))(S (NP (NN (light)))(PP (RP (up)))(NP (DT (the))(NN (sky)))(VP (VBD (let)))(NP (PRP (it)))(VP (VB (take)))(NP (PRP (we))))) |ET| 
-1  |BT| (ROOT (S (VP (VBZ (be))(VBG (go)))(PP (TO (to)))(NP (NN (camp)))(PP (IN (with)))(NP (NN (bellum))(CC (and))(NN (indium)))(NP (NNP (d))))) |ET| 
-1  |BT| (ROOT (S (NP (NNP (cant))(VBP (wait)))(PP (IN (till)))(NP (NN (tonight))(PRP$ (its)))(VP (VBG (go))(TO (to))(VB (be)))(ADJP (JJ (amazing))))) |ET| 
1  |BT| (ROOT (S (SBAR (IN (if)))(NP (PRP (you)))(VP (VBP (think)))(NP (PRP (i)))(VP (VBP (be)))(NP (DT (a))(JJ (good))(NN (friend))))) |ET| 
1  |BT| (ROOT (S (VP (VB (know)))(SBAR (IN (that)))(NP (PRP (you)))(VP (VBP (believe)))(NP (PRP (you)))(VP (VBP (understand)))(NP (WP (what)))(NP (PRP (you)))(VP (VBP (think)))(NP (PRP (i)))(VP (VBD (say))))) |ET| 
1  |BT| (ROOT (S (NP (NNS (that))(VBP (rele)))(VP (VBN (startin))(TO (to))(VB (bother)))(NP (PRP (i))))) |ET| 
-1  |BT| (ROOT (S (NP (PRP (she)))(VP (VBZ (be)))(NP (PRP (i)))(NP (FW (i)))(VP (VBP (be)))(NP (PRP (she)))(ADVP (RB (sometimes))(RB (maybe)))(NP (FW (i)))(VP (VBP (be)))(NP (PRP (i))))) |ET| 
-1  |BT| (ROOT (S (NP (PRP (i)))(VP (VB (get)))(NP (DT (a))(NN (hd2)))(NP (DT (a))(JJ (mytouch))(NN (slide)))(VP (VB (wait))))(S (NP (DT (the))(NN (mytouch)))(VP (VBZ (do))(VB (have)))(NP (VBN (android))))) |ET| 
-1  |BT| (ROOT (S (NP (NNS (people)))(VP (VBP (be)))(NP (WP (what)))(NP (PRP (they)))(VP (VBP (be))))) |ET| 
1  |BT| (ROOT (S (VP (VB (havin)))(NP (DT (a))(NN (blast)))(PP (IN (as)))(ADJP (JJ (usual))))(S (VP (NNP (love)))(NP (DT (the))(VBZ (peep)))(PP (IN (at)))(NP (JJ (texas))(NN (roadhouse)))(ADVP (RB (now)))(NP (JJ (lovin))(NN (ufc))))(S (ADVP (NNP (totally)))(VP (VBZ (make)))(PRT (RP (up)))(PP (IN (for)))(NP (NN (yesterday))))) |ET| 
1  |BT| (ROOT (S (NP (DT (the))(NNS (status)))(PP (IN (about)))(NP (DT (the))(NNP (jersey))(NNP (shore)))(VP (VBD (seem))(TO (to))(VB (have))(VBN (decrease)))(NP (NNP (x))))) |ET| 
1  |BT| (ROOT (S (PP (IN (during)))(NP (NN (sleep)))(NP (DT (the))(NN (soul)))(VP (VBZ (move)))(PP (IN (from)))(NP (CD (one))(NN (plane)))(PP (IN (of)))(NP (NN (consciousness)))(PP (TO (to)))(NP (DT (another))))) |ET| 
-1  |BT| (ROOT (S (NP (DT (the))(NNS (item)))(NP (PRP (you)))(VP (VBP (make)))(PP (IN (for)))(NP (PRP$ (you))(CD (5))(NNS (responder)))(VP (MD (must))(VB (be))(VBN (make)))(PP (IN (by)))(NP (PRP (you)))(ADVP (RB (personally))))) |ET| 
-1  |BT| (ROOT (S (NP (JJ (goin)))(PP (TO (to)))(NP (DT (the))(JJ (bestie))(NN (house)))(NP (NN (tomorrow))))(S (NP (VBD (:}))(NNS (girl)))(NP (NN (night)))(PP (RP (out))))(S (NP (NNP (hmmmmmm))))) |ET| 
-1  |BT| (ROOT (S (VP (VB (go)))(PP (IN (on)))(NP (DT (a))(NN (roller))(NN (coster)))(PP (IN (for)))(NP (DT (the))(JJ (first))(NN (time)))(ADVP (RB (ever)))(NP (NN (today))))(S (NP (JJ (scariest))(NN (thing)))(VP (VBP (ive))(RB (ever))(VBN (do))))(S (NP (PRP (it)))(VP (VBD (be)))(ADVP (NN (alot)))(PP (IN (of)))(NP (NN (fun))))) |ET| 
1  |BT| (ROOT (S (NP (WP (what)))(VP (VBP (be)))(NP (PRP (i)))(VP (VB (doin)))(NP (WP (what)))(VP (VBP (be)))(NP (PRP (i)))(VP (NN (doin))))) |ET| 
1  |BT| (ROOT (S (NP (PRP (it)))(VP (VBZ (be)))(NP (WP (what)))(NP (PRP (we)))(VP (VBP (get))))(S (NP (WP (who)))(NP (PRP (we)))(VP (VBP (become)))(NP (WP (what)))(NP (PRP (we)))(VP (VBP (contribute))))(S (NP (WDT (that)))(VP (VBZ (give))(VBG (mean)))(PP (TO (to)))(NP (PRP$ (we))(NNS (life))))) |ET| 
1  |BT| (ROOT (S (VP (UH (oh)))(NP (WP (what)))(NP (DT (a))(NN (day))))(S (NP (FW (i)))(VP (VBP (have)))(NP (DT (no))(NN (idea)))(NP (WP (what))(NN (emotion)))(NP (FW (i)))(VP (VBP (be)))(NP (NN (evening)))(VP (VBG (feel)))(ADVP (RB (right))(RB (now))))) |ET| 
-1  |BT| (ROOT (S (VP (VBZ (be)))(ADJP (JJ (glad)))(NP (PRP (he)))(VP (VBD (get)))(NP (DT (the))(NN (job))))) |ET| 
-1  |BT| (ROOT (S (VP (VBD (get)))(NP (CD (one))(JJR (more))(NN (day)))(PP (IN (of)))(NP (NN (school)))(NP (DT (this))(NN (week)))(NP (PRP (ya)))(NP (PRP (i))))) |ET| 
-1  |BT| (ROOT (S (NP (EX (there)))(VP (VBZ (go)))(NP (PRP$ (my))(NN (baby)))(VP (-LRB- (-lrb-))(VB (tear)))(NP (-RRB- (-rrb-)))(ADVP (RB (always)))(VP (VBN (hit)))(NP (DT (the))(NN (spot))))) |ET| 
1  |BT| (ROOT (S (NP (NNP (friday)))(NP (DT (the))(JJ (13th))(NNP (!!))))(S (INTJ (VB (ahhh))))(S (NP (NN (haha))))) |ET| 
1  |BT| (ROOT (S (ADVP (RB (finally)))(VP (VBD (get))(TO (to))(VB (go)))(PP (TO (to)))(NP (DT (the))(NN (doctor)))(PP (IN (for)))(NP (DT (the))(NN (baby))))(S (NP (NNS (thing)))(VP (VBP (be))(RB (finally))(VBG (go)))(PP (IN (into)))(NP (NN (place))))(S (NP (PRP (i)))(VP (VBP (love)))(NP (PRP (she)))(ADVP (RB (so))(RB (much))))(S (NP (VB (muah))(NNP (ry'anne))))) |ET| 
1  |BT| (ROOT (S (NP (NN (anyone)))(VP (VBP (want))(TO (to))(VB (hang)))(PRT (RP (out))))) |ET| 
-1  |BT| (ROOT (S (ADJP (NN (way)))(VP (TO (to))(VB (go)))(NP (VBZ (star))))(S (NP (VB (nice))(NN (job)))(PP (IN (on)))(VP (VBG (put)))(NP (NN (modano)))(VP (TO (to))(NN (shame))))) |ET| 
-1  |BT| (ROOT (S (NP (PRP (i)))(VP (VBP (be))(RB (officially))(VBN (do)))(PP (IN (with)))(NP (NNP (nursing))(NNP (school))))(S (NP (VB (pin))(NNP (ceremony)))(NP (NN (tomorrow))))(S (NP (VBN (graduation)))(VP (NNP (saturday))))) |ET| 
-1  |BT| (ROOT (S (ADVP (RB (just)))(ADVP (WRB (when)))(NP (FW (i)))(VP (VBP (think)))(NP (PRP (they)))(VP (VBP (be)))(ADJP (VBN (go)))(NP (DT (the))(NNS (nightmare)))(VP (VBP (come)))(ADVP (RP (back)))(UCP (JJ (10fold))))) |ET| 
1  |BT| (ROOT (S (NP (EX (there)))(VP (VBZ (be)))(ADVP (RB (always)))(NP (DT (a))(NN (reason)))(VP (TO (to))(NN (smile))))) |ET| 
1  |BT| (ROOT (S (SBAR (IN (if)))(NP (VBP (qod)))(ADVP (RB (ever)))(VP (VBN (need)))(NP (DT (a))(NN (anqel)))(NP (PRP (he)))(VP (VBD (make)))(NP (DT (a))(JJ (qreat))(NN (choice))))) |ET| 
1  |BT| (ROOT (S (VP (VBZ (be)))(ADVP (NN (almighty))))) |ET| 
-1  |BT| (ROOT (S (VP (VBZ (be)))(NP (DT (a))(NN (idiot))))) |ET| 
-1  |BT| (ROOT (S (NP (WDT (what)))(NP (DT (a))(JJ (beautiful))(VBD (fairweather))(NN (day))))) |ET| 
-1  |BT| (ROOT (S (VP (VBZ (be)))(ADVP (RB (just)))(VP (JJ (chilling)))(PP (IN (at)))(NP (DT (the))(JJ (apt))))) |ET| 
1  |BT| (ROOT (S (NP (JJ (last))(NN (day)))(PP (IN (of)))(NP (NN (work)))(NP (VBP (check))))(S (VP (VBG (pack)))(PP (IN (for)))(NP (NN (vacation)))(NP (VBP (ok))))(S (NP (NN (vacation))))(S (NP (PRP (i)))(ADVP (VBD (dunno))))) |ET| 
1  |BT| (ROOT (S (NP (PRP (they)))(VP (MD (should))(VB (make)))(NP (DT (another))(NN (horror))(NN (movie)))(NP (NNS (baby)))(PP (IN (on)))(NP (DT (the))(NN (plane))))(S (NP (NNP (god)))(NP (PRP (i)))(VP (MD (would))(RB (rather))(VB (deal)))(PP (IN (with)))(NP (NNS (snake)))(NP (PRP (you)))(VP (MD (can))(VBP (twist)))(NP (PRP$ (they))(NNS (head)))(PRT (RP (off))))) |ET| 
1  |BT| (ROOT (S (VP (VBZ (think)))(NP (PRP (they)))(VP (MD (should))(RB (not))(VB (play)))(NP (JJ (un-danceable))(NN (rap)))(NP (JJ (other))(JJ (such))(NNS (song)))(PP (IN (at)))(NP (NNS (dance))))(S (ADVP (RB (just)))(NP (PRP$ (my))(NN (opinion))))) |ET| 
-1  |BT| (ROOT (S (ADVP (WRB (how)))(NP (PRP (i)))(VP (VBN (suppose))(TO (to))(VB (eat)))(NP (NNP (raviolli)))(NP (POS ('s)))(SBAR (IN (if)))(NP (PRP (we)))(VP (VBP (do))(RB (not))(VB (have)))(NP (VBZ (bowl))))) |ET| 
-1  |BT| (ROOT (S (NP (VBZ (be))(RB (not)))(VP (VBG (go)))(PP (TO (to)))(NP (NN (school)))(NP (NN (today))))(S (NP (PRP (you))(NNS (guy)))(VP (MD (will))(VB (find)))(PRT (RP (out)))(ADVP (RB (later))))) |ET| 
-1  |BT| (ROOT (S (NP (JJ (happy))(JJ (46th))(NN (monthsary))(VBP (^_^))(NNP (francis))(NNP (sabangan))))) |ET| 
1  |BT| (ROOT (S (NP (JJ (everyday)))(VP (VBZ (be)))(NP (NNS (mother))(NN (day))))) |ET| 
1  |BT| (ROOT (S (NP (NNP (may)))(NP (DT (the))(NNPS (joys)))(PP (IN (of)))(NP (DT (the))(NN (season))))) |ET| 
1  |BT| (ROOT (S (NP (JJ (black))(CC (and))(JJ (yellow)))(NP (PDT (all))(DT (the))(NN (way))(NNS (steeler)))(VP (VBP (be))(VBG (go))(TO (to))(VB (win)))(NP (DT (the))(NN (superbowl))))) |ET| 
-1  |BT| (ROOT (S (VP (VBZ (be)))(NP (DT (the))(NN (goddess)))(PP (IN (of)))(NP (NN (kitchen))(NN (disaster))))) |ET| 
-1  |BT| (ROOT (S (NP (NNS (thanks)))(PP (IN (for)))(NP (PDT (all))(DT (the))(NN (birthday))(NNS (message))(NN (everyone))))) |ET| 
-1  |BT| (ROOT (S (NP (RB (epically)))(VP (VBD (beat)))(NP (DT (the))(NN (game))))(S (NP (CD (2))(NNS (day)))(ADJP (JJ (bad))))) |ET| 
1  |BT| (ROOT (S (ADVP (LS (first)))(NP (RB (daily))(`` ("))(NN (spring))('' ("))(-LRB- (-lrb-))(RB (not)))(ADVP (RB (really)))(VP (-RRB- (-rrb-))(VBP (run)))(NP (NN (tomorrow))(SYM (=))(NNP (excited))))) |ET| 
1  |BT| (ROOT (S (ADVP (WRB (how)))(NP (DT (this))(NN (facebook))(NN (thing))(VB (work)))(ADVP (RB (again))))) |ET| 
1  |BT| (ROOT (S (NP (NN (wow)))(VP (VBD (buy)))(NP (PRP$ (my))(JJ (first))(NN (webcam)))(NP (DT (this)))(VP (VBZ (be)))(NP (NN (fuckin))(NN (kool))))) |ET| 
-1  |BT| (ROOT (S (NP (JJ (good))(NN (dinner))(CC (and))(NN (relaxation))))) |ET| 
-1  |BT| (ROOT (S (NP (NNP (accounts)))(VP (NNP (exam)))(NP (VBD (tomo))))) |ET| 
-1  |BT| (ROOT (S (NP (NNP (wish)))(SBAR (WDT (that)))(NP (PRP (i)))(VP (VBD (be)))(ADVP (RB (still)))(ADVP (RB (up))(RB (north))))) |ET| 
1  |BT| (ROOT (S (VP (VBZ (be)))(NP (DT (a))(NN (disturber)))(PP (IN (of)))(NP (DT (the))(NN (peace))))) |ET| 
1  |BT| (ROOT (S (PP (IN (on)))(NP (PRP$ (my))(NN (way)))(PP (TO (to)))(NP (DT (the))(NN (beach))))) |ET| 
0.98974001075040030084295494816615  |BT| (ROOT (S (NP (PRP (you)))(VP (VBD (receive)))(NP (CD (2))(NN (experience))(NNS (point)))(NP ($ ($))(CD (760)))(PP (IN (for)))(VP (VBG (help)))(NP (NNP (don))(NNP (aramil)))(VP (VB (complete)))(NP (DT (the))(NN (job))))) |ET| 
-1  |BT| (ROOT (S (NP (DT (the))(JJ (only))(NN (thing)))(SBAR (DT (that)))(NP (NN (change)))(VP (VBZ (be)))(NP (DT (the))(NN (price)))(PP (IN (of)))(NP (NN (gold))))) |ET| 
-1  |BT| (ROOT (S (NP (DT (the))(NN (clock)))(VP (VBZ (be))(VBG (laugh)))(PP (IN (in)))(NP (PRP$ (my))(NN (facee))))) |ET| 
-1  |BT| (ROOT (S (NP (DT (the))(`` ("))(NNP (high))(CD (five))('' (")))(PP (IN (at)))(NP (DT (the))(NN (end)))(PP (IN (of)))(NP (DT (the))(NNPS (jackass)))(VP (VBZ (3d)))(ADJP (JJ (commercial))))(S (NP (PRP (i)))(VP (VBD (laugh)))(ADVP (RB (so))(RB (hard))))) |ET| 
1  |BT| (ROOT (S (NP (NNP (dance))(NNP (tonight))))(S (NP (NNP (d))))) |ET| 
1  |BT| (ROOT (S (NP (NNS (loui)))(NP (PRP (i)))(VP (VBP (be))(VBN (do)))(UCP (VBP (hate)))(NP (PRP (he))))) |ET| 
1  |BT| (ROOT (S (NP (JJR (more))(IN (than))(NNS (word))(-LRB- (-lrb-))(CD (8))(-RRB- (-rrb-))(VBD (<))(CD (3))))) |ET| 
-1  |BT| (ROOT (S (ADVP (WRB (how)))(NP (PRP (you)))(VP (VB (sleep))))(S (NP (NNP (jesse))(NNP (mcartney))))(S (NP (NNP (hope))(PRP (i)))(VP (VBN (spell)))(NP (DT (that))(NN (right))))) |ET| 
-1  |BT| (ROOT (S (NP (PRP (it)))(VP (VBZ (kill)))(NP (PRP (i)))(VP (TO (to))(VB (know)))(NP (WRB (how))(RB (much)))(NP (PRP (i)))(ADVP (RB (really)))(VP (VBP (love)))(NP (PRP (you))))) |ET| 
-1  |BT| (ROOT (S (ADVP (RB (again)))(NP (DT (this))(NN (type)))(PP (IN (of)))(NP (NN (attitude))))(S (NP (NN (dun)))(VP (VBP (wish)))(NP (CD (2)))(VP (VBP (refer)))(NP (WP (who)))(VP (VBZ (be)))(NP (DT (this))))(S (NP (WP (what))(JJ (wrong)))(PP (IN (of)))(VP (VBG (give)))(NP (PRP$ (my))(NN (comment))))(S (NP (JJ (reallie))(NN (ur))(VBD (stupd)))(ADVP (NNP (da)))(NP (NN (xiao))(NN (jie))(NN (attitude)))(PP (VBP (/)))(NP (NN (temper))))(S (VP (VB (piss)))(PRT (RP (off)))(NP (JJ (mi)))(ADVP (NN (nw))))) |ET| 
1  |BT| (ROOT (S (VP (VB (be))(VBN (conceive)))(PP (IN (in)))(NP (PRP$ (you))(NN (heart))))) |ET| 
1  |BT| (ROOT (S (NP (RB (just)))(VP (VBD (watch)))(NP (DT (the))(NN (girl)))(NP (WP (who)))(VP (VBD (kick)))(NP (DT (the))(JJ (hornets))(NN (nest))('' ("))))(S (NP (JJ (amazing))(NN (movie)))(VP (VBD (be)))(ADVP (RB (also)))(NP (DT (a))(NN (book))))(S (ADVP (RB (absolutely)))(VP (VBD (love)))(NP (PRP (it))))) |ET| 
1  |BT| (ROOT (S (NP (DT (the))(JJ (crazy))(NN (wind)))(ADJP (RB (almost)))(VP (VBD (knock)))(NP (PRP (i)))(PP (VBP (over.buurrr)))(NP (PRP (it)))(VP (VBZ (be)))(ADJP (JJ (cold))))) |ET| 
-1  |BT| (ROOT (S (NP (NNP (slippin)))(VP (VBZ (be)))(ADJP (JJ (easy)))(ADVP (IN (so)))(VP (VBP (do))(RB (not))(VB (forget))(TO (to))(NN (strap)))(PRT (IN (on)))(ADVP (JJ (tight))))) |ET| 
-1  |BT| (ROOT (S (NP (NNP (weather))(CC (and))(NNP (love)))(VP (VBP (be)))(NP (DT (the))(CD (two))(NNS (element)))(PP (IN (about)))(NP (WDT (which)))(NP (PRP (one)))(VP (MD (can))(RB (never))(VB (be)))(ADJP (JJ (sure))))) |ET| 
-1  |BT| (ROOT (S (VP (VBD (have)))(NP (DT (a))(JJ (super))(NN (fun))(NN (day)))(PP (IN (with)))(NP (DT (the))(JJS (best))(NNS (friend))))) |ET| 
1  |BT| (ROOT (S (NP (NN (r))(NN (u)))(VP (VBG (kid)))(NP (PRP (i))))(S (NP (NNP (game)))(PP (IN (of)))(NP (DT (the))(NN (week))(VBZ (buc)))(PP (IN (at)))(NP (NN (arizona))))) |ET| 
1  |BT| (ROOT (S (NP (DT (this))(NN (shit)))(VP (VBZ (be))(VBG (go)))(PRT (RP (down)))(NP (NN (hill))))) |ET| 
1  |BT| (ROOT (S (NP (VBZ (do)))(VP (NN (anyone))(VB (have)))(NP (DT (any))(JJ (old))(JJ (prepaid))(NNS (phone)))(NP (PRP (they)))(VP (VB (dont)))(NP (NN (use)))(SBAR (RB (anymore))(IN (that)))(NP (FW (i)))(VP (MD (could))(VB (have))(NN (??))))) |ET| 
-1  |BT| (ROOT (S (NP (NN (anyone)))(VP (VBP (want))(TO (to))(VB (hang)))(PRT (RP (out)))(NP (NN (today))))) |ET| 
-1  |BT| (ROOT (S (ADVP (RB (finally)))(PP (IN (off)))(NP (NN (work))))) |ET| 
-1  |BT| (ROOT (S (NP (NN (nothing)))(PP (TO (to)))(NP (NN (report))))) |ET| 
1  |BT| (ROOT (S (NP (NNP (law))(NNP (abiding))(NNP (citizen))(VBZ (hand)))(PP (RB (down)))(NP (CD (one)))(PP (IN (of)))(NP (DT (the))(JJS (best))(NNS (movie)))(VP (FW (i))(VBP (have))(VBN (see))))) |ET| 
1  |BT| (ROOT (S (ADVP (RB (right))(RP (off)))(VP (TO (to))(NN (bed))(VBD (get)))(NP (DT (a))(JJ (big))(NN (day))(NN (tomorrow))))) |ET| 
0.92037601000147462038114554161439  |BT| (ROOT (S (NP (NNP (saints)))(NP (PDT (all))(DT (the))(NN (way))))(S (VP (VB (get)))(NP (JJR (better))(NN (reggie))))) |ET| 
-1  |BT| (ROOT (S (NP (RB (nearly)))(VP (VBD (get))(VBN (frap)))(PP (IN (by)))(NP (DT (the))(JJ (hairest))(NN (lad))(FW (i)))(VP (VBP (have))(RB (ever))(VBN (see))))(S (NP (VBZ (niall))(NNP (manley))))) |ET| 
-1  |BT| (ROOT (S (NP (WP (what))))(S (INTJ (UH (no))))(S (NP (PRP (they)))(VP (VBP (be))(VBG (change)))(NP (NNP (severus)))(NP (POS ('))(NN (death))(NN (scene))))(S (NP (WRB (why))(JJ (?!?!?!))))) |ET| 
-1  |BT| (ROOT (S (NP (NNP (goal)))(PP (IN (for)))(NP (DT (the))(NNP (sharks))))(S (NP (NNP (not))(NNP (even))(DT (a))(NNP (minute))(NNP (into))(NNP (game))(CD (6))(NNP (awesome))))) |ET| 
1  |BT| (ROOT (S (NP (NN (nothing)))(VP (TO (to))(VB (say))))) |ET| 
1  |BT| (ROOT (S (VP (VBZ (be)))(UCP (VBG (head)))(ADVP (RB (back)))(PP (TO (to)))(VP (VB (feild)))(NP (NN (today))))) |ET| 
1  |BT| (ROOT (S (NP (DT (these))(NNS (wound)))(VP (VBP (be)))(NP (NN (self)))(VP (VBN (inflict))))) |ET| 
-1  |BT| (ROOT (S (NP (RB (only))(CD (1))(NN (week)))(VP (TO (to))(VB (go))))) |ET| 
-1  |BT| (ROOT (S (ADVP (RB (really)))(VP (VBP (need))(TO (to))(VB (leave)))(NP (NN (team))(CD (0)))(VP (VB (get)))(NP (DT (this))(NN (essay)))(VP (VBN (do))))) |ET| 
-1  |BT| (ROOT (S (VP (VBZ (be)))(ADJP (VBN (surprise)))(VP (TO (to))(VB (see)))(NP (WRB (how))(JJ (golden)))(NP (PRP$ (he))(NN (oil)))(VP (VBZ (be)))(NP (CD (5,000))(NNS (mile))))(S (NP (NNP (synthetic)))(VP (VBZ (be)))(ADJP (JJ (worth)))(NP (PRP (it))))) |ET| 
1  |BT| (ROOT (S (ADVP (RB (finally)))(PP (IN (at)))(NP (DT (the))(NN (beach)))(PP (VBZ (:})))(NP (NN (fishing))(CC (and))(NN (scalloping)))(NP (NN (tomorrow))))(S (NP (NN (text))(PRP (i))))) |ET| 
1  |BT| (ROOT (S (VP (VBZ (have))(VBN (run)))(PP (RP (out)))(PP (IN (of)))(NP (NNP (big))(NNP (bang))(NN (theory))(NNS (episode))))(S (NP (WP (what))(DT (a))(JJ (massive))(NN (twat))))) |ET| 
1  |BT| (ROOT (S (NP (PRP (you)))(VP (VBP (have)))(NP (NNS (enemy))))(S (ADJP (JJ (good))))(S (NP (DT (that)))(VP (VBZ (mean)))(NP (PRP (you)))(VP (VBP (have))(VBN (stand)))(ADVP (RP (up)))(PP (IN (for)))(NP (NN (something)))(ADVP (RB (sometime)))(PP (IN (in)))(NP (PRP$ (you))(NN (life))))(S (NP (VBZ (~))(NNP (winston))(NNP (churchill))))) |ET| 
-1  |BT| (ROOT (S (NP (NN (cant)))(VP (VBP (get)))(NP (DT (this))(NN (flair))(NN (thing)))(VP (VBG (work))))(S (NP (JJ (bored))(NNS (!!!))))) |ET| 
-1  |BT| (ROOT (S (NP (NNS (achievement)))(VP (VBP (be)))(NP (DT (the))(NN (validation)))(PP (IN (of)))(NP (NN (independence))))) |ET| 
-1  |BT| (ROOT (S (VP (VBG (be)))(PP (IN (at)))(NP (DT (the))(NN (doctor)))(VP (VBZ (make)))(NP (FW (me)))(ADJP (FW (sooo))(JJ (nervous))))) |ET| 
1  |BT| (ROOT (S (PP (IN (about)))(VP (TO (to))(VB (go)))(PP (TO (to)))(NP (DT (the))(NN (dentist))))) |ET| 
1  |BT| (ROOT (S (NP (NNP (helena)))(NP (POS ('s))(NN (cat)))(VP (VBD (try))(TO (to))(VB (kill)))(NP (PRP (i)))(NP (NN (today))))) |ET| 
1  |BT| (ROOT (S (PP (IN (without)))(NP (NNS (stats)))(VP (TO (to))(VB (worry)))(NP (IN (about))(PRP (i)))(VP (VBP (be))(VBG (study)))(PP (IN (like)))(ADJP (JJ (crazy)))(NP (PRP$ (my))(NNP (latin))))(S (NP (PRP (it)))(VP (VBZ (be)))(ADVP (RB (really)))(ADJP (NN (fun))))) |ET| 
-1  |BT| (ROOT (S (NP (PRP (i)))(VP (VBP (have))(VBN (get)))(NP (NN (time)))(VP (TO (to))(VB (kill)))(NP (PRP (i)))(VP (MD (will))(RB (not))(VB (waste)))(NP (DT (a))(JJ (second))))) |ET| 
-1  |BT| (ROOT (S (VP (VBZ (love)))(SBAR (IN (that)))(ADVP (WRB (when)))(NP (PRP (i)))(VP (VBP (be))(VBN (stress)))(NP (PRP (i)))(VP (MD (can))(VB (paint))))) |ET| 
-1  |BT| (ROOT (S (PP (IN (in)))(NP (NNS (dareli)))(NP (POS ('s))(JJ (con))(NN (pennstar)))(NP (PRP (i)))(VP (VBP (love)))(NP (PRP$ (my))(NNS (besty))))) |ET| 
1  |BT| (ROOT (S (VP (VBD (get)))(NP (NN (money)))(VP (NN (singin)))(PRT (IN (out)))(NP (DT (the))(NN (ass))(NN (bahaha))))) |ET| 
1  |BT| (ROOT (S (NP (PRP$ (my))(NN (hand)))(VP (VBZ (be)))(ADJP (JJ (cold)))(VP (VBZ (need)))(NP (NN (warmth))))) |ET| 
1  |BT| (ROOT (S (VP (VBZ (be)))(VP (VBG (watch)))(NP (CD (one))(NN (tree))(NN (hill)))(PP (IN (with)))(NP (NN (gazaa))))) |ET| 
-1  |BT| (ROOT (S (VP (VBZ (be)))(NP (NN (softball))(NN (game))))(S (ADVP (RB (then)))(NP (NNP (ashley)))(NP (VBZ (be))(NNP (b-day))(NNP (party))))) |ET| 
-1  |BT| (ROOT (S (NP (NN (confusion)))(VP (VBZ (be)))(NP (PRP$ (my))(JJS (latest))(NN (fashion))))(S (NP (VB (somone)))(VP (VB (make)))(PRT (RP (up)))(NP (PRP$ (they))(NN (mind)))(ADVP (RB (aready))))) |ET| 
-1  |BT| (ROOT (S (VP (VBZ (be)))(VP (VBG (go)))(PRT (RP (out)))(VP (TO (to))(VB (eat)))(PP (IN (with)))(NP (PRP$ (he))(NN (baby))))) |ET| 
1  |BT| (ROOT (S (NP (PRP (i)))(VP (VBP (live)))(ADVP (VB (vicariously.through)))(NP (PRP (myself)))(NP (NNP (p))))) |ET| 
1  |BT| (ROOT (S (NP (PRP (i)))(VP (VBP (love)))(NP (DT (the))(NN (city))))) |ET| 
1  |BT| (ROOT (S (NP (PRP (i)))(VP (VBP (be))(RB (just))(VBG (enjoy)))(NP (DT (this))(NN (weather)))(PP (IN (out)))(NP (NN (side))(NN (lol))(NN (blum))))) |ET| 
-1  |BT| (ROOT (S (VP (VBZ (be))(VBG (watch)))(NP (DT (the))(NNS (lion)))(VP (VB (lose)))(NP (PRP (it)))(PP (IN (in)))(NP (NNP (hd))))) |ET| 
-1  |BT| (ROOT (S (NP (DT (the))(NN (show)))(VP (MD (must))(VB (go)))(PP (RP (on))))) |ET| 
-1  |BT| (ROOT (S (NP (CD (one))(JJR (more))(NN (class)))(ADVP (RB (then)))(NP (DT (the))(NN (weekend))))) |ET| 
1  |BT| (ROOT (S (NP (NN (everyone))(IN (that)))(VP (VBZ (be)))(VP (VBZ (need))(TO (to))(VB (be)))(ADVP (RB (here)))(VP (VBZ (be)))(ADVP (RB (here))))(S (NP (VBZ (she)))(VP (JJ (resting)))(ADVP (RB (peacefully))))) |ET| 
0.99575410755669013784796561594703  |BT| (ROOT (S (PP (IN (for)))(NP (RB (once)))(VP (VBG (wake)))(PRT (RP (up)))(PP (IN (because))(IN (of)))(NP (NN (jet))(NN (lag)))(VP (VBZ (be)))(SBAR (NN (great.because)))(NP (FW (i)))(ADVP (RB (just)))(VP (VBD (find)))(PRT (RP (out))))) |ET| 
1  |BT| (ROOT (S (NP (VBN (think)))(PP (IN (for)))(NP (DT (the))(NN (day))(NN (ko)))(NP (NNP (drawing)))(VP (VBZ (be)))(PP (IN (like)))(NP (DT (a))(NN (rock)))(NP (PRP (it)))(VP (VBZ (be)))(ADJP (JJ (hard))))(S (NP (JJ (kaya))(JJ (kung))(NN (kaya))(VBP (ng))(VBG (ibang))(NN (tao)))(NP (NN (pagawa))(NN (mo)))(VP (TO (na))(VB (lang)))(NP (NN (sa))(NN (kanya))))) |ET| 
-1  |BT| (ROOT (S (NP (PRP (i)))(VP (VBD (see)))(NP (NNP (mrs.))(NNP (white-kelly)))(PP (IN (at)))(NP (NN (work)))(NP (NN (today))))(S (NP (PRP (she)))(VP (VBZ (look)))(ADJP (JJ (amazing))))) |ET| 
-1  |BT| (ROOT (S (ADVP (RB (never)))(VP (VBP (allow)))(NP (NN (someone)))(VP (TO (to))(VB (be)))(NP (PRP$ (you))(NN (priority)))(SBAR (IN (while)))(VP (VBG (allow)))(NP (PRP (yourself)))(VP (TO (to))(VB (be)))(NP (RB (just))(PRP$ (they))(NN (option))))) |ET| 
-1  |BT| (ROOT (S (NP (NN (yer))(NNS (minute)))(PP (IN (of)))(NP (NN (sun))(VBP (turn)))(PP (TO (to)))(NP (NNS (hour)))(PP (IN (of)))(NP (NN (storm))))) |ET| 
1  |BT| (ROOT (S (NP (RB (only))(NNP (god)))(VP (MD (can))(VB (be)))(PP (IN (in)))(NP (NN (control)))(PP (IN (without)))(VP (VBG (be))(JJ (controlling))))) |ET| 
1  |BT| (ROOT (S (NP (DT (another))(JJ (beautiful))(NN (day)))(PP (IN (in)))(NP (DT (the))(NN (neighborhood))))) |ET| 
0.68740507064745726140131409920286  |BT| (ROOT (S (NP (JJ (american))(NNP (idol))(NN (tonight))(NN (somebody)))(VP (MD (will))(VB (get)))(NP (DT (the))(NN (boot))))) |ET| 
-1  |BT| (ROOT (S (NP (DT (another))(JJ (windy))(NN (day)))(PP (IN (in)))(NP (NNP (ontario))))) |ET| 
-1  |BT| (ROOT (S (NP (DT (the))(JJ (whole))(NN (truth)))(VP (MD (will))(VB (be))(VBD (pre-empt)))(NP (NN (tonight)))(PP (IN (for)))(NP (DT (a))(CD (20/20))(NNS (miner))(JJ (special))))(S (NP (NNP (episode))(CD (4)))(VP (MD (will))(VB (be))(VBN (air)))(NP (JJ (next))(NNP (wednesday)))(PP (IN (at)))(NP (CD (10/9))))) |ET| 
-1  |BT| (ROOT (S (NP (PRP (i)))(VP (MD (can))(RB (not))(VB (remember)))(NP (JJR (more))(IN (than))(PDT (half))(DT (the))(NN (crap)))(PP (IN (in)))(NP (DT (this))(NN (math))(NN (packet))))) |ET| 
1  |BT| (ROOT (S (NP (PRP (it)))(VP (VBZ (be)))(ADVP (RB (finally)))(NP (NNP (june))))(S (ADVP (VBN (countdown)))(PP (TO (to)))(NP (NNP (eclipse))))) |ET| 
1  |BT| (ROOT (S (VP (VBG (have)))(NP (DT (a))(NN (lot)))(PP (IN (of)))(NP (NN (money)))(VP (MD (will))(RB (not))(VB (make)))(NP (PRP (you)))(ADJP (JJ (happy))))(S (VP (VBG (have)))(NP (DT (a))(JJ (small)))(PP (IN (of)))(NP (JJ (true))(NN (love))(NN (shard)))(VP (MD (will))(VB (make)))(NP (PRP (you)))(NP (JJ (happy))(CD (~))))) |ET| 
1  |BT| (ROOT (S (NP (JJ (last))(NN (day)))(PP (IN (of)))(NP (NN (work)))(PP (IN (before)))(VP (VBG (have)))(NP (DT (the))(JJ (entire))(NN (weekend)))(VP (TO (to))(VB (do)))(NP (WDT (whatever)))(NP (PRP (i)))(VP (VBP (please))))(S (NP (NNP (yay))))) |ET| 
-1  |BT| (ROOT (S (NP (PRP (she)))(VP (VBZ (be)))(NP (NN (love))(CD (<))(CD (3))))) |ET| 
-1  |BT| (ROOT (S (VP (VBZ (be))(VBG (miss)))(NP (DT (a))(NN (shoe)))(NP (DT (a))(NN (cup)))(NP (NNP (andy))(NNP (jones))))) |ET| 
-1  |BT| (ROOT (S (ADVP (RB (rather)))(VP (VBG (enjoy)))(NP (DT (the))(NN (ministry))(JJ (annual))(CD (2010))))) |ET| 
1  |BT| (ROOT (S (NP (VB (shoot)))(PP (IN (with)))(NP (NN (gas)))(NP (DT (this))(JJ (high))(NN (idk)))(ADVP (WRB (how)))(NP (NNS (people)))(ADVP (RB (still)))(VP (VBP (drive))(CC (and))(VB (buy)))(NP (NNP (suvs))))) |ET| 
1  |BT| (ROOT (S (NP (CD (367))(NNS (piece)))(PP (IN (of)))(NP (NN (candy))))) |ET| 
1  |BT| (ROOT (S (VP (RB (bet)))(NP (PRP (she)))(VP (VBZ (like)))(NP (PRP (it)))(PP (IN (in)))(NP (NN (da))(NN (butt))))) |ET| 
-1  |BT| (ROOT (S (NP (JJ (happy))(NNP (new))(NN (year)))(PP (TO (to)))(NP (PDT (all))(PRP$ (my))(NNP (friend))))(S (NP (NNP (miss))(NNP (india)))(PP (IN (on)))(NP (DT (this))(NNS (day))))) |ET| 
-1  |BT| (ROOT (S (NP (NN (thinkin)))(NP (NN (jus)))(VP (VBD (get)))(ADVP (NN (alot)))(PP (IN (on)))(NP (PRP$ (my))(NN (heart)))(NP (NN (n))(NN (mind))))) |ET| 
-1  |BT| (ROOT (S (NP (NNP (fixxin))(LS (2))(VB (shower)))(PP (IN (than)))(VP (VBP (kick)))(NP (PRP (it)))(NP (NN (wit))(NN (tykeisha))))(S (VP (VB (hit)))(NP (PRP (i)))(PRT (RP (up))))) |ET| 
1  |BT| (ROOT (S (ADVP (RB (apparently)))(NP (EX (there)))(VP (VBZ (be)))(NP (DT (a))(JJ (serial))(NN (flasher)))(VP (VBG (claim)))(NP (JJR (more))(NNS (victim)))(NP (NNP (oh))(NNP (noes))))) |ET| 
1  |BT| (ROOT (S (VP (VB (meet)))(NP (DT (the))(JJ (fockers))(NN (op))(NN (tv))(NN (yay))))) |ET| 
0.89889089269808353233059960984974  |BT| (ROOT (S (NP (DT (the))(JJ (new))(JJ (pics))(NN (uploader)))(VP (VBZ (be))(VBG (screw)))(PRT (RP (up)))(NP (DT (the))(JJ (entire))(NN (computer))))) |ET| 
-1  |BT| (ROOT (S (NP (DT (the))(JJ (saddest))(NN (part)))(VP (VBZ (be))(TO (to))(VB (find)))(NP (NN (happiness)))(ADVP (IN (behind))))) |ET| 
-1  |BT| (ROOT (S (NP (NNP (brady-moss)))(NP (NNP (brady-welker)))(VP (RB (now))(VBZ (there)))(NP (NNP (brady-gronkowski))))) |ET| 
-1  |BT| (ROOT (S (VP (JJ (telling)))(NP (NNS (tale)))(PP (IN (of)))(NP (NN (hurt))(CC (and))(NN (strength))))) |ET| 
1  |BT| (ROOT (S (NP (PRP (we)))(VP (VBP (get))(TO (to))(VB (see)))(NP (PRP$ (we))(NN (baby))(NN (tomorow))))(S (VP (MD (can))(RB (not))(VB (wait))))) |ET| 
1  |BT| (ROOT (S (NP (PRP (i)))(VP (MD (can))(VB (be)))(NP (PRP$ (you))(NN (hero)))(NP (NN (baby))))(S (NP (PRP (i)))(VP (MD (can))(NN (kiss)))(ADVP (RP (away)))(NP (DT (the))(NN (pain))))(S (NP (PRP (i)))(VP (MD (will))(VB (stand)))(PP (IN (by)))(NP (PRP (you)))(ADVP (RB (forever))))(S (NP (PRP (you)))(VP (MD (can))(VB (take)))(NP (PRP$ (my))(NN (breath)))(ADVP (RB (away)))(NP (PRP (i)))(VP (VBP (wish)))(NP (PRP (i)))(VP (VBD (have)))(NP (DT (a))(NNP (hero))))) |ET| 
0.99526276685775627584007452242076  |BT| (ROOT (S (NP (NNP (u))(VBD (say))(NNP (jump)))(NP (PRP (i)))(VP (VBD (ask)))(NP (NNP (how))(NNP (high)))(NP (NNP (u))(VBD (say))(NNP (come)))(NP (PRP (i)))(VP (NNP (came)))(NP (NNP (running))))(S (NP (NNP (u))(VBD (say))(PRP (i)))(VP (VBD (need)))(NP (PRP (i)))(PP (VBD (ask)))(NP (NNP (how))(NNP (much))))(S (NP (NNP (there))(VBD (be))(NNP (nothing)))(NP (PRP (i)))(VP (NNP (wont))(NNP (do)))(PP (IN (for)))(NP (NNP (u.))))) |ET| 
-1  |BT| (ROOT (S (NP (NN (snow))(VBD (damnit))))(S (NP (PRP (i)))(VP (VBP (need)))(NP (DT (the))(NN (time)))(PRT (RB (off))))) |ET| 
-1  |BT| (ROOT (S (NP (PRP (i)))(VP (VBP (be)))(ADJP (JJ (whooooooooaaaakaaaaaay))))(S (NP (PRP (i)))(VP (VBP (know)))(NP (NNP (gerard))))(S (NP (PRP (you)))(VP (VBP (do))(RB (not))(VB (have))(TO (to))(VB (get))(RB (so))(JJ (annoyed)))(ADVP (RB (though))))) |ET| 
-1  |BT| (ROOT (S (NP (PRP (i)))(ADVP (RB (really)))(VP (MD (could))(VB (do)))(PP (IN (with)))(VP (NNS (seein)))(NP (POS (')))(NP (DT (some))(NNS (friend)))(ADVP (RB (right))(RB (now))))) |ET| 
1  |BT| (ROOT (S (NP (PRP$ (my))(NNP (face)))(VP (NNP (pissing)))(NP (NNP (me)))(ADVP (NNP (off))))) |ET| 
1  |BT| (ROOT (S (NP (VB (lol)))(PP (TO (to)))(NP (NNP (hunter)))(NP (NNP (avery)))(NP (NNP (corey)))(NP (NNP (akshay))))(S (NP (VBP (gir)))(PP (TO (to)))(NP (NN (cody))))) |ET| 
1  |BT| (ROOT (S (NP (NNP (grabbin))(DT (a))(NN (coffee))(CC (and))(NN (headin)))(PP (TO (to)))(NP (NN (atlanta))(NNS (!!!!!))))) |ET| 
-1  |BT| (ROOT (S (NP (NNP (alabama)))(VP (VBZ (be))(VBG (go)))(PP (TO (to)))(NP (NNP (win))))) |ET| 
-1  |BT| (ROOT (S (ADVP (RB (well)))(NP (PDT (all))(DT (the))(NN (fun)))(VP (VBZ (come)))(PP (TO (to)))(NP (DT (a))(NN (stop))))(S (ADVP (RB (back)))(PP (TO (to)))(NP (DT (the))(JJ (real))(NN (world.but)))(VP (VBD (have)))(NP (DT (a))(NN (blast))))) |ET| 
-1  |BT| (ROOT (S (PP (TO (to)))(NP (NNP (duncan))(JJ (ok))))) |ET| 
1  |BT| (ROOT (S (NP (WDT (what)))(VP (VBZ (be)))(NP (PRP (it)))(PP (IN (with)))(NP (NNP (this))(NNP (poking))))) |ET| 
1  |BT| (ROOT (S (NP (PRP (i)))(VP (VBP (be)))(NP (NNP (peter))(NNP (pan)))(NP (DT (the))(NNP (wizard))))) |ET| 
1  |BT| (ROOT (S (NP (NNS (mother)))(VP (VBG (go))(TO (to))(VB (drive)))(NP (PRP (i)))(NP (NNS (banana))))(S (ADVP (RB (up)))(UCP (RB (down)))(NP (DT (the))(NNS (stair)))(NP (DT (all))(NN (day))))(S (NP (FW (i)))(VP (VBP (have))(VBN (get)))(NP (CD (one))(NN (hell)))(PP (IN (of)))(NP (DT (a))(NN (workout))))) |ET| 
-1  |BT| (ROOT (S (NP (FW (i)))(VP (VB (think)))(NP (NN (nailum))(NNS (bajus)))(VP (VBD (break)))(NP (PRP$ (my))(NN (nose))(NNP (d))))) |ET| 
-1  |BT| (ROOT (S (NP (VBP (wow)))(NP (DT (the))(JJ (perfect))(JJ (blue))(NN (dress))))(S (NP (NN (hhahaha))(NNS (dream)))(VP (VBP (do))(VBN (come)))(ADJP (JJ (true))))) |ET| 
-1  |BT| (ROOT (S (VP (VBZ (think)))(NP (PRP (he)))(VP (VBZ (have)))(NP (DT (a))(JJ (hard))(NN (road)))(ADVP (RB (ahead)))(PP (IN (of)))(NP (PRP (he))))) |ET| 
1  |BT| (ROOT (S (ADVP (RB (off)))(VP (TO (to))(VB (get)))(NP (PRP$ (my))(NNS (book)))(NP (NN (schedule)))(PP (IN (for)))(NP (DT (this))(NN (year))))) |ET| 
1  |BT| (ROOT (S (NP (NNP (baby)))(VP (VBZ (iii))(VBG (sleepie))(CC (and))(VBG (listen)))(PP (TO (to)))(NP (DT (the))(NNS (beetle))))) |ET| 
1  |BT| (ROOT (S (NP (VB (im)))(ADVP (RB (so)))(VP (VBN (do)))(PP (IN (with)))(NP (DT (this))(NN (crap))))) |ET| 
-1  |BT| (ROOT (S (NP (VB (fill))(PRP$ (you))(NN (heart)))(PP (IN (with)))(NP (NN (goodwill))(CC (and))(NN (cheer))))) |ET| 
-1  |BT| (ROOT (S (VP (VBG (make))(NN (something)))(PP (IN (for)))(NP (DT (the))(NN (bestie))))(S (NP (NNS (:}))(VBP (have))(DT (the))(JJ (next))(CD (2))(NNS (day)))(PP (IN (off)))(NP (NNP (!!))))(S (NP (VB (woot))))) |ET| 
-1  |BT| (ROOT (S (NP (NN (anyone)))(VP (VBG (gon))(TO (na))(VB (be)))(PP (IN (at)))(NP (DT (the))(NN (mall)))(PP (IN (on)))(NP (NNP (thursday)))(SBAR (WDT (that)))(VP (VBZ (want))(TO (to))(VB (hang)))(PRT (RP (out)))(ADVP (RB (maybe))))) |ET| 
1  |BT| (ROOT (S (NP (NNP (hunter)))(VP (VBZ (be))(VBG (go))(TO (to))(VB (turn)))(NP (CD (10)))(PP (IN (on)))(NP (NNP (sunday))))(S (NP (NNP (boy)))(VP (VBZ (do)))(NP (IN (that)))(VP (VBP (make)))(NP (PRP (i)))(VP (VB (feel)))(ADJP (JJ (old))))) |ET| 
1  |BT| (ROOT (S (NP (RB (just)))(VP (VBD (see)))(NP (DT (the))(JJ (new))(NN (nightmare)))(PP (IN (on)))(NP (JJ (elm))(NN (street))))(S (NP (PRP (it)))(VP (VBD (be)))(ADJP (VBN (freakin))(JJ (awesome))))) |ET| 
1  |BT| (ROOT (S (NP (FW (i)))(VP (VBP (want)))(NP (VBZ (bubble)))(NP (IN (that)))(ADVP (RB (never)))(VP (VBP (pop))))) |ET| 
-1  |BT| (ROOT (S (NP (DT (a))(JJ (awsome))(NN (birthday))(CC (and))(FW (i)))(VP (VBD (get))(TO (to))(VB (spend)))(NP (PRP (it)))(PP (IN (with)))(NP (JJ (awsome))(NNS (people))))) |ET| 
-1  |BT| (ROOT (S (NP (PRP (i)))(VP (MD (can))(RB (not))(VB (get)))(ADVP (RP (down)))(PP (IN (from)))(NP (DT (this))(NN (sugar)))(ADVP (NN (high))))(S (NP (PRP (i)))(VP (VBP (swear)))(NP (PRP (it)))(VP (VBZ (feel)))(SBAR (IN (like)))(NP (PRP (i)))(VP (VBP (be))(VBN (goin))(TO (to))(VB (die))))(S (NP (DT (this))(NN (sugar)))(ADJP (JJ (high))))) |ET| 
-1  |BT| (ROOT (S (NP (NNS (tyler)))(VP (VBG (hunt)))(ADVP (RB (again)))(VP (VBP (hope)))(NP (PRP (he)))(VP (VBZ (get)))(NP (DT (a))(NNS (deer))))) |ET| 
1  |BT| (ROOT (S (ADVP (RB (now))(RB (off)))(PP (IN (till)))(NP (NNP (tuesday))))(S (NP (NN (relaxation))))(S (NP (VB (whoot))(NNP (whoot))))) |ET| 
1  |BT| (ROOT (S (NP (RB (just)))(VP (VBD (have)))(NP (DT (a))(JJ (awesome))(NN (time)))(PP (IN (with)))(NP (DT (the))(NN (family))))(S (ADVP (RB (now)))(VP (VBG (go)))(ADVP (NN (home))))(S (VP (VBG (go)))(PP (TO (to)))(VP (VB (hang)))(PRT (RP (out)))(PP (IN (with)))(NP (PRP$ (my))(JJ (awesome))(NNS (cousin))(NNP (brianna))(NNP (joel))(CC (and))(NNP (bibi))))(S (NP (VBD (<))(CD (3))))) |ET| 
0.9914950215615729867124628071906  |BT| (ROOT (S (NP (PRP (i))(NNP (ca))(RB (not))(VBP (wait))(TO (to))(VBP (see)))(NP (DT (the))(NNP (ball))(VBP (drop))(CD (2))(JJR (more))(NNS (minute))))(S (NP (NNP (d))))) |ET| 
-1  |BT| (ROOT (S (VP (MD (could))(NN (today))(VB (be)))(NP (RB (anymore))(JJ (boring))(NN (ahhhhh)))(NP (JJ (stupid))(NNP (monday))))(S (NP (NNP (p))))) |ET| 
-1  |BT| (ROOT (S (NP (NN (cleaning))(CC (and))(NN (homework))(NN (cleaning))(CC (and))(NN (homework))))(S (NP (NNP (hmm)))(NP (DT (this))(NN (pattern)))(VP (VBZ (seem)))(ADJP (JJ (familiar))))) |ET| 
-1  |BT| (ROOT (S (NP (NNP (omg))))(S (NP (PRP (i)))(VP (NN (cant))(VBP (believe)))(SBAR (IN (that)))(NP (FW (i)))(ADVP (RB (just)))(VP (VBP (read)))(NP (JJ (chinese))))) |ET| 
1  |BT| (ROOT (S (NP (NNS (thanks)))(PP (IN (for)))(NP (PDT (all))(DT (the))(NN (birthday))(NNS (message))(NN (everyone))))(S (NP (PRP (i)))(VP (VBD (have)))(NP (DT (a))(JJ (wonderful))(NN (day))))) |ET| 
1  |BT| (ROOT (S (NP (PRP (she)))(VP (VBP (dont))(VB (need)))(NP (NNS (knuckle))(CC (or))(NNS (hand)))(VP (TO (to))(VB (go))(VB (see)))(NP (NN (punk))(NN (rock))(NNS (band))))) |ET| 
1  |BT| (ROOT (S (VP (VBG (watch)))(NP (NNP (adrianna)))(VP (VBP (look)))(PP (IN (through)))(NP (DT (a))(NN (toy))(NN (magazine))))(S (NP (PRP (she)))(VP (VBZ (keep))(VBG (jump))(CC (and))(VBG (twitch))))(S (NP (PRP (i)))(VP (VBP (think)))(NP (PRP (she)))(VP (VBZ (be)))(NP (NNP (oding))(NN (lol))))) |ET| 
-1  |BT| (ROOT (S (VP (VB (forget)))(ADVP (WRB (how))(RB (much)))(NP (PRP (i)))(VP (VBP (love)))(NP (NNP (ginger))(NNP (snaps)))(NP (-LRB- (-lrb-))(RB (not)))(NP (DT (the))(NN (biscuit))(-RRB- (-rrb-)))(NP (NNP (d))))) |ET| 
-1  |BT| (ROOT (S (VP (VBD (have)))(NP (DT (a))(JJ (interesting))(NN (day))))(S (VP (VBD (wrestle)))(NP (DT (a))(VBG (recover))(JJ (alcoholic)))(PP (SYM (@)))(NP (DT (the))(NN (med))(NN (center))))(S (NP (NN (fun))(NN (day))))) |ET| 
-1  |BT| (ROOT (S (NP (NN (day))(RP (off)))(PP (IN (in)))(NP (DT (the))(JJ (fakin))(NN (rain))))(S (NP (NN (meh))))) |ET| 
1  |BT| (ROOT (S (NP (JJ (happy))(NNP (father)))(NP (POS ('s))(NNP (day))))(S (NP (CD (:3))))) |ET| 
1  |BT| (ROOT (S (NP (RB (hapy))(JJ (brthday)))(VP (TO (to))(JJ (waleed))(NN (hassan)))(VP (JJ (waleed)))(NP (NNS (bhattus))(CC (and))(NN (usman))(NN (khawja))))) |ET| 
1  |BT| (ROOT (S (NP (VBD (sad)))(ADJP (JJ (blue))))) |ET| 
-1  |BT| (ROOT (S (VP (VBZ (be))(VBG (go))(TO (to))(VB (see)))(NP (NNP (salt))(NNP (n))(NNP (pepa))))) |ET| 
-1  |BT| (ROOT (S (NP (PRP$ (its))(VBG (get))(CD (f))(NN (%)))(NP (NN (#))($ ($))(JJ (ing))(JJ (cold))))) |ET| 
-1  |BT| (ROOT (S (NP (VBZ (what)))(NP (PRP (it)))(VP (VBG (go))(TO (to))(VB (take)))(VP (TO (to))(VB (make)))(NP (PRP (it)))(VP (VBN (know))))) |ET| 
1  |BT| (ROOT (S (NP (PRP (he)))(ADVP (RB (just))(RB (kinda)))(VP (VBD (fly)))(PP (IN (like)))(NP (DT (a))(JJ (hot))(NN (dog)))(PP (IN (in)))(NP (DT (the))(NN (wind))))) |ET| 
1  |BT| (ROOT (S (NP (NN (ashley)))(PP (IN (for)))(NP (JJ (real))(FW (i)))(VP (VBP (be)))(PP (IN (in)))(NP (NN (trouble)))(NP (WP (what)))(ADVP (RB (ever)))(PP (IN (at)))(NP (CD (402))(VBP (nw))(JJ (4th))))(S (VP (VB (punch)))(NP (PRP (i)))(NP (DT (the))(JJ (whole))(NN (deal))))) |ET| 
1  |BT| (ROOT (S (ADVP (WRB (when)))(NP (DT (a))(NN (man)))(VP (VBZ (be)))(PP (IN (in)))(NP (NN (love)))(PP (CC (or)))(PP (IN (in)))(NP (NN (debt)))(NP (NN (someone)))(ADJP (RB (else)))(VP (VBZ (have)))(NP (DT (the))(NN (advantage))))) |ET| 
-1  |BT| (ROOT (S (NP (PRP (i)))(VP (VBP (wish)))(NP (FW (i)))(VP (MD (could))(VB (have)))(NP (DT (this))(NN (moment)))(PP (IN (for)))(NP (NN (life)))(PP (IN (for)))(NP (NN (life)))(PP (IN (for)))(NP (NN (life))))(S (NP (VB (cause)))(PP (IN (in)))(NP (DT (this))(NN (moment)))(NP (PRP (i)))(VP (VBP (feel)))(ADJP (RB (so))(JJ (alive))))) |ET| 
-1  |BT| (ROOT (S (NP (DT (some)))(PP (IN (of)))(NP (DT (these))(NNS (kid))(NNS (show)))(VP (VBP (be)))(ADVP (RB (actually)))(ADJP (RB (quite))(JJ (hilarious))))) |ET| 
-1  |BT| (ROOT (S (NP (PRP (we)))(VP (MD ('ll))(VB (grind)))(NP (DT (that))(NN (axe)))(PP (IN (for)))(NP (DT (a))(JJ (long))(, (,))(JJ (long))(NN (time))))) |ET| 
1  |BT| (ROOT (S (VP (VBZ (be))(VBG (try))(TO (to))(VB (resolve)))(NP (DT (a))(JJ (technical))(NN (issue))))) |ET| 
0.98387628277888461436617717481568  |BT| (ROOT (S (NP (DT (some)))(ADVP (WRB (how)))(VP (FW (i))(RB (always))(VBP (manage))(TO (to))(NN (mess)))(NP (NNS (thing)))(ADVP (RP (up))))) |ET| 
1  |BT| (ROOT (S (NP (NN (today)))(VP (VBZ (be))(VBG (go))(TO (to))(VB (be)))(NP (DT (a))(JJ (good))(NN (day))))) |ET| 
-1  |BT| (ROOT (S (NP (NNP (nicki))(NNP (minaj)))(VP (VBZ (be)))(NP (DT (the))(JJS (worst))))) |ET| 
-1  |BT| (ROOT (S (NP (JJ (many))(NNS (thing)))(VP (VBP (fit)))(PP (IN (in)))(NP (NN (mouth)))(ADJP (JJ (hard)))(VP (TO (to))(VB (know)))(NP (WP (what)))(VP (VBZ (be)))(NP (NN (food))))) |ET| 
-1  |BT| (ROOT (S (NP (RB (only))(CD (two))(NNS (thing))(NN (money)))(VP (MD (can))(RB (not))(VB (buy)))(NP (IN (that)))(VP (VBZ (be)))(NP (JJ (true))(NN (love)))(NP (NN (home))(VBN (grow))(NNS (tomato))))) |ET| 
1  |BT| (ROOT (S (NP (PRP (you)))(VP (VB (solve)))(NP (DT (the))(NN (riddle)))(PP (IN (of)))(NP (PRP$ (you))(NN (heart))))(S (NP (NNP (iron))(NNP (man))(VBD (<))(CD (3))))) |ET| 
0.99125702278391059074635904835304  |BT| (ROOT (S (NP (NN (everyone)))(NP (NNP (niko))(NNP (finaly)))(VP (VBD (break)))(ADVP (RP (down)))(VP (VBD (make)))(NP (DT (a))(NN (facebook))))(S (NP (PRP (i)))(VP (VBP (think)))(NP (PRP (you)))(VP (MD (should))(VB (bombard)))(NP (PRP (he)))(PP (IN (with)))(NP (NNS (friend))(NNS (request)))(NP (NNP (p))))) |ET| 
1  |BT| (ROOT (S (NP (PRP (it)))(VP (VBZ (have))(VBN (snow)))(ADVP (RB (twice)))(NP (PRP (it)))(VP (VBZ (be)))(ADJP (RB (only))(NNP (october)))(ADVP (JJ (15th))))(S (VP (VB (bullshit))))(S (NP (NNP (weatherman)))(NP (PRP (i)))(VP (MD (will))(VB (kill)))(NP (PRP (you))))) |ET| 
-1  |BT| (ROOT (S (NP (UH (please)))(VP (VB (give)))(NP (PRP (i)))(NP (DT (a))(NN (reason)))(VP (TO (to))(VB (hate)))(NP (PRP (you))))) |ET| 
-1  |BT| (ROOT (S (NP (PRP (i)))(VP (VBP (know)))(NP (PRP (you)))(VP (VBP (want)))(NP (PRP (i)))(NP (NN (baby))))(S (NP (PRP (i)))(VP (VBP (think)))(NP (PRP (i)))(VP (VBP (want)))(NP (PRP (you)))(ADVP (RB (too))))(S (NP (PRP (i)))(VP (VBP (think)))(NP (PRP (i)))(VP (VBP (love)))(NP (PRP (you)))(NP (NN (baby))))(S (NP (PRP (i)))(VP (VBP (think)))(NP (PRP (i)))(VP (VBP (love)))(NP (PRP (you)))(ADVP (RB (too))))) |ET| 
-1  |BT| (ROOT (S (NP (PRP (you)))(VP (MD (can))(NN (kiss)))(NP (PRP (i)))(PP (IN (with)))(NP (DT (the))(NNS (window)))(ADJP (JJ (open))))) |ET| 
1  |BT| (ROOT (S (NP (JJ (broussard))(NN (road)))(VP (VBZ (be))(RB (finally))(VBG (be))(VBN (repave))))) |ET| 
0.96371039080068465754180806470686  |BT| (ROOT (S (VP (VBZ (be)))(PP (VBG (think)))(PP (IN (of)))(VP (VBG (try)))(NP (JJ (somethnig))(NNP (brand))(JJ (new))))) |ET| 
0.93936487048646410968899544968735  |BT| (ROOT (S (NP (DT (the))(NN (wind)))(VP (VBZ (be))(JJ (freightened)))(SBAR (NN (o.o)))(NP (NN (something)))(VP (VBZ (be)))(ADJP (RB (very))(JJ (wrong))))) |ET| 
-1  |BT| (ROOT (S (NP (RB (someday)))(VP (VBZ (be)))(NP (DT (a))(NN (day)))(PP (IN (of)))(NP (DT (the))(NN (week))))) |ET| 
-1  |BT| (ROOT (S (NP (NNP (cookin)))(NP (DT (the))(NN (house)))(VP (VBZ (be))(VBN (fill)))(PP (IN (with)))(NP (NN (aroma))))(S (NP (NN (mmmmm))))) |ET| 
-1  |BT| (ROOT (S (VP (VBZ (be)))(NP (NN (pain)))(ADVP (RB (just)))(NP (DT (a))(JJ (normal))(NN (part)))(PP (IN (of)))(NP (DT (the))(VBG (age))(NN (process))))(S (INTJ (RB (damn))))) |ET| 
1  |BT| (ROOT (S (NP (DT (the))(NNS (people)))(VP (FW (i))(VB (meet)))(VP (VBP (be)))(ADJP (JJ (priceless)))(NP (PRP (they)))(VP (VBP (mean)))(NP (DT (a))(NN (lot)))(PP (TO (to)))(NP (PRP (i))))) |ET| 
1  |BT| (ROOT (S (NP (UH (ah)))(VP (VB (screw)))(NP (DT (this))(JJ (dumb))(NN (website)))(NP (PRP (i)))(VP (VBP (be)))(PRT (RP (out))))) |ET| 
1  |BT| (ROOT (S (NP (PRP (i)))(ADVP (VBZ (sooo)))(VP (RB (do)))(NP (RB (not))(VBG (<))(CD (3)))(NP (DT (the))(NN (heat))))) |ET| 
-1  |BT| (ROOT (S (NP (NNP (major))(NNP (thunderstorm))(VBD (<))(CD (3))))) |ET| 
-1  |BT| (ROOT (S (NP (NNS (woman)))(NP (WP (who)))(VP (VB (turn)))(NP (NNS (guy)))(PP (RB (down)))(NP (VB (cause)))(NP (PRP (they)))(VP (VBP (smoke)))(VP (VBP (be)))(ADJP (JJ (shallow))))) |ET| 
-1  |BT| (ROOT (S (NP (NN (neck)))(VP (VBP (ache)))(NP (NN (neck)))(VP (NN (ache)))(VP (VBG (lean)))(PRT (RP (off)))(NP (PRP$ (my))(NN (bed)))(PP (TO (to)))(NP (DT (the))(NN (floor)))(ADJP (JJ (comfortable))))) |ET| 
1  |BT| (ROOT (S (NP (NNP (journey)))(PP (IN (with)))(NP (PRP (i)))(PP (IN (into)))(NP (DT (the))(NN (mind)))(PP (IN (of)))(NP (DT (a))(NN (maniac))))) |ET| 
1  |BT| (ROOT (S (VP (NN (workin)))(PP (IN (on)))(NP (DT (the))(NN (research))(NN (paper))(VBD (={))))(S (ADJP (JJ (ready)))(PP (IN (for)))(NP (NNP (new))(NN (moon)))(NP (NNP (friday)))(VP (SYM (=))))) |ET| 
1  |BT| (ROOT (S (NP (FW (i)))(VP (VBP (have)))(NP (NN (money)))(ADVP (RB (again))))(S (NP (VB (woot))))) |ET| 
-1  |BT| (ROOT (S (ADVP (UH (uh)))(NP (FW (i)))(VP (NN (think)))(NP (FW (i)))(VP (VBP (be)))(ADJP (VBN (bore))))(S (VP (CC (and))(VB (thank)))(NP (NN (god)))(SBAR (NN (tonight))(IN (that)))(NP (FW (i)))(VP (VBP (be)))(ADJP (JJ (single)))(ADVP (RB (again))))(S (NP (FW (i)))(VP (RB (am)))(NP (NN (drama))(JJ (free))(NN (lol))))) |ET| 
-1  |BT| (ROOT (S (NP (VB (need))(NN (coffee)))(PP (IN (before)))(VP (VBG (enter)))(NP (DT (the))(JJ (real))(NN (world)))(PP (IN (of)))(NP (JJ (high))(NN (school))))) |ET| 
-1  |BT| (ROOT (S (NP (RB (about)))(VP (TO (to))(NN (jam)))(PP (IN (at)))(NP (DT (this))(NN (concert)))(ADVP (RB (here)))(PP (IN (in)))(NP (NNP (hugo))))) |ET| 
1  |BT| (ROOT (S (NP (DT (the))(NNP (power))(NNP (puff))(VBZ (girl))))) |ET| 
0.91736471643831030142735016852384  |BT| (ROOT (S (NP (VB (show))(NN (choir))(NNP (secret))(NNP (santa))(NNP (!!!!))))(S (NP (NNP (extra))(VBP (note)))(PP (IN (for)))(NP (DT (the))(NN (person)))(NP (WP (who)))(VP (VBZ (have)))(NP (PRP (i))))(S (NP (NNP (maddie))(NNP (baccam)))(VP (VBZ (love)))(NP (NN (chocolate)))(ADVP (RB (as))(RB (much)))(SBAR (IN (as)))(NP (PRP (she)))(VP (VBZ (love)))(NP (NNPS (nerds))(NNP (rope))))) |ET| 
1  |BT| (ROOT (S (NP (PRP$ (its))(DT (the))(JJ (gorgeous))(NN (tasting))(NN (number))(CD (1))(NNS (girl)))(NP (PRP (it)))(VP (VBD (set)))(NP (PRP$ (she))(NN (taste))(NNS (bud)))(ADJP (VBP (alight)))(PP (IN (with)))(NP (NN (sweetness))))) |ET| 
-1  |BT| (ROOT (S (NP (DT (the))(NNP (d)))(VP (VBD (be)))(NP (JJ (good))(JJ (last))(NN (night)))(VP (VBZ (let))(VB (keep)))(NP (PRP (it)))(PRT (RP (up)))(PP (IN (against)))(NP (DT (the))(NNPS (trailblazers))))) |ET| 
-1  |BT| (ROOT (S (NP (NNP (school)))(VP (JJ (/))(RB (well))(NN (text)))(NP (PRP (i)))(ADVP (VBP (tho))))) |ET| 
-1  |BT| (ROOT (S (SBAR (IN (if)))(NP (PRP (i)))(VP (VBD (say)))(NP (PRP (i)))(VP (VBD (be))(VBG (move)))(PP (TO (to)))(NP (NNP (reno)))(NP (NNP (nv)))(NP (WP (what)))(VP (MD (would)))(NP (PRP (you)))(VP (VB (think))))) |ET| 
1  |BT| (ROOT (S (VP (VBG (go)))(PP (TO (to)))(NP (VB (kick))(NN (ass)))(PP (IN (in)))(NP (NN (volleyball))(NN (tonight))))) |ET| 
1  |BT| (ROOT (S (NP (NN (re-do)))(PP (IN (of)))(NP (NN (report))))(S (NP (WP (what))(DT (a))(NN (waste)))(PP (IN (of)))(NP (NN (time)))(NP (VBZ (:{))(VBG (send)))(NP (PRP$ (my))(NN (love)))(PP (TO (to))))(S (NP (NNP (tom))(NNP (goddard)))(ADVP (NNP (:}))))) |ET| 
0.99439670551103875872911430633394  |BT| (ROOT (S (VP (VBZ (look)))(PP (IN (like)))(NP (FW (i)))(VP (NN (cant))(NN (work)))(PP (IN (on)))(NP (PRP$ (my))(JJ (upper))(NN (body)))(PP (IN (for)))(NP (DT (a))(NN (while))))(S (SBAR (DT (that)))(NP (VBZ (eliminate)))(NP (IN (about))(CD (8)))(PP (IN (of)))(NP (PRP$ (my))(NNS (routine))))(S (VP (VBZ (look)))(PP (IN (like)))(NP (DT (all))(NNS (that)))(VP (VBN (leave)))(VP (VBP (be)))(NP (NNS (leg))(CC (and))(NN (ab))))(S (NP (DT (this))(NN (week)))(VP (MD (should))(VB (be)))(NP (NN (fun))))) |ET| 
-1  |BT| (ROOT (S (ADVP (RB (not))(RB (really)))(VP (VBD (pump)))(PP (IN (for)))(NP (DT (the))(NN (regatta)))(NP (NN (tomorrow))))(S (NP (VBZ (start))(NN (way)))(PP (TO (to)))(NP (JJ (early))))) |ET| 
-1  |BT| (ROOT (S (VP (VBG (go)))(PP (TO (to)))(NP (NN (home))))) |ET| 
-1  |BT| (ROOT (S (NP (NNS (sumtime)))(ADVP (WRB (when)))(NP (VBP (im)))(VP (JJ (sad)))(PP (IN (like)))(NP (CD (2)))(VP (VBD (cut)))(NP (PRP (myself))))(S (NP (DT (another))(NN (slice)))(PP (IN (of)))(NP (NN (cheesecake))))(S (NP (NNP (xd))(JJ (hehehe))(NN (lolz))))) |ET| 
1  |BT| (ROOT (S (NP (PRP (i)))(VP (VBP (do))(RB (not))(VB (give)))(PRT (RP (up)))(VP (VB (fuck)))(NP (DT (this))(NN (shit))))) |ET| 
1  |BT| (ROOT (S (ADVP (RB (just)))(NP (DT (the))(JJS (best))(NN (mother)))(ADVP (RB (ever))))) |ET| 
1  |BT| (ROOT (S (SBAR (IN (if)))(NP (NNS (people)))(VP (VBP (be))(VBG (try))(TO (to))(VB (pull)))(NP (PRP (you)))(ADJP (VBP (down.be))(JJ (proud)))(PP (IN (about)))(NP (PRP (it)))(SBAR (IN (because)))(NP (PRP (it)))(NP (RB (only)))(VP (VBZ (confirm)))(SBAR (IN (that)))(NP (PRP (you)))(VP (VBP (be)))(PP (IN (above)))(NP (PRP (they))))) |ET| 
-1  |BT| (ROOT (S (VP (VB (let)))(NP (DT (the))(NN (world)))(PP (IN (around)))(NP (PRP (we)))(ADVP (RB (just)))(VP (VB (fall)))(ADVP (RB (apart))))) |ET| 
-1  |BT| (ROOT (S (NP (VBP (hate)))(ADVP (WRB (when))(RB (ppl)))(VP (VBP (do))(RB (not))(VB (pick)))(PRT (RP (up)))(NP (PRP$ (they))(NN (phone))))) |ET| 
-1  |BT| (ROOT (S (NP (DT (the))(JJ (terrifying))(NN (realisation)))(SBAR (WDT (that)))(NP (VBP (u)))(VP (VBP (have)))(NP (DT (a))(JJ (2000word))(NN (report)))(ADJP (JJ (due)))(NP (JJ (next))(NN (week))))(S (NP (WP (what)))(VP (VBD (be)))(NP (PRP (it)))(PRT (IN (on)))(ADVP (RB (again))))) |ET| 
1  |BT| (ROOT (S (VP (VBZ (be)))(VP (VBN (lookin)))(PP (IN (for)))(NP (NN (someone)))(VP (TO (to))(VB (go)))(PP (TO (to)))(NP (DT (the))(NNS (movie)))(PP (VB (with.text)))(NP (PRP (i)))(SBAR (IN (if)))(NP (NN (u)))(VP (VBP (wan))(TO (na))(VB (come))))) |ET| 
1  |BT| (ROOT (S (NP (NNS (congret)))(PP (TO (to)))(NP (DT (all))(NNP (india)))(VP (VBD (win)))(NP (DT (the))(NN (mathch))))) |ET| 
0.96650203800713407886746608710382  |BT| (ROOT (S (NP (NN (today)))(VP (VBD (be)))(ADJP (RB (quite)))(NP (DT (the))(NN (day)))(ADVP (IN (as)))(NP (JJS (most)))(PP (IN (of)))(NP (PRP (you)))(VP (VBP (kno)))(NP (WP (what)))(VP (VBZ (have))(VBN (be))(VBG (go)))(PP (RP (on))))(S (VP (VBN (manage))(TO (to))(VB (get)))(NP (DT (a))(NN (place)))(PP (RB (so)))(NP (VBZ (everything)))(VP (VBG (go)))(NP (VB (work)))(PRT (RP (out))))(S (NP (JJ (thx))(NNS (guy)))(PP (IN (for)))(NP (PRP$ (you))(NN (support))))) |ET| 
-1  |BT| (ROOT (S (VP (VBZ (be)))(NP (CD (one)))(PP (IN (of)))(NP (DT (those))(NNS (people)))(NP (WDT (that)))(VP (VBZ (watch)))(NP (DT (the))(NNS (people)))(NP (POS ('s))(NNP (court))(CC (and))(NNPS (judges))(NNP (judy))(CC (and))(NNP (mathis))))) |ET| 
-1  |BT| (ROOT (S (NP (NNP (omg))(NNP (my))(NNP (childhood))(NNP (dream))(RB (just))(RB (came))(VBZ (true.thxs))(TO (to))(DT (the))(NNP (wonderful))(NNP (friends))(DT (a))(NNP (strangers)))(NP (NNP (at))(NNP (walmart))))) |ET| 
-1  |BT| (ROOT (S (NP (JJ (ngaun))(NN (q))(NN (lng))(NN (tlga)))(VP (VBD (narealize))(TO (na)))(UCP (`` (")))(NP (EX (there)))(VP (VBP (be)))(NP (NNS (thing)))(ADJP (JJR (better))(VBN (leave))(VBN (unsay))))(S (NP (JJ (nkktulong))(NN (din))(NN (plum)))(PP (NN (un)))(NP (NN (minsan))(NN (:p))(JJ (gudnyt))(NN (guyz))))) |ET| 
1  |BT| (ROOT (S (VP (VBG (find)))(NP (NNS (message)))(NP (PRP (you)))(VP (VBD (write)))(PP (TO (to)))(NP (PRP (yourself)))(NP (DT (a))(JJ (long))(NN (time)))(ADVP (RB (ago))))(S (NP (CC (and))(RB (not))(RB (quite))(VBG (remember)))(NP (WP (what)))(NP (PRP (they)))(VP (VBP (mean))))) |ET| 
0.88504320309180228854017968842527  |BT| (ROOT (S (NP (PRP (we)))(VP (MD (can))(RB (not))(VB (solve)))(NP (PRP$ (we))(NNS (problem)))(PP (IN (with)))(NP (DT (the))(JJ (same))(NN (thinking)))(NP (PRP (we)))(VP (VBD (use)))(ADVP (WRB (when)))(NP (PRP (we)))(VP (VBD (create)))(NP (PRP (they))))) |ET| 
1  |BT| (ROOT (S (ADVP (IN (once)))(NP (PRP (we)))(VP (VBP (get))(VBN (do)))(PP (IN (with)))(NP (DT (this))(NN (world)))(NP (PRP (it)))(VP (MD (will))(RB (never))(VB (be)))(NP (DT (the))(JJ (same))))) |ET| 
-1  |BT| (ROOT (S (NP (DT (a))(NN (relationship)))(VP (VBZ (be))(RB (only))(RB (ever))(VBN (complicate)))(ADVP (WRB (when)))(NP (PRP (you)))(VP (VBP (make)))(NP (PRP (it)))(VP (JJ (complicating))))) |ET| 
-1  |BT| (ROOT (S (NP (NNP (im))(NNP (not))(VBD (ashame)))(PP (IN (of)))(NP (WP (who)))(NP (PRP (i)))(VP (VBP (be)))(NP (NNP (or))(NNP (wat)))(NP (PRP (i)))(VP (VBP (have))(VB (become))))) |ET| 
-1  |BT| (ROOT (S (NP (DT (this)))(ADVP (RB (never)))(VP (VBG (see)))(NP (DT (the))(NN (sun))(NN (thing)))(ADVP (NN (kinda)))(VP (VBZ (suck)))(NP (PRP (it)))(VP (MD (might))(VB (be)))(ADVP (RP (over))(RB (soon))))(S (NP (VB (yay))))(S (NP (PRP (we)))(VP (MD ('ll))(VB (be))(VBG (do)))(NP (PRP (it)))(NP (RB (all)))(ADVP (RB (again))(RB (soon))(RB (enough))))) |ET| 
1  |BT| (ROOT (S (NP (VBZ (girlz))(NN (cry)))(PP (IN (for)))(NP (JJ (few))(NNS (min))))) |ET| 
0.96364110302938710272968592107645  |BT| (ROOT (S (VP (VBG (do)))(NP (JJ (full))(NNS (set)))(PP (IN (of)))(NP (JJ (weighted))(NN (windshield))(NNS (whipper)))(NP (NN (yesterday)))(VP (VBD (be)))(NP (PRP$ (my))(JJS (best))(NN (idea))))(S (ADVP (RB (especially)))(PP (IN (since)))(NP (PRP (it)))(VP (VBD (make)))(NP (NNS (squat)))(NP (DT (that)))(ADVP (RB (much))(JJR (harder))))(S (NP (NN (im)))(ADVP (RB (still)))(NP (JJ (glad))(FW (i)))(VP (VBD (be)))(ADJP (JJ (able)))(VP (TO (to))(VB (do)))(NP (NNS (leg))))(S (NP (CD (one))(NN (workout)))(ADVP (RB (down)))(NP (CD (2)))(VP (TO (to))(VB (go))))) |ET| 
0.99256981697353363625069277986768  |BT| (ROOT (S (ADVP (WRB (when)))(NP (PRP (you)))(VP (VBP (want))(TO (to))(VB (enjoy)))(NP (NN (life)))(VP (VB (think)))(NP (NN (today)))(PP (IN (as)))(NP (PRP$ (you))(NN (life)))(NP (POS ('s))(NN (firstday))))(S (ADVP (WRB (when)))(NP (PRP (you)))(VP (VBP (want))(TO (to))(VB (achieve)))(NP (NN (something)))(PP (IN (in)))(NP (NN (life)))(VP (VB (think)))(NP (NN (today)))(PP (JJ (asyour)))(NP (NN (life)))(NP (POS ('s))(JJ (last))(NN (day))))) |ET| 
-1  |BT| (ROOT (S (NP (VB (wooh))(NN (time)))(PP (IN (for)))(NP (NN (work))(-LRB- (-lrb-)))(SBAR (RB (after)))(VP (VBP (get))(TO (to))(VB (see)))(NP (PRP$ (my))(JJ (lovely))))(S (NP (VBN (stoke)))(PP (IN (for)))(NP (NNS (election)))(NP (NN (tonight))))(S (NP (NNP (hope))(NNS (thing)))(VP (VBP (turn)))(PRT (RP (out)))(ADVP (VB (alright))(RB (otherwise))))) |ET| 
-1  |BT| (ROOT (S (NP (NN (swore)))(PP (IN (into)))(NP (DT (the))(NNP (air))(NNP (force))(SYM (=))))) |ET| 
-1  |BT| (ROOT (S (VP (VBD (have)))(NP (DT (a))(JJ (productive))(NN (day)))(PP (IN (in)))(NP (VBG (manhattan-hopefully)))(ADVP (RP (back)))(PP (IN (in)))(NP (DT (the))(NN (biz)))(ADVP (RB (soon))))) |ET| 
0.98646615917860658306892673863331  |BT| (ROOT (S (ADVP (WRB (when)))(NP (NN (evolution)))(VP (VBZ (take)))(NP (DT (a))(JJ (bong))(NN (hit)))(NP (PRP (you)))(VP (VBP (get)))(NP (DT (the))(VB (hammer))(NN (head))(NN (shark))('' (")))(NP (NNP (seth))(NNP (macfarlane))))) |ET| 
1  |BT| (ROOT (S (NP (JJ (much))(NN (stress)))(NP (RB (so))(JJ (little)))(SBAR (NNS (joy.perhaps)))(NP (PRP (i)))(VP (VBP (be)))(NP (DT (the))(RB (only))(CD (one)))(NP (WDT (that)))(VP (VBZ (hate)))(NP (DT (this))(NN (time)))(PP (IN (of)))(NP (NN (year))))) |ET| 
0.89009260371518206245156079603476  |BT| (ROOT (S (ADVP (WRB (when)))(NP (DT (the))(NN (fuck)))(VP (VBZ (be)))(NP (NN (school))(VBG (start))))) |ET| 
-1  |BT| (ROOT (S (ADVP (RB (so))(RB (very)))(ADJP (JJ (tired))))(S (ADVP (WRB (why)))(VP (VBP (be))(FW (i))(RB (so))(JJ (tired)))(NP (PDT (all))(DT (the))(NN (time))))) |ET| 
-1  |BT| (ROOT (S (ADVP (WRB (how)))(VP (VBZ (be)))(ADJP (RB (too))(JJ (good))))) |ET| 
-1  |BT| (ROOT (S (ADVP (RB (always)))(VP (VB (watch)))(NP (NNP (dr.))(NNP (oz)))(NP (JJ (tyra))(NNS (bank)))(NP (PRP (i)))(VP (VBP (head))(TO (to))(VB (work))))) |ET| 
1  |BT| (ROOT (S (ADVP (RB (now)))(VP (VBG (read)))(NP (NNP (moon)))(VP (VBD (call)))(PP (IN (by)))(NP (NNP (patricia))(NNP (briggs))(NN (book)))(PP (IN (of)))(PP (IN (of)))(NP (DT (the))(NNP (mercy))(NNP (thompson))(NNS (book))))) |ET| 
1  |BT| (ROOT (S (NP (JJ (happy))(NNP (thanksgiving))(NN (everyone))))(S (NP (VB (grab))(DT (a))(NN (plate)))(VP (VB (get)))(NP (PRP (it)))(PP (IN (in)))(NP (NNP (!!!))))) |ET| 
1  |BT| (ROOT (S (VP (VBG (listen))(TO (to))(`` ("))(VB (superstition)))(PP (IN (by)))(NP (JJ (stevie))(JJ (wonder.my))(NN (song)))(PP (IN (of)))(NP (DT (the))(NN (day))(NN (lol))))) |ET| 
-1  |BT| (ROOT (S (NP (PRP (i)))(VP (VBD (be))(RB (not))(VBN (make))(TO (to))(VB (be)))(NP (CD (one)))(PP (IN (of)))(NP (JJ (many))(CC (or))(RB (even))(CD (one)))(PP (IN (of)))(NP (CD (two))))(S (NP (DT (a))(NN (part)))(PP (IN (of)))(NP (DT (the))(NN (puzzle)))(NP (DT (the))(NN (puzzle)))(NP (PRP (itself))))) |ET| 
-1  |BT| (ROOT (S (NP (DT (the))(JJ (weak)))(VP (MD (can))(RB (never))(VB (forgive))))(S (NP (NNP (forgiveness)))(VP (VBZ (be)))(NP (DT (a))(NN (attribute)))(PP (IN (of)))(NP (DT (the))(JJ (strong))))(S (NP (NNP (mahatma))(NNP (gandhi))))) |ET| 
-1  |BT| (ROOT (S (PP (IN (off)))(PP (TO (to)))(NP (NNP (teach))(NNP (smart))(VBP (store)))(VP (TO (to))(VB (find)))(NP (DT (some))(NNS (workbook))))(S (ADVP (WRB (why)))(NP (PRP (i)))(VP (VBG (pay)))(SBAR (IN (for)))(NP (DT (all)))(PP (IN (of)))(NP (DT (this))(NN (??))))) |ET| 
1  |BT| (ROOT (S (VP (VBZ (be)))(ADVP (RB (so)))(ADJP (JJ (tired))))) |ET| 
1  |BT| (ROOT (S (NP (NNP (famous))(JJ (last))(NN (word)))(ADVP (WRB (why)))(VP (VBP (be)))(NP (DT (those))(VBZ (log)))(VP (VBG (move))))) |ET| 
1  |BT| (ROOT (S (NP (NN (anybody)))(VP (VBP (know)))(NP (WP (what)))(NP (DT (the))(NN (summer))(NN (reading))(NNS (book)))(VP (VBP (be))))) |ET| 
-1  |BT| (ROOT (S (NP (DT (those))(WP (who)))(VP (VBP (think)))(NP (PRP (they)))(VP (VBP (know)))(NP (NN (everything)))(PP (VBP (annoy)))(NP (DT (those)))(PP (IN (of)))(NP (PRP (we)))(NP (WP (who)))(VP (VBP (do)))(UCP (RB (!!!))))) |ET| 
-1  |BT| (ROOT (S (NP (DT (the))(JJS (best))(NNS (conversation)))(VP (VBP (be)))(NP (DT (the))(NNS (one)))(NP (PRP (you)))(VP (VBP (have)))(PP (IN (with)))(NP (RB (just))(PRP$ (you))(NNS (eye))))) |ET| 
-1  |BT| (ROOT (S (VP (VBZ (be)))(ADVP (RB (really)))(ADJP (JJ (tired))))) |ET| 
1  |BT| (ROOT (S (NP (PRP (i)))(VP (VBD (bid)))(NP (VB (thee)))(NP (PDT (all))(DT (a))(RB (very))(JJ (fond))(NN (farewell))))(S (PP (IN (for)))(NP (DT (a))(NN (week))(-RRB- (-rrb-))(VBD (<))(CD (3))))) |ET| 
1  |BT| (ROOT (S (ADVP (WRB (how)))(NP (DT (the))(NNP (h))(NN (***)))(VP (VBP (do)))(NP (PRP (i)))(VP (VB (register)))(PP (IN (for)))(NP (DT (the))(NNP (zumba))(NNP (convention))))(S (NP (EX (there)))(VP (VBZ (be)))(NP (DT (no))(NN (link))))) |ET| 
1  |BT| (ROOT (S (NP (NNP (cody))(NNP (christianson)))(VP (VBZ (think)))(NP (RB (hes)))(ADJP (RB (so))(JJ (smartt))))(S (NP (JJ (pfftt))(NN (=p))(NN (lol))))) |ET| 
-1  |BT| (ROOT (S (NP (VB (woo-hoo))))(S (NP (DT (the))(NNPS (colts)))(VP (VBD (win))))) |ET| 
-1  |BT| (ROOT (S (VP (VBZ (have)))(ADVP (RB (finally)))(VP (VBN (find)))(PRT (RP (out)))(NP (WP (what)))(NP (NNP (pms)))(VP (VBZ (stand)))(PP (IN (for))))(S (NP (VB (pass))(PRP$ (my))(NN (shotgun))))) |ET| 
-1  |BT| (ROOT (S (NP (WP (what)))(VP (VBD (be)))(PP (FW (i)))(NP (NN (thinkn)))(PRT (RP (off)))(PP (NN (hitn)))(NP (DT (the))(NN (beer)))(NP (NN (yesterday)))(NP (JJ (lethal))(NN (day)))(PP (VBP (tho)))(NP (NN (lol))))) |ET| 
1  |BT| (ROOT (S (VP (VBZ (be))(VBN (tryin))(TO (to))(VB (stay)))(PP (IN (out)))(PP (IN (of)))(NP (NN (trouble)))(PP (IN (until)))(NP (DT (this))(NN (weekend))))) |ET| 
0.91737893165532291561703459592536  |BT| (ROOT (S (NP (PRP (it)))(VP (VBZ (be)))(ADJP (JJ (good)))(VP (TO (to))(VB (be))(IN (inside))(VBG (watch)))(NP (RB (telly))(VBG (eat))(NN (tomato))(NN (soup)))(VP (VBG (listen)))(NP (DT (the))(NN (rain)))(PP (IN (outside))))) |ET| 
0.93852757312733225969481054562493  |BT| (ROOT (S (NP (FW (i)))(VP (NN (love)))(NP (PRP$ (my))(NN (wife)))(ADJP (RB (very))(RB (much)))(PP (JJ (:})))(VP (NN (smile)))(ADJP (JJ (gorgeous)))(PP (FW (i)))(VP (VBP (be))(NN (thinkin)))(PP (IN (of)))(NP (PRP (you))))) |ET| 
-1  |BT| (ROOT (S (PP (IN (after)))(NP (DT (that))(JJ (massive))(NN (effort)))(PP (IN (of)))(VP (RB (actually))(VBG (try))(TO (to))(VB (get)))(PP (TO (to)))(NP (NN (school)))(NP (NN (today))))(S (NP (PRP (i)))(VP (VBP (be)))(ADVP (RB (back)))(ADVP (NN (home)))(PP (IN (on)))(NP (DT (the))(NN (sofa)))(VP (VBG (scratch)))(NP (PRP$ (my))(NN (ass))(CC (and))(VBG (watch))(JJ (top))(NN (gear))))) |ET| 
-1  |BT| (ROOT (S (NP (VB (wake)))(ADVP (RP (up)))(PP (IN (in)))(NP (DT (the))(NN (morning))(VBG (feel)))(PP (IN (like)))(NP (NN (scarface.one)))(ADVP (RB (again)))(NP (RB (lol))(VBP (hope))(NN (everyone)))(VP (VBZ (enjoy)))(NP (DT (this))(JJ (nice))(NN (day))))) |ET| 
-1  |BT| (ROOT (S (PP (IN (for)))(NP (DT (the))(JJ (first))(NN (time)))(PP (IN (in)))(NP (PRP$ (my))(NN (life)))(NP (PRP (i)))(VP (VBP (be))(VBG (gon))(TO (na))(VB (participate)))(PP (IN (in)))(NP (NNP (black)))(NP (NNP (friday))))(S (NP (DT (a))(NN (laptop)))(PP (IN (for)))(NP (CD (298)))(VP (VBZ (be))(VBG (gon))(TO (na))(VB (get)))(NP (PRP (i)))(PRT (RP (out)))(PP (TO (to)))(NP (NNP (walmart)))(PP (IN (at)))(NP (NN (midnight))))) |ET| 
1  |BT| (ROOT (S (NP (VB (wow))))(S (NP (NNS (blast)))(PP (IN (from)))(NP (DT (the))(JJ (past))))) |ET| 
1  |BT| (ROOT (S (VP (VBD (piss)))(PRT (RP (off))))) |ET| 
1  |BT| (ROOT (S (NP (PRP (they))(NN (tv)))(ADVP (RB (just)))(VP (VBD (tell)))(NP (PRP (i)))(VP (TO (to))(VB (call)))(NP (NN (parliament)))(NP (NN (something)))(VP (VBZ (tell)))(NP (PRP (i)))(NP (PRP (they)))(VP (MD (will))(RB (not))(VB (answer))))) |ET| 
-1  |BT| (ROOT (S (VP (VBD (go)))(NP (CD (2))(NN (bed)))(PP (IN (at)))(NP (CD (3)))(VP (VBD (wake)))(PRT (RP (up)))(PP (IN (at)))(NP (CD (6))(CD (30))))(S (ADVP (VB (hah)))(NP (NN (funnnn))))) |ET| 
-1  |BT| (ROOT (S (NP (RB (geeze)))(NP (DT (the))(NNS (thing)))(NP (PRP (i)))(VP (VBP (go)))(PP (RP (through)))(PP (IN (for)))(NP (NNS (girl))))) |ET| 
-1  |BT| (ROOT (S (VP (VBP (do)))(NP (DT (this))(CD (one))(JJR (more))(NN (time)))(NP (PRP (i)))(VP (MD ('ll))(VB (bite)))(NP (PRP$ (you))(JJ (fucking))(NNS (finger)))(PRT (RP (off))))) |ET| 
0.96665855452385907042867074778769  |BT| (ROOT (S (NP (NNPS (giants)))(VP (VBP (win)))(NP (CD (33)))(NP (CD (31))))(S (NP (FW (i)))(VP (VBD (know)))(NP (PRP$ (my))(NNS (giant)))(VP (MD (would))(VB (pull)))(NP (NNS (through.cowboys)))(ADVP (RB (only)))(VP (VBP (know)))(ADVP (WRB (how)))(VP (TO (to))(VB (suck)))(PP (IN (at)))(NP (JJ (life.ha)))(NP (JJ (ha)))(NP (NN (ha))(NN (homework))(CC (and))(NN (class)))(PP (IN (at)))(NP (CD (8am))))) |ET| 
0.95627098294298451541806116438238  |BT| (ROOT (S (NP (PRP (i)))(VP (VBP (luv)))(NP (PRP$ (my))(NN (bed))))(S (NP (PRP (it)))(VP (VBZ (be)))(ADJP (RB (so))(RB (cozy)))(SBAR (IN (that)))(NP (JJS (most)))(PP (IN (of)))(NP (DT (the))(NN (time)))(NP (PRP (i)))(ADVP (RB (never)))(VP (VBP (wan))(TO (na))(VB (leave))))(S (PP (IN (in)))(NP (NN (fact)))(NP (NN (today)))(NP (PRP (i)))(VP (VBP (be))(RB (not))(VBG (gon))(TO (na))))(S (NP (VB (:}))(NNP (wahaha))))(S (NP (NNP (time))(CD (2)))(VP (VBP (get)))(NP (DT (some))(VBG (write)))(VP (VBN (do))))) |ET| 
0.97538318313511740420551632269053  |BT| (ROOT (S (NP (PRP (i)))(VP (VBD (find)))(PRT (RP (out)))(NP (NN (today)))(VP (VBG (write)))(NP (NNP (xmas)))(VP (VBZ (be))(RB (not))(VBG (take)))(NP (DT (the))(NNP (christ)))(PP (RP (out)))(PP (IN (of)))(NP (NNP (christmas)))(ADVP (IN (after))(DT (all))))(S (ADVP (RB (however)))(NP (PRP (i)))(VP (VBP (think)))(NP (PRP (i)))(VP (VBP (be))(RB (still))(VBG (go))(TO (to))(VB (be))(VBG (write)))(NP (PRP (it)))(PP (IN (as)))(NP (NNP (christmas))))) |ET| 
-1  |BT| (ROOT (S (NP (DT (this))(JJ (last))(JJ (couple))(NNS (week)))(NP (PRP (i)))(VP (VBD (notice)))(ADVP (WRB (how)))(NP (PRP (i)))(VP (VBP (do))(RB (not))(VB (need)))(NP (DT (a))(NN (car.well)))(PP (IN (except)))(PP (IN (for)))(NP (NNP (winter.i)))(VP (VBP (be))(RB (not))(VBG (try))(TO (to))(VB (stroll)))(NP (NNS (kid)))(PP (IN (in)))(NP (DT (the))(NN (snow))))) |ET| 
-1  |BT| (ROOT (S (NP (VB (omg))))(S (NP (PRP (i)))(VP (VBP (be))(VBG (play)))(NP (DT (a))(NN (zombie))(NN (survival))(NN (game)))(PP (IN (in)))(NP (NNP (d20))(NNP (modern.and)))(NP (PRP (we)))(VP (VBD (find)))(NP (DT (a))(NN (zombie))(NN (hooker)))(PP (IN (in)))(NP (DT (the))(NN (trunk)))(PP (IN (of)))(NP (DT (this))(JJ (dead))(NNS (guy))(NN (car))))) |ET| 
-1  |BT| (ROOT (S (PP (FW (i)))(NP (VBP (love))(NNS (friend)))(NP (WP (who)))(VP (MD (can))(NN (insult)))(NP (PRP$ (you))(NN (intelligence)))(PP (IN (with)))(NP (DT (a))(NN (compliment)))(VP (VB (think)))(NP (PRP$ (its))(NN (hilarious.all))(FW (i)))(VP (VBP (have))(TO (to))(VB (say)))(VP (VBZ (be))(RB (aww))(VB (fuck)))(NP (PRP (it)))(VP (VB (give)))(NP (PRP (i)))(NP (DT (the))(UH (damn))(NN (bucket))))) |ET| 
1  |BT| (ROOT (S (NP (PRP (we)))(VP (VBP (be))(VBG (leave)))(NP (NNP (washington))(NNP (:{))(NNP (goodbye))(JJ (clean))(NN (air))))(S (NP (DT (the))(NNS (people)))(ADVP (RB (too)))(NP (PRP (i)))(VP (VBP (suppose)))(NP (NNP (p))))) |ET| 
0.96881620779322064063165953484713  |BT| (ROOT (S (PP (IN (in)))(NP (CD (one))(NN (week)))(NP (CD (four))(NNS (fishbowly)))(VP (MD (will))(VB (be)))(ADVP (RB (here))))(S (VP (VB (watch)))(PP (RP (out)))(NP (NNP (phoenix))))) |ET| 
1  |BT| (ROOT (S (SBAR (IN (if)))(NP (PRP (you)))(VP (VBP (start))(VBG (make)))(NP (NN (noise)))(ADVP (RB (again)))(VP (NN (imma))(VB (gon))(TO (na))(VB (call)))(NP (DT (the))(NNS (cop))))) |ET| 
-1  |BT| (ROOT (S (SBAR (IN (if)))(NP (PRP (you)))(VP (VBP (have))(RB (never))(VBD (lie)))(PP (IN (about)))(NP (NN (anything)))(VP (VB (click))(`` ("))(IN (like))))(S (VP (VB (go)))(ADVP (RB (back)))(VP (VB (click)))(PP (IN (unlike)))(NP (PRP (you)))(VP (VBP (be)))(NP (DT (a))(VBG (lie))(NN (bastard))))) |ET| 
-1  |BT| (ROOT (S (NP (NNP (malery)))(VP (VBD (save)))(NP (DT (the))(NN (day)))(NP (PRP (i)))(VP (VB (say)))(NP (VBP (night.we)))(ADVP (RB (now)))(VP (VB (have)))(NP (DT (a))(JJ (binky))(NN (!!))))) |ET| 
-1  |BT| (ROOT (S (VP (VBG (think)))(PP (IN (about)))(NP (NNS (sammus)))(NP (NN (today))))(S (VP (VBP (hope)))(NP (PRP (she)))(VP (VBZ (be))(VBG (feel)))(ADVP (JJR (better)))(NP (DT (this))(NN (morning)))(SBAR (IN (than)))(NP (PRP (she)))(VP (VBD (do)))(NP (JJ (last))(NN (night))))) |ET| 
1  |BT| (ROOT (S (NP (JJ (happy))(NNP (b-day))(NNP (mom))(NNP (n))(NNP (j))(NNP (camara)))(VP (SYM (=)))(NP (JJ (x.chillin)))(PP (NN (hlpin)))(NP (PRP$ (my))(NN (bous))(NN (move)))(VP (VBD (hit)))(PRT (RP (up)))(NP (DT (the))(NN (cell))))) |ET| 
1  |BT| (ROOT (S (NP (WP (what)))(NP (DT (a))(JJ (freaking))(NN (week))))(S (NP (JJ (crazy))(NNS (perv)))(VP (VBP (be)))(ADVP (RB (everywhere)))(PP (IN (in)))(NP (DT (this))(NNS (town.thats)))(NP (DT (all))(VBP (im)))(VP (VBG (go))(TO (to))(VB (say)))(PP (IN (for)))(NP (DT (the))(NN (moment.oh)))(NP (PRP (they)))(VP (VBP (be)))(PP (IN (at)))(NP (DT (the))(NN (library))))) |ET| 
1  |BT| (ROOT (S (VP (VBD (get)))(PP (IN (in)))(NP (DT (the))(NN (car)))(VP (VBN (turn)))(PP (IN (on)))(NP (DT (the))(NN (engine)))(NP (WP (what)))(VP (VBD (come)))(PP (NN (on.bupbup)))(NP (NN (americano))))(S (VP (MD (could))(RB (not))(VB (have))(VBN (time)))(NP (PRP (it)))(ADVP (JJR (better)))(SBAR (IN (if)))(NP (FW (i)))(VP (VBD (try))))(S (NP (NN (xxx))))) |ET| 
-1  |BT| (ROOT (S (VP (VBZ (be)))(NP (NNP (ready)))(VP (TO (to)))(NP (VBP (see))(DT (the))(NNP (sen10rs))(NNP (dominate)))(PP (IN (in)))(NP (NNP (powder))(NNP (puff)))(VP (NNP (<)))(NP (CD (3))(CD (<)))(LST (CD (3))))) |ET| 
-1  |BT| (ROOT (S (ADVP (RB (now)))(SBAR (IN (that)))(NP (DT (the))(NNS (kiddie)))(VP (VBP (be)))(PP (IN (in)))(NP (NN (bed)))(NP (NNP (q.)))(ADVP (WRB (how)))(VP (VBP (be)))(NP (NNS (man)))(PP (IN (like)))(NP (NNS (noodle))))(S (NP (NNP (a.))(PRP (they)))(VP (VBP (be)))(ADVP (RB (always)))(PP (IN (in)))(NP (JJ (hot))(NN (water)))(NP (PRP (they)))(VP (VBP (lack)))(NP (NN (taste)))(NP (PRP (they)))(VP (VBP (need)))(NP (NN (dough))))) |ET| 
-1  |BT| (ROOT (S (VP (VBG (lay)))(PP (IN (in)))(NP (DT (the))(NN (grass)))(PP (IN (in)))(NP (DT (the))(NN (sun)))(VP (VBG (wonder)))(ADVP (WRB (why)))(NP (DT (the))(NN (snow)))(VP (VBZ (have))(TO (to))(VB (come))))) |ET| 
1  |BT| (ROOT (S (ADVP (VB (ahahahah)))(NP (PRP (i)))(VP (VBP (walk)))(PP (RP (in)))(NP (PRP (she)))(VP (VBZ (make)))(NP (DT (a))(NN (crack)))(PP (IN (on)))(NP (NNP (twilight)))(UCP (NN (xd))))) |ET| 
0.94524520851333659887671956312261  |BT| (ROOT (S (NP (NNP (thursday)))(ADVP (CD (sooo))(RB (soon))))(S (NP (NN (hell))(PRP (ya)))(NP (NN (today)))(VP (VBZ (be)))(NP (NN (wedding))(VBG (plan))(NN (day)))(PP (IN (with)))(NP (PRP$ (my))(NN (momma))))(S (NP (NNP (<))(CD (3)))(NP (PRP$ (she))))) |ET| 
1  |BT| (ROOT (S (NP (RB (just)))(VP (VBD (try)))(NP (DT (the))(NNP (neilmed)))(PP (VBZ (sinus)))(NP (JJ (rinse))(NN (thing))))(S (NP (PRP$ (my))(NN (sister)))(VP (VBD (help)))(PP (IN (for)))(NP (DT (some))(NN (reason)))(NP (PRP (it)))(VP (VBD (wouldnt))(NN (work))))(S (NP (PRP (i)))(VP (VBP (guess)))(NP (PRP (i)))(VP (MD (must))(VB (be))(RB (really))(VBN (congest))))) |ET| 
-1  |BT| (ROOT (S (ADVP (NNP (nevermind)))(NP (PRP (i)))(VP (VBD (find)))(NP (PRP (it))))) |ET| 
-1  |BT| (ROOT (S (NP (PRP (i)))(VP (MD (can))(VB (feel)))(NP (DT (the))(NNS (chill)))(VP (VB (run)))(PP (RP (down)))(NP (PRP$ (my))(NN (spine))))) |ET| 
-1  |BT| (ROOT (S (ADVP (RB (never)))(VP (VB (be)))(ADJP (JJ (sad)))(PP (IN (for)))(NP (WP (what)))(VP (VBZ (be)))(ADVP (RP (over)))(NP (RB (just)))(VP (VB (be)))(ADJP (JJ (glad)))(SBAR (IN (that)))(NP (PRP (it)))(VP (VBD (be)))(ADVP (IN (once)))(NP (PRP$ (yours))))) |ET| 
0.92271899357560649423959375781124  |BT| (ROOT (S (PP (IN (in)))(NP (JJ (sydney))(JJ (childrens))(NN (hospital)))(VP (VBG (sit)))(NP (JJ (next)))(PP (TO (to)))(NP (NN (daughter))(VBG (sleep))))(S (NP (NNS (wound)))(VP (VBG (heal)))(ADJP (JJ (slow)))(NP (JJ (sad))(VBP (place)))(NP (DT (this)))(NP (RB (specially))(DT (the))(NN (cancer))(NN (ward))))) |ET| 
0.953588341821451468405257401173  |BT| (ROOT (S (VP (VBG (play)))(NP (JJ (online))(NNS (heart)))(PP (IN (at)))(NP (CD (one)))(PP (IN (in)))(NP (DT (the))(NN (morning))))(S (NP (JJ (amazing))(NNP (friday))(NN (night)))(SBAR (RB (as)))(NP (PRP (you)))(VP (MD (can))(VB (see))))) |ET| 
0.99391890424957674010641994755133  |BT| (ROOT (S (ADVP (WRB (when)))(NP (NN (everything)))(NP (VBZ (be)))(VP (VBG (come)))(NP (PRP$ (you))(NN (way)))(NP (PRP (you)))(VP (VBP (be)))(PP (IN (in)))(NP (DT (the))(JJ (wrong))(NN (lane))))) |ET| 
-1  |BT| (ROOT (S (VP (VBG (go)))(PP (TO (to)))(NP (VB (lie)))(PP (IN (on)))(NP (DT (the))(NN (bed)))(VP (TO (to))(VB (wait)))(PP (IN (for)))(NP (NN (baby)))(NP (POS ('s))(NN (call))))(S (NP (JJ (goodnight))(NNS (people))))) |ET| 
-1  |BT| (ROOT (S (VP (VBG (be)))(ADVP (JJ (sad)))(PP (IN (with)))(NP (DT (the))(JJ (right))(NNS (people)))(VP (VBZ (be)))(ADJP (JJR (better)))(PP (IN (than)))(VP (VBG (be)))(ADJP (JJ (happy)))(PP (IN (with)))(NP (DT (the))(JJ (wrong))(NNS (one))))) |ET| 
-1  |BT| (ROOT (S (NP (NN (weekend)))(ADJP (JJ (full)))(PP (IN (of)))(NP (NN (bday))(VBD (parties.and)))(ADVP (RB (hopefully)))(NP (PRP (we)))(VP (MD (can))(RB (finally))(VB (play)))(NP (NN (golf)))(ADVP (RB (again)))(PP (IN (after)))(NP (NNS (week)))(PP (IN (of)))(NP (NN (snow.fun))(NN (fun))(NN (fun))))) |ET| 
1  |BT| (ROOT (S (NP (PRP (i)))(PP (VBP (like)))(NP (PRP (it)))(PP (IN (on)))(NP (DT (the))(NN (floor))))) |ET| 
0.9795072548803318568388931453228  |BT| (ROOT (S (VP (VB (make)))(NP (PRP (it)))(NP (DT (all)))(VP (VB (go)))(ADVP (RP (away)))(VP (VB (start)))(ADJP (JJ (fresh)))(SBAR (NN (that)))(NP (DT (all))(FW (i))(VB (ask))))) |ET| 
1  |BT| (ROOT (S (NP (WP (what)))(VP (TO (to))(VB (eat))))) |ET| 
-1  |BT| (ROOT (S (ADVP (RB (usually)))(NP (PRP (i)))(VP (VBP (like)))(NP (PRP (it)))(PP (IN (on)))(NP (DT (the))(NN (floor)))(ADVP (RB (sometimes)))(NP (DT (the))(NN (chair.all)))(VP (VBZ (depend)))(PP (IN (on)))(NP (PRP$ (my))(NN (mood))))) |ET| 
-1  |BT| (ROOT (S (NP (NNP (all))(DT (the))(NNP (people)))(NP (WP (who)))(VP (VBN (change)))(PP (JJ (their)))(NP (NNS (picture))(TO (to))(NNS (cartoon)))(PP (IN (for)))(NP (NNP (nspcc)))(NP (PRP (it))))) |ET| 
-1  |BT| (ROOT (S (NP (CD (1))(NN (kiddo)))(PP (IN (at)))(NP (JJ (grandmas))(NN (house))(CD (.1))(NN (kiddo)))(PP (IN (at)))(NP (DT (a))(JJ (sleepover.house)))(ADVP (DT (all)))(PP (TO (to)))(NP (PRP (myself)))(NP (DT (no))(NN (idea)))(NP (WP (what)))(VP (TO (to))(VB (do))))) |ET| 
1  |BT| (ROOT (S (VP (VBG (plant)))(NP (DT (the))(NNS (seed)))(PP (IN (of)))(NP (NN (rebellion)))(ADJP (RB (sure)))(VP (VBZ (be)))(NP (DT (a))(NN (lot)))(PP (IN (of)))(NP (NN (fun))))) |ET| 
1  |BT| (ROOT (S (NP (PRP (i)))(VP (VBP (be)))(PP (RB (as)))(ADJP (JJ (ugly)))(ADJP (JJ (sad)))(PP (IN (as)))(NP (PRP (you))))(S (NP (VBP (be)))(NP (PRP (i)))(VP (JJ (origami))))(S (VP (VBN (fold)))(PRT (RP (up)))(VP (RB (just))(JJ (pretend)))(ADJP (VBD (dement)))(SBAR (IN (as)))(NP (DT (the))(NNS (motive)))(PP (IN (in)))(NP (PRP$ (you))(NN (head))))(S (NP (NN (eve))(CD (6))))) |ET| 
0.88933952112646974530463239716482  |BT| (ROOT (S (NP (DT (this)))(VP (VBZ (be)))(NP (DT (the))(JJS (latest))(PRP (i)))(VP (VBP (have))(RB (ever))(VBN (wake)))(PP (RP (up))))) |ET| 
-1  |BT| (ROOT (S (NP (DT (a))(NN (lot)))(PP (IN (of)))(NP (NN (time)))(VP (VBZ (be))(VBN (lose)))(ADVP (RB (just)))(PP (IN (by)))(NP (VBG (wait))(NN (~))))) |ET| 
-1  |BT| (ROOT (S (VP (VBZ (do)))(NP (DT (this))(NN (rag))(NN (smell)))(PP (IN (like)))(NP (NN (chloroform)))(PP (TO (to)))(NP (PRP (you))))) |ET| 
-1  |BT| (ROOT (S (NP (DT (the))(NN (knot)))(PP (IN (under)))(NP (PRP$ (my))(NN (shoulder))(NN (blade)))(VP (VBZ (be)))(NP (DT (the))(NNP (devil))))) |ET| 
1  |BT| (ROOT (S (NP (RB (about)))(VP (TO (to))(NN (color)))(NP (UH (hello))(NNP (kitty)))(PP (IN (with)))(NP (PRP$ (my))(JJ (princess.the))(NNS (joy)))(PP (IN (of)))(NP (NN (motherhood)))(VP (VBD (get))(TO (to))(VB (love)))(NP (PRP (it))))) |ET| 
1  |BT| (ROOT (S (ADVP (RB (really)))(VP (VB (do)))(PP (IN (with)))(NP (DT (a))(CD (million))(NNS (rand))(RB (right)))(ADVP (RB (now))))) |ET| 
0.97685792917162561632693495994317  |BT| (ROOT (S (NP (DT (no))(VBP (need)))(VP (TO (to))(VB (vote)))(ADVP (WRB (when)))(NP (NNP (jesus)))(VP (VBZ (be)))(PP (IN (in)))(NP (JJ (total))(NN (control))))(S (VP (VB (look)))(NP (WP (what)))(VP (VBD (happen)))(ADVP (WRB (when)))(NP (DT (the))(NNS (people)))(PP (IN (of)))(NP (NNP (isreal)))(VP (VBD (vote)))(PP (IN (for)))(NP (DT (a))(NN (king))))) |ET| 
-1  |BT| (ROOT (S (NP (PRP$ (its))(NNP (christmas))(CC (and))(FW (im)))(VP (VBG (sit)))(ADVP (RB (here)))(VP (VBG (read))))) |ET| 
-1  |BT| (ROOT (S (NP (PRP (we)))(VP (VB (pretend)))(NP (IN (that))(NNS (airplane)))(PP (IN (in)))(NP (DT (the))(NN (night))(NN (sky)))(VP (VBP (be)))(PP (IN (like)))(NP (VBG (shoot))(NNS (stars.i)))(VP (MD (could))(RB (really))(VB (use)))(NP (DT (a))(VBP (wish))(RB (right)))(ADVP (RB (now)))(VP (VBP (wish)))(ADVP (RB (right))(RB (now)))(VP (VBP (wish)))(ADVP (RB (right))(RB (now))))) |ET| 
-1  |BT| (ROOT (S (NP (NNP (we))(NNP (love))(NNP (ourself))(NNP (even))(NNP (after))(NNP (doing))(NNP (many))(VBZ (mistake))))(S (PP (NNP (then)))(NP (NNP (hw))(NNP (can))(NNP (we))(NNP (hate))(NNP (others))(CD (4))(NNP (their))(CD (one))(NNP (mistake))(NNP (seems))(NNP (strange))(NNP (but))(JJ (true))))) |ET| 
1  |BT| (ROOT (S (PP (IN (off)))(PP (TO (to)))(NP (DT (the))(NNS (doctor)))(PP (IN (for)))(NP (DT (the))(NNS (kid))))) |ET| 
1  |BT| (ROOT (S (VP (VBZ (have))(VBN (come)))(PP (TO (to)))(NP (DT (the))(NN (conclusion)))(SBAR (IN (that)))(NP (NNS (froot-loop)))(VP (VBP (be)))(NP (RB (just))(JJ (gay))(NNS (cheerio))))) |ET| 
1  |BT| (ROOT (S (VP (VBZ (be)))(ADJP (RP (off)))(UCP (TO (to))(VB (english)))(NP (NN (class)))(PP (IN (at)))(NP (DT (the))(NN (university))))) |ET| 
-1  |BT| (ROOT (S (PP (IN (off)))(PP (TO (to)))(NP (VB (walmart.got)))(NP (DT (a))(NN (giggle))(JJS (fest)))(VP (TO (to))(VB (feed))))(S (NP (-LRB- (-lrb-)))(VP (VBN (get))(TO (to))(NN (love)))(NP (NNS (sleepover))))) |ET| 
-1  |BT| (ROOT (S (VP (VBZ (be)))(ADVP (RB (suddenly)))(PP (IN (in)))(NP (DT (the))(NN (mood)))(VP (TO (to))(VB (watch)))(NP (NN (grease))))) |ET| 
-1  |BT| (ROOT (S (VP (VBG (get)))(ADJP (JJ (ready)))(VP (TO (to))(VB (take)))(NP (PRP$ (my))(JJ (last))(JJ (final)))(PP (IN (for)))(NP (DT (the))(NN (semester))))(S (NP (PRP (it)))(VP (VBZ (be)))(PP (IN (in)))(NP (NN (computer))(NN (class))))) |ET| 
0.96854359928857158834603069408331  |BT| (ROOT (S (VP (VBG (be)))(NP (JJ (humble))(CC (and))(JJ (honorable))(VBZ (bring)))(NP (PRP (you)))(NP (NN (nothing)))(NP (JJ (good))(NNS (thing))))(S (VP (VB (thank)))(NP (PRP (you))(NNP (domina))(, (,))(NNP (tory))(CC (and))(NNP (tank))))(S (ADVP (RB (also)))(NP (NN (momma))(NN (lol))))) |ET| 
0.89731970649632886161128908497631  |BT| (ROOT (S (NP (DT (another))(VBP (note))(RB (tonight))))(S (ADVP (UH (yes)))(ADVP (RB (possibly))))) |ET| 
1  |BT| (ROOT (S (NP (PRP (she)))(VP (VBP (ii))(VBG (eatie)))(ADVP (RB (now)))(VP (NN (haha)))(VP (VBG (clappie)))(NP (PRP$ (she))(NNS (hand)))(NP (JJ (haha))(JJ (lo0viin)))(VP (NNS (dii))))) |ET| 
-1  |BT| (ROOT (S (NP (DT (another))(JJ (beautifull))(NN (day))))) |ET| 
-1  |BT| (ROOT (S (NP (WP (what)))(PP (IN (on)))(NP (PRP$ (you))(NN (mind)))(SBAR (IN (that)))(NP (PRP (i)))(VP (VBP (do))(RB (not))(VB (know))))(S (NP (PRP$ (you))(NNS (eye)))(VP (VBP (be))(VBG (wander)))(PP (IN (like)))(ADVP (RB (never))(RB (before))))) |ET| 
-1  |BT| (ROOT (S (NP (POS ('))(VBP (ti))(RB (not))(NN (happiness)))(SBAR (IN (that)))(NP (PRP (i)))(VP (VBP (feel))))) |ET| 
0.98435121386429869083656285511097  |BT| (ROOT (S (NP (NNP (*))(NNP (money)))(VP (VBZ (be)))(PP (IN (like)))(NP (DT (a))(JJ (sixth))(NN (sense)))(VP (VBG (make)))(NP (PRP (it)))(ADJP (JJ (possible)))(VP (TO (to))(RB (fully))(VB (enjoy)))(NP (DT (the))(JJ (other))(CD (five))(NNS (*))))) |ET| 
0.73377927986063118392934256917215  |BT| (ROOT (S (VP (VBG (get)))(PRT (RP (up)))(VP (VBZ (be)))(ADJP (JJ (hard)))(VP (TO (to))(VB (do)))(NP (RB (damn))(JJ (rainy))(NN (weather))))) |ET| 
0.99381661930782261293870760709979  |BT| (ROOT (S (NP (VBP (chillen)))(VP (VBG (get)))(ADJP (JJ (ready)))(VP (TO (to))(VB (go)))(PP (TO (to)))(NP (VB (work))))(S (NP (NN (hollum))(DT (this))(NN (week)))(VP (VBZ (be)))(ADVP (RB (almost))(IN (over))))) |ET| 
-1  |BT| (ROOT (S (NP (FW (i)))(ADVP (RB (just)))(VP (VBD (find)))(PRT (RP (out)))(SBAR (DT (that)))(NP (FW (i)))(ADVP (RB (now)))(VP (VBP (have)))(NP (NN (access)))(VP (TO (to))(CD (espn3))))(S (ADVP (WRB (how)))(VP (VBZ (be))))) |ET| 
-1  |BT| (ROOT (S (NP (NNP (life)))(VP (VBZ (be)))(PP (IN (like)))(NP (DT (a))(NN (piano))))(S (NP (NNP (white))(NNS (key)))(VP (VBP (be)))(NP (JJ (happy))(NNS (moment))(CC (&))(JJ (black))(NNS (key)))(VP (VBP (be)))(NP (JJ (sad))(NNS (moment))))(S (NP (VBP (remember))(DT (both))(NNS (key)))(VP (SYM (r)))(VP (VBD (play)))(ADVP (RB (together)))(NP (CD (2)))(VP (VB (give)))(NP (JJ (sweet))(NN (music))))(S (NP (JJ (:}))(-RRB- (-rrb-))(VB (-rrb-)))(ADVP (RB (so)))(VP (VB (enjoy)))(NP (DT (the))(NN (music))))) |ET| 
-1  |BT| (ROOT (S (VP (VBZ (be)))(VP (VBG (go)))(PP (TO (to)))(NP (NN (bed)))(PP (IN (at)))(NP (CD (9)))(ADVP (RB (again)))(PP (VBG (/)))(NP (DT (another))(CD (5))(RB (a.m))(NN (practice)))(NP (NN (tomorrow))))(S (NP (NN (sarah))(, (,))(NN (brooke))(CC (&))(NN (caroline)))(NP (PRP (you)))(ADVP (JJR (better)))(VP (VB (be)))(ADVP (EX (there))))) |ET| 
1  |BT| (ROOT (S (NP (PRP (i)))(VP (MD ('ll))(VB (keep)))(NP (PRP$ (my))(NNS (eye)))(VP (VBN (fix)))(PP (IN (on)))(NP (DT (the))(NN (sun))))) |ET| 
1  |BT| (ROOT (S (NP (PRP (i)))(VP (VBP (want))(TO (to))(VB (be)))(PP (IN (at)))(NP (DT (a))(NN (beach))))) |ET| 
1  |BT| (ROOT (S (SBAR (IN (that)))(NP (JJ (last))(NN (coffee)))(VP (VBD (be)))(NP (DT (a))(NN (mistake))))) |ET| 
-1  |BT| (ROOT (S (NP (DT (this))(NN (time)))(NP (JJ (next))(NN (week)))(NP (PRP (i)))(VP (MD (will))(VB (be))(VBG (enjoy)))(NP (DT (some))(NNS (scientist))))) |ET| 
-1  |BT| (ROOT (S (ADJP (JJR (better)))(VP (TO (to))(VBP (have)))(NP (DT (a))(JJ (simple))(CC (and))(JJ (peaceful))(NN (life))))) |ET| 
-1  |BT| (ROOT (S (NP (VBZ (laker)))(VP (NNS (takin)))(NP (PRP (it)))(ADVP (RB (all)))(PP (IN (at)))(NP (DT (the))(NN (turnt)))(PP (RB (down)))(NP (NN (garden))))) |ET| 
1  |BT| (ROOT (S (VP (VBN (excite)))(PP (IN (for)))(NP (NN (tonight))))(S (NP (NNP (heat))(VBD (<))(CD (3)))(NP (PRP (we)))(VP (VBP (be))(VBN (gettin)))(NP (JJ (cute))(CC (and))(JJ (gettin)))(ADJP (IN (down))(JJ (crazy))))) |ET| 
0.96835874509553221400892653036863  |BT| (ROOT (S (ADVP (RB (sometimes)))(NP (PRP (it)))(VP (VBZ (be)))(NP (DT (the))(JJS (smallest))(NNS (decision)))(NP (WDT (that)))(VP (MD (can))(VB (change)))(NP (PRP$ (you))(NN (life)))(ADVP (RB (forever))))) |ET| 
1  |BT| (ROOT (S (ADVP (RB (here)))(PP (IN (at)))(NP (NN (work)))(VP (VBG (have)))(NP (RB (just))(DT (another))(JJ (great))(NN (day))))) |ET| 
-1  |BT| (ROOT (S (VP (VBG (think)))(PP (IN (about)))(VP (VBG (stay)))(ADVP (RB (here)))(PP (IN (in)))(NP (VBD (durant))(DT (another))(RB (just)))(VP (TO (to))(VB (clean)))(PRT (RP (up)))(NP (DT (some))(NN (stuff))))) |ET| 
-1  |BT| (ROOT (S (VP (VBZ (be)))(VP (VBG (get)))(ADJP (JJ (ready)))(VP (TO (to))(VB (run)))(PP (IN (around)))(NP (PRP$ (he))(NN (neighbor))(NN (hood))))) |ET| 
-1  |BT| (ROOT (S (NP (VBZ (lecture)))(VP (VBD (be)))(NP (DT (the))(JJS (best))(NN (place)))(PP (IN (of)))(NP (NN (mine))))) |ET| 
1  |BT| (ROOT (S (NP (FW (i)))(VP (VBP (have))(VBN (get)))(ADVP (RB (so))(RB (much)))(VP (TO (to))(VB (do)))(NP (CC (and))(RB (not))(RB (enough))(NN (time))))) |ET| 
1  |BT| (ROOT (S (NP (IN (off))(CD (2))(NN (bed))(FW (i))(NN (qo))))) |ET| 
1  |BT| (ROOT (S (NP (NN (bonobo)))(ADVP (NNP (july))(JJ (12th)))(ADVP (NNP (chicago)))(NP (JJ (full))(NN (fucking))(NN (band))))) |ET| 
-1  |BT| (ROOT (S (UCP (NNP (hmm)))(NP (VBP (im)))(VP (VBG (rethink))(VBG (wear)))(NP (NN (heels.do)))(LST (FW (i)))(ADVP (RB (rlly)))(VP (VBP (want))(TO (to))(VB (be)))(NP (CD (6))(CD (1))))) |ET| 
-1  |BT| (ROOT (S (NP (VBG (wish))(FW (i)))(VP (MD (could))(VB (go)))(PP (TO (to)))(NP (DT (the))(NN (pool))(NN (party))))) |ET| 
-1  |BT| (ROOT (S (NP (DT (the))(NN (concert))(VBP (wuz)))(ADJP (JJ (amazing)))(NP (JJ (last))(JJ (nite))))(S (NP (FW (i)))(VP (VBD (have)))(NP (DT (a))(NN (blast))))) |ET| 
1  |BT| (ROOT (S (NP (DT (this))(NN (semester)))(VP (VBZ (have))(VBN (be)))(NP (JJ (shit))))(S (PP (IN (in)))(NP (NNS (term)))(PP (IN (of)))(NP (NN (unus))(RB (not)))(ADVP (RB (socially))))) |ET| 
0.89621352001938336950814800729859  |BT| (ROOT (S (VP (VBP (do))(RB (not))(VB (break)))(NP (PRP (i)))(SBAR (RB (cuz)))(NP (PRP (i)))(VP (VBP (be))(RB (already))(VBN (crack)))(VP (VBG (bleed)))(PP (IN (from)))(NP (DT (the))(NNS (memory)))(PP (IN (of)))(NP (PRP$ (my))(NN (past))))(S (NP (PRP (it)))(ADVP (RB (too))(JJ (much)))(VP (TO (to))(VB (ask))))) |ET| 
1  |BT| (ROOT (S (NP (JJ (third))(NN (person)))(ADVP (RB (never)))(VP (VBZ (create)))(NP (DT (any))(NN (misunderstanding)))(PP (IN (between)))(NP (CD (two))(NNS (people))))(S (NP (NN (misunderstanding)))(PP (IN (between)))(NP (CD (two))(NNS (people)))(VP (VBZ (create)))(NP (NN (space)))(PP (IN (for)))(NP (DT (the))(JJ (third))(NN (person))))) |ET| 
-1  |BT| (ROOT (S (NP (NN (ok))(FW (i)))(VP (VBP (be))(VBN (bore)))(PP (RP (out)))(PP (IN (of)))(NP (PRP$ (my))(NN (mind)))(ADVP (RB (now))))(S (ADVP (WRB (where)))(NP (PRP$ (my))(NNS (girl)))(PP (IN (at)))(NP (NN (tonight))))) |ET| 
-1  |BT| (ROOT (S (NP (NNS (feel)))(PP (IN (like)))(NP (PRP (she)))(ADVP (RB (really)))(VP (MD (should))(RB (not))(VB (be))(VBG (watch)))(NP (JJ (many))(JJ (jedward))(NNS (thing)))(PP (IN (on)))(NP (NN (youtube))))) |ET| 
-1  |BT| (ROOT (S (ADVP (RB (just)))(VP (VBD (wake))(RB (up.had))(RB (too))(VB (sleep)))(NP (PRP (it)))(ADVP (VB (off.slept)))(ADVP (RB (right)))(PP (IN (through)))(NP (DT (the))(JJ (damn))(NN (games.who)))(VP (VBN (win)))(NP (DT (the))(NN (football))(NNS (game))))) |ET| 
1  |BT| (ROOT (S (NP (CD (one))(NN (day)))(ADVP (RB (then))(RB (back)))(PP (TO (to)))(NP (DT (the))(NN (salt))(NN (mine))))) |ET| 
0.78017890440136838936524554810603  |BT| (ROOT (S (VP (VBZ (be))(VBG (go)))(PP (TO (to)))(NP (DT (the))(JJ (pixel))(NN (porno))(NN (party)))(ADVP (NN (tonight))))) |ET| 
0.85248106088483133202515773518826  |BT| (ROOT (S (NP (NN (ok))(RB (im)))(VP (VBN (bore)))(NP (VBZ (let)))(VP (VB (play)))(NP (DT (the))(NN (number))(NN (game))))) |ET| 
-1  |BT| (ROOT (S (NP (NN (storm)))(VP (VBZ (be))(VBG (come))))) |ET| 
-1  |BT| (ROOT (S (NP (NNP (married)))(PP (TO (to)))(NP (DT (the))(NN (money))(VBD (<))(CD (3))))) |ET| 
-1  |BT| (ROOT (S (NP (RB (just))(VBD (get))(DT (the))(NNP (best))(NNP (surprise))(NNP (ever))))) |ET| 
1  |BT| (ROOT (S (NP (JJ (pacquiaos))(NN (fight)))(PP (IN (on)))(NP (NNP (sunday)))(VP (MD (can))(VB (wait))(TO (to))(VB (watch)))(NP (PRP (it)))(VP (VB (see)))(NP (PRP (he)))(VP (VB (knock)))(NP (NNP (clottey)))(ADVP (RP (down))))(S (NP (NN (gathering)))(PP (IN (of)))(NP (NNPS (filipinos)))(ADVP (RB (again))))) |ET| 
0.88564526149234923391162510597496  |BT| (ROOT (S (VP (VBD (have)))(NP (NN (lot)))(NP (POS ('s)))(PP (IN (of)))(NP (NN (fun))(NN (tonight)))(ADVP (NNS (thanks)))(PP (TO (to)))(NP (NNP (sheldon))(CC (and))(NNP (david))))(S (NP (PRP (you))(NNS (guy)))(VP (VBP (be)))(NP (DT (some)))(PP (IN (of)))(NP (PRP$ (my))(JJS (best))(NNS (friend))))) |ET| 
0.89457623575228639722922707733233  |BT| (ROOT (S (NP (NNP (them))(VBZ (drum)))(VP (VB (be))(VBG (sound)))(PP (IN (like)))(NP (NN (machine))(NNS (gun))))) |ET| 
-1  |BT| (ROOT (S (VP (VBG (go)))(PP (TO (to)))(NP (VB (ken)))(PP (IN (for)))(NP (DT (the))(NN (weekend))))(S (NP (VB (wont)))(VP (VB (be)))(PP (IN (on)))(NP (IN (till))(NNP (sunday))))(S (NP (VB (bye))(NN (everybody))))(S (VP (VB (have)))(NP (DT (a))(JJ (great))(NN (weekend))(-LRB- (-lrb-)))(NP (NN (imma))(VBP (miss)))(NP (PRP (you))))) |ET| 
-1  |BT| (ROOT (S (NP (DT (all))(PRP (you)))(VP (VBP (have))(TO (to))(VB (do)))(VP (VBZ (be))(VB (tell)))(NP (PRP (i)))(SBAR (IN (that)))(NP (PRP (you)))(ADJP (RB (not))(JJ (interested))))(S (NP (JJ (real))(NNS (female)))(VP (MD (would))(RB (not))(VB (keep)))(NP (DT (a))(NN (nigga)))(VP (VBG (guess)))(SBAR (RB (so)))(NP (RB (ima))(VB (curb)))(NP (DT (this))(NN (hype))))) |ET| 
-1  |BT| (ROOT (S (NP (NNP (dear))(NNP (glass)))(NP (PRP (you)))(VP (VBP (be)))(ADJP (RB (half))(JJ (empty)))(VP (VBP (be)))(NP (PRP (you)))(ADJP (RB (half))(JJ (full))))(S (NP (PRP (you)))(VP (VBP (be))(RB (just))(RB (twice)))(ADJP (RB (as))(JJ (big)))(SBAR (IN (as)))(NP (PRP (you)))(VP (VBP (need))(TO (to))(VB (be))))(S (ADVP (NNP (sincerely)))(NP (DT (a))(NN (engineer))(-LRB- (-lrb-)))(VP (TO (to))(VB (be))))) |ET| 
1  |BT| (ROOT (S (NP (NN (adventure)))(VP (VBZ (be)))(PP (RP (out)))(ADVP (RB (there))))) |ET| 
0.94899720498509243515883326836047  |BT| (ROOT (S (NP (NN (today)))(VP (VBZ (be)))(NP (PDT (such))(DT (a))(JJ (depressing))(NN (day)))(NP (PRP (it)))(ADVP (RB (just)))(VP (VBZ (make)))(NP (NN (everything)))(ADJP (JJR (worse))))) |ET| 
0.73311014083696646181920186791103  |BT| (ROOT (S (NP (NN (weekend)))(VP (VBZ (be))(VBG (come)))(ADVP (JJ (~)))(PP (NNS (~)))(NP (VBP (~))(JJ (new))(NN (project))))) |ET| 
-1  |BT| (ROOT (S (VP (VBZ (be)))(ADJP (VBN (excite)))(PP (IN (for)))(NP (PRP$ (he))(NN (speech)))(NP (NN (tomorrow))))) |ET| 
-1  |BT| (ROOT (S (VP (VBZ (have)))(NP (DT (a))(VBG (thump))(NN (headache))))) |ET| 
-1  |BT| (ROOT (S (NP (CD (five))(NN (foot)))(PP (IN (of)))(NP (NNP (foam)))(VP (VBZ (be)))(PP (IN (on)))(NP (PRP$ (my))(NN (mind))(NN (haha))))) |ET| 
1  |BT| (ROOT (S (SBAR (IN (if)))(NP (PRP (i)))(VP (VBD (be)))(ADJP (JJ (fat)))(NP (PRP (i)))(ADVP (RB (probably)))(VP (MD (would))(RB (not))(VB (have))(VBN (catch)))(NP (DT (the))(NN (board))))(S (NP (NNP (selena))(NNP (baccam))))) |ET| 
1  |BT| (ROOT (S (NP (NNP (update))(NNP (?????????))))(S (NP (NNP (harness))))(S (NP (-LRB- (-lrb-))(NNS (thanks)))(PP (TO (to)))(NP (NNP (kay))(NN (ka))(-RRB- (-rrb-))(NNP (brick))))(S (NP (CD (5))(NNS (????))))) |ET| 
1  |BT| (ROOT (S (NP (PRP (i))(CC (and))(NNP (______)))(VP (VBP (make)))(NP (DT (a))(JJ (cute))(NN (couple))))(S (NP (VB (copy))(DT (this)))(PP (IN (as)))(NP (PRP$ (you))(NN (status)))(VP (VB (see)))(NP (WP (what)))(NP (PRP (you)))(VP (VBP (get))))(S (NP (-LRB- (-lrb-))(NNP (keegan)))(ADVP (RB (indirectly)))(VP (VBD (tell)))(NP (PRP (i)))(PP (TO (to))))) |ET| 
-1  |BT| (ROOT (S (NP (PRP (it)))(VP (VBZ (be)))(NP (NN (time)))(VP (TO (to))(VB (start)))(NP (DT (the))(NN (countdown)))(NP (PRP (i)))(VP (VBP (be))(VBG (gon))(TO (na))(VB (burn)))(NP (PRP (it)))(PP (RP (down)))(NP (CD (30))(NNS (day))))) |ET| 
-1  |BT| (ROOT (S (NP (FW (i))(NN (wish)))(VP (FW (i)))(ADVP (RB (never)))(VP (MD (would))(VB (have))(VBN (know)))(SBAR (IN (that)))(NP (NN (u)))(VP (VBD (lie)))(PP (TO (to)))(NP (PRP (i))))) |ET| 
-1  |BT| (ROOT (S (SBAR (IN (if)))(NP (PRP (i)))(VP (VBD (have)))(NP (DT (a))(NN (type)))(ADVP (RB (then)))(VP (NN (baby)))(NP (PRP (it)))(VP (MD (would))(VB (be)))(NP (PRP (you))))) |ET| 
1  |BT| (ROOT (S (ADJP (JJ (ready)))(PP (IN (for)))(NP (NN (tomorrow))))) |ET| 
1  |BT| (ROOT (S (NP (NN (wtf)))(VP (VBZ (be)))(NP (DT (the))(NN (mass)))(PP (IN (of)))(NP (DT (a))(NN (chicken))(NN (egg))))) |ET| 
1  |BT| (ROOT (S (VP (VBZ (have)))(NP (DT (a))(JJ (upper))(JJ (respiratory))(NN (infection))(NNP (d))))) |ET| 
-1  |BT| (ROOT (S (NP (JJ (went))(NN (tubing)))(NP (NN (jet))(NN (skiing.sort)))(PP (IN (of)))(NP (NN (haha)))(VP (NN (swimming)))(NP (NN (pontooning))))(S (NP (DT (that)))(VP (VBZ (be)))(NP (DT (a))(NN (word))(RB (right))))(S (NP (NNS (anyway))(JJ (awesome))(NN (day))))(S (NP (NNP (d))))) |ET| 
-1  |BT| (ROOT (S (NP (EX (there)))(NP (NN (something)))(VP (VBG (miss))))) |ET| 
