SVM-light Version V5.01-TK-1.4.3_smoothing
5 # kernel type
3 # kernel parameter -d 
1 # kernel parameter -g 
1 # kernel parameter -s 
1 # kernel parameter -r 
empty# kernel parameter -u 
0.4 # kernel parameter -L 
1 # kernel parameter -T 
T # kernel parameter -C 
1 # kernel parameter -F 
1 # kernel parameter -S 
0.400000 # kernel parameter -M 
3 # kernel parameter -N 
S # kernel parameter -V 
S # kernel parameter -W 
 # kernel parameter -G 
1.000000 # similarity threshold -H 
1.000000 # terminal factor -X 
empty # matrix path -P 
empty # cache path -Z 
1000000 # cache size -A 
10000000 # cache max size -B 
0.500000 # refresh factor -D 
10 # highest feature index 
8000 # number of training documents 
3690 # number of support vectors plus 1 
-3.6239616 # threshold b, each following line is a SV (starting with alpha*y)
-1  |BT| (ROOT (S (NP (NNP (crap))))(S (NP (PRP (i)))(VP (VBP (need)))(NP (DT (a))(NN (car))))(S (NP (NN (money)))(VP (MD (would))(VB (help))))) |ET| 
-1  |BT| (ROOT (S (VP (VBZ (be)))(ADVP (RB (currently)))(VP (VBG (watch)))(NP (DT (the))(NNP (time))(NNP (traveler)))(NP (POS ('s))(NN (wife))))) |ET| 
-1  |BT| (ROOT (S (SBAR (IN (if)))(NP (PRP (you)))(VP (VBP (want)))(NP (DT (a))(NN (rainbow)))(NP (PRP (you)))(VP (MD ('ll))(VB (have))(TO (to))(VB (deal)))(PP (IN (with)))(NP (DT (the))(NN (rain))))) |ET| 
-1  |BT| (ROOT (S (NP (NNP (life)))(VP (VBZ (be)))(PP (TO (to)))(ADJP (VB (short)))(VP (TO (to))(VB (be)))(ADJP (RB (politically))(JJ (correct)))(VP (VBP (do))(RB (not))(VB (be))))) |ET| 
-1  |BT| (ROOT (S (PP (IN (on)))(NP (PRP$ (my))(NN (way)))(PP (TO (to)))(NP (NN (settlement))))(S (NP (PRP (it)))(VP (VBZ (be))(VBN (be)))(NP (DT (a))(JJ (long))(NN (time)))(VP (VBG (come))))) |ET| 
1  |BT| (ROOT (S (ADVP (RB (still)))(PP (IN (in)))(NP (NN (springhill)))(NP (PRP$ (my))(NN (titus)))(VP (VBZ (be)))(ADJP (VBN (doin))(RBR (better)))(VP (VB (thank)))(NP (NN (god.gonna)))(VP (VB (go))(VB (eat)))(ADVP (JJ (sumwhere)))(PP (IN (in)))(NP (NNP (da))(NNS (hill)))(VP (NN (wat))(TO (to))(VB (eat))))) |ET| 
1  |BT| (ROOT (S (VP (VBZ (be)))(ADJP (VBN (tire))(-LRB- ({))))) |ET| 
1  |BT| (ROOT (S (PP (IN (with)))(NP (PRP$ (my))(JJ (hubby))(VBG (watch))(NN (tv))))(S (NP (VBN (talk)))(PP (NN (bout)))(NP (PRP$ (we))(NNS (plan)))(VP (RB (maybe)))(PP (IN (in)))(NP (DT (the))(NN (summer)))(NP (PRP (it)))(VP (MD (will))(VB (be)))(PP (IN (into)))(NP (NN (play))))(S (NP (NNP (god)))(VP (VB (bless)))(NP (PRP (we)))(PP (IN (with)))(NP (DT (the))(NN (plan)))(NP (PRP (we)))(VP (VBP (have))(VBN (talk)))(NP (RB (about))(PRP (i)))(VP (VBP (love)))(NP (PRP (he)))(ADVP (RB (so))(RB (much))))) |ET| 
1  |BT| (ROOT (S (VP (VBZ (be)))(VP (VBG (go)))(PRT (RP (out)))(VP (TO (to))(VB (eat)))(PP (IN (with)))(NP (PRP$ (he))(NN (baby))))) |ET| 
1  |BT| (ROOT (S (NP (PRP (you)))(VP (MD (may))(VB (be)))(NP (CD (one)))(PP (TO (to)))(NP (DT (the))(NN (world)))(VP (VB (be)))(NP (DT (the))(NN (world)))(PP (TO (to)))(NP (CD (one))(VBP (<)))(NP (CD (3))(NNP (*))(CD (1-27-11))(NNS (*))))) |ET| 
-1  |BT| (ROOT (S (NP (MD (can))(NN (anyone))(VB (guess)))(NP (WP (who)))(NP (DT (this)))(VP (VBZ (be))))) |ET| 
-1  |BT| (ROOT (S (VP (VBZ (feel)))(ADJP (JJ (ill)))(VP (MD (can))(RB (not))(VB (sleep))))) |ET| 
-1  |BT| (ROOT (S (ADVP (UH (well)))(NP (DT (that)))(VP (VBD (be)))(ADJP (JJ (disappointing))))) |ET| 
1  |BT| (ROOT (S (NP (DT (a))(JJR (better))(NN (dancer)))(SBAR (IN (than)))(NP (PRP (i)))(VP (VBD (think))))(S (NP (PRP (i)))(VP (MD (may))(VB (stand)))(NP (DT (a))(NN (chance))))) |ET| 
1  |BT| (ROOT (S (NP (PRP (i)))(VP (VBP (think)))(ADVP (RB (therefore)))(NP (PRP (i)))(VP (MD (must))(VB (sleep))))) |ET| 
1  |BT| (ROOT (S (NP (RB (just)))(VP (VBP (promise)))(NP (PRP (i)))(NP (PRP (you)))(VP (MD ('ll))(VB (think)))(PP (IN (of)))(NP (PRP (i))))) |ET| 
-1  |BT| (ROOT (S (NP (PRP (you)))(NP (PRP (i)))(ADVP (RB (still)))(ADVP (RB (together))))(S (VP (VB (tell)))(NP (PRP (i))))(S (NP (PRP (you)))(VP (VBP (think)))(NP (PRP (we)))(VP (MD (can))(VB (last)))(ADVP (RB (forever))))(S (VP (VB (tell)))(NP (PRP (i))))) |ET| 
-1  |BT| (ROOT (S (NP (PRP (i)))(VP (VBP (be))(RB (gunna))(VBN (hit)))(NP (DT (the))(NNS (blade))))(S (NP (NN (xd))))) |ET| 
-1  |BT| (ROOT (S (NP (PRP (they)))(VP (MD (should))(VB (make)))(NP (NNS (phone))(NN (water))(NN (proof))))) |ET| 
1  |BT| (ROOT (S (NP (NNP (max)))(VP (VBZ (be)))(NP (NN (cash))))) |ET| 
1  |BT| (ROOT (S (VP (VBZ (be)))(ADJP (JJ (ready)))(PP (IN (for)))(NP (DT (the))(NNP (lake))(NNP (-lrb-))))) |ET| 
1  |BT| (ROOT (S (NP (NNP (totes)))(VP (VBZ (be)))(NP (DT (the))(NN (way)))(ADVP (RB (forward))))) |ET| 
-1  |BT| (ROOT (S (NP (NNP (my))(NNP (anus)))(VP (VBZ (be)))(NP (NNP (bleeeeeding))))(S (PP (IN (for)))(NP (DT (the))(NN (love)))(PP (IN (of)))(NP (NNP (god))))(S (NP (NNP (myyyy))(NNP (anuuuussss))))) |ET| 
-1  |BT| (ROOT (S (ADVP (WRB (how)))(NP (DT (the))(NN (hell)))(VP (VBZ (be)))(NP (DT (a))(JJ (quesidilla)))(ADVP (JJR (more)))(PP (IN (than)))(NP (DT (a))(NN (burrito))))(S (NP (DT (that)))(VP (VBZ (be)))(NP (NN (b))))) |ET| 
-1  |BT| (ROOT (S (VP (VBZ (have))(TO (to))(VB (write)))(NP (DT (a))(JJ (new))(NN (word))(NN (arrangement))(NN (poem)))(VP (VBZ (be)))(UCP (RP (out)))(PP (IN (of)))(NP (NNS (idea))))) |ET| 
1  |BT| (ROOT (S (VP (VB (fuck)))(NP (PRP (it))))(S (NP (PRP (i)))(VP (VBP (be)))(PRT (RP (off)))(NP (DT (this)))(VP (TO (to))(VB (smoke)))(NP (VBN (weed))))) |ET| 
1  |BT| (ROOT (S (ADVP (RB (still)))(NP (PRP (it)))(VP (RB (hurts.i))(VBP (want)))(NP (DT (this))(NN (pain)))(VP (TO (to))(VB (stop))))(S (NP (VB (argh))))) |ET| 
1  |BT| (ROOT (S (VP (VBD (get)))(NP (DT (the))(NNS (photo)))(VP (VBN (suss))))(S (NP (DT (both)))(VP (NN (concert)))(NP (NNS (photo)))(PP (RP (up))))) |ET| 
-1  |BT| (ROOT (S (NP (PRP (i)))(VP (VBP (swear)))(NP (DT (this)))(VP (VBZ (be)))(NP (JJ (anti-catholicism))))(S (SBAR (IN (if)))(NP (PRP (you)))(VP (VBP (think)))(NP (PRP (it)))(VP (VBZ (be)))(NP (PRP (i)))(VP (VBP (think)))(NP (IN (that)))(VP (VBZ (be)))(ADVP (JJ (funny)))(ADVP (RB (too))))) |ET| 
-1  |BT| (ROOT (S (NP (PRP (i)))(VP (VBP (feel)))(SBAR (IN (like)))(NP (FW (i)))(VP (VBN (forget)))(NP (JJ (to-do))(NN (something)))(NP (FW (i)))(VP (VB (do)))(NP (WP (what)))(NP (PRP (it)))(VP (VBZ (be))))) |ET| 
-1  |BT| (ROOT (S (NP (PRP (i)))(PP (VBP (like)))(NP (PRP (it)))(PP (IN (by)))(NP (DT (the))(JJ (front))(NN (door)))(VP (VBG (lean)))(PRT (RP (up)))(PP (IN (against)))(NP (DT (the))(NN (table))))) |ET| 
1  |BT| (ROOT (S (PP (IN (on)))(NP (DT (a))(JJ (second))(NN (note))))) |ET| 
1  |BT| (ROOT (S (PP (IN (in)))(NP (DT (a))(NN (battle)))(PP (IN (of)))(NP (DT (the))(NNS (wit))))(S (NP (WP (who)))(VP (MD (would))(VB (run)))(PP (RP (out)))(PP (IN (of)))(NP (NN (ammo)))(ADVP (RB (first))))) |ET| 
1  |BT| (ROOT (S (NP (PRP (it)))(VP (VBD (be)))(NP (NNP (mrs.))(NNP (peacock))))(S (PP (IN (in)))(NP (DT (the))(NN (graveyard))))(S (PP (IN (with)))(NP (NNP (frankenstein)))(NP (POS ('s))(NNP (chains))))) |ET| 
-1  |BT| (ROOT (S (NP (RB (just)))(VP (VBD (win)))(NP (DT (a))(JJ (prawn))(NN (tray)))(PP (IN (in)))(NP (DT (the))(NN (raffel))))) |ET| 
-1  |BT| (ROOT (S (VP (VBN (go)))(NP (JJ (yard-sale))(CC ('n)))(PP (IN (with)))(NP (DT (the))(NN (bear))))) |ET| 
-1  |BT| (ROOT (S (VP (VB (come)))(PP (IN (on)))(NP (JJ (vikings))))) |ET| 
1  |BT| (ROOT (S (NP (NNP (nonononononononnonononononon))))(S (NP (PRP (he)))(VP (VBZ (be)))(NP (NNP (ours))))(S (ADVP (WRB (how)))(NP (PRP (they)))(VP (VB (say)))(NP (IN (that))(VBP (!!))))(S (NP (VBD (greice))))(S (NP (NNP (we))(NNP (must))(NNP (stop))(NNP (them))))(S (NP (FW (yay))))) |ET| 
1  |BT| (ROOT (S (NP (PRP (i)))(VP (VBP (be)))(ADJP (RB (so))(RB (horny)))(NP (DT (that)))(VP (VBZ (be)))(NP (NN (ok)))(NP (PRP$ (my))(NN (will)))(VP (VBZ (be)))(ADJP (JJ (good))))) |ET| 
1  |BT| (ROOT (S (NP (FW (i)))(VP (NN (love)))(NP (PRP$ (my))(NNS (foot)))(NP (PRP (they)))(VP (VBP (stink))))) |ET| 
-1  |BT| (ROOT (S (ADVP (RB (just)))(VP (VBD (realize)))(ADVP (WRB (how)))(ADJP (JJ (tired)))(NP (PRP (she)))(ADVP (RB (actually)))(VP (VBZ (be))))(S (NP (NNP (-_-))(NNP (bye))(VBP (bye))))) |ET| 
-1  |BT| (ROOT (S (VP (VBZ (want)))(PP (TO (to)))(NP (VB (go)))(PP (TO (to)))(NP (DT (a))(NNP (halloween))(NN (party)))(PP (IN (as)))(NP (NNP (magenta))))(S (NP (PRP (i)))(VP (VB (pull)))(NP (PRP (it)))(PRT (IN (off)))(ADVP (RB (though))))) |ET| 
-1  |BT| (ROOT (S (SBAR (FW (i)))(NP (NNP (dont)))(VP (VBP (want))(TO (to))(VB (go)))(PP (TO (to)))(NP (VB (work)))(VP (NN (tomorrow))))) |ET| 
1  |BT| (ROOT (S (NP (DT (a))(NN (date)))(VP (MD (can))(VB (be)))(NP (DT (the))(JJ (same)))(NP (DT (the))(NN (day)))(VP (VB (be))))) |ET| 
1  |BT| (ROOT (S (VP (VBN (workin)))(PP (IN (on)))(NP (JJR (more))(NN (computer))(NN (painting))))) |ET| 
1  |BT| (ROOT (S (VP (VBG (stay)))(NP (DT (the))(NN (night)))(PP (IN (with)))(NP (PRP$ (my))(JJ (lovely))(NN (lady))(NN (jamus))))) |ET| 
-1  |BT| (ROOT (S (VP (VBD (have)))(NP (DT (a))(JJ (great))(NN (night)))(NP (NN (tonight)))(PP (IN (with)))(NP (PRP$ (my))(NNS (friend))))(S (NP (NNS (thanks)))(PP (IN (for)))(NP (CD (3x)))(NP (DT (the))(NN (fun))))) |ET| 
-1  |BT| (ROOT (S (PP (IN (in)))(NP (NN (training)))(NP (DT (all))(NN (day))))) |ET| 
-1  |BT| (ROOT (S (VP (VB (gettin)))(PRT (RP (down)))(PP (IN (on)))(NP (DT (the))(JJ (wii)))(PP (JJ (next)))(NP (NN (woooo))(NN (hooo))))) |ET| 
1  |BT| (ROOT (S (NP (NNP (dose)))(VP (RB (not))(VBP (want))(TO (to))(VB (go)))(PP (TO (to)))(NP (NN (school)))(VP (VBZ (want))(TO (to))(VB (go)))(ADVP (RB (back)))(PP (TO (to)))(NP (NN (bed))))) |ET| 
1  |BT| (ROOT (S (NP (WP (what)))(NP (PRP (it)))(PP (VB (like)))(PP (TO (to)))(NP (SYM (b))(JJ (single))))) |ET| 
1  |BT| (ROOT (S (NP (VBP (hmmm)))(VP (FW (i))(VB (think))(JJ (imma)))(NP (NN (head)))(PP (TO (to)))(NP (NN (bed))(NN (lol))))) |ET| 
-1  |BT| (ROOT (S (VP (VBG (upload)))(NP (DT (the))(NNS (pic)))(VP (TO (to))(NN (da))))) |ET| 
-1  |BT| (ROOT (S (NP (NN (school)))(VP (VBN (cancel)))(NP (WP (what))))) |ET| 
-1  |BT| (ROOT (S (NP (FW (i)))(VP (NN (hate)))(NP (NNS (test)))(NP (PRP (you))(NNS (seconds)))(NP (WDT (that)))(VP (VBP (??))))) |ET| 
1  |BT| (ROOT (S (NP (NNS (thanks)))(PP (IN (for)))(NP (PDT (all)))(NP (DT (the))(NN (birthday)))(VP (VBZ (wish))))(S (NP (NNS (thanks))(VBP (steph)))(PP (IN (for)))(NP (DT (the))(JJ (great))(NN (birthday))(NN (bbq))))) |ET| 
1  |BT| (ROOT (S (VP (VBP (do))(RB (not))(VB (waste)))(NP (PRP$ (you))(NN (money)))(PP (IN (on)))(NP (DT (the))(NNP (wolfman))))(S (VP (VBD (be)))(ADVP (RB (ever)))(NP (DT (the))(JJ (good))(NN (kind)))(PP (IN (of)))(NP (JJ (terrible))))) |ET| 
1  |BT| (ROOT (S (PP (IN (in)))(NP (NN (need)))(PP (IN (of)))(NP (DT (a))(NN (day)))(ADVP (RB (off)))(PP (IN (from)))(NP (NN (everything))))) |ET| 
-1  |BT| (ROOT (S (ADVP (RB (just)))(NP (DT (a))(NN (piece)))(PP (IN (of)))(NP (JJ (bitter-sweet))(NN (training)))(PP (IN (for)))(NP (PRP (they))))) |ET| 
-1  |BT| (ROOT (S (NP (VBZ (ducktale))(NN (theme))(NN (song)))(VP (VBG (be))(VBN (play)))(PP (IN (upon)))(NP (NN (closing)))(PP (IN (of)))(NP (NNP (hatters))))(S (NP (VB (ye))))) |ET| 
-1  |BT| (ROOT (S (PP (IN (by)))(NP (PRP$ (my))(NN (voice)))(NP (VB (heal))(CD (three)))(PP (IN (by)))(NP (NN (confusion))('' ("))(JJS (best))(NN (ability)))(ADVP (RB (ever))))) |ET| 
1  |BT| (ROOT (S (VP (VB (thank)))(NP (PRP (you))(RB (bridgette))))) |ET| 
1  |BT| (ROOT (S (VP (VBG (watch)))(NP (DT (the))(NNPS (simpsons)))(VP (VBP (<)))(NP (CD (3))))) |ET| 
1  |BT| (ROOT (S (SBAR (IN (because)))(NP (WP (what)))(VP (VBZ (be))(VBN (expect)))(VP (VBZ (be)))(ADVP (RB (always))(VBZ (what)))(ADVP (JJ (right))))) |ET| 
-1  |BT| (ROOT (S (VP (VBZ (be))(VBG (go)))(PP (TO (to)))(NP (DT (the))(JJ (pixel))(NN (porno))(NN (party)))(ADVP (NN (tonight))))) |ET| 
-1  |BT| (ROOT (S (VP (VBG (gon))(TO (na))(VB (get)))(NP (DT (the))(JJ (new))(NNP (dizee))(NN (rascal))(NNP (album))))(S (VP (NNP (looks)))(ADJP (NNP (amazing))))) |ET| 
-1  |BT| (ROOT (S (NP (NNP (dorothy))(VBZ (lewe)))(NP (IN (that)))(VP (VBZ (be)))(ADJP (JJ (hot))))(S (NP (PRP$ (we))(NN (collection)))(VP (VBZ (be))(VBG (grow))))) |ET| 
1  |BT| (ROOT (S (NP (JJ (first))(NN (day)))(PP (IN (of)))(NP (NN (school)))(NP (NNP (]))))) |ET| 
1  |BT| (ROOT (S (VP (VB (havin)))(NP (DT (a))(NN (blast)))(PP (IN (as)))(ADJP (JJ (usual))))(S (VP (NNP (love)))(NP (DT (the))(VBZ (peep)))(PP (IN (at)))(NP (JJ (texas))(NN (roadhouse)))(ADVP (RB (now)))(NP (JJ (lovin))(NN (ufc))))(S (ADVP (NNP (totally)))(VP (VBZ (make)))(PRT (RP (up)))(PP (IN (for)))(NP (NN (yesterday))))) |ET| 
1  |BT| (ROOT (S (NP (RB (just)))(VP (VBD (get)))(NP (NN (home)))(PP (IN (from)))(VP (NN (hangin)))(PP (IN (with)))(NP (NNP (ma)))(NP (POS ('))(NNS (boy))))(S (NP (NNP (college))(CC (and))(VBP (work)))(NP (NN (tomorrow))))) |ET| 
-1  |BT| (ROOT (S (NP (PRP (we)))(VP (VBP (be)))(NP (PDT (all))(DT (the))(NNS (victim)))(PP (IN (of)))(NP (JJ (bad))(NNS (decision)))(NP (DT (these))(NNS (day)))(INTJ (UH (no))))) |ET| 
-1  |BT| (ROOT (S (NP (NNS (rabbit)))(VP (VBP (be)))(ADJP (JJ (incapable)))(PP (IN (of)))(VP (VBG (vomit))))) |ET| 
-1  |BT| (ROOT (S (NP (JJ (holy))(NN (mother)))(PP (IN (of)))(NP (NN (god)))(ADJP (JJ (happy))(JJ (4th)))(PP (IN (of)))(NP (NNP (july))))(S (NP (NNP (bahahahahahhaahahaaaaa))(NNP (!!!))))(S (NP (PRP (i)))(VP (VBP (love)))(NP (NNS (firework))(SYM (=))(NNP (dd))))) |ET| 
1  |BT| (ROOT (S (NP (VBD (get))(JJ (new))(NN (work))(NNS (boot))))(S (NP (UH (yes))(DT (this)))(VP (VBZ (be)))(NP (DT (a))(JJ (big))(NN (deal))))) |ET| 
1  |BT| (ROOT (S (NP (NN (leg)))(VP (VBZ (be))(VBG (die)))(VP (RB (not))(FW (vee)))(ADJP (JJ (comfortable))))) |ET| 
1  |BT| (ROOT (S (VP (VBZ (think)))(SBAR (DT (that)))(VP (VB (go)))(ADVP (RP (away))))(S (VP (VBZ (be)))(NP (PRP$ (she))(NNS (parent)))(NP (POS ('))(JJ (new))(JJ (favorite))(NN (phrase))))) |ET| 
-1  |BT| (ROOT (S (VP (VB (thank)))(NP (NN (god)))(NP (PRP (it)))(VP (VBZ (be)))(NP (NN (spring))(NN (break)))(NP (NN (p))))) |ET| 
-1  |BT| (ROOT (S (NP (NNP (lowes)))(VP (VBZ (be))(VBG (call)))(NP (PRP$ (my))(NN (name)))(ADVP (RB (however)))(NP (NNP (lowes))(SYM (=))(NN (work))(CC (and))(NN (work)))(VP (VBZ (be))(RB (not))(VBG (call)))(NP (PRP$ (my))(NN (name))))) |ET| 
-1  |BT| (ROOT (S (VP (VBD (lose)))(NP (PRP$ (my))(JJ (fuckin))(NN (phone)))(NP (NNP (/))(RB (so))(VBZ (that)))(ADVP (WRB (why)))(NP (VBP (im)))(VP (RB (not))(JJ (replyin))))) |ET| 
1  |BT| (ROOT (S (NP (RB (just))(RB (vainity)))(VP (VBD (search)))(NP (PRP$ (my))(NN (self))))(S (NP (EX (there)))(VP (VBP (be)))(NP (NN (boat))(NNS (load)))(PP (IN (of)))(NP (NNS (people)))(VP (VBN (name)))(NP (NNP (michael))(NNP (tierney))))) |ET| 
1  |BT| (ROOT (S (INTJ (UH (wow)))(NP (PRP (you)))(VP (VBP (be))(RB (really))(VBG (ruin)))(NP (PRP$ (my))(NN (life))))(S (VP (VB (get)))(PP (IN (out)))(PP (IN (of)))(NP (PRP (it))))) |ET| 
1  |BT| (ROOT (S (NP (VB (believe))(NN (half)))(PP (IN (of)))(NP (WP (what)))(NP (PRP (you)))(VP (VBP (see)))(NP (NN (none)))(PP (IN (of)))(NP (WP (what)))(NP (PRP (you)))(VP (VBP (hear))))) |ET| 
-1  |BT| (ROOT (S (PP (IN (in)))(NP (NN (case)))(PP (IN (of)))(NP (DT (a))(NN (fire)))(NP (WDT (what)))(VP (NNS (step)))(NP (PRP (you)))(VP (VB (take))))(S (NP (NNP (big))(VBP (ass))(NNS (one))))) |ET| 
-1  |BT| (ROOT (S (NP (JJ (grilled))(NN (cheese)))(NP (NN (tomato))(NN (soup))(CC (&))(NN (horror))(NNS (movie))))(S (VP (VBZ (do)))(NP (PRP (it)))(VP (VB (get)))(ADVP (DT (any))(RBR (better)))(PP (IN (than)))(NP (DT (this))))(S (NP (NNP (d))))) |ET| 
-1  |BT| (ROOT (S (NP (`` ("))(CD (one))(NN (day)))(PP (IN (in)))(NP (NN (retrospect)))(NP (DT (the))(NNS (year)))(PP (IN (of)))(NP (NN (struggle)))(VP (MD (will))(VB (strike)))(NP (PRP (you)))(PP (IN (as)))(NP (DT (the))(RBS (most))(JJ (beautiful))))(S (NP (NNP (sigmund))(NNP (freud))))) |ET| 
1  |BT| (ROOT (S (NP (JJ (goin)))(PP (TO (to)))(NP (DT (the))(NNS (movie)))(NP (NN (today)))(ADVP (JJ (yaaaaaaaaaay))))) |ET| 
1  |BT| (ROOT (S (NP (NNS (laker)))(VP (VBD (lose)))(NP (NN (tonight)))(NP (POS ('s))(NN (battle)))(CONJP (CC (but))(RB (not)))(NP (DT (the))(NN (war))))) |ET| 
1  |BT| (ROOT (S (NP (NNP (total))(CC (and))(JJ (colossal))(NN (disaster))))) |ET| 
-1  |BT| (ROOT (S (NP (NN (anyone))(RB (else)))(VP (VB (want))(TO (to))(VB (go)))(PP (TO (to)))(NP (DT (the))(NN (circus))(NN (tomorrow))))) |ET| 
-1  |BT| (ROOT (S (NP (NN (tonight)))(VP (VBZ (be))(VBG (go))(TO (to))(VB (be)))(ADJP (JJ (awesome))))) |ET| 
-1  |BT| (ROOT (S (ADVP (RB (just)))(VP (VBD (go)))(PP (TO (to)))(NP (NNP (ppac)))(VP (VBD (see)))(NP (NNP (rain.it))(VBD (be))(NNP (awsum))))) |ET| 
1  |BT| (ROOT (S (NP (PRP (i)))(VP (VBP (have))(RB (not))(VBN (see)))(NP (DT (the))(NN (sun)))(PP (IN (in)))(NP (CD (three))(NNS (day))))(S (NP (MD (can)))(UCP (NN (anyone)))(VP (VB (confirm)))(SBAR (IN (that)))(NP (PRP$ (its))(IN (till))(EX (there))))) |ET| 
1  |BT| (ROOT (S (ADVP (RB (sometimes)))(PP (IN (in)))(NP (NN (life)))(NP (PRP (you)))(ADVP (RB (just)))(VP (VBP (have))(TO (to))(VB (think)))(NP (VB (bugger)))(NP (PRP (it)))(NP (DT (all))))) |ET| 
1  |BT| (ROOT (S (NP (NNP (daughter)))(NP (PRP (he)))(VP (VBZ (have))))(S (NP (PRP (i)))(VP (MD (might))))(S (NP (NNP (boss))(NNPS (hangs)))(NP (DT (a))(NN (notice)))(PP (IN (in)))(NP (NN (office)))(VP (`` ("))('' ("))(NNP (im)))(NP (DT (the))(NN (boss))))) |ET| 
-1  |BT| (ROOT (S (NP (NN (bhh))(VBZ (\))(JJ (uvubxxxxxxxxxxxxxxxxxxzyzsssssaswe)))(PP (IN (from)))(NP (NNP (pez)))(NP (PRP$ (my))(NN (rat)))(NP (WDT (that)))(VP (RB (just))(VBD (run)))(PP (IN (across)))(NP (DT (the))(NN (keyboard))))) |ET| 
-1  |BT| (ROOT (S (VP (VBN (walk)))(PP (RP (out)))(NP (DT (the))(NN (movie))(NN (theater)))(NP (EX (there)))(VP (VBD (be)))(NP (DT (the))(NN (snow)))(VP (VBG (fall)))(PP (IN (in)))(NP (PRP$ (my))(NNS (face.i)))(VP (VBP (be)))(ADVP (RB (so)))(ADJP (JJ (ready)))(PP (IN (for)))(NP (DT (this))(NN (!!!))))) |ET| 
-1  |BT| (ROOT (S (ADJP (VBN (excite)))(PP (IN (for)))(NP (NN (tomorrow))))(S (INTJ (RB (yes))))(S (NP (NNP (graduation))(NNP (na))(NNP (ni))(NNP (brother))(NNP (dear))))(S (NP (JJ (whooo-hooo))(NNS (!!))))(S (INTJ (VB (yeah))))(S (NP (PRP (i)))(ADVP (RB (so)))(NP (JJ (proud))(JJ (little))(NN (brother))))) |ET| 
1  |BT| (ROOT (S (NP (RB (too))(RB (much))(VBP (s@it)))(VP (VBG (go)))(PP (IN (on)))(NP (SYM (=))(NNP (/))))) |ET| 
1  |BT| (ROOT (S (VP (NN (failing)))(PP (TO (to)))(NP (NNP (plan)))(VP (VBZ (be)))(PP (IN (like)))(NP (NNP (planning)))(PP (TO (to)))(NP (NN (fail)))(NP ('' ("))))) |ET| 
1  |BT| (ROOT (S (VP (NN (believing)))(VP (VBZ (be)))(ADJP (RB (halfway)))(PP (TO (to)))(VP (VBG (fly))))) |ET| 
-1  |BT| (ROOT (S (VP (VBG (love)))(NP (DT (the))(NN (picture)))(SBAR (IN (that)))(NP (NNP (alice))(NNP (alexandrovna))(NNP (rozkov)))(VP (VBZ (edited.looks)))(ADJP (JJ (awesomful)))(UCP (SYM (=)))(NP (NNP (d))))) |ET| 
-1  |BT| (ROOT (S (VP (VBG (think)))(PP (IN (about)))(VP (VBG (go)))(NP (DT (all))(JJ (natural))(JJ (next))(NN (year))))) |ET| 
-1  |BT| (ROOT (S (ADVP (RB (never)))(VP (VBP (hesitate))(TO (to))(VB (invest)))(NP (NN (time)))(PP (IN (in)))(NP (PRP$ (you))(NN (relationship))))) |ET| 
1  |BT| (ROOT (S (VP (VBG (do)))(NP (JJ (full))(NNS (set)))(PP (IN (of)))(NP (JJ (weighted))(NN (windshield))(NNS (whipper)))(NP (NN (yesterday)))(VP (VBD (be)))(NP (PRP$ (my))(JJS (best))(NN (idea))))(S (ADVP (RB (especially)))(PP (IN (since)))(NP (PRP (it)))(VP (VBD (make)))(NP (NNS (squat)))(NP (DT (that)))(ADVP (RB (much))(JJR (harder))))(S (NP (NN (im)))(ADVP (RB (still)))(NP (JJ (glad))(FW (i)))(VP (VBD (be)))(ADJP (JJ (able)))(VP (TO (to))(VB (do)))(NP (NNS (leg))))(S (NP (CD (one))(NN (workout)))(ADVP (RB (down)))(NP (CD (2)))(VP (TO (to))(VB (go))))) |ET| 
1  |BT| (ROOT (S (VP (VBN (move)))(PP (RP (out)))(PP (IN (of)))(NP (DT (the))(NN (hell))(JJ (whole))(NN (today)))(NP (VBP (im)))(ADVP (RB (very)))(VP (VBN (relax)))(ADVP (RP (over))(RB (here))))(S (NP (RB (just))(VB (chillin))(CC (and))(VB (stayin))(JJ (warm))))) |ET| 
1  |BT| (ROOT (S (ADVP (WRB (why)))(NP (NNS (people)))(VP (VB (blame)))(NP (NNP (obama)))(PP (IN (for)))(NP (PRP$ (we))(JJ (financial))(NN (crisis)))(SBAR (IN (that)))(NP (NNP (bush)))(VP (VBD (put)))(NP (PRP (we)))(PP (IN (into))))) |ET| 
-1  |BT| (ROOT (S (SBAR (IN (if)))(NP (PRP (you)))(VP (VBP (do))(RB (not))(VB (go)))(SBAR (IN (after)))(NP (WP (what)))(NP (PRP (you)))(VP (VBP (want)))(NP (PRP (you)))(VP (MD ('ll))(RB (never))(VB (have)))(NP (PRP (it))))(S (SBAR (IN (if)))(NP (PRP (you)))(VP (VBP (do))(RB (not))(VB (ask)))(NP (DT (the))(NN (answer)))(VP (VBZ (be)))(ADVP (RB (always))(RB (no))))(S (SBAR (IN (if)))(NP (PRP (you)))(VP (VBP (do))(RB (not))(VB (step)))(ADVP (RP (forward)))(NP (PRP (you)))(VP (VBP (be)))(ADVP (RB (always)))(PP (IN (in)))(NP (DT (the))(JJ (same))(NN (place))))) |ET| 
-1  |BT| (ROOT (S (VP (VB (let)))(NP (PRP (i)))(VP (VB (gasp)))(PP (IN (against)))(NP (PRP$ (you))(NNS (lip)))(VP (TO (to))(VB (say)))(NP (DT (this))(NN (phrase)))(NP (PRP (i)))(VP (VBP (love)))(NP (PRP (you))))) |ET| 
-1  |BT| (ROOT (S (NP (NNP (happy))(NNP (thanksgving))(NN (everyone))))(S (NP (VB (have))(DT (a))(NN (safe))(CC (and))(NNP (blessed))(NNP (day.im)))(PP (NNP (thankful)))(PP (IN (for)))(NP (NNP (everything)))(PP (IN (in)))(NP (NNP (my))(NNP (life))(CC (and))(NN (everyone)))(PP (IN (in)))(NP (NNP (my))(NNP (life))))) |ET| 
1  |BT| (ROOT (S (NP (NNS (wer))(VBP (shannon)))(ADJP (JJ (brown)))(PP (IN (at))))) |ET| 
1  |BT| (ROOT (S (VP (VBP (fuck)))(NP (FW (i)))(VP (VB (hate)))(NP (DT (the))(NN (thought)))(PP (IN (of)))(VP (VBG (go)))(PP (TO (to)))(NP (DT (this))(NN (hole))(NN (tomorrow))))) |ET| 
1  |BT| (ROOT (S (ADJP (JJ (busy))(JJ (busy)))(NP (NN (day)))(NP (NN (tomorrow))))(S (NP (JJ (=]))(NN (eye))(NNS (check-up)))(ADVP (RB (then)))(VP (VBG (pick)))(PRT (RP (out)))(VP (VBG (order)))(NP (PRP$ (my))(NN (corsage)))(PP (IN (for)))(NP (NN (prom)))(NP (JJ (next))(NN (weekend))))) |ET| 
-1  |BT| (ROOT (S (NP (RB (just)))(VP (VBD (get)))(NP (DT (the))(NN (sheet))(NN (music)))(PP (IN (for)))(NP (VB (imagine)))(PP (IN (by)))(NP (NN (john))(NN (lennon)))(PP (IN (on)))(NP (DT (the))(NN (piano)))(NP (NNP (d))))) |ET| 
-1  |BT| (ROOT (S (NP (JJ (positive))(NN (energy)))(VP (VBG (flow)))(ADVP (RB (freely)))(NP (DT (the))(JJ (lucky))(NNS (star)))(VP (VBP (be)))(PP (IN (with)))(NP (NN (me.abundance)))(VP (VBG (make)))(NP (DT (the))(JJS (most)))(PP (IN (of)))(NP (DT (the))(RB (now))))(S (NP (NNP (;}))(NNP (;}))(NNP (;}))(NNP (stellar))))) |ET| 
-1  |BT| (ROOT (S (NP (JJ (first))(NN (day)))(PP (IN (of)))(NP (NNS (class)))(NP (JJ (sooo))(JJ (easy))(NN (tomorrow)))(VP (VBZ (be)))(NP (DT (a))(CD (12))(TO (to))(CD (6))(NN (day))))) |ET| 
1  |BT| (ROOT (S (NP (PRP (i)))(VP (VBP (be))(RB (so))(JJ (tired)))(NP (DT (this))(NN (morning))))) |ET| 
1  |BT| (ROOT (S (NP (NNP (reno))(NNP (fucking))(NNP (nevada))))(S (NP (NNP (bbq)))(PP (IN (in)))(NP (NNP (this))(NNP (bitch))))) |ET| 
1  |BT| (ROOT (S (NP (PRP (i)))(VP (VB (aint))(VB (go))(VB (lie)))(ADVP (UH (eh)))(NP (PRP$ (my))(NN (head)))(VP (FW (real.hurtin)))(NP (FW (me)))(NP (DT (a))(FW (i))(NN (cant)))(ADVP (RB (even)))(VP (VB (go)))(NP (DT (a))(NN (sleep.hmmm)))(NP (DT (this))(NN (thing)))(VP (VBP (have))(FW (meh))(FW (cryin)))(ADVP (DT (all))(NN (kinda)))(NP (NN (thing)))(NP (POS ('))))) |ET| 
-1  |BT| (ROOT (S (NP (NNP (frustrated)))(VP (NNP (wondering)))(SBAR (IN (if)))(NP (PRP (i)))(VP (MD (can))(RB (even))(VB (do)))(NP (DT (this))))) |ET| 
-1  |BT| (ROOT (S (NP (DT (some))(NNS (people)))(VP (VBP (walk)))(PP (IN (in)))(NP (DT (the))(NNS (rain.others)))(VP (VB (get)))(ADJP (JJ (wet))))(S (PP (FW (i)))(NP (JJR (less))(IN (than))(CD (3))(NNS (u.))(VBP (<))(CD (3))(NN (hell))(NN (yeh))(NN (baby))))(S (NP (NNP (x))))) |ET| 
-1  |BT| (ROOT (S (PP (TO (to)))(NP (PRP (yourself)))(NP (PRP (you)))(ADVP (RB (sometimes)))(VP (VBP (say))))) |ET| 
1  |BT| (ROOT (S (VP (VBZ (be))(VBG (watch)))(NP (DT (some)))(PP (IN (of)))(NP (DT (the))(JJ (funniest))(NN (stuff)))(ADVP (RB (ever))))) |ET| 
1  |BT| (ROOT (S (NP (NNP (hey))(WP (who))(NNP (all))(VBD (be))(NNP (gon))(NNP (na))(NNP (puy))(NNP (mi))(NNP (psp)))(NP (NNP (at))(DT (the))(NNP (starting))(NNP (price)))(PP (IN (of)))(NP ($ ($))(CD (20))(CD (!?!?!?))))) |ET| 
1  |BT| (ROOT (S (UCP (`` (")))(UCP (RB (just)))(VP (VBP (remember)))(NP (PRP (you)))(VP (VBP (be)))(NP (DT (the))(CD (one))(NN (thing)))(NP (FW (i)))(VP (MD (can))(RB (not))(VB (get)))(NP (RB (enough)))(PP (IN (of)))(NP ('' ("))))) |ET| 
-1  |BT| (ROOT (S (NP (NNP (fb))(NNP (im))(NNP (back))))(S (NP (NNP (please))(NNP (rise)))(PP (IN (for)))(NP (DT (the))(NN (singin)))(PP (IN (of)))(NP (NNP (tha))(NNP (national))(NNP (trap))(NNP (star))(NNP (anthem))))(S (NP (NNP (bitch))(NNP (im))(NNP (amazing))))) |ET| 
-1  |BT| (ROOT (S (NP (JJ (great))(MD (can))(RB (not))(VB (sleep)))(NP (FW (i)))(VP (VB (have))(TO (to))(VB (leave)))(PP (IN (for)))(NP (DT (the))(NN (airport)))(PP (IN (in)))(NP (CD (4))(NNS (hour))))) |ET| 
-1  |BT| (ROOT (S (VP (NNS (look)))(PP (IN (like)))(VP (VBD (be))(VBG (add)))(NP (DT (another))(NN (family))(NN (member)))(NP (NN (amanda)))(VP (RB (just))(VBD (confirm)))(SBAR (IN (that)))(NP (VBZ (she)))(ADJP (JJ (pregnant))))) |ET| 
1  |BT| (ROOT (S (NP (PRP (i)))(VP (VBP (hate)))(NP (DT (those))(NNS (people)))(NP (IN (that)))(VP (VB (get)))(NP (RB (literally))(NN (everything)))(NP (PRP (you)))(VP (VBP (want))))) |ET| 
1  |BT| (ROOT (S (PP (TO (to)))(NP (PDT (all))(DT (the))(NN (ap))(NNS (student)))(VP (VBP (pullin)))(NP (DT (all))(NNS (nighter)))(VP (VB (know)))(NP (DT (this)))(NP (PRP (you)))(VP (VBP (be)))(ADJP (RB (alone))))) |ET| 
1  |BT| (ROOT (S (NP (JJ (happy))(NN (birthday)))(PP (TO (to)))(NP (PRP$ (my))(NN (baby))(NN (boy)))(NP (WP (who)))(VP (VBZ (turn)))(NP (CD (1)))(NP (NN (today))))(S (NP (VB (go)))(PP (IN (by)))(ADVP (RB (too))(RB (quickly))))(S (VP (NNP (love)))(NP (PRP (you)))(ADVP (RB (so))(JJ (much)))(NP (NNP (benjamin))))) |ET| 
-1  |BT| (ROOT (S (NP (NNP (free))(PRP$ (my))(NN (baby.im)))(ADVP (RB (here)))(VP (IN (thru)))(NP (PRP (it)))(NP (DT (all))(JJ (babe)))(PP (FW (i)))(NP (NN (love))(NN (u))))) |ET| 
-1  |BT| (ROOT (S (NP (DT (the))(JJ (sweet)))(ADVP (RB (just)))(VP (VBZ (be)))(ADJP (RB (as))(JJ (sweet)))(PP (IN (without)))(NP (DT (the))(JJ (sour))(NN (!!!!!))))(S (NP (NNP (;}))(NNP (~))(NNP (~))(VBP (~))))) |ET| 
-1  |BT| (ROOT (S (ADVP (RB (ever)))(PP (IN (since)))(INTJ (FW (i)))(ADVP (RB (never)))(VP (VBP (regret)))(NP (DT (the))(NN (day)))(SBAR (IN (that)))(NP (FW (i)))(VP (VBD (meet)))(NP (PRP (you))))(S (NP (NNP (<))(CD (3))(NNP (blayzieone))(NNP (makinaryazz))))) |ET| 
1  |BT| (ROOT (S (PP (IN (in)))(NP (DT (the))(NN (mood)))(PP (IN (for)))(VP (VBG (go)))(PRT (RP (out)))(ADVP (RB (again))))) |ET| 
1  |BT| (ROOT (S (NP (NN (cant))(VB (wait)))(PP (IN (for)))(NP (NN (today)))(VP (TO (to))(VB (be)))(PP (IN (over))))(S (NP (NNP (cant))(VBP (wait)))(VP (TO (to))(VB (relax))))) |ET| 
1  |BT| (ROOT (S (NP (VB (owww))))(S (NP (NN (baby))(NN (kailan)))(ADVP (RB (just)))(VP (VBD (hit)))(NP (PRP (i)))(PP (IN (in)))(NP (DT (the))(NN (face)))(PP (IN (with)))(NP (PRP$ (my))(NN (phone))))) |ET| 
-1  |BT| (ROOT (S (NP (WP (what)))(VP (VBZ (be)))(NP (DT (the))(NN (difference)))(PP (IN (between)))(NP (NN (maturity))(CC (and))(NNS (childishness))))) |ET| 
-1  |BT| (ROOT (S (NP (NN (im)))(VP (NNS (thinkin)))(PP (VBP (abt)))(NP (VBN (goin)))(PP (TO (to)))(NP (NN (florida))))) |ET| 
-1  |BT| (ROOT (S (NP (NNPS (sons)))(PP (IN (of)))(NP (NNP (anarchy))(NNS (rock))))) |ET| 
1  |BT| (ROOT (S (NP (JJ (ahahahahah))(NN (nvm))(`` ("))(NNP (q))('' (")))(VP (VBD (break)))(NP (DT (the))(NN (car))(NN (xd)))(NP (PRP (it)))(VP (VBZ (be)))(ADJP (JJ (okay)))(NP (PRP (we)))(VP (VBD (fix)))(NP (PRP (it)))(PP (IN (with)))(NP (NNP (aaa))))) |ET| 
1  |BT| (ROOT (S (NP (NNP (*))(NNP (money)))(VP (VBZ (be)))(PP (IN (like)))(NP (DT (a))(JJ (sixth))(NN (sense)))(VP (VBG (make)))(NP (PRP (it)))(ADJP (JJ (possible)))(VP (TO (to))(RB (fully))(VB (enjoy)))(NP (DT (the))(JJ (other))(CD (five))(NNS (*))))) |ET| 
1  |BT| (ROOT (S (NP (FW (i)))(VP (VBD (get)))(NP (PRP$ (my))(NN (ring)))(VP (VBN (clean)))(NP (PRP$ (its)))(PP (JJ (like)))(NP (JJ (new))(NNS (*)))(PP (VBG (=})))(NP (CD (<))(CD (3))(VBP (love)))(NP (PRP (it))))) |ET| 
-1  |BT| (ROOT (S (NP (PRP (he)))(VP (VBZ (love)))(NP (PRP (i))))(S (NP (PRP (he)))(VP (VBP (love)))(NP (PRP (i))))(S (NP (WP (what)))(VP (VBP (do)))(NP (RB (u)))(VP (VB (think))))) |ET| 
-1  |BT| (ROOT (S (NP (NN (mujhe))(VBP (barish)))(NP (PRP (i)))(VP (MD (will))))) |ET| 
-1  |BT| (ROOT (S (NP (NNP (omg))(NN (somebody)))(VP (VBD (say)))(NP (PRP (they)))(VP (MD (could))(VB (tell)))(NP (PRP (i)))(VP (VBD (be)))(PP (IN (from)))(NP (NNP (alabama))))) |ET| 
1  |BT| (ROOT (S (NP (DT (the))(JJ (weak)))(VP (MD (can))(RB (never))(VB (forgive))))(S (NP (NNP (forgiveness)))(VP (VBZ (be)))(NP (DT (a))(NN (attribute)))(PP (IN (of)))(NP (DT (the))(JJ (strong))))(S (NP (NNP (mahatma))(NNP (gandhi))))) |ET| 
1  |BT| (ROOT (S (VP (VBZ (be)))(ADVP (RB (just)))(VP (JJ (chilling)))(PP (IN (at)))(NP (DT (the))(JJ (apt))))) |ET| 
1  |BT| (ROOT (S (NP (FW (i)))(VP (RB (am)))(NP (DT (a))(NN (fan)))(PP (IN (of)))(NP (NN (way)))(PP (TO (to)))(NP (JJ (many))(NNS (page)))(PP (IN (like)))(NP (IN (about))(CD (500))(NN (lol)))(NP (NNP (p))))) |ET| 
-1  |BT| (ROOT (S (NP (WDT (what))(NN (type)))(PP (IN (of)))(NP (NN (ship)))(ADVP (RB (never)))(VP (VBZ (sink))))(S (ADVP (WRB (why)))(NP (DT (a))(NN (friendship)))(PP (IN (of)))(NP (NN (course))))) |ET| 
-1  |BT| (ROOT (S (VP (VBZ (be)))(VP (VBG (get))(VBN (snow)))(PP (IN (in)))(PP (IN (with)))(NP (NNP (mike))))) |ET| 
-1  |BT| (ROOT (S (NP (NNP (repetition)))(VP (VBZ (be)))(NP (DT (the))(NN (mother)))(PP (IN (of)))(NP (NNS (skill))))) |ET| 
1  |BT| (ROOT (S (NP (PRP (i)))(VP (VBP (be))(VBG (get)))(SBAR (IN (that)))(NP (PRP (i)))(VP (VBP (want)))(NP (DT (another))(JJ (tattoo))(NN (itch))))) |ET| 
1  |BT| (ROOT (S (NP (PRP (i)))(VP (VBP (want))(TO (to))(VB (be)))(NP (JJ (someones))(NN (godfather))))) |ET| 
1  |BT| (ROOT (S (NP (WP (what)))(VP (VBP (be)))(NP (PRP (i)))(VP (VB (doin)))(NP (WP (what)))(VP (VBP (be)))(NP (PRP (i)))(VP (NN (doin))))) |ET| 
-1  |BT| (ROOT (S (NP (PRP (i)))(VP (VBP (think)))(NP (PRP (i)))(VP (VBP (need)))(NP (DT (some))(NN (coffee))))) |ET| 
-1  |BT| (ROOT (S (NP (EX (there)))(VP (VBZ (be)))(ADJP (VBN (bore)))(NP (EX (there)))(VP (VBZ (be)))(NP (WP (what)))(NP (PRP (i)))(VP (VBP (be))))) |ET| 
-1  |BT| (ROOT (S (NP (PRP (i)))(VP (VBP (have))(TO (to))(VB (put)))(ADVP (RP (together)))(NP (DT (a))(NN (outline)))(PP (IN (with)))(NP (RB (absolutely))(DT (no))(NN (information))))(S (NP (NNP (shoot))(NNP (me))))) |ET| 
1  |BT| (ROOT (S (NP (DT (a))(NN (man)))(PP (IN (of)))(NP (NN (quality)))(VP (VBZ (be))(RB (not))(VBN (threaten)))(PP (IN (by)))(NP (DT (a))(NN (woman)))(PP (IN (of)))(NP (NN (equality))))) |ET| 
1  |BT| (ROOT (S (NP (NN (nothing)))(PP (IN (at)))(NP (DT (all))(NN (im))(VBZ (speechless))))) |ET| 
1  |BT| (ROOT (S (VP (VBG (go))(TO (to))(VB (see)))(NP (NN (luke))))(S (NP (RB (then))(NNS (lot)))(PP (IN (of)))(NP (NN (shopping)))(PP (IN (after)))(NP (WDT (that))))) |ET| 
-1  |BT| (ROOT (S (NP (NN (r))(NN (u)))(VP (VBG (kid)))(NP (PRP (i))))(S (NP (NNP (game)))(PP (IN (of)))(NP (DT (the))(NN (week))(VBZ (buc)))(PP (IN (at)))(NP (NN (arizona))))) |ET| 
-1  |BT| (ROOT (S (NP (DT (the))(NN (power)))(PP (IN (of)))(NP (JJ (positive))(NN (thinking))))(S (NP (NN (game)))(NP (NN (today)))(SBAR (CD (4:30)))(PP (IN (at)))(NP (NNP (seven))(NNPS (oaks))))) |ET| 
-1  |BT| (ROOT (S (NP (NN (day))(RP (off)))(NP (NN (today))))) |ET| 
1  |BT| (ROOT (S (VP (VBZ (be)))(ADJP (JJ (glad)))(NP (PRP (he)))(VP (VBD (get)))(NP (DT (the))(NN (job))))) |ET| 
1  |BT| (ROOT (S (NP (PRP (i)))(VP (VBP (have)))(NP (DT (the))(JJS (best))(NN (mom)))(PP (IN (in)))(NP (DT (the))(NN (world))))) |ET| 
1  |BT| (ROOT (S (NP (PRP (it)))(VP (VBZ (kill)))(NP (PRP (i)))(VP (TO (to))(VB (know)))(NP (WRB (how))(RB (much)))(NP (PRP (i)))(ADVP (RB (really)))(VP (VBP (love)))(NP (PRP (you))))) |ET| 
-1  |BT| (ROOT (S (NP (CD (365))(NNS (day)))(NP (DT (a))(NN (year))))(S (NP (PRP (it)))(VP (NNS (function)))(ADVP (RB (right)))(PP (IN (from)))(NP (DT (the))(NN (time)))(NP (PRP (we)))(VP (VBP (be))(VBN (bear))))) |ET| 
-1  |BT| (ROOT (S (VP (VBZ (be))(VBG (party)))(NP (PRP (it)))(PRT (RP (up)))(INTJ (NN (baby))))) |ET| 
-1  |BT| (ROOT (S (VP (VBD (survive)))(NP (DT (the))(JJ (intensive))(NN (school))))(S (PP (IN (off)))(VP (TO (to))(VB (newcastle))))) |ET| 
1  |BT| (ROOT (S (NP (WP (what)))(VP (VBP (do)))(NP (RB (u)))(VP (VB (call)))(NP (NN (cheese))(CC (and))(NN (lollypop)))(PP (IN (in)))(NP (NN (urdu))))(S (NP (NNP (p))))) |ET| 
1  |BT| (ROOT (S (NP (NNS (plebian)))(VP (VBZ (be)))(SBAR (IN (that)))(NP (JJ (global))(JJ (political))(NN (cartoon)))(PP (NN (thang)))(PP (IN (for)))(NP (NN (m)))(VP (VBP (kane)))(ADJP (JJ (due)))(NP (NN (wednsday)))(ADVP (NNP (thursday)))(NP (NNP (friday))))) |ET| 
1  |BT| (ROOT (S (NP (NNP (sushi)))(NP (NNP (salsa))))(S (VP (MD (can))(RB (not))(VB (wait))))) |ET| 
-1  |BT| (ROOT (S (NP (PRP (i)))(VP (VBP (look)))(ADVP (RB (so))(JJ (fat)))(PP (IN (in)))(NP (DT (those))(NNS (pic)))(VP (RB (wat)))(NP (DT (the))(NN (hell))))(S (NP (NN (lol))))) |ET| 
-1  |BT| (ROOT (S (NP (JJ (helloo))(NN (world))))(S (NP (DT (this)))(VP (VBZ (be)))(NP (PRP$ (my))(JJ (bestest))(NN (cousin))(NN (laureeeen))(CD (<))(CD (3))))) |ET| 
-1  |BT| (ROOT (S (ADVP (RB (finally)))(NP (NNP (home))(JJ (sweet))(NNP (*))(NNP (kelso))(NNP (*)))(VP (VBP (<)))(NP (CD (3)))(NP (DT (the))(JJ (*))(NN (sea))))) |ET| 
1  |BT| (ROOT (S (NP (PRP (i)))(PP (VBP (like)))(NP (PRP (it)))(PP (IN (on)))(NP (DT (the))(NNS (banister))))) |ET| 
1  |BT| (ROOT (S (NP (PRP (i)))(ADJP (JJ (alive))(CC (and))(JJ (unscathed))))(S (ADVP (RB (even)))(VP (VBD (make)))(NP (PRP (it)))(VP (VBD (pass)))(NP (DT (the))(NN (wall)))(PP (IN (of)))(NP (NN (death))))) |ET| 
1  |BT| (ROOT (S (NP (PRP (i)))(ADVP (RB (really)))(VP (MD (could))(VB (do)))(PP (IN (with)))(VP (NNS (seein)))(NP (POS (')))(NP (DT (some))(NNS (friend)))(ADVP (RB (right))(RB (now))))) |ET| 
-1  |BT| (ROOT (S (ADVP (NNP (nevermind)))(NP (PRP (i)))(VP (VBD (find)))(NP (PRP (it))))) |ET| 
-1  |BT| (ROOT (S (NP (RB (just)))(VP (VBD (try)))(NP (DT (the))(NNP (neilmed)))(PP (VBZ (sinus)))(NP (JJ (rinse))(NN (thing))))(S (NP (PRP$ (my))(NN (sister)))(VP (VBD (help)))(PP (IN (for)))(NP (DT (some))(NN (reason)))(NP (PRP (it)))(VP (VBD (wouldnt))(NN (work))))(S (NP (PRP (i)))(VP (VBP (guess)))(NP (PRP (i)))(VP (MD (must))(VB (be))(RB (really))(VBN (congest))))) |ET| 
-1  |BT| (ROOT (S (NP (VB (fill))(PRP$ (you))(NN (heart)))(PP (IN (with)))(NP (NN (goodwill))(CC (and))(NN (cheer))))) |ET| 
1  |BT| (ROOT (S (VP (VBZ (be)))(NP (NN (softball))(NN (game))))(S (ADVP (RB (then)))(NP (NNP (ashley)))(NP (VBZ (be))(NNP (b-day))(NNP (party))))) |ET| 
1  |BT| (ROOT (S (VP (VBZ (be)))(PP (IN (about)))(VP (TO (to))(VB (gain)))(NP (DT (a))(NN (housemate))))) |ET| 
1  |BT| (ROOT (S (VP (VBZ (be)))(ADJP (VBN (satisfy)))(PP (IN (with)))(ADVP (WRB (how)))(NP (NN (school)))(VP (VBZ (be))(VBG (go)))(ADVP (RB (so))(RB (far))))) |ET| 
-1  |BT| (ROOT (S (NP (WRB (why)))(VP (VBZ (be)))(NP (NNP (nicole)))(NP (DT (the))(NNP (cutest))(NNP (thing))(NNP (ever)))(VP (NNP (ohmygod))))) |ET| 
-1  |BT| (ROOT (S (NP (NNP (tombstone)))(VP (VBZ (be)))(ADVP (RB (finally)))(PP (IN (on)))(NP (NN (bluray))))) |ET| 
-1  |BT| (ROOT (S (NP (: (:))(VB (do))(RB (not)))(VP (VB (think)))(NP (DT (all))(NN (honesty)))(VP (VBZ (be)))(NP (NN (truth))))) |ET| 
1  |BT| (ROOT (S (NP (NN (work)))(NP (NN (tomorrow)))(PP (IN (from)))(VP (NNS (10am)))(NP (JJ (6pm))(NN (text)))(NP (DT (the))(NN (cell))(VBP (<))(CD (3))))) |ET| 
1  |BT| (ROOT (S (NP (PRP$ (its))(CD (44)))(ADVP (RB (here)))(NP (RB (im)))(VP (NN (lovin)))(NP (PRP (it))))(S (NP (NNP (~))(NNP (*)))(PP (NNP (~)))(NP (NNP (*))(NNP (~)))(PP (NNP (*)))(NP (NNP (~))(VBP (*))))) |ET| 
1  |BT| (ROOT (S (NP (PRP (i)))(VP (VBD (shoot)))(NP (DT (the))(NN (sheriff))))(S (NP (DT (the))(NN (deputy))))(S (NP (PRP$ (you))(NN (weee))(RB (doggy)))(ADVP (RB (too))))) |ET| 
-1  |BT| (ROOT (S (ADVP (RB (right))(RP (off)))(VP (TO (to))(NN (bed))(VBD (get)))(NP (DT (a))(JJ (big))(NN (day))(NN (tomorrow))))) |ET| 
-1  |BT| (ROOT (S (SBAR (IN (if)))(NP (NNS (there))(NN (anything)))(NP (FW (i)))(VP (VBP (have)))(NP (JJ (natural))(NN (talent))(NN (in.it)))(VP (VBZ (be))(VBG (be)))(NP (DT (a))(NN (pilot))))) |ET| 
-1  |BT| (ROOT (S (VP (VBG (go)))(PP (TO (to)))(NP (DT (the))(NN (sub)))(VP (TO (to))(VB (eat)))(PP (IN (with)))(NP (NNS (danus))))) |ET| 
1  |BT| (ROOT (S (NP (JJ (sick))(CC (and))(JJ (dont)))(VP (VBP (feel)))(ADJP (JJ (good)))(NP (DT (this)))(ADVP (RB (really)))(VP (VBZ (suck))))) |ET| 
1  |BT| (ROOT (S (VP (VBZ (feel)))(PP (IN (like)))(NP (DT (this)))(VP (VBZ (be)))(NP (RB (gona)))(VP (VB (be)))(NP (DT (a))(JJ (long))(CC (and))(JJ (busy))(NN (day))))) |ET| 
1  |BT| (ROOT (S (NP (UH (yeah))(NNP (mayweather)))(VP (VBD (be))(RB (not))(VBN (messin)))(ADVP (RP (around))))) |ET| 
-1  |BT| (ROOT (S (NP (PRP (we)))(VP (MD (can))(RB (not))(VB (be))(NN (wt)))(NP (PRP (we)))(ADVP (RB (usually)))(VP (VB (be))))(S (NP (RB (too))(JJ (much))(VBZ (change))))) |ET| 
-1  |BT| (ROOT (S (NP (JJ (human)))(VP (VBZ (be)))(NP (RB (nt))(VBN (prefect)))(PP (IN (at)))(NP (DT (all))))(S (SBAR (RB (so)))(NP (RB (dun)))(VP (VB (expect)))(ADVP (RB (too))(RB (much))))) |ET| 
-1  |BT| (ROOT (S (PP (IN (for)))(NP (RB (once)))(VP (VBG (wake)))(PRT (RP (up)))(PP (IN (because))(IN (of)))(NP (NN (jet))(NN (lag)))(VP (VBZ (be)))(SBAR (NN (great.because)))(NP (FW (i)))(ADVP (RB (just)))(VP (VBD (find)))(PRT (RP (out))))) |ET| 
1  |BT| (ROOT (S (NP (DT (the))(JJ (saddest))(NN (part)))(VP (VBZ (be))(TO (to))(VB (find)))(NP (NN (happiness)))(ADVP (IN (behind))))) |ET| 
1  |BT| (ROOT (S (VP (VBG (clean)))(NP (DT (the))(NN (house.wut)))(ADJP (RB (else)))(VP (VBZ (be)))(NP (EX (there)))(VP (TO (to))(VB (do))))) |ET| 
1  |BT| (ROOT (S (NP (NNS (hmm)))(VP (WP (what))(TO (to))(VB (do)))(NP (NN (today))))) |ET| 
-1  |BT| (ROOT (S (NP (VB (coffeeshop))(NN (client))(NN (meeting))))(S (NP (RB (not))(DT (a))(JJ (bad))(NN (way)))(VP (TO (to))(VB (do)))(NP (NN (business))))) |ET| 
-1  |BT| (ROOT (S (NP (NN (office))(CD (2010)))(NP (DT (the))(NN (insert)))(VP (JJ (screenshot)))(NP (NN (part))))) |ET| 
-1  |BT| (ROOT (S (NP (WP (what)))(VP (VBZ (be)))(NP (PRP$ (you))(JJ (embarrassing))(JJ (guilty))(NN (pleasure))(NN (song))))) |ET| 
1  |BT| (ROOT (S (NP (VB (wtf))))(S (ADVP (WRB (why)))(NP (PRP (they)))(VP (VB (make)))(NP (NNP (claire)))(NP (DT (a))(NN (lesbian))))) |ET| 
1  |BT| (ROOT (S (NP (RB (so))(JJ (much))(NN (yardwork))))(S (NP (PRP (i)))(VP (VBP (think)))(NP (PRP$ (my))(NNS (arm)))(VP (VBP (be))(VBG (go))(TO (to))(VB (fall)))(PRT (RP (off))))) |ET| 
1  |BT| (ROOT (S (NP (NNP (torres))(, (,))(NNP (drogba))(CC (and))(NNP (anelka)))(PP (RB (up)))(NP (JJ (front))))(S (NP (RB (just)))(VP (VB (give)))(NP (PRP (it)))(NP (NN (time)))(NP (IN (that))(NN (line)))(PRT (RB (up)))(VP (MD (will))(VB (be))(VBG (devastate)))(PP (TO (to)))(NP (DT (any))(NN (backline))))) |ET| 
-1  |BT| (ROOT (S (NP (PRP (i)))(VP (VBP (need))(TO (to))(VB (dance)))(NP (PRP$ (my))(NN (pain)))(ADVP (RB (away))))(S (NP (NNP (*))(NNP (sigh))(VBP (*))(NN (time)))(VP (TO (to))(VB (break)))(PRT (RP (out)))(NP (DT (the))(JJ (good))(JJ (old))(NN (jazz))(NNS (shoe))))) |ET| 
-1  |BT| (ROOT (S (NP (NNP (yay))(, (,))(NNP (rupert))(CC (and))(NNP (russell))(CC (and))(NNP (boston))(NNP (rob))))) |ET| 
-1  |BT| (ROOT (S (NP (VBZ (be))(RB (not)))(VP (VBG (go)))(PP (TO (to)))(NP (NN (school)))(NP (NN (today))))(S (NP (PRP (you))(NNS (guy)))(VP (MD (will))(VB (find)))(PRT (RP (out)))(ADVP (RB (later))))) |ET| 
1  |BT| (ROOT (S (NP (NN (home))(DT (all))(NN (day)))(VP (VBD (elevate)))(NP (PRP$ (my))(NN (foot)))(NP (PDT (all)))(NP (DT (the))(NN (pain)))(PP (IN (for)))(NP (DT (a))(RB (really))(JJ (bad))(NN (bruise))))) |ET| 
1  |BT| (ROOT (S (NP (NNP (rivers))(NNP (cuomo)))(VP (VBZ (be)))(NP (RB (awkwardly))(JJ (adorable)))(NP (PRP (it)))(ADVP (RB (almost)))(VP (VBZ (make)))(PRT (RP (up)))(PP (IN (for)))(NP (PRP$ (they))(NN (crap))(JJ (new))(NN (music))))) |ET| 
1  |BT| (ROOT (S (NP (FW (i)))(VP (VBD (have)))(NP (CD (one))(JJ (wet)))(VP (JJ (pissed)))(PP (IN (of)))(NP (NN (kitty))))(S (NP (DT (a))(JJ (clean))(NN (dog))))(S (NP (VB (whew))))) |ET| 
-1  |BT| (ROOT (S (NP (DT (the))(`` ("))(NNP (high))(CD (five))('' (")))(PP (IN (at)))(NP (DT (the))(NN (end)))(PP (IN (of)))(NP (DT (the))(NNPS (jackass)))(VP (VBZ (3d)))(ADJP (JJ (commercial))))(S (NP (PRP (i)))(VP (VBD (laugh)))(ADVP (RB (so))(RB (hard))))) |ET| 
-1  |BT| (ROOT (S (NP (PRP (i)))(VP (VB (get)))(NP (DT (a))(NN (hd2)))(NP (DT (a))(JJ (mytouch))(NN (slide)))(VP (VB (wait))))(S (NP (DT (the))(NN (mytouch)))(VP (VBZ (do))(VB (have)))(NP (VBN (android))))) |ET| 
-1  |BT| (ROOT (S (NP (VBD (1-1)))(PP (IN (at)))(NP (DT (the))(NN (end)))(PP (IN (of)))(NP (CD (1))))) |ET| 
1  |BT| (ROOT (S (NP (WP (what)))(VP (MD (will)))(NP (NN (today))(VB (bring))))) |ET| 
1  |BT| (ROOT (S (NP (DT (this)))(VP (VBZ (be)))(NP (DT (a))(NN (battle)))(NP (PRP (we)))(VP (VBP (be)))(NP (DT (the))(NN (blade))))(S (NP (DT (this)))(VP (VBZ (be)))(NP (DT (the))(NN (line)))(NP (DT (this)))(VP (VBZ (be)))(NP (DT (the))(NN (line))))(S (ADVP (DT (all)))(SBAR (WDT (that)))(NP (PRP (they)))(VP (VBP (build)))(NP (PRP (we)))(VP (MD (will))(VB (break)))(NP (DT (this)))(VP (VBZ (be)))(NP (DT (the))(NN (line))))(S (NP (JJ (whos))(NN (side)))(VP (VBP (be)))(NP (PRP (you)))(PP (IN (on))))(S (NP (-LRB- (-lrb-))(NNP (demon))(NN (hunter))))) |ET| 
1  |BT| (ROOT (S (NP (WDT (what))(NN (time)))(VP (VBZ (be)))(NP (DT (the))(NNP (science))(CD (10))(NN (provincial))(NN (tomorrow))))) |ET| 
-1  |BT| (ROOT (S (NP (NNP (nicki))(NNP (minaj)))(VP (VBZ (be)))(NP (DT (the))(JJS (worst))))) |ET| 
-1  |BT| (ROOT (S (NP (PRP (it)))(VP (VBZ (be)))(NP (WP (what)))(NP (FW (i))(VBZ (m)))(ADVP (RB (now))))) |ET| 
-1  |BT| (ROOT (S (NP (PRP (we)))(VP (VB (pretend)))(NP (IN (that))(NNS (airplane)))(PP (IN (in)))(NP (DT (the))(NN (night))(NN (sky)))(VP (VBP (be)))(PP (IN (like)))(NP (VBG (shoot))(NNS (stars.i)))(VP (MD (could))(RB (really))(VB (use)))(NP (DT (a))(VBP (wish))(RB (right)))(ADVP (RB (now)))(VP (VBP (wish)))(ADVP (RB (right))(RB (now)))(VP (VBP (wish)))(ADVP (RB (right))(RB (now))))) |ET| 
1  |BT| (ROOT (S (VP (VBG (hang)))(PP (IN (with)))(NP (DT (the))(NN (bear))))) |ET| 
1  |BT| (ROOT (S (VP (VBG (watch)))(NP (DT (the))(NN (mixer))(NN (spin)))(ADVP (NN (round))(CC (and))(NN (round))))(S (VP (VBG (try)))(VP (TO (to))(VB (dump)))(NP (JJ (concrete)))(PP (IN (on)))(NP (DT (the))(NN (ground))))) |ET| 
1  |BT| (ROOT (S (NP (DT (the))(NNS (obstacle)))(NP (PRP (you)))(VP (VB (encounter)))(NP (NN (today)))(VP (MD (might))(RB (even))(VB (daunt)))(NP (NN (someone)))(ADJP (IN (as))(NN (larger-than-life)))(PP (IN (as)))(NP (PRP (you))))(S (NP (DT (the))(NN (element)))(PP (IN (of)))(NP (NNP (metal))(VBZ (favor))))) |ET| 
-1  |BT| (ROOT (S (VP (VBG (watch)))(PP (IN (for)))(NP (NNS (pig)))(PP (IN (on)))(NP (DT (the))(NN (wing))))) |ET| 
-1  |BT| (ROOT (S (VP (VB (camp))(RB (tonight))(RB (then))(VBG (leave)))(PP (IN (for)))(NP (NN (bama)))(NP (NNP (wednesday)))(VP (TO (to))(VB (see)))(NP (NNP (desi))))) |ET| 
-1  |BT| (ROOT (S (NP (VB (wow))))(S (NP (NNS (blast)))(PP (IN (from)))(NP (DT (the))(JJ (past))))) |ET| 
1  |BT| (ROOT (S (VP (VBZ (be)))(ADVP (RB (softly)))(ADJP (JJ (calm)))(VP (VBN (collect))))) |ET| 
1  |BT| (ROOT (S (VP (VBZ (be)))(ADVP (RB (so)))(VP (VBN (confuse))))(S (NP (PRP (i)))(VP (VBP (give)))(PRT (RP (up))))) |ET| 
1  |BT| (ROOT (S (NP (NNP (katie))(NNP (royal)))(NP (NN (everyone)))(VP (VBZ (know)))(PP (VBG (include)))(NP (PRP (i)))(SBAR (IN (that)))(NP (NNP (emily))(NNP (merrick)))(VP (VBZ (love)))(NP (PRP (i)))(ADJP (RBR (more))))(S (ADVP (RB (just)))(VP (VBP (admit)))(NP (PRP (it)))(ADVP (RB (seriously))))(S (NP (RB (hahaha))(DT (this)))(VP (VBZ (be)))(ADJP (NN (fun))))) |ET| 
-1  |BT| (ROOT (S (VP (VBZ (be)))(VP (VBG (get)))(NP (DT (the))(JJ (last))(NN (wisdom))(NN (tooth)))(VP (VBN (remove)))(NP (DT (this))(NN (morning))))) |ET| 
-1  |BT| (ROOT (S (VP (VB (become)))(ADJP (JJ (happy)))(ADVP (WRB (when)))(NP (PRP (you)))(VP (VBP (see)))(NP (NNS (other))(VBG (smile))(NN (:}))))) |ET| 
-1  |BT| (ROOT (S (VP (VBZ (be)))(NP (CD (6))(NNS (month))))(S (NP (PRP (i)))(VP (VBP (love)))(NP (PRP (you))))) |ET| 
1  |BT| (ROOT (S (NP (NN (chokin))('' (')))(PP (IN (on)))(NP (DT (the))(NNS (splinter))))) |ET| 
1  |BT| (ROOT (S (NP (NN (sound)))(PP (IN (of)))(VP (VBG (break)))(NP (NNS (wave))))) |ET| 
1  |BT| (ROOT (S (NP (NN (subway)))(ADVP (RB (then))(RBR (more))(VBG (study)))(PP (IN (for)))(NP (NN (bio))(JJ (final))(NN (egh))))) |ET| 
-1  |BT| (ROOT (S (VP (VBG (go)))(PP (TO (to)))(NP (NN (home))))) |ET| 
-1  |BT| (ROOT (S (NP (NN (today)))(VP (VBD (suck))))) |ET| 
-1  |BT| (ROOT (S (NP (VB (im)))(ADVP (RB (so)))(VP (VBN (do)))(PP (IN (with)))(NP (DT (this))(NN (crap))))) |ET| 
1  |BT| (ROOT (S (NP (EX (there)))(VP (VBZ (be)))(NP (DT (no))(NN (place)))(PP (IN (like)))(NP (NN (camp))))(S (NP (PRP (i)))(VP (VBP (love)))(NP (NN (camp))(NN (k))))) |ET| 
1  |BT| (ROOT (S (NP (NNP (angelina)))(VP (VBZ (be)))(ADJP (VBN (go))))(S (NP (VB (thank))(NN (baby))(NNS (jesus))))) |ET| 
1  |BT| (ROOT (S (NP (NNP (wish))(PRP (i)))(VP (VBD (have)))(NP (DT (the))(NN (energy)))(PP (IN (like)))(NP (DT (the))(NN (dog)))(NP (PRP (we)))(VP (VBP (be))(VBG (watch))))(S (NP (PRP (he)))(VP (VBZ (be)))(PP (IN (like)))(NP (DT (the))(NN (energizer))(NN (bunny)))(VP (NNP (lol))))) |ET| 
-1  |BT| (ROOT (S (NP (DT (the))(`` ("))(IN (like))('' ("))(NN (button)))(VP (VBZ (be)))(ADJP (JJ (ridiculous))))(S (SBAR (IN (if)))(NP (PRP (you)))(PP (VBP (like)))(NP (NN (something)))(NP (RB (just))(VB (comment)))(PP (IN (on)))(NP (PRP (it))))) |ET| 
-1  |BT| (ROOT (S (NP (PRP$ (my))(NN (dad)))(VP (VBZ (be)))(ADVP (NN (home)))(PP (IN (for)))(NP (DT (the))(NN (weekend))))(S (NP (PRP (i)))(VP (VBD (invite)))(NP (PRP (he)))(VP (TO (to))(VB (do)))(NP (NN (breakfast)))(NP (NN (tomorrow)))(PP (IN (for)))(NP (CD (my))(NN (birthday)))(NP (PRP (he)))(VP (VBZ (be))(VBG (go)))(NP (NN (golfing))))) |ET| 
-1  |BT| (ROOT (S (NP (NNP (tonight)))(VP (VBD (be)))(ADJP (RB (wayyyy))(RB (too))(JJ (crazy))))(S (NP (PRP (i)))(VP (VBP (be)))(ADVP (RB (just)))(ADJP (JJ (ready)))(VP (TO (to))(VB (sit)))(ADVP (RP (back)))(NP (VB (chill)))(PP (IN (with)))(NP (PRP$ (my))(NN (girl)))(NP (NN (tomorrow))))) |ET| 
1  |BT| (ROOT (S (VP (VBP (have))(VBD (go)))(PP (TO (to)))(NP (VB (work))))) |ET| 
1  |BT| (ROOT (S (VP (VBZ (want)))(PP (TO (to)))(NP (VB (go)))(PP (TO (to)))(NP (DT (the))(NN (pool))))) |ET| 
1  |BT| (ROOT (S (VP (VB (goin)))(PP (TO (to)))(NP (DT (the))(NN (lake)))(PP (IN (with)))(NP (NN (family))))) |ET| 
-1  |BT| (ROOT (S (PP (TO (to)))(NP (DT (the))(NNP (lawrence))(NN (family)))(NP (WP (who)))(VP (VBZ (be))(VBG (go)))(PP (TO (to)))(NP (DT (the))(NN (farm))(NN (tomorrow))))) |ET| 
-1  |BT| (ROOT (S (NP (NNP (merry))(NNP (christmas)))(PP (TO (to)))(NP (DT (all)))(PP (CC (and)))(PP (TO (to)))(NP (PDT (all))(DT (a))(JJ (good))(NN (night))))) |ET| 
-1  |BT| (ROOT (S (NP (JJ (new))(NN (song)))(VP (VBD (make)))(NP (VBG (stand)))(PP (IN (in)))(NP (DT (the))(NN (rain)))(VP (VB (be)))(ADVP (RP (out)))(ADVP (RB (later)))(PP (IN (on)))(PP (TO (to)))(NP (NN (day))))) |ET| 
1  |BT| (ROOT (S (SBAR (IN (if)))(NP (PRP (it)))(VP (VBZ (hurt)))(NP (PRP (you)))(NP (DT (this))(JJ (much)))(ADVP (RB (then)))(NP (PRP (it)))(VP (MD (must))(VB (be)))(NP (NN (love))))) |ET| 
1  |BT| (ROOT (S (NP (CD (one))(NN (day)))(NP (PRP (she)))(VP (MD (will))(VB (tell)))(NP (PRP (you)))(SBAR (IN (that)))(NP (PRP (she)))(VP (VBZ (have))(VBN (have)))(ADVP (RB (enough)))(NP (VB (p))))) |ET| 
1  |BT| (ROOT (S (UCP (UH (wow)))(NP (PRP (i)))(VP (VBD (forget)))(NP (PRP$ (my))(NN (tie)))(NP (PRP$ (my))(NN (belt)))(VP (TO (to))(VB (work)))(NP (NN (today))))) |ET| 
-1  |BT| (ROOT (S (NP (DT (the))(JJ (slow))(VB (fade)))(PP (IN (of)))(NP (NN (love)))(NP (PRP$ (its))(JJ (soft))(NN (edge)))(VP (MD (might))(VB (cut)))(NP (PRP (you))))) |ET| 
-1  |BT| (ROOT (S (NP (PRP (i)))(VP (VBP (think)))(NP (NNP (kacee)))(VP (VBZ (be))(VBG (gon))(TO (na))(VB (be)))(NP (DT (a))(NN (crawler)))(ADVP (RB (soon))))) |ET| 
-1  |BT| (ROOT (S (ADVP (RB (only)))(SBAR (IN (that)))(PP (IN (in)))(NP (PRP (you)))(NP (WDT (which)))(VP (VBZ (be)))(NP (PRP (i)))(VP (MD (can))(VB (hear)))(NP (WP (what)))(NP (PRP (i)))(VP (VBP (be))(VBG (say))))) |ET| 
1  |BT| (ROOT (S (NP (DT (the))(JJS (best)))(VP (VBZ (be))(RB (yet))(TO (to))(VB (come))))) |ET| 
1  |BT| (ROOT (S (NP (PRP (i)))(VP (VBP (hate)))(NP (PRP (it)))(ADVP (WRB (when)))(NP (PRP (i)))(VP (VBP (have)))(NP (NN (gas)))(PP (IN (in)))(NP (DT (a))(NN (room)))(PP (IN (of)))(NP (DT (a))(NN (lot)))(PP (IN (of)))(NP (NNS (people))))(S (ADVP (JJ (okay))(RB (actually)))(NP (PRP (i)))(VP (VBP (love)))(NP (PRP (it))))(S (VP (VB (let)))(NP (DT (the))(NN (crop))(VBG (dust)))(VP (VB (begin))))(S (NP (NNP (ha)))(VP (NNP (ha)))(NP (VBP (ha)))(NP (NN (ha))))) |ET| 
1  |BT| (ROOT (S (NP (PRP (i)))(VP (VBP (know)))(NP (FW (i)))(VP (VBP (be))(VBG (talk)))(NP (NNS (lot))(CC (but))(FW (i)))(VP (MD (can))(VB (schedule)))(NP (PRP (you)))(PP (IN (in)))(VP (TO (to))(VB (talk)))(NP (JJ (next))(NN (week))))) |ET| 
-1  |BT| (ROOT (S (NP (DT (this))(NN (week)))(ADVP (RP (over))(RB (yet))))) |ET| 
-1  |BT| (ROOT (S (NP (RB (just)))(VP (VBD (pick)))(PRT (RP (up)))(NP (DT (a))(NN (bunch))(CC (or))(JJ (jumbo))(NNS (crab)))(PP (IN (on)))(NP (NN (sale)))(PP (IN (at)))(NP (NNP (captain)))(NP (POS ('s))(VBG (catch.getting)))(ADJP (JJ (ready)))(VP (TO (to))(VB (dig)))(PP (RP (in))))) |ET| 
-1  |BT| (ROOT (S (VP (VBZ (be))(VBG (make)))(NP (NN (banana))(NN (bread)))(NP (WDT (that)))(VP (VBZ (have)))(NP (RB (enough))(NN (butter)))(VP (TO (to))(VB (taste)))(ADVP (RB (really))(JJ (good))))) |ET| 
1  |BT| (ROOT (S (ADVP (RB (just)))(VP (VBD (make)))(NP (NN (dinner)))(PP (IN (for)))(NP (DT (the))(JJ (whole))(NN (family))))(S (VP (VB (hope)))(NP (PRP (they)))(VP (IN (like)))(NP (NN (turkey)))(NP (NN (yum))))) |ET| 
1  |BT| (ROOT (S (NP (NNP (hard)))(VP (VBD (fight)))(NP (DT (a)))(ADJP (RB (very))(JJ (un-brazilian)))(PP (IN (like)))(VP (VB (win)))(PP (IN (for)))(NP (DT (the))(CD (5))(NNS (time))(NN (champion))))(S (ADVP (RB (well)))(VP (VBD (play)))(NP (NNP (north))(NNP (korea))))) |ET| 
1  |BT| (ROOT (S (NP (PRP (i)))(VP (VBD (have)))(NP (VBN (such)))(NP (DT (a))(JJ (amazing))(NN (weekend))))(S (ADVP (RB (back)))(PP (TO (to)))(NP (DT (the))(JJ (real))(NN (world)))(PP (IN (of)))(NP (NNS (flag))(CC (and))(NNS (rifle))))) |ET| 
-1  |BT| (ROOT (S (NP (VBZ (there))(DT (no))(NN (rewinding)))(PP (IN (in)))(NP (NN (life))))(S (VP (VBD (get))(RB (ta))(VB (deal)))(PP (IN (with)))(NP (PRP (it)))(VP (VB (move)))(PP (RP (on))))) |ET| 
-1  |BT| (ROOT (S (NP (NNP (snow))(VBD (snow))(CC (and))(JJR (more))(NNS (snow))))(S (VP (VBG (note)))(PP (IN (like)))(NP (DT (the))(NNS (pocono))))) |ET| 
-1  |BT| (ROOT (S (NP (PRP (i)))(VP (VBD (like)))(SBAR (DT (that)))(NP (NN (history))(NN (exam))))(S (NP (PRP (it)))(VP (VBD (be)))(ADJP (RB (quite))(JJ (nice))))) |ET| 
1  |BT| (ROOT (S (NP (NN (summer))(NN (school)))(VP (VBZ (be))(VBG (go))(TO (to))(VB (be)))(ADJP (JJ (great))))) |ET| 
1  |BT| (ROOT (S (NP (NNP (knew))(DT (this)))(VP (VBD (be)))(NP (NNP (gunna)))(VP (NNP (happen.now)))(NP (PRP$ (its))(NNP (all))(VBG (add))(RP (up))))) |ET| 
1  |BT| (ROOT (S (NP (PRP$ (my))(NN (god)))(NP (DT (this))(NN (week)))(VP (VBZ (be)))(ADJP (JJ (busy))))) |ET| 
-1  |BT| (ROOT (S (VP (VBD (have)))(NP (CD (one))(NN (motherfucking)))(ADJP (JJ (crazy))))) |ET| 
-1  |BT| (ROOT (S (NP (NNP (tomorrow)))(VP (VBZ (be)))(NP (DT (the))(NN (day))))(S (NP (NNP (tomorrow)))(VP (VBZ (be)))(NP (DT (the))(NN (day))))) |ET| 
-1  |BT| (ROOT (S (NP (NNP (coffee)))(VP (VBZ (be)))(NP (RB (almost))(VBN (do))(NNP (brewing.you)))(VP (MD (can))(RB (not))(VB (take)))(NP (DT (a))(NN (cup))(NN (early.it)))(ADVP (RB (just)))(VP (VBZ (do))(RB (not))(VB (taste)))(NP (DT (the))(JJ (same))))) |ET| 
1  |BT| (ROOT (S (NP (NNP (absurdity))(CC (and))(NNP (paradox))(, (,))(NNP (insomnia))(CC (and))(NNP (hallucination)))(VP (VB (take)))(NP (PRP (it)))(ADVP (RP (away)))(VP (VB (leave)))(NP (PRP (i)))(PP (IN (with)))(NP (NN (serenity))))) |ET| 
1  |BT| (ROOT (S (NP (PRP (i)))(VP (VBD (have))(TO (to))(VB (turn)))(PRT (RP (down)))(NP (WP (what)))(NP (PRP (i)))(VP (MD (could))(VB (have)))(ADVP (NN (had.oh))(RB (well)))(NP (PRP (it)))(VP (MD (would))(VB (have))(VBN (be)))(NP (JJR (better))(NNS (anyway)))(PP (IN (with)))(NP (DT (a))(NN (mate))))) |ET| 
1  |BT| (ROOT (S (ADVP (RB (actually))(NNP (heather)))(NP (PRP (i)))(NP (VBP (can)))(VP (VB (survive)))(PP (IN (without)))(NP (DT (a))(NN (eyebrow))(NN (!!))))(S (NP (NNP (kayla))(NNP (rae))(NNP (brotherton))))) |ET| 
-1  |BT| (ROOT (S (NP (NN (ok))(FW (i)))(VP (VBP (be))(VBN (bore)))(PP (RP (out)))(PP (IN (of)))(NP (PRP$ (my))(NN (mind)))(ADVP (RB (now))))(S (ADVP (WRB (where)))(NP (PRP$ (my))(NNS (girl)))(PP (IN (at)))(NP (NN (tonight))))) |ET| 
-1  |BT| (ROOT (S (NP (NN (tomorrow)))(NP (PRP (i)))(VP (VBP (be))(VBG (go))(TO (to))(VB (get)))(PP (RP (out)))(PP (IN (of)))(NP (NN (bed)))(PP (IN (before)))(NP (NNS (2pm))))) |ET| 
-1  |BT| (ROOT (S (NP (WDT (what))(DT (a))(RB (utterly))(JJ (craptastic))(NN (day))(RB (yeasterday)))(VP (VBD (be))))(S (NP (NNP (today)))(VP (VBD (be)))(ADVP (RB (only))(RB (slightly)))(ADJP (JJR (better))))(S (NP (NN (nothing)))(VP (MD (could))(RB (possibly))(VB (top)))(NP (DT (the))(NN (loss)))(PP (IN (of)))(NP (PRP$ (we))(NNP (daisy))(NN (girl))))(S (NP (PRP$ (my))(NN (heart))(, (,))(NNS (thought))(CC (and))(NNS (prayer)))(VP (VBP (belong)))(PP (TO (to)))(NP (NNP (shannon))(CC (and))(NNP (jason))))(S (VP (NNP (love)))(NP (PRP (you))(NNS (guy))))) |ET| 
1  |BT| (ROOT (S (VP (VBG (feel)))(NP (DT (a))(JJ (little)))(ADJP (JJ (crazy)))(PP (IN (at)))(NP (DT (the))(NN (moment))))(S (NP (NNP (look))(NNP (out))(VBP (people))))) |ET| 
1  |BT| (ROOT (S (NP (DT (the))(NN (world)))(VP (VBZ (be)))(NP (PRP$ (yours))))) |ET| 
1  |BT| (ROOT (S (NP (DT (the))(NN (summer)))(VP (VBD (end)))(NP (CD (2)))(ADVP (RB (soon))))) |ET| 
-1  |BT| (ROOT (S (VP (VB (let)))(NP (PRP ('s)))(VP (VB (face)))(NP (DT (the))(NN (reality))))) |ET| 
-1  |BT| (ROOT (S (NP (VB (lay))(PRP$ (you))(NN (burden)))(ADVP (RP (down)))(VP (VB (let)))(NP (PRP (i)))(VP (VB (do)))(NP (DT (the))(NN (rest))))) |ET| 
-1  |BT| (ROOT (S (NP (DT (the))(NNP (world)))(NP (DT (a))(NN (vampire))))) |ET| 
1  |BT| (ROOT (S (NP (VB (im)))(VP (VBN (bore)))(PP (RP (out)))(PP (IN (of)))(NP (PRP$ (my))(NN (mind))))) |ET| 
1  |BT| (ROOT (S (NP (NN (day)))(PP (IN (by)))(NP (NN (day))(NN (life)))(VP (VBZ (be))(VBG (become)))(NP (NN (hell))))) |ET| 
1  |BT| (ROOT (S (NP (PRP (you)))(VP (VBP (know)))(NP (EX (there)))(VP (VBP (be)))(NP (CD (42))(CD (million)))(NP (JJR (more))(NNS (tractor)))(PP (IN (in)))(NP (NNP (farmville)))(PP (IN (than)))(PP (IN (on)))(NP (NNP (earth))))) |ET| 
-1  |BT| (ROOT (S (VP (VBD (have)))(NP (DT (a))(JJ (great))(NN (day)))(PP (IN (of)))(NP (NN (shopping)))(PP (IN (with)))(NP (PRP$ (my))(NNS (sister))))) |ET| 
-1  |BT| (ROOT (S (NP (JJ (happy))(JJ (46th))(NN (monthsary))(VBP (^_^))(NNP (francis))(NNP (sabangan))))) |ET| 
-1  |BT| (ROOT (S (VP (VBG (go))(TO (to))(VB (be)))(PP (IN (with)))(NP (NNP (chanelle))(NNP (fuller))(CC (&))(NNP (crys))(NNP (leann))(NN (toniqht))(VBP (:d)))(VP (NN (hmu))))) |ET| 
1  |BT| (ROOT (S (NP (DT (a))(RB (really))(JJ (gr8))(NN (day)))(VP (VB (thank)))(NP (PRP (you)))(NP (NNP (xd))(NN (xxx))))) |ET| 
1  |BT| (ROOT (S (PP (VBG (read)))(NP (DT (the))(NNP (apple))(NNP (way-12))(NNP (management))(NNP (lessons)))(PP (IN (from)))(NP (DT (the))(NNP (world)))(NP (POS ('s))(JJS (most))(JJ (innovative))(NN (company.interesting)))(ADVP (RB (so))(RB (far))))) |ET| 
1  |BT| (ROOT (S (VP (VBG (get)))(NP (DT (a))(NN (pedicure)))(NP (DT (the))(NN (lady)))(ADVP (JJ (next)))(PP (TO (to)))(NP (PRP (i)))(ADVP (RB (literally)))(VP (VBZ (have)))(NP (VBG (curl))(NN (toe))(NNS (nail))))) |ET| 
-1  |BT| (ROOT (S (NP (PRP (she)))(VP (VBZ (be)))(NP (NN (love))(CD (<))(CD (3))))) |ET| 
-1  |BT| (ROOT (S (NP (NNP (life)))(VP (VBZ (be))(VBG (confuse)))(NP (PRP (i)))(VP (VBP (guess)))(NP (IN (that)))(VP (VBZ (be)))(ADVP (WRB (why)))(NP (EX (there)))(VP (VBZ (be)))(NP (JJ (pancakes))))) |ET| 
-1  |BT| (ROOT (S (ADVP (RB (well)))(NP (FW (i)))(VP (VBD (get)))(NP (NN (sun))(JJ (burnt)))(NP (NN (today)))(PP (IN (at)))(NP (DT (the))(NN (park))))(S (NP (DT (this))(NN (sun)))(PP (VBD (isnt)))(NP (DT (a))(NN (joke)))(ADVP (RB (really)))(VP (VBG (feel)))(NP (PRP (it)))(ADVP (RB (now))))) |ET| 
1  |BT| (ROOT (S (VP (VBG (help)))(NP (PRP$ (my))(JJ (favorite))(NN (teacher)))(VP (VBP (go)))(PP (IN (through)))(NP (`` ("))(DT (the))(NNP (question))(NNP (box))('' ("))))(S (NP (JJ (6th))(NN (grade))(NN (science)))(NP (WP (what))(NN (fun))))) |ET| 
1  |BT| (ROOT (S (ADVP (UH (hey)))(VP (VB (guess)))(NP (WP (what))))(S (NP (NNP (xp))))) |ET| 
1  |BT| (ROOT (S (NP (CD (three))(NNS (thing)))(VP (VBP (follow)))(NP (DT (a))(JJ (dead))(NN (person)))(NP (NNS (member)))(PP (IN (of)))(NP (PRP$ (he))(NN (family)))(NP (PRP$ (he))(NNS (belongings)))(NP (PRP$ (he))(NNS (deed))))(S (NP (DT (the))(JJ (first))(CD (two)))(VP (VBP (come)))(ADVP (RP (back)))(NP (DT (the))(NN (third)))(VP (VBZ (remain)))(PP (IN (with)))(NP (PRP (he))))(S (PP (NNP ([)))(NP (NNP (bukhari))(CC (&))(JJ (muslim))))) |ET| 
-1  |BT| (ROOT (S (NP (NNP (happy))(NNP (birthday))(NNP (domascus))(NNP (orion))))(S (NP (DT (the))(NNP (big))(CD (14))))) |ET| 
-1  |BT| (ROOT (S (VP (VBG (find)))(NP (NNS (message)))(NP (PRP (you)))(VP (VBD (write)))(PP (TO (to)))(NP (PRP (yourself)))(NP (DT (a))(JJ (long))(NN (time)))(ADVP (RB (ago))))(S (NP (CC (and))(RB (not))(RB (quite))(VBG (remember)))(NP (WP (what)))(NP (PRP (they)))(VP (VBP (mean))))) |ET| 
-1  |BT| (ROOT (S (NP (NN (pizza))(CC (and))(NN (poetry))))(S (NP (WP (what)))(VP (VB (be)))(ADJP (JJR (better))))(S (VP (VB (hang)))(PRT (RP (out)))(PP (IN (with)))(NP (JJ (ex-cons)))(ADVP (JJ (only))(NNS (up)))(NP (DT (the))(NN (fun))(NN (factor))))) |ET| 
1  |BT| (ROOT (S (NP (DT (this))(PRP (i)))(VP (VBD (get)))(NP (NNP (ta))(NNP (see-jason))(NNP (aldean))(CD (<))(CD (3))))) |ET| 
1  |BT| (ROOT (S (VP (VBD (have)))(NP (NN (fun)))(PP (IN (with)))(NP (NNP (megan))(NNP (thomas)))(NP (NN (today))))(S (NP (PRP (she)))(VP (VBZ (suck)))(NP (JJ (ast))(JJ (squirrell))(NN (tag)))(VP (VBZ (be)))(ADVP (RB (still)))(NP (PRP (it))))) |ET| 
1  |BT| (ROOT (S (ADJP (JJ (happy)))(SBAR (IN (that)))(NP (PRP (it)))(VP (VBZ (be)))(NP (NNP (thursday)))(NP (NN (today)))(NP (CD (one))(JJR (more))(NN (sleep)))(UCP (NN (yipeee!then)))(NP (PRP (it)))(VP (VBZ (be)))(NP (NN (weekend))))) |ET| 
-1  |BT| (ROOT (S (NP (PRP (i)))(VP (VBP (be)))(ADJP (JJ (thankful)))(PP (IN (for)))(NP (DT (the))(JJ (weekend.but)))(NP (CD (2))(NNS (day)))(PP (IN (in)))(NP (NN (heaven)))(VP (RB (just))(JJ (aint))(VBG (gon))(TO (na))(VB (do))))) |ET| 
-1  |BT| (ROOT (S (ADVP (NNP (totally)))(VP (VBZ (suck)))(PP (IN (in)))(NP (NNP (starcraft))(CD (2))))(S (NP (PRP (i)))(VP (MD (should))(VB (think)))(ADVP (RB (twice))(IN (before)))(VP (VBG (challenge)))(NP (NNP (wafi))(CC (or))(NNP (richie))))) |ET| 
-1  |BT| (ROOT (S (NP (VB (feelin)))(UCP (POS (')))(ADJP (DT (all))(NN (right)))(PP (IN (in)))(NP (DT (the))(NN (noise)))(NP (DT (the))(NN (light)))(NP (WDT (that)))(VP (VBZ (be)))(NP (WP (what)))(VP (NNS (light)))(NP (PRP$ (my))(NN (firee))))) |ET| 
1  |BT| (ROOT (S (NP (DT (a))(JJ (incredible))(NNP (new))(NNS (year))(NNP (eve))))) |ET| 
1  |BT| (ROOT (S (NP (JJ (good))(NN (dinner))(CC (and))(NN (relaxation))))) |ET| 
1  |BT| (ROOT (S (NP (VBZ (need)))(VP (TO (to))(VB (get)))(PP (RP (on)))(PP (IN (with)))(NP (DT (the))(NN (ironing))))) |ET| 
-1  |BT| (ROOT (S (ADVP (NN (sooo)))(VP (VBN (tempt))(TO (to))(VB (start))(VBG (pack)))(ADVP (RB (now)))(VP (NN (haha))))) |ET| 
-1  |BT| (ROOT (S (VP (VBD (notice)))(SBAR (IN (that)))(NP (DT (a))(NN (fortune))(NN (cookie)))(VP (VBZ (look)))(PP (IN (like)))(NP (DT (the))(JJ (female))(NN (organ))))) |ET| 
-1  |BT| (ROOT (S (NP (JJ (last))(NN (day)))(PP (IN (of)))(NP (NN (winter)))(NP (PRP$ (its))(NN (snowing))))) |ET| 
1  |BT| (ROOT (S (VP (VB (follow)))(NP (DT (the))(NN (rhythm)))(VP (VB (keep)))(NP (PRP (it)))(NP (JJ (real))(NN (close))))(S (PP (IN (in)))(NP (DT (the))(NN (dark))(NN (everything)))(VP (VBZ (go))))) |ET| 
1  |BT| (ROOT (S (VP (VBZ (be)))(NP (DT (that))(NN (rain)))(NP (NN (snow)))(INTJ (DT (both))))(S (NP (MD (can))(RB (not)))(ADVP (RB (really)))(VP (NNS (tell.i))(VB (think)))(NP (FW (i)))(VP (MD ('ll))(VB (stay)))(ADVP (IN (inside)))(NP (RB (tonight))(DT (either))(NN (way))))) |ET| 
1  |BT| (ROOT (S (ADVP (RB (finally)))(VP (VBD (get))(TO (to))(VB (go)))(PP (TO (to)))(NP (DT (the))(NN (doctor)))(PP (IN (for)))(NP (DT (the))(NN (baby))))(S (NP (NNS (thing)))(VP (VBP (be))(RB (finally))(VBG (go)))(PP (IN (into)))(NP (NN (place))))(S (NP (PRP (i)))(VP (VBP (love)))(NP (PRP (she)))(ADVP (RB (so))(RB (much))))(S (NP (VB (muah))(NNP (ry'anne))))) |ET| 
-1  |BT| (ROOT (S (VP (VBZ (be)))(NP (NNP (sea))(NNP (sick))))(S (NP (NNP (burnt))))) |ET| 
-1  |BT| (ROOT (S (VP (VBZ (seem)))(SBAR (IN (that)))(NP (NN (loyalty))(CC (and))(NN (love)))(VP (MD (will))(RB (not))(VB (reward)))(NP (PRP (i))))(S (NP (NNP (time)))(VP (TO (to))(VB (move)))(PP (RP (on)))(PP (TO (to)))(NP (JJ (betrayal))(CC (and))(NN (hatred))(NNS (>)))(NP (NNP (d))))) |ET| 
-1  |BT| (ROOT (S (VP (VBG (look)))(ADVP (RB (forward)))(PP (TO (to)))(NP (DT (some))(NN (adventure)))(NP (DT (these))(JJ (next))(CD (three))(NNS (week))))(S (NP (VB (trip)))(PP (TO (to)))(NP (NNP (canada)))(PP (IN (for)))(NP (CD (one))))(S (ADVP (RBS (most))(RB (officially))))) |ET| 
1  |BT| (ROOT (S (ADVP (WRB (why)))(NP (NNS (people)))(ADVP (RB (never)))(VP (VB (satisfy)))(PP (IN (on)))(NP (WP (what)))(NP (PRP (they)))(VP (VBP (have))(VBN (????))))) |ET| 
1  |BT| (ROOT (S (NP (RB (just)))(VP (VBD (get)))(ADVP (RB (back)))(PP (IN (from)))(NP (NNP (nashua))(VBN (tire)))(PP (IN (as)))(NP (NN (fuck))(CC (and))(JJ (sore))))(S (NP (PRP (i)))(VP (VBD (get))(TO (to))(VB (see)))(NP (PRP$ (my))(NN (wifey)))(SBAR (IN (though)))(NP (JJ (hakuna)))(VP (NNS (:}))(VBP (~)))(NP (CD (9-28-10))(NNS (~))))) |ET| 
1  |BT| (ROOT (S (ADVP (RB (well)))(PP (VB (peoplei)))(NP (PRP$ (its))(NN (time)))(NP (LS (2)))(VP (VB (shut)))(NP (DT (the))(NNS (shuder)))(PP (IN (on)))(NP (NN (mi))(NNS (eye)))(VP (VB (luv)))(NP (PRP (ya))))) |ET| 
-1  |BT| (ROOT (S (PP (IN (on)))(NP (NNP (my))(NNP (way))(NNP (across)))(NP (DT (the))(JJ (country))))) |ET| 
-1  |BT| (ROOT (S (PP (JJ (o)))(NP (NN (monsoon))(NN (season)))(VP (VB (hurry)))(ADVP (RP (up)))(VP (VB (pass)))(PP (IN (by)))(NP (NN (singapore))))(S (NP (FW (i)))(VP (VBP (want)))(NP (PRP$ (my))(NN (sun)))(ADVP (VBP (back))))) |ET| 
-1  |BT| (ROOT (S (NP (NNP (haters))(NNP (can))(NNP (only))(VBP (hate)))(NP (DT (the))(NNP (things)))(PP (NNP (they)))(NP (NNP (cant))(NNP (have)))(NP (DT (the))(NNP (people)))(PP (NNP (they)))(NP (NNP (cant)))(VP (VB (be))))) |ET| 
1  |BT| (ROOT (S (VP (VBZ (be)))(VP (VBG (go)))(PP (TO (to)))(NP (NNP (cif))))) |ET| 
1  |BT| (ROOT (S (VP (VBZ (hate)))(NP (JJ (glasgow))(NN (weather))))) |ET| 
1  |BT| (ROOT (S (VP (VBZ (be))(VBG (look)))(ADVP (RB (forward)))(PP (TO (to)))(NP (NNP (february))))(S (NP (PRP (it)))(VP (MD (can))(RB (not))(VB (come)))(ADVP (RB (soon))(RB (enough))))) |ET| 
-1  |BT| (ROOT (S (VP (VBZ (be))(VBG (gon))(TO (na))(VB (go)))(ADVP (RB (back)))(PP (TO (to)))(NP (DT (the))(JJ (old))(PRP (he))))) |ET| 
-1  |BT| (ROOT (S (NP (DT (this)))(VP (VBZ (be)))(NP (PRP (it)))(NP (JJ (residential))(NN (school)))(VP (VBD (book)))(NP (NNP (nottingham)))(ADVP (RB (here)))(NP (PRP (i)))(VP (VBP (come))))) |ET| 
-1  |BT| (ROOT (S (VP (VBZ (be))(VBG (watch))(VBG (educate)))(NP (NN (rita))))(S (NP (JJ (classic))(NN (film)))(NP (PRP (it)))(VP (VBZ (be)))(ADVP (RB (too))))) |ET| 
1  |BT| (ROOT (S (PP (IN (off)))(NP (VBP (work)))(ADVP (RB (now))))(S (VP (MD (will))(RB (not))(VB (have)))(NP (NN (work)))(SBAR (IN (until)))(NP (DT (the))(NN (week)))(PP (IN (of)))(NP (DT (the))(NNS (3rd))))(S (NP (PRP (i)))(VP (VBP (have)))(NP (DT (a))(NN (lot)))(PP (IN (of)))(NP (NN (training)))(NP (DT (that))(NN (week)))(PP (NN (o))))) |ET| 
1  |BT| (ROOT (S (SBAR (RB (just)))(VP (VBP (want))(TO (to))(VB (give)))(NP (DT (a))(NN (shout)))(PP (RP (out)))(PP (TO (to)))(NP (PDT (all))(PRP$ (my))(NNS (peep)))(PP (IN (at)))(NP (NNP (ets))))(S (PP (IN (as)))(NP (DT (the))(NN (pretzel))(NNP (m))(CC (&))(NNP (m)))(NP (POS ('s)))(VP (VBP (be))(VBG (melt)))(PP (IN (in)))(NP (PRP$ (my))(NN (mouth))))) |ET| 
1  |BT| (ROOT (S (NP (NN (ashley)))(PP (IN (for)))(NP (JJ (real))(FW (i)))(VP (VBP (be)))(PP (IN (in)))(NP (NN (trouble)))(NP (WP (what)))(ADVP (RB (ever)))(PP (IN (at)))(NP (CD (402))(VBP (nw))(JJ (4th))))(S (VP (VB (punch)))(NP (PRP (i)))(NP (DT (the))(JJ (whole))(NN (deal))))) |ET| 
-1  |BT| (ROOT (S (NP (NNS (thanks)))(PP (TO (to)))(NP (NN (everyone)))(PP (IN (for)))(NP (DT (the))(NN (birthday)))(VP (NNS (wish))))) |ET| 
-1  |BT| (ROOT (S (VP (VB (come)))(NP (DT (another))(NN (day))))) |ET| 
-1  |BT| (ROOT (S (NP (WP (what)))(NP (VBZ (be))(DT (the))(NN (deal)))(PP (IN (with)))(NP (DT (the))(NNS (siren)))(VP (VBG (go)))(PRT (RP (off)))(PP (IN (in)))(NP (NNP (smyrna))))) |ET| 
1  |BT| (ROOT (S (NP (JJ (thinks))(JJS (best))(NN (character)))(PP (IN (in)))(NP (DT (the))(NNP (office)))(VP (VBZ (be)))(ADVP (RB (definitly)))(NP (JJ (creed))))) |ET| 
0.95383980228760922859265747320023  |BT| (ROOT (S (NP (PRP (you)))(NP (PRP (i)))(VP (VBP (collide))))(S (NP (NNP (whoo))(NNP (!!!!))))) |ET| 
1  |BT| (ROOT (S (NP (JJ (stupid))(NN (head)))(VP (NN (ache))))(S (NP (NNP (>))))) |ET| 
-1  |BT| (ROOT (S (NP (NNP (te))(NNP (deum)))(NP (PRP (i)))(VP (VBP (loathe)))(NP (JJ (thee))))(S (NP (PRP (i)))(VP (MD ('ll))(VB (like)))(NP (PRP (you)))(PP (IN (after)))(NP (NNP (wednesday))))) |ET| 
-1  |BT| (ROOT (S (NP (NNP (random)))(VP (NNS (act)))(PP (IN (of)))(NP (NN (kindness)))(ADVP (RB (still)))(VP (VBP (exsist))))(S (VP (VB (thank)))(NP (PRP (you)))(NP (NNP (god)))(VP (VB (bless)))(NP (PRP (you)))(NP (WP (whom)))(ADVP (RB (ever)))(NP (PRP (you)))(VP (VBP (be))))) |ET| 
-1  |BT| (ROOT (S (NP (NNP (imma)))(VP (VBP (need)))(NP (PRP (you)))(VP (TO (to))(VB (fix)))(NP (PRP (they)))(NP (JJ (high))(NNS (note))(NN (baby))))) |ET| 
0.85219526826769209648659852973651  |BT| (ROOT (S (NP (RB (yes)))(VP (VBD (finish)))(NP (NN (college)))(PP (IN (for)))(NP (DT (the))(NN (week))(NN (result))))) |ET| 
1  |BT| (ROOT (S (NP (DT (the))(JJ (only))(NN (thing)))(SBAR (DT (that)))(NP (NN (change)))(VP (VBZ (be)))(NP (DT (the))(NN (price)))(PP (IN (of)))(NP (NN (gold))))) |ET| 
1  |BT| (ROOT (S (NP (NN (music)))(VP (VBZ (be)))(NP (DT (the))(NN (reminder)))(SBAR (IN (that)))(NP (PRP (we)))(VP (VBP (be)))(NP (DT (the))(JJ (only))(NNS (thing)))(PP (IN (in)))(NP (DT (the))(NN (universe))))) |ET| 
-1  |BT| (ROOT (S (NP (NN (ti)))(VP (VBZ (be)))(PP (NN (wat)))(NP (PRP$ (my))(NN (head)))(VP (VBZ (contain)))(ADVP (NN (nw))))) |ET| 
-1  |BT| (ROOT (S (VP (VBD (get)))(NP (DT (the))(JJS (worst))(NN (hangover))(NN (rite)))(ADVP (RB (now))))(S (NP (JJ (great))(NN (nite))))) |ET| 
-1  |BT| (ROOT (S (NP (WP (whoever)))(VP (VB (bet)))(PP (IN (on)))(NP (NNP (england)))(VP (VBG (win)))(NP (DT (the))(NN (world))(NN (cup)))(VP (VBD (be)))(NP (DT (a))(NN (fool))))(S (NP (EX (there)))(VP (VBZ (go)))(NP (PRP$ (they))(NN (life))(NNS (savings))))) |ET| 
1  |BT| (ROOT (S (NP (PRP (they)))(VP (VBP (hate)))(NP (PRP (it)))(VP (VB (wen)))(NP (PRP (you)))(VP (VB (ask)))(NP (PRP$ (they))(NN (age))))) |ET| 
1  |BT| (ROOT (S (NP (PRP (i)))(ADVP (RB (still)))(VP (VBP (think)))(NP (FW (i)))(VP (VB (have)))(NP (NN (school))(NN (tommorow))))) |ET| 
1  |BT| (ROOT (S (SBAR (IN (if)))(NP (PRP (you)))(VP (VBP (want))(TO (to))(VB (be)))(NP (JJ (together)))(NP (PRP (you)))(ADVP (VBP (qot)))(NP (NN (to-get-her))))) |ET| 
-1  |BT| (ROOT (S (NP (PRP (i)))(VP (VBP (think)))(NP (DT (a))(JJ (good))(NN (tan)))(NP (DT (a))(JJ (long))(VBP (swim)))(VP (VBP (be)))(PP (IN (in)))(NP (NN (order)))(PP (IN (for)))(NP (NN (tomorrow))))) |ET| 
-1  |BT| (ROOT (S (NP (PRP (i)))(VP (VBP (think)))(NP (PRP (i)))(VP (VBP (need))(TO (to))(VB (make)))(NP (JJR (better))(NNS (choice)))(PP (IN (in)))(NP (NN (life))))) |ET| 
-1  |BT| (ROOT (S (NP (PRP (i)))(VP (VBP (be)))(ADJP (VBN (tire)))(PP (IN (of)))(VP (VBG (be)))(ADJP (JJ (allergic)))(PP (TO (to)))(NP (NN (everything))))) |ET| 
1  |BT| (ROOT (S (NP (NNP (<)))(NP (CD (3))(VBP (<))(CD (3))(VBP (<))(CD (3))(RB (almost))(CD (4))(NNS (year)))(NP (DT (this))(JJ (christmas.love)))(NP (PRP (you))(NN (baby))(CD (4))(NN (eva))(NN (n)))(PP (NN (allwayz)))(NP (NNP (:}))(NNP (<))(LS (3))(VBP (<))(CD (3))(VBP (<))(CD (3))))) |ET| 
1  |BT| (ROOT (S (NP (NN (chemistry))(NN (exam)))(ADVP (NN (tomorow.really)))(PP (RB (cbf)))(ADVP (RB (though)))(NP (NNP (l))))) |ET| 
1  |BT| (ROOT (S (NP (JJ (oooo))(NN (man)))(VP (JJ (hard)))(NP (NN (night)))(NP (JJ (last))(NN (night))))(S (VP (VB (thank)))(NP (PRP (you))(JJ (phil))))) |ET| 
-1  |BT| (ROOT (S (NP (NN (idk))(VBP (wat)))(VP (TO (to))(VB (do)))(VP (MD (should))(FW (i))(VB (try)))(ADVP (RB (again))(CC (or))(RB (just)))(VP (VB (let)))(NP (PRP (it)))(VP (VB (be))))(S (NP (FW (i)))(PP (RB (so)))(NP (JJ (dont)))(VP (VBP (want))(TO (to))(VB (get))(VBN (hurt)))(ADVP (RB (again))))) |ET| 
-1  |BT| (ROOT (S (SBAR (IN (if)))(NP (PRP (you)))(VP (MD (can))(RB (not))(VB (beat)))(NP (PRP ('em))(VBP (arrange)))(VP (TO (to))(VB (have)))(NP (PRP (they)))(VP (VBN (beat))))) |ET| 
-1  |BT| (ROOT (S (SBAR (IN (if)))(NP (VBP (u)))(ADVP (RB (still)))(PRT (RP (up)))(NP (JJ (lakers)))(ADVP (NN (jus)))(VP (VBD (take)))(NP (DT (the))(NN (lead))(CC (&)))(NP (PRP (we)))(VP (RB (not))(VBG (give)))(NP (PRP (it)))(ADVP (RB (back))))(S (NP (PRP$ (its))(NN (bout))(CD (2))(SYM (b))(NNP (mamba))(JJ (tyme))))) |ET| 
1  |BT| (ROOT (S (NP (NNP (cross))(NNS (finger)))(PP (IN (for)))(NP (PRP (i)))(VP (VBP (peeeze))))(S (NP (PRP (i)))(NP (POS ('))(NN (ma)))(VP (VBP (need)))(NP (DT (the))(NN (luck))))(S (NP (SYM (&))(NNS (heart))))) |ET| 
1  |BT| (ROOT (S (ADVP (IN (off)))(PP (TO (to)))(NP (VBG (hang))(NN (rock))))(S (PP (IN (for)))(NP (DT (a))(NN (picnic))))) |ET| 
1  |BT| (ROOT (S (NP (MD (can))(NN (someone)))(VP (VB (tell)))(NP (PRP (i)))(NP (WP (what)))(NP (DT (the))(NN (meaning)))(PP (IN (of)))(NP (NN (life)))(VP (VBZ (be))))) |ET| 
-1  |BT| (ROOT (S (NP (JJ (last))(NN (sbc)))(PP (IN (of)))(NP (DT (the))(NN (season))))) |ET| 
-1  |BT| (ROOT (S (VP (VB (set)))(NP (DT (the))(NNS (control)))(PP (IN (for)))(NP (DT (the))(NN (heart)))(PP (IN (of)))(NP (DT (the))(NN (sun))))) |ET| 
-1  |BT| (ROOT (S (NP (WP (who)))(VP (VBZ (be)))(PP (IN (for)))(PP (IN (against)))(SBAR (IN (for)))(NP (PRP (i)))(VP (TO (to))(VB (go)))(PP (TO (to)))(NP (NN (school))(NN (tomorow)))(PP (IN (with)))(NP (JJ (straight))(NN (hair))))) |ET| 
1  |BT| (ROOT (S (NP (VBD (need))(NN (something)))(VP (TO (to))(VB (do)))(VP (VBN (bore))))) |ET| 
1  |BT| (ROOT (S (NP (PRP$ (my))(JJ (ideal))(NN (self)))(VP (VBZ (be)))(ADJP (RB (too))(JJ (high)))(VP (TO (to))(VB (reach))))) |ET| 
1  |BT| (ROOT (S (NP (VBP (hate)))(VP (TO (to))(VB (be)))(ADJP (JJ (boring)))(NP (NN (today)))(NP (PRP (we)))(VP (VBP (be))(VBG (look)))(PP (IN (at)))(NP (RB (off))(JJ (white))(NNS (!!!))))) |ET| 
-1  |BT| (ROOT (S (NP (NNP (flurtatious))(NNP (smile))(CC (&))(JJ (unpredictabley)))(NP (NN (wild.that)))(VP (VBD (use))(TO (to))(VB (be)))(NP (PRP (i))))) |ET| 
-1  |BT| (ROOT (S (NP (NN (lovin))(DT (this))(NN (track)))(NP (VBP (>))(NN (u))(NN (dnt)))(VP (VBP (have)))(NP (CD (2))(SYM (b)))(ADVP (RB (alone))(CD (<))))) |ET| 
-1  |BT| (ROOT (S (NP (DT (the))(VBZ (star)))(PP (IN (at)))(NP (NN (night)))(NP (PRP (they)))(VP (VBP (be)))(ADJP (JJ (big)))(ADVP (JJ (bright.where)))(NP (PRP$ (my))(NN (xbox)))(VP (VBZ (be))))) |ET| 
1  |BT| (ROOT (S (NP (NNP (tired)))(PP (IN (of)))(NP (DT (the))(NNP (bullshit))))) |ET| 
1  |BT| (ROOT (S (NP (JJ (happy))(JJ (4th)))(PP (IN (of)))(NP (NNP (july))(NN (everyone))))) |ET| 
1  |BT| (ROOT (S (NP (JJ (good))(JJ (morniing)))(NP (NNP (friday))))(S (NP (PRP$ (my))(JJ (favorite))(NN (day)))(PP (IN (of)))(NP (DT (the))(NN (week))))) |ET| 
-1  |BT| (ROOT (S (NP (JJ (happy))(JJ (4th)))(PP (IN (of)))(NP (NNP (july))))) |ET| 
-1  |BT| (ROOT (S (NP (NN (nothing)))(PP (IN (like)))(NP (JJ (last))(NN (minute))(JJ (6th))(NN (form))(NN (shopping))))) |ET| 
-1  |BT| (ROOT (S (NP (VBG (help))(JJ (mum))(CC (and))(JJ (aunty))(NN (linda)))(PP (IN (with)))(NP (PRP$ (they))(VBG (clean))(NN (job))))(S (ADVP (NNP (better)))(VP (VBP (get)))(NP (PRP$ (my))(NN (cut))(NN (haha))))) |ET| 
1  |BT| (ROOT (S (VP (VBG (wonder)))(SBAR (IN (if)))(NP (PRP (i)))(VP (MD (will))(VB (like)))(NP (DT (the))(NNP (event.i))(VBP (miss))(NNP (lost)))(VP (VBP (need)))(NP (DT (a))(NN (replacement))))) |ET| 
1  |BT| (ROOT (S (NP (NN (history))(NN (revision)))(VP (VBZ (be)))(ADJP (VBG (looooong))))(S (ADVP (WRB (how)))(NP (PRP (i)))(VP (VB (remember)))(NP (WP (what)))(VP (VBD (happen))))(S (NP (PRP (i)))(VP (VBD (be)))(ADVP (RB (exactly))(EX (there)))(VP (VBD (be)))(NP (PRP (i))))) |ET| 
1  |BT| (ROOT (S (NP (NN (today)))(UCP (PRP (i)))(VP (VBP (be)))(ADJP (JJ (thankful)))(PP (IN (for)))(NP (PRP$ (my))(NN (mom))))(S (NP (PRP (she)))(VP (MD (may))(VB (be)))(NP (DT (a))(RB (little)))(ADJP (JJ (crazy)))(NP (PRP (she)))(VP (VBZ (keep)))(NP (PRP (i)))(UCP (JJ (sane))))) |ET| 
-1  |BT| (ROOT (S (VP (VBZ (be)))(NP (PRP (it)))(ADJP (JJ (possible)))(VP (TO (to))(VB (watch)))(NP (NNP (eclipse))(NN (online))))(S (NP (PRP (i)))(VP (VBP (have))(VBN (be))(VBG (try)))(PP (TO (to)))(NP (DT (no))(NN (avail))(NNP (:[))))) |ET| 
-1  |BT| (ROOT (S (NP (PRP (i)))(VP (NNP (really)))(NP (NNP (wish))(NNP (this))(NNP (cold))(NNP (would))(NNP (go))(NNP (away))))) |ET| 
-1  |BT| (ROOT (S (NP (VBN (start))(DT (the))(NN (day)))(PRT (IN (off)))(ADVP (NN (bad.o))(RB (well)))(NP (RB (just))(VBD (wish))(NN (family)))(VP (VBD (be)))(ADJP (JJ (mature)))(NP (PRP (i)))(VP (VBP (guess)))(NP (NN (age)))(ADVP (RB (really)))(VP (VBZ (be)))(NP (RB (just))(DT (a))(NN (number))))) |ET| 
1  |BT| (ROOT (S (PP (IN (before)))(VP (VBG (say)))(SBAR (DT (that)))(NP (NN (line))))) |ET| 
1  |BT| (ROOT (S (NP (JJ (first))(NN (day)))(PP (IN (of)))(NP (NNS (class))))(S (NP (JJ (physical))(NN (anthropology))(CC (and))(NN (archeology)))(PP (IN (at)))(NP (CD (9))(CC (and))(NN (intro)))(PP (TO (to)))(VP (VBG (draw)))(PP (IN (at)))(NP (CD (1))))) |ET| 
1  |BT| (ROOT (S (NP (VBZ (what))(JJ (easy)))(VP (VBG (be))(VBN (love)))(VP (VBG (be)))(PP (IN (in)))(NP (NN (love))))) |ET| 
-1  |BT| (ROOT (S (NP (PRP$ (its))(NNP (christmas))(CC (and))(FW (im)))(VP (VBG (sit)))(ADVP (RB (here)))(VP (VBG (read))))) |ET| 
-1  |BT| (ROOT (S (NP (VBP (im)))(ADVP (RP (back)))(PP (IN (in)))(NP (NNP (da))(NN (game))))(S (ADVP (RB (once))(RB (again))))(S (NP (VB (yay)))(VP (PRP (i))))) |ET| 
-1  |BT| (ROOT (S (VP (MD (could))(RB (not))(VB (have))(VBN (have)))(NP (NN (xma)))(PP (IN (than)))(NP (NN (today))(VBP (:d))(JJ (:d))(JJ (:d))))) |ET| 
1  |BT| (ROOT (S (NP (PRP (i)))(VP (VBP (hate)))(NP (NNP (facebook))(JJ (mobile))))(S (NP (PRP (i)))(VP (VBP (hate)))(NP (DT (this))(JJ (stupid))(NN (phone))))(S (NP (PRP (i)))(VP (VBP (hate))(VBG (have)))(NP (DT (no))(NN (internet))))(S (VP (VBG (go))(TO (to))(VB (kill)))(NP (PRP (myself)))(ADVP (RB (now))))) |ET| 
1  |BT| (ROOT (S (NP (PRP (i)))(VP (VBP (do))(RB (not))(VB (like)))(NP (DT (the))(NNS (runner))))) |ET| 
1  |BT| (ROOT (S (NP (PRP (it)))(VP (VBZ (be)))(PP (TO (to)))(NP (JJ (hot))))) |ET| 
-1  |BT| (ROOT (S (NP (PRP (it)))(VP (VBZ (be)))(NP (DT (the))(NN (load))(PRP (you))(RB (carry)))(NP (PRP (it)))(VP (VBZ (be)))(NP (DT (the))(NN (way)))(NP (PRP (you)))(UCP (VB (carry)))(NP (PRP (it))))(S (NP (NNP (lena))(NNP (horne))))) |ET| 
-1  |BT| (ROOT (S (INTJ (UH (oh)))(NP (NNP (emma))))(S (PP (IN (for)))(NP (DT (the))(NN (love)))(NP (PDT (all)))(UCP (DT (that)))(VP (VBZ (be)))(ADJP (JJ (good))))(S (NP (UH (please)))(VP (VB (let)))(NP (PRP (we)))(VP (VB (sleep))))) |ET| 
-1  |BT| (ROOT (S (NP (PRP (i)))(VP (VBP (have)))(NP (RB (only))(CD (13))(NNS (friend)))(VP (VBP (do)))(NP (PRP (i)))(VP (NN (suck)))(NP (WP (what))))) |ET| 
1  |BT| (ROOT (S (NP (NN (ok)))(NP (DT (this))(NN (soul)))(VP (VBG (drain)))(NP (NN (heat)))(VP (VBZ (need))(TO (to))(VB (go)))(ADVP (RP (away)))(NP (NNP (x.x))(NNP ([))(VBP (<))(CD (3))(NNP (matthew))(NNS (]))))) |ET| 
1  |BT| (ROOT (S (NP (RB (just))(VB (luven))(NN (life))(CC (and))(NN (da))(JJ (special))(NN (ppl)))(PP (IN (in)))(NP (NN (itt))(-LRB- (-lrb-)))(NP (JJS (most)))(PP (IN (of)))(NP (NN (em))))) |ET| 
1  |BT| (ROOT (S (NP (JJ (last))(JJ (midterm)))(NP (NN (today)))(ADVP (RB (then)))(NP (NN (spring))(VBP (break))))(S (NP (VBZ (let)))(ADVP (RB (just)))(VP (VB (get)))(NP (DT (this)))(PP (RP (over)))(PP (IN (with)))(NP (NNP (!!))))) |ET| 
-1  |BT| (ROOT (S (NP (DT (a))(NN (zygote)))(VP (VBZ (do))(RB (not))(VB (produce)))(NP (VBN (think))))) |ET| 
-1  |BT| (ROOT (S (PP (NNP (out)))(PP (TO (to)))(NP (NN (dinner)))(PP (IN (with)))(NP (DT (the))(NN (fam))(CD (2))(JJR (more))(NNS (day)))(PP (IN (of)))(NP (NN (vacation))))) |ET| 
-1  |BT| (ROOT (S (PP (IN (off)))(PP (TO (to)))(NP (NNP (corning)))(PP (IN (for)))(VP (VBP (surgery.wish)))(NP (PRP (i))(NN (luck))))) |ET| 
1  |BT| (ROOT (S (NP (PRP (you)))(VP (VBP (know)))(NP (PRP (i)))(VP (VBP (have))(TO (to))(VB (admit)))(NP (DT (a))(NN (sausage)))(NP (NN (egg))(CC (and))(NN (bacon)))(VP (VBP (be)))(ADJP (JJ (amazing))))) |ET| 
1  |BT| (ROOT (S (NP (PRP (i)))(VP (VBP (think)))(PP (FW (i)))(NP (NNP (od)))(PP (IN (on)))(NP (PRP$ (my))(NNS (brother)))(NP (RB (gummy))(JJ (vitamins))(NN (haha))))) |ET| 
1  |BT| (ROOT (S (NP (PRP (i)))(VP (VBP (be)))(NP (NNP (so))(NNP (thrilled))(NNP (oklahoma))(NNS (voter)))(VP (VBD (vote))(TO (to))(VB (have)))(NP (JJR (more))(NN (state))(NNS (question))))) |ET| 
-1  |BT| (ROOT (S (NP (NN (u)))(VP (VBD (tell)))(NP (NN (u)))(VP (MD (will))(VB (come))(CC (and))(NNS (didnt.i)))(NP (VBP (hate))(NN (u))))(S (NP (PRP$ (my))(JJ (dear))(NNS (sir.i)))(VP (VBP (be)))(ADJP (VBN (concern)))(PP (IN (about)))(NP (FW (uuu))(FW (:{))(FW (:{))))) |ET| 
-1  |BT| (ROOT (S (VP (VBZ (be)))(VP (VBG (love)))(NP (DT (the))(NN (bag)))(PP (IN (of)))(NP (NNP (york))(NNP (peppermint))(NNP (patties)))(SBAR (IN (that)))(NP (PRP (i)))(VP (VBD (buy)))(NP (NN (yesterday))))(S (VP (RB (just))(VB (walk)))(PP (RP (on)))(PP (IN (by)))(NP (DT (that))(JJ (stupid))(NN (halloween))(NN (candy))))) |ET| 
-1  |BT| (ROOT (S (PP (RB (about)))(VP (TO (to))(VB (get)))(ADJP (JJ (ready)))(VP (VB (hit)))(NP (DT (the))(NN (butterfly)))(VP (TO (to))(VB (finish))(VBG (film)))(NP (PRP$ (we))(NN (entertainment))(NN (piece.and)))(VP (VBP (get)))(NP (DT (some))(NNS (game)))(PP (IN (in)))(SBAR (NN (while)))(NP (PRP (we)))(PP (IN (at)))(NP (PRP (it))))) |ET| 
1  |BT| (ROOT (S (VP (VBZ (be))(VBG (die)))(NP (CD (4))(DT (a))(NN (game)))(PP (IN (of)))(NP (NNP (dota))))) |ET| 
1  |BT| (ROOT (S (NP (NN (softball)))(PP (IN (in)))(NP (DT (the))(NN (morning))))(S (NP (NN (football)))(PP (IN (in)))(NP (DT (the))(NN (afternoon))))(S (NP (WP (what)))(VP (MD (could))(VB (be)))(ADJP (JJR (better))))) |ET| 
1  |BT| (ROOT (S (NP (NNP (jimmy))(VBP (carr)))(PP (IN (on)))(NP (NN (tv))(CC (and))(RB (not)))(PP (IN (in)))(NP (DT (a))(NN (suit))))) |ET| 
-1  |BT| (ROOT (S (VP (VBZ (be)))(PP (IN (in)))(NP (NN (need)))(PP (IN (of)))(NP (DT (some))(JJ (recreational))(NN (soul))(VBG (search))))) |ET| 
-1  |BT| (ROOT (S (NP (NNP (du)))(NP (POS ('s))(-LRB- (-lrb-))(NN (grandson))(-RRB- (-rrb-))(NN (band))(NN (concert))(NN (tonight)))(PP (IN (at)))(NP (NNP (panama))(NNP (school))))) |ET| 
-1  |BT| (ROOT (S (NP (NNP (basketball)))(NP (NNP (vbs)))(NP (DT (all))(NN (week))))) |ET| 
1  |BT| (ROOT (S (ADVP (RB (well)))(NP (FW (i)))(VP (MD (can))(RB (not))(VB (compete)))(PP (IN (with)))(NP (DT (that))))(S (NP (FW (i)))(VP (MD ('ll))(VB (give)))(NP (PRP$ (my))(PDT (all)))(ADVP (RB (sometimes)))(NP (PRP$ (its))(RB (not))(RB (enough))))) |ET| 
1  |BT| (ROOT (S (NP (NNS (secret)))(PP (IN (of)))(NP (DT (the))(NN (heart)))(VP (VBG (tear)))(NP (PRP$ (my))(NN (life)))(PRT (RB (apart))))(S (NP (PRP$ (its))(RB (too))(JJ (hard)))(PP (TO (to)))(NP (VBZ (express)))(NP (FW (i)))(VP (VBP (wish)))(NP (PRP (you)))(NP (DT (all))(NN (life)))(NP (POS ('s))(NN (success))))) |ET| 
1  |BT| (ROOT (S (PP (NNP (destiny)))(NP (NNP (heree)))(NP (NNP (hackin)))(NP (POS ('))(NNP (the))(NNP (bro))(NNP (page))))(S (NP (NN (ily))(VBD (bro))))(S (NP (NNP (even))(NNP (though))(NNP (yhu))(VB (get)))(PP (RP (on)))(NP (NNP (my))(NNP (nerves))))) |ET| 
-1  |BT| (ROOT (S (ADVP (RB (really))))(S (NP (FW (i)))(ADVP (RB (still)))(VP (VBZ (have)))(NP (DT (a))(JJ (tummyache))))(S (NP (JJ (sad))(NN (panda))))) |ET| 
-1  |BT| (ROOT (S (PP (RB (just)))(ADJP (VBP (relazy-ing)))(PP (IN (around)))(NP (DT (the))(NN (house)))(PP (IN (with)))(NP (JJ (other))(NNS (relazer))))(S (ADVP (WRB (why)))(VP (VBP (be)))(NP (PRP (you)))(ADVP (RB (here)))(VP (VBG (be)))(ADJP (RB (relazy)))(PP (IN (with)))(NP (PRP (i))))) |ET| 
-1  |BT| (ROOT (S (VP (VBG (go)))(PP (TO (to)))(NP (VB (work))(NN (now.won))(POS ('))(NN (t)))(VP (VB (be)))(ADJP (RP (out)))(PP (IN (until)))(NP (JJ (late))(NN (tonight.text)))(NP (DT (the))(NN (cell)))(NP (PRP (it)))(VP (POS ('s)))(NP (NN (love))(VBP (<))(CD (3))))) |ET| 
1  |BT| (ROOT (S (VP (VBZ (be)))(ADJP (RP (off)))(PP (TO (to)))(NP (NN (bed))(CD (<)))(LST (CD (3))))) |ET| 
1  |BT| (ROOT (S (VP (VBZ (feel)))(NP (DT (all))(JJ (funny))(CC (and))(JJ (whatnot))))) |ET| 
1  |BT| (ROOT (S (VP (VBZ (think)))(NP (NNP (frankie))(NNP (boyle)))(VP (VBZ (be)))(ADJP (JJ (funny))))) |ET| 
-1  |BT| (ROOT (S (VP (VBZ (be)))(NP (DT (a))(JJ (absolute))(NN (failure))))) |ET| 
-1  |BT| (ROOT (S (NP (PRP$ (its))(NN (raining))(PRP$ (its))(VBG (pour)))(NP (DT (the))(JJ (old))(NN (man)))(VP (VBZ (be))(VBG (snore))))) |ET| 
-1  |BT| (ROOT (S (NP (DT (the))(NNP (future)))(VP (VBZ (be)))(NP (NNP (lookin))(NNP (so))(NNP (much))(NNP (brighter))))) |ET| 
1  |BT| (ROOT (S (NP (PRP (it)))(VP (VB (be)))(NP (NNP (july)))(ADVP (RB (now))))(S (NP (NNP (hp)))(VP (VBD (be)))(NP (RB (so))(JJ (good))))(S (NP (NNP ([))(NNP (<))(CD (3))(NNP (matthew))(NNP (]))))) |ET| 
1  |BT| (ROOT (S (NP (NNS (there)))(ADVP (RB (still)))(VP (NN (tomorrow))(VB (forget)))(NP (DT (the))(NN (sorrow))(NN (-lrb-))))) |ET| 
1  |BT| (ROOT (S (VP (VBZ (have))(VBN (make)))(NP (PRP (it)))(VP (TO (to))(NNP (lucknow)))(PP (IN (in)))(NP (NN (time)))(PP (IN (for)))(NP (NNP (pain)))(PP (IN (of)))(NP (NNP (salvation)))(NP (NNP (tunde))(NNP (kebabs))))) |ET| 
-1  |BT| (ROOT (S (NP (DT (this)))(VP (VBZ (be)))(NP (PRP$ (my))(JJ (first))(NNP (pirates))(NN (game)))(PP (IN (since)))(NP (CD (1986))))(S (NP (-LRB- (-lrb-)))(VP (VB (believe)))(NP (PRP (it))))(S (NP (PRP (i)))(VP (VBP (seem))(TO (to))(VB (be))(VBG (mess)))(NP (NNS (thing)))(PRT (RP (up)))(PP (IN (for)))(NP (PRP (they))))) |ET| 
-1  |BT| (ROOT (S (NP (RB (hate)))(ADVP (WRB (when)))(NP (NNP (ppl)))(VP (VB (say)))(NP (PRP$ (they))(NN (gon)))(VP (TO (na))(VB (do)))(ADVP (NNP (somethin')))(NP (NNP (nd)))(ADVP (RB (never)))(VP (VB (do)))(NP (PRP (it))))) |ET| 
-1  |BT| (ROOT (S (VP (VBD (get)))(NP (PRP$ (my))(NN (homecoming))(NN (dress))(-LRB- (-lrb-)))(NP (JJ (ughh))(NN (n))(VBP (im)))(VP (VBN (tire))))(S (VP (VBD (have))(TO (to))(VB (walk))(TO (to))(VB (skool)))(NP (DT (this))(NN (morning))))) |ET| 
1  |BT| (ROOT (S (NP (DT (the))(NNP (south)))(VP (VBZ (be)))(NP (DT (the))(JJ (phanny))(NN (pack)))(PP (IN (of)))(NP (DT (the))(NNP (unnited))(NNPS (states))))) |ET| 
1  |BT| (ROOT (S (NP (CD (9-3))(NN (!!!!!))))(S (NP (DT (the))(NN (end)))(PP (TO (to)))(NP (DT (a))(JJ (great))(NN (weekend)))(NP (DT (the))(NN (begining)))(PP (IN (of)))(NP (DT (a))(JJ (great))(NN (week))))) |ET| 
1  |BT| (ROOT (S (VP (VBZ (have))(JJ (baked)))(NP (DT (some))(NNS (cake)))(VP (VBD (realise)))(NP (PRP (she)))(VP (VBZ (be)))(NP (DT (a))(JJ (natural))(NN (baker))))) |ET| 
-1  |BT| (ROOT (S (VP (VBG (look)))(ADVP (RB (forward)))(PP (TO (to)))(NP (DT (the))(NN (weekend))))) |ET| 
-1  |BT| (ROOT (S (PP (TO (to)))(NP (DT (the))(NN (windowwwwwwwwwwwwwwwwww)))(PP (TO (to)))(NP (DT (the))(NN (waaaaaall))))(S (NP (VBD (<))(CD (3))))) |ET| 
-1  |BT| (ROOT (S (NP (PRP (i)))(VP (VBP (be)))(NP (PDT (half))(JJ (baked))(IN (like))(DT (that))(NN (guy)))(PP (IN (on)))(NP (DT (the))(NN (couch))))) |ET| 
1  |BT| (ROOT (S (NP (PRP (i)))(VP (VBP (be))(VBN (exhaust)))(PP (IN (as)))(NP (NN (hell)))(NP (NNP (ap))(NNP (testing)))(VP (VBZ (be))(RB (finally))(VBN (do)))(NP (PRP (i)))(VP (VBD (see)))(NP (NNP (thor))))(S (NP (SYM (=))(NNP (d))))) |ET| 
0.97961764780892202075790464732563  |BT| (ROOT (S (ADVP (RB (actually)))(VP (VB (burbt)))(NP (PRP (myself)))(PP (IN (like)))(NP (CD (5))(NNS (time)))(PP (IN (with)))(NP (PRP$ (my))(NN (straighteners.think))(NN (tht)))(VP (VBZ (mean))(RB (im)))(NP (RB (too))(JJ (drunk))(NN (tro))(VB (uase)))(NP (PRP (they))))) |ET| 
1  |BT| (ROOT (S (NP (PRP (i)))(VP (VBP (try)))(NP (DT (every))(NN (day)))(VP (TO (to))(VB (cherish)))(NP (DT (every))(NN (moment)))(VP (VB (love)))(NP (DT (every))(NN (memory)))(VP (VB (embrace)))(NP (DT (every))(NN (possibility))))(S (NP (PRP (you)))(VP (MD (should)))(ADVP (RB (too))))) |ET| 
-1  |BT| (ROOT (S (NP (`` ("))(NN (bordem)))(VP (VBZ (be))(VBG (drive)))(NP (DT (this))(NN (one))(JJ (insane))))(S (NP (VBD (say))(NN (doctor))(NN (number))(CD (1))(`` (")))(VP (VB (take)))(NP (NN (note)))(PP (IN (of)))(NP (PRP (he)))(NP (PRP$ (he))(NN (name)))(VP (VBZ (be)))(NP (NNP (patrick))(NNP (fallon))))(S (NP (VBD (say))(NN (doctor))(NN (number))(CD (2))(NN (hahaha))))) |ET| 
-1  |BT| (ROOT (S (NP (`` ("))(NNP (michael))(NNP (vick)))(ADVP (RB (once)))(VP (VBD (electrocute)))(NP (NNS (dog))))(S (ADVP (RB (now)))(NP (PRP (he)))(VP (VBZ (be)))(NP (DT (the))(RBS (most))(JJ (electric))(NN (player)))(PP (IN (in)))(NP (DT (the))(NNP (nfl))))(S (ADVP (NNP (uh)))(NP (WP (what))))) |ET| 
-1  |BT| (ROOT (S (NP (NNS (hangin)))(ADVP (RB (soon)))(PP (IN (with)))(NP (RB (pretty))(RB (much)))(NP (DT (the))(CD (two))(JJ (awesomest))(NNS (kid)))(ADVP (RB (ever)))(ADVP (VBP (nbd))))(S (NP (NNP (yuup)))(NP (NNP (austin))(NNP (robertson))(CC (&))(NNP (weerasinghe))(NNP (dylan))))) |ET| 
1  |BT| (ROOT (S (VP (VBG (go)))(ADVP (RP (back)))(PP (IN (into)))(NP (DT (the))(NN (cold))))) |ET| 
1  |BT| (ROOT (S (NP (JJ (black))(CC (and))(JJ (yellow)))(NP (PDT (all))(DT (the))(NN (way))(NNS (steeler)))(VP (VBP (be))(VBG (go))(TO (to))(VB (win)))(NP (DT (the))(NN (superbowl))))) |ET| 
1  |BT| (ROOT (S (VP (VBZ (be))(VBG (start))(TO (to))(VB (resent)))(NP (DT (the))(JJ (senior))(NN (research))(NN (project))))) |ET| 
-1  |BT| (ROOT (S (VP (VBP (do)))(PP (VB (like)))(NP (DT (the))(NN (rain))(CC (and))(JJ (cold))(NN (weather)))(NP (NN (today))))) |ET| 
-1  |BT| (ROOT (S (NP (PRP (i))(VBP (like))(DT (the))(NNS (renovation))))) |ET| 
-1  |BT| (ROOT (S (VP (`` ("))(VB (get)))(PP (IN (in)))(NP (DT (the))(NN (bowl)))(NP (PRP (you)))(VP (VBP (get)))(PP (IN (in)))(NP (DT (the))(NN (bowl))('' ("))(NN (haha)))(PP (FW (i)))(NP (NN (love))(VBP (tht))(JJ (commercial))))) |ET| 
1  |BT| (ROOT (S (PP (IN (on)))(NP (DT (the))(NN (phone)))(PP (IN (with)))(NP (NNP (olga))(CC (&))(NNP (madina))))(S (NP (VBD (<))(CD (3))))) |ET| 
1  |BT| (ROOT (S (NP (UH (hey))(WP (whoever)))(VP (MD (can))(VB (turn)))(NP (JJ (ur))(NN (tv)))(PP (TO (to)))(NP (DT (the))(NNP (ellen))(NNP (show)))(VP (TO (to))(VB (see)))(NP (DT (the))(JJ (musical))(NN (guest))))(S (NP (VB (ur)))(PP (RP (in)))(PP (IN (for)))(NP (DT (a))(JJ (real))(NN (treat))))) |ET| 
1  |BT| (ROOT (S (NP (JJ (sick)))(PP (IN (of)))(VP (NN (b)))(NP (PRP$ (its))(PRP (i)))(PP (IN (against)))(NP (JJ (tha))(NN (world))(NN (rite)))(ADVP (RB (now)))(NP (JJ (fuk))(NNS (friend))))) |ET| 
-1  |BT| (ROOT (S (VP (VBG (go)))(PP (TO (to)))(NP (VB (get))(JJ (rid)))(PP (IN (of)))(NP (DT (all))(PRP$ (my))(JJ (horticulture/landscaping))(NNS (book))))(S (NP (DT (that))(NN (part)))(PP (IN (of)))(NP (PRP$ (my))(NN (life)))(VP (VBZ (be)))(ADVP (RP (over))))) |ET| 
-1  |BT| (ROOT (S (NP (NNP (so))(JJ (tired)))(PP (IN (of)))(NP (NNP (people))(NNP (sayin))(NNP (smart))(NNP (ass))(NNP (lil))(NNP (comments))))(S (SBAR (IN (if)))(NP (NNP (u))(VBP (have))(VBZ (something))(TO (to))(NNP (say))))(S (NP (VB (be))(DT (a))(NNP (adult))(NNP (about))(NNP (it))(CC (and))(NNP (not))(NNP (a))(NNP (lil))(NNP (kid))))(S (NP (NNP (time)))(VP (TO (to)))(NP (VB (grow))(RP (up))))) |ET| 
-1  |BT| (ROOT (S (NP (JJS (best))(NN (part)))(PP (IN (of)))(NP (NNP (high))(NNP (school)))(ADVP (NN (orientation.when)))(NP (DT (the))(NN (girl)))(VP (VBD (say)))(SBAR (DT (that)))(NP (PRP (we)))(VP (MD (can))(VB (use)))(NP (DT (the))(NNS (phone)))(PP (IN (during)))(NP (NN (school))(NNS (:}))))) |ET| 
1  |BT| (ROOT (S (VP (NNP (damn)))(ADVP (RB (just)))(NP (DT (the))(RBS (most))(JJ (baddest))(NN (female))(VBP (walk)))(PP (RP (by))))) |ET| 
1  |BT| (ROOT (S (VP (VB (rock)))(NP (DT (the))(CD (three))(NNS (musketeer))(NN (shirt)))(NP (NN (today))))) |ET| 
1  |BT| (ROOT (S (UCP (`` ("))(NN (man)))(NP (WP (who)))(NP (DT (the))(NN (hell)))(VP (VBD (shave)))(SBAR (IN (that)))(NP (NN (wombat))))) |ET| 
-1  |BT| (ROOT (S (NP (FW (i)))(VP (VBD (fight)))(NP (DT (the))(NN (law)))(NP (DT (the))(NN (law)))(VP (VBD (win))))) |ET| 
-1  |BT| (ROOT (S (NP (DT (the))(NNS (body))(NN (exhibit)))(VP (VBD (be)))(ADJP (JJ (super))(JJ (awesome))))) |ET| 
-1  |BT| (ROOT (S (VP (VB (meet)))(NP (DT (the))(JJ (fockers))(NN (op))(NN (tv))(NN (yay))))) |ET| 
1  |BT| (ROOT (S (PP (IN (with)))(NP (NNP (kamarra)))(NP (NNP (chanelle))))(S (NP (PRP$ (my))(NN (sister))(CC (and))(NN (brother))))(S (NP (NN (mom))(CC (and))(NN (grandma))))(S (NP (PRP (we)))(PP (RB (about)))(PP (TO (to)))(NP (VB (have))(NN (fun))))) |ET| 
0.94532289682667758334844165801769  |BT| (ROOT (S (VP (VBZ (be)))(NP (NN (missin))(NNP (nic))))(S (VP (VBP (do)))(VP (VB (have)))(NP (NN (anything)))(VP (TO (to))(VB (do)))(NP (JJ (2day))))(S (NP (VB (text)))(VP (PRP (i)))(ADVP (RB (ppl))))(S (NP (NNP (luv)))(ADVP (VBP (u))(DT (all))))(S (NP (PRP (i)))(VP (VBP (luv)))(NP (NNP (u))(NNP (nic))))) |ET| 
1  |BT| (ROOT (S (NP (`` ("))(CD (one))(NN (thing)))(NP (PRP (i)))(VP (VBP (like)))(PP (RB (about)))(NP (VBZ (stone))))(S (NP (PRP (they)))(VP (VBP (come)))(PP (IN (in)))(NP (PRP$ (my))(NN (waybutonce)))(NP (PRP (i)))(VP (VBP (pass)))(NP (PRP (they)))(NP (PRP (they)))(ADVP (RB (automatically)))(VP (VB (become)))(NP (PRP$ (my))(NNS (milestone))))(S (NP (NNP (direction)))(VP (VBZ (be)))(NP (VBN (imp))(RB (not))(NN (speed))))) |ET| 
-1  |BT| (ROOT (S (PP (IN (on)))(NP (NN (top)))(PP (IN (of)))(NP (DT (the))(NN (world))))(S (NP (PRP (i)))(VP (MD (must))(VB (say)))(NP (PRP (i)))(VP (VBP (love)))(NP (PRP$ (my))(NN (webook))(NNS (peep))(RB (lol))))(S (NP (PRP (they)))(VP (VBP (make)))(NP (PRP$ (my))(NN (heart)))(VP (VB (swell)))(PP (IN (with)))(NP (NN (pride))))) |ET| 
-1  |BT| (ROOT (S (NP (NNP (wet))(CC (and))(NNP (hard))))(S (NP (NNP (>))))) |ET| 
-1  |BT| (ROOT (S (NP (MD (can))(RB (not))(VB (wait)))(VP (TO (to))(RB (finally))(VB (try)))(NP (NN (rock)))(VP (VBG (climb)))(PP (IN (on)))(NP (NNP (friday))))) |ET| 
1  |BT| (ROOT (S (ADVP (RB (just)))(VP (VBD (finish)))(NP (DT (the))(NNP (susan))(NNP (komen))(NN (race)))(PP (IN (for)))(NP (DT (the))(NN (cure))))) |ET| 
1  |BT| (ROOT (S (VP (VBD (go)))(PP (TO (to)))(NP (DT (the))(NN (zoooooooooooo))))) |ET| 
1  |BT| (ROOT (S (NP (DT (the))(JJS (best))(NN (night)))(VP (VBG (hang)))(PRT (RP (out)))(PP (IN (with)))(NP (PRP$ (my))(NNS (kid))))) |ET| 
-1  |BT| (ROOT (S (NP (VBZ (need)))(VP (TO (to))(VB (stay)))(PRT (RP (off)))(NP (NN (fb)))(PP (IN (for)))(NP (DT (a))(NN (while))))) |ET| 
-1  |BT| (ROOT (S (NP (DT (the))(NN (truth)))(VP (VBZ (come)))(PRT (RP (out))))) |ET| 
-1  |BT| (ROOT (S (NP (CD (9))(NNS (week)))(VP (TO (to))(VB (go))))) |ET| 
1  |BT| (ROOT (S (NP (NNP (finally))))(S (NP (VBD (refund))(NNP (day))))) |ET| 
1  |BT| (ROOT (S (NP (NNP (dance))(NNP (tonight))))(S (NP (NNP (d))))) |ET| 
0.90074502024782321374374305378296  |BT| (ROOT (S (NP (NNP (please))(NNP (lord))))(S (NP (NNP (help))(NNP (my))(VBD (throat))(TO (to))(NNP (feel))(NNP (better))))) |ET| 
-1  |BT| (ROOT (S (NP (NNP (hackkkk))))(S (NP (NNP (by))(DT (the))(NNP (amazing))(NNP (lillain))))(S (NP (PRP (i))(VBP (lover)))(NP (PRP (you))(NNP (momma))))(S (NP (NNP (=]))(NNP (]))(NNP (]))(NNP (]))(NNP (]))))) |ET| 
-1  |BT| (ROOT (S (NP (VBZ (wish))(NNP (sarah))(DT (a))(RB (very))(JJ (happy))(JJ (21st))))(S (SBAR (IN (that)))(NP (PRP (she)))(VP (VBD (have)))(NP (DT (a))(JJ (good))(NN (time)))(NP (NN (tonight))))) |ET| 
-1  |BT| (ROOT (S (NP (PRP (i)))(VP (VBP (see)))(NP (NNP (india)))(PP (NNP (win)))(NP (DT (the))(NN (world))(NNP (cup))))(S (NP (NNP (yahoooooo))))) |ET| 
1  |BT| (ROOT (S (VP (VBZ (be)))(NP (DT (a))(NN (idiot))))) |ET| 
1  |BT| (ROOT (S (NP (FW (i)))(VP (VB (think)))(NP (NN (im)))(VP (VBG (fuck)))(ADVP (VBN (bore))))) |ET| 
1  |BT| (ROOT (S (VP (VBG (sit)))(PP (IN (in)))(NP (DT (the))(NN (hotel)))(PP (IN (at)))(NP (NN (work))(VBG (wish))(FW (i)))(VP (MD (could))(VB (go)))(ADVP (NN (home))))) |ET| 
-1  |BT| (ROOT (S (VP (VBZ (be)))(ADVP (RB (really)))(VP (VBG (get)))(PP (IN (into)))(NP (DT (this))(VBG (farm))(NN (lark))))) |ET| 
-1  |BT| (ROOT (S (VP (VBZ (be)))(VP (VBG (watch)))(NP (CD (one))(NN (tree))(NN (hill)))(PP (IN (with)))(NP (NN (gazaa))))) |ET| 
-1  |BT| (ROOT (S (NP (JJ (black))(CC (and))(JJ (yellow)))(VP (VBZ (be)))(PP (IN (about)))(NP (NNS (bee))))) |ET| 
1  |BT| (ROOT (S (NP (RB (hailey)))(NP (UH (oh)))(NP (PRP (i)))(VP (VBP (see))))(S (NP (NNP (lol))(DT (the))(NN (conversation)))(VP (VBD (get)))(SBAR (NN (funnier.but)))(NP (PRP (i)))(VP (VBP (have))(TO (to))(VB (study))))) |ET| 
1  |BT| (ROOT (S (NP (PRP (i)))(VP (VBP (be)))(NP (NN (nothing)))(PP (IN (without)))(NP (NNP (u))(NNP (god))))) |ET| 
1  |BT| (ROOT (S (NP (PRP (i)))(VP (VBP (think)))(NP (NNPS (winter)))(VP (VBZ (have))(RB (finally))(VBN (hit)))(NP (NNP (georgia))))(S (NP (NNS (low)))(ADVP (WRB (where)))(NP (PRP (we)))(VP (VBP (live)))(VP (VBP (be)))(PP (IN (in)))(NP (DT (the))(NNS (teens)))(NP (DT (the))(NNS (high)))(VP (VBP (be)))(PP (IN (in)))(NP (DT (the))(NNS (30))))(S (SBAR (IN (before)))(NP (PRP (i)))(VP (VBD (move)))(PP (TO (to)))(NP (NNP (georgia)))(NP (PRP (i)))(VP (VBD (use))(TO (to))(VB (think)))(NP (PRP (it)))(VP (VBD (stay)))(ADJP (JJ (warm)))(ADVP (RB (here))))) |ET| 
-1  |BT| (ROOT (S (ADVP (RB (always)))(VP (VB (watch)))(NP (NNP (dr.))(NNP (oz)))(NP (JJ (tyra))(NNS (bank)))(NP (PRP (i)))(VP (VBP (head))(TO (to))(VB (work))))) |ET| 
-1  |BT| (ROOT (S (NP (NNP (bitch))(NNP (i)))(NP (POS ('))(NN (ma)))(VP (VBP (pick)))(NP (DT (the))(NN (world)))(ADVP (RP (up)))(NP (PRP (i)))(NP (POS ('))(NN (ma))(VBP (drop)))(NP (PRP (it)))(PP (IN (on)))(NP (NNP (yo)))(NP (POS ('))(JJ (fuckin))(NN (head))))) |ET| 
-1  |BT| (ROOT (S (ADVP (RB (not)))(SBAR (IN (that)))(NP (PRP (i)))(VP (VBP (be))(VBG (complain)))(ADVP (WRB (why)))(NP (DT (the))(NNS (kid)))(VP (VB (have)))(NP (DT (a))(NN (snow))(NN (day)))(NP (NN (today)))(ADVP (RB (exactly))))) |ET| 
1  |BT| (ROOT (S (NP (NNP (procrasination)))(VP (VBZ (be)))(NP (JJ (awesome))(NN (:}))))) |ET| 
1  |BT| (ROOT (S (VP (VBZ (be)))(VP (VBG (stress)))(NP (NN (outtt))))) |ET| 
1  |BT| (ROOT (S (NP (EX (there)))(VP (VBZ (be)))(NP (NN (nothing)))(ADJP (JJ (good))(CC (or))(JJ (bad)))(VP (VBG (think)))(VP (VBZ (make)))(NP (PRP (it)))(ADVP (RB (so)))(NP (NNP (shakespeare))))) |ET| 
-1  |BT| (ROOT (S (VP (VBZ (be)))(VP (VBG (miss)))(NP (DT (the))(NN (snow))))) |ET| 
-1  |BT| (ROOT (S (NP (NN (y)))(VP (VBZ (be)))(NP (PRP (it)))(ADJP (RB (so))(JJ (hot))))) |ET| 
-1  |BT| (ROOT (S (NP (NN (ok))(DT (this)))(VP (VBZ (be)))(NP (WP (what)))(NP (FW (i)))(VP (VBP (have)))(NP (NNP (caramel)))(NP (NNP (samoas)))(NP (NNP (lemons)))(NP (NNP (thanku))(NNP (berry)))(NP (VBZ (trefoil))))) |ET| 
1  |BT| (ROOT (S (NP (CD (one))(JJR (more))(NNP (day)))(PP (IN (of)))(NP (NNS (this))(# (#))(CD ($))(NN (%)))(NP (# (#))(CD ($))(SYM (^))(# (#))(CD ($))(CD (&))(NN (%))(# (#))(CD ($))(CD (&))(NN (%)))(NP (# (#))(CD ($))(CD (@))(NN (%))(-LRB- (-lrb-))($ ($))(CD (&))(NN (%))))) |ET| 
1  |BT| (ROOT (S (NP (JJ (^))(NNS (^)))(PP (VBP (^)))(NP (NNP (^))(NNP (^))(NNP (swimmin)))(PP (IN (in)))(NP (DT (the))(NN (state)))(PP (IN (of)))(NP (NNP (trance))(NNP (^))(NNP (^))(NNP (^))(NNP (^))))) |ET| 
1  |BT| (ROOT (S (NP (PRP (they)))(VP (VBP (say)))(SBAR (IN (if)))(NP (PRP (you)))(VP (VBP (love)))(NP (NN (somebody)))(ADVP (RB (then)))(NP (PRP (you)))(VP (VBP (have))(VBN (get)))(VP (TO (to))(VB (set)))(NP (PRP (they)))(ADJP (JJ (free))))(S (NP (FW (i)))(VP (MD (would))(RB (rather))(VB (be))(VBN (lock)))(PP (TO (to)))(NP (PRP (you)))(PP (IN (than)))(NP (VBP (live)))(PP (IN (in)))(NP (DT (this))(NN (pain))(CC (and))(NN (misery))))) |ET| 
-1  |BT| (ROOT (S (VP (VB (fuck)))(NP (PRP$ (my))(NN (life))))(S (VP (VB (thank)))(NP (NN (god)))(PP (IN (for)))(NP (JJ (good))(NNS (friend))))) |ET| 
-1  |BT| (ROOT (S (VP (VBD (get)))(NP (PRP$ (my))(NNP (wii)))(NP (PRP$ (my))(NN (man)))(NP (PRP$ (my))(NNS (grandparent)))(VP (VBP (be)))(ADVP (RB (here))(VBG (<))))) |ET| 
-1  |BT| (ROOT (S (INTJ (UH (oh))(RB (yeah)))(ADVP (RB (now)))(NP (VBG (read)))(NP (DT (the))(NNP (blade))(NNP (itself)))(PP (IN (by)))(NP (NNP (joe))(NNP (abercrombie)))(NP (DT (the))(NNP (first))(NNP (law)))(NP (VB (book))(CD (one))))) |ET| 
1  |BT| (ROOT (S (NP (DT (the))(NNP (cosby))(NNP (show)))(VP (VBZ (be))(JJ (dube))))) |ET| 
1  |BT| (ROOT (S (NP (NNS (thnk)))(SBAR (IN (that)))(NP (RB (@sunny))(NNP (ragan)))(VP (VBZ (be)))(NP (DT (the))(JJ (coolest))(NN (person))(VBP (eva))))) |ET| 
1  |BT| (ROOT (S (NP (NN (rain))(NN (storm)))(VP (VBP (take)))(NP (PRP (i)))(ADVP (RB (away)))(PP (IN (from)))(NP (DT (the))(NN (norm))))) |ET| 
-1  |BT| (ROOT (S (NP (DT (this))(NN (phone)))(VP (VBZ (be))(VBN (complicate))))) |ET| 
-1  |BT| (ROOT (S (VP (VBG (go)))(NP (NN (ice))(VBG (skate)))(PP (IN (at)))(NP (DT (the))(JJ (new))(NN (ice))(VBG (skate))(NN (rink))))) |ET| 
-1  |BT| (ROOT (S (NP (VBD (todd)))(PP (NN (wedding)))(ADVP (RB (then)))(PP (IN (after)))(NP (NN (party))(NN (sesh))))) |ET| 
1  |BT| (ROOT (S (VP (VBZ (be)))(VP (VBG (learn)))(PP (IN (about)))(ADVP (WRB (how)))(VP (TO (to))(VB (eat)))(PP (IN (for)))(NP (PRP$ (she))(NN (blood))(NN (type))))(S (ADVP (RB (really)))(ADJP (JJ (interesting)))(NP (NN (stuff))))(S (NP (EX (there)))(VP (VBZ (be))(RB (even))(NN (stuff)))(PRT (IN (out)))(ADVP (EX (there)))(PP (IN (about)))(NP (NN (personality))(CC (and))(NN (blood))(NNS (type))))(S (VP (VB (check)))(NP (PRP (it)))(PRT (RP (out))))) |ET| 
1  |BT| (ROOT (S (NP (NN (ok)))(ADVP (WRB (where)))(NP (DT (the))(NN (fuck)))(VP (VBZ (be)))(NP (PRP$ (my))(NN (hat))))) |ET| 
1  |BT| (ROOT (S (ADVP (RB (just)))(VP (VBD (find)))(PRT (RP (out)))(NP (WDT (which))(CD (one)))(VP (VBD (be)))(NP (NN (tom)))(NP (WDT (which)))(NP (CD (one)))(VP (VBD (be)))(NP (RB (jerry))))) |ET| 
-1  |BT| (ROOT (S (NP (NNP (la)))(VP (VBD (be)))(ADJP (JJ (awesome))))(S (NP (PRP (i)))(VP (MD ('ll))(VB (be)))(ADVP (EX (there)))(ADVP (RB (soon)))(NP (JJ (enough))(NN (lol))))) |ET| 
-1  |BT| (ROOT (S (NP (PRP (we)))(VP (VBD (stare)))(PRT (RP (off)))(PP (IN (for)))(NP (DT (the))(NN (beach)))(PP (SYM (@)))(NP (CD (10)))(NP (PRP (we)))(VP (VBP (be)))(ADVP (RB (still)))(ADVP (RB (there))(RB (yet))))(S (NP (DT (the))(NN (beach)))(VP (VBZ (be)))(NP (CD (10))(NNS (min)))(ADVP (RB (away))))) |ET| 
-1  |BT| (ROOT (S (PP (VB (ahh)))(NP (DT (the))(NN (beauty)))(PP (IN (of)))(NP (NN (nature))))(S (NP (NNP (fucken)))(VP (VBP (hate)))(NP (PRP (it)))(PP (VBP (im)))(NP (VBN (freasen))(PRP$ (my))(NN (ass)))(PP (RP (off))))) |ET| 
1  |BT| (ROOT (S (VP (VB (thank)))(NP (NNP (god)))(PP (IN (for)))(NP (DT (this))(JJ (beautifu))(NN (day))))) |ET| 
1  |BT| (ROOT (S (NP (DT (a))(NN (moment)))(PP (IN (like)))(NP (DT (this))))) |ET| 
1  |BT| (ROOT (S (VP (VBG (listen)))(PP (TO (to)))(NP (DT (the))(JJ (awkward))(NN (conversation))(VBZ (downstair)))(PP (IN (about)))(NP (VBG (fiddle)))(PP (IN (with)))(NP (DT (a))(NN (fiddle))))) |ET| 
-1  |BT| (ROOT (S (NP (NN (beer)))(PP (IN (with)))(NP (DT (a))(NN (bit)))(PP (IN (of)))(NP (NN (sprite))))) |ET| 
-1  |BT| (ROOT (S (ADVP (WRB (how)))(NP (PRP (you)))(VP (VB (like)))(NP (DT (a))(JJ (swift))(NN (kiss)))(PP (IN (in)))(NP (DT (the))(NN (mouth))))) |ET| 
-1  |BT| (ROOT (S (NP (VB (go)))(PP (IN (for)))(NP (DT (a))(NN (walk)))(PP (IN (with)))(NP (NN (cash)))(NP (NNP (willie))))(S (NP (NNP (d))))) |ET| 
