SVM-light Version V5.01-TK-1.4.3_smoothing
5 # kernel type
3 # kernel parameter -d 
1 # kernel parameter -g 
1 # kernel parameter -s 
1 # kernel parameter -r 
empty# kernel parameter -u 
0.4 # kernel parameter -L 
1 # kernel parameter -T 
T # kernel parameter -C 
1 # kernel parameter -F 
1 # kernel parameter -S 
0.400000 # kernel parameter -M 
3 # kernel parameter -N 
S # kernel parameter -V 
S # kernel parameter -W 
 # kernel parameter -G 
1.000000 # similarity threshold -H 
1.000000 # terminal factor -X 
empty # matrix path -P 
empty # cache path -Z 
1000000 # cache size -A 
10000000 # cache max size -B 
0.500000 # refresh factor -D 
10 # highest feature index 
8000 # number of training documents 
3548 # number of support vectors plus 1 
-3.5543558 # threshold b, each following line is a SV (starting with alpha*y)
-1  |BT| (ROOT (S (NP (PRP (we)))(VP (VBP (be)))(NP (PDT (all))(DT (the))(NNS (victim)))(PP (IN (of)))(NP (JJ (bad))(NNS (decision)))(NP (DT (these))(NNS (day)))(INTJ (UH (no))))) |ET| 
-1  |BT| (ROOT (S (ADVP (WRB (how)))(NP (DT (the))(NN (hell)))(VP (VBZ (be)))(NP (DT (a))(JJ (quesidilla)))(ADVP (JJR (more)))(PP (IN (than)))(NP (DT (a))(NN (burrito))))(S (NP (DT (that)))(VP (VBZ (be)))(NP (NN (b))))) |ET| 
-1  |BT| (ROOT (S (NP (WDT (what))(NN (type)))(PP (IN (of)))(NP (NN (ship)))(ADVP (RB (never)))(VP (VBZ (sink))))(S (ADVP (WRB (why)))(NP (DT (a))(NN (friendship)))(PP (IN (of)))(NP (NN (course))))) |ET| 
-1  |BT| (ROOT (S (NP (NNP (independant)))(VP (VBZ (be)))(PP (NNP (tha)))(NP (NNP (key.wat)))(NP (PRP (i))(VBP (get)))(NP (PRP (i)))(VP (VBP (get)))(NP (RP (on))(NNP (my))(NNP (own))))(S (NP (NNP (u))(NNP (rollin))(NNP (shawty))(NNP (letz))(NNP (hit))(NNP (mcdonalds))))) |ET| 
-1  |BT| (ROOT (S (VP (VBZ (do)))(NP (DT (this))(NN (rag))(NN (smell)))(PP (IN (like)))(NP (NN (chloroform)))(PP (TO (to)))(NP (PRP (you))))) |ET| 
1  |BT| (ROOT (S (VP (VB (shut)))(PRT (RP (up))(CC (and))(VB (put)))(NP (PRP$ (you))(NN (money)))(ADVP (WRB (where)))(NP (PRP$ (you))(NN (mouth)))(VP (VBZ (be))))(S (VP (VBP (do))(RB (not))(VB (be)))(NP (DT (a))(NN (baby)))(VP (VB (remember)))(NP (WP (what)))(NP (PRP (you)))(VP (VBD (tell)))(NP (PRP (i))))) |ET| 
1  |BT| (ROOT (S (VP (VBG (talk)))(NP (RB (much))(IN (about)))(NP (PRP (oneself)))(VP (MD (can))(RB (also))(VB (be)))(NP (DT (a))(NN (means)))(VP (TO (to))(VB (conceal)))(PP (PRP (oneself))))) |ET| 
1  |BT| (ROOT (S (NP (PRP (i)))(ADVP (RB (still)))(VP (VBP (think)))(NP (FW (i)))(VP (VB (have)))(NP (NN (school))(NN (tommorow))))) |ET| 
1  |BT| (ROOT (S (VP (VBG (listen)))(PP (TO (to)))(NP (DT (the))(JJ (awkward))(NN (conversation))(VBZ (downstair)))(PP (IN (about)))(NP (VBG (fiddle)))(PP (IN (with)))(NP (DT (a))(NN (fiddle))))) |ET| 
1  |BT| (ROOT (S (NP (DT (a))(NN (moment)))(PP (IN (like)))(NP (DT (this))))) |ET| 
-1  |BT| (ROOT (S (NP (VB (work)))(PP (IN (from)))(NP (JJ (10am)))(NP (JJ (6pm))(NN (text)))(NP (DT (the))(NN (cell))))) |ET| 
-1  |BT| (ROOT (S (NP (PRP (i)))(VP (VBP (be))(RB (so))(VBN (confue)))(PP (IN (with)))(NP (DT (the))(NNP (a.p))(NN (world))(NN (history))(NN (essay))))) |ET| 
-1  |BT| (ROOT (S (ADVP (RB (well)))(VP (VB (thank)))(NP (NN (god)))(VP (VBP (do))(RB (not))(VB (need))(TO (to))(VB (give)))(NP (DT (a))(NN (shit)))(PP (IN (about)))(NP (DT (the))(JJ (speluncean))(NNS (explorer)))(ADVP (RB (anymore))))) |ET| 
1  |BT| (ROOT (S (NP (FW (i)))(VP (VBD (fall)))(PP (IN (out)))(PP (IN (of)))(NP (NN (heaven)))(VP (TO (to))(VB (be))))(S (PP (IN (with)))(NP (PRP (you)))(PP (IN (in)))(NP (NN (hell))))) |ET| 
1  |BT| (ROOT (S (VP (VBZ (be)))(ADVP (NN (almighty))))) |ET| 
1  |BT| (ROOT (S (NP (JJ (8th))(NN (month))(VBP (wow))))(S (NP (NN (i))))(S (NP (PRP (she))))) |ET| 
-1  |BT| (ROOT (S (NP (FW (i))(JJ (lovee))(JJ (gabby))))(S (NP (PRP (she)))(VP (VBZ (be)))(ADJP (RB (soo))(JJ (amazing))))) |ET| 
-1  |BT| (ROOT (S (VP (VBN (callin)))(NP (PRP (it)))(NP (DT (a))(JJ (early))(NN (night)))(VP (VBG (go)))(PP (TO (to)))(NP (NN (bed))))(S (VP (VBP (have)))(NP (DT (a))(JJ (great))(NN (day)))(PP (JJ (2marrow)))(NP (NN (everyone))))) |ET| 
-1  |BT| (ROOT (S (VP (VBD (do))(RB (not))(VB (expect))(TO (to))(VB (end)))(PRT (RP (up)))(PP (IN (in)))(NP (JJ (first))(NN (aid))))) |ET| 
1  |BT| (ROOT (S (PP (IN (at)))(NP (DT (the))(NN (airport))))) |ET| 
1  |BT| (ROOT (S (NP (VB (praise)))(VP (VB (confuse)))(NP (DT (the))(NN (enemy))))) |ET| 
1  |BT| (ROOT (S (NP (VB (lol)))(PP (TO (to)))(NP (NNP (hunter)))(NP (NNP (avery)))(NP (NNP (corey)))(NP (NNP (akshay))))(S (NP (VBP (gir)))(PP (TO (to)))(NP (NN (cody))))) |ET| 
-1  |BT| (ROOT (S (NP (FW (i)))(VP (VBD (fight)))(NP (DT (the))(NN (law)))(NP (DT (the))(NN (law)))(VP (VBD (win))))) |ET| 
-1  |BT| (ROOT (S (NP (NN (blood)))(PP (IN (on)))(NP (DT (the))(NN (staircase))))) |ET| 
-1  |BT| (ROOT (S (NP (VB (shemesh)))(VP (CD ('10)))(NP (WP (what))))) |ET| 
1  |BT| (ROOT (S (VP (VBZ (be)))(ADVP (RB (so)))(ADJP (JJ (happy)))(PP (IN (with)))(NP (DT (the))(NN (way))(NNS (thing)))(VP (VBP (be))(VBG (go)))(PP (IN (in)))(NP (PRP$ (my))(NN (life))))(S (NP (SYM (&)))(UCP (UH (yes)))(NP (DT (this))(NN (boy)))(VP (VBZ (make)))(NP (PRP (i)))(UCP (VBP (smile)))(NP (JJ (:}))))) |ET| 
1  |BT| (ROOT (S (NP (VBD (read))(PRP (it))))(S (NP (PRP (he)))(VP (VBZ (be)))(ADJP (JJ (good))))) |ET| 
1  |BT| (ROOT (S (NP (-LRB- (-lrb-))(CD (8))(-RRB- (-rrb-))(NNP (cos)))(NP (PRP (you)))(VP (VBP (be)))(ADJP (JJ (amazing)))(NP (RB (just))(DT (the))(NN (way)))(NP (PRP (you)))(VP (VBP (be)))(NP (CD (8))))) |ET| 
-1  |BT| (ROOT (S (VP (VBP (do)))(VP (VB (judge)))(NP (NNS (people)))(PP (IN (by)))(NP (PRP$ (they))(NNS (cover)))(NP (NNP (mosf)))(PP (IN (of)))(NP (PRP$ (they))(NNS (book)))(VP (VBP (be))(RB (still))(VBG (be))(VBN (write))))) |ET| 
-1  |BT| (ROOT (S (NP (PRP (it)))(VP (VBZ (be)))(NP (DT (the))(NN (load))(PRP (you))(RB (carry)))(NP (PRP (it)))(VP (VBZ (be)))(NP (DT (the))(NN (way)))(NP (PRP (you)))(UCP (VB (carry)))(NP (PRP (it))))(S (NP (NNP (lena))(NNP (horne))))) |ET| 
-1  |BT| (ROOT (S (VP (VBZ (feel)))(PP (IN (like)))(NP (DT (this)))(VP (VBZ (be)))(NP (RB (gona)))(VP (VB (be)))(NP (DT (a))(JJ (long))(CC (and))(JJ (busy))(NN (day))))) |ET| 
1  |BT| (ROOT (S (NP (NN (sound)))(PP (IN (of)))(VP (VBG (break)))(NP (NNS (wave))))) |ET| 
1  |BT| (ROOT (S (NP (NNS (laker)))(VP (VBD (lose)))(NP (NN (tonight)))(NP (POS ('s))(NN (battle)))(CONJP (CC (but))(RB (not)))(NP (DT (the))(NN (war))))) |ET| 
1  |BT| (ROOT (S (NP (NNP (may))(DT (the))(VBZ (chime)))(PP (IN (of)))(NP (NNP (christmas))(NN (glory))))) |ET| 
-1  |BT| (ROOT (S (NP (NN (nothing)))(PP (IN (at)))(NP (DT (all))(NN (im))(VBZ (speechless))))) |ET| 
-1  |BT| (ROOT (S (NP (CD (9))(NNS (week)))(VP (TO (to))(VB (go))))) |ET| 
-1  |BT| (ROOT (S (VP (VBG (go)))(PP (TO (to)))(NP (DT (the))(NNP (iowa))(NNP (state))(NNP (fair)))(NP (NN (tomorrow)))(PP (IN (with)))(NP (NNP (graham))(CC (and))(NNP (astrid))))) |ET| 
1  |BT| (ROOT (S (VP (NNP (shopping)))(NP (VBZ (be))(DT (the))(JJ (new))(NN (thing)))(VP (TO (to))(NNP (do))))(S (VP (NNP (love)))(NP (PRP (you))(NNP (d))(CC (and))(NNP (nick))))) |ET| 
1  |BT| (ROOT (S (NP (PRP (i)))(PP (VBP (like)))(NP (PRP (it)))(PP (IN (on)))(NP (DT (the))(NNS (banister))))) |ET| 
1  |BT| (ROOT (S (VP (VBZ (be)))(NP (NN (missin))(NNP (nic))))(S (VP (VBP (do)))(VP (VB (have)))(NP (NN (anything)))(VP (TO (to))(VB (do)))(NP (JJ (2day))))(S (NP (VB (text)))(VP (PRP (i)))(ADVP (RB (ppl))))(S (NP (NNP (luv)))(ADVP (VBP (u))(DT (all))))(S (NP (PRP (i)))(VP (VBP (luv)))(NP (NNP (u))(NNP (nic))))) |ET| 
-1  |BT| (ROOT (S (NP (NNP (la)))(VP (VBD (be)))(ADJP (JJ (awesome))))(S (NP (PRP (i)))(VP (MD ('ll))(VB (be)))(ADVP (EX (there)))(ADVP (RB (soon)))(NP (JJ (enough))(NN (lol))))) |ET| 
-1  |BT| (ROOT (S (NP (VB (rawk))))(S (NP (VB (awesome))(NN (night)))(ADVP (RP (out)))(NP (NNS (thanks)))(ADVP (DT (all))))) |ET| 
-1  |BT| (ROOT (S (NP (JJ (just))(NNS (g0t)))(PP (VBD (0ut)))(NP (DT (the))(NNS (sh0wer))))(S (NP (JJ (n0w))(NNS (chiilliian)))(PP (VBP (wiith)))(NP (PRP$ (my))(NNP (love))(NNP (antoiinette))))) |ET| 
1  |BT| (ROOT (S (VP (VBZ (be)))(VP (VBG (go)))(ADVP (RB (back)))(VP (TO (to))(VB (charlottesville)))(NP (NN (tomorrow))))(S (NP (VB (rush)))(PP (IN (in)))(NP (CD (2))(NNS (dayy))))) |ET| 
1  |BT| (ROOT (S (NP (NN (subway)))(ADVP (RB (then))(RBR (more))(VBG (study)))(PP (IN (for)))(NP (NN (bio))(JJ (final))(NN (egh))))) |ET| 
1  |BT| (ROOT (S (NP (NN (time)))(VP (TO (to))(VB (show)))(PRT (RP (off)))(NP (PRP$ (my))(NN (plato-fu))))) |ET| 
-1  |BT| (ROOT (S (NP (NN (beer)))(PP (IN (with)))(NP (DT (a))(NN (bit)))(PP (IN (of)))(NP (NN (sprite))))) |ET| 
-1  |BT| (ROOT (S (NP (MD (can))(RB (not)))(VP (VB (wait)))(PP (IN (for)))(NP (PRP$ (my))(NN (naya)))(VP (TO (to))(VB (meet)))(NP (JJ (tamzens))(NN (sumaium))))(S (VP (RB (either)))(NP (VBD (tonite))(CC (or))(NNP (thursday))))) |ET| 
-1  |BT| (ROOT (S (PP (VB (don)))(NP (`` (`))(NNP (t)))(VP (VBP (want))(TO (to))(VB (talk.all)))(NP (FW (i)))(VP (VB (hear)))(VP (VBZ (be)))(NP (NN (noise))))) |ET| 
1  |BT| (ROOT (S (NP (RB (busy))(NN (day)))(ADVP (NN (ahead.get)))(NP (DT (all))(NN (music)))(ADJP (JJ (ready)))(VP (VB (go))(VB (pick)))(PRT (RP (up)))(NP (NNS (flower)))(ADVP (RB (then))(RP (off)))(PP (TO (to)))(NP (DT (the))(NN (suprise))(NN (birthday))(VBD (party.did))(FW (i))(VB (mention)))(NP (FW (i)))(VP (VB (have))(TO (to))(VB (sing)))(NP (DT (a))(JJ (few))(NNS (song))(SYM (=))(NNS (nurvous))(NN (reck))))) |ET| 
1  |BT| (ROOT (S (VP (VBP (do)))(VP (VB (know)))(ADVP (WRB (how)))(NP (PRP (it)))(VP (VBZ (be)))(NP (PRP (you)))(VP (VBN (look)))(PP (IN (at)))(NP (PRP (i))))(S (VP (VBD (see)))(NP (DT (the))(NN (person)))(SBAR (IN (that)))(NP (FW (i)))(VP (MD (could))(VB (be))))(S (PP (IN (like)))(NP (NN (mercy)))(VP (VBG (ragee))(TO (to))(VB (save)))(NP (PRP (i)))(NP (DT (all))(DT (that))(FW (i))(NN (need)))(VP (VBZ (be)))(NP (PRP (you)))(ADJP (RB (so))(JJ (beautiful))(JJ (beautiful))))(S (NP (FW (i))(NN (cant)))(VP (VBP (explain)))(ADVP (WRB (how)))(NP (PRP$ (you))(VBG (change)))(NP (PRP$ (my))(NN (life))))) |ET| 
1  |BT| (ROOT (S (VP (VB (go))(RP (out))(CC (and))(VBN (hang)))(PP (IN (with)))(NP (CD (one)))(PP (IN (of)))(NP (PRP$ (my))(JJS (best))(NNS (friend))(NNP (bethany))(NNP (mattingly))(. (!))))(S (NP (NNP (:}))(VBD (<))(CD (3))))) |ET| 
-1  |BT| (ROOT (S (VP (VB (speak)))(ADVP (RB (only)))(ADVP (WRB (when)))(NP (PRP (you)))(NP (NNP (feel))(NN (yourr))(NNS (word)))(VP (VBP (be)))(ADJP (JJR (better)))(PP (IN (than)))(NP (DT (the))(NNP (silence))))) |ET| 
-1  |BT| (ROOT (S (NP (PRP (i)))(VP (VBP (realize)))(NP (PRP (it)))(VP (VBZ (be)))(ADVP (RB (only)))(PP (IN (in)))(NP (PRP (myself)))(NP (IN (that)))(NP (FW (i)))(VP (VB (find)))(NP (JJ (real))(NN (love)))(NP (JJ (real))(NN (truth))))) |ET| 
-1  |BT| (ROOT (S (ADVP (RB (sometimes)))(NP (PRP (you)))(VP (VBP (have))(TO (to))(VB (deal)))(PP (IN (with)))(NP (WP (what)))(NP (PRP (you)))(VP (VBP (want))(RB (not))(RB (necessarily))(VBG (be)))(NP (WP (what)))(NP (PRP (you)))(VP (VBP (need))))) |ET| 
1  |BT| (ROOT (S (PP (IN (with)))(NP (DT (all))(NN (honesty))(NN (church)))(VP (VBZ (be))(JJ (boring))))) |ET| 
1  |BT| (ROOT (S (NP (RB (only))(NNP (god)))(VP (MD (can))(VB (be)))(PP (IN (in)))(NP (NN (control)))(PP (IN (without)))(VP (VBG (be))(JJ (controlling))))) |ET| 
1  |BT| (ROOT (S (NP (NN (ty)))(VP (FW (i))(VBP (wan))(TO (na))(VB (go))(NN (swimming)))(NP (NN (today))))(S (VP (VBP (need))(TO (to))(VB (find)))(NP (DT (a))(NN (pool))))(S (NP (RB (:{))(PRP (i)))(VP (VBP (dont))(VBN (fit)))(PP (IN (in)))(NP (NNP (ty)))(NP (POS ('s))(NN (pool)))(VP (NN (haha))))) |ET| 
-1  |BT| (ROOT (S (NP (NNP (cant))(VBP (wait)))(PP (IN (till)))(NP (NN (tonight))(PRP$ (its)))(VP (VBG (go))(TO (to))(VB (be)))(ADJP (JJ (amazing))))) |ET| 
-1  |BT| (ROOT (S (NP (VBP (hate)))(VP (TO (to))(VB (be)))(ADJP (JJ (boring)))(NP (NN (today)))(NP (PRP (we)))(VP (VBP (be))(VBG (look)))(PP (IN (at)))(NP (RB (off))(JJ (white))(NNS (!!!))))) |ET| 
-1  |BT| (ROOT (S (VP (VB (be))(VBN (conceive)))(PP (IN (in)))(NP (PRP$ (you))(NN (heart))))) |ET| 
1  |BT| (ROOT (S (ADVP (WRB (how)))(NP (DT (this))(NN (facebook))(NN (thing))(VB (work)))(ADVP (RB (again))))) |ET| 
1  |BT| (ROOT (S (NP (DT (the))(NNS (people)))(VP (FW (i))(VB (meet)))(VP (VBP (be)))(ADJP (JJ (priceless)))(NP (PRP (they)))(VP (VBP (mean)))(NP (DT (a))(NN (lot)))(PP (TO (to)))(NP (PRP (i))))) |ET| 
1  |BT| (ROOT (S (NP (VB (shower))(SYM (=))(NN (check)))(NP (NN (hair)))(VP (VBN (do)))(NP (SYM (=))(NN (check)))(NP (VBZ (nail)))(VP (VBN (do)))(ADVP (SYM (=))(RB (soon)))(ADVP (WRB (where)))(NP (PRP (i)))(VP (VBG (go)))(ADVP (SYM (=))(RB (absolutely)))(ADVP (RB (nowhere)))(PP (IN (except)))(NP (DT (the))(NNS (doctor))(VBN (lol))))) |ET| 
-1  |BT| (ROOT (S (NP (JJ (happy))(NNP (father)))(NP (POS ('s))(NN (day)))(PP (TO (to)))(NP (PRP$ (my))(JJ (wonderful))(NN (husband))))) |ET| 
-1  |BT| (ROOT (S (SBAR (IN (if)))(NP (PRP (i)))(VP (MD (can))(RB (not))(VB (tell)))(NP (WP (who)))(NP (VBZ (be))(JJ (gay)))(ADVP (WRB (how)))(NP (PRP (i)))(VP (VBP (know)))(NP (WP (who)))(VP (TO (to))(VB (judge))))) |ET| 
-1  |BT| (ROOT (S (NP (NNP (longest))(NN (day)))(ADVP (RB (ever))))(S (VP (VBG (go))(TO (to))(VB (try))(VBG (write)))(NP (DT (a))(NN (bit)))(ADVP (RB (then)))(VP (VBG (head)))(PP (TO (to)))(NP (NN (bed))))(S (NP (NNP (night))(RB (all))))) |ET| 
1  |BT| (ROOT (S (NP (`` ("))(NNP (constellations))(NN (glow)))(NP (PRP$ (they))(NN (shine)))(VP (MD (can))(RB (not))(VB (compare)))(PP (TO (to)))(NP (PRP$ (you))(JJ (inner))(NN (star))))(S (NP (NNP (rhonda))(NNP (stapletor))))) |ET| 
1  |BT| (ROOT (S (NP (PRP (we)))(VP (VBP (need)))(NP (JJR (more))(NNS (people)))(PP (IN (like)))(NP (NN (lowkey)))(NP (PRP (you)))(VP (VBP (know))(VBN (makin)))(NP (DT (a))(NN (stand)))(PP (IN (for)))(NP (JJ (whats)))(ADVP (JJ (right))))) |ET| 
1  |BT| (ROOT (S (NP (VBP (wish))(EX (there)))(VP (VBD (be)))(NP (NN (something))(NN (fun)))(VP (TO (to))(VB (do)))(NP (RB (tonight))(JJ (:{))(JJ (im)))(VP (JJ (bored))))) |ET| 
-1  |BT| (ROOT (S (NP (DT (the))(NNS (scar)))(PP (IN (on)))(NP (PRP$ (you))(NN (skin)))(VP (VBP (speak))))) |ET| 
-1  |BT| (ROOT (S (VP (VBD (get)))(NP (DT (the))(NNS (photo)))(VP (VBN (suss))))(S (NP (DT (both)))(VP (NN (concert)))(NP (NNS (photo)))(PP (RP (up))))) |ET| 
-1  |BT| (ROOT (S (VP (VBD (wake)))(PRT (RP (up)))(PP (IN (without)))(NP (DT (a))(JJ (single))(NN (fuck)))(VP (TO (to))(VB (give))))) |ET| 
1  |BT| (ROOT (S (VP (NN (sittin)))(ADVP (RB (here)))(PP (IN (in)))(NP (NNP (orlando)))(ADVP (RB (just)))(VP (VBD (get))(VBN (release)))(PP (IN (from)))(NP (DT (the))(NN (hospital)))(ADVP (NNS (thanks)))(PP (TO (to)))(NP (NNP (k))))) |ET| 
1  |BT| (ROOT (S (VP (VBZ (think)))(NP (PRP$ (its))(JJ (good))(CD (2)))(VP (VBP (have)))(NP (PRP$ (he))(JJ (old))(NN (job)))(ADVP (RB (back))))) |ET| 
1  |BT| (ROOT (S (NP (PRP (he)))(NP (WP (who))(VBZ (fight)))(VP (VB (run)))(VP (VBZ (live))(TO (to))(VB (run)))(NP (RB (anotherday))))) |ET| 
-1  |BT| (ROOT (S (NP (DT (this))(NN (class)))(VP (VBZ (be)))(NP (CD (one))(JJ (big))(NN (joke))))(S (NP (PRP (we)))(VP (VBP (do))(RB (not))(VB (do)))(NP (NN (anything))))) |ET| 
-1  |BT| (ROOT (S (NP (NNP (new))(NN (series)))(SBAR (IN (if)))(NP (JJ (big))(NN (bang))(NN (theory)))(VP (VBZ (:})))(NP (NNP (woop))))) |ET| 
-1  |BT| (ROOT (S (NP (JJ (whats))(NN (takin)))(VP (VBZ (be))(NN (takin)))(NP (NN (u)))(VP (NN (cnt)))(SBAR (VBP (hav)))(NP (PRP (it)))(ADVP (RB (back))))(S (SBAR (RB (even))(IN (if)))(NP (DT (a))(NN (heart)))(VP (VBZ (be))(NN (breakin))))(S (NP (DT (the))(NN (noise)))(NP (WDT (that)))(VP (VBZ (be))(VBN (leave)))(ADVP (RB (here)))(VP (VBZ (be)))(NP (NN (silence)))(VP (VBG (drive)))(NP (PRP (i)))(PP (NN (insain))))) |ET| 
1  |BT| (ROOT (S (NP (NN (dinner)))(PP (IN (with)))(NP (DT (the))(NNS (girl))))(S (ADVP (RB (always)))(ADJP (JJ (exciting))))) |ET| 
1  |BT| (ROOT (S (NP (CD (9-3))(NN (!!!!!))))(S (NP (DT (the))(NN (end)))(PP (TO (to)))(NP (DT (a))(JJ (great))(NN (weekend)))(NP (DT (the))(NN (begining)))(PP (IN (of)))(NP (DT (a))(JJ (great))(NN (week))))) |ET| 
1  |BT| (ROOT (S (NP (NNP (vee))(NNP (dah))(NNP (ca)))(NP ('' ('))(SYM (z))(NN (defender)))(PP (NN (ov)))(NP (`` ("))(DT (the))(NN (corrupt))('' ("))))) |ET| 
-1  |BT| (ROOT (S (NP (VB (lol)))(VP (VBG (watchingg)))(NP (DT (the))(NN (roast)))(PP (IN (of)))(NP (JJ (donald))(NN (trumph))))) |ET| 
-1  |BT| (ROOT (S (NP (JJ (last))(NN (day)))(PP (IN (in)))(NP (NNP (mehico))))(S (ADVP (RB (back)))(PP (IN (across)))(NP (DT (the))(NN (border)))(PP (TO (to)))(NP (NNP (la))(NNP (tomoro))))) |ET| 
-1  |BT| (ROOT (S (ADVP (RB (really)))(VP (VBP (need))(TO (to))(VB (leave)))(NP (NN (team))(CD (0)))(VP (VB (get)))(NP (DT (this))(NN (essay)))(VP (VBN (do))))) |ET| 
1  |BT| (ROOT (S (NP (JJ (black))(CC (and))(JJ (yellow)))(VP (VBZ (be)))(PP (IN (about)))(NP (NNS (bee))))) |ET| 
1  |BT| (ROOT (S (NP (PRP (i)))(VP (VBP (need)))(NP (JJ (other))(NNS (people))(NN (opinion))))(S (NP (WP (what)))(SBAR (IN (if)))(NP (PRP (i)))(VP (VBD (get)))(NP (NNS (contact))))) |ET| 
1  |BT| (ROOT (S (NP (NN (jazz))(NN (band))(NNP (b)))(ADVP (RB (here))(FW (i)))(VP (VBP (come))))) |ET| 
-1  |BT| (ROOT (S (NP (PRP (he)))(VP (VBZ (love)))(NP (PRP (i))))(S (NP (PRP (he)))(VP (VBP (love)))(NP (PRP (i))))(S (NP (WP (what)))(VP (VBP (do)))(NP (RB (u)))(VP (VB (think))))) |ET| 
-1  |BT| (ROOT (S (NP (PRP (it)))(VP (VBZ (be)))(NP (RB (now)))(VP (VB (joke)))(SBAR (IN (that)))(NP (PRP (i)))(VP (VBP (be)))(ADJP (VBN (bore)))(NP (PRP (i)))(VP (VBP (like))(TO (to))(VB (make)))(NP (NNS (status)))(PP (IN (with)))(NP (JJ (subliminal))(NNS (message))))) |ET| 
-1  |BT| (ROOT (S (VP (NNP (love)))(NP (VBD (doesnt))(VBN (hurt)))(NP (NN (love)))(VP (VBZ (complete)))(NP (WP (what)))(NP (PRP (it)))(VP (VBZ (have))(VBN (start))))) |ET| 
1  |BT| (ROOT (S (NP (DT (every))(NN (smile)))(VP (VBZ (be)))(NP (JJ (free))(NN (therapy))))(S (NP (DT (the))(NN (sound)))(PP (IN (of)))(NP (NN (laughter)))(NP (WDT (that)))(VP (VBZ (go)))(PP (IN (like)))(NP (DT (a))(NN (symphany))))) |ET| 
1  |BT| (ROOT (S (VP (VBD (go)))(PP (TO (to)))(NP (VB (see)))(NP (DT (the))(NN (pre-screening)))(PP (IN (of)))(NP (NN (tron)))(NP (JJ (last))(NN (night))))(S (NP (PRP (it)))(VP (VBD (be)))(ADJP (RB (pretty))(JJ (good))))) |ET| 
1  |BT| (ROOT (S (VP (VBG (force)))(NP (PRP$ (my))(NN (dad)))(PP (TO (to)))(VP (VBG (watch)))(NP (CD (seven))(NNS (pound)))(ADVP (RB (then)))(VP (NN (bed))))) |ET| 
-1  |BT| (ROOT (S (VP (VBZ (be))(VBG (ride)))(PP (IN (on)))(NP (DT (a))(NN (wave)))(PP (IN (of)))(NP (JJ (good))(NN (emotion))))) |ET| 
-1  |BT| (ROOT (S (VP (VBG (go)))(PP (TO (to)))(NP (VB (get))(JJ (rid)))(PP (IN (of)))(NP (DT (all))(PRP$ (my))(JJ (horticulture/landscaping))(NNS (book))))(S (NP (DT (that))(NN (part)))(PP (IN (of)))(NP (PRP$ (my))(NN (life)))(VP (VBZ (be)))(ADVP (RP (over))))) |ET| 
-1  |BT| (ROOT (S (VP (VBZ (be)))(PP (IN (at)))(NP (NN (mc))(NNS (donald)))(VP (JJ (hehe)))(PP (IN (with)))(NP (PRP$ (he))(NNS (classmate))))) |ET| 
1  |BT| (ROOT (S (NP (PRP (i)))(VP (VBP (hate)))(NP (IN (that))(JJ (awkward))(NN (moment)))(ADVP (WRB (when)))(NP (PRP (you)))(VP (VBP (kick)))(NP (NNP (taylor)))(VP (VB (break)))(NP (PRP$ (you))(NN (toe))))) |ET| 
1  |BT| (ROOT (S (NP (WP (what))(DT (a))(JJ (lazy))(NN (afternoon))))(S (NP (NNP (:})))(VP (VBD (watch)))(NP (CD (3))(NNS (movie)))(ADVP (RB (back)))(PP (TO (to))(RB (back))))(S (NP (VB (im)))(PP (NN (luvin)))(NP (PRP (it)))(NP (RB (p))))) |ET| 
1  |BT| (ROOT (S (SBAR (IN (if)))(NP (PRP (you)))(VP (VBP (want))(TO (to))(VB (be)))(NP (JJ (together)))(NP (PRP (you)))(ADVP (VBP (qot)))(NP (NN (to-get-her))))) |ET| 
-1  |BT| (ROOT (S (NP (NNP (hackkkk))))(S (NP (NNP (by))(DT (the))(NNP (amazing))(NNP (lillain))))(S (NP (PRP (i))(VBP (lover)))(NP (PRP (you))(NNP (momma))))(S (NP (NNP (=]))(NNP (]))(NNP (]))(NNP (]))(NNP (]))))) |ET| 
-1  |BT| (ROOT (S (NP (NNS (tornado)))(VP (VBP (be)))(NP (NN (fun)))(VP (TO (to))(VB (watch)))(ADVP (WRB (when)))(NP (PRP (they)))(VP (VBP (be)))(PP (IN (in)))(NP (DT (a))(JJ (open))(NN (field)))(VP (VBG (do)))(NP (DT (no))(NN (damage))))) |ET| 
-1  |BT| (ROOT (S (NP (NNP (goin)))(UCP (POS (')))(PRT (RB (out)))(NP (NN (wit))(NNS (chick)))(VP (VBZ (be)))(PP (IN (like)))(NP (NN (signin)))(PRT (IN (up)))(NP (DT (a))(NN (bond))))(S (NP (PRP (it)))(VP (VBZ (take)))(ADJP (RB (too))(RB (long)))(PP (IN (for)))(NP (DT (the))(NN (relationship)))(VP (TO (to))(VB (mature))))(S (NP (PRP (we))(NNS (guy)))(VP (VBD (get))(RB (ta))(VB (keep)))(NP (NN (understandin)))(NP ('' ('))(PRP (they)))(NP (PRP (they))(NNS (girl)))(VP (VBD (get))(RB (ta))(VB (keep)))(NP (NNS (decipherin)))(PP (NN (bout)))(NP (PRP (we))))) |ET| 
1  |BT| (ROOT (S (VP (VBZ (be)))(ADVP (NN (home)))(PP (IN (for)))(NP (JJ (thanksgiving))(NN (break))))) |ET| 
1  |BT| (ROOT (S (ADVP (RB (seriously)))(NP (WP (what)))(VP (VBZ (be)))(PP (IN (with)))(NP (DT (the))(NN (crap))(NN (tv))))(S (NP (WP (who)))(ADVP (RB (even)))(VP (VBZ (like)))(NP (WP (who))(NNP (framed))(NNP (roger))(NNP (rabbit))))) |ET| 
1  |BT| (ROOT (S (NP (NNP (kayln)))(VP (VBD (find)))(NP (NN (baby))(NNS (gerbil)))(PP (IN (in)))(NP (PRP$ (she))(JJ (gerbil))(NN (cage)))(NP (DT (this))(NN (afternoon)))(VP (VB (try)))(NP (CD (seven)))(PP (IN (of)))(NP (PRP (they))))) |ET| 
-1  |BT| (ROOT (S (VP (VBZ (be))(VBG (watch))(VBG (educate)))(NP (NN (rita))))(S (NP (JJ (classic))(NN (film)))(NP (PRP (it)))(VP (VBZ (be)))(ADVP (RB (too))))) |ET| 
-1  |BT| (ROOT (S (SBAR (IN (if)))(NP (VBP (u)))(ADVP (RB (ever)))(VP (VB (try))(TO (to))(VB (come)))(PRT (RP (out))))) |ET| 
-1  |BT| (ROOT (S (ADVP (RB (really))))(S (NP (FW (i)))(ADVP (RB (still)))(VP (VBZ (have)))(NP (DT (a))(JJ (tummyache))))(S (NP (JJ (sad))(NN (panda))))) |ET| 
1  |BT| (ROOT (S (VP (`` ("))(NNP (stay)))(NP (VB (erect))))(S (VP (VB (pinakamalupit)))(NP (TO (na))(NN (phrase)))(PP (IN (of)))(NP (DT (the))(NNP (pasicatchan))(NNP (night))))(S (NP (NNP (=}))(CD (-rrb-))))) |ET| 
1  |BT| (ROOT (S (NP (DT (this))(NN (report)))(VP (VBZ (be))(VBG (take)))(NP (PRP (i)))(NP (DT (a))(RB (ridicuously))(JJ (long))(NN (time))))) |ET| 
1  |BT| (ROOT (S (PP (IN (on)))(NP (DT (a))(JJ (second))(NN (note))))) |ET| 
-1  |BT| (ROOT (S (ADJP (JJ (ready)))(PP (IN (for)))(NP (DT (the))(NN (break))))) |ET| 
-1  |BT| (ROOT (S (NP (NN (caffeine))(VBZ (dream)))(ADVP (RB (once))(RB (again))))(S (PP (IN (for)))(NP (DT (the))(JJ (nth))(NN (time)))(VP (VBD (raise)))(PP (TO (to)))(NP (VB (infinity)))(NP (DT (this))(NN (semester))))) |ET| 
-1  |BT| (ROOT (S (VP (VBZ (be)))(NP (DT (a))(JJ (absolute))(NN (failure))))) |ET| 
1  |BT| (ROOT (S (ADVP (RB (really)))(VP (VBP (want)))(NP (DT (a))(NN (mandolin)))(ADVP (RB (now))))(S (ADVP (VBD (:}))(RB (now)))(VP (TO (to))(VB (buy)))(NP (CC (or))(RB (not)))(VP (TO (to))(VB (buy))))) |ET| 
1  |BT| (ROOT (S (NP (VB (hmmm)))(ADVP (WRB (where)))(VP (TO (to))(VB (go))))(S (NP (WP (what)))(VP (TO (to))(VB (do))))(S (NP (NN (night)))(PRT (IN (out)))(PP (IN (with)))(NP (PRP$ (my))(NN (girl))(NN (stellum)))(ADVP (RB (maybe))(VBD (asimwe))))(S (NP (VB (watch)))(PP (RP (out)))(NP (NNP (chicago))))) |ET| 
1  |BT| (ROOT (S (ADJP (JJ (busy))(JJ (busy)))(NP (NN (day)))(NP (NN (tomorrow))))(S (NP (JJ (=]))(NN (eye))(NNS (check-up)))(ADVP (RB (then)))(VP (VBG (pick)))(PRT (RP (out)))(VP (VBG (order)))(NP (PRP$ (my))(NN (corsage)))(PP (IN (for)))(NP (NN (prom)))(NP (JJ (next))(NN (weekend))))) |ET| 
-1  |BT| (ROOT (S (NP (RB (only))(CD (365))(NN (day)))(VP (VBD (leave))))(S (NP (PRP (i)))(VP (MD (will))(VB (be)))(PP (IN (with)))(NP (JJ (u)))(NP (DT (all))))) |ET| 
-1  |BT| (ROOT (S (NP (NN (today)))(NP (PRP (i)))(VP (VBP (pray)))(PP (IN (for))))(S (NP (PRP (i)))(VP (VBP (do))(RB (not))(VB (know)))(NP (NN (acceptance))))(S (ADVP (RB (maybe)))(NP (RB (normality))))(S (NP (PRP (i)))(VP (VBP (do))(RB (not))(VB (wan))(TO (na))(VB (feel)))(ADVP (RB (so))(JJ (off)))(ADJP (JJ (unstable)))(NP (PDT (all))(DT (the))(NN (time))))(S (ADVP (RB (not))(RB (just)))(ADJP (RB (emotionally))(JJ (stable)))(PP (IN (in)))(NP (DT (all))(NNS (aspect))))) |ET| 
-1  |BT| (ROOT (S (NP (VB (im)))(VP (VBN (employ)))(NP (JJ (full))(NN (time))))(S (VP (VB (thank)))(NP (PRP (you)))(NP (NNP (god))))) |ET| 
1  |BT| (ROOT (S (VP (VBZ (be)))(ADJP (RB (so))(JJ (fucked))))) |ET| 
1  |BT| (ROOT (S (NP (DT (the))(NNP (south)))(VP (VBZ (be)))(NP (DT (the))(JJ (phanny))(NN (pack)))(PP (IN (of)))(NP (DT (the))(NNP (unnited))(NNPS (states))))) |ET| 
1  |BT| (ROOT (S (NP (DT (the))(NN (world)))(VP (VBZ (be)))(NP (PRP$ (yours))))) |ET| 
-1  |BT| (ROOT (S (NP (DT (the))(NNP (future)))(VP (VBZ (be)))(NP (NNP (lookin))(NNP (so))(NNP (much))(NNP (brighter))))) |ET| 
-1  |BT| (ROOT (S (NP (EX (there)))(VP (VBZ (be)))(NP (DT (a))(NNP (black))(NNP (snake)))(PP (IN (in)))(NP (DT (the))(NN (bathroom))))) |ET| 
-1  |BT| (ROOT (S (NP (NNS (hmm)))(VP (WP (what))(TO (to))(VB (do)))(NP (NN (today))))) |ET| 
1  |BT| (ROOT (S (NP (PRP (i)))(VP (VB (bleed)))(NP (NN (black))(CC (&))(SYM (&))(NNP (gold))))(S (NP (WP (who))(NNP (dat))(NNP (nation))))) |ET| 
1  |BT| (ROOT (S (NP (JJ (holy))(NN (crap)))(NP (WDT (that)))(VP (VBD (cost)))(NP (RP (over))(CD (250))(CD (million)))(NP (PRP (i)))(VP (VBP (do))(RB (not))(VB (think)))(NP (PRP (they)))(VP (VBP (be))(VBN (do))))) |ET| 
1  |BT| (ROOT (S (NP (PRP (it)))(VP (VBD (rain)))(PP (IN (on)))(NP (PRP (i))))(S (NP (VBZ (:{)))(VP (VBG (consider))(VBG (watch)))(NP (NNP (august))(NNP (rush))(NN (tonight))))(S (ADVP (RB (maybe)))(NP (DT (a))(NN (bit)))(PP (IN (of)))(NP (JJ (light)))(VP (NN (reading))))) |ET| 
-1  |BT| (ROOT (S (NP (VBZ (be)))(NP (NN (anyone)))(VP (VBG (go)))(PP (TO (to)))(NP (DT (the))(NN (fair))))(S (NP (PRP (i)))(VP (VBP (want))(TO (to))(VB (go)))(PP (IN (for)))(NP (DT (the))(NN (cimmon))(NNS (roll))))) |ET| 
-1  |BT| (ROOT (S (NP (CD (2))(JJ (consecutive))(NNS (night)))(PP (IN (of)))(NP (NN (phone))(NN (argument))))(S (VP (VB (keep)))(NP (PRP (it)))(PRT (RP (up))))(S (NP (NN (haha))))(S (NP (NN (tnx)))(PP (TO (to)))(NP (NNP (kriscel))(NNP (llanderal)))(NP (NNP (douph))(VBZ (mijare)))(PP (IN (for)))(NP (DT (a))(JJ (wonderful))(NN (night))))(S (NP (PRP$ (we))(NN (bonding)))(VP (VBZ (be)))(ADVP (RB (not))(JJ (enough))))(S (NP (RB (more))(VBP (please))))) |ET| 
-1  |BT| (ROOT (S (NP (PRP (i)))(VP (VBP (want))(TO (to))(VB (be)))(PP (IN (at)))(NP (DT (a))(NN (beach))))) |ET| 
1  |BT| (ROOT (S (PP (TO (to)))(NP (JJ (cold))(TO (to))(VB (be))(JJ (outside)))(NP (NN (today))))) |ET| 
1  |BT| (ROOT (S (NP (NN (today)))(VP (VBZ (be)))(NP (PRP$ (my))(NN (birthday))(NN (whoop))(NN (whoop))))) |ET| 
1  |BT| (ROOT (S (VP (MD (will))(VB (be)))(NP (NN (home)))(NP (NN (today)))(PP (IN (by)))(NP (CD (12))(NNS (:}))))) |ET| 
-1  |BT| (ROOT (S (UCP (UH (wow)))(NP (PRP (i)))(VP (VBD (forget)))(NP (PRP$ (my))(NN (tie)))(NP (PRP$ (my))(NN (belt)))(VP (TO (to))(VB (work)))(NP (NN (today))))) |ET| 
-1  |BT| (ROOT (S (VP (VB (rock)))(NP (DT (the))(CD (three))(NNS (musketeer))(NN (shirt)))(NP (NN (today))))) |ET| 
-1  |BT| (ROOT (S (VP (VBZ (hate))(VBG (have))(TO (to))(VB (call)))(PRT (RP (off)))(NP (NN (work)))(VP (TO (to))(VB (do)))(NP (NN (homework))))) |ET| 
1  |BT| (ROOT (S (VP (VBG (run)))(PP (IN (in)))(NP (DT (the))(NN (morning))))(S (NP (NNP (lol))))) |ET| 
1  |BT| (ROOT (S (ADVP (RB (well)))(NP (PDT (all))(DT (the))(NN (fun)))(VP (VBZ (come)))(PP (TO (to)))(NP (DT (a))(NN (stop))))(S (ADVP (RB (back)))(PP (TO (to)))(NP (DT (the))(JJ (real))(NN (world.but)))(VP (VBD (have)))(NP (DT (a))(NN (blast))))) |ET| 
1  |BT| (ROOT (S (VP (VBG (lay)))(PP (IN (in)))(NP (DT (the))(NN (grass)))(PP (IN (in)))(NP (DT (the))(NN (sun)))(VP (VBG (wonder)))(ADVP (WRB (why)))(NP (DT (the))(NN (snow)))(VP (VBZ (have))(TO (to))(VB (come))))) |ET| 
-1  |BT| (ROOT (S (NP (PRP (i)))(VP (VBP (look)))(ADVP (RB (so))(JJ (fat)))(PP (IN (in)))(NP (DT (those))(NNS (pic)))(VP (RB (wat)))(NP (DT (the))(NN (hell))))(S (NP (NN (lol))))) |ET| 
-1  |BT| (ROOT (S (NP (NN (math)))(PP (IN (at)))(NP (CD (12:30)))(ADVP (RB (then)))(ADVP (NN (home)))(PP (IN (for)))(NP (DT (the))(NN (weekend))))) |ET| 
-1  |BT| (ROOT (S (NP (WP (what)))(VP (VBZ (be)))(NP (DT (the))(NN (weather)))(PP (IN (like)))(PP (IN (around)))(NP (NNP (bristol))(CC (&))(NNP (bath))))) |ET| 
1  |BT| (ROOT (S (NP (PRP (i)))(VP (VBP (be))(RB (so))(VBN (exhaust))(VBG (get)))(ADJP (JJ (ready)))(VP (TO (to))(VB (go)))(PP (TO (to)))(NP (NN (bed))))) |ET| 
1  |BT| (ROOT (S (NP (PRP (i)))(VP (VBP (need))(TO (to))(VB (go)))(PP (TO (to)))(NP (NN (bed)))(ADVP (RB (now))))) |ET| 
1  |BT| (ROOT (S (ADVP (RB (sometimes)))(PP (IN (in)))(NP (NN (life)))(NP (PRP (you)))(ADVP (RB (just)))(VP (VBP (have))(TO (to))(VB (think)))(NP (VB (bugger)))(NP (PRP (it)))(NP (DT (all))))) |ET| 
-1  |BT| (ROOT (S (NP (NNP (dose)))(VP (RB (not))(VBP (want))(TO (to))(VB (go)))(PP (TO (to)))(NP (NN (school)))(VP (VBZ (want))(TO (to))(VB (go)))(ADVP (RB (back)))(PP (TO (to)))(NP (NN (bed))))) |ET| 
-1  |BT| (ROOT (S (NP (PRP (it)))(VP (VBZ (be)))(ADVP (RB (finally)))(NP (NNP (june))))(S (ADVP (VBN (countdown)))(PP (TO (to)))(NP (NNP (eclipse))))) |ET| 
-1  |BT| (ROOT (S (NP (PRP (i)))(VP (VBP (be)))(ADJP (JJ (whooooooooaaaakaaaaaay))))(S (NP (PRP (i)))(VP (VBP (know)))(NP (NNP (gerard))))(S (NP (PRP (you)))(VP (VBP (do))(RB (not))(VB (have))(TO (to))(VB (get))(RB (so))(JJ (annoyed)))(ADVP (RB (though))))) |ET| 
1  |BT| (ROOT (S (NP (EX (there))(NN (anything)))(ADJP (NN (nerdier)))(PP (IN (than)))(NP (DT (a))(JJ (comic))(NN (book)))(PP (IN (about)))(NP (NNP (bertrand))(NNP (russell))))) |ET| 
1  |BT| (ROOT (S (NP (NNP (spring))(VBP (break)))(PP (IN (on)))(NP (DT (the))(NN (beach)))(VP (SYM (=)))(NP (NN (heaven)))(PP (IN (on)))(NP (NN (earth))(VBP (<)))(LST (CD (3))))) |ET| 
1  |BT| (ROOT (S (NP (JJ (thinks))(JJ (developmental))(NN (plant))(NNS (genetics)))(VP (VBZ (be)))(NP (DT (the))(NN (root)))(PP (IN (of)))(NP (DT (all))(NN (evil))))(S (NP (JJ (*)))(NP (UH (yes))(DT (that)))(VP (VBZ (be)))(NP (PRP$ (my))(NN (crap))(NN (version)))(PP (IN (of)))(NP (DT (a))(NN (pitchfork))))) |ET| 
-1  |BT| (ROOT (S (PP (IN (in)))(NP (NN (macon))(NNS (!!!!!!!!!))))(S (NP (PRP$ (my))(NNS (brother)))(NP (CD (18))(NN (birthday))))(S (NP (JJ (woo-hoo))(NNS (!!))))) |ET| 
-1  |BT| (ROOT (S (VP (VB (go)))(PP (IN (on)))(NP (DT (a))(NN (roller))(NN (coster)))(PP (IN (for)))(NP (DT (the))(JJ (first))(NN (time)))(ADVP (RB (ever)))(NP (NN (today))))(S (NP (JJ (scariest))(NN (thing)))(VP (VBP (ive))(RB (ever))(VBN (do))))(S (NP (PRP (it)))(VP (VBD (be)))(ADVP (NN (alot)))(PP (IN (of)))(NP (NN (fun))))) |ET| 
-1  |BT| (ROOT (S (NP (VB (tryin))(DT (this))(JJ (new))(RB (so))(VBN (call))(NN (facebook))(NN (thing)))(NP (WDT (that)))(VP (VBZ (seem))(TO (to))(VB (be)))(NP (PDT (all))(DT (the))(NN (rage)))(ADVP (RB (nowadays))))) |ET| 
1  |BT| (ROOT (S (NP (RB (so))(JJ (much))(NN (yardwork))))(S (NP (PRP (i)))(VP (VBP (think)))(NP (PRP$ (my))(NNS (arm)))(VP (VBP (be))(VBG (go))(TO (to))(VB (fall)))(PRT (RP (off))))) |ET| 
1  |BT| (ROOT (S (NP (PRP (i)))(VP (VBP (hate)))(NP (NNP (facebook))(JJ (mobile))))(S (NP (PRP (i)))(VP (VBP (hate)))(NP (DT (this))(JJ (stupid))(NN (phone))))(S (NP (PRP (i)))(VP (VBP (hate))(VBG (have)))(NP (DT (no))(NN (internet))))(S (VP (VBG (go))(TO (to))(VB (kill)))(NP (PRP (myself)))(ADVP (RB (now))))) |ET| 
1  |BT| (ROOT (S (VP (VBZ (like)))(PP (TO (to)))(NP (VB (move)))(NP (PRP (it)))(VP (VB (move)))(NP (PRP (it))))(S (NP (PRP (she)))(VP (VBZ (like))(TO (to))(VB (move)))(NP (PRP (it)))(VP (VB (move)))(NP (PRP (it))))(S (VP (VB (move)))(NP (PRP (it)))(VP (VB (move)))(NP (PRP (it))))) |ET| 
-1  |BT| (ROOT (S (NP (PRP (i)))(ADVP (RB (just)))(VP (VBD (buy)))(NP (NN (oblivion))(CC (and))(NN (cant))(VB (wait)))(VP (TO (to))(VB (play)))(NP (PRP (it))))) |ET| 
-1  |BT| (ROOT (S (NP (CD (75))(CC (and))(CD (sunny))))(S (NP (PRP (i)))(VP (MD ('ll))(VB (take)))(NP (DT (that))))(S (NP (NNS (thanks))(NNP (minnesota))))) |ET| 
-1  |BT| (ROOT (S (NP (PRP (i)))(VP (VBP (know)))(NP (PRP (you)))(VP (VBP (want)))(NP (PRP (i)))(NP (NN (baby))))(S (NP (PRP (i)))(VP (VBP (think)))(NP (PRP (i)))(VP (VBP (want)))(NP (PRP (you)))(ADVP (RB (too))))(S (NP (PRP (i)))(VP (VBP (think)))(NP (PRP (i)))(VP (VBP (love)))(NP (PRP (you)))(NP (NN (baby))))(S (NP (PRP (i)))(VP (VBP (think)))(NP (PRP (i)))(VP (VBP (love)))(NP (PRP (you)))(ADVP (RB (too))))) |ET| 
1  |BT| (ROOT (S (NP (WP (who)))(VP (VBZ (be))(VBG (hit)))(PRT (RP (up)))(NP (NNP (combichrist)))(NP (NNP (shiv-r)))(NP (DT (this))(NNP (saturday))(NN (night))))) |ET| 
1  |BT| (ROOT (S (NP (WP (what)))(NP (VBZ (be))(JJ (wrong)))(PP (IN (with)))(NP (NNP (airtel)))(NP (DT (all))(JJ (outgoing))(NNS (service)))(VP (VBP (be))(VBN (block))))) |ET| 
1  |BT| (ROOT (S (SBAR (RB (just)))(VP (VBP (want))(TO (to))(VB (give)))(NP (DT (a))(NN (shout)))(PP (RP (out)))(PP (TO (to)))(NP (PDT (all))(PRP$ (my))(NNS (peep)))(PP (IN (at)))(NP (NNP (ets))))(S (PP (IN (as)))(NP (DT (the))(NN (pretzel))(NNP (m))(CC (&))(NNP (m)))(NP (POS ('s)))(VP (VBP (be))(VBG (melt)))(PP (IN (in)))(NP (PRP$ (my))(NN (mouth))))) |ET| 
-1  |BT| (ROOT (S (NP (NNP (alabama)))(VP (VBZ (be))(VBG (go)))(PP (TO (to)))(NP (NNP (win))))) |ET| 
-1  |BT| (ROOT (S (NP (-LRB- (-lrb-))(TO (to))(NN (everyone))(-RRB- (-rrb-)))(NP (WP (what)))(VP (VBZ (be)))(NP (PRP$ (you))(NN (opinion)))(PP (IN (on)))(NP (NN (gambling))))) |ET| 
-1  |BT| (ROOT (S (VP (VBZ (be)))(PP (IN (about)))(PP (TO (to)))(NP (VB (go)))(PP (TO (to)))(NP (DT (the))(NN (gym)))(VP (VB (work)))(NP (DT (some))(NN (flab)))(PRT (RP (off))))) |ET| 
1  |BT| (ROOT (S (PP (IN (at)))(NP (NN (mb2)))(PP (IN (with)))(NP (NN (jed))(CC (and))(VBP (george))))(S (NP (PRP (i)))(VP (VBP (love)))(NP (RB (gabby))))(S (NP (NNP (>))))) |ET| 
1  |BT| (ROOT (S (NP (PRP (i)))(VP (VBP (love)))(NP (DT (the))(NN (weather))(RB (right)))(NP (JJ (now!cool))(CC (and))(JJ (breeeezy))))) |ET| 
1  |BT| (ROOT (S (NP (NN (nothing)))(VP (VBG (involve)))(NP (PRP (you)))(VP (VBZ (concern)))(NP (PRP (i)))(NP (NN (today))))) |ET| 
-1  |BT| (ROOT (S (NP (PRP (i)))(VP (VBD (bid)))(NP (VB (thee)))(NP (PDT (all))(DT (a))(RB (very))(JJ (fond))(NN (farewell))))(S (PP (IN (for)))(NP (DT (a))(NN (week))(-RRB- (-rrb-))(VBD (<))(CD (3))))) |ET| 
-1  |BT| (ROOT (S (NP (VB (fill))(PRP$ (you))(NN (heart)))(PP (IN (with)))(NP (NN (goodwill))(CC (and))(NN (cheer))))) |ET| 
-1  |BT| (ROOT (S (NP (NN (part)))(PP (IN (of)))(NP (PRP (i)))(VP (VBD (go)))(PP (IN (with)))(NP (PRP (you))))(S (NP (FW (i)))(VP (MD ('ll))(VB (see)))(NP (PRP (you)))(PP (IN (in)))(NP (DT (the))(NNS (star))))) |ET| 
1  |BT| (ROOT (S (VP (VBZ (be)))(NP (JJ (headin))(NN (home))))(S (NP (JJ (happy))(NNS (mother))(NN (day)))(PP (TO (to)))(NP (PRP$ (my))(JJ (wonderful))(NN (mother))))(S (NP (FW (i))(NN (love)))(NP (PRP (you))))) |ET| 
1  |BT| (ROOT (S (VP (VBZ (be))(VBG (die))(TO (to))(VB (go)))(NP (NN (skiing))(NN (<))(CD (3))))) |ET| 
1  |BT| (ROOT (S (ADVP (RB (off)))(PP (TO (to)))(NP (NN (night))(VBP (train))))) |ET| 
-1  |BT| (ROOT (S (VP (VBD (get))(NN (ta))(VB (love)))(NP (DT (this))(NN (weather))))) |ET| 
-1  |BT| (ROOT (S (NP (PRP$ (its))(NNP (christmas))(CC (and))(FW (im)))(VP (VBG (sit)))(ADVP (RB (here)))(VP (VBG (read))))) |ET| 
-1  |BT| (ROOT (S (NP (`` ("))(NNS (fob))(CC (&))(JJ (black))(NNS (guy)))(VP (VBP (be)))(NP (RB (just))(DT (a))(NN (gift)))(PP (TO (to)))(NP (DT (the))(JJ (human))(NN (race))))) |ET| 
0.91955534208557787589910503811552  |BT| (ROOT (S (NP (NNS (thanks)))(PP (IN (for)))(NP (PDT (all)))(NP (DT (the))(NN (birthday)))(VP (VBZ (wish))))(S (NP (NNS (thanks))(VBP (steph)))(PP (IN (for)))(NP (DT (the))(JJ (great))(NN (birthday))(NN (bbq))))) |ET| 
1  |BT| (ROOT (S (VP (VBD (give)))(PP (RP (in))(CC (and)))(VP (VBD (close)))(NP (PRP$ (she))(NN (window)))(VP (VBN (turn)))(PP (IN (on)))(NP (DT (the))(NN (radiator))))(S (NP (NN (brrrrrr))(NNS (!!!!!))))(S (NP (NN (xxx))))) |ET| 
1  |BT| (ROOT (S (NP (VB (pop))(DT (a))(NN (top)))(ADVP (RB (again))))(S (NP (DT (that)))(VP (VBZ (be)))(NP (WP (what)))(NP (PRP (i)))(VP (MD ('ll))(VB (be))(VBG (do)))(NP (DT (all))(NN (weekend))))(S (ADVP (RB (maybe)))(NP (PRP (i)))(VP (MD ('ll))(VB (get)))(NP (DT (some))(NN (strongbow)))(VP (VB (drink)))(NP (DT (a))(JJ (few)))(PP (IN (for)))(NP (NNP (erica))))) |ET| 
-1  |BT| (ROOT (S (NP (NNP (yup))(NNP (off))(VBP (work))))(S (NP (NNP (feelin))(NNP (myself))))(S (NP (NNP (time)))(VP (TO (to))(VB (get)))(NP (PRP (it)))(NP (NNP (n))(NNP (!!!!))))(S (NP (NNP (lakers))(NNP (all)))(PP (NNP (tha)))(NP (NNP (way))))) |ET| 
-1  |BT| (ROOT (S (NP (CD (5))(NNS (year)))(NP (DT (the))(NNP (mrs.)))(NP (PRP (i)))(VP (VBP (have))(VBN (be)))(NP (VBN (marry)))(NP (NN (today))))(S (NP (PRP (she)))(VP (VBZ (have))(RB (not))(VBN (kill)))(NP (PRP (i)))(ADVP (RB (yet)))(SBAR (IN (so)))(NP (PRP (we)))(VP (VBP (be))(VBG (do)))(ADJP (JJ (good))))) |ET| 
-1  |BT| (ROOT (S (NP (NNP (life)))(VP (VBZ (be)))(ADJP (JJ (good)))(ADVP (WRB (when)))(NP (PRP (you)))(VP (VBP (have)))(NP (NN (someone)))(VP (TO (to))(VB (love))(CC (and))(VBP (love)))(NP (PRP (you)))(ADVP (RP (back))))) |ET| 
1  |BT| (ROOT (S (NP (RB (only))(DT (those))(RB (truly))(VBN (lose)))(VP (MD (can))(VB (be))(VBN (find))))) |ET| 
1  |BT| (ROOT (S (PP (VB (like)))(NP (DT (this)))(PP (IN (for)))(NP (DT (a))(NNS (jame)))(VP (VBZ (think))))) |ET| 
1  |BT| (ROOT (S (VP (VBZ (have))(VBN (manage))(TO (to))(VB (piss)))(NP (NNP (wafi)))(PRT (RP (off)))(PP (IN (as)))(ADJP (JJ (usual))))) |ET| 
-1  |BT| (ROOT (S (ADVP (VB (soo)))(ADJP (VBN (excite)))(PP (IN (for)))(NP (DT (the))(NN (graduation))))) |ET| 
-1  |BT| (ROOT (S (VP (NNS (look)))(PP (VBP (like)))(NP (EX (there)))(VP (MD (will))(VB (be)))(NP (DT (some))(JJ (awesome))(NNS (photo)))(PP (IN (from)))(NP (JJ (last))(NN (night))))) |ET| 
-1  |BT| (ROOT (S (VP (VBG (wait)))(PP (IN (for)))(NP (DT (the))(NN (day)))(VP (TO (to))(NNS (end.i))(RB (just))(VBP (wan))(TO (na))(VB (lay)))(PRT (RP (down))))(S (ADJP (RB (so))(VBN (tire)))(PP (IN (for)))(NP (DT (some))(NN (reason))))) |ET| 
1  |BT| (ROOT (S (VP (VBZ (be))(VBG (go)))(PP (TO (to)))(NP (DT (the))(NN (beach)))(PP (IN (in)))(NP (DT (a))(NN (while))))(S (SBAR (NNP (wish)))(NP (PRP (you)))(VP (MD (could))(VB (come)))(NP (NNP (babe))))(S (VP (NNP (love)))(NP (PRP (you)))(NP (PRP (i)))(VP (MD ('ll))(VB (talk)))(PP (TO (to)))(NP (PRP (you)))(ADVP (RB (later)))(ADVP (RB (hopefully))))) |ET| 
1  |BT| (ROOT (S (NP (FW (i)))(VP (RB (wana))(VBP (sell)))(NP (PRP$ (my))(NN (art))))(S (NP (PRP$ (my))(NN (pastel))(CC (and))(WP (what))))(S (NP (PRP (it)))(VP (MD (would))(VB (be)))(NP (DT (a))(JJ (great))(NN (way)))(VP (TO (to))(VB (make)))(NP (NN (money))))) |ET| 
1  |BT| (ROOT (S (NP (NNP (woo))))(S (ADVP (RB (later)))(VP (VBG (go))(TO (to))(VB (watch)))(NP (DT (the))(NNP (blood))(NNP (pledge)))(PP (IN (with)))(NP (NNP (baby))))(S (NP (JJ (next))(NN (week)))(NP (PRP (i)))(VP (MD (shall))(VB (watch)))(NP (DT (the))(NNP (sorcerer)))(NP (POS ('s))(NNP (apprentice))(CC (&))(NNP (the))(NNP (crazies))('' ("))))) |ET| 
-1  |BT| (ROOT (S (NP (DT (this)))(VP (VBZ (be)))(NP (DT (a))(JJ (appropriate))(NN (time)))(VP (TO (to))(VB (say)))(NP (JJ (namaste))))) |ET| 
-1  |BT| (ROOT (S (ADVP (WRB (why)))(VP (VBP (be)))(ADVP (FW (i)))(PP (IN (on)))(NP (DT (this)))(ADVP (RB (so))(JJ (early))))(S (NP (JJ (fresh))(NN (prince)))(VP (VBZ (be)))(ADVP (RB (on)))(ADVP (RB (soon)))(NP (NNP (d))))) |ET| 
-1  |BT| (ROOT (S (VP (NN (failing)))(PP (TO (to)))(NP (NNP (plan)))(VP (VBZ (be)))(PP (IN (like)))(NP (NNP (planning)))(PP (TO (to)))(NP (NN (fail)))(NP ('' ("))))) |ET| 
1  |BT| (ROOT (S (PP (RB (just)))(VP (VBG (live)))(NP (DT (the))(NN (dream))))) |ET| 
1  |BT| (ROOT (S (VP (VBG (go)))(ADVP (RP (back)))(PP (IN (into)))(NP (DT (the))(NN (cold))))) |ET| 
1  |BT| (ROOT (S (NP (VB (do))(NN (school)))(PP (IN (for)))(NP (DT (the))(NN (summer)))(ADVP (RB (now))))) |ET| 
-1  |BT| (ROOT (S (NP (NNP (groovin)))(NP (DT (the))(NN (moo))))) |ET| 
-1  |BT| (ROOT (S (NP (DT (the))(NNS (status)))(PP (IN (about)))(NP (DT (the))(NNP (jersey))(NNP (shore)))(VP (VBD (seem))(TO (to))(VB (have))(VBN (decrease)))(NP (NNP (x))))) |ET| 
-1  |BT| (ROOT (S (NP (NNS (thanks)))(VP (VBN (alot)))(PP (IN (for)))(NP (DT (the))(NNS (wish))(JJ (everyonee)))(PP (NNS (:})))(NP (VBP (<))(CD (3))))) |ET| 
1  |BT| (ROOT (S (NP (NN (love)))(VP (VBZ (mean))(TO (to))(VB (commit)))(NP (PRP (oneself)))(PP (IN (without)))(NP (NN (guarantee)))(VP (TO (to))(VB (give)))(NP (PRP (oneself)))(ADVP (RB (completely))))(S (NP (NNP (love)))(VP (VBZ (be)))(NP (DT (a))(NN (act)))(PP (IN (of)))(NP (NN (faith))))) |ET| 
1  |BT| (ROOT (S (NP (JJ (common)))(NP (VBP (lie))(TO (to))(NNP (me))))(S (NP (NNP (p))))) |ET| 
1  |BT| (ROOT (S (NP (RB (just)))(VP (VBD (get)))(NP (NN (home)))(PP (IN (from)))(VP (NN (hangin)))(PP (IN (with)))(NP (NNP (ma)))(NP (POS ('))(NNS (boy))))(S (NP (NNP (college))(CC (and))(VBP (work)))(NP (NN (tomorrow))))) |ET| 
-1  |BT| (ROOT (S (NP (JJ (sick)))(PP (IN (of)))(VP (VBG (read)))(NP (NN (master)))(NP (POS ('s))(NNS (thesis))))) |ET| 
-1  |BT| (ROOT (S (VP (VBD (finish))(VBG (read)))(NP (NN (bokurano))))(S (ADVP (JJ (soooooo))(RB (much)))(NP (JJR (better)))(PP (IN (than)))(NP (DT (the))(JJ (anime))))) |ET| 
-1  |BT| (ROOT (S (NP (PRP (i)))(VP (MD (can))(VB (be)))(NP (PRP$ (you))(NN (hero)))(NP (NN (baby))))(S (NP (PRP (i)))(VP (MD (can))(NN (kiss)))(ADVP (RP (away)))(NP (DT (the))(NN (pain))))(S (NP (PRP (i)))(VP (MD (will))(VB (stand)))(PP (IN (by)))(NP (PRP (you)))(ADVP (RB (forever))))(S (NP (PRP (you)))(VP (MD (can))(VB (take)))(NP (PRP$ (my))(NN (breath)))(ADVP (RB (away)))(NP (PRP (i)))(VP (VBP (wish)))(NP (PRP (i)))(VP (VBD (have)))(NP (DT (a))(NNP (hero))))) |ET| 
1  |BT| (ROOT (S (VP (VBZ (have)))(NP (DT (a))(NNP (very))(NNP (interesting)))(NP (NNP (frustrating)))(ADVP (NNP (long)))(NP (NNP (crazy))(NNP (day))))) |ET| 
1  |BT| (ROOT (S (NP (JJ (dead))(NN (snow)))(VP (VBZ (be)))(PP (IN (by)))(NP (RB (far))(DT (the))(JJS (best))(NN (zombie))(NN (movie))(FW (i)))(VP (VBP (have))(VBN (see))))) |ET| 
1  |BT| (ROOT (S (PP (NNP (thk)))(NP (NNP (goodness))(NNP (this))(NNP (week)))(VP (VBZ (be)))(NP (NNP (over))))) |ET| 
-1  |BT| (ROOT (S (NP (NNP (ma))(NN (bday)))(VP (VBZ (be)))(PP (IN (in)))(NP (DT (a))(NN (hour.turnin)))(NP (CD (18))(NNP (biznatches))))(S (NP (VBP (^))(CD (3))(NNS (^))))) |ET| 
-1  |BT| (ROOT (S (NP (NNP (wet))(CC (and))(NNP (hard))))(S (NP (NNP (>))))) |ET| 
-1  |BT| (ROOT (S (NP (VB (hmmm))(NN (bacon))))) |ET| 
1  |BT| (ROOT (S (NP (NNS (photo)))(PP (IN (from)))(NP (DT (the))(NNP (redeemer))(NN (night)))(NP (RB (all))(VBN (sort))))(S (NP (NN (time)))(VP (TO (to))(VB (get)))(ADJP (JJ (ready)))(PP (IN (for)))(NP (NNP (ragnarock))))) |ET| 
1  |BT| (ROOT (S (VP (VBZ (have))(VBN (make)))(NP (PRP (it)))(VP (TO (to))(NNP (lucknow)))(PP (IN (in)))(NP (NN (time)))(PP (IN (for)))(NP (NNP (pain)))(PP (IN (of)))(NP (NNP (salvation)))(NP (NNP (tunde))(NNP (kebabs))))) |ET| 
1  |BT| (ROOT (S (NP (JJ (good))(NN (day)))(PP (IN (of)))(VP (VBD (work.headed)))(PP (TO (to)))(NP (DT (the))(NNS (city)))(NP (NN (tomorrow))))) |ET| 
-1  |BT| (ROOT (S (VP (VBG (hope)))(PP (TO (to)))(NP (VB (go)))(PRT (RP (out)))(PP (IN (on)))(NP (NNP (wednesday)))(PP (IN (with)))(NP (NN (jennifer))))) |ET| 
-1  |BT| (ROOT (S (VP (VBG (go)))(PP (TO (to)))(NP (NN (home))))) |ET| 
-1  |BT| (ROOT (S (NP (NN (everthing)))(VP (VBZ (have)))(NP (NN (beauty)))(NP (PRP (you)))(ADVP (RB (just)))(VP (VBP (have))(TO (to))(VB (see)))(NP (PRP (it)))(NP (VBP (<))(CD (3))))) |ET| 
1  |BT| (ROOT (S (NP (NNP (eggs))(CC (and))(NNP (grits))))) |ET| 
1  |BT| (ROOT (S (NP (FW (i)))(VP (MD (need)))(NP (DT (another))(JJ (whole))(NN (weekend))))(S (ADJP (RB (very))(VBG (relax)))(NP (DT (this))(NN (weekend))))) |ET| 
1  |BT| (ROOT (S (NP (VBD (get))(JJ (new))(NN (work))(NNS (boot))))(S (NP (UH (yes))(DT (this)))(VP (VBZ (be)))(NP (DT (a))(JJ (big))(NN (deal))))) |ET| 
-1  |BT| (ROOT (S (NP (DT (the))(RBS (best))(JJ (mind-altering))(NN (drug)))(VP (VBZ (be)))(NP (NN (truth))))) |ET| 
-1  |BT| (ROOT (S (NP (NNP (wish))(PRP (i)))(VP (VBD (have)))(NP (DT (the))(NN (energy)))(PP (IN (like)))(NP (DT (the))(NN (dog)))(NP (PRP (we)))(VP (VBP (be))(VBG (watch))))(S (NP (PRP (he)))(VP (VBZ (be)))(PP (IN (like)))(NP (DT (the))(NN (energizer))(NN (bunny)))(VP (NNP (lol))))) |ET| 
-1  |BT| (ROOT (S (NP (DT (the))(NN (bus)))(VP (VBZ (be)))(ADJP (JJ (bad))))(S (NP (PRP$ (its))(NN (kind)))(PP (IN (of)))(NP (NN (relaxing.it)))(ADVP (RB (just)))(VP (VBZ (take)))(NP (RBR (longer))))) |ET| 
1  |BT| (ROOT (S (VP (VBZ (want))(TO (to))(VB (go))(JJ (skating)))(NP (RB (so))(JJ (bad))))) |ET| 
1  |BT| (ROOT (S (VP (VBG (take)))(NP (NNP (jim)))(PP (TO (to)))(NP (DT (the))(NNS (doctor)))(NP (NN (today)))(PP (IN (for)))(NP (DT (a))(NN (ctscan)))(VP (MD (should))(VB (start)))(NP (NN (ratation)))(NP (JJ (next))(NN (week))))) |ET| 
1  |BT| (ROOT (S (VP (VBN (head)))(PP (TO (to)))(NP (VB (work)))(ADVP (RB (soon)))(NP (NN (gah))(MD (can))(NNS (thing)))(VP (VB (be))(VBG (go)))(ADVP (DT (any))(RBR (better))))) |ET| 
-1  |BT| (ROOT (S (NP (DT (a))(JJ (good))(NN (night)))(NP (JJ (last))(NN (night)))(VP (RB (just))(VBG (try))(TO (to))(VB (get)))(PRT (IN (over)))(NP (DT (this))(JJ (damn))(NN (flu))(NN (shit))))) |ET| 
-1  |BT| (ROOT (S (NP (VB (im)))(ADVP (NN (sooo)))(VP (RB (hapy)))(SBAR (IN (that)))(NP (PRP$ (my))(NNS (account)))(ADVP (VBP (back))))) |ET| 
-1  |BT| (ROOT (S (VP (VBD (get)))(NP (PRP$ (my))(NN (homecoming))(NN (dress))(-LRB- (-lrb-)))(NP (JJ (ughh))(NN (n))(VBP (im)))(VP (VBN (tire))))(S (VP (VBD (have))(TO (to))(VB (walk))(TO (to))(VB (skool)))(NP (DT (this))(NN (morning))))) |ET| 
1  |BT| (ROOT (S (NP (NN (wtf)))(VP (VBZ (be)))(PP (IN (with)))(NP (PDT (all))(DT (the))(NN (pokemon))(NNS (pic))))) |ET| 
1  |BT| (ROOT (S (NP (NNP (cookin)))(NP (DT (the))(NN (house)))(VP (VBZ (be))(VBN (fill)))(PP (IN (with)))(NP (NN (aroma))))(S (NP (NN (mmmmm))))) |ET| 
1  |BT| (ROOT (S (NP (RB (just)))(VP (VBN (watch)))(NP (DT (the))(NN (traped)))(PP (IN (in)))(NP (DT (the))(NN (closet))(NN (saga)))(ADVP (RB (still)))(VP (VBZ (make)))(NP (DT (no))(JJ (sence))))(S (NP (NN (lol))))) |ET| 
-1  |BT| (ROOT (S (NP (NNS (guy)))(NP (FW (i)))(VP (VBP (need))(NN (feedback)))(PP (IN (on)))(NP (NNP (altec))(NNP (lansing))(NNP (vs2621))(NNS (thanks))))) |ET| 
-1  |BT| (ROOT (S (VP (VBZ (feel)))(NP (JJ (sick)))(PP (IN (from)))(NP (PDT (all))(DT (the))(JJ (sweet))(JJ (martha)))(UCP (NN (cookies.but)))(NP (PRP (they)))(VP (VBD (be)))(ADJP (RB (so))(JJ (good))))) |ET| 
-1  |BT| (ROOT (S (UCP (`` (")))(UCP (RB (just)))(VP (VBP (remember)))(NP (PRP (you)))(VP (VBP (be)))(NP (DT (the))(CD (one))(NN (thing)))(NP (FW (i)))(VP (MD (can))(RB (not))(VB (get)))(NP (RB (enough)))(PP (IN (of)))(NP ('' ("))))) |ET| 
1  |BT| (ROOT (S (VP (VB (join)))(NP (PRP (i)))(PP (IN (for)))(NP (VB (spin)))(NP (NN (today))))(S (PP (VBD (9am)))(NP (NNP (mesquite)))(NP (CD (24))(NNP (hour))))(S (NP (NNP (great))(VBP (ride)))(NP (JJ (great))(NN (gym)))(NP (JJ (great))(NNS (people))))(S (NP (VBP (have))(NN (fun)))(SBAR (IN (while)))(NP (PRP (you))(NN (workout)))(VP (VB (be))(VBN (inspire))))) |ET| 
1  |BT| (ROOT (S (NP (FW (i)))(VP (VBD (get)))(NP (PRP$ (my))(NN (ring)))(VP (VBN (clean)))(NP (PRP$ (its)))(PP (JJ (like)))(NP (JJ (new))(NNS (*)))(PP (VBG (=})))(NP (CD (<))(CD (3))(VBP (love)))(NP (PRP (it))))) |ET| 
1  |BT| (ROOT (S (NP (PRP (i)))(VP (VBP (be)))(ADVP (RB (really)))(PP (IN (in)))(NP (DT (the))(NN (mood)))(VP (TO (to))(VB (watch)))(NP (DT (some))(JJ (old))(NNS (cartoon))))) |ET| 
-1  |BT| (ROOT (S (NP (NNP (absurdity))(CC (and))(NNP (paradox))(, (,))(NNP (insomnia))(CC (and))(NNP (hallucination)))(VP (VB (take)))(NP (PRP (it)))(ADVP (RP (away)))(VP (VB (leave)))(NP (PRP (i)))(PP (IN (with)))(NP (NN (serenity))))) |ET| 
-1  |BT| (ROOT (S (ADVP (RB (just)))(VP (VBD (send)))(PP (IN (in)))(NP (PRP$ (my))(JJ (last))(JJ (premin))(NN (internship))(NN (journal)))(PP (IN (for)))(NP (DT (the))(NN (summer))))(S (NP (PRP (it)))(VP (VBZ (be))(VBG (come)))(PP (TO (to)))(NP (DT (a))(NN (close)))(ADVP (RB (soon)))(VP (VBZ (be)))(NP (PRP (it))))) |ET| 
-1  |BT| (ROOT (S (NP (DT (the))(NNS (kid)))(VP (VBP (be)))(PRT (RP (off)))(PP (IN (with)))(NP (NN (grandma))))(S (NP (WP (what)))(PP (IN (in)))(NP (DT (the))(NN (world)))(VP (VBP (do)))(NP (PRP (i)))(VP (VB (do)))(ADVP (RB (now))))(S (NP (PRP (i)))(VP (VBP (be))(RB (totally))(VBN (lose)))(NP (DT (no))(NN (one)))(VP (VBZ (be))(VBG (fight))))(S (NP (PRP (it)))(VP (VBZ (be)))(ADJP (NN (sooo))(JJ (quiet))))) |ET| 
1  |BT| (ROOT (S (NP (VBZ (techno)))(PP (IN (on)))(NP (DT (the))(NN (weather))(NN (channel))))) |ET| 
1  |BT| (ROOT (S (VP (VBZ (be)))(VP (VBG (go)))(PP (IN (on)))(NP (DT (a))(NNS (mission))(NN (trip)))(PP (TO (to)))(NP (NN (atlanta))(NN (tomorrow))))(S (ADJP (RB (so))(JJ (excited))))) |ET| 
1  |BT| (ROOT (S (VP (VB (bring)))(NP (PRP (it)))(PP (IN (on)))(NP (NN (homework))(NN (lol))))) |ET| 
-1  |BT| (ROOT (S (NP (NN (r))(NN (u)))(VP (VBG (kid)))(NP (PRP (i))))(S (NP (NNP (game)))(PP (IN (of)))(NP (DT (the))(NN (week))(VBZ (buc)))(PP (IN (at)))(NP (NN (arizona))))) |ET| 
-1  |BT| (ROOT (S (NP (NNS (thanks)))(PP (IN (for)))(NP (PDT (all))(DT (the))(NN (birthday))(NNS (message))(NN (everyone))))) |ET| 
-1  |BT| (ROOT (S (NP (NN (home))(DT (all))(NN (day)))(VP (VBD (elevate)))(NP (PRP$ (my))(NN (foot)))(NP (PDT (all)))(NP (DT (the))(NN (pain)))(PP (IN (for)))(NP (DT (a))(RB (really))(JJ (bad))(NN (bruise))))) |ET| 
1  |BT| (ROOT (S (NP (PRP (i)))(VP (VBP (guess)))(NP (NN (everyone)))(NP (VBZ (be))(JJ (helpless)))(ADVP (WRB (when)))(PP (IN (in)))(NP (NN (love))))(S (NP (JJ (*))(NNS (envy)))(VP (VBP (*)))(ADVP (RB (again)))(SBAR (IN (if)))(NP (EX (there)))(VP (VBZ (be)))(NP (CD (one))(NN (thing)))(NP (PRP (i)))(VP (VBP (hate)))(NP (PRP (it)))(VP (VBZ (be)))(NP (JJ (helplessness))))) |ET| 
1  |BT| (ROOT (S (PP (TO (to)))(NP (PDT (all))(DT (the))(NN (ap))(NNS (student)))(VP (VBP (pullin)))(NP (DT (all))(NNS (nighter)))(VP (VB (know)))(NP (DT (this)))(NP (PRP (you)))(VP (VBP (be)))(ADJP (RB (alone))))) |ET| 
1  |BT| (ROOT (S (VP (VBD (have)))(NP (DT (a))(JJ (great))(NN (day)))(PP (IN (in)))(NP (DT (the))(NN (barn)))(NP (NN (today)))(VP (VBN (surround)))(PP (IN (by)))(NP (JJ (wonderful))(NNS (people))(CC (&))(JJ (wonderful))(NNS (horse))))(S (NP (NNP (life)))(VP (VBZ (be)))(ADVP (RB (so))(RB (much)))(ADVP (WRB (when)))(NP (PRP (you)))(VP (VBP (be)))(PP (IN (with)))(NP (DT (the))(JJ (right))(NNS (people))))(S (NP (NNS (thing)))(ADVP (RB (just)))(VP (VBP (fall)))(PP (IN (into)))(NP (NN (place))(CC (&)))(NP (PRP (it)))(ADVP (DT (all)))(ADVP (RB (just)))(VP (VBZ (feel)))(ADVP (JJ (right))))(S (NP (PRP (i)))(VP (MD (would))(RB (not))(VB (trade)))(NP (DT (this)))(PP (IN (for)))(NP (NN (anything))))) |ET| 
-1  |BT| (ROOT (S (NP (PRP (we)))(VP (VB (pretend)))(NP (IN (that))(NNS (airplane)))(PP (IN (in)))(NP (DT (the))(NN (night))(NN (sky)))(VP (VBP (be)))(PP (IN (like)))(NP (VBG (shoot))(NNS (stars.i)))(VP (MD (could))(RB (really))(VB (use)))(NP (DT (a))(VBP (wish))(RB (right)))(ADVP (RB (now)))(VP (VBP (wish)))(ADVP (RB (right))(RB (now)))(VP (VBP (wish)))(ADVP (RB (right))(RB (now))))) |ET| 
-1  |BT| (ROOT (S (ADVP (RB (always)))(VP (VB (watch)))(NP (NNP (dr.))(NNP (oz)))(NP (JJ (tyra))(NNS (bank)))(NP (PRP (i)))(VP (VBP (head))(TO (to))(VB (work))))) |ET| 
-1  |BT| (ROOT (S (NP (PRP (i)))(VP (VBP (know)))(NP (FW (i)))(VP (VBP (be))(VBG (talk)))(NP (NNS (lot))(CC (but))(FW (i)))(VP (MD (can))(VB (schedule)))(NP (PRP (you)))(PP (IN (in)))(VP (TO (to))(VB (talk)))(NP (JJ (next))(NN (week))))) |ET| 
1  |BT| (ROOT (S (NP (PRP (i)))(VP (VBD (have)))(NP (DT (the))(JJ (hottest))(NN (optometrist)))(ADVP (RB (ever))))) |ET| 
1  |BT| (ROOT (S (NP (VBP (im)))(VP (JJ (hungry))(VB (thank)))(NP (NN (god)))(PP (IN (for)))(NP (JJ (throw-in-the-oven))(NN (pizza)))(NP (POS ('s))))) |ET| 
1  |BT| (ROOT (S (VP (VBG (wait)))(PP (IN (for)))(NP (DT (the))(JJ (right))(NN (time))))) |ET| 
-1  |BT| (ROOT (S (VP (VB (thank)))(NP (PRP (you))(RB (bridgette))))) |ET| 
-1  |BT| (ROOT (S (ADVP (WRB (where)))(NP (PDT (all))(DT (the))(NN (lightning))(NNS (bug)))(VP (VB (go))))) |ET| 
-1  |BT| (ROOT (S (ADVP (WRB (how)))(NP (PRP (you)))(VP (VB (like)))(NP (DT (a))(JJ (swift))(NN (kiss)))(PP (IN (in)))(NP (DT (the))(NN (mouth))))) |ET| 
1  |BT| (ROOT (S (NP (NNP (afton)))(VP (VBD (try))(TO (to))(VB (eat)))(NP (PRP (i)))(VP (NN (bit)))(NP (DT (a))(NN (chunk)))(PP (RP (out)))(PP (IN (of)))(NP (PRP$ (my))(NN (flesh))))(S (NP (NNP (guinea))(NN (pig))(VBD (whore))))) |ET| 
1  |BT| (ROOT (S (SBAR (IN (if)))(NP (PRP (i)))(VP (VBD (be)))(ADJP (JJ (fat)))(NP (PRP (i)))(ADVP (RB (probably)))(VP (MD (would))(RB (not))(VB (have))(VBN (catch)))(NP (DT (the))(NN (board))))(S (NP (NNP (selena))(NNP (baccam))))) |ET| 
1  |BT| (ROOT (S (ADVP (RB (ahh))(RB (so)))(NP (PRP (i)))(VP (VBP (dont)))(ADVP (RB (really)))(VP (VB (feel)))(PP (IN (like)))(VP (VBG (do)))(NP (NN (anything)))(ADVP (NN (today))))(S (PP (IN (like)))(NP (EX (there)))(VP (VBZ (be)))(NP (NN (anything)))(VP (TO (to))(VB (do)))(ADVP (NNS (anyway))))) |ET| 
-1  |BT| (ROOT (S (PP (FW (i)))(NP (NN (love))(NNP (cnn)))(ADVP (RB (just)))(SBAR (IN (because)))(NP (NNP (anderson))(NNP (cooper)))(VP (VBZ (be)))(PP (IN (on)))(NP (PRP (it))))(S (NP (NN (lol)))(NP (NNP (d))))) |ET| 
-1  |BT| (ROOT (S (ADVP (RB (well)))(VP (VBD (play)))(NP (NNP (india))))(S (ADJP (JJ (sad)))(PP (IN (for)))(NP (PRP$ (we))(NN (loss)))(VP (NN (though.still)))(NP (NNP (pakistan))(NNP (zindabaad))))) |ET| 
-1  |BT| (ROOT (S (NP (NN (today)))(UCP (PRP (i)))(VP (VBP (be)))(ADJP (JJ (thankful)))(PP (IN (for)))(NP (PRP$ (my))(NN (mom))))(S (NP (PRP (she)))(VP (MD (may))(VB (be)))(NP (DT (a))(RB (little)))(ADJP (JJ (crazy)))(NP (PRP (she)))(VP (VBZ (keep)))(NP (PRP (i)))(UCP (JJ (sane))))) |ET| 
1  |BT| (ROOT (S (VP (VBZ (love)))(NP (NNS (ghost))(CC (and))(NN (stuff))))) |ET| 
1  |BT| (ROOT (S (VP (VBZ (be))(VBG (watch)))(NP (DT (the))(NNS (lion)))(VP (VB (lose)))(NP (PRP (it)))(PP (IN (in)))(NP (NNP (hd))))) |ET| 
1  |BT| (ROOT (S (PP (FW (i)))(NP (JJ (didnt)))(VP (VBP (watch)))(NP (DT (the))(NN (game)))(VP (VBD (do))(NN (shannon))(VB (throw)))(PRT (RP (down)))(NP (DT (a))(NN (slam))))) |ET| 
-1  |BT| (ROOT (S (VP (VBZ (love)))(PP (TO (to)))(NP (VB (watch))(NN (ice))(NN (dancing))))) |ET| 
-1  |BT| (ROOT (S (SBAR (IN (because)))(NP (WP (what)))(VP (VBZ (be))(VBN (expect)))(VP (VBZ (be)))(ADVP (RB (always))(VBZ (what)))(ADVP (JJ (right))))) |ET| 
-1  |BT| (ROOT (S (NP (WP (what)))(VP (VBZ (be)))(NP (DT (the))(NN (difference)))(PP (IN (between)))(NP (NN (maturity))(CC (and))(NNS (childishness))))) |ET| 
1  |BT| (ROOT (S (NP (NNP (hard)))(VP (VBD (fight)))(NP (DT (a)))(ADJP (RB (very))(JJ (un-brazilian)))(PP (IN (like)))(VP (VB (win)))(PP (IN (for)))(NP (DT (the))(CD (5))(NNS (time))(NN (champion))))(S (ADVP (RB (well)))(VP (VBD (play)))(NP (NNP (north))(NNP (korea))))) |ET| 
1  |BT| (ROOT (S (ADVP (WRB (how)))(VP (VBP (come)))(NP (NN (nothing)))(ADJP (JJ (good)))(VP (VBZ (seem))(TO (to))(VB (be)))(PP (IN (on)))(NP (NN (tv)))(ADVP (WRB (when)))(NP (PRP$ (you))(VBN (bore))))) |ET| 
1  |BT| (ROOT (S (PP (IN (for)))(NP (DT (all)))(NP (PRP (you))(NNP (facebook)))(VP (NNS (addict)))(ADVP (RB (out))(RB (there))))(S (ADVP (RB (here)))(NP (VBZ (be))(DT (a))(JJ (cool))(NN (thing)))(VP (TO (to))(VB (try))))(S (NP (NNP (press))(NNP (ctrl))(NNP (+))(NNP (w.))))) |ET| 
-1  |BT| (ROOT (S (NP (PRP$ (its))(JJ (amazing))(WRB (how))(JJ (pissed)))(NP (PRP (i)))(VP (MD (can))(VB (get)))(PP (IN (in)))(NP (CD (one))(NNS (second.i))(VBP (feel)))(PP (IN (like)))(VP (VBG (punch)))(NP (DT (the))(NN (fuck)))(PP (IN (out)))(PP (IN (of)))(NP (NN (something))))) |ET| 
-1  |BT| (ROOT (S (NP (PRP (i)))(VP (VBP (hate)))(NP (PRP (it)))(ADVP (WRB (when)))(NP (PRP (i)))(VP (VBP (have)))(NP (NN (gas)))(PP (IN (in)))(NP (DT (a))(NN (room)))(PP (IN (of)))(NP (DT (a))(NN (lot)))(PP (IN (of)))(NP (NNS (people))))(S (ADVP (JJ (okay))(RB (actually)))(NP (PRP (i)))(VP (VBP (love)))(NP (PRP (it))))(S (VP (VB (let)))(NP (DT (the))(NN (crop))(VBG (dust)))(VP (VB (begin))))(S (NP (NNP (ha)))(VP (NNP (ha)))(NP (VBP (ha)))(NP (NN (ha))))) |ET| 
-1  |BT| (ROOT (S (NP (NN (insiderr)))(PP (IN (with)))(NP (NN (janelle)))(NP (PRP (you)))(VP (MD (should))(VB (shake)))(NP (PRP$ (you))(NNS (silly)))(PRT (RP (out)))(PP (IN (on)))(NP (PRP (he))))(S (ADVP (RB (never)))(VP (VBP (say)))(NP (IN (that)))(ADVP (RB (again))))) |ET| 
1  |BT| (ROOT (S (NP (PRP$ (my))(NN (god)))(NP (DT (this))(NN (week)))(VP (VBZ (be)))(ADJP (JJ (busy))))) |ET| 
1  |BT| (ROOT (S (NP (WP (what)))(NP (PRP (i)))(VP (VBD (get))))) |ET| 
1  |BT| (ROOT (S (VP (VBN (goin)))(PP (TO (to)))(NP (DT (the))(NN (gymm))))) |ET| 
-1  |BT| (ROOT (S (NP (PRP (i)))(VP (VBD (know)))(NP (DT (this))(NN (day)))(VP (MD (would))(VB (come))))) |ET| 
-1  |BT| (ROOT (S (NP (PRP (i)))(VP (VBP (want))(TO (to))(VB (be)))(NP (JJ (someones))(NN (godfather))))) |ET| 
-1  |BT| (ROOT (S (NP (JJ (happy))(NNP (b-day))(NNP (mom))(NNP (n))(NNP (j))(NNP (camara)))(VP (SYM (=)))(NP (JJ (x.chillin)))(PP (NN (hlpin)))(NP (PRP$ (my))(NN (bous))(NN (move)))(VP (VBD (hit)))(PRT (RP (up)))(NP (DT (the))(NN (cell))))) |ET| 
1  |BT| (ROOT (S (NP (JJ (quote)))(PP (IN (of)))(NP (DT (the))(NNP (day)))(NP (NN (life)))(VP (VBZ (be)))(NP (DT (a))(NN (rehersal))))(S (NP (PRP (you)))(ADVP (RB (only)))(VP (VB (get)))(NP (CD (1))(NN (shot)))(PP (IN (at)))(NP (PRP (it)))(ADVP (RB (so)))(VP (VB (mak)))(ADVP (NNP (da)))(NP (JJS (most)))(PP (IN (of)))(NP (PRP (it))))) |ET| 
1  |BT| (ROOT (S (NP (FW (i)))(VP (VB (think)))(NP (NN (way)))(ADVP (VBZ (toooo))(RB (much)))(PP (IN (about)))(NP (NNS (thing))))) |ET| 
1  |BT| (ROOT (S (NP (VB (omg))))(S (VP (VBG (wake)))(PRT (RP (up)))(PP (IN (in)))(NP (DT (a))(NN (king))(NN (size))(NN (bed)))(PP (IN (in)))(NP (DT (the))(NNP (presidential))(NN (suite)))(VP (VBZ (feel)))(ADJP (JJ (sooooooooooooo))(JJ (good))))) |ET| 
-1  |BT| (ROOT (S (ADVP (RB (so))(RB (very)))(ADJP (JJ (tired))))(S (ADVP (WRB (why)))(VP (VBP (be))(FW (i))(RB (so))(JJ (tired)))(NP (PDT (all))(DT (the))(NN (time))))) |ET| 
-1  |BT| (ROOT (S (VP (VBG (make))(NN (something)))(PP (IN (for)))(NP (DT (the))(NN (bestie))))(S (NP (NNS (:}))(VBP (have))(DT (the))(JJ (next))(CD (2))(NNS (day)))(PP (IN (off)))(NP (NNP (!!))))(S (NP (VB (woot))))) |ET| 
-1  |BT| (ROOT (S (NP (NNP (human))(NNP (slaves))))(S (PP (IN (in)))(NP (DT (a))(NNP (insect))(NNP (nation))))(S (NP (NN (awwwwwawwwawwwawwww))))) |ET| 
1  |BT| (ROOT (S (NP (PRP (i)))(VP (VBP (want))(TO (to))(VB (be)))(NP (JJ (free))))) |ET| 
1  |BT| (ROOT (S (NP (PRP (you)))(VP (MD (can))(VB (be)))(NP (DT (the))(NN (hero)))(NP (PRP (i)))(VP (MD (can))(VB (be)))(NP (PRP$ (you))(NN (side))(NN (kick))))) |ET| 
1  |BT| (ROOT (S (NP (PRP (i)))(VP (VBP (be)))(NP (NN (nothing)))(PP (IN (without)))(NP (NNP (u))(NNP (god))))) |ET| 
-1  |BT| (ROOT (S (NP (PRP (it)))(VP (VBZ (be)))(VP (VBN (call)))(NP (NNP (love))))) |ET| 
-1  |BT| (ROOT (S (NP (PRP (i)))(VP (VBP (be)))(NP (DT (a))(JJ (space-bound))(NN (rocketship)))(NP (PRP$ (you))(NN (heart)))(NP (POS ('s))(DT (the))(NN (moon))))) |ET| 
-1  |BT| (ROOT (S (NP (VB (list))(NNS (reason)))(VP (TO (to))(VB (hate)))(NP (NN (obama))(NNS (friend))(RB (just)))(VP (VBD (put)))(NP (PRP (it)))(PP (IN (under)))(NP (NNS (comment))))) |ET| 
1  |BT| (ROOT (S (NP (NNP (puzzle)))(VP (VBZ (be))(VBN (go)))(PP (TO (to)))(NP (VB (work)))(PP (IN (in)))(NP (NNP (monteregie)))(PP (IN (for)))(NP (DT (the))(NN (summer))))(S (NP (PRP (he)))(VP (VBZ (be))(VBG (go))(TO (to))(VB (make)))(NP (RB (so))(JJ (many))(JJ (little))(NNS (kid)))(ADJP (JJ (happy)))(VP (VB (be)))(ADJP (JJ (good)))(NP (PRP$ (my))(JJ (special))(NN (boy))(VBD (<)))(LST (CD (3))))) |ET| 
1  |BT| (ROOT (S (NP (FW (i)))(VP (VBP (have))(VBN (get)))(NP (DT (the))(NN (keys.to)))(NP (DT (the))(NNS (highway.i)))(VP (VBP (be))(VBN (pack)))(PRT (RP (up)))(VP (VBN (bind))(TO (to))(NNS (go.i))(VBP (be))(VBG (gon))(TO (na))(VB (leave)))(ADVP (RB (here)))(NP (VBG (run)))(VP (VBG (walk)))(VP (VBZ (be)))(ADVP (RB (much)))(ADVP (RB (too))(JJ (slow))))) |ET| 
1  |BT| (ROOT (S (ADJP (JJ (ready)))(PP (IN (for)))(NP (DT (some))(VBP (sleep))))(S (NP (NNP (church)))(PP (IN (in)))(NP (DT (the))(NN (morning))(VBD (<))(CD (3))))) |ET| 
-1  |BT| (ROOT (S (ADVP (RB (actually)))(VP (VBG (go)))(PP (TO (to)))(NP (NNS (athletics)))(NP (DT (this)))(VP (MD (should))(VB (be)))(ADJP (NN (fun))))) |ET| 
-1  |BT| (ROOT (S (NP (NN (cant))(VB (wait)))(PP (IN (for)))(NP (NN (today)))(VP (TO (to))(VB (be)))(PP (IN (over))))(S (NP (NNP (cant))(VBP (wait)))(VP (TO (to))(VB (relax))))) |ET| 
-1  |BT| (ROOT (S (VP (VBZ (be))(VBN (tryin))(TO (to))(VB (stay)))(PP (IN (out)))(PP (IN (of)))(NP (NN (trouble)))(PP (IN (until)))(NP (DT (this))(NN (weekend))))) |ET| 
1  |BT| (ROOT (S (NP (VBN (upset)))(PP (IN (about)))(NP (NNS (thing)))(NP (WDT (that)))(VP (VBP (be)))(ADVP (RB (really)))(NP (PRP$ (my))(NN (business)))(ADVP (WRB (why)))(VP (VBZ (be)))(NP (PRP (it)))(ADJP (RB (so))(JJ (frustrating))))) |ET| 
1  |BT| (ROOT (S (NP (DT (that))(JJ (awkward))(NN (moment)))(ADVP (WRB (when)))(NP (PRP (you)))(VP (VBP (wake)))(PRT (RP (up)))(NP (NNP (may))(CD (22nd)))(NP (NNP (jesus)))(VP (VBZ (be)))(ADVP (RB (here))))) |ET| 
1  |BT| (ROOT (S (NP (NNP (doesnt))(NNP (know)))(ADVP (WRB (how)))(PP (TO (to)))(NP (NNP (deal)))(PP (IN (with)))(NP (NNP (this.i))(NNP (hate))(VBG (be))(NNP (alone)))(ADVP (WRB (when)))(NP (PRP (i)))(VP (NNP (feel)))(ADVP (IN (like))(DT (this))))) |ET| 
-1  |BT| (ROOT (S (NP (PRP (i)))(VP (VBP (see)))(NP (NNP (india)))(PP (NNP (win)))(NP (DT (the))(NN (world))(NNP (cup))))(S (NP (NNP (yahoooooo))))) |ET| 
-1  |BT| (ROOT (S (NP (NNP (woohoo)))(VP (VBP (~)))(NP (PRP (she)))(VP (VBD (piss)))(NP (PRP (i)))(PRT (RP (off)))(ADVP (RB (again))))) |ET| 
-1  |BT| (ROOT (S (NP (WP (who)))(VP (MD (would))(VB (have))(VBN (think)))(PP (RP (over)))(NP (CD (20))(NNS (year)))(ADVP (RB (ago)))(SBAR (IN (that)))(NP (PRP (i)))(VP (MD (would))(VB (love))(VBG (work)))(PP (IN (in)))(NP (DT (a))(NNP (school))))(S (NP (PRP (it)))(VP (VBZ (amaze)))(NP (PRP (i)))(ADVP (WRB (how)))(NP (PRP (i)))(VP (VBP (get)))(PP (IN (out)))(PP (IN (of)))(VP (VBG (help)))(NP (DT (the))(NNS (kid))))) |ET| 
1  |BT| (ROOT (S (NP (PRP$ (its))(NN (time)))(VP (TO (to))(VB (go))))) |ET| 
1  |BT| (ROOT (S (NP (NNP (tonight)))(VP (NNP (id)))(PP (VBP (like)))(VP (TO (to))(VB (fly)))(ADVP (RP (away)))(NP (DT (a))(VB (be))(NN (brand)))(NP (JJ (new))(DT (another))(NN (day))))) |ET| 
1  |BT| (ROOT (S (NP (NN (ok))(VBZ (what)))(PRT (RP (up)))(PP (IN (with)))(NP (PDT (all))(DT (this))(NN (number))(NN (thing))))) |ET| 
-1  |BT| (ROOT (S (VP (VBG (go)))(UCP (TO (to))(VB (meet)))(NP (NNP (melissa))(NNP (marr)))(PP (IN (with)))(NP (NNP (matthew))(CC (and))(NNP (liz))(NNP (:d)))(PP (RB (so)))(VP (VBG (freak))(JJ (excited))))) |ET| 
-1  |BT| (ROOT (S (VP (VBD (get)))(NP (PRP$ (my))(NNP (wii)))(NP (PRP$ (my))(NN (man)))(NP (PRP$ (my))(NNS (grandparent)))(VP (VBP (be)))(ADVP (RB (here))(VBG (<))))) |ET| 
-1  |BT| (ROOT (S (NP (DT (some))(VBG (catch)))(PRT (RP (up)))(PP (IN (with)))(NP (DT (some))(NNS (old))(NNS (friend)))(ADVP (NN (tonight))))(S (NP (PRP$ (its))(VBN (be)))(PP (IN (over)))(NP (CD (20))(NNS (year)))(SBAR (IN (since)))(NP (PRP (we)))(VP (VBP (have))(VB (see)))(NP (DT (each))(JJ (other)))(VP (VBD (have)))(NP (DT (a))(JJ (great))(NN (time))))(S (NP (JJ (good))(NNS (time)))(PP (IN (with)))(NP (JJ (old))(NNS (friend)))(VP (VBZ (be)))(NP (DT (the))(JJS (best))))) |ET| 
1  |BT| (ROOT (S (NP (PRP (you)))(VP (VBP (have))(VBN (get)))(NP (PRP (yourself)))(NP (DT (a))(NN (ride)))(PP (IN (on)))(NP (DT (the))(VB (sue))(NN (sylvester))(JJ (express))))(S (NP (NN (destination)))(NP (NN (horror))))) |ET| 
1  |BT| (ROOT (S (NP (NNP (hahaha))))(S (NP (PRP (i)))(ADVP (RB (just)))(VP (VBD (learn)))(NP (NN (something)))(ADJP (JJ (awesome)))(PP (IN (for)))(NP (NN (school))))(S (NP (PRP (i)))(VP (VBP (feel))(VBN (pump)))(ADVP (RB (right))(RB (now))))(S (NP (NNS (matter)))(PP (IN (of)))(NP (NNS (fact.i)))(VP (VBP (be)))(PP (IN (on)))(NP (NN (top)))(PP (IN (of)))(NP (DT (the))(NN (world))))(S (NP (NN (lol))))) |ET| 
1  |BT| (ROOT (S (VP (VBG (get)))(NP (NNS (thing)))(ADVP (RB (back)))(PP (IN (into)))(NP (NN (gear))))(S (ADVP (UH (wow)))(NP (PRP (i)))(VP (VBP (do)))(NP (DT (a))(NN (lot)))(PP (IN (of)))(NP (NN (work))(VBP (^))(JJ (^)))(NP (NN (soup)))(VP (VBZ (make)))(NP (PRP (it)))(ADJP (JJR (better))))) |ET| 
-1  |BT| (ROOT (S (NP (NNS (mother)))(VP (VBG (go))(TO (to))(VB (drive)))(NP (PRP (i)))(NP (NNS (banana))))(S (ADVP (RB (up)))(UCP (RB (down)))(NP (DT (the))(NNS (stair)))(NP (DT (all))(NN (day))))(S (NP (FW (i)))(VP (VBP (have))(VBN (get)))(NP (CD (one))(NN (hell)))(PP (IN (of)))(NP (DT (a))(NN (workout))))) |ET| 
-1  |BT| (ROOT (S (NP (VB (need))(DT (a))(JJ (bloody))(NN (drink)))(NP (DT (a))(JJ (strong))(CD (one)))(PP (IN (at)))(NP (DT (that))(NN (!!))))) |ET| 
-1  |BT| (ROOT (S (NP (VB (wake)))(ADVP (RP (up)))(PP (IN (in)))(NP (DT (the))(NN (morning))(VBG (feel)))(PP (IN (like)))(NP (NN (scarface.one)))(ADVP (RB (again)))(NP (RB (lol))(VBP (hope))(NN (everyone)))(VP (VBZ (enjoy)))(NP (DT (this))(JJ (nice))(NN (day))))) |ET| 
1  |BT| (ROOT (S (NP (`` ("))(CD (one))(NN (thing)))(NP (PRP (i)))(VP (VBP (like)))(PP (RB (about)))(NP (VBZ (stone))))(S (NP (PRP (they)))(VP (VBP (come)))(PP (IN (in)))(NP (PRP$ (my))(NN (waybutonce)))(NP (PRP (i)))(VP (VBP (pass)))(NP (PRP (they)))(NP (PRP (they)))(ADVP (RB (automatically)))(VP (VB (become)))(NP (PRP$ (my))(NNS (milestone))))(S (NP (NNP (direction)))(VP (VBZ (be)))(NP (VBN (imp))(RB (not))(NN (speed))))) |ET| 
0.92346135803673701225591230468126  |BT| (ROOT (S (NP (NNP (ahhhh))(NNP (facebook))))(S (NP (WDT (what)))(VP (VBP (be)))(NP (PRP (you)))(VP (VBG (do))))) |ET| 
1  |BT| (ROOT (S (NP (NN (science))(NN (project)))(VP (VBD (today.and)))(NP (NN (nothin))(RB (else))))(S (ADVP (NN (bleh))))) |ET| 
-1  |BT| (ROOT (S (NP (PRP (you)))(VP (VBP (have)))(NP (NNS (enemy))))(S (ADJP (JJ (good))))(S (NP (DT (that)))(VP (VBZ (mean)))(NP (PRP (you)))(VP (VBP (have))(VBN (stand)))(ADVP (RP (up)))(PP (IN (for)))(NP (NN (something)))(ADVP (RB (sometime)))(PP (IN (in)))(NP (PRP$ (you))(NN (life))))(S (NP (VBZ (~))(NNP (winston))(NNP (churchill))))) |ET| 
-1  |BT| (ROOT (S (VP (VBG (study)))(PP (IN (for)))(NP (PRP$ (my))(NN (science))(NN (test)))(VP (VBG (do)))(NP (PRP$ (my))(NN (art))(NN (project)))(PP (IN (at)))(NP (RB (once))))(S (NP (FW (i)))(VP (NN (wonder)))(ADVP (WRB (how)))(NP (DT (this)))(VP (MD (will))(VB (pan)))(PRT (RP (out))))) |ET| 
-1  |BT| (ROOT (S (NP (PRP (you)))(NP (CD (14,136))(NNS (other)))(PP (IN (like)))(NP (DT (this))('' ("))(CD (1))(NN (hour)))(SBAR (RB (ago)))(NP (NNP (soo)))(VP (VBD (sych))))) |ET| 
1  |BT| (ROOT (S (NP (NNP (may)))(NP (DT (the))(NNPS (joys)))(PP (IN (of)))(NP (DT (the))(NN (season))))) |ET| 
1  |BT| (ROOT (S (NP (VBP (im)))(VP (VBG (gon))(TO (na))(VB (watch)))(NP (NN (legend)))(PP (IN (of)))(NP (DT (the))(NNS (guardian)))(PP (IN (because))(IN (of)))(NP (NNP (tstm))))) |ET| 
1  |BT| (ROOT (S (NP (NNS (yay)))(PP (IN (for)))(NP (NN (pay))(NN (day)))(ADVP (RBR (earlier)))(PP (IN (than)))(VP (VBN (expect)))(NP (NNP (d))))) |ET| 
-1  |BT| (ROOT (S (ADVP (WRB (when)))(NP (NN (u)))(VP (VB (think)))(PP (IN (of)))(NP (NN (ur))(NN (life)))(NP (NN (wat))(VBZ (cum)))(VP (TO (to))(VB (mind))))) |ET| 
-1  |BT| (ROOT (S (NP (NN (everyone)))(VP (VBP (go)))(PP (TO (to)))(NP (DT (the))(VBN (haunt))(NN (cornmaze))))) |ET| 
-1  |BT| (ROOT (S (NP (DT (the))(NNS (morning))(VBP (suck)))(ADVP (RB (now))))) |ET| 
1  |BT| (ROOT (S (NP (PRP (i)))(VP (VBP (be)))(PP (IN (at)))(NP (JJ (chicagoland))(JJ (speedway))(NN (watch)))(PP (VB (indycar)))(NP (JJ (final))(NN (practice)))(NP (PRP (it)))(VP (VBZ (smell)))(PP (IN (like)))(NP (JJ (sweet))(NN (corn))))) |ET| 
1  |BT| (ROOT (S (VP (JJ (exhausted)))(PP (IN (from)))(VP (VBG (work)))(ADJP (NNS (4am-10pm)))(PP (IN (with)))(NP (DT (a))(CD (3))(NN (hour))(VBP (break)))(PP (IN (in)))(NP (DT (the))(NN (middle))))(S (NP (PRP (i)))(VP (VBP (think))(RB (even)))(NP (PRP$ (my))(NN (hair)))(VP (VBZ (be)))(ADVP (JJ (sore)))(PP (RB (o)))(NP (-RRB- (-rrb-))))) |ET| 
1  |BT| (ROOT (S (ADVP (RB (just)))(VP (VBD (realize)))(NP (PRP (she)))(NP (VBZ (be)))(ADJP (RB (almost))(CD (23)))(VP (VBZ (be)))(ADJP (JJ (happy)))(NP (IN (about))(DT (this))))) |ET| 
-1  |BT| (ROOT (S (VP (VB (follow)))(NP (DT (the))(NN (rhythm)))(VP (VB (keep)))(NP (PRP (it)))(NP (JJ (real))(NN (close))))(S (PP (IN (in)))(NP (DT (the))(NN (dark))(NN (everything)))(VP (VBZ (go))))) |ET| 
-1  |BT| (ROOT (S (VP (VBZ (be)))(ADJP (RB (pretty))(JJ (excited)))(PP (IN (about)))(NP (DT (the))(NNP (wii)))(NP (PRP (i)))(VP (VBD (get)))(PP (IN (for)))(NP (PRP$ (my))(NN (birthday))))) |ET| 
-1  |BT| (ROOT (S (NP (RB (just))(RB (vainity)))(VP (VBD (search)))(NP (PRP$ (my))(NN (self))))(S (NP (EX (there)))(VP (VBP (be)))(NP (NN (boat))(NNS (load)))(PP (IN (of)))(NP (NNS (people)))(VP (VBN (name)))(NP (NNP (michael))(NNP (tierney))))) |ET| 
1  |BT| (ROOT (S (NP (FW (i)))(VP (VBP (want)))(NP (VBZ (bubble)))(NP (IN (that)))(ADVP (RB (never)))(VP (VBP (pop))))) |ET| 
0.98014418279999449001849143314757  |BT| (ROOT (S (PP (VB (o)))(NP (WP (what)))(NP (DT (a))(NN (night))))(S (NP (NNS (thanks)))(PP (TO (to)))(NP (NN (everyone)))(SBAR (WDT (that)))(VP (VBD (come)))(VP (VBD (support))))(S (NP (NN (xxxx))))) |ET| 
1  |BT| (ROOT (S (NP (PRP (he))(NNS (score)))(ADVP (RB (again)))(VP (VBZ (let))(VB (have)))(NP (DT (a))(NN (beer))))) |ET| 
-1  |BT| (ROOT (S (SBAR (IN (if)))(NP (NNS (there))(NN (anything)))(NP (FW (i)))(VP (VBP (have)))(NP (JJ (natural))(NN (talent))(NN (in.it)))(VP (VBZ (be))(VBG (be)))(NP (DT (a))(NN (pilot))))) |ET| 
-1  |BT| (ROOT (S (NP (JJ (muse-ing))))) |ET| 
-1  |BT| (ROOT (S (NP (NNP (y))(NNP (thank))(NNP (u)))(PP (IN (if)))(NP (NNP (u)))(NP (POS ('))(NN (z))(DT (a))(NNP (hata))(VBZ (!!!!!))))) |ET| 
1  |BT| (ROOT (S (NP (PRP (i)))(VP (VBP (have))(RB (not))(VBN (see)))(NP (DT (the))(NN (sun)))(PP (IN (in)))(NP (CD (three))(NNS (day))))(S (NP (MD (can)))(UCP (NN (anyone)))(VP (VB (confirm)))(SBAR (IN (that)))(NP (PRP$ (its))(IN (till))(EX (there))))) |ET| 
1  |BT| (ROOT (S (VP (VBG (head)))(PP (TO (to)))(NP (DT (the))(NN (er)))(VP (TO (to))(VB (have)))(NP (PRP$ (my))(NN (ankle)))(VP (VBD (look)))(PP (IN (at))))(S (VP (VBZ (hurt)))(PP (IN (like)))(NP (NN (hell))))) |ET| 
1  |BT| (ROOT (S (VP (VBZ (appear))(TO (to))(VB (have))(VBN (murder)))(NP (PRP$ (she))(JJ (mobile))(NN (:-{))))(S (NP (SYM (e))(CC (or))(VBZ (f/b)))(NP (PRP (i)))(PP (IN (until)))(NP (DT (the))(NN (resurrection)))(NP (DT (the))(JJ (second))(VBG (come))(-RRB- (-rrb-))))) |ET| 
-1  |BT| (ROOT (S (PP (RB (off)))(VP (TO (to))(VB (have)))(NP (NN (supper)))(PP (IN (at)))(NP (PRP$ (my))(NNS (parent))))(S (NP (DT (the))(NNS (boy)))(VP (VBP (be))(VBG (gon))(TO (na))(VB (pick)))(NP (NN (thier))(NNS (pumpkin)))(ADVP (RB (too))))) |ET| 
-1  |BT| (ROOT (S (VP (VBP (do)))(NP (DT (the))(NN (love)))(NP (PRP (you)))(VP (VBP (have))(RB (even))(VBN (come)))(ADVP (RB (close)))(PP (TO (to)))(NP (DT (the))(NN (love)))(NP (PRP (you)))(VP (VBP (want))))) |ET| 
-1  |BT| (ROOT (S (NP (NNS (word)))(VP (MD (can))(RB (not))(RB (adequately))(VB (describe)))(NP (DT (the))(JJ (intense))(NN (rush)))(NP (PRP (i)))(VP (VBD (experience)))(NP (DT (this))(NN (weekend))))) |ET| 
1  |BT| (ROOT (S (ADVP (RB (back)))(PP (IN (from)))(NP (JJ (4th)))(PP (IN (of)))(NP (NNP (july))(NN (party))))) |ET| 
1  |BT| (ROOT (S (VP (VBZ (be)))(NP (NNS (tear)))(PP (IN (in)))(NP (PRP$ (my))(NNS (eye))))) |ET| 
1  |BT| (ROOT (S (VP (VBG (go))(NN (camping)))(PP (IN (in))))) |ET| 
-1  |BT| (ROOT (S (VP (VBD (travel)))(ADVP (RB (backward)))(PP (IN (in)))(NP (NN (time)))(PP (IN (for)))(NP (DT (the))(JJ (sole))(NN (purpose)))(PP (IN (of)))(VP (VBG (post)))(NP (DT (this))(NN (message))))) |ET| 
-1  |BT| (ROOT (S (PP (IN (at)))(NP (DT (the))(NN (pool)))(PP (IN (with)))(NP (NN (mal))(VBP (!!))))) |ET| 
-1  |BT| (ROOT (S (VP (VBZ (be)))(VP (VBG (get))(VBN (snow)))(PP (IN (in)))(PP (IN (with)))(NP (NNP (mike))))) |ET| 
1  |BT| (ROOT (S (ADVP (WRB (how)))(NP (PRP (you)))(VP (VB (sleep))))(S (NP (NNP (jesse))(NNP (mcartney))))(S (NP (NNP (hope))(PRP (i)))(VP (VBN (spell)))(NP (DT (that))(NN (right))))) |ET| 
1  |BT| (ROOT (S (NP (VBN (gettin))(DT (a))(NN (job)))(NP (PDT (all)))(UCP (DT (that)))(VP (VBG (feel)))(NP (JJ (great))(VBG (be))(NN (independant))))) |ET| 
1  |BT| (ROOT (S (NP (PRP (i)))(VP (VBD (have))(TO (to))(VB (get)))(PRT (IN (off)))(NP (DT (the))(NN (boat)))(SBAR (IN (so)))(NP (PRP (i)))(VP (MD (could))(VB (walk)))(PP (IN (on)))(NP (NN (water))))) |ET| 
-1  |BT| (ROOT (S (VP (VBG (go)))(PP (IN (for)))(NP (DT (a))(NN (jog)))(VP (TO (to))(VB (get)))(NP (NN (buff)))(INTJ (WDT (that))(VBZ (be)))(SBAR (IN (if)))(NP (NNP (liz))(NNP (m.)))(ADVP (RB (ever)))(VP (VBZ (show)))(PRT (RP (up))))(S (NP (NNP ([))(NNP (<))(CD (3))(NNP (matthew))(NNP (]))))) |ET| 
-1  |BT| (ROOT (S (NP (PRP (i)))(VP (VBP (think)))(NP (PRP (i)))(VP (VBP (need)))(NP (DT (some))(NN (coffee))))) |ET| 
-1  |BT| (ROOT (S (PP (RB (just))(IN (at)))(NP (NN (da))(NN (place)))(NP (PRP (i)))(VP (VBP (dont))(VB (call)))(ADVP (NN (home))))(S (NP (NNP (ill)))(VP (VBP (be)))(ADJP (RP (out)))(PP (IN (of)))(NP (RB (here))(NN (tomorrow))))(S (NP (NN (alll))(PRP (i)))(VP (VBP (want)))(NP (PRP (you))))) |ET| 
1  |BT| (ROOT (S (NP (VB (townie))(NN (brunch)))(NP (DT (this))(NNP (sunday)))(PP (IN (at)))(NP (DT (the))(NNS (deer))(NN (park))))) |ET| 
1  |BT| (ROOT (S (NP (PRP$ (my))(NNS (thought))(CC (and))(NNS (prayer)))(VP (VBP (be)))(PP (IN (with)))(NP (DT (the))(NNP (acu))(NNS (student)))(NP (NN (faculty)))(NP (NNS (family))))) |ET| 
0.90502393898726452015068844048074  |BT| (ROOT (S (NP (NNS (thanks)))(PP (IN (for)))(NP (DT (the))(CD (2))(NN (fuel))(NNS (voucher))(VBP (aunty)))(VP (VB (sue)))(NP (PRP (we)))(NP (RB (just)))(VP (VBD (get)))(PP (IN (at)))(NP (DT (the))(NNS (raffle))))) |ET| 
-1  |BT| (ROOT (S (NP (EX (there)))(VP (VBZ (be)))(NP (NN (nothing))(PDT (half)))(ADJP (RB (so))(JJ (pleasant)))(PP (IN (as)))(VP (VBG (come)))(ADVP (RB (home)))(ADVP (RB (again))))) |ET| 
-1  |BT| (ROOT (S (VP (VBN (workin)))(PP (IN (on)))(NP (JJR (more))(NN (computer))(NN (painting))))) |ET| 
-1  |BT| (ROOT (S (VP (VB (fuck)))(NP (PRP$ (my))(NN (life))))(S (VP (VB (thank)))(NP (NN (god)))(PP (IN (for)))(NP (JJ (good))(NNS (friend))))) |ET| 
1  |BT| (ROOT (S (NP (NNP (cross))(NNS (finger)))(PP (IN (for)))(NP (PRP (i)))(VP (VBP (peeeze))))(S (NP (PRP (i)))(NP (POS ('))(NN (ma)))(VP (VBP (need)))(NP (DT (the))(NN (luck))))(S (NP (SYM (&))(NNS (heart))))) |ET| 
1  |BT| (ROOT (S (NP (PRP (it)))(VP (VB (be)))(NP (NNP (july)))(ADVP (RB (now))))(S (NP (NNP (hp)))(VP (VBD (be)))(NP (RB (so))(JJ (good))))(S (NP (NNP ([))(NNP (<))(CD (3))(NNP (matthew))(NNP (]))))) |ET| 
1  |BT| (ROOT (S (NP (PRP (i)))(ADVP (RB (just)))(NP (NNP (bought))(NNP (some))(NNP (shoes))(NNP (that))(VB (make))(NNP (me))(CD (6))(NNP (foot))(CD (4))))) |ET| 
-1  |BT| (ROOT (S (NP (PRP (i)))(ADVP (RB (just)))(VP (VBD (realize)))(ADJP (WRB (how))(JJ (horrible)))(NP (DT (the))(JJ (original))(NNP (sailor))(NNP (moon))(NN (dub)))(VP (VBD (be))))) |ET| 
-1  |BT| (ROOT (S (NP (PRP (i)))(VP (VBP (have))(TO (to))(VB (put)))(ADVP (RP (together)))(NP (DT (a))(NN (outline)))(PP (IN (with)))(NP (RB (absolutely))(DT (no))(NN (information))))(S (NP (NNP (shoot))(NNP (me))))) |ET| 
-1  |BT| (ROOT (S (NP (PRP (i)))(VP (VBP (wish)))(NP (PRP (i)))(VP (VBD (have)))(NP (DT (a))(JJ (cool))(NN (camera)))(NP (WDT (that)))(VP (VBD (take)))(ADVP (RB (really)))(NP (JJ (good))(NNS (pic))))) |ET| 
1  |BT| (ROOT (S (VP (FW (i))(RB (officially))(VBP (suck)))(PP (IN (at)))(NP (NN (packing))))) |ET| 
1  |BT| (ROOT (S (PP (VB (throwin)))(NP (DT (some))(NN (disc)))(VP (VBG (enjoy)))(NP (PRP$ (my))(NN (day)))(PP (RP (off))))) |ET| 
1  |BT| (ROOT (S (NP (EX (there)))(VP (VBP (be)))(NP (JJ (such))(NNS (creep)))(PP (IN (in)))(NP (DT (this))(NN (town))))) |ET| 
-1  |BT| (ROOT (S (ADVP (JJ (bleh)))(NP (DT (the))(NN (day)))(VP (MD (could))(VB (have))(VBN (go)))(ADVP (RBR (better))))) |ET| 
-1  |BT| (ROOT (S (VP (VBG (head)))(PP (TO (to)))(NP (DT (the))(NN (gym)))(PP (IN (after)))(NP (NN (work))))) |ET| 
-1  |BT| (ROOT (S (NP (NN (office))(CD (2010)))(NP (DT (the))(NN (insert)))(VP (JJ (screenshot)))(NP (NN (part))))) |ET| 
0.94287132599831424695224768584012  |BT| (ROOT (S (NP (PRP (you)))(VP (VBG (listen)))(PP (TO (to)))(NP (PRP (i))))(S (NP (`` ("))(NNP (umm))(, (,))(RB (not)))(ADVP (RB (really)))(UCP ('' ("))))) |ET| 
1  |BT| (ROOT (S (VP (VBZ (be))(VBG (watch)))(NP (NNP (chile)))(NP (POS ('s))(VBN (trap))(NNS (miner))(NN (rescue))))(S (NP (PRP (they)))(VP (VBP (have))(RB (just))(VBD (rescue)))(NP (DT (the))(JJ (13th))(NN (miner))))) |ET| 
1  |BT| (ROOT (S (NP (CD (2))(NNS (month)))(ADVP (RB (ago)))(NP (DT (the))(NN (trouble)))(VP (VBD (start))))(S (VP (VBZ (have)))(NP (PRP (it)))(VP (VBN (end)))(PP (IN (by)))(ADVP (RB (now))))(S (NP (RB (only))(NNP (god)))(VP (VBZ (know))))) |ET| 
-1  |BT| (ROOT (S (NP (NNP (snow)))(NP (NNP (snow)))(NP (NNP (snow))))(S (NP (JJ (glad))(PRP (you)))(VP (MD (could))(RB (finally))(VB (make)))(NP (PRP (it))))(S (SBAR (RB (even))(RB (though)))(NP (PRP$ (its))(RB (only))(DT (a))(NN (couple))(VBZ (flurry)))(VP (PRP$ (you)))(ADVP (RB (still)))(ADVP (RB (here))))) |ET| 
-1  |BT| (ROOT (S (ADVP (NNP (totally)))(VP (VBZ (suck)))(PP (IN (in)))(NP (NNP (starcraft))(CD (2))))(S (NP (PRP (i)))(VP (MD (should))(VB (think)))(ADVP (RB (twice))(IN (before)))(VP (VBG (challenge)))(NP (NNP (wafi))(CC (or))(NNP (richie))))) |ET| 
-1  |BT| (ROOT (S (NP (PRP (i)))(VP (VBP (hate))(VBG (chop)))(NP (JJ (onions))))(S (NP (PRP (it)))(VP (VBZ (make)))(NP (PRP (i)))(VP (VB (cry))))) |ET| 
1  |BT| (ROOT (S (VP (VBG (go)))(PP (TO (to)))(NP (VB (look)))(PP (IN (for)))(NP (DT (a))(JJ (new))(NN (car))(NN (tonight))))) |ET| 
1  |BT| (ROOT (S (NP (NN (swore)))(PP (IN (into)))(NP (DT (the))(NNP (air))(NNP (force))(SYM (=))))) |ET| 
1  |BT| (ROOT (S (NP (NN (work)))(NP (NN (tomorrow)))(PP (IN (from)))(VP (NNS (10am)))(NP (JJ (6pm))(NN (text)))(NP (DT (the))(NN (cell))(VBP (<))(CD (3))))) |ET| 
-1  |BT| (ROOT (S (NP (NN (day)))(ADJP (JJ (full)))(PP (IN (of)))(NP (NN (jazz))))(S (NP (`` ("))(NNP (sniff)))(VP (VB (sniff))))(S (PP (IN (in)))(NP (DT (the))(VBP (gentle))(JJ (rain))))) |ET| 
-1  |BT| (ROOT (S (NP (VBN (whirlwind)))(PP (IN (of)))(NP (NN (activity))))) |ET| 
-1  |BT| (ROOT (S (PP (IN (off)))(VP (TO (to))(NN (kitch)))(NP (SYM (=))(VBZ (]))))) |ET| 
1  |BT| (ROOT (S (NP (NNS (gon))(TO (na))(VB (brainstorm)))(NP (PRP$ (my))(NN (halloween))(VBP (costume.might)))(VP (VB (be)))(NP (DT (a))(NN (guitar)))(NP (PRP (i)))(VP (VBP (think)))(NP (PRP (i)))(VP (VBD (get))(RB (ta))(VB (think)))(ADJP (JJR (bigger))))) |ET| 
1  |BT| (ROOT (S (NP (PRP (i)))(VP (VBP (be))(VBG (get)))(SBAR (IN (that)))(NP (PRP (i)))(VP (VBP (want)))(NP (DT (another))(JJ (tattoo))(NN (itch))))) |ET| 
1  |BT| (ROOT (S (NP (NN (snow))(VBD (damnit))))(S (NP (PRP (i)))(VP (VBP (need)))(NP (DT (the))(NN (time)))(PRT (RB (off))))) |ET| 
-1  |BT| (ROOT (S (VP (VBZ (love))(VBG (hang)))(PRT (RP (out)))(PP (IN (with)))(NP (NNP (matthew)))(NP (POS ('s))(NN (family))))(S (NP (NNS (=}))(-LRB- (-lrb-)))(NP (PRP (i)))(VP (VBP (<)))(NP (CD (3))(NNP (matthew))(-RRB- (-rrb-))))) |ET| 
-1  |BT| (ROOT (S (NP (PRP (i)))(VP (VBP (be)))(NP (DT (a))(JJ (strong))(NN (girl)))(NP (RB (even))(DT (the))(JJ (strong)))(VP (MD (can))(VB (be))(VBN (knock)))(ADVP (RP (down))))(S (NP (PRP (i)))(VP (MD (will))(VB (pick)))(NP (PRP (myself)))(PRT (RP (up)))(VP (VB (become)))(ADJP (RB (even))(JJR (stronger))))(S (NP (PRP (i)))(VP (MD (will))(VB (be)))(NP (WP (who)))(NP (PRP (i)))(VP (VBP (be)))(PP (IN (by)))(NP (NN (choice)))(CONJP (RB (not)))(PP (IN (by)))(NP (NN (circumstance))))) |ET| 
-1  |BT| (ROOT (S (NP (PRP (i)))(VP (VBP (have)))(NP (DT (the))(JJS (best))(NN (husband)))(ADVP (RB (ever))))) |ET| 
1  |BT| (ROOT (S (NP (NN (lack)))(PP (IN (of)))(NP (NN (sleep))))) |ET| 
1  |BT| (ROOT (S (NP (WP (what))(NN (kind)))(PP (IN (of)))(NP (NN (music)))(VP (VBP (do)))(NP (NN (u)))(VP (VB (think)))(NP (FW (i)))(VP (VB (listen)))(PP (TO (to))))) |ET| 
1  |BT| (ROOT (S (VP (VB (thank)))(NP (NN (god)))(PP (IN (for)))(NP (JJ (morgie))))(S (NP (NN (hahaha)))(ADVP (RB (really)))(VP (VBP (tho))))(S (NP (NNP (d))))) |ET| 
-1  |BT| (ROOT (S (ADVP (RB (now))(RB (off)))(PP (IN (till)))(NP (NNP (tuesday))))(S (NP (NN (relaxation))))(S (NP (VB (whoot))(NNP (whoot))))) |ET| 
-1  |BT| (ROOT (S (VP (VBZ (have)))(NP (NN (nothing)))(PP (TO (to)))(NP (VB (say)))(NP (NN (today))))) |ET| 
-1  |BT| (ROOT (S (VP (VBZ (be)))(ADVP (RB (back)))(PP (IN (in)))(NP (NN (school)))(VP (NN (lovin)))(SBAR (NN (it.now)))(NP (PRP (i)))(ADVP (RB (just)))(VP (VBP (need))(TO (to))(VB (find)))(NP (DT (a))(NN (job))))) |ET| 
1  |BT| (ROOT (S (NP (DT (the))(JJS (best))(NN (night)))(VP (VBG (hang)))(PRT (RP (out)))(PP (IN (with)))(NP (PRP$ (my))(NNS (kid))))) |ET| 
1  |BT| (ROOT (S (NP (PRP (you)))(VP (MD (can))(NN (kiss)))(NP (PRP (i)))(PP (IN (with)))(NP (DT (the))(NNS (window)))(ADJP (JJ (open))))) |ET| 
1  |BT| (ROOT (S (NP (JJ (qira'atul))(JJ (quran))(NN (competition)))(PP (IN (on)))(NP (NNP (march))(JJ (6th))(, (,))(JJ (2010crowne))(NNP (plaza))(NNP (hotel)))(NP (NNP (hamilton)))(VP (VBP (bring)))(NP (PRP$ (you))(NNS (friend))(CC (and))(NN (family))))) |ET| 
-1  |BT| (ROOT (S (NP (PRP (i)))(VP (VBP (feel)))(NP (CD (one)))(PP (IN (of)))(NP (PRP$ (my))(NNS (turn)))(VP (VBG (come)))(PRT (RP (on))))) |ET| 
-1  |BT| (ROOT (S (NP (RB (just)))(VP (VBD (do)))(NP (NN (web))(VB (cam)))(PP (IN (with)))(NP (NN (family)))(PP (IN (in)))(NP (NNP (florida))))(S (NP (PRP (i)))(VP (VBP (think)))(NP (PRP$ (my))(NN (brother)))(VP (VBD (didnt)))(NP (VB (stop)))(VP (VBG (smile)))(NP (DT (the))(JJ (whole))(NN (time))))) |ET| 
-1  |BT| (ROOT (S (VP (VBG (make)))(NP (JJ (homemade))(JJ (wild))(NN (mushroom))(NNS (ravioli)))(NP (JJ (veggie))(NNS (releno)))(PP (IN (for)))(NP (DT (the))(VBG (come))(NN (workweek))))) |ET| 
1  |BT| (ROOT (S (NP (NNP (angelina)))(VP (VBZ (be)))(ADJP (VBN (go))))(S (NP (VB (thank))(NN (baby))(NNS (jesus))))) |ET| 
1  |BT| (ROOT (S (NP (VBG (medicate))(NN (perfection)))(ADVP (RB (now)))(NP (DT (that)))(VP (VBZ (be)))(NP (DT (a))(NN (mistake))))) |ET| 
1  |BT| (ROOT (S (VP (VBZ (think)))(NP (NNP (frankie))(NNP (boyle)))(VP (VBZ (be)))(ADJP (JJ (funny))))) |ET| 
-1  |BT| (ROOT (S (NP (NNP (nicki))(NNP (minaj)))(VP (VBZ (be)))(NP (DT (the))(JJS (worst))))) |ET| 
-1  |BT| (ROOT (S (NP (PRP (she)))(VP (VBZ (be)))(NP (NN (love))(CD (<))(CD (3))))) |ET| 
-1  |BT| (ROOT (S (ADJP (NNP (there))(NNP (truly)))(VP (VBZ (be)))(NP (DT (a))(NN (god)))(NP (PRP (he))(NNP (truly))(VBZ (be))(DT (a))(NNP (wonderful))(NNP (god))))(S (NP (PRP (he)))(PP (NNP (only)))(NP (VBP (see)))(NP (VBZ (be))(DT (the))(NN (best)))(PP (IN (in)))(NP (NNP (me))))) |ET| 
1  |BT| (ROOT (S (NP (JJ (happy))(NN (birthday)))(VP (TO (to))(NNP (me))))(S (NP (RB (:d))(VBP (wow)))(PP (FW (i)))(NP (VB (sound)))(PP (IN (like)))(NP (CD (one)))(PP (IN (of)))(NP (DT (those))(JJ (self-obsessed))(NNS (celebrity))))) |ET| 
0.94461080111989270680084018749767  |BT| (ROOT (S (NP (JJ (first))(NN (day)))(PP (IN (of)))(NP (PRP$ (my))(JJ (clinical))(NN (rotation)))(NP (NN (today))))(S (NP (PRP (i)))(VP (VBP (be)))(ADVP (RB (so)))(ADJP (JJ (excited))))) |ET| 
1  |BT| (ROOT (S (NP (RB (just)))(VP (VBP (promise)))(NP (PRP (i)))(NP (PRP (you)))(VP (MD ('ll))(VB (think)))(PP (IN (of)))(NP (PRP (i))))) |ET| 
-1  |BT| (ROOT (S (NP (JJ (10k)))(NP (NN (today))))(S (NP (PRP (i)))(VP (VBP (be)))(ADJP (JJ (excited))))) |ET| 
-1  |BT| (ROOT (S (NP (PRP$ (my))(NN (compueter)))(VP (VBN (fuke)))(PRT (RP (up)))(ADVP (RB (now)))(VP (RB (now)))(NP (PRP (it)))(VP (VBP (sez)))(NP (NNS (window)))(VP (VBZ (be)))(ADVP (RB (now)))(ADJP (JJ (genuine))))) |ET| 
-1  |BT| (ROOT (S (NP (PRP (you)))(VP (VBP (think)))(SBAR (VBZ (becca)))(NP (RB (guna)))(VP (VB (be))(VBN (psych)))(SBAR (IN (that)))(NP (PRP (you)))(VP (VBD (bring)))(NP (DT (a))(NN (bottle)))(PP (IN (of)))(NP (NNP (lube))))) |ET| 
1  |BT| (ROOT (S (NP (NNP (max)))(VP (VBZ (be)))(NP (NN (cash))))) |ET| 
1  |BT| (ROOT (S (NP (NNS (migraine)))(VP (VBP (make)))(NP (DT (the))(NN (day))(JJ (extra))(JJ (special))))) |ET| 
1  |BT| (ROOT (S (NP (CD (2010)))(VP (VBZ (be))(RB (finally))(VBG (come)))(PP (TO (to)))(NP (DT (a))(NN (end))))) |ET| 
-1  |BT| (ROOT (S (VP (VBZ (think))(VBG (talk)))(PP (TO (to)))(NP (DT (a))(NN (ex-boyfriend)))(VP (MD (can))(VB (be)))(ADJP (JJ (hard))))) |ET| 
-1  |BT| (ROOT (S (NP (DT (a))(NN (smile)))(VP (VBZ (be)))(NP (DT (a))(NN (curve)))(NP (WDT (that)))(VP (VBZ (set)))(PP (NN (alot))(IN (of)))(NP (NNS (thing)))(ADVP (JJ (straight))))(S (NP (RB (-rrb-))(NNP (p))))) |ET| 
-1  |BT| (ROOT (S (NP (NNS (piece)))(PP (TO (to)))(NP (DT (the))(NN (puzzle)))(VP (VBP (be))(RB (never))(VBN (force))(RB (just))(VBN (guide))))) |ET| 
1  |BT| (ROOT (S (SBAR (IN (if)))(NP (PRP (it)))(VP (VBZ (hurt)))(NP (PRP (you)))(NP (DT (this))(JJ (much)))(ADVP (RB (then)))(NP (PRP (it)))(VP (MD (must))(VB (be)))(NP (NN (love))))) |ET| 
1  |BT| (ROOT (S (NP (NNP (cm))(NNP (punk)))(VP (VBP (rockin)))(NP (DT (the))(NNP (colt))(NNP (cabana))(NN (tshirt))))(S (PP (IN (in)))(NP (DT (the))(NNS (word)))(PP (IN (of)))(NP (NNP (bill))(CC (&))(NNP (ted))(`` ("))(VBP (excellent))))) |ET| 
1  |BT| (ROOT (S (NP (NNP (daughter)))(NP (PRP (he)))(VP (VBZ (have))))(S (NP (PRP (i)))(VP (MD (might))))(S (NP (NNP (boss))(NNPS (hangs)))(NP (DT (a))(NN (notice)))(PP (IN (in)))(NP (NN (office)))(VP (`` ("))('' ("))(NNP (im)))(NP (DT (the))(NN (boss))))) |ET| 
-1  |BT| (ROOT (S (NP (JJ (first))(NN (day)))(PP (IN (of)))(NP (NN (work)))(VP (VBP (wish)))(NP (PRP (i)))(NP (NN (luck))))) |ET| 
-1  |BT| (ROOT (S (ADVP (RB (still)))(PP (IN (in)))(NP (DT (the))(NNS (wood))))) |ET| 
-1  |BT| (ROOT (S (NP (JJ (red))(NN (eye)))(NP (VBZ (be))(RB (then))(NNS (harri)))(NP (POS ('s))(NN (crab))(NN (house)))(PP (IN (with)))(NP (NN (mommy))(, (,))(NN (dad))(, (,))(NN (aunt))(NN (wonda)))(NP (NN (burnie))))) |ET| 
1  |BT| (ROOT (S (INTJ (UH (wow)))(VP (VB (have)))(NP (PRP$ (my))(NN (day)))(VP (VBN (take)))(NP (DT (a))(NN (turn)))(PP (IN (for)))(NP (DT (the))(JJS (worst))))) |ET| 
1  |BT| (ROOT (S (VP (VBZ (be))(VBG (watch)))(NP (DT (a))(NN (show)))(VP (VBN (call)))(NP (NNPS (americans))(NNP (cutest))(NNP (cats.what)))(VP (VBZ (have)))(NP (DT (this))(NN (county)))(VP (VBN (come)))(PP (TO (to))))(S (NP (PRP (they)))(VP (VBP (be)))(ADJP (DT (all))(RB (so))(JJ (cute))))) |ET| 
0.89119411096149636630769919065642  |BT| (ROOT (S (NP (WP (what))))(S (NP (DT (no))(NN (one)))(VP (VBD (win)))(NP (DT (the))($ ($))(CD (50))(CD (million))(NNP (lotto))(NNP (max)))(ADVP (RB (again))))(S (ADVP (RB (now)))(NP (PRP$ (its))(IN (up))(TO (to))($ ($))(CD (105))(CD (million))))(S (NP (JJR (more))(NNS (ticket)))(NP (JJR (more))(NNS (headache))))) |ET| 
-1  |BT| (ROOT (S (NP (NN (cleaning))(CC (and))(NN (homework))(NN (cleaning))(CC (and))(NN (homework))))(S (NP (NNP (hmm)))(NP (DT (this))(NN (pattern)))(VP (VBZ (seem)))(ADJP (JJ (familiar))))) |ET| 
-1  |BT| (ROOT (S (NP (NN (soduku))(CC (and))(NN (backgammon))))(S (NP (WP (what))(DT (a))(JJ (crazy))(NN (night)))(PP (IN (at)))(NP (DT (the))(NN (shore))))(S (VP (VBP (wish)))(NP (DT (the))(NN (neighbor)))(VP (MD (would))(VB (come))(VB (kill)))(NP (DT (the))(NN (cricket)))(NP (WDT (that)))(VP (VBZ (be)))(PP (JJ (outside)))(PP (IN (of)))(NP (PRP$ (my))(NN (window))))) |ET| 
-1  |BT| (ROOT (S (NP (DT (another))(`` ("))(NN (labor))(JJ (intense))('' ("))(CC (and))(JJ (long))(NN (week))))(S (NP (VBD (whew))))) |ET| 
0.93665112780188231056399672525004  |BT| (ROOT (S (VP (NNS (want)))(PP (TO (to)))(NP (VB (go)))(PP (TO (to)))(NP (NNP (shake)))(PP (IN (in)))(NP (NNP (tha))(NNP (park))(VBD (:{))(-LRB- (-lrb-))(-LRB- (-lrb-))(JJ (-lrb-))))) |ET| 
0.97286181230051538282310730210156  |BT| (ROOT (S (VP (VBG (go)))(PP (TO (to)))(NP (NN (gabby)))(NP (POS ('s))(NN (game)))(ADVP (NNS (2morrow)))(VP (NN (seehow)))(NP (PRP (she)))(VP (VBZ (kick)))(NP (JJ (soommeeee))(NN (butt))))) |ET| 
1  |BT| (ROOT (S (ADVP (WRB (how)))(NP (PRP (it)))(ADJP (JJ (possible)))(VP (TO (to))(VB (feel)))(ADJP (JJ (awesome))(CC (and))(JJ (awful)))(PP (IN (at)))(NP (DT (the))(JJ (same))(NN (time))))) |ET| 
-1  |BT| (ROOT (S (VP (VBG (go))(TO (to))(VB (go))(VB (eat)))(NP (NNP (yay))))) |ET| 
-1  |BT| (ROOT (S (SBAR (IN (if)))(NP (PRP (you)))(VP (MD (could))(VB (go)))(ADVP (RB (anywhere)))(PP (IN (in)))(NP (DT (the))(NNP (us)))(ADVP (WRB (where)))(NP (PRP (you)))(VP (VB (go))))) |ET| 
-1  |BT| (ROOT (S (VP (VBG (go)))(PP (TO (to)))(NP (DT (the))(NN (sub)))(VP (TO (to))(VB (eat)))(PP (IN (with)))(NP (NNS (danus))))) |ET| 
1  |BT| (ROOT (S (NP (NNP (girllll))(VBZ (that))(JJ (creamy))))(S (LST (CD (1))))) |ET| 
1  |BT| (ROOT (S (VP (VBG (babysit)))(NP (DT (the))(NNP (fearsome))(CD (4)))(NP (NN (today))))(S (ADVP (RB (so))(RB (far))(RB (so))(JJ (good))))) |ET| 
1  |BT| (ROOT (S (NP (DT (the))(NN (turuk))(NN (turuk))(VBZ (end))))(S (ADVP (WRB (why))))(S (NP (VBZ (:{)))(ADVP (RB (still)))(NP (DT (a))(JJ (bad))(NN (ass))(NN (weekend)))(VP (NN (tho))))) |ET| 
-1  |BT| (ROOT (S (VP (VBG (fuck)))(NP (NN (god)))(VP (RB (damned)))(NP (JJ (cunt))(NN (ass))(NN (mother))(VBG (fuck))(NN (bitch))(NN (ass))(VBP (fuck))(NN (face))))(S (NP (VB (suck))(PRP$ (my))(JJ (big))(JJ (fucking))(JJ (black))(NN (dick)))(NP (PRP (i)))(VP (VBP (wan))(TO (na))(VB (see)))(NP (DT (that))(NN (ass))(NN (clap)))(NP (NN (bitch))))) |ET| 
-1  |BT| (ROOT (S (NP (DT (the))(NNP (bed)))(VP (VBZ (be)))(NP (NNP (callin))(NNP (my))(NNP (name))))(S (NP (NNP (nite))(NNP (nite)))(VP (NNP (peeps))))) |ET| 
-1  |BT| (ROOT (S (NP (RB (only))(CD (2))(NNS (week)))(SBAR (VBP (til)))(NP (DT (the))(JJ (big))(`` ("))(NNP (c))('' ("))))(S (VP (VBG (order)))(NP (NN (carpet))(CC (and))(VBZ (shade)))(NP (NN (tomorrow))))(S (NP (NNP (tom)))(VP (MD (will))(VB (finish))(NN (painting)))(PP (IN (before)))(NP (DT (the))(NN (carpet))(NN (installation))))(S (NP (JJ (many))(JJ (other))(NNS (thing)))(NP (PRP (i)))(VP (VBP (want))(TO (to))(VB (get))(VBN (do)))(NP (IN (that)))(VP (VBP (be)))(ADJP (RB (even))(JJ (decorating-related))))) |ET| 
1  |BT| (ROOT (S (NP (NNP (giant))(NNP (condom))(VBP (size)))(VP (JJ (t67295)))(VP (VB (see)))(NP (DT (the))(NN (comment)))(PP (IN (below))))) |ET| 
1  |BT| (ROOT (S (VP (VBZ (love))(VBG (drive)))(ADVP (RP (around)))(PP (IN (with)))(NP (NNP (matthew)))(PP (IN (in)))(NP (DT (the))(NNP (camaro))(NNP (<))(CD (3))))) |ET| 
1  |BT| (ROOT (S (VP (VB (go)))(NP (NNP (pats)))(NP (NNP (brady)))(VP (VBZ (have))(VBN (find)))(NP (PRP$ (he))(NN (game))))) |ET| 
-1  |BT| (ROOT (S (NP (NNP (grandma)))(NP (VBZ (be))(JJ (b-day))(NN (today)))(VP (VBD (spend)))(NP (DT (the))(NN (day)))(PP (IN (with)))(NP (NN (fam)))(NP (NNP (boyfriend)))(NP (JJS (best))(NN (friend)))(VP (VBG (<)))(NP (CD (3))))) |ET| 
-1  |BT| (ROOT (S (NP (RB (sissy)))(VP (JJ (dog-holding)))(PP (IN (down)))(NP (NNP (james)))(NP (NNP (loki-watching))(NN (tv)))(NP (NNP (taytay-snoring)))(NP (NN (ocasta-stole)))(NP (PRP$ (my))(NN (chair)))(NP (JJ (me-laughing)))(PP (IN (at)))(NP (DT (the))(NN (bunch))))) |ET| 
-1  |BT| (ROOT (S (NP (NNP (trey))(NNP (songz)))(ADVP (VBP (jus)))(VP (VBN (kilt)))(NP (PRP (it)))(PP (IN (on)))(NP (DT (the))(NNP (bet))(NNS (award))))) |ET| 
1  |BT| (ROOT (S (NP (VB (paul))))(S (VP (NNP (come)))(NP (NNP (over))(CC (and))(NNP (play))(NNP (guitar))(NNP (hero))))(S (NP (NNP (we))(VBD (need)))(VP (TO (to)))(NP (NNP (jam))(NNP (out))))(S (VP (NNP (right)))(NP (VBD (meow))))) |ET| 
1  |BT| (ROOT (S (VP (VBZ (be)))(ADVP (NNP (sooooooooo)))(ADJP (JJ (ready)))(VP (TO (to))(VB (get)))(PRT (RP (off)))(NP (NN (work))))) |ET| 
0.97588080158433987421062738576438  |BT| (ROOT (S (NP (DT (this))(NN (chocolate))(NN (pie)))(VP (VBZ (be)))(NP (RB (yummy))(CD (:3)))(VP (NNS (tomorrow))(VBG (go))(TO (to))(VB (be)))(NP (NN (fun))))) |ET| 
-1  |BT| (ROOT (S (NP (PRP$ (my))(NN (dad)))(VP (VBZ (have)))(NP (DT (a))(NN (fb)))(NP (RB (just))(DT (another))(NN (way)))(VP (TO (to))(VB (keep)))(PP (IN (in)))(NP (NN (touch))))) |ET| 
-1  |BT| (ROOT (S (VP (VBZ (be)))(ADJP (VBN (wire)))(PP (IN (for)))(NP (NN (music))(NN (jury)))(NP (NN (piano))(NN (proficiency))))) |ET| 
-1  |BT| (ROOT (S (NP (PRP$ (my))(NN (room)))(VP (VBZ (be)))(ADJP (JJ (spotless))))(S (NP (VB (yay))))(S (NP (CD (51))(NNS (day))))) |ET| 
0.90734520457950917915468380670063  |BT| (ROOT (S (VP (VBD (have)))(NP (DT (a))(JJ (interesting))(NN (time)))(PP (IN (at)))(NP (NNS (lover)))(ADVP (RB (just))(JJ (now.oh)))(VP (NNS (chri)))(NP (PRP (you)))(VP (MD (will))(RB (not))(VB (know)))(NP (WP (what)))(VP (VBD (hit)))(NP (PRP (you))))) |ET| 
1  |BT| (ROOT (S (VP (VBD (get)))(NP (DT (a))(JJ (sunburned))(NN (back))(CC (&))(NNS (shoulder)))(PP (IN (at)))(NP (DT (the))(NN (reservoir))))(S (NP (FW (i)))(VP (VBD (put)))(PRT (IN (on)))(ADVP (NN (sunscreen))(RB (too))))) |ET| 
0.99900487774635970961156772318645  |BT| (ROOT (S (NP (JJ (*))(NN (sigh)))(SBAR (VBP (*)))(NP (PRP (i)))(VP (VBP (be)))(ADJP (JJ (sick)))(PP (IN (of)))(NP (DT (these))(NNS (scar)))(VP (RB (especially))(VBG (make)))(NP (PRP (it)))(ADJP (JJR (worse))))) |ET| 
-1  |BT| (ROOT (S (ADVP (RB (finally)))(VP (VBD (get)))(NP (DT (a))(NNP (ps3)))(ADVP (RB (now)))(VP (MD (will))(VB (play)))(NP (NNP (xiii))))) |ET| 
-1  |BT| (ROOT (S (NP (PRP (i)))(VP (VBP (be))(VBG (gon))(TO (na))(VB (make)))(NP (DT (some))(NNS (cookie)))(NP (FW (i)))(VP (VBP (do))(RB (not))(VB (know)))(NP (WP (what))(NN (flavor)))(VP (TO (to))(VB (make))))) |ET| 
-1  |BT| (ROOT (S (ADJP (RB (so))(NN (ive)))(VP (VBD (realize)))(PP (JJ (whats)))(NP (DT (the))(NN (point)))(PP (IN (in)))(NP (VBG (chase))))(S (NP (FW (i)))(VP (VB (give)))(PRT (JJ (up))))(S (SBAR (IN (if)))(NP (PRP (you)))(VP (VBD (want)))(NP (PRP (i)))(NP (PRP (you)))(VP (VBP (couldve))(VBD (have)))(NP (PRP (i))))) |ET| 
1  |BT| (ROOT (S (SBAR (IN (if)))(NP (NNS (action)))(VP (VBP (be)))(ADJP (JJR (stronger)))(PP (IN (than)))(NP (NNS (word)))(ADVP (WRB (why)))(VP (VBZ (be)))(NP (DT (the))(NN (pen))(NN (mightier)))(PP (IN (than)))(NP (DT (the))(NN (sword))))) |ET| 
0.93795025485750349591995700393454  |BT| (ROOT (S (NP (NNP (katie))(NNP (royal)))(NP (NN (everyone)))(VP (VBZ (know)))(PP (VBG (include)))(NP (PRP (i)))(SBAR (IN (that)))(NP (NNP (emily))(NNP (merrick)))(VP (VBZ (love)))(NP (PRP (i)))(ADJP (RBR (more))))(S (ADVP (RB (just)))(VP (VBP (admit)))(NP (PRP (it)))(ADVP (RB (seriously))))(S (NP (RB (hahaha))(DT (this)))(VP (VBZ (be)))(ADJP (NN (fun))))) |ET| 
0.92481112815070809496376114111627  |BT| (ROOT (S (NP (NNP (slippin)))(VP (VBZ (be)))(ADJP (JJ (easy)))(ADVP (IN (so)))(VP (VBP (do))(RB (not))(VB (forget))(TO (to))(NN (strap)))(PRT (IN (on)))(ADVP (JJ (tight))))) |ET| 
-1  |BT| (ROOT (S (NP (PRP (they)))(VP (MD (should))(VB (make)))(NP (DT (another))(NN (horror))(NN (movie)))(NP (NNS (baby)))(PP (IN (on)))(NP (DT (the))(NN (plane))))(S (NP (NNP (god)))(NP (PRP (i)))(VP (MD (would))(RB (rather))(VB (deal)))(PP (IN (with)))(NP (NNS (snake)))(NP (PRP (you)))(VP (MD (can))(VBP (twist)))(NP (PRP$ (they))(NNS (head)))(PRT (RP (off))))) |ET| 
-1  |BT| (ROOT (S (NP (PRP$ (its))(NNP (friday)))(NP (DT (this)))(VP (VBZ (have))(VBN (be)))(NP (DT (the))(JJS (longest))(JJ (short))(NN (week)))(NP (PRP (we)))(VP (VBP (have))(VBN (have)))(PP (IN (in)))(NP (DT (a))(JJ (long))(NN (time))))) |ET| 
-1  |BT| (ROOT (S (NP (MD (can))(NN (someone)))(VP (VB (tell)))(NP (PRP (i)))(NP (WP (what)))(NP (DT (the))(NN (meaning)))(PP (IN (of)))(NP (NN (life)))(VP (VBZ (be))))) |ET| 
1  |BT| (ROOT (S (NP (NNP (wish)))(SBAR (WDT (that)))(NP (PRP (i)))(VP (VBD (be)))(ADVP (RB (still)))(ADVP (RB (up))(RB (north))))) |ET| 
1  |BT| (ROOT (S (ADVP (RB (maybe)))(NP (PRP (you)))(VP (MD ('ll))(VB (find)))(PP (RP (out))))) |ET| 
1  |BT| (ROOT (S (NP (PRP (i)))(ADVP (RB (now)))(VP (VB (pronounce)))(NP (PRP (you)))(VP (NN (chuck))(CC (and))(NN (harry)))(NP (NNP (d))))) |ET| 
-1  |BT| (ROOT (S (NP (UH (ah)))(VP (VB (screw)))(NP (DT (this))(JJ (dumb))(NN (website)))(NP (PRP (i)))(VP (VBP (be)))(PRT (RP (out))))) |ET| 
-1  |BT| (ROOT (S (VP (VBP (sleep)))(NP (NN (wont))(VB (grace)))(NP (PRP (i))))) |ET| 
-1  |BT| (ROOT (S (NP (PRP (i)))(VP (VBP (be)))(ADVP (RB (officially))(JJ (bald))))) |ET| 
1  |BT| (ROOT (S (NP (VBN (relaxin)))(PP (IN (by)))(NP (DT (the))(NN (pool)))(PP (IN (with)))(NP (DT (the))(NNS (girl))))) |ET| 
1  |BT| (ROOT (S (VP (VBD (spend)))(NP (DT (the))(JJ (whole))(NN (day)))(VP (VBG (move)))(NP (JJ (heavy))(NN (stuff)))(PP (NNS (:{)))(NP (PRP$ (my))(NN (body)))(VP (VBZ (hurt))))(S (NP (FW (i)))(VP (VBD (get))(RB (ta))(VB (do)))(NP (DT (this)))(PP (IN (for)))(NP (DT (the))(NN (rest)))(PP (IN (of)))(NP (DT (the))(NN (week))))) |ET| 
1  |BT| (ROOT (S (NP (DT (a))(NN (date)))(VP (MD (can))(VB (be)))(NP (DT (the))(JJ (same)))(NP (DT (the))(NN (day)))(VP (VB (be))))) |ET| 
-1  |BT| (ROOT (S (PP (VBZ (llloooooooovvvvvveeeeeeesssssss)))(NP (DT (the))(NN (weather))))(S (NP (PRP$ (its))(JJ (beautiful))(NN (!!!!))))) |ET| 
-1  |BT| (ROOT (S (NP (NNP (gratification))(VBP (+))(NN (satisfaction))(SYM (=))(NNP (gratisfaction))))(S (NP (NNP (courtesy)))(PP (IN (of)))(NP (NNP (justin))(NNP (thomas))))(S (NP (JJS (best)))(VP (VBD (make)))(PRT (RP (up)))(NP (NN (word)))(ADVP (RB (ever))))) |ET| 
-1  |BT| (ROOT (S (NP (DT (another))(NN (day)))(VP (VBG (stand)))(ADVP (RB (around)))(PP (IN (like)))(NP (DT (a))(NN (idiot))))) |ET| 
1  |BT| (ROOT (S (NP (PRP (i)))(VP (VBP (think)))(ADVP (RB (therefore)))(NP (PRP (i)))(VP (MD (must))(VB (sleep))))) |ET| 
1  |BT| (ROOT (S (NP (PRP (i)))(VP (VBP (be)))(ADVP (RB (so))(JJ (thankful)))(PP (IN (for)))(NP (DT (the))(NNS (people)))(PP (IN (in)))(NP (PRP$ (my))(NN (life))))(S (NP (PRP (i)))(VP (VBP (love)))(NP (PRP (you)))(NP (DT (all))))) |ET| 
0.65729732768549709032157579713385  |BT| (ROOT (S (NP (WP (what)))(VP (VBP (be)))(NP (PRP (i)))(VP (VB (doin)))(NP (WP (what)))(VP (VBP (be)))(NP (PRP (i)))(VP (NN (doin))))) |ET| 
-1  |BT| (ROOT (S (NP (FW (i)))(VP (VBD (tell)))(NP (PRP (they)))(NP (PRP (it)))(VP (MD (would))(VB (rain))))(S (NP (RB (no))))(S (NP (PRP (we)))(VP (VBD (get))(VBN (soak)))(PP (IN (on)))(NP (DT (the))(NN (bridge))))(S (INTJ (UH (yes))))) |ET| 
-1  |BT| (ROOT (S (SBAR (IN (if)))(NP (PRP (you)))(VP (MD (can))(RB (not))(VB (beat)))(NP (PRP ('em))(VBP (arrange)))(VP (TO (to))(VB (have)))(NP (PRP (they)))(VP (VBN (beat))))) |ET| 
-1  |BT| (ROOT (S (NP (PRP (i)))(VP (NNP (wan)))(NP (NNP (na))(VBP (see))(NNP (tracy))(NNP (mcgrady)))(PP (IN (on)))(NP (NNP (tha))(NNP (bulls))(NNP (by))(NNP (thursday))))) |ET| 
1  |BT| (ROOT (S (NP (NNP (happy))(VBD (republic))(NNP (day))))(S (NP (NNP (connor))(NNP (paff)))(VP (VBZ (be)))(NP (DT (a))(JJ (evil))(NN (butthead))))(S (NP (NNP (p))))) |ET| 
0.94555165741080915431382436509011  |BT| (ROOT (S (NP (NN (revenge)))(VP (VBZ (be)))(NP (DT (a))(NN (dish)))(VP (RBS (best))(VBN (serve)))(NP (JJ (cold))))(S (NP (NN (revenge)))(VP (VBZ (be)))(NP (DT (a))(NN (dish)))(ADVP (RBS (best)))(VP (VBN (serve))(VBN (poison))))(S (NP (NNP (>:}))(NNP (hahaha)))(VP (VBD (swallo)))(SBAR (DT (that)))(NP (CD (one)))(PRT (IN (down)))(NP (PRP$ (my))(NN (friend))))) |ET| 
1  |BT| (ROOT (S (NP (VBD (lose))(DT (a))(NN (pint)))(PP (IN (of)))(NP (NN (blood)))(NP (WP (what)))(VP (VBZ (feel)))(PP (IN (like)))(NP (DT (a))(NN (pound)))(PP (IN (of)))(NP (NN (hair))))) |ET| 
-1  |BT| (ROOT (S (NP (NNP (this)))(VP (VBZ (be)))(NP (DT (a))(NNP (dear))(NNP (friends))(CD (1st))(NNP (child))(NNP (miss))(NNP (chloe))))(S (NP (NNP (cant))(NNP (wait)))(VP (TO (to)))(NP (VBP (see))(NNP (u))))) |ET| 
-1  |BT| (ROOT (S (NP (NN (ok))(FW (i)))(VP (VBP (be))(VBN (bore)))(PP (RP (out)))(PP (IN (of)))(NP (PRP$ (my))(NN (mind)))(ADVP (RB (now))))(S (ADVP (WRB (where)))(NP (PRP$ (my))(NNS (girl)))(PP (IN (at)))(NP (NN (tonight))))) |ET| 
-1  |BT| (ROOT (S (NP (EX (there)))(VP (VBP (be)))(NP (RB (too))(JJ (many))(NNS (man)))(PP (IN (in)))(NP (PRP$ (my))(NN (life)))(NP (WP (who)))(VP (VBP (fall)))(PP (IN (under)))(NP (DT (the))(`` ("))(JJ (bastard))('' ("))(NN (category)))(NP (NNP (p))))) |ET| 
1  |BT| (ROOT (S (NP (CD (11))(NN (working))(NNS (day)))(VP (VBD (leave))))(S (NP (PRP (i)))(VP (VBD (think)))(NP (PRP (it)))(VP (MD (would))(RB (never))(VB (arrive))))) |ET| 
0.90614645502261303988689178368077  |BT| (ROOT (S (NP (PRP (i)))(VP (MD (should))(RB (not))(VB (be)))(PRT (RP (up)))(NP (DT (this))(RB (early))))) |ET| 
1  |BT| (ROOT (S (NP (NNS (wikileak)))(VP (VBG (have)))(NP (RB (so))(RB (much)))(VP (TO (to))(VB (say))))) |ET| 
